%YAML:1.0
---
opencv_ml_svm:
   format: 3
   svmType: C_SVC
   kernel:
      type: LINEAR
   C: 2.9999999999999999e-01
   term_criteria: { epsilon:1.1920928955078125e-07, iterations:1000 }
   var_count: 7424
   class_count: 2
   class_labels: !!opencv-matrix
      rows: 2
      cols: 1
      dt: i
      data: [ -1, 1 ]
   sv_total: 1
   support_vectors:
      - [ 5.58287895e-04, 7.35347276e-05, 4.69624902e-05, 2.15081644e-04,
          -8.16200802e-04, 1.76323720e-05, -1.68046681e-05,
          1.34299910e-06, -6.30881186e-05, 1.36313674e-05,
          -2.28505978e-05, -2.61197260e-06, 1.67011705e-04,
          -6.92514868e-06, 4.10806570e-05, 1.86421858e-05,
          2.58638465e-04, -5.63558897e-05, -4.09266431e-05,
          -5.15327083e-05, -1.01689104e-04, 0., 5.79381185e-06,
          -8.30225254e-05, -1.50553227e-04, 9.42373590e-05,
          -4.93985135e-06, -1.24088605e-04, 6.32234209e-04,
          -6.00343992e-05, 5.59286273e-04, 3.35363206e-04,
          4.17985750e-04, 1.45245449e-05, 1.87108321e-06, 0.,
          5.77216906e-06, -3.07846932e-07, 1.36313674e-05,
          -1.68599890e-05, 0., 0., 0., 0., 9.22946401e-06, 0., 0., 0.,
          1.36673951e-03, 1.36860990e-05, 2.17197066e-05, 1.50504684e-05,
          3.50260234e-04, -5.29419449e-05, 1.38879868e-05,
          6.08995106e-05, 2.16818065e-04, -1.29546519e-04,
          -4.38004946e-07, -9.09169539e-05, 1.62447430e-03,
          -2.22782008e-04, 1.17289228e-03, -1.48891602e-04,
          -1.37148611e-03, -1.13747774e-04, -4.34148933e-05,
          1.09921166e-05, -1.81968950e-04, 9.81684025e-06,
          -3.33212165e-06, -1.87224050e-05, -5.38674904e-05,
          3.12454313e-06, 0., 3.53846444e-05, -6.46387198e-05, 0.,
          -6.54201358e-05, -1.64691392e-05, -2.81371813e-05, 0., 0., 0.,
          1.49833113e-05, 0., 0., 0., 0., -5.87574186e-06, 0., 0.,
          -1.35732698e-04, -8.66413175e-05, 0., -2.71600329e-05,
          1.25143258e-03, 1.17741474e-04, 1.65854071e-05, 2.97556267e-06,
          -1.55676069e-04, 0., 3.20496729e-05, 1.41227938e-05,
          6.44930469e-06, 0., 0., 0., -2.00021132e-05, 0.,
          -3.30812007e-04, -1.76550043e-06, -8.20749148e-04,
          9.42177503e-05, 5.63141214e-07, -8.04025240e-06,
          -1.61273874e-05, -6.89053695e-06, -1.86890364e-04,
          -1.03557955e-04, -4.85999626e-04, 8.86078560e-05,
          -1.24958251e-03, 6.59817888e-05, -1.38873025e-03,
          1.92680618e-05, 4.07948246e-04, -2.97332008e-04,
          -3.17931153e-05, 4.23922000e-04, -1.78365008e-05,
          2.32332677e-04, -4.65513876e-05, -4.42474011e-05,
          1.77771312e-06, -3.42517917e-04, 0., 0., 0., 0., 0.,
          1.58600196e-05, 2.57819120e-05, 3.96050382e-05, 1.54688387e-05,
          -5.14808089e-05, 0., 5.25794712e-05, -1.63366203e-05, 0., 0.,
          -8.22091679e-05, -1.59251940e-05, 3.88693734e-05, 0.,
          -6.03309782e-05, 7.01432800e-05, 8.53412203e-05,
          -2.26656302e-05, -8.82756285e-05, 0., 0., 0., -4.01751095e-05,
          0., 0., -5.87574186e-06, -4.54351757e-05, 0., 0., 0., 0., 0.,
          0., 0., 0., 7.55301007e-05, 7.36336224e-05, 0.,
          -8.26920132e-06, 0., 0., 0., 4.78578368e-05, -1.04483461e-05,
          -3.25903529e-05, 0., 7.59222166e-05, 7.71349514e-05,
          1.03467873e-05, -1.41509627e-05, -1.57303788e-04,
          -7.40564952e-04, 4.64816578e-04, -1.63943187e-04,
          -1.11875637e-03, 1.23226768e-04, -2.16218628e-04,
          -5.56979387e-04, -6.78616576e-04, -2.01993826e-05,
          -9.27972906e-06, -8.04812680e-06, -2.09688787e-05,
          -1.28493366e-05, 9.98427731e-06, 2.57819120e-05,
          1.15535600e-04, 9.19705490e-05, -4.48249484e-05, 0.,
          -8.00761245e-06, 0., 0., 0., 0., -3.71138321e-06,
          -1.82957319e-05, 0., 3.88298613e-05, -7.34811911e-05,
          1.07986880e-05, -1.94592485e-05, -2.89041869e-04,
          1.60907439e-04, 2.18548463e-03, 1.50466428e-06, 5.15548629e-04,
          -8.73532845e-05, 1.00008010e-05, 2.51305009e-05,
          3.06335387e-05, -4.14680944e-05, 1.06549916e-04, 0.,
          7.06053615e-05, -4.25572625e-06, 4.98226000e-05,
          2.39057863e-05, 5.91675162e-05, 6.33486343e-05,
          -1.93934204e-04, 0., -5.22186165e-04, -2.09784084e-05,
          -2.99681524e-05, -3.20874933e-05, -6.94950359e-05,
          -1.16140232e-04, 6.64124149e-04, 8.09581543e-05,
          -4.73018619e-04, -1.21987367e-04, 4.48597362e-04,
          4.87909478e-04, -1.37408148e-03, -4.87307552e-04,
          3.42952902e-04, -8.51950172e-05, -1.62548677e-04,
          -1.24438608e-03, 6.32111478e-05, -9.53921917e-05,
          -5.63722802e-04, -6.72139577e-05, 0., -2.88804385e-05,
          -2.52218870e-05, -7.48246312e-05, 4.90922430e-05,
          -4.35664731e-08, 1.05042709e-03, 5.86223614e-04,
          3.66507666e-05, 1.06723928e-05, -1.01617676e-04,
          1.66183963e-05, 0., 7.23997000e-05, 2.79451979e-05,
          3.95102630e-04, -5.64675938e-05, -4.09401218e-05,
          -7.65100340e-05, -1.30693923e-04, 1.95081120e-05,
          3.07633978e-04, -9.17618490e-06, 7.50979452e-05,
          1.15184002e-06, 0., 1.43662164e-05, 4.96223147e-05, 0.,
          4.52978493e-05, -6.25770408e-05, 0., 0., 0., 0.,
          -4.03478225e-05, 0., 0., 5.02947405e-05, 6.69941888e-04,
          5.61802772e-05, -2.06939876e-05, -1.02297836e-05,
          -5.16510554e-05, 4.34972844e-06, 2.74290960e-05,
          -5.65543269e-05, -2.08992846e-04, -6.68403754e-06, 0.,
          -3.96086125e-06, -3.47549154e-04, -2.36943015e-04,
          -6.49135618e-05, -5.78536419e-05, -9.46781947e-04,
          -5.35764848e-04, -6.74353214e-06, -2.27835767e-06,
          -2.78694788e-04, -8.49960725e-06, -7.18707888e-05,
          -1.43462705e-04, -2.28512927e-05, 3.54261356e-05, 0.,
          -3.55770135e-05, 5.08435478e-05, 2.17197066e-05,
          -6.37237463e-06, 5.43486058e-05, -3.96702635e-05,
          -1.13425131e-06, 0., 0., -3.15055186e-05, 0., 0., 0.,
          1.37947412e-04, 4.68110120e-05, 0., 0., 6.91427476e-06,
          -2.28505978e-05, -1.68599890e-05, -8.90239025e-05,
          -2.91074859e-04, 8.71156735e-05, -4.64132972e-05,
          2.33795799e-05, 3.36249977e-05, 0., -1.40591974e-05,
          -2.16887911e-05, -2.49982531e-05, 0., 1.65854071e-05,
          1.50466428e-06, 3.12327684e-05, 0., 2.07412333e-04,
          3.46354234e-08, 9.41589591e-04, 1.22321071e-04,
          -7.56895170e-05, -4.52142267e-05, 4.47226885e-05, 0.,
          -8.63328569e-06, 4.13418566e-05, 1.89240579e-03,
          -9.12061951e-05, -2.63340451e-04, -1.24569400e-04,
          -2.66488005e-05, 3.66884015e-05, 3.30945186e-05,
          -2.80916458e-04, 1.59639094e-04, 7.19643780e-04,
          -1.42204781e-05, -9.24283013e-05, 6.81654274e-06,
          1.53499728e-04, 4.04762322e-05, 1.87666074e-03, 0., 0.,
          -3.60819577e-05, -6.24294480e-05, 4.52978493e-05,
          -9.47624358e-05, 1.78061200e-05, 1.95432091e-04,
          1.80447805e-05, 1.30647750e-04, 0., -6.29151373e-07,
          2.24664018e-05, -6.02984119e-06, 0., 2.43870672e-05,
          8.59360989e-06, 0., 0., -1.82937896e-07, 0., 6.99007796e-06,
          -1.04170846e-04, -4.78688635e-05, 0., 8.23756000e-06, 0.,
          5.60995759e-05, 0., -1.68599890e-05, -1.17514837e-05,
          -9.71700647e-05, 0., 0., 0., 0., 0., 0., 0., 9.78851385e-05,
          0., -9.81559497e-05, 9.58397595e-06, 1.13226393e-04, 0.,
          7.80701157e-06, 0., -4.18216187e-05, 1.21026433e-05,
          1.48289246e-05, 0., 1.87529677e-05, -1.91577437e-05,
          -2.20314432e-05, -7.43183409e-05, -5.46405499e-05,
          1.02337071e-04, -4.60823590e-04, -4.15186194e-04,
          -8.71105760e-04, -1.60673953e-04, -7.56888112e-05,
          -6.97262120e-04, 4.07219020e-04, 3.07668743e-05,
          1.49833113e-05, 1.23334758e-05, 1.61668449e-05, 8.23756000e-06,
          1.35513765e-05, 5.51006524e-05, -1.55934700e-04,
          4.70188570e-05, -1.30637607e-04, 0., -6.38098936e-05, 0., 0.,
          0., 1.14903669e-05, 0., -9.11485622e-05, 0., -1.15234958e-04,
          -9.69958819e-06, -1.22432002e-05, 1.50466428e-06,
          -1.91307001e-04, 2.69223849e-04, 5.51002217e-04,
          2.51305009e-05, -8.90693336e-05, -8.16735628e-05,
          -1.79616345e-05, 3.98707889e-05, -4.25046339e-04, 0.,
          -4.03478225e-05, 0., 3.30258058e-06, 1.64879748e-05, 0.,
          -6.41744236e-06, 2.05739343e-05, 3.37399892e-03,
          -3.56164557e-04, 4.92154395e-05, 6.92511239e-05,
          -9.15680648e-05, -3.87593136e-05, 3.71723377e-06,
          -1.46420687e-04, 7.25144986e-04, -2.46832031e-04,
          5.31570040e-05, -9.23441083e-04, -2.20594709e-04,
          1.22132988e-04, 2.30777223e-04, -2.85460567e-03,
          1.08553271e-03, 2.97376711e-04, -4.29711690e-05,
          -4.67016507e-04, -5.37537679e-04, 1.76919610e-04,
          1.30803368e-04, -7.60531810e-04, 5.95057463e-05,
          1.65850943e-05, 3.25952533e-05, -8.74913021e-05,
          1.49729225e-04, 4.44940197e-05, 1.06426662e-04, 8.79112398e-04,
          1.18712010e-03, 5.75203157e-04, -3.18681086e-05,
          -1.40999706e-04, 8.24596718e-05, 0., 2.85526937e-07,
          -2.00165814e-05, -6.67537795e-04, 2.13892519e-04,
          -2.25650710e-05, -1.66630871e-05, -5.37498563e-04,
          -1.97083064e-05, -9.41628969e-05, 6.39732243e-05,
          1.10815226e-05, 8.52704852e-06, 0., 2.30765108e-05,
          -6.56023985e-05, 0., 0., 2.72429006e-05, 0., 0., 0., 0.,
          -1.95557423e-05, 0., 0., 3.17657104e-05, 4.19468357e-04,
          4.06039908e-05, -2.49982531e-05, 1.29433383e-05,
          2.27283708e-05, -6.85517953e-05, 3.67030188e-05,
          7.50813058e-07, 5.48008073e-04, -3.06708971e-04,
          -3.44773362e-05, -8.27433323e-05, -2.47895106e-04,
          -1.39941360e-04, -1.09184381e-04, 5.30893885e-05,
          -6.40498474e-05, -4.86863893e-04, 4.05553437e-05,
          -1.16346346e-04, -4.30048967e-04, 0., -7.81806011e-05,
          2.00434588e-05, 6.04782726e-05, 9.09682858e-05, 0.,
          4.09012173e-05, 1.06239975e-04, -1.08656377e-05,
          -1.69374136e-04, -1.68599890e-05, -4.02506157e-05, 0., 0., 0.,
          -1.63366203e-05, 0., 0., 6.29008646e-05, 4.25885555e-05,
          -1.91613744e-05, 0., 0., 1.76434296e-05, -1.20596824e-05,
          -5.72078134e-05, 0., 5.99181185e-05, -2.68819185e-05, 0.,
          1.65854071e-05, 6.70943882e-06, 0., 4.65432349e-05,
          2.33875089e-05, 1.50466428e-06, 0., 0., 0., -4.64708182e-06,
          0., -1.33024354e-04, -1.71507127e-05, -3.33400036e-04,
          -9.56271906e-05, -1.64600733e-05, -4.38715324e-05,
          -1.58485738e-04, 0., 4.97605606e-06, 9.91111574e-06,
          2.60453322e-03, 2.82160800e-05, -1.25367439e-03,
          4.00926183e-05, -3.06287198e-04, 1.88337017e-05,
          3.41705745e-04, 1.76250964e-04, -2.13937037e-05,
          4.98666312e-04, -2.46899458e-06, 2.14008644e-04,
          -9.43721316e-05, -1.15434937e-04, -5.16750845e-07,
          3.76240409e-04, 0., -3.60819577e-05, 0., 0., 1.13422138e-05,
          -7.36133588e-05, 1.18171165e-05, 7.95199376e-05,
          5.01393188e-05, -1.88881932e-05, 0., -1.36011695e-05, 0., 0.,
          0., -3.32542049e-06, 0., -4.52387576e-05, 0., 2.35206953e-05,
          -1.58033745e-05, -1.29408472e-05, -5.18011257e-05,
          -2.54579663e-05, 0., -6.77747012e-05, 0., 3.99753771e-05, 0.,
          0., -2.46899458e-06, 5.63184294e-05, 0., 0., 0., 0., 0., 0.,
          0., 4.04961756e-05, 0., 6.94191040e-05, 0., -5.79857442e-06,
          0., 0., 0., 1.00195968e-04, 0., 0., 0., 5.56190207e-05,
          -2.28505978e-05, 8.44391834e-05, -1.25383958e-04,
          -1.89535203e-04, -2.19528301e-04, -1.09144056e-03,
          -3.71144182e-04, -2.13220366e-03, 1.29534848e-04,
          2.67645851e-06, -7.14050606e-04, -3.40162020e-04,
          -5.87574186e-06, -7.76468914e-06, 0., -9.93503418e-05,
          -6.30233408e-05, -4.04571474e-05, 4.84373686e-06,
          -2.89356285e-05, 9.00759624e-05, -1.01508289e-04, 0.,
          8.53075278e-07, -7.70647944e-07, 0., 0., -1.24231417e-04,
          -3.10141695e-05, 0., 0., -8.94371351e-06, -5.75342028e-06,
          -2.72948782e-05, 1.83082211e-05, -1.99955291e-04,
          -2.19518814e-04, -3.52282688e-04, 3.94350755e-05,
          -9.72783164e-05, 9.00300511e-05, 2.74619597e-05,
          8.31947691e-05, -1.02814643e-04, 0., 6.39052405e-06, 0.,
          1.29162563e-05, 1.31979232e-05, -1.68907663e-05,
          5.92481265e-05, 1.10679946e-04, 2.38982402e-03, 8.04774754e-04,
          8.77886032e-06, -1.07134198e-04, 4.86455428e-05,
          -4.98063637e-05, 5.42197704e-05, 4.83563599e-05,
          8.30896373e-04, -6.45924883e-05, 7.16286650e-06,
          -2.06255689e-04, 4.70658939e-04, -2.36475425e-05,
          -3.21130137e-05, -9.79537261e-04, 1.38767413e-03,
          3.29588569e-04, -9.29607631e-05, 2.51561985e-04,
          -7.66489480e-04, -6.20899009e-05, 3.07371956e-04,
          4.15202929e-04, 5.39381233e-07, 1.61351509e-05,
          -6.02984119e-06, 2.05705037e-05, 3.94273375e-04,
          8.53833189e-05, 5.13362174e-04, 5.31069119e-04, 3.21440108e-04,
          6.46739363e-06, -1.94592485e-05, -5.24982534e-05,
          3.03079956e-04, 0., -2.31912963e-05, 9.00373416e-05,
          1.23080122e-03, -2.05847216e-04, -6.02984119e-06,
          -5.53068385e-05, 3.31609452e-04, -4.33354289e-05,
          1.02202198e-03, 3.36466474e-05, -7.78398608e-05, 0.,
          6.44930469e-06, 4.05553437e-05, 5.64544234e-06, 0., 0.,
          -2.75268212e-05, 9.22946401e-06, 0., 0., 0., -2.49982531e-05,
          0., 0., -8.10531219e-06, 2.31955550e-04, 5.53353675e-06, 0.,
          -7.05002731e-06, 1.41552504e-04, -2.88804385e-05,
          1.06394182e-04, 3.38499958e-05, 7.71078805e-04,
          -1.54640060e-04, 0., -4.08211508e-06, 2.46666744e-03,
          -2.40183377e-04, 6.96709554e-04, 1.03669081e-04,
          -8.67214985e-04, -1.61525255e-04, -7.08929520e-06,
          -1.29942578e-06, -6.34511700e-04, -3.96163341e-06,
          -6.31071161e-05, 1.16909221e-04, -4.74539775e-06,
          3.30928651e-06, 0., 4.45116093e-05, -1.36328470e-06,
          3.25039000e-05, -3.71068454e-05, 6.08267692e-06,
          4.66745405e-05, 0., 0., 1.18171165e-05, -4.31211629e-06, 0.,
          0., 0., 4.17448464e-05, 0., 0., 0., 4.57095412e-05,
          -2.41193648e-05, -4.43805147e-05, 2.54313795e-06,
          1.11201167e-04, -9.76770243e-05, -2.42607475e-05,
          8.12357393e-05, 7.16654831e-05, 9.58397595e-06, 1.24899481e-04,
          8.48189848e-06, 2.43697741e-05, 9.58397595e-06, 0., 0.,
          4.45099577e-05, 0., -3.72725801e-04, 7.51533435e-07,
          -9.31938819e-04, -3.95448587e-05, 3.72688701e-05,
          4.14456408e-05, -1.05472333e-04, 0., -4.68891463e-04,
          1.09850698e-05, -3.51036526e-03, 4.19049002e-06,
          -4.60132200e-04, -2.24613086e-05, 4.22961661e-04,
          1.60641466e-05, -3.00696001e-06, -1.43717873e-04,
          2.20652441e-06, 6.26494933e-04, -2.28505978e-05,
          6.34638593e-04, -1.62039632e-05, -1.99720180e-05,
          -6.85517953e-05, 3.31228250e-04, 0., 9.22946401e-06, 0.,
          1.03813045e-05, 2.24664018e-05, -2.07735338e-05,
          1.87108321e-06, 1.48998719e-04, 2.42757687e-05, 9.34655545e-05,
          0., 6.93024776e-05, 0., 0., 0., 8.01436909e-05, 0.,
          -1.63754303e-05, 0., 5.41215704e-05, 1.27595549e-05,
          7.15567512e-06, -9.62972626e-06, 1.10086694e-04, 0., 0., 0.,
          0., 0., 0., 1.48024701e-05, -8.52926605e-05, 0., 0., 0., 0.,
          0., 0., 0., 2.85526937e-07, -1.16152505e-05, 8.77828861e-05,
          0., -4.13348716e-05, 0., 0., 0., 1.11331519e-05,
          4.10100474e-05, -1.47181991e-05, 0., -3.38856466e-07,
          7.12076944e-05, -9.99943368e-05, -3.43986858e-06,
          3.97420581e-06, -5.06767887e-04, -1.16106065e-03,
          5.28294710e-04, 9.09888302e-04, 1.75417634e-04,
          -1.03984770e-04, -2.94773461e-04, 3.56506673e-04,
          -2.51117149e-06, 5.44183858e-05, 0., 5.81494423e-05,
          -6.57632409e-05, 2.64505925e-05, -2.15060481e-05,
          8.21809444e-05, 7.84021759e-05, 6.15663739e-05, 0.,
          1.38362238e-05, -3.24000939e-05, 0., 0., 1.03557995e-05,
          2.73096903e-05, -2.70924611e-05, 0., -2.80819113e-05,
          -2.35161897e-05, 9.43589293e-06, 8.59360989e-06,
          1.37622861e-04, -6.11237716e-04, -7.77064939e-04, 0.,
          -3.87068052e-04, -1.53070054e-04, -2.28757581e-05,
          3.01456912e-05, -3.65476444e-04, 3.74216643e-06,
          1.20599281e-04, 0., 1.03324353e-04, 3.40085644e-05,
          -3.89440720e-05, 2.63783909e-06, 1.35261871e-04,
          -1.08005526e-03, -1.38242997e-03, 0., 1.20366160e-04,
          -1.54739591e-05, 8.13549632e-05, 0., -4.75442139e-05,
          -5.97392849e-04, -7.67480000e-04, 4.34972844e-06,
          -2.83111411e-04, 5.31194673e-05, 3.87705295e-05,
          2.33265702e-04, -3.81280057e-04, -1.77479924e-05,
          9.98646428e-05, 8.80500102e-06, 3.04837216e-04,
          -8.74585021e-05, 1.71945449e-05, -5.96511643e-04,
          -3.58723686e-04, -9.11676125e-06, 0., -3.32154605e-06,
          -3.68905330e-06, 2.08273868e-05, 0., -1.56117574e-04,
          -2.90358985e-05, 4.27505642e-04, 2.97304223e-06,
          -3.64081779e-06, 1.26708241e-04, -5.17201852e-06, 0.,
          3.30258058e-06, -1.13469068e-05, 2.75924012e-05,
          -1.26876053e-04, -2.70903074e-05, -2.43117902e-04,
          -1.13248697e-03, 2.07344674e-05, -7.07556843e-04,
          -2.03371106e-04, 8.62886591e-05, 1.87108321e-06, 0.,
          1.60332802e-05, -8.71812153e-05, 0., 2.02716437e-05,
          2.31209415e-05, 0., 0., 0., 0., 5.38248969e-05, 0.,
          -1.28493366e-05, 9.22946401e-06, 8.76149163e-04,
          -1.06801446e-04, 4.45972400e-05, 6.16041871e-05,
          4.69600636e-05, 0., 5.17889530e-05, -3.16108271e-05,
          5.33186190e-04, -5.17697554e-05, 0., -4.42406781e-06,
          3.70004354e-03, -1.71826221e-04, 5.15239255e-04,
          -1.23733887e-04, -4.02170437e-04, -4.95866057e-04,
          3.38124846e-05, -7.45964717e-05, -6.83704682e-04,
          -3.62946666e-05, 1.39620897e-05, -5.66620984e-05,
          -2.32793150e-06, 1.03831799e-05, 0., -7.78646790e-05,
          -5.36083426e-05, 0., -1.65358724e-05, -3.28403148e-05,
          4.33041569e-05, -8.45771319e-06, 0., 0., 0., 0., 0., 0.,
          4.10881985e-05, -1.73694225e-05, 0., 0., -1.46146180e-04,
          -3.67507226e-07, 1.99061706e-05, -7.02835823e-05,
          2.83591944e-04, 1.65283331e-04, 0., 3.31655901e-05,
          -1.28264859e-04, 0., -3.60819577e-05, -1.14263667e-05,
          -1.94592485e-05, 0., 0., 0., 3.42216276e-06, 0.,
          -8.01668561e-04, -1.85373756e-05, -1.92770001e-03,
          -4.29516040e-05, 9.41571052e-05, 2.33565570e-05,
          -3.81469326e-05, -1.21091771e-05, -2.09320875e-04,
          -4.09266431e-05, -1.59513543e-03, 1.01502937e-05,
          -1.37305178e-03, 4.46993545e-05, -1.40417984e-03,
          6.59655125e-05, 7.76277520e-05, -1.17605894e-04,
          -4.17017764e-05, 3.85450170e-04, 1.48770505e-05,
          1.72882661e-04, -5.12047845e-05, -1.54652342e-04,
          4.28149360e-06, 1.42482575e-04, 0., 1.65854071e-05, 0., 0.,
          -1.18456446e-05, 1.11984064e-05, 0., 4.86053978e-05,
          2.69875381e-05, 8.92108728e-05, 0., 7.85222437e-05, 0., 0., 0.,
          3.32467971e-05, 1.65854071e-05, -1.30542430e-05, 0.,
          9.76394513e-05, 8.90744377e-06, 7.32269700e-06,
          -6.05132409e-05, -2.60112312e-04, 5.05861826e-05,
          -3.78862496e-05, 0., -1.43720320e-06, 0., 0., 0.,
          -4.36139271e-05, 0., 0., 0., 0., 0., 0., 0., 0.,
          -3.38446480e-05, 8.37464759e-05, 0., -8.12432609e-06,
          -1.55280977e-05, 0., 0., 1.47397495e-05, 6.22800189e-06,
          1.02427359e-04, 0., 3.17470040e-05, -4.35397633e-05,
          7.59271352e-05, 1.11439411e-04, 1.94186869e-04,
          -2.90253847e-05, 1.31401455e-03, 1.38425472e-04,
          4.92015062e-03, 5.17368935e-05, -1.21344776e-04,
          -1.48803607e-04, -5.76687278e-04, -2.49982531e-05,
          1.09095861e-04, -6.69000315e-07, -3.15059078e-05,
          3.56309320e-05, -8.96642305e-05, 2.24007417e-05,
          -5.54214581e-04, 8.59091324e-06, -5.29916178e-05, 0.,
          9.65860909e-06, 0., 0., 9.58397595e-06, 4.52978493e-05,
          -9.76981664e-06, 7.69531471e-06, 0., -5.07388213e-05,
          -6.48579953e-05, -1.91595245e-05, 7.75989520e-06,
          -1.03249411e-04, 2.94022211e-05, 4.71097743e-03, 0.,
          6.55612792e-04, -1.67338905e-04, -1.10044721e-05,
          1.80900715e-05, -2.18705754e-04, 2.63560414e-05,
          1.64669298e-04, 0., 2.66059578e-05, 2.26502380e-05,
          -5.88456260e-06, 3.59245569e-05, 8.38846463e-05,
          5.47104806e-04, -2.30192265e-04, 0., -5.65212540e-05,
          -1.50483829e-05, -3.40878578e-05, 4.34972844e-06,
          -2.96362414e-04, -1.70094121e-04, -7.49671424e-04,
          -1.23338677e-05, -5.23120339e-04, -3.44638043e-04,
          8.80566658e-05, 5.36247913e-04, -3.76623450e-03,
          8.30712263e-04, 7.86455465e-04, 4.35378115e-06, 4.05113788e-05,
          -4.97937552e-04, 8.72397795e-05, 1.16318799e-04,
          8.82857785e-05, 1.33700189e-04, -4.03478225e-05,
          -2.09055042e-06, -1.42347735e-05, -2.11576727e-04,
          -3.18534294e-05, 5.92379423e-04, 3.64382548e-04,
          2.85034679e-04, 1.67866674e-04, -2.45696924e-06,
          -5.43036294e-05, -4.12344889e-05, -1.94592485e-05,
          1.41164119e-05, 1.64756420e-05, 5.31698752e-05, 5.66882081e-05,
          2.32168986e-05, -9.36706347e-05, -3.60341364e-04,
          5.84593181e-05, 3.93476308e-04, 4.97563684e-04, 1.00034253e-04,
          -2.02439151e-05, 0., -3.32957134e-05, -6.73070599e-06, 0., 0.,
          1.60384534e-05, 0., 0., 0., 0., 0., 0., 2.08681740e-05,
          1.78289920e-05, 3.51188326e-04, -1.87842343e-05, 0.,
          3.25566980e-05, -2.12183440e-05, 0., 3.17712420e-06,
          9.61816186e-05, 4.20774915e-04, -1.55918504e-04,
          3.30258058e-06, -1.44069136e-05, 5.93713012e-05,
          -2.90519587e-04, 1.09546214e-04, 6.18270351e-05,
          -8.38505162e-04, -3.56413948e-04, -3.05840258e-05,
          -9.45376305e-05, -5.26350341e-04, -2.91303350e-05,
          -7.20075404e-05, -2.41499525e-04, 2.13638396e-05,
          -5.22765959e-06, 0., -3.68717119e-05, -4.22310441e-05,
          -2.95403902e-06, -6.78815513e-06, 5.89670017e-05,
          3.37842744e-06, 0., 0., 0., -4.03478225e-05, 0., 0., 0.,
          7.25044665e-05, -2.00982486e-05, 0., -4.77208196e-05,
          -1.60174124e-04, 0., 2.48786563e-07, -1.79810559e-05,
          2.52354250e-04, -1.69863670e-05, 0., 4.42914170e-05,
          5.63846042e-05, 0., -2.93569392e-05, 1.88881259e-05, 0., 0.,
          0., 0., -1.12027010e-06, 0., -4.43486439e-04, -9.12884425e-05,
          -3.99963377e-04, 8.09748090e-05, 7.31784075e-06,
          -1.02648904e-04, 5.90423952e-05, -4.54351757e-05,
          1.58028834e-05, -3.76302087e-05, 1.88520833e-04,
          1.05053332e-05, -5.51533944e-04, -6.82723403e-05,
          -1.18491857e-03, -5.61017769e-05, -1.66927610e-04,
          -3.11545067e-04, 2.78837775e-04, 1.18304417e-03,
          -1.77600555e-06, 4.02423000e-04, -9.91625202e-05,
          2.55892723e-04, 5.66400631e-05, 2.53927591e-03, 0.,
          1.65854071e-05, 0., 8.23756000e-06, 1.40062662e-06,
          2.28878398e-05, 0., 9.00648767e-04, 4.15889699e-05,
          5.66614508e-05, 0., 2.27768160e-05, -4.64132972e-05, 0., 0.,
          -1.03010934e-04, 0., -4.09266431e-05, 0., 2.03559630e-05,
          -6.43186941e-05, 2.59218923e-05, -2.18828882e-05,
          4.40454925e-04, 0., -2.85307069e-05, 0., 5.64282382e-05, 0.,
          -3.07063237e-05, -1.84132466e-06, 9.52069022e-05, 0., 0., 0.,
          0., 0., 0., 0., 1.27603489e-04, 1.71784668e-05, 2.19235262e-05,
          0., 3.24286775e-05, 0., 0., 0., -4.14719863e-04, 0.,
          4.05553437e-05, 0., 5.93770237e-05, -5.37759770e-05,
          -1.91916956e-06, -4.22907506e-05, -2.09416583e-04,
          5.28012402e-04, -6.95504365e-04, -3.51707713e-04,
          -1.58275780e-03, -1.25252584e-04, 3.35128425e-05,
          -1.36759982e-03, -1.01825688e-03, 0., 9.74544946e-06,
          -1.82745061e-05, -3.48254252e-05, -2.22123617e-05,
          -3.06329239e-05, -1.48839199e-05, -1.06371335e-04,
          7.61349002e-05, -7.07909276e-05, 7.51533435e-07,
          -1.66627430e-07, 3.30258058e-06, -3.79966223e-05, 0.,
          4.49569234e-06, 1.27657724e-04, 8.01230613e-07, 0.,
          5.74582664e-05, 3.67007597e-05, -2.83822756e-05,
          2.57819120e-05, -2.98175466e-04, 3.14479665e-04,
          6.18004473e-04, -1.12027010e-06, -1.13022164e-04,
          -2.10310522e-04, -1.69139803e-05, 2.02512329e-05,
          1.62098964e-04, 0., 2.61693822e-05, 0., 6.39052405e-06,
          8.29572746e-05, 0., -4.74725784e-05, 2.60475965e-04,
          1.21360132e-03, -1.67201113e-04, 4.21867699e-05,
          6.45611959e-04, 4.64429650e-06, -2.99289622e-05,
          -4.35119473e-05, 4.68855549e-04, 6.92122383e-04,
          -2.71168014e-04, 7.08079970e-05, -3.30185343e-04,
          -5.64140093e-04, -1.46778650e-04, 5.64714028e-05,
          -2.19396688e-03, 9.77659714e-04, 3.51731403e-04,
          3.37038073e-05, 4.96402732e-04, -1.74711662e-04,
          -3.02932731e-05, -1.97496411e-06, 4.77794732e-04,
          1.96272711e-04, -3.23453378e-06, 0., 2.81933808e-06,
          1.45357350e-04, 6.19498096e-05, 4.07413347e-04, 1.84660847e-03,
          3.33459029e-04, -5.82742587e-06, 8.36029649e-05,
          -1.10467285e-04, 6.46072076e-05, 0., -1.54198478e-05,
          8.97405844e-05, 1.88340913e-04, -1.25971783e-04, 0.,
          -3.05665599e-04, 1.49963496e-04, -2.24632877e-05,
          4.12263471e-04, 5.67356707e-04, 4.88620972e-05, 1.00055775e-06,
          0., 9.22358322e-06, 3.13346500e-05, 2.85526937e-07, 0.,
          -2.43915929e-05, 0., 0., 0., 0., -2.95403902e-06, 0.,
          2.97090392e-05, 3.25045403e-05, 6.88044762e-04, 8.17653126e-05,
          1.87108321e-06, 3.25039000e-05, -4.19631542e-05, 0.,
          4.87027537e-05, 7.88035177e-05, 2.76465842e-04, 2.68815384e-05,
          5.28833289e-06, -3.02754688e-06, -7.05796469e-04,
          -3.28531023e-04, 3.57103447e-04, -9.64358260e-05,
          -6.63530896e-04, -5.09718782e-04, -3.67610664e-06,
          -8.15729800e-05, -3.53977521e-04, 1.23420414e-05,
          -9.21131868e-05, 3.72923896e-05, -1.21909645e-04,
          -5.82957910e-06, 0., -2.69812681e-05, 1.71393833e-06,
          -2.46899458e-06, -1.79447561e-05, 1.92407060e-05,
          3.09398456e-05, -1.94592485e-05, 0., 0., 4.52978493e-05, 0.,
          0., 0., 1.70608793e-04, -7.04334307e-05, 0., -4.31211629e-06,
          -7.36059083e-05, -1.14718750e-05, 5.53725113e-06,
          4.18220297e-05, -1.26052091e-05, -8.15050807e-05,
          4.05553437e-05, -5.30549642e-06, -2.04299155e-04, 0.,
          -9.46130149e-06, 1.50733176e-05, 6.68059365e-05, 0., 0., 0.,
          6.82536484e-05, 0., -5.08934667e-04, -1.57292889e-05,
          -8.15296895e-04, -6.10586358e-05, 4.47927187e-06,
          3.89347260e-05, -7.75090957e-05, 0., -1.87683603e-04,
          1.91365816e-05, 3.55217815e-03, 4.27088298e-06,
          -6.73568225e-04, 5.60172411e-05, -2.95158592e-04,
          -4.57204396e-06, -9.93398953e-06, -3.45754015e-05,
          -4.57116948e-06, 8.68185365e-04, 1.59164065e-05,
          1.36292272e-03, 4.09423155e-05, -3.77393044e-05,
          1.18171165e-05, 2.81148497e-03, 0., 0., 0., 1.15184002e-06, 0.,
          -2.82104720e-05, 0., 8.31403944e-04, -9.82641268e-06,
          3.90518071e-05, 0., 6.68545763e-05, 0., 0., 0., 6.46542758e-05,
          3.43749853e-05, 2.87154871e-05, 0., -7.85945485e-06, 0.,
          7.03296027e-05, -1.15599514e-05, 6.81267993e-05, 0., 0., 0.,
          3.04744863e-05, 0., 0., 2.34055060e-05, 3.01719469e-04, 0., 0.,
          0., 0., 0., 0., 0., 8.26596224e-05, -6.43055546e-06,
          1.59946183e-04, 0., -2.43996619e-05, 0., 2.42757687e-05, 0.,
          4.00175850e-05, 6.44070096e-05, 5.26811236e-05, 0.,
          7.17395378e-05, -4.30401924e-05, 5.20561262e-05,
          -8.29746023e-06, -4.58416122e-04, -6.30983268e-04,
          -1.19679421e-03, -5.45215269e-04, -1.01886073e-03,
          2.87530729e-05, -1.21979436e-04, -1.27485499e-03,
          3.78230499e-04, 3.88035623e-05, 3.69838854e-05, 0., 0.,
          8.22701804e-06, -9.52098053e-05, 0., 4.60153271e-04,
          2.84950129e-05, 5.87091563e-05, 0., 2.60534816e-05, 0., 0., 0.,
          1.37472571e-05, 1.16277406e-05, 1.44004962e-05, 8.52704852e-06,
          5.07197656e-05, 3.40245060e-05, 2.92184668e-05, 0.,
          -2.87805051e-05, -1.04066404e-03, -7.57448899e-04,
          -4.97472902e-05, -1.13482424e-03, -6.23922460e-05,
          3.46268280e-05, 0., -1.01232356e-04, -1.82024869e-05, 0., 0.,
          5.28833289e-06, 4.12110130e-05, 0., 2.02967749e-05,
          4.47276216e-05, -9.75794217e-04, -1.99538958e-03,
          3.77357137e-05, -5.06700644e-06, -1.60577702e-06,
          -4.63587166e-05, 1.26342238e-05, -1.13498209e-04,
          -1.25408667e-04, -7.52956897e-04, -9.28093050e-06,
          -5.90523181e-04, -4.32642410e-04, -1.39872602e-04,
          5.36729291e-04, -1.08586578e-03, 1.38773757e-03,
          1.52893318e-03, 1.05904131e-04, 6.24002132e-04,
          -8.72405129e-04, 5.36566904e-06, -4.28223429e-05,
          -2.46645155e-04, 4.24949540e-05, 2.89612290e-05, 0.,
          -1.58923831e-05, -2.74701830e-04, 3.04965815e-05,
          5.47570991e-04, 4.46052843e-04, 6.35957636e-04, 3.81453632e-04,
          0., 3.36886769e-05, -2.79596406e-06, 5.28833289e-06,
          1.13010195e-04, -2.56652493e-05, -4.92968655e-04,
          -1.98086836e-05, -4.41635348e-05, 4.02906699e-05,
          -2.34928069e-04, -1.47041836e-04, 7.53728964e-04,
          3.87061387e-04, 1.55101661e-05, -1.12027010e-06, 0., 0.,
          -2.40948048e-05, 0., 2.90452062e-05, 3.26893723e-06, 0., 0.,
          0., 0., -2.64979808e-05, 0., 0., 4.52978493e-05,
          4.93510277e-04, 1.48042488e-06, 0., 1.13422138e-05,
          -3.97906588e-05, 0., 3.78120749e-05, 4.61909221e-05,
          -2.97249039e-06, -4.49566869e-04, 7.50935715e-06,
          -1.84586897e-05, -2.12916988e-03, -3.59334110e-04,
          8.03276140e-04, -8.72955061e-05, -5.74005186e-04,
          -3.85251595e-04, -3.84249433e-05, -1.81406413e-05,
          -5.73778700e-04, 3.30258058e-06, 2.63804577e-05,
          -5.30778707e-05, 6.66439810e-05, 5.92037668e-06, 0.,
          2.70465534e-05, -6.10247698e-05, 0., -6.08295304e-05, 0.,
          5.05552234e-05, 0., 0., 0., 5.25070354e-05, 0., 1.65854071e-05,
          1.15184002e-06, 1.35948294e-05, -4.38004946e-07, 0., 0.,
          -6.69313304e-05, -3.17847662e-05, -1.12027010e-06,
          5.74482838e-05, -6.57441851e-05, -8.74841498e-05, 0.,
          -4.09266431e-05, 7.10309687e-05, 0., -1.31456873e-05,
          -4.24401878e-05, 6.44930469e-06, 0., 0., 0., 1.69667430e-04,
          0., -6.38363708e-04, 0., -4.71842010e-04, -1.63908098e-05,
          2.77609597e-05, -7.68852624e-05, -2.15991167e-04, 0.,
          -7.27532315e-04, -5.00785802e-07, -4.72242042e-04,
          8.73321114e-05, -1.31379382e-03, -4.36776390e-05,
          -2.00180709e-03, -4.01974139e-05, -2.91450327e-04,
          -2.94018082e-05, -1.64857865e-05, 4.98553272e-04,
          -4.38004946e-07, 7.71517749e-04, 6.57867815e-07,
          -1.98392823e-04, 1.13422138e-05, -6.72747963e-04, 0.,
          6.39052405e-06, 0., 7.47333979e-06, 4.24747523e-05,
          2.17197066e-05, 2.30347123e-05, 4.42344783e-04,
          -1.03221964e-06, 1.23945880e-04, 0., 7.79202528e-05, 0., 0.,
          0., -1.63288260e-05, 1.25872884e-05, 1.87108321e-06, 0.,
          8.67619383e-05, 4.20650722e-05, -1.58120292e-05,
          3.78349941e-05, -7.53036220e-05, 0., 1.95757111e-05, 0.,
          2.12450232e-05, -2.78189873e-06, 0., 0., 2.77291365e-05, 0.,
          0., 0., 0., 0., 0., 0., 0., -4.54351757e-05, 1.63773191e-04,
          0., -1.67229118e-05, 0., -4.09266431e-05, 0., 5.74643927e-05,
          -6.29877613e-05, 3.66222521e-05, 0., 1.15677758e-04,
          1.02025813e-04, -8.58347848e-05, -8.85677873e-05,
          -6.19430852e-04, -5.77558007e-04, 4.76958376e-04,
          -7.06388906e-04, 2.95847515e-03, -2.91549251e-04,
          1.04502091e-04, -1.26639358e-03, 3.80247133e-04,
          2.34055060e-05, 2.12450232e-05, 2.34055060e-05, 4.28383646e-05,
          2.29759298e-05, -1.87695005e-05, 5.78327272e-05,
          2.90137337e-04, 9.83017799e-06, 2.56544554e-05, 0.,
          8.92821408e-05, 0., 0., 0., 8.88950599e-05, -1.29408472e-05,
          0., 0., 2.81735684e-05, 1.77771312e-06, 1.13518699e-05,
          5.79940606e-05, -3.63186336e-05, 1.49099869e-04,
          1.26381055e-03, 1.49833113e-05, 1.22199196e-03,
          -1.26597646e-04, -2.16803960e-06, 7.63328717e-06,
          6.51380742e-06, -5.30244433e-05, -4.54351757e-05, 0.,
          1.33178313e-04, 1.19921187e-05, 7.09047090e-05, 6.03498920e-05,
          3.42961692e-04, 4.60222625e-04, -6.13220036e-04,
          1.18171165e-05, -1.81315234e-04, -3.80064057e-06,
          -5.29419449e-05, -9.93319190e-06, 1.56002905e-04,
          3.09683150e-04, 1.33423688e-04, 4.57171991e-05,
          -1.21378289e-04, -3.21066560e-04, 9.62192062e-05,
          3.10987263e-04, -1.13790971e-03, 9.71664558e-04,
          1.96758396e-04, -9.61398109e-05, -7.02450998e-05,
          -2.73008365e-04, -5.85323287e-05, -9.35751945e-04,
          3.35662517e-05, 9.65131476e-05, -3.52479510e-05,
          -8.95737230e-06, -3.22557535e-05, -9.09273658e-05,
          1.36730683e-04, -1.20664008e-04, -2.57530803e-04,
          5.73963393e-04, 4.58893250e-04, 1.27579842e-05,
          -1.50224500e-04, 1.02743121e-04, 1.94971271e-05,
          7.77950554e-05, -1.54360969e-04, -7.47145910e-04,
          9.09805167e-05, -1.03014021e-03, -1.72980712e-04,
          -4.26580635e-04, -1.38606789e-04, -7.00020464e-05,
          -9.49023932e-04, 5.13453051e-05, 7.10609675e-05,
          9.58397595e-06, 9.22946401e-06, 3.02906356e-05, 0., 0.,
          -2.95403902e-06, -2.72871712e-05, 0., 0., 0., 5.31224177e-05,
          -1.83074080e-05, 4.05439641e-05, 7.79517541e-06,
          6.05681387e-04, -1.84910576e-04, 1.62395445e-05,
          4.91839746e-05, -3.73236398e-05, 0., 3.30432813e-05,
          2.45120209e-05, 1.95544126e-04, -2.96263490e-04,
          5.60090230e-05, -3.17071186e-04, -8.44394381e-05,
          -1.34360744e-04, -9.52835981e-05, 1.36288741e-04,
          1.16150208e-04, 1.49465384e-04, 4.07304060e-06,
          -7.16132854e-05, 2.32295395e-04, 2.31133999e-05,
          4.13323141e-05, 7.97894536e-05, 5.89568890e-06,
          -3.90464083e-05, -1.03591101e-05, 0., 1.43390658e-04,
          -3.72022259e-05, -1.11639714e-07, 5.13656305e-05,
          1.67289818e-05, -1.60686432e-05, 0., -3.96163341e-06,
          -4.92944928e-05, 0., 4.78591355e-05, -4.64132972e-05,
          -3.87897526e-05, -2.05738479e-06, 0., 0., 1.87593672e-04,
          -2.28505978e-05, -7.22844634e-05, 1.05428328e-04,
          6.09443756e-04, 3.02589178e-04, -3.42108724e-05,
          -7.70647944e-07, -3.72834711e-06, 1.11417739e-06,
          9.53997951e-05, -8.59854626e-05, 6.95784256e-05,
          1.13422138e-05, 0., 0., 9.78424214e-05, -6.45333694e-06,
          -6.60355290e-05, 3.75774325e-05, 1.61208824e-04,
          -6.56560005e-05, 4.97848087e-05, -6.06722142e-06,
          1.20677250e-04, 0., 1.39544616e-04, -2.30077912e-05,
          9.12784191e-04, -8.89532676e-05, -4.40682416e-05,
          9.40545851e-06, 6.76714291e-04, -2.13092262e-05,
          2.99927196e-04, 3.31670344e-05, -1.38498639e-04,
          2.90948781e-04, 0., -5.89952724e-05, -6.49154254e-06,
          8.69271680e-05, 6.39052405e-06, 5.28699427e-04, 0., 0., 0.,
          -4.09266431e-05, 0., -2.80782897e-05, 9.13179065e-07,
          -9.75732619e-05, -1.30228273e-05, 1.04833452e-05, 0.,
          1.87108321e-06, 0., 0., -4.09266431e-05, 1.62061515e-05,
          6.44930469e-06, -5.39689572e-05, 0., 1.80447805e-05,
          -4.28342173e-05, -4.20217475e-05, -1.41209534e-06,
          -1.82228949e-04, 0., -2.93569392e-05, 0., 0., 0., 0., 0.,
          8.59360989e-06, 0., 0., 0., 0., 0., 0., 0., 6.53280586e-05,
          1.19150454e-05, -5.90706550e-05, 0., 1.05814854e-06,
          3.86250940e-05, 0., 1.15184002e-06, 2.61315677e-06,
          1.77327383e-05, 1.17765332e-04, 0., 2.12450232e-05,
          -1.08665517e-04, 3.55542625e-06, 5.16928012e-05,
          2.88256502e-04, -1.23516802e-04, 6.09135241e-05,
          1.16638366e-05, 1.69304782e-04, 8.03312505e-05, 5.61794950e-05,
          8.62296874e-05, 1.14154420e-04, 1.16638366e-05, 1.15184002e-06,
          0., 2.12450232e-05, -1.46893126e-06, -6.01303727e-05,
          -3.85952771e-05, -8.63314126e-05, -2.05859469e-04,
          -1.39978962e-04, 0., -4.87625839e-05, 0., 0., 0.,
          4.13362141e-05, 2.94054662e-05, -1.62126926e-05, 0.,
          -5.08585217e-05, 2.10409871e-05, -7.26068611e-05,
          4.44970865e-05, -7.12970650e-05, 2.55772669e-04,
          -3.05901573e-04, -4.07279804e-05, -4.29751453e-05,
          4.06217659e-05, -4.92811560e-05, -1.00475510e-04,
          1.03632570e-04, -6.97447977e-05, 8.49428980e-05, 0.,
          7.23468975e-06, -2.51394977e-05, 8.26195101e-05,
          -1.32779081e-04, 1.80217074e-04, -1.86563039e-03,
          -4.10611217e-04, -3.96163341e-06, 1.04486739e-04,
          4.42179735e-05, 2.55686391e-05, 4.46956074e-05,
          -1.93636617e-04, 1.81623851e-04, 8.35320621e-04,
          -5.86943752e-05, 2.91111937e-04, 4.02264297e-04,
          3.89591907e-04, 8.42441077e-05, -1.46559381e-03,
          2.25575088e-04, -4.89605416e-04, 7.69164908e-05,
          -4.35534785e-05, -2.74837657e-04, -2.98352879e-05,
          -8.05332675e-05, 3.07037320e-04, 2.98760606e-05,
          1.42202007e-05, -5.94412268e-06, 5.28107375e-05,
          7.65347941e-05, 6.00750318e-05, -1.16182910e-03,
          -2.49335240e-03, 1.47838099e-03, 3.77076241e-04,
          -2.20510101e-05, 3.79961857e-05, -8.41191795e-05,
          3.03600536e-05, 6.26365945e-05, -1.86710662e-04,
          -1.56343071e-04, -7.57825474e-05, -1.45659124e-05,
          1.70772710e-05, -1.75243069e-04, -2.14184129e-05,
          8.23328504e-04, 1.25737977e-04, -2.62531685e-05,
          1.52806297e-05, 0., -2.11223487e-05, 3.86250940e-05, 0.,
          -1.28493366e-05, -7.27601355e-06, 0., 0., -3.96163341e-06, 0.,
          2.97582301e-05, 0., 1.65854071e-05, -8.54653335e-05,
          -2.62145506e-04, 1.16615156e-04, -5.87574186e-06,
          -8.83430184e-05, 6.57634155e-05, -2.93569392e-05,
          -1.19055831e-05, 9.58397595e-06, 1.88113379e-04,
          -7.01564131e-05, 1.07016676e-05, -2.54179922e-05,
          5.01615694e-04, 2.61754158e-05, 1.62359778e-04,
          -2.29000798e-04, -3.45945416e-04, -4.20694560e-05,
          -2.34928552e-06, 2.97108290e-05, 8.20685818e-05,
          3.34170800e-05, 1.45377475e-04, -1.29389518e-04,
          -1.84132466e-06, -3.07846932e-07, 0., 0., 7.18748834e-06, 0.,
          -8.57575797e-05, -4.19627431e-05, 3.81534846e-05,
          -1.76910453e-05, 2.26045950e-06, 1.18171165e-05,
          2.02716437e-05, -1.63366203e-05, 8.24501603e-06,
          -1.12027010e-06, 0., 0., 0., -2.14038391e-05, 4.66816455e-05,
          1.50429150e-05, -5.78260324e-06, -1.16234281e-04,
          4.40805627e-04, 4.03160630e-05, 1.13422138e-05, 8.90245974e-06,
          -2.19565045e-04, 6.39052405e-06, 4.61470627e-05,
          -8.10545316e-06, -1.23338677e-05, 0., 0., 0., 1.75783527e-04,
          -3.96778023e-06, 9.07047308e-07, 5.22853370e-05,
          9.13053111e-04, 1.95045268e-05, 2.88463525e-05, 8.24501603e-06,
          -3.24930479e-05, 2.27691617e-05, -2.74858558e-05,
          3.12466946e-05, 2.78584688e-04, 3.53408504e-05, 0.,
          -3.40654733e-05, 3.73820512e-04, -1.50166770e-05,
          5.62088098e-04, -7.47785147e-04, -5.45496296e-05,
          -1.36057221e-04, 0., -1.81585157e-04, -1.68599890e-05,
          5.31990281e-06, -4.64410659e-05, -3.32463969e-04, 0.,
          3.89213128e-05, 0., -1.23338677e-05, 2.34055060e-05,
          1.77771312e-06, 1.72815962e-05, -1.14917668e-04,
          4.08962260e-05, 7.05383791e-05, 0., 1.69194627e-05, 0.,
          -1.58923831e-05, 0., -9.86602299e-06, 0., -1.42811712e-06, 0.,
          2.33129176e-05, 5.88719013e-05, 5.98596716e-06, 2.83883105e-06,
          -2.13106105e-04, 0., -2.54179922e-05, 0., 0., 0., 0., 0.,
          1.77771312e-06, 0., 0., 0., 1.48024701e-05, 0., 0.,
          8.59360989e-06, 3.20976324e-05, 2.80118402e-05, 6.16196166e-06,
          -1.68599890e-05, 1.25283996e-05, 0., 0., 0., -2.14424490e-05,
          7.37278096e-05, -3.07453265e-05, 0., 0., -6.69000315e-07,
          3.25039000e-05, -2.44676739e-05, 1.31583831e-04,
          8.80840962e-05, -4.43977275e-04, -3.96163341e-06,
          -2.48566997e-04, 1.94111068e-04, -8.43535527e-05,
          -5.69779731e-05, -7.00112723e-04, 2.03141353e-05,
          -8.20186688e-06, 0., 1.40690172e-05, -2.11594070e-05,
          -7.86807432e-05, 5.70750526e-05, -1.42201216e-05,
          -1.95709654e-05, 8.69899595e-05, 0., -1.58424300e-05, 0.,
          2.57819120e-05, 0., -2.95458576e-05, 5.40689798e-05,
          -1.39696067e-05, 0., 1.15184002e-06, 5.89373012e-05,
          3.44758264e-05, -3.40240040e-05, -1.65243444e-04,
          -4.86287572e-05, 9.53332856e-05, 4.86426325e-05,
          2.33222763e-05, -1.05867861e-04, -7.65598743e-05,
          -1.01564219e-04, -1.65353820e-04, 1.19791139e-05,
          3.99089695e-05, 0., 6.20227220e-05, -5.00641290e-05,
          1.52697365e-04, 9.31115137e-05, -1.87349098e-04,
          -7.14876456e-04, 2.39138826e-04, 7.31716909e-06,
          -1.43983620e-04, 1.15032955e-04, 1.35331196e-04,
          -5.53458376e-05, -2.55242368e-04, 4.83734155e-04,
          4.14970185e-04, 1.18076096e-05, -7.76241650e-05,
          3.57544341e-04, 4.89274680e-04, 4.30401735e-04, 3.31918243e-04,
          -1.37219358e-05, 7.79957976e-04, -8.17036471e-06,
          3.25625551e-05, -4.45202313e-04, -2.24465457e-05,
          2.08372076e-04, -6.77513191e-04, 7.66795783e-05,
          -1.04799154e-04, 9.13179065e-07, 1.68761164e-06,
          -9.83322170e-05, 1.72004497e-04, -2.96974526e-04,
          1.48446136e-03, 2.53705744e-04, 2.13491148e-04, 2.65683229e-05,
          -1.00739082e-04, -1.50808301e-05, -8.81813758e-05,
          -1.00188568e-04, 1.31761568e-04, -7.87912359e-05,
          2.17401757e-04, -2.33984083e-05, -1.14565126e-04,
          -2.77303130e-04, 7.57335656e-05, -1.47578493e-03,
          2.40009255e-03, -5.63258764e-05, 9.57664815e-05, 0., 0.,
          2.39808833e-05, 7.30370311e-06, -5.65781647e-06,
          5.14782357e-07, 0., 0., 0., 0., -2.90684984e-05, 0.,
          3.91389294e-05, 1.14039358e-05, 2.68938777e-04, 1.18045413e-04,
          0., -6.11968280e-05, -5.64705306e-06, 4.05553437e-05,
          -2.06183995e-05, -1.24866847e-05, -6.00972044e-07,
          1.31942543e-05, 0., -1.27450703e-05, 1.77868147e-04,
          2.78707430e-05, -2.74074730e-04, -4.22372046e-04,
          2.30837511e-04, 6.67338318e-05, -1.30028675e-05,
          -3.69698719e-05, -1.89421902e-04, 0., 6.70382069e-05,
          1.36908639e-04, 1.32550213e-05, 0., 0., 0., 4.11520523e-05,
          -2.93569392e-05, -9.92778441e-05, -3.24244989e-04,
          2.42931128e-05, 2.49044315e-05, 0., 2.85526937e-07,
          1.87108321e-06, 0., -4.03478225e-05, -2.95403902e-06,
          5.51796511e-05, 9.13179065e-07, 0., 0., 2.07889243e-05,
          -1.58923831e-05, -2.70758992e-05, 9.69060638e-05,
          -1.85310229e-04, -1.77772177e-04, 0., 4.05553437e-05,
          7.47044469e-05, 1.32132973e-05, -3.52107345e-05,
          7.13462941e-05, -3.14686513e-05, 0., 0., 5.28833289e-06,
          2.07372548e-04, -3.56446435e-05, -6.28363996e-05,
          -1.74590139e-04, 9.56629374e-05, -1.77532311e-05,
          3.49387374e-05, 3.60902995e-05, 5.36088955e-05, 4.60963929e-05,
          2.52417431e-05, -6.19021885e-05, -5.01270639e-04,
          -1.96952551e-05, 0., -3.55316479e-05, -3.70012887e-04,
          -1.64778030e-05, 2.44667935e-05, 4.50316613e-04,
          8.39706481e-05, -2.61083391e-04, 0., 1.06697607e-05,
          3.24485118e-05, 4.84402553e-05, -5.61021334e-05,
          -1.67810795e-04, 0., 2.85526937e-07, 0., 0., 2.85276765e-05,
          1.39237841e-06, -3.67313223e-05, -7.35202002e-06,
          1.46395032e-05, 1.03669998e-04, 0., -9.79538672e-05, 0., 0.,
          -1.05031668e-05, -5.83521505e-05, -1.32490431e-05,
          -2.72698398e-05, 0., -4.56775670e-05, 3.49096408e-05,
          -8.09386347e-06, -6.42698433e-05, -7.65299366e-04,
          -4.65554440e-05, -8.50613014e-06, 0., -4.31211629e-06, 0., 0.,
          0., -8.82259701e-06, 0., 0., 0., 0., 0., 0., 4.34972844e-06,
          -2.22069029e-05, -3.18681086e-05, -1.81473752e-05, 0.,
          -4.07442603e-05, 0., -1.85373756e-05, 0., 1.87108321e-06, 0.,
          1.77771312e-06, 0., 4.36265909e-05, 0., 4.84617885e-06,
          -2.28505978e-05, -1.42496254e-04, -5.55156090e-04,
          1.73261244e-04, -1.65744623e-05, 4.15529685e-05,
          -8.47351748e-06, -3.13453311e-05, -1.89769162e-05,
          -4.45912417e-04, 0., -1.65744623e-05, 0., 2.17197066e-05,
          1.07734340e-05, -9.94609582e-06, -4.61699601e-05,
          -5.73720841e-04, 4.08254382e-05, -8.09255198e-07, 0.,
          -1.59926458e-05, 0., 1.13422138e-05, 1.58600196e-05,
          3.02702683e-05, -5.54824364e-05, -3.95137577e-05, 0.,
          -4.43347417e-05, 5.99054765e-05, -7.99716054e-06,
          -2.25678577e-05, -1.62430679e-05, 4.36172209e-04,
          -2.28041271e-03, -1.34844504e-05, -5.99300081e-04,
          -2.13535695e-05, 1.36528499e-04, 4.99644739e-05,
          -1.13328788e-04, 0., 2.36437209e-05, 0., -1.76883004e-05,
          2.05612931e-04, 3.23578934e-05, -7.75078515e-05,
          6.85972453e-04, 1.46010844e-03, 1.07475009e-03, 1.57553630e-04,
          -5.82338580e-05, -5.05241733e-05, 7.39588213e-05,
          -1.66915634e-04, -2.93929697e-05, -3.90401983e-05,
          -2.26791799e-05, 2.75341463e-05, 7.93845102e-05,
          -9.00590094e-05, 3.32294730e-04, 4.29879059e-04,
          -5.00808856e-05, -1.61939810e-04, 1.10887253e-04,
          1.61253978e-04, -4.94520471e-04, 4.48299834e-04,
          -2.30914447e-04, -1.76441215e-04, 4.42295015e-04,
          -4.34520407e-05, 1.86150810e-05, 0., -3.17219237e-05,
          -3.39685299e-04, -9.27158180e-05, -6.21592044e-04,
          -6.99035532e-04, 5.12518513e-04, -2.07611869e-04,
          7.68335522e-05, 1.50458029e-04, -3.09098366e-04,
          4.56091620e-05, -1.56805345e-05, -9.74372379e-05,
          -6.14838282e-05, -4.05254505e-05, 9.11439474e-06,
          -2.72137877e-05, -4.72232787e-04, 4.61015734e-05,
          -5.49916003e-04, -1.07480132e-03, 2.36755950e-04,
          -7.01993413e-05, 0., 2.68812755e-06, 3.77159340e-05,
          -8.45771319e-06, 0., -1.00650741e-05, 0., -3.67507226e-07, 0.,
          4.52978493e-05, 4.80671479e-05, 4.85971805e-06, 2.54130864e-05,
          7.08054868e-05, 1.82654709e-04, -7.99703848e-05,
          -3.07846932e-07, 2.88363208e-05, 3.92413131e-06,
          -1.79802591e-05, 3.52783427e-05, -5.42229573e-05,
          1.42688502e-03, 1.21048266e-04, -2.47682328e-05,
          2.40887985e-05, 5.86158771e-04, 4.30797190e-05,
          -8.04140727e-05, -3.08532384e-04, 3.62378167e-04,
          -9.91401612e-06, 2.22997573e-06, -8.38350170e-05,
          -1.56111681e-04, -5.27609118e-05, 6.92956019e-05,
          1.59923744e-04, -2.80422264e-05, 0., 0., 0., -2.06642362e-04,
          4.26039041e-05, 1.14525665e-05, -6.34004537e-05,
          -1.65495498e-04, -3.30277107e-05, 3.92902530e-06,
          2.84378584e-05, 1.02129161e-04, 0., -1.36155550e-05,
          4.05553437e-05, 1.35040333e-04, 3.78499608e-05, 0.,
          -3.71297233e-07, 5.90044583e-05, -8.14695341e-06,
          -9.81883641e-05, 6.21201762e-05, -5.11999708e-04,
          2.16116168e-04, 5.12750121e-05, 6.57067576e-05,
          -1.45083241e-05, 0., -4.46217491e-05, 8.91829332e-05,
          -2.28167446e-05, 0., -8.45771319e-06, 0., -2.13345076e-04,
          1.35897025e-07, 9.63902203e-05, -3.38304708e-05,
          7.86625315e-04, -2.52149766e-04, -2.51060574e-05,
          3.75591881e-05, -1.86036792e-04, -6.02984119e-06,
          -6.34702228e-05, 1.41766868e-05, 1.89322018e-04,
          -1.42423436e-04, 3.19160245e-05, -7.70635961e-05,
          1.74148043e-03, -1.16480944e-04, -1.91988234e-04,
          1.32136454e-04, -9.62960348e-06, 1.76731934e-04,
          -4.92441222e-06, 3.10566247e-04, -3.29879658e-05,
          -1.59929317e-04, 5.31060641e-06, 5.47603180e-04, 0., 0., 0.,
          4.90893071e-05, -1.17514837e-05, 1.86847919e-05,
          -9.51114180e-06, -1.01022488e-04, 9.35876305e-05,
          8.68993666e-05, 7.51533435e-07, -2.68813819e-05,
          -1.85373756e-05, -3.71976166e-05, 0., 1.23339178e-05,
          9.50826579e-05, 1.73265162e-05, 0., -5.09791644e-05,
          3.19808350e-05, 1.24733124e-04, 1.36492134e-04, 3.61589104e-04,
          -1.68599890e-05, -2.57136471e-05, 0., 1.54759146e-05,
          -2.46899458e-06, 0., 0., 8.62566230e-05, 0., 0., 0., 0., 0.,
          -1.03591101e-05, 8.52704852e-06, -8.85786721e-05,
          3.31976917e-05, -5.09021011e-05, 0., 3.24374305e-05, 0., 0.,
          0., 8.03400399e-05, -1.49303480e-06, 5.28044329e-05, 0.,
          4.20878750e-05, -1.06944435e-05, -7.61045339e-06,
          -1.77408474e-05, -2.90064403e-04, 6.65895714e-05,
          -5.94383222e-04, 1.00815181e-04, -4.19318851e-04,
          7.55858637e-05, 2.73122969e-05, 1.16680159e-04,
          -5.25626179e-04, -2.61089144e-06, -1.42237477e-05, 0., 0.,
          4.62598509e-05, -4.34922513e-05, -1.06176456e-04,
          -6.56052143e-05, -6.95832059e-05, -1.30442335e-04,
          -7.36830625e-05, -3.89390152e-05, 0., -1.66169229e-07, 0.,
          1.42607430e-04, -2.48907963e-05, -7.05738130e-05,
          -1.68599890e-05, -1.16885603e-05, -7.38900053e-05,
          8.51406294e-05, -4.84688680e-05, 2.69945187e-04,
          -1.09602092e-03, -1.74216880e-03, 6.80756493e-05,
          -1.07055748e-04, -5.60636217e-05, 1.01749167e-04,
          3.88715125e-05, 1.20079800e-04, -3.98103912e-05,
          2.22884810e-05, 0., 5.10126210e-06, 1.17610507e-04,
          -2.74671511e-05, -7.33667184e-06, 1.02874030e-04,
          1.05376274e-03, 1.09346809e-04, 1.38298365e-05,
          -1.90974286e-04, 1.39697891e-04, -6.46542831e-05,
          -9.89535547e-05, -1.32190224e-04, 2.77791347e-04,
          4.32085973e-04, 2.40144091e-05, -2.33301500e-04,
          4.68512648e-04, -1.15740504e-05, 2.63522146e-04,
          1.32660192e-04, -3.39444232e-04, 1.02853077e-03,
          -5.61272486e-07, 8.94943019e-04, -1.19076367e-03,
          1.21543482e-04, -3.05844078e-05, 7.13807880e-04,
          8.34062212e-06, -1.85189401e-05, 1.87108321e-06,
          -4.15751492e-05, -1.82017553e-04, 2.90600019e-05,
          -4.92722495e-04, -1.54331164e-03, -2.53297709e-04,
          -1.00984675e-04, 9.25298737e-05, -8.58081767e-05,
          -3.60594422e-05, -2.12383911e-05, 2.89031828e-04,
          -1.68111510e-04, -6.99545315e-04, 3.77065007e-05,
          8.78109568e-05, -7.20551907e-05, 1.60092546e-03,
          1.94189546e-04, -1.36933755e-03, -1.52327155e-03,
          1.54509864e-04, -1.66897485e-06, 0., 1.18378266e-04,
          6.41998704e-05, 0., -1.03591101e-05, -2.69616557e-05,
          4.55207919e-05, 0., 0., 0., 1.33690346e-05, 1.68929400e-05,
          -1.24227527e-05, -8.18615299e-05, -1.07912587e-04,
          -5.95873789e-05, -1.43334546e-05, -5.93952245e-05,
          -8.57796022e-06, 1.15184002e-06, 3.84026208e-07,
          9.10259405e-06, 7.92726933e-05, -5.95276506e-05,
          -5.16187856e-06, 4.87110956e-05, 1.78677356e-03,
          5.95136953e-06, 1.84406736e-03, -5.80450229e-04,
          -5.96159836e-04, -2.00186769e-04, 3.25501387e-05,
          -1.49922067e-04, -2.66941410e-04, -3.36512676e-05,
          -1.14166112e-04, -7.95644155e-05, -2.12858176e-05,
          -5.64831244e-05, 0., -1.10479477e-05, -1.38898031e-04,
          2.17197066e-05, 2.53533562e-05, 5.81611748e-05,
          -7.71748273e-06, -5.33740931e-05, 0., 3.08258932e-05,
          -5.07825971e-05, 0., -2.83774334e-05, 2.63595302e-06,
          -8.62411252e-05, 2.84299604e-05, 0., 1.31851866e-05,
          1.14233910e-04, -1.03591101e-05, 2.15056007e-05,
          1.82503318e-05, 1.74857378e-05, -1.11022600e-04,
          3.80863494e-05, 9.71311692e-07, 6.35270990e-05,
          -4.31211629e-06, -4.43583340e-05, -8.56418137e-06,
          2.64155315e-05, 0., 0., 0., 1.52567780e-04, 0.,
          -1.41549128e-04, -6.33623567e-05, -1.04158453e-03,
          -1.38029776e-04, -4.76760988e-06, -5.55268634e-05,
          -5.78941872e-05, -4.09266431e-05, -8.57555788e-05,
          1.19772094e-05, -1.01434276e-03, -8.69946380e-05,
          -1.47728322e-04, -4.90127823e-05, 4.25252110e-05,
          -1.05911995e-05, -5.04336145e-04, -1.96258014e-04,
          1.49869840e-04, 9.34544194e-04, -5.28421588e-05,
          7.80346963e-05, -1.31753140e-07, 5.04595992e-05,
          -6.91524983e-05, 1.21491216e-03, 0., -4.72390138e-06, 0.,
          6.84562110e-05, -4.00622957e-05, -6.42187806e-05,
          4.45075784e-05, 3.95140523e-04, 8.83689936e-05,
          -1.19494298e-05, 0., 1.03099606e-04, -1.12027010e-06,
          1.50466428e-06, -1.28493366e-05, -1.00082354e-04,
          7.97679149e-06, -2.93135618e-05, 9.58397595e-06,
          8.10109923e-05, 1.59858737e-05, 4.10242246e-05, 8.60963992e-05,
          -4.67563004e-05, -2.93569392e-05, 4.34345602e-05, 0., 0., 0.,
          0., 0., 4.42691962e-05, 0., 0., 0., 0., 0., 0., 0.,
          -4.31211629e-06, 5.19997666e-05, -2.44472350e-04, 0.,
          -3.99038508e-05, 0., 0., 0., 8.03698931e-05, 1.62368190e-06,
          -8.26255418e-05, 0., 2.27727469e-05, -2.55407922e-05,
          -5.71029486e-05, 7.89444239e-05, -5.69360796e-04,
          -1.46208287e-04, 1.66430091e-03, 1.19950491e-05,
          -9.81146786e-06, 8.33498780e-05, 7.78288086e-05,
          -5.73980396e-05, 1.58777845e-03, 6.39052405e-06,
          -7.94184816e-05, 0., 1.71783613e-05, -1.01372416e-05,
          -4.57059978e-05, 7.98636174e-05, -1.53046771e-04,
          -1.03969149e-04, 8.43672315e-05, 0., -1.60990792e-04,
          2.42757687e-05, 9.58397595e-06, 2.12450232e-05, 1.66881888e-04,
          2.50083613e-05, 6.64617037e-05, 0., 1.48914223e-05,
          2.85189053e-05, -2.18174591e-06, 5.83407091e-05,
          -2.08564834e-05, -8.20136222e-04, 2.72842846e-03,
          -1.42794006e-05, 2.19577923e-03, 1.29616397e-04,
          -2.87532093e-05, -5.81179593e-05, 4.15862829e-04,
          3.35312216e-05, 1.39053969e-04, 0., 3.73943112e-05,
          -1.76774029e-05, -8.20781497e-05, -6.23790329e-05,
          2.35008396e-04, -2.00444041e-03, -7.81095761e-04,
          5.64404436e-05, -2.95404054e-04, -3.15148682e-05,
          -5.12650222e-05, 5.45472903e-05, -1.80262825e-04,
          -6.92238740e-04, -9.39405872e-04, 6.70175577e-05,
          -1.01636666e-04, -3.48952832e-04, -1.64964207e-04,
          -1.80681614e-04, 2.16477056e-04, -1.49925894e-04,
          7.93273502e-04, -4.85359233e-05, 1.35890135e-04,
          4.95943474e-04, -7.23440171e-05, 2.20033340e-04,
          -3.96801508e-04, -1.60828276e-04, -4.20823599e-05,
          -6.02984119e-06, -2.05439810e-05, -2.25725104e-04,
          1.34076850e-04, -4.26063285e-04, -1.40638137e-03,
          -5.56074199e-04, -2.32906714e-05, 8.50266515e-05,
          6.20872888e-05, -3.67426946e-05, 2.92850036e-05,
          9.37034638e-05, 2.29190671e-04, -6.52775518e-04,
          1.40705495e-04, 5.07703226e-05, -1.29469990e-04,
          -1.12798263e-03, 2.56060972e-04, 2.67637102e-03,
          -7.73515727e-04, 4.23719393e-05, -4.43605531e-05,
          -4.54351757e-05, 0., -3.57158497e-05, 0., 0., 4.71202075e-05,
          0., 0., 0., 0., 4.72747342e-06, 0., -5.29419449e-05,
          4.52933418e-05, -7.41447593e-06, -6.57778801e-05,
          6.16168836e-05, 2.60999277e-05, -1.99202877e-05,
          1.31851866e-05, -4.48943465e-05, 5.09324091e-05,
          -2.23580064e-04, 2.50008816e-05, -5.87574186e-06,
          7.43298733e-05, -1.95445667e-04, -8.41920337e-05,
          -2.40735273e-04, -4.71345091e-04, 2.81954359e-04,
          1.68475657e-04, -5.83760229e-05, -1.30242959e-04,
          -3.46937450e-04, 3.94948911e-05, 8.67356721e-05,
          -3.32630843e-05, 1.17687323e-05, -9.20662296e-06, 0.,
          -2.20958955e-05, 1.63599674e-04, 0., -2.04690208e-04,
          -4.72558859e-05, -3.00815445e-05, 4.25075223e-06, 0.,
          9.13179065e-07, 5.58857948e-07, 0., -4.54351757e-05, 0.,
          3.51498534e-06, 0., 0., 2.24664018e-05, -4.47084458e-05,
          5.34313472e-07, 8.49665958e-05, 8.12833678e-05, 2.71005520e-05,
          1.59996634e-04, 7.51533435e-07, 6.57046530e-06,
          -9.90742774e-05, 0., -6.11912474e-05, -7.58792521e-05,
          2.56718740e-05, 1.18171165e-05, 0., 0., 1.27320876e-04,
          3.86250940e-05, -9.63625062e-05, 1.67557388e-04,
          -2.89768086e-05, -2.44256989e-05, 3.83172483e-05,
          2.68834247e-05, 4.59401017e-05, -4.10654357e-05,
          4.44958314e-05, 2.12117156e-05, -1.45983475e-04,
          -1.40399279e-05, -1.19639417e-05, -1.34063041e-04,
          -5.65797032e-04, 6.22797452e-05, -4.71452426e-04,
          5.31707556e-05, 6.30927607e-05, 2.88092735e-04, 0.,
          -9.98824762e-05, -2.05751871e-06, 5.54903854e-05,
          -1.96816200e-05, -2.68505944e-04, 0., -4.30154751e-06, 0., 0.,
          1.65854071e-05, -3.96163341e-06, -3.52880488e-06,
          -1.13585491e-04, -3.58810689e-06, -1.57702569e-04,
          6.49110370e-06, 4.21548066e-05, 0., 0., 0., 3.98816883e-05,
          -2.31289359e-05, 2.31161066e-05, 0., 2.40788322e-05, 0.,
          1.01841630e-04, -9.20600651e-05, 5.79066691e-05, 0.,
          -3.07846932e-07, 0., 0., 0., 3.25039000e-05, 0.,
          7.79865059e-06, 0., 0., 0., 0., 0., 0., 0., 1.90203682e-05,
          -9.47455590e-08, -3.64012812e-05, -1.28493366e-05,
          -2.74069316e-06, 0., 0., 0., 2.35610751e-05, 0.,
          2.50936064e-05, 0., -1.50143815e-05, -3.18207749e-05, 0.,
          5.10802638e-05, -1.94835971e-04, 6.37876277e-04,
          -1.06967927e-04, 4.14365313e-05, -2.40372116e-04,
          -4.94095984e-05, -2.54578161e-04, -1.74350542e-04,
          2.64508242e-04, -1.03591101e-05, 3.52201605e-05, 0.,
          1.25143169e-05, -3.64543957e-05, 4.14896846e-07,
          3.21238986e-05, 1.49203042e-04, 7.32218396e-05, 3.87695938e-04,
          0., -3.96449286e-05, 9.13179065e-07, 0., 0., 8.79480649e-05,
          3.80793281e-05, 2.34055060e-05, 0., -2.29383932e-05,
          -4.04032762e-05, 2.20883635e-06, 1.71079555e-05,
          2.67290859e-04, -1.39070995e-04, 3.47289053e-04,
          1.23341679e-05, -3.38682643e-04, -6.93681359e-05,
          3.25139663e-05, -1.25766412e-04, 3.33895769e-05,
          -8.44621297e-07, 5.90056661e-05, -1.46055809e-05,
          3.71069200e-06, -2.95940099e-05, -5.76789935e-05,
          6.91709865e-05, 3.67563393e-04, 2.01046816e-03,
          -6.74944822e-05, -6.71908274e-05, -4.31249704e-04,
          1.09628352e-04, 2.50576413e-05, 1.82634845e-04, 6.34434400e-04,
          -3.97416617e-04, 6.17491751e-05, -2.68855711e-05,
          1.87203710e-04, -2.63544964e-04, 1.27518477e-04,
          -4.38547955e-04, 2.50830373e-04, 1.10466161e-03,
          1.13903882e-03, 3.71059941e-05, 4.75619890e-06,
          -2.83446774e-04, -5.15347710e-05, -7.47239828e-05,
          -1.16683648e-03, 8.00353428e-06, -2.29855505e-05, 0.,
          5.50129771e-05, -7.45662313e-04, -1.36801653e-04,
          -1.04934687e-03, -3.08985426e-03, -3.14615841e-04,
          5.92570868e-04, -5.96677237e-05, -2.89994587e-05,
          -6.08338414e-05, -9.52492046e-05, -6.48272835e-05,
          8.99053266e-05, -2.62734102e-04, 4.71733183e-05,
          -1.32666219e-05, -7.19112068e-05, -1.20704982e-03,
          2.45275034e-04, -2.45950045e-03, -1.21314940e-03,
          2.63343572e-05, -2.95403902e-06, 0., -7.56100326e-06,
          4.93968400e-05, 0., 0., -6.93448828e-06, 0., 0., 0., 0.,
          1.88899212e-05, 0., -6.15236388e-07, -2.33619485e-05,
          -8.14281811e-05, -5.35132713e-05, 0., -2.17116867e-05,
          -1.09267075e-05, 6.39052405e-06, -1.17416694e-05,
          -7.74778673e-05, -6.08311384e-05, -7.46619262e-05, 0.,
          -5.31971600e-05, -5.59233304e-04, -1.98166490e-05,
          -3.44013417e-04, -2.25855416e-04, 1.75917376e-04,
          -7.72850126e-06, 2.84299604e-05, 2.23427251e-05,
          -1.42114630e-04, 1.28816282e-05, -4.53355242e-05,
          -1.12959551e-05, 8.52704852e-06, -7.36529864e-06, 0.,
          -3.49851689e-05, -1.69316671e-04, 1.86818179e-05,
          -1.28576765e-04, 1.32751113e-04, 1.90535749e-04,
          -4.14559363e-05, 3.86250940e-05, 0., 7.00836245e-05, 0.,
          3.25039000e-05, -5.94640187e-05, 5.45713629e-05,
          -1.42288645e-05, 0., 0., -1.92940555e-04, 0., -6.29192509e-05,
          -1.49012267e-04, 1.79337891e-04, -7.35079157e-05,
          -5.63926733e-05, 4.31851222e-05, -6.54568066e-05,
          2.07622306e-05, -7.44505815e-05, 3.32055679e-05,
          1.17358986e-05, 0., 0., 0., 9.13735785e-05, 2.57819120e-05,
          1.63601770e-04, -3.38681020e-05, 1.01300119e-03,
          1.81980591e-04, 2.21812734e-05, 1.23606269e-05, 6.59140060e-05,
          0., -2.62336525e-05, -1.39786516e-06, -9.08202433e-04,
          -2.17095512e-05, -1.92561020e-05, -4.35960392e-05,
          -2.76223509e-05, -8.80254629e-06, -6.93248236e-04,
          -5.65315480e-04, -3.71555761e-05, 2.21513183e-04,
          -1.78365008e-05, 1.14141592e-04, 4.63192810e-05,
          -2.71972676e-05, 6.39052405e-06, -2.00612063e-04, 0.,
          -3.50182891e-05, 0., -1.68599890e-05, 1.87108321e-06,
          8.03623625e-05, -1.37862389e-05, -7.15583155e-04,
          8.84246674e-06, 4.84022166e-05, 0., 7.69603066e-05,
          -5.08116955e-06, 0., 6.39052405e-06, -1.34225138e-05,
          -1.03591101e-05, 5.31068872e-05, 0., -3.92324218e-05,
          5.34390347e-05, -4.99657017e-06, 4.42232085e-05,
          -4.38777264e-04, 0., 6.63372557e-05, 0., 2.17197066e-05, 0.,
          0., 0., -1.23338677e-05, 0., 0., 0., 0., 0., 0.,
          2.34055060e-05, 1.78455830e-05, 2.82459696e-05, 1.23589649e-04,
          0., 1.32591313e-05, 3.86250940e-05, 0., 0., 0., 9.13179065e-07,
          1.90540104e-05, 0., 1.24510041e-06, -1.68599890e-05,
          9.13179065e-07, 6.49110370e-06, -3.72043636e-04,
          6.20810082e-04, -3.73517192e-04, 5.24770039e-05,
          -6.71032758e-04, -1.29485306e-06, 2.06053810e-05,
          1.16312614e-04, 4.93204163e-04, 0., 1.49175730e-05, 0.,
          -1.61084554e-05, 3.15699111e-08, 6.23597298e-05,
          7.10479726e-05, 6.53477793e-04, 2.00675291e-04, 1.62532800e-04,
          0., -8.63100868e-05, 7.51533435e-07, -4.03478225e-05,
          8.52704852e-06, 1.24381040e-05, 2.89612290e-05,
          -3.86800639e-06, 0., -9.44593103e-06, -5.63116082e-05,
          -3.53973664e-05, 6.59569851e-05, 1.93249231e-04,
          4.37883660e-04, 1.04001036e-03, 5.08159985e-07, 3.24135908e-04,
          -4.73633336e-05, 9.18444421e-05, 2.36075266e-05,
          9.13978496e-04, -2.16653643e-06, 3.10609685e-05, 0.,
          -2.48976758e-05, 1.22920581e-04, 1.70733139e-04,
          1.15750787e-04, 9.90141067e-04, 2.80924677e-03, 2.21226178e-03,
          1.06076652e-04, 4.28103260e-04, 3.40987281e-05, 1.45978105e-04,
          3.12778611e-05, 3.41573788e-04, 8.45761315e-05, 3.86894157e-04,
          4.41198245e-05, -9.22030595e-05, -3.73198040e-04,
          -1.61299220e-04, 8.73527315e-05, 8.15683452e-04,
          7.40397547e-04, 7.88756530e-04, 1.44031583e-04, 6.34621072e-04,
          -1.20496238e-03, 4.82788964e-05, -4.08900378e-04,
          -2.59372173e-03, -8.28015473e-05, -6.16306934e-05, 0.,
          6.96536226e-05, -1.82878415e-04, 1.34383969e-04,
          -6.32684329e-04, 2.97592167e-04, 2.82763474e-04,
          6.88389700e-05, 4.10075445e-05, 1.09971574e-04,
          -1.28621934e-04, 6.22107882e-06, 2.89303542e-04,
          9.08420116e-05, -1.66134487e-05, 1.42792429e-04,
          -7.61278716e-05, -1.92382766e-04, -2.52171489e-03,
          -9.18639926e-05, -1.45920378e-03, 1.32184057e-03,
          -1.68765200e-05, 7.28616069e-05, 0., 5.28833289e-06,
          9.58397595e-06, 0., 0., 5.11385806e-05, 0., 0., 0., 0., 0.,
          -4.64132972e-05, -2.01814291e-05, 1.09116663e-04,
          1.41368670e-04, -8.37886546e-05, 0., -1.72144300e-05,
          2.23968636e-05, 0., -4.32568195e-05, 2.05230353e-05,
          -1.65179357e-04, -2.18282876e-05, 2.42757687e-05,
          4.18405652e-05, -9.94953793e-04, -3.44715700e-05,
          -9.99560929e-04, -4.01613361e-04, 2.96911661e-04,
          2.11241058e-05, -6.60212972e-05, 7.28983505e-05,
          3.98126103e-05, 0., -2.36779510e-06, -1.60070340e-04,
          -3.28964670e-05, -9.35432035e-05, 0., -7.36529864e-06,
          -5.21901711e-05, 0., -1.59980977e-04, -2.68699805e-05,
          4.16615731e-05, 3.98989941e-05, 1.98692633e-05, 4.24974642e-05,
          1.61095741e-05, 0., 1.87108321e-06, 4.14872702e-05,
          1.52168104e-05, 2.83132904e-05, -3.13426681e-05,
          -4.00435893e-05, -1.40176679e-04, 0., -3.27676789e-05,
          -1.39395095e-04, 1.18361451e-04, 3.02577814e-06,
          1.17376376e-05, -4.03478225e-05, 1.10930996e-04, 0.,
          7.31978726e-05, -1.45601389e-05, 2.24664018e-05, 0., 0., 0.,
          1.04723273e-04, -1.84613891e-05, -7.05009516e-05,
          5.65577320e-05, -3.20199877e-04, 1.74830304e-04,
          -1.46366619e-05, 4.33114074e-05, 6.45393447e-05,
          9.16768568e-06, -2.40770642e-05, -1.10061619e-05,
          -6.02369139e-04, -2.71048502e-05, 4.06535910e-05,
          1.34533275e-05, -3.11002921e-04, 2.01723492e-06,
          8.07484175e-05, -6.25540677e-04, 4.71964122e-05,
          7.19887787e-04, 0., -2.73306767e-04, 5.04643940e-05,
          -3.13752230e-06, 2.35939970e-05, -1.74482248e-03, 0.,
          -3.45922672e-05, 0., 9.26057764e-05, 3.76439129e-06,
          9.14418197e-05, 8.96876954e-05, -7.43927376e-04,
          1.42915465e-04, -7.73312640e-05, 0., 3.17156737e-05,
          2.72865764e-05, 1.18171165e-05, 0., -6.64042527e-05, 0.,
          1.06469532e-04, 0., -8.85939735e-05, 3.83767219e-05,
          -4.73670807e-05, -6.49076756e-05, -6.02590793e-04, 0.,
          9.67097585e-05, 0., 3.86482352e-05, 0., 0., 0., 6.53850439e-05,
          0., 0., 6.60516116e-06, 0., 0., 0., 0., -5.06641809e-05,
          -4.62668868e-06, -3.85747662e-05, 0., -5.83756737e-05, 0., 0.,
          0., 4.05524806e-05, 0., 4.34972844e-06, 0., -3.96163341e-06,
          5.66400631e-05, -9.44927979e-06, 6.31821695e-06,
          -9.92219197e-04, 1.37866812e-03, 5.18593821e-04,
          1.47225539e-04, 8.59602471e-04, -3.63391482e-05,
          -1.93438755e-05, 2.91800476e-04, 4.63643781e-04,
          1.15184002e-06, 9.13179065e-07, 0., -5.08265948e-05,
          -3.24743960e-05, 1.67976450e-05, -2.71810477e-05,
          3.52641975e-04, 1.17634263e-04, 2.00381823e-04, 3.83504739e-05,
          1.02438571e-04, 4.00360514e-05, -2.40753743e-05,
          1.68929400e-05, 9.29619709e-05, -2.93234025e-05,
          3.70998678e-05, 0., 5.28179989e-05, 1.37625484e-05,
          -1.32661417e-05, 9.73420902e-05, -1.12289490e-04,
          1.01603051e-04, 1.12769997e-03, -9.63974890e-06,
          1.78860777e-04, 4.02453370e-05, 7.53656786e-05, 6.88987129e-05,
          1.19720050e-03, -2.33257433e-05, 5.67455136e-05, 0.,
          -2.51682741e-05, -5.41548325e-05, -2.72098096e-05,
          -1.02326878e-04, 6.51870389e-04, -4.87366691e-04,
          1.80407043e-03, 4.24289319e-05, 1.21006963e-03, 5.48988974e-05,
          4.56545968e-05, -3.12216107e-05, 2.35106534e-04,
          -2.70743185e-04, 4.26379935e-04, -3.43796273e-05,
          -3.05339083e-04, 1.02115780e-04, -1.86758800e-04,
          2.99074774e-04, 7.03327998e-04, 3.24288895e-03, 3.24941298e-04,
          -1.91877654e-04, 2.40251175e-05, -8.86387366e-04,
          6.22246705e-04, -1.66857979e-04, -1.53382309e-04,
          1.66944286e-04, 1.84725359e-04, 4.23739730e-05,
          -2.28231256e-05, -1.79802801e-03, 1.44096761e-04,
          5.99818304e-04, -6.52466319e-04, -1.81025418e-04,
          1.15494957e-04, 1.02903905e-04, -1.79074093e-04,
          2.79376778e-04, 6.71052403e-05, 2.46621115e-04, 2.49511009e-04,
          4.39291791e-04, 1.22520956e-04, 4.75346205e-05,
          -8.42469817e-05, 5.17824315e-04, 1.40765906e-05,
          -2.92885234e-03, -9.26221488e-04, 3.44828819e-04,
          3.22341621e-05, 2.85526937e-07, -3.01870277e-05,
          4.75567322e-06, -1.87077148e-05, 6.89318185e-05,
          -1.83582870e-05, 0., 0., 0., 0., -5.43158058e-05,
          1.54827903e-05, 1.38330670e-05, -2.26910634e-05,
          -3.17743717e-04, 1.81900599e-04, -4.22531339e-05,
          -1.09040928e-04, 7.61610136e-05, -1.70879030e-05,
          1.78128248e-05, 8.63890964e-05, -1.64639286e-03,
          9.60423790e-07, 5.31009646e-05, -9.49642490e-05,
          -5.08662546e-04, 1.81124080e-04, 9.16216639e-04,
          1.40963646e-04, 2.36949854e-04, -7.97245812e-05,
          9.13545955e-05, 2.11551087e-04, -1.12328715e-04,
          -1.15227042e-04, 1.38612249e-05, 2.66695224e-05,
          5.79752850e-05, 1.58600196e-05, 7.51533435e-07, 3.88403641e-05,
          -2.76266481e-04, 1.11779053e-04, 9.26398207e-05,
          8.01069546e-05, -4.20850592e-05, 9.78027820e-05,
          3.74609554e-05, -1.04113220e-04, 2.42539409e-05,
          -1.78365008e-05, -4.92984727e-05, 2.36431661e-05,
          -1.62486045e-04, -1.73612607e-05, -7.34007017e-06,
          2.06324012e-06, -2.30307240e-04, -8.80297534e-07,
          3.00397747e-04, -9.06766436e-05, 9.49014327e-04,
          1.49115813e-05, -2.01522471e-05, 1.25674007e-04,
          -4.42544806e-05, 8.70710483e-06, 9.02679967e-05,
          6.75803385e-05, 5.74203586e-05, 3.92902530e-06, 0.,
          1.13422138e-05, -1.07160027e-04, 4.32267188e-05,
          -1.63347431e-04, 1.21608020e-04, -8.26127478e-04,
          -3.65099004e-05, 2.96092949e-05, 1.67845610e-05,
          -1.23676491e-05, -5.26804251e-05, 4.18247619e-05,
          7.03268597e-05, -8.73443962e-04, -2.80161003e-05,
          5.87499526e-05, 2.48991764e-05, -6.86261221e-04,
          1.72224201e-04, 1.73864421e-04, 2.06158802e-04,
          -3.75320160e-05, 4.05167702e-05, -2.96934322e-05,
          -5.50503493e-04, 1.07336164e-05, 5.94952871e-05,
          9.58994642e-05, -5.93142700e-04, 0., -3.07846932e-07, 0.,
          -3.83171537e-05, 4.10309513e-05, -4.82224596e-06,
          3.84959867e-06, 6.24324719e-04, 1.63046916e-05, 1.50783613e-04,
          -4.03940721e-05, -1.85641984e-04, -3.57007302e-05,
          -1.18532836e-04, -1.49278349e-05, 2.53148522e-04,
          5.47923737e-05, -7.60636758e-05, 0., -8.55850885e-05,
          3.75749041e-05, 2.74544436e-05, -2.42668117e-04,
          1.85721423e-04, 0., 5.92087745e-05, 0., -1.62523083e-05, 0.,
          0., 0., 6.31584335e-05, 0., 6.44930469e-06, 0., 3.25039000e-05,
          0., 0., 0., 4.70628984e-05, 3.83822044e-05, -1.00398887e-04,
          0., 4.00259269e-05, 0., 1.15184002e-06, 0., -3.61880052e-06,
          -9.38507492e-06, 1.15337214e-04, 0., 1.42982812e-04,
          -1.12060152e-05, -6.34714306e-05, 8.24688614e-05,
          6.46826171e-04, 3.46417182e-05, 4.75944806e-04, 5.90290874e-05,
          -1.61026220e-03, 1.70862550e-04, -2.53128055e-05,
          -1.07467058e-04, -1.13810936e-03, -2.60685965e-06,
          4.51742562e-05, 0., -1.00184361e-05, 1.52821682e-04,
          4.73897453e-05, -7.53883287e-05, 1.43175654e-04,
          2.12013299e-04, 1.37159223e-04, -1.85373756e-05,
          -7.73883876e-05, -2.86998056e-05, -1.03505648e-04,
          -3.73677249e-05, 3.13224737e-04, 1.76086323e-04,
          2.40604990e-04, -8.45771319e-06, 8.53516685e-05,
          4.47634957e-05, 8.76388367e-06, 2.20671311e-04,
          -1.40076547e-04, 6.30380353e-04, 1.33518595e-03,
          1.09315988e-04, -3.95836134e-04, -5.01393770e-05,
          2.90750613e-04, 9.68282766e-05, 6.39221544e-05, 1.11022528e-05,
          1.37734751e-04, 0., 1.19988232e-04, 1.53709952e-05,
          7.86102755e-05, 7.07528525e-05, -9.21752595e-04,
          -1.30509457e-03, 1.48344482e-03, -6.14584496e-05,
          6.83931983e-04, 2.73980113e-04, 2.68999156e-05,
          -7.64874057e-05, 7.87304481e-04, -8.97095248e-04,
          5.10861748e-04, -1.88592112e-05, 7.19412870e-04,
          -2.05901844e-04, 6.03348890e-04, -1.49059494e-03,
          -6.62897946e-04, 8.65644775e-04, 6.31580537e-04,
          -1.10475645e-04, 2.93995363e-05, -4.40465083e-04,
          3.30740790e-04, 3.82464612e-04, 6.18860358e-04, 1.83120545e-04,
          -2.78522748e-05, -1.12027010e-06, 5.15065367e-05,
          -3.98339063e-04, -1.00965124e-04, 1.33530002e-05,
          5.95518504e-04, 1.03691558e-03, 9.64822102e-05, 5.77805986e-05,
          -1.05181411e-04, -7.52979176e-05, -1.94430322e-05,
          3.87883483e-05, 1.32212022e-04, -5.79193991e-04,
          -2.22024155e-05, 7.49512474e-05, -8.99015504e-05,
          5.64629503e-04, 4.45571823e-05, 1.62163249e-03,
          -4.88928694e-04, 2.70273395e-05, 1.77771312e-06, 0.,
          -1.12027010e-06, 6.55414624e-05, 0., 4.49899999e-05,
          5.80338528e-05, 7.54236407e-06, 0., 0., 0., -1.59542724e-05,
          2.63255261e-05, 6.61772501e-05, 1.24281330e-04,
          -4.22830606e-04, -9.52435003e-05, 2.21528226e-05,
          -7.61755728e-05, -1.80865187e-04, -1.58424300e-05,
          9.22946401e-06, 3.85321000e-05, 1.23376760e-03,
          -3.45960347e-04, 4.41050215e-05, 2.46229374e-05,
          -2.55815103e-03, -2.12836167e-04, -1.90267374e-03,
          5.13155828e-04, -1.09759532e-03, -3.53709824e-04,
          -1.81350842e-04, -2.79214350e-04, -5.42207912e-04,
          -7.08821608e-05, 3.01512264e-05, -7.34375280e-05,
          -8.51871373e-05, -3.36045850e-05, -1.30687240e-05,
          6.80113681e-06, -1.18619137e-04, 7.51533435e-07,
          -8.08524637e-05, 6.20220671e-05, 5.02880488e-04,
          4.60317060e-05, 0., -1.28755555e-05, 1.47250994e-05,
          9.58397595e-06, 1.98692633e-05, -8.27374970e-06,
          -1.68559927e-05, 8.66089395e-05, 0., -1.34201018e-05,
          9.46249493e-05, -1.55594807e-05, -9.87109743e-05,
          1.03012026e-04, -1.71545289e-05, -9.83363570e-05,
          -2.75792245e-05, 7.90238264e-05, 9.77041054e-06,
          -2.72190991e-05, 2.01400453e-05, 6.20804640e-05,
          1.38565174e-05, 8.59360989e-06, 0., 0., 1.65846650e-04, 0.,
          -2.06371682e-04, 7.79962647e-05, 5.40124718e-04,
          4.39044416e-05, 1.52709720e-06, 3.68482642e-06,
          -2.08642959e-04, 2.50023022e-05, -5.54798928e-04,
          3.74880256e-05, -7.53539091e-04, 1.56615017e-04,
          -8.89362767e-04, -4.75000234e-05, 6.15263358e-04,
          -1.14295690e-05, 2.63193622e-04, 4.84687189e-04,
          1.27260486e-04, 6.44386819e-05, 0., 2.42370676e-04,
          2.23975167e-05, -2.48166965e-04, 2.14070114e-05,
          1.93464465e-03, 0., 0., 0., 9.47472363e-05, -6.58662975e-06,
          9.83684572e-07, 0., 3.27017653e-04, 1.71054489e-05,
          9.61295955e-05, 0., 4.05944447e-05, 2.73420501e-05, 0., 0.,
          1.00114536e-04, 0., 3.75745435e-06, 0., 6.03090557e-05,
          -3.86187930e-05, -1.26797831e-05, -3.61065504e-05,
          1.45406550e-04, -3.96163341e-06, 2.11318784e-05, 0.,
          -1.44417254e-05, 0., -3.36180601e-05, 0., -8.41942310e-05, 0.,
          0., 0., 0., 0., 0., 0., 4.89548220e-05, 6.49110370e-06,
          3.54283286e-04, 0., 6.11570431e-05, 3.25039000e-05,
          1.69329069e-05, 0., -1.34059548e-04, -6.88268992e-05,
          1.06308224e-04, 0., 5.82515495e-05, -8.48930176e-06,
          -9.91292545e-05, 1.00980606e-05, 7.05121201e-05,
          -2.72357198e-07, 5.08595956e-04, -4.64635348e-04,
          -2.51900358e-03, -2.32136481e-05, -7.30259262e-06,
          -6.21201470e-04, 6.08740083e-04, 0., -1.60930504e-05, 0.,
          5.98266797e-06, 3.15150537e-05, 2.80537552e-05, 9.60671459e-05,
          -4.55845002e-05, -2.87827752e-05, -2.16575827e-05, 0.,
          -2.69347602e-05, -4.54351757e-05, -6.30840714e-06,
          1.14550585e-05, -8.54083337e-05, 6.02518426e-08,
          8.51991535e-06, 0., 5.61706547e-05, -5.33895400e-05,
          4.30023392e-05, 4.23853817e-05, 1.95716493e-04, 8.61903682e-05,
          -1.49772299e-04, -4.54351757e-05, 1.36744900e-04,
          -4.66622514e-05, -1.96641577e-05, 7.88764737e-05,
          -2.32276170e-06, 4.34972844e-06, 4.91104720e-06, 0.,
          -4.74688495e-05, 6.28281923e-05, 3.97677941e-05,
          4.14885617e-05, 1.67824342e-04, 5.34579216e-04,
          -5.40226873e-04, -6.80368385e-06, -2.71263067e-04,
          9.23774423e-05, -7.57888556e-05, 2.40764766e-05,
          2.82359601e-04, -7.42647171e-05, -2.88465235e-04,
          -2.16746093e-06, -1.14284595e-03, 3.75610252e-04,
          -3.30945622e-05, 3.39804596e-04, 4.40760719e-04,
          -1.77801296e-04, 1.94172747e-03, -5.47008995e-06,
          4.63173987e-04, -8.24966410e-04, 9.03069449e-05,
          -4.38846946e-05, -1.91042805e-03, -4.63120195e-05,
          2.20068381e-04, -3.97053627e-05, -2.18042958e-04,
          7.41693191e-04, 8.14711093e-05, -2.86791415e-04,
          -8.80350344e-05, -7.47677768e-05, 6.06022484e-04,
          5.06207434e-05, -1.57620707e-05, 6.36500408e-05,
          4.24268692e-05, 8.23303126e-05, 9.38621597e-05,
          -9.29644972e-04, 2.29222421e-03, -1.89198647e-04,
          4.00417310e-04, 9.19661077e-04, 1.19240525e-04, 1.93741277e-03,
          -1.90524594e-03, 7.26494036e-05, 4.11427536e-05, 0.,
          6.49110370e-06, -4.43340832e-05, -1.68599890e-05, 0.,
          -4.76159003e-05, 1.18171165e-05, 0., 0., 0., 1.12244925e-05,
          0., 4.17219198e-05, 1.18076105e-06, -1.43444908e-04,
          -2.64092261e-04, -1.85373756e-05, 4.72543661e-06,
          2.59396893e-05, -5.87574186e-06, 2.06059267e-05,
          2.00384875e-06, -4.95473214e-04, 3.79621488e-04,
          7.84054009e-06, 4.65597928e-04, 2.30011821e-04, 1.23491191e-04,
          3.18785460e-04, -4.04891296e-04, -7.33092835e-04,
          -6.30635477e-05, -1.61055050e-05, 1.42015488e-04,
          -9.46803950e-04, -1.83339889e-05, -1.51059648e-04,
          2.79080105e-05, -6.37998746e-05, -5.10653736e-05,
          1.35669266e-04, -8.05168820e-05, -4.65563906e-04,
          -2.88257820e-06, -2.04621858e-04, -9.04255867e-05,
          9.32636624e-07, -4.64485311e-06, 3.52615189e-06,
          2.44339134e-07, -5.29839563e-05, 0., 0., 2.85526937e-07,
          -1.30729357e-04, -5.78617182e-05, 9.95850423e-05,
          -5.54802464e-05, -1.62435987e-04, -1.78773844e-05,
          -6.98971053e-06, -1.48606938e-04, 6.10919145e-04,
          -3.35526529e-05, 8.09878693e-05, 2.14938700e-05,
          8.25161696e-05, 1.13422138e-05, -2.44246894e-05,
          -2.14514912e-05, 0., 0., 0., 0., -7.22830591e-05, 0.,
          3.88054177e-05, -2.07286976e-05, -3.44922766e-04,
          3.14823701e-05, 1.21423036e-05, -3.53073083e-05,
          -7.02999387e-05, 0., 1.72293920e-04, -1.56014194e-05,
          -1.49068551e-03, 9.33626870e-06, 3.17049213e-04,
          -9.56515396e-06, -1.60417578e-03, -2.61034074e-05,
          -5.03675663e-04, -5.61200315e-04, 4.65754347e-05,
          5.62787405e-04, 0., -2.03836375e-04, -2.75736056e-05,
          -1.33420253e-04, 3.41697130e-04, 1.03855622e-04, 0.,
          1.10216779e-05, 0., -6.08472219e-05, 8.36946765e-06,
          -2.55817431e-05, 2.12445317e-04, -5.49737597e-04,
          -3.56574019e-05, -1.93316402e-04, 4.24747523e-05,
          1.66292321e-05, 0., 2.57819120e-05, 6.49110370e-06,
          9.48007073e-05, 8.23756000e-06, -1.32429386e-05, 0.,
          5.71951059e-05, 3.49571292e-06, -5.24394127e-05,
          1.13351976e-04, -4.48632723e-04, 0., 2.88879673e-05, 0., 0.,
          0., -1.69942705e-05, 0., 4.25084800e-05, 0., 0., 0., 0., 0.,
          0., 0., 3.31389674e-05, 1.31851866e-05, 7.77329114e-05, 0.,
          5.25418327e-05, 0., 0., 0., 6.40645449e-05, 0.,
          -3.62433748e-05, 0., 2.76457813e-05, 5.79205735e-05,
          1.78000064e-05, 1.05635278e-04, -9.24376654e-04,
          -8.48838390e-05, 8.13833030e-04, -5.76391103e-05,
          1.32876483e-03, 2.74523100e-05, 2.13085470e-04,
          -3.79262870e-04, -5.86631824e-04, 3.73607054e-06,
          -3.47065761e-05, -9.03699402e-06, 1.25488477e-05,
          1.56962487e-05, -3.58715333e-05, -3.77325705e-05,
          -4.75416367e-04, 2.94947004e-05, 8.72315795e-05, 0.,
          6.38652054e-05, 0., 6.44930469e-06, 2.34055060e-05,
          6.11763244e-06, 1.26359228e-05, -1.58380935e-05, 0.,
          -3.82943581e-05, 1.61465759e-05, -6.50178072e-06,
          -1.74231100e-05, -2.13797277e-04, 2.85463087e-04,
          1.20039179e-03, 7.79955462e-06, 2.11573119e-04,
          -1.12925140e-04, -3.40258957e-05, 8.43962407e-05,
          1.98071517e-04, -2.17302750e-05, 1.77771312e-06, 0.,
          -4.91225001e-05, 3.13249657e-05, 4.80821109e-05,
          4.35680195e-05, 3.76398966e-04, -5.18087239e-04,
          1.07593311e-03, 2.38619796e-05, 9.39793463e-05,
          -5.13241248e-05, 1.29759108e-04, 4.94545784e-05,
          -1.20916986e-04, 3.54006588e-05, 1.02492821e-04,
          -2.47590779e-05, -2.62961257e-04, -1.74223009e-04,
          1.33337453e-04, 2.16169807e-04, -2.54549785e-04,
          -1.52623933e-03, 1.09381834e-03, -7.60134499e-05,
          3.13561643e-04, -2.00769026e-03, 1.36596631e-04,
          1.95802911e-03, 2.29023644e-04, -2.41628895e-05,
          3.55859811e-05, -2.02529496e-04, -1.94878776e-05,
          5.28070959e-04, 8.20306959e-05, 7.78624031e-04, 4.76212520e-03,
          9.75851726e-04, 4.27502498e-04, 2.98986038e-06, 1.04399682e-04,
          4.76521091e-05, -2.25839358e-05, -3.34329852e-05,
          1.80034658e-05, -1.03403360e-03, 2.12190571e-04,
          -4.90302162e-04, -6.32896961e-04, -1.24849507e-03,
          4.82849282e-04, -5.80577820e-04, -1.89396855e-03,
          4.18299060e-05, 0., 0., -4.54351757e-05, 4.90848470e-05, 0.,
          3.89362176e-05, 5.29362751e-06, -1.94592485e-05, 0., 0., 0.,
          1.12626276e-06, 0., 3.93500741e-05, 6.02846558e-06,
          -3.65841610e-04, -2.03648582e-04, 1.74670240e-05, 0.,
          -3.04338610e-05, 0., -7.91963103e-05, 4.44846455e-06,
          5.58002677e-04, -6.08262722e-04, 1.66305472e-05,
          3.20630264e-04, -7.51983200e-04, -5.41864429e-04,
          1.88102975e-04, 6.89968991e-04, 6.41520364e-06,
          -4.94229665e-04, 5.33929851e-05, 2.85268161e-05,
          -5.00662019e-04, 8.15950916e-05, -2.99550651e-04,
          -5.97206563e-05, 1.01730424e-04, -2.53673730e-04,
          -1.63366203e-05, -4.43414501e-05, -1.26531904e-05,
          3.64449079e-05, 8.76781050e-05, 8.57272789e-06, 3.94864219e-05,
          -2.19282429e-05, 0., -1.19646302e-05, 2.60534816e-05, 0.,
          -1.69942705e-05, 1.35333494e-05, 4.21729019e-05,
          -4.76625391e-05, -4.25572625e-06, -9.34558921e-05,
          -3.73705901e-04, -5.13623345e-05, 9.15133496e-05,
          -1.18813470e-04, 1.34376169e-04, -5.53853642e-05,
          -6.69000315e-07, 7.72759722e-06, -2.91547294e-05, 0.,
          -2.13985604e-05, -2.60064226e-05, 0., 0., 0., 0.,
          -3.59640399e-05, 0., -5.65258553e-04, 3.33466247e-04,
          6.73294242e-04, 1.49939387e-06, -7.44602221e-05,
          4.56277776e-05, -8.77123312e-05, 0., -3.20627791e-04,
          1.17681113e-04, 4.80329240e-04, 6.71908638e-05,
          -9.37450677e-04, 6.62772451e-04, -7.86914723e-04,
          2.53894541e-04, -6.20772335e-05, 1.32690213e-04,
          -3.28072406e-06, 2.58217304e-04, 0., -2.28452569e-04,
          2.84054313e-05, -4.48902691e-04, 1.50296091e-05,
          2.16390449e-03, 0., 0., 0., -2.77758936e-05, 1.69924660e-05,
          -2.86866798e-05, 1.17376376e-05, 2.13224976e-03,
          -7.75176668e-05, 1.41309851e-04, 0., -5.46620540e-05, 0.,
          -3.07846932e-07, -1.03591101e-05, 1.44277828e-05,
          -6.69000315e-07, 4.29647735e-05, 0., 8.92360913e-05,
          -3.72468685e-06, -6.06173080e-06, -2.17095308e-04,
          -9.40993661e-04, 0., -1.85460685e-05, 0., -5.24861243e-05, 0.,
          0., 0., -7.11338507e-05, 0., 0., 0., 0., 0., 0., 0.,
          -5.43787201e-06, -2.33690535e-05, 3.62397659e-05, 0.,
          6.97200312e-06, 0., 0., 0., 5.03906522e-05, -1.58923831e-05,
          8.51298901e-05, 0., -5.33937564e-05, 1.03998591e-05,
          -2.72833968e-05, -1.83640790e-04, -1.01883663e-03,
          7.07574582e-05, 1.07502114e-04, -6.99542798e-05,
          -4.99335001e-04, -1.39977201e-04, -6.88585569e-05,
          -5.13588602e-04, -1.37540489e-03, 9.22946401e-06,
          -2.38907924e-05, 0., -1.07032247e-05, 3.49442780e-05,
          4.53840528e-07, -1.84357395e-05, 5.40751964e-04,
          2.01217154e-05, 4.44667166e-05, 0., 3.87092632e-06,
          2.12450232e-05, 0., 0., 1.45287559e-05, 2.95817990e-05,
          -2.29815851e-05, 0., 5.90337622e-05, -7.98796682e-05,
          -1.04118168e-04, -1.03475331e-05, -9.31860821e-04,
          2.61997309e-04, 1.90572726e-04, 1.77771312e-06,
          -3.04484856e-04, -1.64382174e-04, -3.23060849e-05,
          3.88011358e-05, 1.00184618e-04, 4.05553437e-05, 1.54220143e-05,
          -1.28755555e-05, 4.43184354e-06, -7.62070567e-06,
          5.66219969e-05, 1.35302427e-04, 3.11857584e-04, 1.49119191e-03,
          6.49885042e-05, 2.09351347e-05, -1.40564458e-04,
          -4.53427456e-05, 5.57635140e-05, 2.77259624e-05,
          -3.19531937e-05, 1.30740475e-04, -6.43182557e-06,
          5.78743093e-05, -6.98742981e-04, 4.04817001e-05,
          -1.88330305e-04, 2.56204919e-04, -1.73186723e-04,
          1.94713369e-03, 1.30889087e-03, 7.73544452e-05,
          -3.90105008e-04, -4.46581427e-04, -2.29815239e-04,
          -6.41340739e-04, -1.22404727e-03, 2.20748421e-04,
          1.67595226e-05, -1.58520452e-05, -8.84390465e-06,
          -3.95698211e-04, 1.28545048e-06, 2.06962548e-04,
          -4.07483894e-04, 7.87659548e-04, -1.94445674e-04,
          3.07039627e-05, 1.65618156e-04, 2.72673235e-04,
          -9.60837933e-05, -5.20424294e-07, 1.72040673e-04,
          5.14348969e-04, -4.34494068e-05, 2.63703732e-05,
          -1.67566523e-05, 1.02241803e-03, 2.10444035e-04,
          1.03790243e-03, 6.12360076e-04, -1.28445445e-05,
          -6.77142725e-06, 2.17197066e-05, 0., -6.56155535e-05,
          -1.85373756e-05, -5.13109153e-05, 2.15582859e-05,
          7.38058043e-06, 0., 0., 0., 2.68809872e-05, 0., 2.32208713e-05,
          1.77675599e-06, 6.91904570e-04, 1.77156267e-04, 0.,
          7.16898649e-05, -9.22295221e-05, -1.86534944e-05,
          6.16653633e-05, -9.11121388e-05, -1.13834967e-05,
          -8.63913592e-05, 2.06321711e-05, -7.31219625e-05,
          1.05121188e-04, -3.42290470e-04, 5.98963117e-04,
          9.37438672e-05, -6.59576850e-04, -3.85324296e-04,
          -1.63885808e-04, -3.22263280e-04, -1.04382879e-03,
          -1.18038151e-05, -5.15564716e-05, -2.84074747e-04,
          -3.63194267e-05, -1.89912807e-05, 0., -2.06100012e-05,
          2.30454083e-04, -4.54351757e-05, 1.78444592e-04,
          1.55096976e-04, -8.26074101e-05, 6.52652307e-05,
          1.15184002e-06, 1.87108321e-06, -7.18716256e-05, 0.,
          -2.04724893e-06, -1.14361828e-05, 2.27371002e-05,
          -6.37624680e-06, 8.24501603e-06, 0., -2.34714054e-04,
          -4.65842932e-05, 2.33998726e-04, -1.50412579e-05,
          1.69293635e-04, -1.76614449e-05, 1.13422138e-05,
          6.03117624e-05, 2.46329728e-04, 3.03462075e-05, 1.64447611e-05,
          4.76422247e-05, 6.37936027e-05, 0., 0., 0., 1.08287641e-05,
          7.15941587e-06, -9.93735375e-05, -4.27443047e-05,
          -1.56210474e-04, 2.34435429e-04, -5.81613995e-06,
          -7.55056171e-05, -1.35469483e-04, 4.63525566e-06,
          -2.00776849e-04, 5.92449360e-05, -3.41569365e-04,
          2.96746330e-05, -3.26492882e-04, -8.39630957e-05,
          1.71193067e-04, -1.90457934e-06, 7.82730815e-04,
          2.36682637e-04, 7.80095652e-05, 1.33631489e-04, 4.52978493e-05,
          2.73080950e-04, -1.05469349e-04, -7.86939927e-04,
          7.14712660e-05, -3.32678878e-03, 0., 0., 0., 4.65501289e-05,
          -4.36765331e-05, -5.91776297e-05, 8.68868156e-05,
          -3.45272187e-04, -4.31211629e-06, 2.13826701e-04, 0.,
          1.05423833e-05, 6.44930469e-06, 4.61776872e-05, 1.31851866e-05,
          -5.95296115e-05, 0., 2.02099563e-05, 0., 1.26978819e-04,
          2.39854817e-05, -1.01675223e-05, -3.08932431e-05,
          1.02904223e-05, 0., 3.43005304e-05, 0., -4.94617634e-05,
          -5.35114577e-06, 0., 0., 4.33927780e-05, 0., 9.58397595e-06,
          0., 0., 0., 0., 0., 1.15421644e-04, 1.61668449e-05,
          3.99805867e-05, 0., -1.29643231e-05, 0., -2.10063718e-05,
          -1.12027010e-06, 2.24883133e-05, 3.83051047e-05,
          9.73415663e-05, 0., -8.68256120e-06, -5.01941104e-05,
          1.20539326e-05, -5.45970106e-05, -8.59864114e-04,
          1.19198614e-06, 4.09063709e-04, -6.58113859e-04,
          -5.73171128e-04, -7.28866507e-05, 3.49337497e-05,
          -1.44799275e-03, -4.37940267e-04, 2.85526937e-07,
          -4.13324015e-05, 0., -1.99477927e-05, -1.88861486e-05,
          -7.32284316e-05, -7.75947119e-05, -1.74085901e-04,
          -5.26273761e-05, 4.59530056e-05, 0., 5.21952716e-05,
          8.23756000e-06, 5.28833289e-06, 2.97705938e-05,
          -2.44549610e-05, -2.08216225e-05, 1.23160164e-04,
          8.24501603e-06, 2.91535252e-05, 3.37697493e-05,
          -9.68964086e-05, 9.15567143e-05, 1.21545920e-04,
          8.03286748e-05, -3.36232879e-05, 1.15184002e-06,
          4.45913814e-04, 8.82155364e-05, 1.23315316e-04, 8.49979915e-05,
          -4.23314894e-04, -3.17542144e-05, 3.97751501e-06, 0.,
          1.34586924e-04, 6.85829509e-05, 2.45811752e-05, 6.22219741e-05,
          5.37776155e-04, 2.31508413e-04, 5.31790778e-04, 5.57701651e-06,
          -2.84320122e-04, -1.82425574e-05, -3.22197593e-05,
          9.67809501e-06, -1.30643588e-04, 2.10636004e-04,
          -5.33439015e-05, 7.15147762e-05, 1.97789035e-04,
          2.41265239e-04, 2.01599323e-05, 4.70126804e-04, 7.05935585e-04,
          4.46669088e-04, 7.43581564e-04, 3.81792524e-05, 2.10641330e-04,
          -8.41845409e-04, -1.25476101e-04, -3.78769473e-04,
          6.02051674e-04, 9.41084363e-05, 4.38599891e-05, 0.,
          -5.94640187e-05, 3.58320067e-05, -3.31230367e-05,
          5.99800151e-05, 4.04652936e-04, 8.58597341e-04, 8.32620135e-05,
          2.60320649e-05, 1.39608615e-04, 1.05200212e-04, 2.03762556e-05,
          1.00813908e-04, 1.94047519e-04, 2.04827811e-05, 4.58659451e-05,
          -3.37477904e-05, -3.55928409e-04, -1.86074321e-04,
          -1.83942957e-05, 1.25372270e-03, 1.61081422e-04,
          -4.30445871e-05, 2.22537055e-05, 1.18171165e-05, 0.,
          2.15096352e-05, 7.51533435e-07, 0., 0., -2.91095257e-05, 0.,
          0., 6.44930469e-06, 1.16893454e-04, 0., 1.50466428e-06,
          -1.02417962e-05, 4.92943625e-04, -9.80547047e-05,
          2.57819120e-05, -2.74480408e-05, -5.71858936e-06, 0.,
          -2.80844069e-05, -7.50126992e-06, -2.38649023e-04,
          -2.75678234e-04, 1.17360369e-05, 8.19476554e-05,
          -1.48181885e-03, -4.44269499e-05, 5.48125710e-04,
          -2.31784667e-04, -6.09138864e-04, -5.44059476e-05,
          -1.13934751e-04, 4.65592275e-05, -1.01163075e-03,
          -5.56877822e-05, -1.38798976e-04, -2.49105733e-06,
          4.84163429e-05, -3.10561954e-05, 0., -1.94592485e-05,
          1.23091042e-04, 1.05766658e-05, -3.46791167e-05,
          -1.43262268e-05, 2.30488426e-04, -5.81157474e-05, 0.,
          -4.67211430e-05, -4.98965856e-05, -2.96159487e-06,
          5.28833289e-06, -3.96163341e-06, 8.71211741e-05,
          3.94350755e-05, -1.85373756e-05, -3.29196700e-06,
          -1.37707990e-04, -3.10561954e-05, 4.14714523e-05,
          -1.67402424e-04, 3.75022559e-04, 4.71166240e-05,
          1.82076401e-05, 4.21777004e-05, 3.32703332e-09, 3.13577693e-05,
          -1.82074109e-05, 5.47070013e-05, 6.68751745e-05,
          1.68929400e-05, 0., -1.03591101e-05, -3.03591423e-06,
          1.13422138e-05, -8.98270300e-05, 6.58725621e-05,
          -9.88570158e-04, 1.85069395e-04, -1.39079621e-05,
          7.55957672e-06, -2.55935302e-04, 2.17197066e-05,
          -3.62812571e-04, -7.28889718e-05, 2.10832967e-03,
          4.28374951e-05, -7.87270488e-04, 3.88370900e-05,
          -2.35863659e-03, 1.24896280e-04, 5.79255342e-04,
          -5.32184422e-05, 5.44344839e-05, 1.39871816e-04,
          5.28833289e-06, 3.40025639e-04, -5.48164680e-05,
          8.16457905e-05, -6.67736895e-05, 1.01168721e-03,
          4.34972844e-06, 3.48792637e-05, -1.03591101e-05,
          1.18171165e-05, -7.17965941e-06, 1.63340592e-05,
          8.98909275e-06, -2.64920120e-04, 2.58386008e-05,
          -1.71016691e-05, 0., 3.94948365e-05, 1.77580732e-05, 0.,
          1.65854071e-05, 1.61920674e-04, -2.31999047e-06,
          -6.03858898e-05, 0., -1.79473700e-05, -1.26524810e-06,
          -6.75681658e-05, -1.92394818e-05, -7.31312961e-04,
          -1.84132466e-06, -1.55850867e-05, 2.17197066e-05,
          6.29522110e-05, 0., 5.39157627e-05, 0., -7.36783622e-05, 0.,
          0., 0., 0., 0., 2.17197066e-05, 0., -2.57112242e-06,
          -2.67967662e-05, 1.08675995e-04, 0., -2.58123009e-06,
          -2.08216225e-05, -1.85373756e-05, 0., 1.07316693e-04,
          -2.23305415e-05, 2.50384128e-05, 0., 4.75335037e-06,
          3.50291157e-05, -5.91374010e-05, 2.26517568e-05,
          -2.41087182e-04, -1.86530364e-04, -1.07469590e-04,
          -3.11875396e-04, -1.10889603e-04, -1.54675654e-05,
          -1.68314888e-04, -6.42561703e-04, 1.39307138e-03,
          -8.37999869e-06, -4.59247440e-06, 0., -3.76016897e-06,
          -1.00691410e-04, -6.31298390e-05, 6.71275848e-06,
          2.58378132e-04, -1.96852534e-06, 6.85114719e-05, 0.,
          -4.24905702e-05, 0., 2.85526937e-07, 6.44930469e-06,
          -3.82253820e-05, -2.51521451e-05, 4.84506054e-05, 0.,
          -5.14687636e-05, 3.47561254e-05, -1.95401335e-05,
          3.61523271e-05, -1.10689609e-04, 2.17409528e-04,
          -1.49727086e-04, -7.65482309e-06, 7.86992241e-05,
          1.11031062e-04, -5.55262159e-05, -3.75136588e-05,
          -6.32186639e-05, 2.15751716e-05, -1.73318840e-05, 0.,
          4.78483489e-05, 2.51219763e-06, 7.42826232e-05,
          -3.61016755e-05, 4.14078357e-04, -1.53986821e-05,
          -2.55449530e-04, -8.58139720e-06, 1.08421002e-04,
          -2.83986865e-05, 5.18120578e-05, -1.76304093e-05,
          -1.63505232e-04, 2.80247041e-04, 1.37971903e-04,
          -4.36854752e-05, -2.79534463e-04, 6.30409704e-05,
          -2.80555018e-04, 7.14905444e-04, -6.58700650e-04,
          1.41744013e-03, 8.38221807e-04, -2.79245396e-05,
          -4.92136809e-04, -9.95648094e-04, -2.09119200e-04,
          -8.24606250e-05, -1.88558642e-03, -2.08702604e-05,
          -4.50046027e-05, -1.55280977e-05, -1.09788110e-04,
          -9.77060176e-04, 4.89698032e-05, -8.58327083e-04,
          -2.12435401e-03, 8.11036094e-04, 4.88420192e-04,
          3.37551937e-05, -1.54175883e-04, 6.88645232e-05,
          1.53370456e-05, 9.17535071e-05, 1.11486821e-04,
          -4.67679696e-04, 8.30005301e-05, 3.92712755e-05,
          -2.14265572e-04, -1.10229547e-03, 8.34819075e-05,
          -1.72055350e-03, -1.61415327e-03, -9.19201193e-05,
          -1.88609692e-06, 0., 1.03713228e-05, -1.94592485e-05, 0., 0.,
          5.90173695e-05, 0., 0., 0., 0., 2.42757687e-05, 8.52704852e-06,
          -1.29408472e-05, -2.44103285e-06, 2.89382035e-04,
          -1.98996095e-05, 0., 4.82586529e-06, -1.57617789e-04,
          3.30619223e-05, 1.27623352e-05, 7.68978316e-06,
          -1.98308335e-04, -8.54811733e-05, 2.17197066e-05,
          -1.52376248e-04, -1.76860276e-03, -2.33376399e-04,
          1.84775581e-05, -4.56330832e-04, 3.88920453e-04,
          9.29704183e-05, -5.70890109e-07, 3.56018859e-06,
          -9.62037302e-04, -1.55280977e-05, -8.73897952e-05,
          -1.55038524e-05, -8.79518120e-06, -3.10561954e-05,
          5.56900522e-06, -3.21764674e-05, -1.89690618e-05, 0.,
          -1.13283451e-04, 5.83487526e-05, 9.21722167e-05,
          4.38916550e-06, 0., 0., 7.25000791e-05, 0., 0., 1.23334758e-05,
          4.55940863e-05, 7.99576810e-06, 0., 0., -1.00311430e-04,
          -1.77686379e-05, -1.46053781e-05, 1.17079608e-05,
          6.51598326e-04, -1.84861328e-05, 0., -5.39184584e-05,
          1.21736550e-04, 0., 7.32834669e-05, -5.77052997e-05,
          1.65850943e-05, 0., 0., 0., 7.94516163e-05, 0.,
          -3.18578532e-04, 5.11424969e-06, 7.15228205e-04,
          2.82682431e-05, 3.08304589e-05, 3.64162333e-05,
          -4.73832515e-05, 8.52704852e-06, -7.21309261e-05,
          -4.65987068e-05, 3.57757817e-04, 1.71091669e-05,
          -2.03944248e-04, 5.73329635e-05, -2.59011402e-04,
          1.33832355e-05, -4.14894894e-05, -7.01715835e-05,
          5.11594226e-05, 1.50448890e-04, -1.12027010e-06,
          3.73629242e-04, 5.43943970e-05, 8.27014355e-06, 1.32891464e-05,
          -2.26476416e-03, 0., 2.85526937e-07, 0., 5.05760945e-05,
          -4.03478225e-05, 1.07983569e-05, -6.92638932e-05,
          -6.05520559e-04, -4.90788698e-05, -1.72294549e-05,
          3.30258058e-06, 6.26712645e-05, 0., 2.17898787e-06, 0.,
          1.25828316e-04, 0., -8.95737230e-06, 0., -2.89452182e-05,
          -2.03247237e-05, 1.00169280e-04, -2.51768233e-05,
          -3.39955674e-04, 1.18171165e-05, 9.25770364e-05, 0.,
          4.83791882e-05, 0., 0., -1.66483678e-05, 1.21220532e-04, 0.,
          0., 0., 0., 0., 0., 0., -9.37735531e-05, 3.52510360e-05,
          -4.52086788e-05, 0., -1.14030161e-04, -2.74883459e-05,
          3.83856932e-05, 0., -3.95190582e-05, 2.85526937e-07,
          6.20591663e-06, -4.31211629e-06, -5.76641723e-05,
          -2.45119863e-05, -1.48149484e-05, -2.63735237e-05,
          -3.53257172e-04, -7.68454920e-04, 2.46432610e-03,
          -1.38391624e-04, -3.37044767e-04, 6.35524702e-05,
          6.44781612e-05, -3.49261449e-04, -4.54819237e-04,
          9.58397595e-06, 0., 0., 7.58255146e-06, 1.14717932e-06,
          -4.06699000e-05, 5.05135940e-05, -1.76596965e-04,
          3.57843455e-05, 2.08977246e-04, 0., -1.76655143e-04, 0.,
          1.98692633e-05, 8.23756000e-06, 2.30661153e-05, 9.58397595e-06,
          -7.82000279e-05, 9.13179065e-07, -5.06430661e-05,
          2.08435304e-05, 8.76213453e-05, 1.40086886e-05,
          -1.53614776e-04, 6.44205604e-04, 6.69431058e-04,
          1.60750787e-05, 8.55329272e-04, -6.94642449e-06,
          9.33760166e-05, -2.17996530e-05, 1.18938799e-03,
          1.65854071e-05, -8.95737230e-06, 4.05553437e-05,
          7.75553708e-05, 1.98794223e-05, 6.24154472e-06, 1.22610480e-04,
          6.44850719e-04, 3.16028553e-03, 2.16131564e-03,
          -4.88449441e-05, 5.25498996e-04, 2.21391398e-04,
          1.74399000e-04, 7.16949171e-06, 3.40325758e-04, 1.32918335e-03,
          2.60718720e-04, 1.79717135e-05, -6.92201502e-05,
          1.61468692e-04, 3.42756917e-04, 3.51738490e-05, 8.78604478e-04,
          -2.70092743e-04, 9.85819963e-04, -1.01720310e-04,
          1.21189842e-04, -6.84472558e-04, 1.07887689e-04,
          -4.76808433e-04, -1.78068134e-04, 1.20845150e-04,
          -1.62526649e-05, -3.10561954e-05, -6.36457335e-05,
          -2.73530259e-05, 1.07887363e-05, -8.41791218e-04,
