%YAML:1.0
---
opencv_ml_svm:
   format: 3
   svmType: C_SVC
   kernel:
      type: LINEAR
   C: 2.9999999999999999e-01
   term_criteria: { epsilon:1.1920928955078125e-07, iterations:1000 }
   var_count: 7424
   class_count: 2
   class_labels: !!opencv-matrix
      rows: 2
      cols: 1
      dt: i
      data: [ -1, 1 ]
   sv_total: 1
   support_vectors:
      - [ 1.05124502e-03, -2.58802291e-04, -6.18677004e-05,
          2.82439025e-04, -6.89882960e-04, 1.00219113e-04,
          4.52642525e-05, -1.17891381e-04, 2.60070283e-05,
          5.89171941e-06, 0., -3.57343160e-05, -2.51913007e-04,
          3.81263890e-05, -1.17237978e-04, -2.19440743e-04,
          7.55052024e-05, 7.54281500e-05, 0., -7.97466564e-05,
          -1.66000187e-04, -1.83137308e-05, -5.93800323e-05,
          -1.39254071e-05, -2.16013999e-04, -3.29047680e-06,
          -9.18911828e-05, -1.13677706e-04, 1.54581605e-04,
          1.16472602e-05, -4.27621271e-04, -1.22600439e-04,
          3.48952337e-04, -1.71265074e-05, 0., -1.08910353e-05,
          -2.91750348e-05, 0., 0., -2.69437860e-05, 0., 0., 0., 0.,
          1.35930316e-06, 0., 0., 0., 5.26541669e-04, 1.07241671e-04,
          8.30301287e-05, -5.56035448e-05, 2.61589623e-04,
          -1.04791972e-04, 3.72616814e-05, -7.49565743e-06,
          4.17071336e-04, -5.14047104e-04, -1.39948297e-05,
          -2.47077005e-05, 9.06109286e-04, -7.30867177e-05,
          -1.17944466e-04, -2.58722226e-04, -7.09294982e-04,
          1.29318636e-04, -1.94200475e-05, -3.26744375e-05,
          -1.13453971e-04, 2.55171244e-08, -1.07842607e-04,
          -7.99146583e-05, -4.14493952e-05, -3.74380215e-05, 0.,
          -1.32522837e-05, 8.20984351e-05, -7.07014215e-06,
          -3.41628656e-05, 4.73125656e-05, 2.92940149e-05, 0., 0.,
          -1.12435337e-05, 4.58816758e-05, 0., 0., 0., -1.83137308e-05,
          0., 0., 3.01931277e-06, -4.02809528e-05, -2.61979931e-05, 0.,
          1.42027454e-06, 3.45839217e-04, 1.61825068e-04,
          -1.83639459e-05, 5.09680322e-05, 6.16694597e-05, 0.,
          6.01187421e-05, -1.38109217e-05, -2.14613410e-05, 0., 0., 0.,
          -7.89143014e-05, 0., -3.24813096e-04, 0., -4.20314347e-04,
          7.14072885e-05, -9.62238937e-06, 7.51299012e-05,
          -2.91271772e-05, 0., -5.17683802e-04, -1.01472855e-04,
          -1.41133452e-04, 3.68349970e-06, -4.23619029e-04,
          -1.04890809e-04, -3.17070080e-04, 1.89120110e-05,
          1.16433503e-05, -9.04912304e-05, 9.34494983e-06,
          1.13351511e-04, 0., 4.01331548e-04, 0., -4.12514164e-05, 0.,
          -1.39209485e-04, -3.67062821e-05, 0., 0., 0., 0.,
          -5.23959861e-05, 4.70423947e-06, -1.06505169e-04,
          -4.53638932e-05, 2.91514461e-05, 0., -1.83137308e-05, 0., 0.,
          0., -1.89579296e-05, 5.18425040e-05, 1.03164057e-05, 0.,
          5.15820284e-06, 1.97279311e-04, 8.43252110e-06, 2.04482276e-05,
          -1.53950066e-04, -5.82048324e-06, 0., 0., -7.05844141e-05, 0.,
          0., 0., -1.89667444e-05, 0., 0., 0., 0., 0., 0., 0., 0.,
          -1.13583501e-05, 6.15503741e-05, 0., 3.05386820e-05,
          -2.36528831e-05, 0., 0., 6.56708107e-06, -2.93361500e-05,
          -3.95613097e-05, 0., 4.73305681e-06, 1.63803270e-04,
          -3.09186325e-05, -9.13912518e-05, 1.49595930e-04,
          -5.64688817e-04, -1.11872454e-04, -8.08400873e-05,
          4.33475623e-04, -1.11942682e-05, -1.57834511e-05,
          -1.07650585e-05, -7.14032649e-05, 0., 2.44404582e-05,
          -2.86120685e-05, 7.39524694e-05, 3.05318754e-05,
          1.73852441e-05, 4.70423947e-06, 5.91120224e-05, 1.24864900e-05,
          2.37364933e-04, 0., -4.43055724e-05, 0., 1.42562385e-05, 0.,
          -2.59249591e-05, -3.75016498e-05, 9.64879509e-05, 0.,
          -1.02365942e-04, -8.21749054e-05, -5.15075080e-05,
          -8.97879454e-06, -9.51517213e-05, 1.58337716e-04,
          2.03392934e-03, 9.05090747e-06, 4.58672468e-04,
          -1.38108284e-04, -2.42077040e-05, 7.00109058e-06,
          7.81273193e-05, -7.05844141e-05, -1.04530394e-04, 0.,
          6.51905648e-05, -1.47414194e-05, 2.45493375e-05,
          1.33750736e-05, -2.59453773e-05, 3.64660256e-04,
          2.10370694e-04, 0., -4.03026352e-04, -1.00656662e-05,
          -1.99215228e-05, 0., -1.50446067e-04, 2.50668207e-04,
          6.93147958e-05, 8.11678256e-05, -5.63500682e-04,
          4.04991551e-05, 2.77644926e-04, 3.05732916e-04,
          -4.48765262e-04, 3.73211835e-04, 7.48317805e-04,
          -1.94310905e-06, -2.33744780e-04, -1.39840157e-03,
          -1.30717472e-05, -4.13433590e-04, -4.65691963e-04,
          -5.80781198e-05, 0., 0., -1.86394667e-04, -2.05500019e-05,
          -6.86377534e-05, -3.05305934e-04, 8.91279546e-04,
          -3.69716930e-04, 1.07193104e-04, 1.71907304e-05,
          9.20600287e-05, -5.65287110e-06, -1.83137308e-05,
          3.54175063e-05, 1.29939745e-05, 4.54478693e-04,
          -9.02871907e-05, -1.50434580e-05, -2.00250506e-04,
          -4.04729362e-04, 4.03444392e-05, -1.21069286e-04,
          3.84959625e-04, 5.98833903e-05, 0., 0., 2.54198039e-06,
          2.78785992e-05, 0., -2.16896133e-05, 7.87519966e-05, 0., 0.,
          0., 0., 3.45827066e-05, 0., -2.59249591e-05, -8.50177275e-06,
          3.23488581e-04, 1.17531352e-04, 9.87597105e-07, 4.50275365e-06,
          -4.38861643e-05, 1.24864900e-05, 0., 4.02784462e-05,
          9.15941491e-05, -3.91423346e-05, 0., 2.17420693e-05,
          -1.63412798e-04, 1.73963635e-05, 1.03587481e-05,
          -2.59121152e-04, -7.78096437e-04, -3.58459911e-05,
          -7.23266612e-06, -6.66202614e-05, -3.85204839e-05,
          1.24864900e-05, -1.15667230e-04, -1.11459929e-04,
          -2.27763503e-05, 6.63305912e-07, 0., -4.82815040e-06,
          7.74692744e-05, 7.00559667e-06, -3.30505536e-05,
          3.80172933e-05, 1.63511431e-04, 0., 0., 0., 3.14086246e-05, 0.,
          0., 0., 1.29602326e-04, 1.53597866e-05, 0., 0., 6.41196893e-05,
          0., 0., -3.28346050e-06, -2.76326726e-04, 1.10550518e-05, 0.,
          0., -5.69953045e-05, 0., -2.59249591e-05, -4.99680282e-05,
          -6.28690123e-06, 0., 0., 5.15820284e-06, 1.12325746e-04, 0.,
          1.54218389e-04, 1.16738529e-05, 7.42441625e-04, 5.31829537e-05,
          1.13848000e-05, -4.60687043e-05, -3.02912140e-05, 0.,
          1.02613092e-04, 6.39020300e-06, 2.34753103e-03,
          -1.50316118e-04, -7.64079050e-06, -7.50312538e-05,
          -7.40597199e-04, -1.84118426e-06, -9.07156427e-05,
          5.54398102e-05, 1.57614792e-04, 1.07628107e-03, 0.,
          2.92615241e-05, 2.23710940e-05, 1.01545202e-05, 4.70423947e-06,
          2.13994551e-03, 0., -1.89199200e-05, 0., 0., 3.93047094e-06,
          -4.67043792e-05, -7.05844141e-05, -1.37218041e-04,
          3.01931277e-06, -1.25962571e-04, 0., 1.03856168e-04, 0., 0.,
          0., -4.89062368e-05, 0., -7.05844141e-05, 0., 2.19536887e-05,
          -5.82048324e-06, 3.03753422e-05, 7.02290490e-05,
          -2.57699412e-05, 0., -4.69385195e-05, 0., -6.74077955e-06, 0.,
          0., 0., -9.44831045e-05, 0., 0., 0., 0., 0., 0., 0.,
          -1.01378419e-05, 0., 1.25604507e-04, 0., -1.17817808e-05, 0.,
          0., 0., -3.42901112e-05, 6.17682890e-05, -4.04528473e-05, 0.,
          -4.72806860e-05, 7.49625133e-06, -1.05984233e-04,
          9.77891887e-06, -1.35324299e-05, 3.57637822e-04,
          -1.80226297e-03, 1.62351207e-05, -1.53214426e-03,
          -2.66135699e-04, -1.12482761e-04, 9.54271163e-05,
          -4.12245252e-04, 1.35852679e-05, -2.37207337e-06, 0.,
          -3.58970137e-05, 5.88833018e-06, 0., 6.11055584e-05,
          -5.10207552e-04, 7.32766421e-05, 2.33395913e-05, 0.,
          3.99895980e-05, 0., 0., 0., 3.72134491e-05, -1.71176889e-05,
          -9.84611415e-06, 0., -3.67487264e-05, -3.23731037e-05,
          2.08612291e-05, 5.15820284e-06, 9.83914870e-05,
          -1.42047254e-04, 4.85562894e-04, 5.88833018e-06,
          -3.82571743e-04, -2.08966347e-04, 1.64969715e-05,
          -7.43334895e-05, -2.76768096e-05, 0., -1.12435337e-05, 0.,
          1.69676641e-05, 4.70757441e-05, 3.89270463e-06, 7.67524689e-05,
          1.24520695e-04, 2.27805786e-03, -2.37706045e-04,
          -4.15066825e-05, -6.60554579e-05, 4.34155845e-05, 0.,
          6.17682890e-05, -4.14944298e-05, 4.37235896e-04,
          -2.89325690e-04, -3.78092191e-05, -2.09325051e-04,
          1.34642596e-05, -1.10648114e-04, 1.10266090e-04,
          -1.26231380e-03, 3.50393617e-04, 4.05728439e-04,
          4.05407955e-05, 1.33786001e-04, -7.74878485e-04,
          1.38252595e-04, -1.70502244e-04, -8.84061039e-04,
          -4.90874008e-05, 0., -2.96785838e-05, 0., 4.37346316e-04,
          4.17904012e-05, 1.86567395e-05, 1.79300189e-03, 1.05275027e-03,
          2.48628814e-04, -7.07014215e-06, -1.00385951e-05,
          3.57372255e-06, 0., -1.12272601e-05, 2.26141838e-05,
          5.51349891e-04, 1.06708731e-05, -5.82048324e-06,
          1.15045941e-06, -1.00125768e-03, -8.39494362e-07,
          4.99985108e-05, 3.30563344e-05, 2.06128661e-05, 2.34598679e-06,
          0., 3.14086246e-05, -1.19143224e-05, 0., 0., 9.03771070e-05,
          3.01931277e-06, 0., 0., 0., 5.35330537e-06, 0., 0.,
          2.85636706e-05, -8.67053222e-06, 4.24848222e-05,
          4.46361946e-06, 1.36666486e-05, -5.19396526e-05,
          1.84513246e-05, 5.14054700e-05, 3.11915355e-05, 6.88999935e-05,
          5.65967748e-05, 0., -3.93161208e-05, -9.88863641e-04,
          -8.45187697e-06, 2.06343859e-04, -4.71138919e-05,
          -1.11394015e-03, 1.47584678e-05, 2.43276136e-05,
          -6.32133160e-05, -6.11437019e-04, 0., 4.92516083e-05,
          -3.07230766e-05, -2.26217144e-05, 1.86491961e-05, 0.,
          1.29457103e-05, -7.21279794e-05, 0., -3.42389903e-05,
          -1.89199200e-05, -1.10263849e-04, 0., 0., 0., 0., 0., 0.,
          3.14039498e-05, -6.00084059e-05, 0., -4.50792650e-05, 0.,
          1.17142139e-04, 0., 0., 1.84513246e-05, -3.10070871e-04,
          3.63787512e-05, 0., -1.13438193e-06, -7.84809163e-05, 0.,
          9.34291020e-05, 3.01480977e-05, 5.15820284e-06, 0., 0., 0.,
          1.11408308e-05, 0., 1.97653586e-04, 1.86194342e-07,
          -4.32322588e-04, -5.51085104e-05, -8.46919284e-05,
          2.04037497e-05, 2.13796156e-04, 0., 7.17415824e-05,
          -5.82048324e-06, 1.42580399e-03, -1.51913540e-04,
          1.67630293e-04, 1.13338625e-04, -3.75318457e-04,
          2.38798984e-05, -1.27500889e-05, 1.81271156e-04,
          3.45586996e-05, 3.91042122e-04, 0., 7.54484732e-04,
          -2.21122991e-05, -1.23347389e-04, 0., 9.11168871e-04, 0., 0.,
          0., -1.12272601e-05, 0., 1.48180061e-06, 0., -2.10880549e-04,
          1.62645647e-05, 2.08703095e-05, 0., -2.26470347e-05, 0., 0.,
          0., -2.17522884e-05, 1.48180061e-06, 6.17682890e-05, 0.,
          -5.13358500e-05, -7.05844141e-05, -5.82048324e-06,
          5.20863887e-06, -1.97807254e-04, -7.07014215e-06,
          -2.11936112e-05, 0., 1.02502570e-04, 0., 0., 0.,
          -2.33646770e-05, 0., 0., 0., 0., 0., 0., 0., -7.23266612e-06,
          -1.34424145e-05, 3.58178331e-05, 0., -2.20741313e-05, 0., 0.,
          0., -4.23927086e-05, -2.36528831e-05, 0., 0., 7.69324834e-05,
          -4.50792650e-05, -8.23266528e-05, -1.20271716e-05,
          -3.36269761e-04, -3.22799402e-04, -7.22761499e-04,
          -8.34907332e-05, -1.75948604e-03, 1.23859994e-04,
          -4.85422606e-05, -4.31678818e-05, 3.36226134e-04, 0.,
          -5.28673081e-05, 0., 1.19912038e-05, -7.91812563e-05,
          1.40879602e-05, 6.93910042e-05, -3.27307760e-04,
          4.43998724e-05, -2.89706932e-05, 0., 5.25382438e-06, 0., 0.,
          0., 0., -1.99215228e-05, 0., 0., 4.86336176e-05,
          2.17277466e-05, 2.12618361e-05, 3.14086246e-05,
          -1.25516002e-04, 2.82039837e-04, -9.98253527e-05,
          3.11356962e-05, 9.24762717e-05, 6.98915392e-05, 5.52571976e-07,
          5.92891047e-05, -3.56824385e-05, 0., 4.88592814e-05, 0.,
          -1.27567182e-06, 1.94343447e-05, 2.45500960e-05,
          3.92976699e-06, 2.96658051e-04, 6.82647922e-04, 2.68944714e-04,
          2.84762336e-05, -1.55134330e-04, 1.72536511e-06,
          -2.41407520e-06, 1.47984429e-05, -1.65420774e-04,
          8.54600454e-04, 1.52026463e-04, 1.11538666e-05,
          -8.08867044e-04, 1.42675359e-04, 1.23362945e-04,
          -1.57319577e-04, -1.03390834e-03, 4.20293625e-04,
          5.17646316e-04, -9.27505025e-05, 3.74957744e-04,
          -2.04682219e-04, -7.45909347e-05, 2.58420216e-04,
          -3.23698972e-04, -6.41777297e-05, 4.60150040e-05,
          -2.61979931e-05, -2.61979931e-05, 2.12873798e-04,
          3.15849902e-05, 3.02916247e-04, 1.73048815e-04,
          -4.44818579e-05, -7.97369066e-05, -1.84042819e-05,
          -1.05372628e-05, 5.22302726e-05, 0., 8.35499850e-06,
          2.94302736e-05, 1.93818691e-04, 1.14546317e-04, 0.,
          1.32757646e-04, 2.47783282e-05, -4.09055901e-05,
          1.10549002e-03, 4.93311032e-04, 7.30243628e-05, 3.89270463e-06,
          0., 3.01480977e-05, 1.11276029e-06, 0., -1.41789569e-05,
          1.05630737e-04, -1.31772913e-06, 0., 0., 0., 0., 0.,
          4.75893321e-05, 0., 6.85505627e-04, 4.88809528e-05, 0.,
          -7.07014215e-06, -8.78565988e-05, 6.17682890e-05,
          4.39082432e-05, 5.14364838e-05, 5.73397905e-04,
          -2.69574113e-04, -1.83639459e-05, -1.85752797e-05,
          1.42343075e-03, -1.58611874e-04, 5.11386257e-04,
          5.41259442e-06, -8.07334494e-04, -2.41906509e-05,
          -4.68966282e-05, 5.34701103e-05, -2.51756486e-04,
          4.27771738e-05, -8.34691891e-05, -1.12215697e-04,
          5.36715888e-05, 7.67989332e-06, 0., -2.09321770e-05,
          1.30362721e-04, 2.50285884e-05, 1.87657188e-05, 3.09717470e-05,
          3.71322494e-05, 0., 0., 0., 0., 0., 0., 0., 8.99732913e-05,
          -3.34306606e-05, 0., 0., 8.47866886e-06, -2.61979931e-05,
          4.46361946e-06, 2.60740380e-05, -2.52122933e-04,
          2.55354844e-05, -5.62463129e-07, -1.46368175e-05,
          2.27237178e-05, 0., 2.86719333e-05, -1.57258421e-06,
          -3.28346050e-06, 0., 0., 0., -4.07096995e-05, 0.,
          -4.31277876e-04, 0., -1.28105341e-03, 6.48845798e-06, 0.,
          1.78888604e-05, 7.10626846e-05, 0., -3.17665981e-04,
          2.74509093e-05, -2.82688206e-03, 1.26469444e-04,
          -4.04902006e-04, -1.89199200e-05, -9.62946069e-05,
          1.24295673e-06, 6.77131611e-05, 4.31573171e-05,
          -2.72922116e-05, 7.21434189e-04, 0., 2.82188179e-04,
          3.72213617e-06, -2.22820061e-04, 0., 6.03862747e-04, 0.,
          4.50275365e-06, 0., 4.50275365e-06, -7.05844141e-05,
          4.70423947e-06, -3.28346050e-06, 1.43864509e-05,
          3.14039498e-05, 3.68495312e-05, 0., 7.29600797e-05,
          -1.12435337e-05, 0., 0., -8.21455324e-05, -7.05844141e-05,
          8.86636117e-05, 0., 3.38318678e-05, 6.48382556e-05,
          -1.63269760e-05, 7.54963257e-05, -3.90777313e-05, 0.,
          2.01257590e-05, 0., 2.73476453e-05, 0., 0., 0., 1.50826565e-07,
          0., 0., 0., 0., -5.82048324e-06, 0., 0., -9.18936130e-05, 0.,
          -1.80286588e-05, 0., -2.22033796e-05, 0., 0., 0.,
          8.75166734e-06, 8.19304842e-05, 1.77840066e-05, 0.,
          -6.49801441e-05, -4.61973541e-05, 8.65876791e-06,
          2.59079370e-05, -5.43630915e-04, -3.30479408e-04,
          -2.18306435e-04, -4.45987564e-04, 1.86537497e-03,
          9.20194070e-05, 6.93217517e-05, -2.23664945e-04,
          3.81184131e-04, 0., 8.18619446e-05, -2.41407520e-06,
          -5.81697277e-05, 2.74509093e-05, 5.72635072e-05,
          -2.96785838e-05, -1.76612521e-05, 3.60324957e-05,
          7.04429985e-05, 0., 8.96244019e-05, -1.39948297e-05, 0., 0.,
          -7.23266612e-06, -7.77614478e-05, 3.10723117e-05, 0.,
          1.09261156e-04, 5.02541516e-05, -7.33752531e-05, 0.,
          -1.34072412e-04, -9.02428510e-05, -7.48569262e-04, 0.,
          -7.54505745e-04, 4.76908062e-05, 5.16714172e-05,
          4.30095715e-05, -2.96865794e-04, 0., 7.38067101e-05, 0.,
          1.12261441e-04, 3.01867913e-05, 1.57996346e-05, 1.42731631e-04,
          1.69143081e-04, -4.86985140e-04, -1.14697032e-03, 0.,
          2.67623138e-04, -1.39948297e-05, -5.64664806e-05, 0.,
          3.02172703e-04, -6.89524983e-04, -1.50066728e-04,
          1.24864900e-05, -1.77645139e-04, 3.63383951e-05,
          3.67579705e-05, 5.36457577e-04, 5.94080630e-05,
          -1.12710268e-06, 3.90472633e-05, -1.43869838e-05,
          7.55393878e-04, -8.20440473e-04, -3.02245771e-05,
          -3.09198105e-04, -2.68849108e-04, 2.60079128e-06, 0., 0.,
          1.61513151e-06, -1.02164311e-04, 2.79478827e-05,
          6.16108764e-06, -1.19695731e-04, 8.02025839e-04,
          9.00325613e-05, 5.49035076e-06, -1.00181285e-04,
          2.27871851e-06, -2.41321050e-05, 0., -5.94192898e-05,
          2.74151025e-05, -5.52094207e-05, -2.13091989e-05,
          -1.43597936e-04, -5.92656375e-04, 5.31058249e-05,
          -2.38072753e-05, 1.24169499e-04, 5.80347296e-05, 0., 0.,
          7.49253729e-07, -5.04804557e-05, 0., 8.01927454e-05,
          -1.83137308e-05, 0., 0., 0., 0., 2.34598679e-06, 0.,
          4.46361946e-06, -3.24483062e-06, 3.23271415e-05,
          -6.76216587e-05, 2.50285884e-05, 1.54483205e-05,
          5.97459111e-05, 0., 3.08461640e-05, 3.45827066e-05,
          6.46519358e-04, -1.46553110e-04, -1.82549575e-05, 0.,
          8.76668724e-04, -1.22344223e-04, 3.15728888e-04,
          6.03229491e-05, 2.10864164e-05, -1.83609809e-04,
          -3.85465501e-06, -4.87182297e-05, -2.32431325e-04,
          -1.56918632e-05, -9.19820013e-05, 5.21695620e-05,
          1.53078727e-05, 7.67989332e-06, 0., -2.15123473e-05,
          -1.88541584e-04, 0., 1.44230089e-05, 4.43998724e-05,
          -3.92436668e-05, -1.39948297e-05, 0., 0., 0., 0., 0., 0.,
          -2.86081431e-05, 0., 0., 0., 6.56522316e-05, 0.,
          -3.04334480e-06, 0., -2.89972813e-04, 1.68874358e-05,
          -5.62463129e-07, -3.15510733e-05, -1.21164005e-04, 0.,
          1.11276029e-06, -2.31504089e-07, 1.11276029e-06, 0., 0., 0.,
          -4.10379980e-05, 0., -3.22319946e-04, 0., -7.99929607e-04,
          1.54534462e-06, 2.05112519e-05, 7.18237789e-05,
          -1.06629828e-04, 0., -9.87456297e-05, -3.28346050e-06,
          -2.03707628e-03, -1.54149238e-05, -6.89717417e-04,
          5.06818615e-05, 6.93750917e-04, -8.67485141e-06,
          -2.73687911e-04, -1.85671044e-04, -3.98996817e-05,
          3.74961237e-04, 7.67989332e-06, 1.39663578e-04, 4.51302258e-05,
          -9.48823217e-05, -3.67062821e-05, -4.22817975e-04, 0., 0., 0.,
          0., 9.52941446e-06, 3.01480977e-05, 0., -8.61077424e-05,
          2.08533002e-05, 3.65490014e-05, 0., -1.14653165e-04, 0., 0.,
          0., 1.87897476e-05, 4.46361946e-06, 9.05090747e-06, 0.,
          5.28105411e-05, -1.78858613e-07, -7.48117600e-05,
          1.03301849e-04, 7.98160618e-05, 3.57928693e-05, 1.16909359e-05,
          0., -3.28396504e-06, 0., 0., 0., -2.83215686e-05, 0., 0., 0.,
          0., -5.64801041e-07, 0., 0., -2.41321050e-05, 7.18609635e-06,
          1.39674506e-04, 0., 1.61490971e-05, 0., 0., 0.,
          -5.13374289e-05, -1.06539092e-05, 9.60967373e-05, 0.,
          -7.47330023e-06, 6.25725079e-05, -1.30027329e-04,
          5.84786285e-05, 1.38392308e-04, -3.07469192e-04,
          1.45607640e-03, 4.42665405e-05, 2.90989224e-03,
          -6.79212462e-05, -1.18002841e-04, -7.14512571e-05,
          -3.31434654e-04, -5.37799206e-05, -3.24409143e-06,
          -1.56918632e-05, -1.09279345e-05, -1.64462472e-05,
          -1.75913956e-05, -3.00760985e-06, -2.66379531e-04,
          3.92318507e-05, -9.45309512e-06, 0., 9.40595146e-06, 0., 0.,
          0., -7.74758428e-06, 1.61532680e-05, -9.39824822e-05, 0.,
          -1.93345739e-04, -7.89495898e-05, 8.16941701e-06,
          -3.44762266e-05, -2.19776673e-04, 2.06593511e-04,
          1.39523856e-03, 0., 7.47291138e-04, -1.07711407e-04,
          -2.42707119e-05, 6.77333446e-06, -2.83163710e-04,
          2.34598679e-06, 3.91339127e-05, 0., 1.36323260e-05,
          4.22571757e-05, -8.18279514e-05, 8.18010085e-05,
          2.64434522e-04, 6.16257952e-04, 9.79423276e-05, 0.,
          -9.37400764e-05, -2.82804904e-05, 4.06069776e-05,
          1.24864900e-05, -6.42612504e-05, 1.53104716e-04,
          6.30444410e-05, 0., -8.13448918e-04, -2.56415515e-04,
          -3.64511972e-04, 2.39416433e-04, -1.08809350e-03,
          5.35856059e-04, 5.51914040e-04, 7.05681741e-05, 4.16431838e-04,
          -2.61689245e-04, -4.07674270e-05, 8.83556550e-06,
          -7.47093465e-04, -1.00071256e-05, 1.69905888e-05, 0.,
          -1.47866785e-05, -3.43623629e-04, 2.00134818e-05,
          3.67484725e-04, 1.61257660e-04, 3.16385936e-04, 2.05802455e-04,
          4.59573948e-06, -6.52194649e-05, 3.78169498e-05,
          1.48180061e-06, -1.00656662e-05, -7.78869289e-05,
          -7.52172346e-05, 5.89948613e-05, 2.04161643e-05,
          -1.11611276e-04, -2.18907939e-04, 9.17536017e-05,
          2.09980150e-04, 2.06916811e-04, 4.24221798e-06, 7.62271429e-06,
          0., 1.48180061e-06, -7.91870207e-07, 0., -2.96785838e-05,
          -7.02065809e-05, 0., 0., 0., 0., 0., 0., 4.87694379e-05, 0.,
          3.61314713e-04, 8.36660402e-05, 0., 1.90571827e-05,
          5.63845169e-05, 0., 7.69165854e-05, -8.19679335e-05,
          4.93953339e-05, -5.12213337e-05, 0., -2.36528831e-05,
          -4.57331516e-05, -1.93150176e-04, 1.60883865e-05,
          2.96517055e-06, -3.72397335e-04, -2.25773983e-04,
          3.97390904e-05, 5.52854217e-05, 7.78496687e-05,
          -8.51281948e-05, -1.25213788e-04, -2.86365466e-05,
          4.13732923e-05, -1.70361291e-05, 0., -5.04017908e-06,
          -1.96730587e-04, 0., 3.14952231e-05, 7.20939497e-05,
          1.58238268e-04, -9.26642224e-06, 0., 0., -9.15915098e-06, 0.,
          0., 0., 1.84297132e-05, -2.33429546e-05, 0., 0.,
          -1.17866119e-04, 0., -1.89199200e-05, 0., 2.18135217e-04,
          -7.24453366e-06, 1.58713701e-05, 3.57619720e-05,
          -5.72028548e-05, 0., -7.19358213e-05, 1.75777677e-05, 0., 0.,
          0., 0., 9.29845214e-07, 0., -2.50899175e-04, 0.,
          -1.25912076e-04, 1.41122830e-04, -6.28287817e-05,
          -5.25497053e-05, 2.65137551e-05, 0., -1.05199506e-04,
          -2.71254339e-06, -1.17891650e-04, -2.80485347e-05,
          -2.74175662e-04, 1.63344317e-04, -5.71413664e-04,
          -2.69353968e-05, -1.52382971e-04, -8.52479789e-05,
          5.22911898e-04, 3.30501469e-04, -1.98153120e-05,
          3.36031633e-04, 2.52858372e-05, -4.27082960e-05, 0.,
          2.43196334e-03, 0., 1.86347843e-05, 0., 5.88833018e-06,
          3.45827066e-05, 2.73656474e-06, 0., 3.13960307e-04,
          -3.15705329e-05, 1.18547643e-04, 0., 9.10539438e-06, 0., 0.,
          0., 2.74182057e-05, 1.42562385e-05, -1.89199200e-05, 0.,
          7.40705000e-05, 0., -4.50792650e-05, -3.70861853e-05,
          4.51138185e-04, 0., 5.03638648e-06, 0., 2.86088125e-05, 0., 0.,
          -5.82048324e-06, 8.14167506e-05, 0., 6.17682890e-05, 0., 0.,
          0., 0., 0., -1.03826627e-04, -1.83639459e-05, -1.82618896e-05,
          0., -2.64290557e-05, 0., 0., 0., -3.98461634e-06,
          -6.45094115e-05, 2.32834009e-05, 1.61513151e-06,
          4.66438432e-05, 0., 4.74025037e-05, -2.15123473e-05,
          -5.20210830e-04, -3.17385857e-04, -1.17387483e-03,
          -4.27003513e-04, -9.64356062e-04, -1.50653825e-04,
          -6.63799292e-05, -7.39554409e-04, -1.32561574e-04,
          4.59670773e-05, -1.89911170e-05, 0., 0., 5.37450524e-06,
          -3.16485748e-05, -8.24656036e-06, -1.58348645e-04,
          -6.32605152e-05, -1.17911804e-04, 0., 7.82965344e-06, 0., 0.,
          0., 2.23280113e-05, 8.12375001e-05, 3.84131527e-05, 0.,
          -1.92071802e-05, 2.37417826e-05, -7.82770876e-05,
          4.70423947e-06, -4.96529756e-05, 4.07908665e-05,
          1.15425304e-04, 0., -2.16556480e-04, -1.22474026e-04,
          1.81995092e-05, 2.12355772e-05, -4.86952835e-04,
          1.42562385e-05, 0., 0., 4.94301967e-05, 9.53913968e-06, 0.,
          2.43422564e-05, 1.36036208e-04, 8.42526264e-04,
          -1.94871191e-05, 1.47682702e-04, -9.35932185e-05,
          -4.61965355e-05, -1.61675325e-05, -1.85534664e-05,
          6.26199879e-04, 6.81297621e-04, -2.51604564e-04,
          9.65842191e-05, -9.53587441e-05, -3.60370119e-04,
          6.10454435e-06, 1.67668768e-05, -3.10885400e-04,
          1.19452120e-03, 2.41718109e-04, 2.90688986e-05, 1.65886333e-04,
          4.53025204e-05, 6.35726337e-07, 2.20675411e-05, 2.44969910e-04,
          6.44352331e-05, 4.50275365e-06, 0., 5.42441958e-05,
          -1.16429212e-04, 1.40816046e-04, 3.21212370e-04,
          1.70912105e-03, 2.94064754e-04, -2.96035560e-05,
          7.00559667e-06, -2.23748866e-04, 3.19395840e-05, 0.,
          -1.16488427e-05, 1.32575879e-04, 2.65057926e-04,
          5.80997948e-05, -1.83639459e-05, -1.12662958e-04,
          -1.44391102e-04, 9.01721651e-05, 2.65553186e-04,
          2.61746260e-04, 9.35362332e-05, -5.64801041e-07, 0.,
          -2.96785838e-05, 2.77662730e-05, 0., -1.44569467e-05,
          9.10435920e-05, 0., 0., 0., 0., -2.59249591e-05, 0.,
          3.14086246e-05, 3.56655437e-05, 1.46451232e-04,
          -4.99638882e-05, 0., 1.52668545e-05, 3.73754028e-06, 0.,
          -7.93255822e-06, 1.04073035e-04, 5.80047963e-05,
          -2.06213572e-05, 3.57928693e-05, 4.14653005e-06,
          -1.22062827e-03, -1.58900206e-04, -3.91053291e-05,
          -1.25929961e-04, -4.37510433e-04, -2.78197931e-05,
          -1.10310448e-05, 4.84338671e-05, -8.15700332e-05,
          7.67989332e-06, -1.27566091e-06, -6.99566453e-06,
          8.07422257e-05, 3.38674181e-06, 0., -5.38853565e-05,
          -3.69371037e-06, 0., -8.44429233e-05, 0., 9.45585562e-05, 0.,
          0., 0., 0., 0., 0., 0., 1.67941747e-04, 4.02559417e-05, 0., 0.,
          -6.55181138e-05, -5.28268465e-05, -7.05844141e-05,
          9.38361336e-05, -1.76019050e-04, -7.83412979e-05,
          3.01480977e-05, -7.74758428e-06, -2.88563770e-05, 0.,
          2.86088125e-05, 3.38940445e-05, -1.12435337e-05, 0., 0., 0.,
          1.92929467e-04, 0., -2.88007344e-04, 3.94328854e-05,
          6.32252428e-04, -8.86791750e-05, -7.08704392e-05, 0.,
          1.24565951e-04, 0., -2.72389851e-04, 2.86088125e-05,
          1.68615999e-03, 2.86088125e-05, -3.17955069e-04,
          1.82720280e-04, -5.91742573e-04, 3.57245008e-05,
          -2.52739206e-04, 7.04178237e-05, -1.19977369e-04,
          8.57885520e-04, -5.04017908e-06, 2.92228302e-04,
          -5.26344375e-05, 4.67876380e-05, 0., 9.25601635e-04, 0., 0.,
          0., 0., -2.73866517e-05, -6.96591887e-05, 0., 9.03677254e-04,
          1.48180061e-06, -3.70275957e-05, 0., 3.01270506e-06, 0., 0.,
          0., -2.69962238e-05, 2.50285884e-05, 0., 0., -1.34424145e-05,
          4.46361946e-06, 4.17763113e-05, 4.43998724e-05, 6.60458099e-05,
          -7.05844141e-05, -2.61891073e-05, 0., 2.13825115e-05, 0., 0.,
          1.85940996e-06, 7.36114162e-05, 0., 0., 0., 0., 0., 0., 0.,
          7.11087923e-05, 4.52897293e-05, 2.42268361e-05, 0.,
          1.89136608e-05, 0., 6.59866564e-05, 0., 1.95180997e-04,
          4.70423947e-06, 1.56187343e-05, 0., 1.31641364e-05,
          -2.59249591e-05, 3.45827066e-05, 0., -4.14865906e-04,
          -1.94492139e-04, -1.80116831e-03, -1.94730252e-04,
          -1.44340529e-03, -1.58658786e-05, -3.30179355e-05,
          -6.39203878e-04, -1.57375325e-05, 1.48180061e-06,
          5.69822514e-05, 0., -2.96785838e-05, -2.64695918e-05,
          -3.42447747e-05, 0., 6.62333696e-06, 4.70425475e-05,
          1.47529818e-05, 0., 2.21485770e-05, 0., 0., 0., 4.49665786e-05,
          0., 3.14039498e-05, 2.34598679e-06, 4.55505797e-05,
          1.69384512e-05, 0., 0., 1.16119809e-05, -5.97314560e-04,
          -7.89837039e-04, 0., -6.15057477e-04, -1.18605378e-04,
          -3.30400690e-06, 3.89270463e-06, -5.17248467e-04,
          5.81175482e-05, 9.34494983e-06, 0., 2.12032614e-06,
          -2.17605066e-05, 0., 3.30388066e-05, 5.14613093e-05,
          -3.16443678e-04, -1.09096779e-03, 0., -4.43375524e-04,
          -1.64091452e-05, -8.88981449e-05, 9.52941446e-06,
          -2.90668104e-04, 8.79451516e-04, -1.40797114e-04,
          7.05778002e-05, 2.80917215e-04, -4.96083958e-05,
          2.29790239e-04, 4.40486241e-04, -2.60774366e-04,
          6.13483367e-04, 3.78518416e-05, 9.46784985e-06, 6.57828758e-04,
          -5.45710674e-04, -1.69771520e-04, 1.63630975e-04,
          -7.78030517e-05, 4.70423947e-06, -4.50792650e-05, 0.,
          -1.30271783e-05, 2.80782522e-04, 6.38235651e-05,
          3.47196503e-04, 4.50698659e-04, 3.32482537e-04, 1.40123404e-04,
          2.74509093e-05, 8.18023000e-06, 3.81262169e-07, 3.57928693e-05,
          -2.52984300e-05, -1.79001672e-05, -6.58664139e-05,
          1.48985928e-04, 1.24864900e-05, 1.06834386e-05,
          -4.73392458e-04, 3.66085260e-05, 1.05481711e-03,
          3.85660853e-04, -7.02174111e-06, 0., 0., 3.89270463e-06,
          2.64772316e-05, 0., 0., 6.38596384e-06, 2.74509093e-05, 0., 0.,
          0., 0., 0., 0., 0., 5.58847678e-04, 9.27739893e-05, 0., 0.,
          -6.85886698e-05, 0., -8.53093297e-05, -3.84146224e-05,
          6.99425058e-04, 1.92367770e-05, 0., -3.89521374e-05,
          -5.29990299e-04, -1.21335972e-04, 7.76012894e-04,
          -3.74890951e-04, -8.68082512e-04, -5.97880353e-05,
          2.45039464e-05, -2.90892222e-05, -1.67203281e-04,
          -7.23266612e-06, -6.20662031e-05, 1.63640667e-04,
          -2.36528831e-05, -2.76649080e-05, 0., -1.41645323e-05,
          -1.47352794e-05, 0., -1.86793201e-04, -3.58666985e-05,
          1.96088113e-05, 0., 0., 0., 3.57928693e-05, 0., 0., 0.,
          -2.16550361e-05, -5.82048324e-06, 0., 0., 3.35505174e-05, 0.,
          -2.36528831e-05, 3.01480977e-05, -7.47302256e-05,
          -5.08016683e-06, -5.64801041e-07, 6.17682890e-05,
          -1.25518609e-05, 0., -6.35788165e-05, -3.94072922e-05,
          -3.67062821e-05, 0., 0., 0., 2.16689041e-05, 0.,
          -1.60865500e-04, 0., -4.35197551e-04, -4.94625374e-06,
          -7.05844141e-05, 9.52941446e-06, -7.57612725e-05, 0.,
          -1.99293892e-04, 1.08128470e-05, -6.33774383e-04,
          -3.78074183e-05, -5.28157980e-04, 3.01480977e-05,
          -2.92318087e-04, 1.96015826e-05, -1.88705017e-04,
          -6.45296750e-05, -1.14862174e-04, -1.02377031e-04, 0.,
          5.47554228e-04, -1.88331833e-05, -1.89916627e-05,
          7.62271429e-06, 4.60242911e-04, 0., 4.49665786e-05, 0., 0.,
          -9.72541329e-06, 3.72213617e-06, 1.84513246e-05,
          -5.93062614e-05, 3.45827066e-05, 4.97217407e-05, 0.,
          9.30496244e-05, 0., 0., 0., 2.41712823e-05, -5.10968348e-05,
          4.47413076e-05, 0., 1.97016816e-05, 8.76388003e-05,
          4.01167999e-05, 3.11341246e-05, 4.15214781e-05,
          -2.59249591e-05, 4.49665786e-05, 0., -7.26432554e-05, 0., 0.,
          -5.82048324e-06, 1.25295177e-04, 0., 0., 0., 0., 0., 0., 0.,
          -3.01634536e-05, -1.83639459e-05, 6.56425982e-05, 0.,
          4.30078326e-05, 0., 0., 0., -2.80900967e-05, -3.68689325e-05,
          1.53868004e-05, 0., 1.08128756e-04, 1.33374133e-05,
          -3.16808691e-05, 6.81035772e-06, -3.59209283e-04,
          -6.50340633e-04, 1.03900551e-04, -3.42732412e-04,
          1.94562564e-03, -3.17934726e-04, 4.93512853e-05,
          -7.04747508e-04, -4.94915585e-04, 7.67989332e-06,
          4.28650528e-05, -2.37038348e-05, 1.32700989e-05,
          4.49665786e-05, 4.46361946e-06, 3.63676954e-05,
          -7.51048219e-06, 0., 5.06018951e-05, 0., 7.63985881e-05,
          1.11276029e-06, 0., 0., 1.66615791e-04, -7.74758428e-06,
          -9.64892679e-05, 0., -1.40878838e-04, 3.01931277e-06,
          7.53318018e-05, 6.91984606e-05, 4.19696808e-05,
          -1.16900716e-04, -3.70094749e-05, 4.43998724e-05,
          5.01982169e-04, -1.74030545e-04, -7.05844141e-05,
          -1.00656662e-05, -4.32973000e-04, -7.07014215e-06,
          9.45033207e-06, 0., 1.18679258e-04, -2.69018460e-06,
          -1.06075286e-05, -5.35349245e-05, -8.40286011e-05,
          -5.41121008e-05, -4.92951600e-04, 3.43816391e-05,
          1.70234183e-04, 1.03986722e-05, -2.41321050e-05,
          -4.24988939e-05, -3.66795954e-04, 2.29378405e-04,
          -1.79189465e-05, 2.50285884e-05, -6.98955788e-04,
          4.04152233e-04, -1.04239029e-04, 2.67239593e-05,
          -3.10220385e-05, 1.01087568e-03, -1.53708766e-04,
          1.25935956e-04, -5.03122783e-06, -4.44855570e-04,
          -2.13114487e-04, 6.39328442e-04, 3.57162935e-04,
          -1.03122838e-04, -3.51767922e-05, -6.20714718e-06,
          8.07097822e-05, -3.40932864e-04, -2.54270399e-05,
          -7.41655182e-04, -1.46079052e-03, 1.32817624e-03,
          -1.10157335e-03, 4.91177925e-05, -9.71769623e-05,
          -2.02761352e-04, 3.73166404e-05, -7.90199847e-05,
          -2.42890510e-05, 2.55761897e-05, 1.17585696e-04,
          6.66665073e-05, -4.78850343e-05, -3.38774436e-04,
          -3.61785642e-04, -6.61186175e-04, -2.31591589e-03,
          3.52440511e-05, 4.18475902e-05, 0., 4.50275365e-06,
          -2.09551145e-05, 0., -7.05844141e-05, -3.28346050e-06,
          3.14086246e-05, 2.74509093e-05, 0., 6.17682890e-05,
          -3.67632629e-06, 9.87597105e-07, 8.35155806e-05,
          2.68884469e-05, 1.03415945e-03, -1.66995815e-04,
          7.51146727e-05, -1.56636670e-05, 5.12056977e-06, 0.,
          -8.96973288e-05, -1.87541391e-05, -3.89437278e-04,
          -3.31086412e-05, 3.91410176e-05, 4.42018354e-05,
          -8.97121208e-04, 6.60541764e-06, -6.56387652e-04,
          -3.05875001e-04, -2.68348638e-04, 8.95091725e-05,
          4.31372173e-05, -4.06279250e-05, -2.46875337e-04,
          -1.36345217e-04, -3.69555710e-05, 1.34537811e-04,
          1.72646382e-04, 3.57928693e-05, 0., 1.38184751e-05,
          1.17771233e-05, -2.61979931e-05, -8.93308825e-05,
          -1.86252451e-04, -1.30802815e-04, 1.38530131e-05, 0., 0.,
          2.99656294e-05, 0., 7.67989332e-06, -3.67062821e-05,
          -1.00613666e-04, 0., 1.84513246e-05, -1.84042819e-05,
          7.69423641e-05, -1.83639459e-05, -7.79717957e-05,
          -1.39466036e-04, 3.80903512e-05, 1.98575173e-04, 0.,
          5.46981464e-05, -4.86276695e-05, 4.70423947e-06,
          8.02978320e-05, -3.44561658e-06, 1.85655896e-04,
          2.68351214e-05, 0., 0., 1.58494891e-04, 1.74289235e-05,
          1.33533391e-07, 1.27040985e-04, 8.79491214e-04, 1.67705890e-04,
          3.46508496e-05, -2.67790401e-05, -1.25571227e-04, 0.,
          1.45228085e-04, -1.46812254e-05, 1.90224782e-05,
          -4.04799139e-05, -5.16222935e-05, -2.84041362e-05,
          -5.10892773e-04, 1.33289519e-04, 3.09336901e-04,
          -6.93677808e-04, 1.22483534e-05, -3.24430948e-05, 0.,
          -8.58004205e-05, 0., 2.65211020e-05, 4.49665786e-05,
          2.20621332e-05, 0., -2.52149639e-05, 0., 2.74509093e-05, 0.,
          -1.56918632e-05, -2.36528831e-05, 1.26867628e-04,
          1.08957480e-04, -7.06039355e-05, 0., -1.66380632e-05, 0., 0.,
          0., 2.54861570e-05, 0., -5.37425080e-07, 0., -1.74166853e-05,
          -5.91779144e-06, 7.57963498e-05, 8.61863518e-05,
          2.88163865e-05, 0., 3.01931277e-06, 0., 0., 0., 0., 0.,
          -7.63494336e-06, 0., 0., 0., 0., 0., 0., 0., 7.00559667e-06,
          1.28858483e-05, 6.27226254e-05, 0., -1.49001617e-05, 0., 0.,
          0., 0., 4.49665786e-05, 4.12281333e-05, 0., 9.06424320e-05,
          -3.09653224e-05, -5.76559557e-07, 1.39385702e-06,
          3.78765224e-04, 2.99420586e-04, 7.00343284e-04, 7.67989332e-06,
          2.98504514e-04, 6.59696816e-05, 1.38780641e-04, 5.20461181e-05,
          1.28256899e-04, 8.66544997e-06, 8.73773729e-08, 0.,
          5.60597218e-05, -2.29245779e-05, -4.03574313e-06,
          5.00029637e-05, 1.18098906e-04, 2.31284994e-05,
          -1.34319698e-05, 0., -2.41407520e-06, -7.05844141e-05, 0., 0.,
          0., 4.46361946e-06, -6.84139450e-05, 0., 0., 7.57075832e-05,
          -8.25348325e-05, 6.03916596e-05, 1.00997298e-04,
          6.14356832e-04, -6.73690345e-04, -9.42373008e-05,
          -7.20402168e-05, -1.83829834e-05, 4.01097441e-06,
          -2.73866517e-05, 1.48482941e-04, -7.28337181e-05,
          1.59301257e-04, 0., -1.02464102e-04, -3.48930189e-05,
          3.50391172e-04, -9.66859880e-05, 3.66707354e-05,
          1.81551743e-03, -3.62605846e-04, 6.72244050e-06,
          4.14565693e-05, -1.03303337e-05, -3.10843352e-05,
          9.74209706e-06, 1.00786223e-04, -2.51431833e-04,
          7.06857361e-04, -1.97045665e-06, 2.40892943e-04,
          1.26604020e-04, 3.03923298e-04, 4.24173311e-04,
          -9.99377444e-05, 4.58207040e-04, -2.07685702e-03,
          1.14580325e-04, 3.51704541e-04, -5.48990036e-04,
          -4.75552151e-05, 2.44456576e-04, 2.77894811e-04,
          2.04469525e-05, -2.07755020e-05, 0., 1.35100345e-05,
          4.12792375e-04, 6.34198295e-05, -1.13302877e-03,
          -8.57943203e-04, 8.83952831e-04, 7.32402405e-05,
          -3.97472213e-05, 3.81810496e-05, 2.28778503e-04,
          5.53829595e-05, 1.61628501e-04, -6.06291360e-05,
          -3.43119260e-04, -1.21640231e-04, -3.09779716e-05,
          -8.88983559e-05, -9.47169960e-04, -9.31031173e-05,
          2.11763705e-04, 1.15202053e-03, -6.13714583e-05,
          -6.46311746e-05, 0., 0., 0., 0., -2.61979931e-05,
          -2.41407520e-06, 0., 2.74509093e-05, 0., 0., -2.76565515e-05,
          0., 6.17682890e-05, 1.60923646e-05, 3.13065626e-04,
          2.10369835e-04, -5.04017908e-06, 9.53683484e-05,
          3.44849468e-05, 0., 1.84513246e-05, -2.08183574e-05,
          -9.66816224e-05, 3.69938130e-06, 0., 2.80452859e-05,
          -2.20081129e-04, 6.10387406e-06, -2.35717904e-04,
          5.08347512e-06, -7.03111640e-04, 1.42510995e-04, 0.,
          1.28699648e-05, -2.03911244e-04, 8.67968774e-05,
          3.23898857e-05, -7.01990721e-05, -5.23981435e-05,
          -7.05844141e-05, 0., 0., 1.29280661e-05, 0., -9.99726763e-05,
          4.46111007e-05, -7.07434956e-05, -1.41116607e-05,
          7.00559667e-06, -1.84042819e-05, 9.60832858e-06, 0., 0.,
          -2.78815969e-05, 1.52594976e-06, 0., 0., 0., -1.02460173e-04,
          4.46361946e-06, -5.72894407e-07, -1.15582996e-04,
          2.57815671e-04, 5.21658330e-05, 0., -1.62635897e-05,
          -1.06676081e-04, 4.49665786e-05, 3.83757033e-05,
          -1.84042819e-05, 0., 0., 0., -7.74758428e-06, 9.71928966e-05,
          -2.26729881e-05, -4.72344800e-05, -6.16006437e-05,
          -3.16793266e-05, -3.03410288e-05, 8.87997448e-05,
          -7.61563524e-06, 4.91849169e-05, 0., -3.56687342e-05,
          6.19014609e-05, -2.36516076e-04, 3.45837761e-05,
          -1.83639459e-05, 4.31930093e-05, -2.10489554e-04,
          -9.57749799e-05, 2.34986175e-04, -6.53872499e-04,
          5.52462661e-05, 4.99599118e-05, 0., 2.02916868e-04,
          -8.23455866e-06, 1.87651756e-06, -5.59800128e-06,
          -5.66470544e-06, 0., 6.64725303e-05, 0., -2.96785838e-05,
          7.67989332e-06, -1.83639459e-05, -1.61319240e-05,
          -5.20380912e-04, 1.22820988e-04, -1.16649680e-04, 0.,
          6.44979127e-06, 0., -5.62463129e-07, 0., -3.61188791e-06, 0.,
          0., 0., -9.81661287e-06, -1.00263002e-04, 4.13931411e-05,
          -9.28927548e-05, -1.31989320e-04, 0., 2.45493375e-05, 0.,
          -2.73866517e-05, 0., 0., 0., 0., 0., -7.05844141e-05, 0., 0.,
          0., 0., 0., -4.89424656e-06, 4.98552727e-05, -5.15414467e-06,
          0., 3.55702978e-05, -1.00656662e-05, 0., 0., 8.61031094e-06,
          0., 7.36489310e-05, 0., -1.84042819e-05, 9.63519869e-06,
          2.50285884e-05, 3.36578087e-05, -1.75194160e-04,
          -1.22576703e-05, 1.61055475e-03, -1.56918632e-05,
          1.51952787e-04, -2.03488025e-06, -7.20370590e-05,
          -1.32467481e-04, -2.42205962e-04, 3.90266650e-05,
          2.74509093e-05, 0., 1.46854900e-05, 2.37713430e-05,
          1.27965017e-04, 8.27527401e-05, 4.60110241e-05, 3.17991420e-04,
          -1.28075000e-04, -7.05844141e-05, 2.79624260e-06, 0.,
          2.66579282e-05, 0., 3.43512038e-05, 1.00106285e-04,
          4.46361946e-06, 0., -2.60669585e-05, 1.75410125e-04,
          -1.50284122e-05, -3.63327235e-05, 1.53446163e-05,
          1.63623132e-04, -2.03521617e-04, 5.67840070e-05,
          -5.70527569e-04, 4.61484997e-05, 8.25403185e-06,
          -1.35357341e-05, -1.37793715e-04, -1.84915625e-04,
          4.17571173e-05, 0., 3.02495437e-06, 5.94842531e-05,
          2.31763319e-04, 2.04919415e-04, -6.01517968e-04,
          5.16968954e-04, -5.94042504e-05, 4.98498302e-05,
          -4.50962580e-05, 6.63119936e-05, 1.67801307e-04,
          -4.24620994e-05, 2.06599259e-04, -9.02537213e-05,
          3.31677933e-04, 5.12712404e-07, 9.02024403e-05, 8.04874697e-04,
          5.00379654e-04, -4.45800775e-04, 7.33612746e-04,
          -4.32335277e-04, 9.74496943e-05, 1.49603409e-04,
          -7.46707490e-04, -3.03596607e-04, -1.36204966e-04,
          3.65646323e-04, 9.00793879e-04, 1.07339336e-04, 4.60640040e-05,
          1.42562385e-05, 9.57461179e-06, -3.80545935e-05,
          -1.21786608e-04, 2.66198253e-06, 1.59669458e-03,
          1.69720603e-04, -6.03945053e-04, 2.62165959e-05,
          -1.19660755e-04, -1.37353709e-04, -2.29477355e-05,
          -9.83656646e-05, -1.39067442e-05, -1.08289278e-05,
          3.60402701e-05, -1.38471478e-05, -1.18571537e-04,
          -5.09624428e-04, -1.30737419e-04, -1.39969736e-04,
          -2.03418094e-04, 8.62305824e-05, 1.31083088e-05, 0.,
          -7.07014215e-06, 3.01480977e-05, 4.49665786e-05,
          2.13136937e-05, 3.78964360e-05, -2.41407520e-06, 0., 0., 0.,
          -2.32318666e-06, 7.62271429e-06, 3.16274709e-05,
          3.23211571e-05, -1.13436850e-04, -2.98213654e-05, 0.,
          -4.51473534e-05, -1.56471488e-05, 3.01480977e-05,
          1.84513246e-05, 8.26633914e-05, 1.62462384e-05,
          -1.61317519e-06, -3.28346050e-06, 8.12552826e-05,
          -3.55589698e-04, -2.08524052e-05, -7.86503428e-04,
          1.05217579e-04, -2.45322590e-04, -2.64451737e-05, 0.,
          1.50575492e-04, -8.94246186e-05, -1.83136763e-05,
          -1.67977036e-04, 3.34473734e-05, 1.34604643e-05, 0., 0., 0.,
          -3.60470694e-05, -1.66380632e-05, 1.37843417e-05,
          -1.43579033e-04, -4.32178058e-05, 2.34406489e-05, 0., 0., 0.,
          0., -2.41407520e-06, 4.46361946e-06, 5.40887777e-05, 0., 0.,
          0., -1.03271363e-04, -2.11616079e-05, -1.25542821e-04,
          1.61695716e-04, -9.89352338e-05, -2.98178406e-04, 0.,
          -2.87866023e-05, -1.46976263e-05, 0., 1.56437018e-05,
          6.99176962e-05, 5.96112950e-05, 0., 0., 3.57928693e-05,
          1.74733068e-04, 0., 3.71469578e-05, -2.90804255e-05,
          4.20461787e-04, 1.38017975e-04, -2.96785838e-05,
          7.53708664e-05, -1.26405750e-04, 3.96775140e-05,
          -6.63482388e-06, -7.55169594e-06, 2.02975236e-04,
          -3.81318168e-05, -2.61979931e-05, -2.41407520e-06,
          -4.19955439e-04, 1.60985121e-06, -8.88304567e-05,
          2.84370162e-05, -3.04993009e-05, -2.77592771e-04, 0.,
          1.87852944e-04, 7.62271429e-06, 2.83121153e-05, 0.,
          3.36582831e-04, -2.96785838e-05, -4.77849899e-05, 0., 0.,
          3.01480977e-05, 1.21456418e-04, 1.09319772e-04, 5.17039560e-04,
          2.77340223e-05, -1.07058149e-04, 0., 2.31662307e-05, 0., 0.,
          3.14086246e-05, 1.15477655e-04, -6.70318104e-06,
          5.05936714e-06, 0., 4.49665786e-05, 2.71059889e-05,
          -1.07302374e-04, 4.88808382e-06, -5.97419741e-04, 0.,
          -1.13986853e-05, 0., 0., 0., 0., 0., 3.14086246e-05, 0.,
          -2.41407520e-06, 0., 0., 0., 0., 1.24864900e-05,
          5.92724646e-05, -1.44569467e-05, 6.68861958e-06, 0.,
          -1.83137308e-05, 0., 0., 0., -7.74758428e-06, 0., 0., 0.,
          -2.20473476e-06, 0., 1.16299962e-05, -1.40360089e-05,
          -3.72067618e-04, -3.73478135e-04, 2.08928555e-04,
          -5.79322914e-05, 2.27760727e-04, -1.64516696e-05,
          -6.91741225e-05, -5.97424114e-05, -9.06550325e-04,
          -7.05844141e-05, -1.33078211e-05, 0., 2.04249659e-06,
          -1.38782765e-04, -3.20004110e-05, -1.32346075e-04,
          -3.84357874e-04, 1.52239110e-04, 1.65654521e-04,
          -7.07014215e-06, -8.13898350e-06, 0., 0., 0., 6.85607301e-05,
          2.79669366e-05, -4.31331937e-05, 0., -2.36528831e-05,
          -1.16718911e-04, 4.38795183e-07, -9.21223454e-06,
          1.44732097e-04, 1.27042108e-03, 8.76694627e-04,
          -1.64927900e-04, 2.88702504e-05, -1.02927072e-04,
          -4.86192621e-05, 3.85014173e-05, 6.61719750e-05,
          -4.56951202e-05, -5.85675298e-05, 0., -2.73866517e-05,
          7.89139303e-05, 1.00810408e-04, -1.12861570e-04,
          -1.06748869e-03, 2.39631324e-03, -4.39210533e-04,
          1.18828248e-04, -1.44807083e-04, 1.17078162e-04,
          -1.20779723e-05, 9.85066144e-05, -6.92942296e-04,
          2.78407766e-04, -1.19703080e-04, 1.72955661e-05,
          2.28099525e-04, 1.76346468e-04, 4.45941463e-04, 2.71717057e-04,
          -5.75573125e-04, 1.03683851e-04, 2.13937528e-06,
          -3.12168442e-04, 1.46886974e-04, 1.86656780e-05,
          -3.23579618e-04, -4.41806151e-05, 1.29507435e-03,
          -1.18953401e-04, -8.39211043e-06, -2.96785838e-05,
          5.56678970e-05, 3.72599723e-04, -1.09774548e-04,
          -5.50381897e-04, -3.47483001e-04, -3.42474988e-04,
          -5.71473036e-04, -5.09213351e-05, 1.01846665e-04,
          1.62196357e-05, 8.07176402e-05, -1.01394544e-05,
          -2.12388826e-04, 2.03987380e-04, 2.78052234e-04,
          2.39764777e-05, 1.74420158e-04, 2.96663857e-05,
          -1.19302080e-04, -1.09404104e-03, -2.63823802e-03,
          1.20653691e-04, 4.93089574e-05, 3.45827066e-05, 5.95323800e-05,
          -4.88804071e-05, 5.03638648e-06, 0., 0., 0., 0., 0., 0.,
          1.18216694e-05, 7.00559667e-06, -6.18273179e-06,
          9.45583815e-05, -1.16510360e-04, 1.07200089e-04,
          3.14392564e-05, 4.13918824e-05, -2.40522604e-06,
          -2.59249591e-05, 5.41634790e-06, -4.80399358e-05,
          8.50385462e-04, 5.07689219e-05, 3.01480977e-05,
          -6.41846418e-05, 5.34523861e-04, 6.61015947e-05,
          -1.74064699e-04, -2.64066417e-04, 2.72854435e-04,
          8.69879368e-05, -4.23793654e-06, -4.93019434e-06,
          2.72121630e-04, -5.57460407e-05, -2.20746188e-06,
          -5.96074242e-05, 7.41612675e-05, 0., 0., 0., -7.23777994e-05,
          -1.66380632e-05, 2.47457665e-05, -6.86507337e-05,
          -8.58436833e-05, -4.96146458e-05, -1.50833157e-05,
          -2.59249591e-05, 9.11440948e-05, 3.01931277e-06,
          -2.73866517e-05, 3.01480977e-05, -3.90805180e-05,
          1.81326141e-06, 2.74509093e-05, 3.01480977e-05,
          -5.21769834e-05, 1.24864900e-05, -7.29204112e-05,
          9.80355835e-05, 1.86435223e-04, -5.09707716e-05,
          -2.69353968e-05, 9.89690234e-05, 1.23834805e-04, 0.,
          6.91716632e-05, 3.96481046e-05, 8.47205447e-05, 0., 0., 0.,
          -5.71390228e-05, -4.49160761e-05, 5.21801339e-05,
          -1.23512975e-04, 1.72378251e-03, -8.88778013e-05,
          -4.61946947e-05, 3.51273884e-05, 7.31576947e-05,
          -8.95131598e-05, 2.26867269e-06, -1.48437859e-04,
          -1.76786416e-04, 1.25954961e-04, -1.43104306e-04,
          2.55264931e-05, 9.13625176e-04, 2.08704605e-05,
          -2.53597915e-04, -2.13634383e-04, -4.44304205e-05,
          -1.30375211e-05, 4.70423947e-06, 3.53458518e-06,
          5.55410516e-05, -1.27860694e-04, -9.62825993e-07,
          -2.74779554e-03, 0., 0., 0., 2.50285884e-05, -3.29951035e-05,
          -7.07014215e-06, 2.27883302e-05, 3.00966116e-04,
          -2.36590267e-06, 2.11103252e-04, -7.07014215e-06,
          -4.46661834e-05, 0., 5.88833018e-06, 3.01931277e-06,
          1.17546566e-04, -1.69156010e-05, -2.53352646e-05, 0.,
          6.66600727e-06, 1.27082067e-05, -1.44632781e-04,
          9.22254039e-05, 1.98594018e-04, 0., -1.39948297e-05, 0.,
          7.62271429e-06, 0., -4.50792650e-05, 0., 3.35598907e-06, 0.,
          0., 0., 0., 0., -1.56918632e-05, 2.34598679e-06,
          4.37230228e-05, 2.65906929e-05, -1.53750399e-04, 0.,
          1.71907304e-05, 0., 0., 0., 5.40890469e-05, -2.66892985e-05,
          -2.55372561e-05, 0., -3.68110595e-05, 1.16079820e-04,
          1.24295673e-06, -6.43258682e-05, -1.57084622e-04,
          2.42599257e-04, -2.93640071e-04, 7.18303199e-05,
          -1.67235761e-04, -7.85958691e-05, 2.33633909e-05,
          4.56164817e-05, -7.16773618e-04, 0., -4.12633381e-05, 0.,
          3.45827066e-05, 7.26762446e-05, -6.73259092e-06,
          -7.28688174e-05, -1.37848328e-04, 4.67424616e-05,
          1.11449845e-04, -7.23266612e-06, -4.68786311e-06, 0.,
          -1.89199200e-05, -3.67062821e-05, -8.75313490e-05,
          -2.96593626e-05, -1.68887695e-04, 0., 4.47392313e-06,
          1.82503645e-04, 1.64637444e-04, 4.32457728e-06, 3.75541858e-04,
          -3.16080841e-04, -1.37567183e-03, -2.53090184e-05,
          -4.32913890e-04, 7.30949469e-05, 1.95188390e-04,
          -3.23938439e-05, 1.13334318e-04, 1.01508185e-05,
          -2.16252301e-05, 0., 7.42547782e-05, 3.29870963e-05,
          -2.13159728e-05, 6.99566772e-06, -2.03540840e-05,
          8.51053337e-05, 6.85863604e-04, -1.44480815e-04,
          4.96249995e-04, 1.67685503e-05, -2.64267401e-05,
          2.69826327e-04, -1.48278865e-04, 7.08578795e-04,
          1.18003727e-03, 3.84939057e-07, 1.66913422e-04,
          -1.17887270e-04, 5.23034134e-04, -2.44088587e-04,
          1.34385610e-03, 1.33588386e-04, -7.63334509e-04,
          -4.95860659e-05, 1.47007566e-04, 1.17648866e-04,
          8.06540702e-05, -3.47849309e-05, 6.42391620e-04,
          4.45627411e-05, 8.89163312e-06, 7.62271429e-06, 2.85658443e-05,
          -3.38212732e-04, 6.95047565e-05, -3.88527813e-04,
          -1.08662399e-03, 2.08786532e-05, -1.96106033e-04,
          1.15454473e-04, -3.71975912e-04, -2.64233124e-04,
          2.54694532e-05, -1.71964028e-04, -4.90076527e-05,
          -4.57912865e-05, -5.41904228e-05, -4.00428762e-05,
          -7.20494136e-05, 5.97951759e-04, -4.04831953e-05,
          -1.13127602e-03, -8.10302212e-04, 7.32928165e-05,
          -5.25289870e-05, -6.89692824e-05, 1.96377387e-05,
          -7.74383298e-05, 0., -1.90521387e-05, 2.57850043e-05,
          5.22651790e-05, 0., 0., 0., 1.90440551e-05, 0., 1.53689325e-05,
          2.28009139e-05, -2.97165010e-04, 2.30064543e-05,
          -3.71592832e-05, 4.10496286e-05, -3.40417864e-05, 0.,
          -4.95845634e-05, 5.10733007e-05, 1.44082251e-05,
          5.63105204e-05, -1.07236265e-05, 1.09407221e-08,
          6.83072838e-04, -1.13866472e-05, 8.14898522e-04,
          -1.73706489e-04, 1.12355563e-04, -1.14495720e-04,
          5.25332907e-05, -1.26374231e-04, 5.25712618e-04,
          -2.01338516e-05, 2.04149997e-04, -5.01181166e-05,
          -2.24870673e-05, 3.45827066e-05, 0., -3.28346050e-06,
          -7.59818940e-05, -3.80736674e-05, -4.31378940e-05,
          -1.01305690e-04, -2.07475488e-04, -1.40686943e-05, 0.,
          6.70904628e-05, -5.34145329e-06, 0., -7.23266612e-06,
          7.92343508e-06, -3.29620452e-05, 0., 0., -6.08383853e-05,
          -4.15753238e-05, 7.62271429e-06, 4.42458113e-05,
          1.41362674e-04, -4.06140083e-04, 4.72507099e-06,
          6.47308043e-05, -3.53907080e-06, -4.37836425e-05, 0.,
          -5.48636599e-05, -1.31695924e-04, -2.32994698e-05,
          3.01931277e-06, 0., -4.50792650e-05, -7.74187429e-05, 0.,
          -1.19572624e-05, 9.23453990e-06, 2.26917982e-04,
          1.45774058e-04, 4.37058952e-06, -9.33029660e-05,
          -2.87283619e-05, 2.50620087e-05, -4.26148254e-05,
          -2.65565322e-05, -1.12048067e-04, 5.89454248e-06,
          -2.59249591e-05, -2.86961085e-06, 4.66599886e-04,
          1.86064717e-05, 2.00785304e-04, -6.81890815e-05,
          -1.91011408e-04, 1.18730575e-04, 2.34877098e-05,
          1.91043742e-04, 5.75990089e-05, 5.33687089e-05,
          -1.32764442e-04, 1.84180622e-03, 0., -1.04965575e-05, 0.,
          7.84748117e-05, 0., 5.26975600e-05, 2.17290817e-05,
          3.06253816e-04, -4.34149551e-05, 1.45300524e-04, 0.,
          1.39468277e-04, 0., -1.32460791e-05, 0., -3.89481356e-05,
          1.72683413e-05, 4.74261469e-05, 0., 1.03398910e-04,
          4.92316976e-05, -1.83392858e-05, -6.02833206e-05,
          -3.73390620e-04, 0., 5.99740406e-06, 0., 0., 0.,
          -1.83639459e-05, 0., 3.96775140e-05, 0., 0., 0.,
          7.62271429e-06, 1.84513246e-05, -7.07014215e-06, 0.,
          -5.58765787e-05, 3.84095474e-05, -7.48866078e-05, 0.,
          -1.97045665e-06, 0., 0., -2.41407520e-06, 1.12962196e-04,
          -6.59678408e-05, 7.18550218e-05, 0., 1.01158903e-05,
          2.08957390e-05, 1.11489426e-04, -8.30733698e-05,
          -2.17992943e-04, 1.57586001e-05, -7.74639630e-05,
          6.09292729e-05, -3.44499102e-04, 1.17742900e-04,
          3.51741386e-04, -2.16119661e-04, 1.22060254e-03,
          4.44041143e-05, 7.29297099e-05, 0., 2.95722621e-05,
          -2.96012895e-05, 1.66536658e-04, 1.29714885e-04,
          -1.89737926e-04, -7.47765735e-05, -3.86369029e-05, 0.,
          1.34094953e-04, -1.87217620e-06, -5.82048324e-06,
          3.16281257e-05, 2.74801598e-04, 9.00518444e-06,
          -1.36509179e-05, 0., 3.26508198e-05, 3.41632731e-05,
          -2.80205677e-05, -6.82842001e-05, -1.15364135e-04,
          -5.95293968e-05, 4.24521364e-04, -1.37000425e-05,
          -1.82150121e-04, -1.29100627e-05, 6.93153379e-06,
          -1.91709714e-05, -1.31080218e-04, -3.39370381e-05,
          5.34000537e-06, 0., 3.19906503e-05, -2.21108367e-05,
          -2.19464819e-05, 9.01986423e-05, -3.74618365e-04,
          -3.68604291e-04, -5.85032918e-04, -2.44427465e-05,
          2.01708317e-04, -8.20480636e-06, 7.72534113e-05,
          -3.25764777e-05, 1.90389401e-04, -1.92807973e-04,
          2.47942371e-04, 7.00559667e-06, -7.66961966e-05,
          -8.15052699e-05, -1.65373567e-04, -1.52379644e-05,
          -8.16969114e-05, 6.96174626e-04, -7.16930372e-05,
          -2.47255484e-05, -1.94986453e-04, 1.83791562e-04,
          9.35910721e-05, 3.92910442e-04, -5.70282755e-05,
          1.53105102e-05, -6.66072810e-05, 0., 2.50285884e-05,
          4.24892816e-04, -3.42220519e-05, -3.40099359e-04,
          -1.44496828e-03, -2.95860198e-04, -8.59456952e-04,
          8.19218330e-05, 3.58884172e-05, -1.00656907e-04,
          -2.24936030e-05, -7.72371495e-05, 1.84422752e-05,
          -7.63897187e-05, 5.67328607e-05, 2.50285884e-05,
          -7.41991171e-05, -4.25503647e-04, -1.10982743e-04,
          -2.08761747e-04, 1.04658632e-03, 1.10117995e-04,
          -1.01620964e-04, 0., -2.41407520e-06, 7.62271429e-06, 0., 0.,
          1.16264280e-04, -7.23266612e-06, 0., 0., 0., -1.39948297e-05,
          0., -5.16791115e-05, 1.03828561e-05, 4.13920847e-04,
          3.24162465e-05, 4.16084804e-05, -1.41588941e-06,
          5.22628543e-05, 0., 2.58249966e-05, -1.25382630e-05,
          -7.02921097e-05, 1.02646554e-04, -2.73866517e-05,
          -1.59729916e-05, 8.14206258e-04, -1.08157165e-05,
          6.32281764e-04, 1.69964653e-04, 2.91873876e-04, 5.46609817e-06,
          -9.79710676e-05, -1.05982408e-05, 1.09921006e-04,
          -7.19286763e-05, 1.20899436e-04, -5.47493692e-05, 0.,
          -4.80828639e-05, 0., 0., 1.68237573e-04, 0., 1.14667382e-04,
          -2.28758618e-05, -9.61812111e-05, -7.01800502e-07,
          1.84513246e-05, 1.18015885e-06, -1.34426443e-06, 0., 0., 0.,
          -1.18305470e-04, -7.74758428e-06, 0., 0., 1.73978287e-06,
          -3.28346050e-06, -1.26767787e-04, -5.70418852e-05,
          3.63946128e-05, -5.34565743e-06, 0., 1.36835697e-05,
          6.11640498e-05, 0., -6.38528400e-06, -1.82668464e-05,
          2.63971401e-06, -2.61979931e-05, 0., 0., 2.50409212e-04, 0.,
          -2.26557531e-05, 4.36731498e-05, 3.57851299e-04,
          3.72785755e-04, -1.30131491e-06, -6.08636292e-05,
          9.41447361e-05, 3.89270463e-06, 2.70871005e-05,
          -3.55833254e-05, 2.48028780e-04, 7.22863770e-05, 0.,
          2.92747136e-05, 1.13025060e-04, 5.70771444e-05,
          -1.06601234e-04, -1.55218222e-04, 1.48749095e-05,
          -1.36040777e-04, -2.61979931e-05, 4.65571202e-06,
          -4.57505994e-05, 7.61065676e-05, 4.33810192e-06,
          -2.81716697e-04, 0., 0., 0., -1.00656662e-05, -2.41321050e-05,
          -3.39455801e-05, 6.46469998e-05, -3.68231595e-05,
          4.19082098e-05, 2.83041212e-04, 3.14086246e-05,
          -1.55102243e-05, 0., -1.39948297e-05, -3.28346050e-06,
          -6.88836226e-05, -1.34426443e-06, 1.02448666e-05, 0.,
          -2.59249591e-05, 0., -3.50279770e-05, -1.26393876e-04,
          1.75241832e-04, 0., 2.09250975e-05, 0., -3.41977720e-05, 0.,
          2.50285884e-05, 0., 7.67989332e-06, 0., 0., 0., 0., 0., 0., 0.,
          2.86088125e-05, 6.92061731e-05, 3.48564645e-05, 0.,
          -1.61750395e-05, 0., 0., 0., -9.84164399e-06, 0.,
          8.67968774e-05, 0., -1.71920947e-05, -1.70740605e-05,
          -2.34561812e-05, 3.38255522e-05, 3.35131772e-04,
          4.59116245e-06, 6.30338836e-05, -4.68192520e-05,
          4.19594253e-05, -6.37772564e-06, 1.02596969e-04,
          1.58121693e-04, -1.63399192e-04, 0., -1.31925372e-05, 0.,
          4.43998724e-05, -3.14345061e-06, 7.04122067e-05,
          2.10277199e-06, -5.49876830e-04, -1.21900695e-04,
          1.08257649e-04, 0., -9.83723658e-06, 0., 0., -1.76003978e-05,
          -2.60750603e-05, -1.97625395e-05, 4.27439591e-06, 0.,
          9.04662829e-06, 7.64239812e-05, 1.59692554e-05, 9.85412044e-05,
          6.87393549e-05, -2.34350213e-04, -1.98608753e-03,
          -1.34821439e-05, -6.59222249e-04, 4.30681903e-05,
          4.66926867e-05, -1.34224065e-05, -3.98958626e-04,
          -1.38144160e-05, 3.10609721e-05, -3.62636601e-05,
          1.84110249e-05, 5.31512487e-05, -8.78285282e-05,
          -2.62676447e-04, 5.99207233e-05, 2.29007073e-05,
          -5.91210905e-04, 1.52021357e-05, -5.30435063e-04,
          7.10462773e-05, -8.21486174e-06, 8.12542203e-05,
          7.48293896e-05, 2.38142849e-04, 2.47705495e-04, 7.55533474e-05,
          1.84405886e-04, 4.70614090e-04, -5.46083102e-05,
          7.52548804e-05, 5.60880930e-04, 1.00897602e-03, 3.43483407e-04,
          1.65523361e-05, 2.55626714e-04, -8.31923971e-05,
          1.38683841e-04, -3.78991652e-04, 4.30284301e-04,
          1.74313900e-04, 2.85233382e-05, 0., 1.09557004e-05,
          -2.05776414e-05, 1.37576324e-04, -3.59787635e-04,
          6.26451336e-04, -1.43548707e-03, -4.98179288e-04,
          8.57886880e-06, 1.49664193e-04, -1.04650426e-04,
          -8.87938731e-05, -4.85183446e-05, 3.34136894e-05,
          -1.06683156e-05, -1.61883800e-05, -1.03536031e-05,
          -8.74620309e-05, 1.93306969e-05, 2.96486396e-04,
          -3.01329349e-03, -2.33651977e-03, 6.95754788e-05,
          2.84661382e-05, -2.36528831e-05, 2.87227285e-05,
          2.50285884e-05, 0., -1.83639459e-05, 0., 0., 0., 0., 0.,
          -1.12492626e-06, 0., -7.79941256e-05, -8.34818566e-05,
          -6.77411081e-05, 1.29446533e-04, 2.19536887e-05,
          2.89327108e-05, -6.76775962e-05, 6.91340247e-05,
          2.75125640e-05, 4.72620850e-05, -7.68765676e-05,
          2.31245995e-05, -1.12435337e-05, 6.35815522e-05,
          -2.03086878e-04, -5.46339106e-06, -3.10220668e-04,
          -1.19117045e-04, -1.12638903e-04, -2.45766605e-05,
          -1.47525916e-05, 7.00559667e-06, 8.76706981e-05,
          8.73479803e-05, -2.67418745e-05, 1.32830464e-04,
          -1.15946750e-05, 0., 0., 0., -1.44466409e-04, 3.57928693e-05,
          9.03059263e-05, -4.31471854e-05, 1.12515991e-04,
          2.54374827e-05, 0., 0., 1.75133318e-05, 0., 6.66464166e-06, 0.,
          1.39512034e-04, 2.77618110e-05, -4.50792650e-05, 0.,
          -2.23163515e-04, 0., 1.56503284e-05, 4.88087171e-05,
          -4.47318627e-04, 5.29366698e-05, 0., -2.46776763e-05,
          -6.89103181e-05, 6.62430648e-06, 4.08292581e-05,
          -3.89662746e-05, 9.96498420e-05, 0., 0., 0., 1.48681080e-04,
          4.70423947e-06, -1.02327482e-04, 1.78592280e-04,
          7.41229276e-04, 1.91344297e-04, -2.83216741e-05,
          -1.47959378e-04, -3.36194680e-05, 0., -3.29251343e-05,
          8.73598674e-06, -5.37616550e-04, 2.23957636e-06,
          1.73852441e-05, 3.58256621e-05, -1.09526649e-04,
          5.80238884e-06, 2.88122508e-04, -2.44532246e-04,
          1.26171231e-04, -1.93599801e-04, 0., -1.27528256e-04,
          5.59347791e-05, 2.47618245e-05, -3.86450156e-05,
          3.40359111e-04, 0., 0., 0., -6.56692100e-06, 6.17682890e-05,
          0., 1.48180061e-06, -6.28463167e-04, 2.62643407e-05,
          5.60463832e-06, 0., 6.66690321e-05, 3.14039498e-05,
          -5.64801041e-07, 4.49665786e-05, -3.16543674e-06,
          -2.39117326e-05, 3.11992990e-05, 0., -2.59249591e-05,
          3.04449368e-05, 9.64115025e-05, 2.14249267e-05, 3.87147848e-05,
          0., 2.47866719e-05, 0., 7.00559667e-06, 0., 0., 0.,
          -2.59249591e-05, 0., 0., 0., 0., 0., 0., 7.67989332e-06,
          1.72775384e-04, 3.00232277e-05, 6.81617385e-05, 0.,
          -6.20714718e-06, 0., 0., 0., 2.65961398e-06, 0., 0., 0., 0.,
          0., -1.83137308e-05, 2.07412013e-05, -5.93229888e-05,
          2.14512678e-04, -6.67466316e-04, -1.48622321e-05,
          -1.93230619e-04, 4.25402977e-05, 1.83289972e-04,
          7.73849679e-05, 2.02718293e-04, 0., 4.73125656e-05, 0.,
          -7.05844141e-05, -1.00656662e-05, 3.14124700e-05,
          6.60135920e-05, 1.47681058e-04, 1.31368015e-05, 1.29462540e-04,
          0., 3.65299275e-05, -5.33007005e-05, 0., 2.34598679e-06,
          -5.49858487e-05, -1.12435337e-05, 1.43951966e-05, 0.,
          7.62271429e-06, 4.35166003e-05, -4.25630242e-05,
          -4.03036211e-05, 6.91752939e-05, 1.23254478e-03,
          -7.78303511e-05, 1.96893998e-05, 1.00250952e-06,
          1.06035543e-04, -9.83229529e-06, -6.40069120e-05,
          1.93032582e-04, 3.14086246e-05, -3.14041135e-05, 0.,
          4.04431648e-06, -1.40807111e-04, -1.00089375e-04,
          9.74156792e-05, 2.23529234e-04, 1.93108269e-03, 1.00966601e-03,
          5.98982842e-05, 3.62927996e-04, 2.22533363e-05, 1.25085251e-04,
          4.88050609e-05, 9.77357340e-05, -4.68503247e-04,
          -3.50437476e-05, 2.29787406e-06, 1.37378287e-04,
          2.84503858e-05, -1.90289604e-04, -5.51400764e-04,
          7.07612198e-04, 5.15958782e-05, -1.21081341e-03,
          2.59638387e-06, 5.96901846e-05, -6.90844317e-04,
          -1.47275641e-04, -2.98904459e-04, -7.12003035e-04,
          -2.26335746e-04, 4.38904390e-05, 0., 1.21815710e-05,
          -8.64522881e-05, 6.89717199e-05, -1.08586787e-03,
          -3.16285536e-06, -3.83117258e-05, -2.97505467e-04,
          -5.19389105e-05, -9.27397996e-05, -7.44440840e-05,
          -2.47150256e-05, -3.17468366e-05, 2.93411231e-05,
          2.21634589e-04, 1.85222874e-04, 5.28707424e-05, 4.95687018e-05,
          -1.85504192e-04, 6.65331827e-05, -1.27950334e-04,
          -1.59348347e-04, -5.79424432e-06, 7.71835766e-05, 0.,
          3.88121844e-05, 0., 0., 6.17682890e-05, 2.49729801e-05, 0., 0.,
          0., 0., 0., 0., -9.48942470e-05, 6.63675310e-05,
          -2.43221541e-04, -2.70149085e-05, 6.17682890e-05,
          7.13625413e-05, 2.15386717e-05, 0., -5.21229522e-05,
          3.01480977e-05, 2.19992740e-04, -7.96901440e-06,
          4.01729767e-06, 1.42336539e-05, 2.51415971e-04, 2.67778651e-05,
          1.96145047e-05, 6.69602887e-05, -2.23465104e-04,
          6.62759157e-06, -1.16716874e-05, 1.07952583e-04,
          -1.18079493e-04, -7.07014215e-06, 1.85351426e-04,
          1.52001201e-04, -3.00819756e-05, 0., 0., 0., 7.85333941e-06,
          -1.78132505e-05, 2.54678002e-06, -2.23636307e-04,
          1.52382476e-04, 7.81340441e-06, 2.34598679e-06, 1.24864900e-05,
          4.12564223e-05, 0., -8.89483636e-05, 3.67217581e-05,
          6.20212668e-05, 2.50285884e-05, 0., 0., -7.36987204e-05,
          -1.00656662e-05, -1.54184076e-04, 1.56131750e-06,
          2.32911218e-04, 2.90715725e-05, 3.57928693e-05, 0.,
          3.06314068e-05, 0., 3.59112637e-05, 5.46850206e-05, 0., 0., 0.,
          0., -8.52353187e-05, 9.52941446e-06, 5.47490890e-05,
          6.13865413e-05, -2.86722381e-04, 1.63713863e-04,
          3.81388563e-05, 5.70101947e-05, 6.58000863e-05, 8.07594479e-05,
          5.62793139e-05, -3.56485980e-05, 2.90251104e-04,
          -7.52962615e-06, -1.09709545e-04, -1.66472873e-05,
          7.68940779e-04, -1.55345260e-05, 8.71269949e-05,
          1.13758229e-04, 1.52044377e-04, 9.75045783e-04,
          -2.41407520e-06, 1.86985853e-04, 5.33571038e-05,
          1.88697777e-05, -5.90301534e-05, -3.69078392e-04, 0., 0., 0.,
          7.39014149e-06, -2.78815969e-05, 1.55257061e-04,
          -6.15251847e-05, -9.75922856e-04, -1.88945687e-05,
          -1.15581774e-04, 0., -2.19832746e-05, 9.86244231e-06, 0., 0.,
          -1.32569534e-04, -1.83639459e-05, -1.21103212e-05, 0.,
          -8.06500830e-05, -1.88902741e-05, 5.03931824e-06,
          -1.80536904e-06, -7.24063430e-04, 0., 3.24908069e-05, 0.,
          6.60139222e-06, -1.84042819e-05, -1.84042819e-05, 0.,
          4.35378133e-05, 0., 0., 0., 0., 0., 0., 0., 4.66444435e-05,
          -8.72224773e-05, 8.92029784e-05, 0., 3.01931277e-06, 0., 0.,
          0., 1.53568653e-05, 0., 1.24864900e-05, 0., -2.17424131e-05,
          3.55702978e-05, 1.24864900e-05, -2.59930475e-05,
          -8.24924791e-05, 9.29544796e-04, 1.76531612e-03,
          8.97568534e-05, 6.28679336e-05, 8.04727606e-05,
          -1.30704721e-04, 7.23261619e-05, 7.26137368e-04,
          -1.12435337e-05, 1.92319039e-05, 0., 0., -2.36528831e-05,
          1.34816190e-04, -6.17187325e-05, -3.87270760e-04,
          1.63653021e-04, -1.04838175e-04, 5.31581500e-05,
          7.48149023e-06, 4.34727626e-05, 0., -1.34426443e-06,
          3.39787111e-05, 3.01931277e-06, 5.07682955e-07, 0.,
          4.34443655e-06, 5.09039528e-05, -2.59900626e-05,
          9.55675132e-05, -3.30572802e-04, -1.27502484e-04,
          1.16495776e-03, 1.30116287e-05, 9.45789274e-04,
          -1.50599852e-04, -8.47007104e-05, -4.12749205e-06,
          -2.72319339e-05, -9.64674109e-06, 3.14039498e-05, 0.,
          2.53253529e-05, 3.58974285e-06, 4.49665786e-05, 5.48615135e-05,
          -8.33209662e-04, -1.30276510e-03, 8.46315001e-04,
          1.46034232e-04, 5.16452477e-04, 3.61709535e-05, 9.05843626e-05,
          -1.09901506e-04, -5.48564945e-04, 5.72540448e-05,
          -7.38419985e-05, 1.60372492e-05, -5.03091083e-04,
          3.12423916e-04, -2.18074056e-05, 3.71006579e-04,
          -5.83446352e-04, 2.12872066e-04, -1.76184956e-04,
          -2.68581702e-04, 4.94322274e-04, -8.07581004e-04,
          4.01805475e-04, -7.25835489e-05, -1.92401989e-04,
          -7.70564293e-05, 9.95078517e-05, 1.74793840e-05,
          -1.61431759e-04, -7.88007863e-04, 1.06430271e-04,
          -2.73339014e-04, -1.62741658e-03, 2.61792175e-05,
          -1.55938396e-04, 5.72997415e-05, -2.22489427e-04,
          4.92366707e-05, 9.22326144e-05, 3.15386249e-04,
          -8.96234706e-05, -1.47677056e-04, 1.98270311e-04,
          6.18361591e-05, -3.95840216e-05, 7.60208175e-04,
          8.83432403e-06, -1.67912280e-03, -7.80689181e-04,
          6.01140528e-05, -1.10211928e-04, 0., 4.41121229e-05,
          9.89978653e-05, 2.60740380e-05, 4.69907027e-05, 1.55561924e-04,
          -5.33443454e-05, 0., 0., 0., 6.75923075e-05, 0.,
          -1.08776840e-05, 1.33648591e-05, 1.50199019e-04,
          6.26046531e-05, 2.40952158e-05, -4.05024948e-05,
          -1.24202033e-05, -4.31598091e-05, -9.54462666e-06,
          9.07746507e-05, -1.35730530e-04, 7.06531937e-05,
          7.44448625e-05, -3.14657635e-04, 5.97825390e-04,
          1.41835670e-04, 8.22063070e-04, -1.01006369e-03,
          8.88885814e-04, 1.25980718e-04, 1.65370402e-05, 2.82001740e-04,
          4.46130900e-04, -8.57980995e-05, -2.38623725e-05,
          -1.05548825e-04, 2.31616759e-05, 0., -4.50792650e-05,
          9.35158369e-06, 9.25616187e-05, 5.95392266e-05, 4.45115656e-05,
          -1.42453078e-04, -5.06971090e-04, 9.98971518e-05,
          5.47898935e-06, 8.25458210e-06, -1.39841504e-04,
          -4.88266742e-05, 1.45460062e-05, -5.41796362e-05,
          -3.14022836e-05, -5.13819250e-05, 0., -4.57715760e-05,
          -1.62747499e-04, -7.96112181e-06, 2.32939725e-04,
          -2.83822999e-04, 4.32134984e-04, -7.85545635e-05,
          7.60352923e-05, -1.04121173e-05, 4.08204884e-04,
          1.27568856e-05, 9.57468510e-05, 3.61896782e-05, 7.79269685e-05,
          0., 0., 0., 8.30689169e-05, -1.39099386e-04, 1.01024867e-04,
          1.71142055e-05, -2.79239495e-04, 4.17358533e-04,
          1.04535859e-04, -1.88358390e-05, 2.59899563e-04,
          -5.95775509e-06, 7.13686750e-05, 1.77882994e-05,
          5.37749613e-04, -3.64331027e-05, -7.63634762e-06,
          -3.17166850e-04, -1.53168442e-03, 1.05958090e-04,
          -1.72528253e-05, -3.51219351e-04, -8.27871336e-05,
          -3.83565261e-04, -1.67255421e-05, 9.88459578e-05,
          1.00176687e-04, -2.07536315e-04, 7.75515582e-05,
          -1.64373996e-04, 0., -1.12435337e-05, 0., 8.33522499e-05,
          1.31956185e-05, -3.67690373e-05, -8.56149782e-05,
          -1.05956565e-06, 2.84718590e-05, 9.14409538e-05, 0.,
          -6.15257231e-05, -2.52220889e-05, -3.33370845e-05,
          2.34598679e-06, 1.43114055e-04, 7.80626215e-05, 8.20048372e-05,
          0., 7.02060715e-05, -4.24460304e-05, -3.79450512e-06,
          3.04600017e-05, -1.93566433e-04, -2.41407520e-06,
          -1.18555943e-06, 0., -8.22621078e-05, 0., 0., 0.,
          -9.57882003e-05, 0., 0., 0., 2.50285884e-05, 1.84513246e-05,
          0., 0., -8.98193903e-05, 4.48752944e-05, 2.41158952e-04, 0.,
          -2.11514023e-04, 0., 0., 0., -1.30993270e-04, 1.94920867e-05,
          9.07144931e-05, -7.05844141e-05, 5.61116321e-05,
          4.84975635e-06, 7.17444564e-05, 1.23283418e-04, 2.57920532e-04,
          -5.80687367e-04, -5.12648374e-04, -5.07885488e-05,
          5.17381879e-04, 2.98654952e-04, 9.35487260e-05,
          -1.33088761e-04, -3.37750826e-04, 2.39525998e-05,
          -1.62775134e-04, 0., -4.92084837e-05, 1.38503063e-04,
          -1.08931190e-05, 2.08201614e-04, -4.25206061e-04,
          2.71904661e-04, 2.88733601e-04, 3.45827066e-05, 3.50250892e-04,
          -4.33359601e-05, 1.91590989e-05, -7.07014215e-06,
          -9.22386025e-05, -5.84876398e-05, 2.92025274e-04, 0.,
          2.21682603e-05, 5.91514981e-05, -9.09877708e-05,
          2.24612140e-05, -5.42858441e-04, -2.92282020e-05,
          5.45841933e-04, -1.67197759e-05, -6.33954885e-04,
          -2.15038395e-04, -6.49714057e-05, -8.94129262e-05,
          8.89501098e-06, -6.34352955e-06, 1.41581249e-05,
          -3.67062821e-05, 8.22194925e-05, 1.38886695e-04,
          2.35960266e-04, 6.16109101e-05, 5.52503974e-04, 7.68617261e-04,
          6.10763847e-04, 4.37556628e-05, 3.90253641e-04,
          -1.61612305e-04, -1.44223595e-05, -2.61654968e-05,
          -4.51193155e-05, 1.59001545e-04, -2.31289610e-04,
          -6.10235547e-05, 2.92142358e-04, 2.82705238e-04,
          2.01093484e-04, 8.13215796e-04, 2.44514609e-04, 9.80623881e-04,
          4.09757340e-04, 2.57035686e-06, -8.85755580e-05,
          -5.89312462e-04, 1.09991583e-04, 3.15232282e-05,
          -1.33193773e-03, -4.62837161e-05, -4.90746288e-06, 0.,
          -3.69333502e-05, -4.78882052e-04, -1.88792037e-05,
          -5.85034781e-04, -2.91996007e-03, 5.42158785e-04,
          3.62455990e-04, -3.76722164e-05, 1.38013211e-05,
          3.86360858e-04, 7.07687941e-05, 3.94967683e-05, 1.08901892e-04,
          3.80967103e-04, 7.06046558e-05, -2.26950870e-05,
          3.29707436e-05, 2.98112794e-03, 1.06206608e-04, 1.34312751e-04,
          -1.25266530e-03, 1.88121063e-04, -1.38835330e-05, 0., 0.,
          9.72106136e-05, 1.84513246e-05, 0., -2.66592706e-05,
          4.49665786e-05, 0., 0., 0., 3.99437704e-06, 4.43998724e-05,
          6.95077906e-05, 3.25427118e-06, 9.40906641e-04,
          -2.22270028e-04, 5.15820284e-06, -1.73224980e-05,
          2.90951702e-05, 0., 4.50275365e-06, -7.96152653e-06,
          1.16993650e-03, 2.27256241e-04, 0., -2.79949891e-05,
          4.53330576e-03, 5.24163588e-05, 7.04768929e-04,
          -7.70881539e-04, -1.39995548e-03, 8.78230712e-05,
          4.25058624e-06, 1.54049296e-04, 8.65698021e-05, 7.62546597e-06,
          -2.40757945e-05, -3.67806183e-06, -2.33398296e-05,
          -1.66380632e-05, 4.49665786e-05, 0., 1.84034157e-04,
          -7.07014215e-06, 1.95183184e-05, 1.10462661e-05,
          3.12573859e-04, -1.37291368e-04, 0., -2.46963623e-06,
          4.23095917e-05, 4.46361946e-06, -9.37473658e-07,
          4.46361946e-06, 1.80500792e-05, 3.32880300e-05,
          -3.28346050e-06, 2.13359235e-05, 1.78968781e-04,
          3.69850059e-05, 4.16775947e-05, -8.88425857e-05,
          -9.37349512e-04, 5.94153353e-05, 1.84513246e-05,
          -1.37522038e-05, 9.30653332e-05, -1.39948297e-05,
          -2.46008040e-06, 2.56926887e-05, 1.55058024e-05, 0., 0., 0.,
          5.26050353e-05, 0., -6.04573552e-06, 5.28794453e-06,
          -1.45286368e-03, 1.43561352e-04, -4.74470944e-05,
          5.11105900e-05, -2.99976800e-05, 0., -1.23780255e-05,
          -6.79527147e-05, -4.22382634e-03, 8.20674613e-05,
          -1.48061430e-04, 8.26795513e-05, 3.76616023e-03,
          1.16062169e-04, 9.27122950e-04, 5.44441282e-04, 3.24967987e-05,
          -3.59613769e-05, 0., -5.80824308e-05, -8.39159329e-05,
          -1.07341220e-05, 4.43998724e-05, -1.61615573e-03, 0.,
          3.89270463e-06, 0., -2.60491361e-05, 0., -3.50423434e-05,
          -2.36528831e-05, -1.67964795e-03, 3.57928693e-05,
          9.71959344e-06, 0., -2.32931434e-05, 7.00559667e-06, 0., 0.,
          1.17315729e-04, 0., -2.17500601e-05, 0., 4.98566551e-05,
          6.70921145e-05, 3.22889136e-05, -1.33651192e-05,
          -1.28453714e-03, 0., 0., 0., -2.19247249e-05, 0.,
          -2.73866517e-05, 0., 3.45736044e-05, 0., 0., 0., 0., 0., 0.,
          0., -3.99321762e-05, 3.14086246e-05, 1.39535317e-04, 0.,
          2.67897394e-05, 2.50285884e-05, 1.41518667e-05, 0.,
          -1.58028033e-05, 2.67427295e-05, 1.52084147e-04, 0.,
          6.11523355e-05, 8.89629955e-05, 1.14881550e-04, 1.39453085e-04,
          6.01100619e-04, -4.19608667e-04, -8.91913136e-04,
          2.12335799e-05, -1.20803330e-03, -7.90617123e-05,
          1.48346458e-04, 1.39880256e-04, 9.46003711e-04, 0.,
          7.32950939e-05, 0., -2.45914680e-06, -2.11202114e-05,
          -3.21464381e-06, -2.99340791e-05, -1.77981652e-04,
          3.44660657e-05, 3.39930048e-05, 0., 9.84599174e-05,
          3.01931277e-06, 1.86702291e-05, 0., 8.63487367e-05, 0.,
          -2.89003947e-05, 0., -4.54467045e-05, 7.14233875e-06,
          -1.33275607e-05, -1.47837654e-05, 2.42538707e-04,
          -4.96041961e-04, -2.58363580e-04, 0., 4.09793254e-04,
          -1.66901038e-04, 1.41028155e-04, 1.15649959e-06,
          3.11355834e-04, 9.34303898e-06, -1.12435337e-05, 0.,
          4.11445762e-05, 6.94268674e-05, 2.01475200e-06,
          -5.15758984e-05, 4.32336121e-04, -1.52169028e-03,
          -6.51146285e-04, 0., -1.05600375e-04, -2.04692660e-05,
          9.25204076e-05, -2.34577765e-05, 1.28084066e-04,
          -2.12043920e-03, -4.80984629e-04, -1.25872339e-05,
          -5.94656449e-04, 8.02291324e-04, 4.69307502e-04,
          2.93138903e-04, 2.54145288e-03, -5.69795666e-04,
          1.10160129e-03, -1.04290841e-04, -4.85885656e-04,
          -2.93510646e-04, -4.40987133e-05, -1.28330095e-04,
          -2.02394510e-03, -4.96995963e-05, 4.75288689e-05,
          2.34598679e-06, -5.63642752e-05, 2.75046186e-04,
          -1.01592035e-04, 6.04346918e-04, -9.27774759e-04,
          -6.92872913e-04, -1.73200388e-04, -1.58064850e-05,
          -3.45127810e-05, -9.04404078e-05, 2.32098737e-05,
          8.38227206e-05, -1.29226086e-04, -3.17978906e-04,
          8.73723708e-04, 9.02763204e-05, -4.59018156e-05,
          2.19023228e-03, -1.92727093e-05, 3.61897447e-03,
          4.88291204e-04, 1.10121973e-05, -2.19986905e-05, 0.,
          3.46265624e-05, -1.93492615e-05, 0., 0., 1.79446433e-05, 0.,
          0., 0., 0., 3.02239441e-05, 0., 5.36729822e-05,
          -1.19820259e-04, 5.43932474e-05, -1.33080481e-04, 0.,
          -1.99187180e-05, 5.30514910e-07, 0., -6.11990572e-06,
          1.74769757e-05, 7.00495220e-05, 2.64885544e-04, 1.14408169e-04,
          2.29402678e-04, 3.23845306e-04, 1.50443040e-04, 1.83681725e-03,
          -8.27305121e-05, -7.84873919e-05, -1.27521183e-04,
          -1.14206567e-04, 2.39037647e-04, -5.10074369e-06,
          5.49279002e-06, 8.14599844e-05, -1.33221893e-05,
          2.14706361e-05, 0., 4.85986420e-05, 0., -2.24250849e-04, 0.,
          -3.48209112e-04, -1.13133225e-04, 9.50589601e-05,
          4.85565397e-06, 0., 0., 0., 0., 0., 0., -4.76606911e-05,
          -2.41321050e-05, -3.82980070e-05, -7.05844141e-05,
          -1.92526350e-04, 2.09786795e-05, -4.49079471e-06,
          -1.74057437e-04, -2.55685940e-04, -1.25644046e-05,
          6.49424283e-06, 3.14039498e-05, -2.08800760e-04,
          -2.96785838e-05, 0., -1.55368489e-05, 0., 0., -2.36528831e-05,
          0., -1.36074523e-04, 0., 1.49626459e-04, 3.50870469e-05,
          -3.61490092e-04, -7.10295571e-05, -3.03153429e-05,
          2.66519655e-05, -9.77983436e-05, 5.03638648e-06,
          2.12201230e-05, -1.58870898e-05, -1.12012576e-03,
          -3.14496465e-05, 2.56778672e-04, -3.18221828e-05,
          -4.52754088e-04, 3.08148083e-05, -3.47525958e-04,
          -1.02095095e-04, -5.88785842e-05, 3.64704843e-04, 0.,
          6.88507746e-04, 4.11647125e-05, 1.11728885e-04, 1.40709162e-04,
          -1.86564561e-04, 0., 3.09574607e-05, 0., 3.72928334e-05,
          2.63520869e-05, 1.15100229e-05, 7.57286834e-05,
          -1.71623973e-03, 3.58661564e-05, 5.52231868e-05,
          1.61995467e-05, 3.47819296e-05, 1.42562385e-05, 4.70423947e-06,
          3.14086246e-05, 2.88960309e-05, 5.88833018e-06, 1.84749133e-05,
          0., 3.82323451e-05, 3.45827066e-05, -2.33200899e-05,
          2.02500996e-05, -1.40682241e-04, 5.03638648e-06,
          7.84687654e-05, 0., -1.89199200e-05, 0., 0., 0.,
          3.51844828e-05, 0., 0., 0., 0., 0., 0., 0., 6.15520476e-05,
          8.73773729e-08, -1.26823463e-04, 0., -2.28410481e-05, 0.,
          -6.62755047e-05, 0., 7.18009906e-05, -4.98690351e-05,
          3.38663376e-05, 0., -8.40891444e-05, 2.52148511e-05,
          1.77979782e-05, 5.23454692e-05, -6.68272318e-04,
          4.69732855e-04, -1.95605418e-04, 5.02772600e-05,
          9.41075996e-05, 1.80506220e-04, 2.45103292e-05,
          -4.33028508e-05, 3.18790466e-04, 0., 4.31655535e-05,
          3.14086246e-05, 5.85420185e-06, 2.64455266e-05, 4.13207317e-06,
          -6.20300489e-05, -1.50136490e-04, 1.01340345e-04,
          -1.04571936e-05, 0., -2.77957606e-05, 0., 1.62187589e-05,
          7.67989332e-06, -9.52983028e-05, 4.87046455e-05,
          1.72871878e-05, 0., 1.55662804e-06, 3.81170321e-05,
          -3.05689209e-05, 4.89924569e-05, -8.20859932e-05,
          -1.21970614e-03, -3.31930729e-04, 1.09247167e-05,
          6.84651022e-04, 7.57893795e-05, 1.47128740e-05, 5.42976377e-05,
          8.24935269e-04, 4.50275365e-06, 3.95651296e-05, 0.,
          -7.29520907e-05, -1.40187040e-04, -2.96785838e-05,
          -6.19315615e-05, -3.20227758e-04, -2.00959411e-03,
          2.86306575e-04, -2.91811357e-05, 1.30488028e-04,
          9.50293543e-05, -1.49056168e-05, 7.28398736e-05,
          8.86109628e-05, 3.79821104e-05, -1.84228280e-04,
          2.29540783e-05, -1.05160143e-04, 5.18451770e-06,
          2.42079812e-04, -2.77640851e-04, 1.27510168e-04,
          -1.55171365e-04, -5.16235232e-05, 3.26740665e-05,
          1.98446451e-05, -6.69339148e-04, -7.91234197e-05,
          2.87361356e-04, 8.55773746e-04, 1.26689512e-04,
          -5.28184000e-06, 7.00559667e-06, 1.10123692e-04,
          1.45865299e-04, 6.04389097e-05, -2.57654116e-04,
          3.28830304e-03, 4.53434041e-04, -2.26788950e-04,
          4.41688862e-05, 9.43765626e-05, 1.61308508e-05, 5.13866689e-05,
          -1.06075538e-04, 1.33076042e-04, 2.78762804e-04,
          7.28260784e-05, -4.72426700e-06, -6.91557143e-05,
          -1.71435904e-03, 1.71968291e-04, 1.26467214e-03,
          3.45518813e-04, 1.01832171e-04, -3.17318409e-05, 0., 0.,
          -2.32243256e-05, 0., 1.60639920e-05, 1.81259820e-05, 0., 0.,
          0., 0., -1.87487622e-05, 0., 1.25799943e-05, 2.72645484e-05,
          8.32534060e-05, -1.34679780e-04, -8.01443002e-06,
          6.27844975e-06, -1.20657773e-04, 0., 9.34494983e-06,
          -8.88480135e-05, 6.60576552e-05, -2.51665715e-05,
          -1.63402219e-05, 3.22145061e-04, -2.16926317e-04,
          1.37409457e-04, -6.41664432e-04, 4.75162466e-04,
          -1.42374847e-04, -1.10334964e-04, 1.06457792e-05,
          3.46224806e-05, -7.74626038e-04, 9.61183032e-05,
          -1.11929425e-04, -4.32114757e-04, 7.66207522e-05, 0.,
          -2.41407520e-06, 1.12401685e-04, 2.54599036e-05,
          3.04557852e-05, -2.98141131e-05, -1.67896287e-04,
          6.74648909e-05, -1.01300619e-04, 0., 4.34155845e-05,
          -6.81660531e-05, 0., 0., 3.57928693e-05, 4.01157267e-05,
          -8.95290577e-06, 0., 4.01729767e-06, -3.29417438e-04, 0.,
          -8.81270171e-05, -8.00007183e-05, -2.89012969e-04,
          7.47743761e-05, 0., 2.75713251e-06, -8.90500451e-05, 0.,
          1.84513246e-05, 8.38471260e-06, 0., 0., 6.17682890e-05, 0.,
          -1.52977773e-05, 0., 1.31314155e-04, 1.86370180e-05,
          4.53395565e-04, 5.37762753e-05, -5.51459743e-05,
          6.59100697e-05, -3.73038711e-06, 0., 2.84218404e-05,
          1.13361230e-05, -6.21943735e-04, -2.17137404e-05,
          2.03868512e-05, 2.79412023e-04, -5.54501079e-04,
          1.00616278e-04, -2.40055815e-04, 6.28835551e-05,
          -2.92084205e-05, -1.90657556e-05, 0., -1.54216672e-04,
          -9.45631618e-05, -4.07044281e-05, -1.33491267e-05,
          6.65891042e-04, 0., 0., -3.67062821e-05, 6.28511989e-05,
          -7.58686074e-05, 0., 3.67804678e-05, 2.62189005e-03,
          7.00559667e-06, 9.04194312e-05, 0., -2.11147362e-05, 0.,
          1.92926254e-05, 0., 1.32340050e-04, 0., 3.42342973e-05, 0.,
          -6.40217841e-05, -1.34426443e-06, -3.66712775e-05,
          2.77263971e-05, -8.96154015e-05, 0., -3.84592386e-06, 0.,
          -5.82048324e-06, 0., 0., 0., -9.66513762e-05, 0., 0., 0., 0.,
          0., 0., 0., 4.97957080e-05, 1.00727730e-05, 1.71821084e-05, 0.,
          -6.88170985e-05, 0., 0., 0., 4.63819015e-05, 0.,
          5.17062508e-05, 0., 2.97257648e-05, 7.22819677e-05,
          2.73633214e-05, -3.78280602e-05, -2.24295282e-03,
          -2.78191816e-04, -1.92274025e-03, 0., -1.84411940e-03,
          -3.57469777e-04, -8.13750521e-05, -4.84088014e-05,
          -3.80459183e-04, 2.29540783e-05, -1.11624342e-06, 0.,
          3.45662484e-05, 4.71447529e-05, -6.23266315e-05,
          -2.94341971e-05, 5.52740879e-04, -1.35546297e-05,
          7.97868233e-06, 0., 4.03263912e-05, 2.72645484e-05, 0., 0.,
          4.09306267e-05, 0., -2.23502648e-05, 0., 1.86643672e-06,
          -1.15872710e-04, -1.49566084e-04, -4.69387014e-05,
          -1.87314101e-04, 1.63561563e-04, -3.75966541e-04,
          8.95737685e-07, -1.35296234e-03, -1.98748254e-04,
          8.67917424e-06, 2.92925179e-05, -1.60394047e-04,
          5.75990089e-05, 7.19963009e-06, 0., -1.17003337e-05,
          -1.59374234e-04, 6.93087441e-06, 1.33957165e-05,
          1.12004091e-04, 2.07842351e-03, 1.30523101e-03, 6.02865730e-05,
          -5.59362699e-04, 4.36126466e-05, 8.14805680e-05,
          -5.67625175e-05, -6.47042980e-05, 6.37293619e-04,
          8.72014207e-05, 4.59152170e-06, -5.83692919e-04,
          3.53189855e-04, -3.54846889e-05, -2.35159619e-04,
          5.36277774e-04, 2.17366102e-03, 4.39877681e-08, 1.35344580e-05,
          -2.46987649e-04, 1.83006737e-03, 2.22888310e-04,
          -1.89511833e-04, 2.71930802e-03, 2.74733466e-05,
          2.59943590e-05, 0., -2.54309452e-06, -1.74583707e-04,
          -4.35811535e-06, -1.38717890e-03, -2.22789776e-03,
          5.12090861e-04, -3.29295086e-04, -1.77645543e-05,
          1.64739729e-04, 2.33616403e-04, 4.30006185e-05, 4.48569590e-05,
          1.28013227e-04, 7.91304046e-05, -4.66355486e-05,
          5.03638648e-06, -4.11553519e-05, -1.65315089e-03,
          1.92130319e-04, -4.01767390e-03, -1.29540730e-03,
          -6.54078904e-05, -2.73866517e-05, -6.43681733e-06, 0.,
          -5.50366130e-05, 0., 0., 4.49665786e-05, 0., 0.,
          -7.23266612e-06, 0., 0., 0., 1.96434121e-05, -2.31610775e-05,
          8.69734686e-06, 7.83000942e-05, 0., 0., -1.01750462e-04, 0.,
          6.44313377e-06, -1.34426443e-06, -3.14467354e-04,
          5.93532422e-05, 3.17105660e-05, 8.43856978e-05,
          -4.85947262e-03, -2.65950330e-05, -1.90772058e-03,
          -3.18063918e-04, -6.48175715e-04, 3.16095393e-04,
          -3.77990436e-05, -9.64195497e-05, 3.08165851e-04,
          1.06892039e-04, 3.62518884e-04, 2.95935606e-04, 1.06044063e-04,
          -7.74758428e-06, 0., 0., -2.23493000e-04, 0., 9.12395553e-05,
          3.16655969e-05, -1.47827974e-04, 8.90764295e-06, 0.,
          -5.59800128e-06, -2.33372630e-05, 3.45827066e-05, 0.,
          2.74412764e-06, 2.96839007e-05, 3.14086246e-05, 1.61513151e-06,
          0., 3.87185937e-05, 0., -2.55130217e-05, 8.00567650e-05,
          -3.97846627e-04, 1.90046776e-05, -1.41789569e-05,
          -6.38970323e-06, 5.03440824e-05, 4.69822771e-05,
          -1.66472873e-05, 3.60716367e-05, 3.10204723e-06, 0., 0., 0.,
          6.37734629e-05, 3.57928693e-05, 5.60169883e-06,
          -2.33242536e-05, -3.34275101e-04, 1.45939033e-04,
          -9.29140606e-06, 0., 2.13896506e-04, 1.24864900e-05,
          9.79848483e-05, 1.26162731e-05, 9.53546434e-04, 6.59262587e-05,
          6.96142888e-05, 6.50924194e-05, 8.05612013e-04, 1.05260260e-04,
          2.82631750e-04, 1.23563892e-04, 1.96722889e-04, 1.23080143e-04,
          0., 1.01367140e-03, 1.05483623e-05, 2.26825296e-06,
          2.93560533e-05, 3.47786606e-03, 0., -1.34426443e-06, 0.,
          -1.13583501e-05, 0., -7.26929866e-05, -1.65733763e-05,
          7.69860751e-04, 0., 2.57076535e-05, 0., 1.40760108e-04, 0.,
          3.01480977e-05, 0., 1.85263183e-04, 0., 5.76361060e-07, 0.,
          2.96156159e-05, -9.75267085e-06, -1.91388444e-05,
          -9.22007530e-06, 5.97945007e-04, 0., -1.89193634e-05, 0., 0.,
          4.49665786e-05, 0., 0., -6.99324710e-06, 0., 0., 0., 0., 0.,
          0., 0., 6.09976196e-05, 1.24864900e-05, 1.47089799e-04, 0.,
          7.34523783e-05, 0., -1.12435337e-05, 0., 1.11627443e-04,
          4.99558773e-05, 2.49272271e-05, 0., 1.48720472e-04,
          -2.87822204e-05, -7.42623160e-05, 1.42451381e-05,
          3.64064850e-04, -2.42419730e-04, -1.20217912e-03,
          -8.70317217e-06, -2.09549116e-03, 5.32968952e-05,
          3.27110029e-04, 6.68143621e-05, 1.44601904e-03, 0.,
          -7.69259568e-05, 0., -2.41407520e-06, -7.90210324e-05,
          -1.54218833e-05, -2.84656344e-05, 1.04892603e-03,
          -8.25527168e-05, 1.23801117e-04, 0., 2.00971263e-04,
          5.88833018e-06, 5.42441958e-05, 0., 2.01784263e-04,
          -1.89199200e-05, -6.63467436e-05, 0., 5.62523564e-05,
          -3.62698374e-05, -1.46566426e-05, 9.43385821e-05,
          7.83092051e-04, -8.90753407e-04, -1.75512349e-03, 0.,
          -2.04264210e-03, -3.63104300e-06, -4.78156944e-05,
          5.79002772e-05, 3.53933981e-04, 0., -1.36753151e-05,
          7.62271429e-06, 9.24441701e-05, 9.60611651e-05, 1.26507439e-05,
          7.65500954e-06, 5.36151812e-04, -6.72595808e-04,
          4.59096736e-05, 8.83318535e-06, -3.22201144e-04,
          -3.91128815e-05, -7.56939844e-05, -3.14345061e-06,
          5.87177870e-04, 1.69439198e-04, -1.11700923e-04,
          5.21200163e-05, 6.53383380e-04, -2.65718729e-04,
          1.64828234e-04, -2.38207853e-04, 3.29339108e-03,
          4.13110800e-04, 1.01362332e-03, 8.27170807e-05, 8.14427563e-04,
          -1.21729693e-03, 3.95524985e-05, -3.22007982e-04,
          2.68684526e-04, 8.00160269e-05, 4.50275365e-06, 0.,
          -2.59249591e-05, 3.48291418e-04, -7.56896552e-05,
          1.64237892e-04, 5.45422256e-04, 9.12397227e-04, 4.20499215e-04,
          -7.00368619e-05, 7.95318410e-05, -6.20260034e-05,
          5.05127500e-05, 8.04844894e-05, 1.03369166e-04, 7.83913219e-06,
          -5.46307456e-05, 4.33640089e-05, -1.41231385e-05,
          4.63878328e-04, 1.23949038e-04, 6.17382291e-04, 9.30048584e-04,
          4.63506003e-05, 8.92651133e-06, 0., 1.69135110e-05,
          1.82438162e-05, 2.74509093e-05, 0., -3.45187655e-05, 0., 0.,
          0., -7.74758428e-06, 6.59409707e-05, 0., 5.15820284e-06, 0.,
          8.29041121e-04, -1.80119641e-05, -2.25018957e-05,
          1.44426240e-05, 7.49188416e-07, 0., -3.21224138e-06,
          -1.90725109e-06, 9.02272404e-06, 2.18237008e-04,
          -1.88634276e-05, 1.06705134e-04, 3.05762840e-03,
          1.36351911e-04, 1.16676104e-03, 1.11322508e-04,
          -1.15868845e-03, 2.86188006e-05, 3.76957760e-05,
          6.69197689e-05, -1.02123676e-03, 4.57466485e-05,
          -9.53465860e-05, 1.18830940e-04, -1.39461757e-04,
          -1.84042819e-05, 0., 0., 6.14760283e-05, 5.49476790e-05,
          -1.85043500e-05, 9.12936957e-06, -1.15091658e-04,
          7.11943067e-05, 0., 0., 8.95674239e-05, 0., 3.57928693e-05,
          -6.77991420e-06, 2.60667468e-04, 3.01480977e-05, 0.,
          5.24794996e-05, 4.63539152e-04, -1.12435337e-05,
          5.88163421e-05, 5.78323379e-05, 2.31840808e-04, 1.81224586e-05,
          3.37230449e-05, 7.00559667e-06, -2.70742428e-04,
          3.68806759e-05, -1.66380632e-05, 4.36043047e-05,
          2.31197373e-05, 0., 0., 4.46361946e-06, 1.21477751e-04, 0.,
          -4.60328883e-05, 4.63236283e-05, -2.23654415e-03,
          2.49069009e-04, -2.56738849e-06, 6.10517236e-05,
          -3.19203798e-04, 1.14692166e-05, -4.35951115e-05,
          -9.88167740e-05, -4.50606458e-03, -6.51060982e-05,
          3.42443782e-05, -1.93585583e-04, -3.02645640e-04,
          1.32420071e-04, 8.71931668e-04, 3.40181665e-04, 1.25398379e-04,
          -5.58176718e-04, 3.57928693e-05, 1.57527335e-04,
          5.75861995e-05, 2.00106064e-04, -7.05844141e-05,
          -5.31948695e-04, 1.24864900e-05, -3.13911260e-05, 0., 0.,
          -5.58565989e-05, -4.20551733e-05, 8.90764295e-06,
          -8.43535003e-04, 1.73038497e-05, -1.41898699e-05, 0.,
          4.04867133e-05, 7.00559667e-06, 1.84513246e-05, 0.,
          2.99728068e-04, 0., -4.32199085e-05, 0., -1.23121470e-04,
          1.70678832e-05, -4.32158777e-05, 4.50275365e-06,
          1.93993677e-04, 0., -1.16115962e-06, 7.00559667e-06,
          3.52864627e-05, 0., 3.20341860e-05, 0., -6.75210758e-05, 0.,
          0., 0., 0., 0., 7.00559667e-06, 0., 1.09806706e-05,
          7.63752032e-05, -5.26804033e-05, 0., -4.50062253e-05, 0., 0.,
          0., -2.34843046e-05, 3.04676519e-07, 1.20164063e-04, 0.,
          6.01653664e-05, -2.14798536e-04, 9.55965079e-05,
          -1.01447986e-05, -9.22151958e-05, 4.54560904e-05,
          3.73697723e-04, 1.36707255e-04, -5.62553061e-04,
          -7.17601215e-05, 1.13112292e-05, 9.70133200e-08,
          2.34870749e-04, -2.76213705e-05, 1.44237320e-05, 0.,
          8.21439608e-05, 3.61978382e-05, 1.14661714e-04, 8.44440656e-05,
          3.02035041e-04, 2.40531426e-05, 7.17009461e-05, 0.,
          1.28453554e-04, 1.84513246e-05, 4.13207317e-06, 0.,
          3.28323913e-05, -2.48355118e-05, 9.98344694e-06, 0.,
          3.04134901e-05, 3.67446701e-05, -5.78311798e-08,
          7.05847342e-05, 3.80511541e-04, 2.55493564e-04, 5.10771351e-04,
          -1.07047017e-05, -1.51430679e-04, -2.10961007e-04,
          3.76470816e-05, 5.53641621e-05, 1.00009842e-04, 2.48319921e-05,
          0., 0., 6.48403438e-05, -1.19859629e-04, -5.59632135e-05,
          2.83559712e-05, 2.93193327e-04, -2.37494754e-03,
          -4.32502769e-04, -2.04043536e-05, -1.14162825e-03,
          2.38047956e-04, -4.01193356e-05, 6.48570058e-05,
          1.47883402e-04, -2.52244482e-03, -1.72346889e-04,
          2.35586358e-05, -8.90357944e-04, 8.65430047e-05,
          2.05188378e-04, 4.51221218e-04, 5.99206425e-04, 8.89583840e-04,
          6.12276141e-04, -9.55961077e-05, -4.87209443e-04,
          -1.94284460e-03, -4.45976475e-05, -1.17680931e-03,
          -1.09802501e-03, 6.80526500e-05, -7.86603414e-06, 0.,
          -1.39948297e-05, -7.09289510e-04, 5.07488858e-06,
          -9.35657707e-04, -5.84058987e-04, 1.47998251e-03,
          2.69957090e-04, -9.55924065e-07, -1.36676354e-05,
          -1.14814778e-04, -4.80503104e-06, -4.48553765e-05,
          -2.01535204e-05, 1.01635589e-04, -5.50832556e-06,
          4.39948017e-05, -2.28016943e-04, -1.63922168e-03,
          5.31650694e-05, -1.70446024e-03, -6.97027135e-04,
          -1.06122236e-04, -1.84042819e-05, 0., 0., 3.76393541e-06, 0.,
          -2.96074795e-05, 2.97676388e-06, 0., 0., 0., 0.,
          2.24351679e-05, 2.34598679e-06, -1.03536031e-05,
          -1.08220347e-05, 4.52493725e-04, 1.30330853e-04, 0.,
          -1.31772913e-06, -9.34391664e-06, 7.00559667e-06,
          -3.63958316e-05, 2.67771020e-06, -9.03916152e-05,
          -1.09295991e-06, -3.51052972e-06, -3.05905305e-05,
          -1.11290230e-03, 3.81109658e-06, -7.79281709e-06,
          -8.97959981e-04, -3.06678674e-04, -8.03775183e-05,
          -6.50209477e-05, 9.27064029e-05, -3.74268682e-04,
          -1.51436689e-04, 1.23406217e-05, -4.01673133e-05,
          -7.52132507e-08, 0., 7.67989332e-06, 0., -1.54483292e-04, 0.,
          -1.23719263e-04, 6.78266006e-05, -3.37252604e-05,
          1.89850234e-05, 0., -5.62463129e-07, -4.47289494e-06,
          -5.62463129e-07, 0., 0., 4.19610187e-05, 2.81524226e-05, 0.,
          0., -1.59463758e-04, 0., 1.61010161e-04, 4.57472488e-05,
          1.30514067e-03, 7.29318854e-05, -1.89199200e-05,
          -7.05844141e-05, -4.44840407e-05, 0., 7.82319330e-06,
          -7.78981266e-05, -1.83086868e-05, 0., 0., 0., 8.89083458e-05,
          0., -7.18449446e-05, -8.39321583e-05, 1.91950880e-03,
          9.81341873e-05, 4.08362321e-05, 1.39698614e-05,
          -1.24961502e-04, 2.34598679e-06, -1.49579530e-04,
          3.57898989e-06, 9.16028570e-04, -9.92316563e-05,
          -9.04986064e-06, 3.40818260e-05, -5.72047313e-04,
          3.28111928e-05, -4.80165967e-04, -2.78240732e-05,
          -3.05835783e-05, 4.71876760e-04, 0., -3.91218375e-04,
          1.75204608e-04, -1.19862932e-04, 7.03608966e-05,
          -6.11628871e-03, 0., -3.70952985e-05, 0., 8.38929191e-05,
          2.74509093e-05, 7.70498009e-05, -1.34426443e-06,
          -3.35519930e-04, 7.71003761e-06, 1.35377748e-04, 0.,
          1.66969512e-05, 0., 3.58722464e-05, 0., 1.93568936e-04, 0.,
          1.93815413e-05, 0., 9.65062573e-05, -1.84042819e-05,
          3.05122539e-05, -1.44569467e-05, -9.38312092e-04, 0.,
          1.06309613e-04, 0., 8.67935960e-05, 0., -5.04017908e-06, 0.,
          1.30856715e-04, 0., 0., 0., 0., 0., 0., 0., 2.79081269e-05,
          -2.08261699e-05, -1.19771656e-04, 0., -7.94338193e-05, 0.,
          1.23949154e-04, 0., 1.54049078e-04, 9.23784592e-06,
          1.75361020e-05, 0., -3.57099547e-04, -2.61337354e-05,
          -1.18050128e-04, -5.22023074e-05, -1.94924243e-03,
          -2.29981742e-04, 1.59155880e-03, 2.49132154e-05,
          -3.30423645e-04, -2.92403885e-04, 1.28899614e-04,
          -4.43309327e-05, -1.75045832e-04, 0., 0., 0., -7.05294078e-05,
          1.08574786e-04, -1.30845337e-05, -9.58055753e-05,
          4.92655556e-04, -3.07155133e-05, 3.22432956e-04, 0.,
          1.41303361e-04, 0., 3.09524057e-06, 6.76566196e-05,
          1.38706702e-04, -2.41321050e-05, 0., 0., 9.53652579e-06,
          2.40613235e-06, -6.05760943e-05, 5.44835166e-05,
          3.98232878e-05, 1.14413665e-03, 2.76567275e-03,
          -2.96886265e-05, 1.86513609e-03, 7.10487948e-05,
          5.59451400e-05, -3.00432725e-06, 1.18604710e-03,
          2.60272850e-06, -6.05666428e-05, 3.01480977e-05,
          2.92212808e-05, 1.83437533e-05, 4.94821579e-05,
          -1.90045776e-05, 7.09031534e-04, 1.03465270e-03,
          1.60690083e-03, -6.39269419e-05, -8.09217963e-05,
          1.21831217e-04, 2.20550879e-04, -7.42920918e-07,
          5.91259624e-04, 2.31890520e-03, 6.02017622e-04,
          -8.30114823e-06, -2.88391602e-04, 5.59492037e-04,
          7.37163136e-05, -1.65347868e-04, 6.53339026e-04,
          9.18740188e-05, 8.33753904e-04, 2.51007605e-05, 4.54841414e-04,
          -1.02005037e-03, 6.98803560e-05, -8.80381791e-04,
          -1.00965064e-03, 3.36343292e-05, 4.02746264e-05, 0.,
          -3.13911260e-05, -8.39848013e-04, 2.20672464e-05,
          -7.77031411e-04, 1.11735113e-04, 2.93907273e-04,
          1.25629667e-04, 1.48180061e-06, 3.94492163e-05, 6.66553533e-05,
          -4.36260561e-05, 4.53750872e-05, -5.47948821e-06,
          2.57065531e-05, -5.01673276e-05, 0., -1.89924802e-04,
          -1.13912404e-03, 2.62099275e-05, -2.42337570e-04,
          -8.39580141e-04, 3.21351661e-04, -4.32812012e-05, 0., 0.,
          5.31790429e-05, 0., 0., 2.50195062e-05, 0., 0., 0., 0., 0.,
          -4.50792650e-05, 3.89270463e-06, -4.54881229e-06,
          3.05470894e-04, 5.99114901e-05, 1.61513151e-06, 0.,
          4.59046350e-06, -7.23266612e-06, -2.30818805e-05,
          -3.15092802e-05, -1.92947293e-04, -6.27096742e-05,
          -3.13711789e-05, -9.70726978e-05, -4.63691540e-03,
          8.73002064e-05, -2.21954542e-04, -5.49847864e-05,
          -1.02915487e-03, -1.34412272e-04, 5.83704823e-05,
          -9.01870590e-05, -4.00982535e-04, -2.25908589e-05,
          -3.24750610e-04, -1.03360129e-04, 1.48411655e-05,
          5.03638648e-06, 0., 0., -5.78771578e-05, 0., -1.21566700e-05,
          7.12845722e-05, 5.03694246e-05, -7.95230790e-06, 0.,
          4.46361946e-06, -1.03812617e-05, 0., 1.24864900e-05,
          -1.15578578e-05, -8.01872156e-05, 2.34598679e-06, 0.,
          -2.65475755e-05, 4.80174967e-05, 6.17682890e-05,
          1.57654707e-04, -1.94106760e-05, 3.10682371e-04,
          1.26213254e-05, -4.10770781e-06, 4.32982488e-05,
          -1.93563421e-04, 0., 4.50275365e-06, -7.48965031e-05,
          6.41142760e-05, 0., 0., 0., -8.34812890e-05, 4.07535772e-05,
          5.31195801e-05, 3.68309265e-05, 9.58305391e-05, 1.35751965e-04,
          6.71968228e-05, 2.55963678e-05, 7.92574647e-05, 5.68051910e-05,
          -9.63395996e-06, 5.70692282e-05, -3.47891240e-04,
          -4.74615808e-05, 3.08952549e-05, -3.35492441e-05,
          3.15756624e-04, 1.66271086e-04, 2.21031471e-04, 1.77179696e-04,
          2.11650840e-04, 2.27172044e-04, 0., -1.08654771e-04,
          -6.74295297e-05, 6.12024160e-05, -4.38314637e-05,
          -4.68125363e-04, 0., 0., 0., 6.17682890e-05, 0.,
          2.74509093e-05, -5.45292933e-05, -4.37046285e-04,
          1.71122192e-05, 4.61857007e-06, 9.34494983e-06,
          -2.79361993e-05, 0., -3.14345061e-06, 0., -7.06758728e-05,
          1.48180061e-06, 9.28333902e-05, 0., -3.61575803e-05,
          6.56302072e-05, 9.94260881e-06, -2.51174170e-05,
          -2.17292312e-04, 1.24864900e-05, 4.37863637e-05, 0.,
          2.27542910e-06, 0., 0., 0., -4.19756034e-05, 0., 0., 0., 0.,
          0., 0., 0., 0., 8.28811335e-06, 5.23106937e-05, 0.,
          -2.53754115e-05, 0., 0., 0., -2.29739846e-04, -5.07216064e-05,
          -8.35118772e-05, 0., -1.79441326e-04, -5.40605615e-05,
          -1.27631720e-04, -3.17269005e-05, -1.34359323e-03,
          -6.53116615e-04, 2.55592656e-03, 9.34494983e-06,
          1.20405655e-03, -1.94091816e-04, 2.08265585e-04,
