%YAML:1.0
---
opencv_ml_svm:
   format: 3
   svmType: C_SVC
   kernel:
      type: LINEAR
   C: 2.9999999999999999e-01
   term_criteria: { epsilon:1.1920928955078125e-07, iterations:1000 }
   var_count: 7424
   class_count: 2
   class_labels: !!opencv-matrix
      rows: 2
      cols: 1
      dt: i
      data: [ -1, 1 ]
   sv_total: 1
   support_vectors:
      - [ 1.02203770e-03, 1.77314905e-05, 9.27140063e-05, 3.60013742e-04,
          -5.51092904e-04, -1.59967276e-05, 7.87364115e-05,
          -2.87320494e-04, 2.40313693e-05, 4.33258447e-06, 0.,
          5.62032028e-06, -3.29001574e-04, 1.22435131e-05,
          6.06894937e-05, -2.31865939e-04, 3.59386235e-04,
          -1.64978876e-04, 1.37265861e-05, 2.13498824e-05,
          -2.16400673e-04, -5.35653226e-06, -1.49052639e-05,
          -9.54223069e-05, -6.19478815e-04, 1.57589951e-04,
          -9.09026039e-06, 1.00317440e-04, -3.45760600e-05,
          1.82299664e-05, 3.06275993e-04, -4.40528747e-05,
          2.57507083e-04, 6.08597911e-05, 0., 1.47818923e-07,
          -2.03887648e-05, 0., -4.41626507e-05, -1.07209235e-05,
          -3.30390467e-05, 0., 0., 0., -3.41327323e-05, 0.,
          2.81926332e-05, 0., 2.91787786e-04, 2.25751734e-04,
          2.86807062e-05, -7.19229938e-05, 4.22098441e-04, 0.,
          2.89115978e-05, -1.30664805e-04, -3.27160029e-04,
          -4.28345811e-05, 0., 1.06638276e-04, 2.13678321e-03,
          -1.40615521e-04, 2.07173667e-04, -7.96102904e-05,
          -1.36398163e-03, 2.15834938e-04, -1.49936131e-05,
          -1.00906245e-05, -4.09156855e-05, 2.25609201e-05,
          -5.26240583e-05, -3.33415192e-05, -6.34675089e-05,
          -6.09113704e-06, 0., 0., -8.80711887e-05, 1.99079113e-05,
          -5.42065095e-07, 8.94690311e-06, 8.44652459e-06,
          -7.22185796e-05, 0., 0., 0., 0., 0., 0., -3.81371938e-05,
          -3.04556852e-06, 0., 0., -8.02638315e-05, 0., -9.64447609e-05,
          6.00319909e-05, 6.78387005e-04, 2.28825797e-04,
          -6.78621582e-05, 3.68295582e-06, 7.56680529e-05, 0.,
          -6.89890367e-05, 4.90988714e-05, -9.11398383e-05, 0., 0., 0.,
          1.01853046e-04, 0., -9.23596690e-06, -3.26927475e-05,
          -1.24773767e-03, 9.80434343e-05, 3.37904930e-05,
          -2.67179676e-05, 3.75128002e-04, 5.69267941e-05,
          4.75082197e-05, 2.33401934e-05, -3.01512424e-03,
          -1.04025828e-04, -9.44295534e-05, -7.04757476e-05,
          -2.83349957e-03, -1.10960194e-04, -1.55011032e-04,
          -1.98037233e-04, 9.37651384e-06, 4.70588740e-04, 0.,
          3.70520924e-04, -4.72628344e-05, 6.44808388e-05,
          2.60130673e-05, -5.61038556e-04, 0., 3.27376620e-06, 0.,
          1.31067309e-05, -1.40328157e-05, -2.53523576e-05,
          6.01499269e-05, 1.80517483e-04, 1.29625796e-05, 7.87155950e-05,
          0., 6.77952194e-05, 0., 0., 0., -7.28472742e-06,
          9.87946532e-06, 9.91456000e-06, 0., -5.48874486e-05,
          -3.10719383e-06, -3.39582293e-05, -3.69551999e-05,
          -1.45826882e-04, 0., -9.01768362e-06, 2.99024896e-06,
          1.29387872e-05, 0., -2.08990459e-05, 0., 5.17654871e-06, 0.,
          0., 0., 0., 0., 0., 0., -4.22187713e-06, 4.42068231e-05,
          1.47081970e-04, 0., -4.09168206e-05, 0., 8.14012492e-06, 0.,
          -1.93505603e-05, 1.65632009e-05, -5.01088689e-05, 0.,
          -8.10283382e-05, 3.05797497e-04, 6.98446383e-05,
          1.31547335e-04, -2.23839052e-05, -6.08237344e-04,
          6.90951012e-04, 1.29049058e-05, 1.44981523e-03, 1.00951125e-04,
          1.59674222e-04, 1.20146660e-05, 1.57806971e-05,
          -2.81890843e-05, 8.41075816e-05, 0., -1.73826367e-04,
          1.04045102e-05, -8.53826132e-05, 5.71596756e-05,
          -7.85315788e-05, 7.14164344e-05, 9.33321789e-05, 0.,
          5.27373777e-05, 0., 8.75218302e-06, 0., 4.23656820e-06,
          -1.43410198e-05, 7.03938276e-05, 0., -1.66706977e-05,
          -2.07101057e-05, -6.86787389e-05, -3.26114741e-06,
          -7.98604597e-05, 3.31258721e-04, 1.86608091e-03, 0.,
          2.40713314e-04, -8.07875113e-05, 6.31639632e-05,
          1.29049058e-05, -2.21865994e-05, -7.40321120e-05,
          5.90961790e-05, 0., 2.04877579e-05, -7.62960772e-05,
          4.17707270e-05, -1.73057379e-05, 1.97113390e-04,
          -4.82418458e-04, -1.86118865e-04, 9.51811046e-07,
          -6.41165476e-04, 3.92834008e-05, -3.00231368e-05,
          -1.66898208e-05, 1.45132668e-04, 1.77449430e-04,
          4.63360484e-04, 5.38539134e-05, -4.05217317e-04,
          -1.78073373e-04, 5.41431597e-04, 4.85370547e-04,
          -1.02583501e-04, -2.79382512e-04, 8.42565380e-04,
          -1.44615717e-06, -9.39218444e-05, -1.78772141e-04,
          8.67745839e-05, -2.29101250e-04, -1.70278930e-04,
          6.57661440e-05, -2.64992577e-05, 0., 3.81808641e-05,
          -4.30246928e-06, 6.45859036e-05, 2.54396175e-04,
          4.35768103e-04, 1.82447955e-04, -4.68230537e-05,
          7.08914886e-05, -1.21454803e-04, 8.30979116e-05, 0.,
          1.01323778e-04, 4.92183754e-05, 1.33676469e-04, 5.23812996e-05,
          5.98049792e-06, 5.31247751e-05, -4.78452799e-04,
          1.23719699e-04, 6.17919839e-04, 4.06696461e-04, 2.78697062e-05,
          1.84257697e-05, 0., 3.55336597e-05, 1.80949530e-04, 0.,
          4.59542116e-06, 2.75745315e-05, 0., 0., 0., 0.,
          -1.33897338e-04, 1.36360650e-05, 8.25591542e-06,
          6.47952402e-05, 2.88181065e-04, 1.43606987e-04, 2.20009042e-06,
          5.62032028e-06, -2.14638130e-05, 1.04580431e-05,
          -3.93644914e-05, -2.14264164e-05, -8.98079525e-05,
          6.28285898e-06, -2.01308849e-05, 6.86143685e-05,
          1.83681681e-04, -7.43822893e-05, 6.05579844e-05,
          2.07073826e-05, -7.06427847e-04, 1.64396799e-04,
          -7.64385477e-05, -6.12417352e-05, -5.14109037e-04,
          4.12158170e-06, -2.45003321e-04, -6.54836840e-05,
          -9.10976160e-05, -6.14645660e-06, 0., -1.21822741e-05,
          -1.57670962e-04, 1.53134879e-05, -1.00401223e-04,
          1.08094180e-04, -2.97649003e-05, -8.42184745e-05, 0., 0.,
          -9.57840894e-06, 0., 0., 1.36360650e-05, 5.69005642e-05,
          -3.04556852e-06, 0., -2.53523576e-05, -1.53399276e-04, 0.,
          3.38589816e-05, -1.86688358e-05, 2.86617142e-04,
          -5.81692548e-05, 1.42237241e-05, -6.35429387e-06,
          -8.31288344e-06, 0., -5.35716827e-05, -8.60593573e-05, 0., 0.,
          1.84838291e-06, 0., 1.19473763e-04, 0., 5.62377136e-05,
          -1.92580574e-05, 1.84350880e-04, 1.26339000e-04,
          -1.32210960e-04, 4.37020899e-05, -2.06590485e-04, 0.,
          7.89573678e-05, 3.24860812e-05, 1.39266846e-03,
          -1.09991917e-04, -6.27155532e-05, -3.41370969e-06,
          3.37089004e-04, 1.79279068e-05, -6.30631112e-05,
          1.66571539e-04, 1.19462267e-04, -3.22584929e-05,
          -3.91301837e-05, -7.95553031e-04, 3.56829223e-05,
          1.16344040e-06, 9.28681402e-05, 1.03792956e-03, 5.62032028e-06,
          2.73776513e-05, 0., 0., 2.14907159e-05, -7.56736044e-05,
          1.36228828e-05, 8.26246629e-04, -8.36846596e-07,
          2.12188330e-04, 0., 2.99730982e-05, 5.69267941e-05, 0., 0.,
          -5.29511772e-06, 0., -5.61436900e-05, 0., -2.01770290e-05,
          -8.44930473e-05, -2.14301344e-05, -1.72013472e-06,
          -1.54201538e-04, 0., 1.20778768e-05, 0., 7.63167045e-05, 0.,
          0., 0., 3.58294965e-05, 0., 0., 0., -2.99641797e-05, 0., 0.,
          0., -7.19112213e-05, 0., -1.65526377e-04, 1.87064979e-05,
          1.41065000e-04, 0., -1.57254308e-05, 0., -6.31057046e-05, 0.,
          -2.65226136e-05, 0., -1.18203534e-04, 1.91251274e-05,
          -5.46038536e-05, -3.21278349e-05, -1.48566774e-04,
          -4.83859651e-04, 7.80692335e-06, -9.11771986e-06,
          -3.16144177e-03, -1.86140358e-04, -9.92576170e-05,
          -3.76195858e-05, -7.95968459e-04, 5.87352406e-05,
          -1.21656740e-05, 0., -8.60820437e-05, 3.43044434e-07,
          2.89046311e-05, 2.61815585e-05, -5.53654681e-04,
          6.32750671e-05, -2.51197289e-05, 0., 3.17375852e-05, 0., 0.,
          0., 5.48905773e-05, 1.99133174e-05, 6.04668385e-05, 0.,
          -1.16628107e-04, 4.67893296e-05, 6.20890251e-06,
          -5.35653226e-06, 6.40232902e-05, 2.85543210e-04,
          4.09732398e-04, 9.96220388e-06, -2.12521496e-04,
          -5.10843856e-05, 3.48958420e-05, -3.08867275e-05,
          -5.42151742e-04, 0., -5.72780991e-05, 0., -6.92871690e-05,
          -1.16224155e-05, 2.06074110e-05, -1.88232407e-05,
          1.88237856e-04, 3.23410938e-03, -1.13879600e-04,
          6.31978619e-05, 1.08302665e-04, 4.73966393e-05,
          -4.08813685e-05, -2.28988429e-05, -4.05630504e-04,
          1.76313985e-03, -2.99292675e-04, -1.33480818e-04,
          -1.07958843e-03, 2.70452438e-04, -8.30427962e-05,
          2.70545250e-04, -2.09516729e-03, 1.16127217e-03,
          1.32021436e-04, -3.50472619e-05, -7.81235751e-04,
          -9.11282317e-04, 1.50941632e-04, 4.56987589e-04,
          5.17193985e-04, 6.98615258e-05, -4.47875245e-05,
          3.67908142e-05, -6.22488587e-05, -1.42174831e-04,
          -6.00535859e-05, 1.76661881e-04, 6.22440566e-05,
          6.74622890e-04, 5.08068944e-04, 8.25591542e-06,
          -1.53211615e-04, 7.91558487e-05, -1.19320439e-05,
          -1.47409519e-04, -1.38548072e-04, 4.57272472e-05,
          -8.19832567e-05, -3.20352628e-05, 3.74008814e-05,
          -2.11701656e-04, -1.53509929e-04, 2.77108251e-04,
          -3.15439363e-04, -1.10054425e-04, 2.77449144e-05, 0.,
          9.54473671e-06, -8.22124662e-07, 0., 0., -1.30689295e-04, 0.,
          0., 0., 0., 3.43445754e-05, 0., -2.16091612e-05,
          5.67303468e-05, 3.17657978e-04, 1.09834938e-04, 2.87231410e-06,
          -7.81551716e-05, -1.05394203e-04, 1.19609958e-05,
          -4.97037618e-05, -1.04725477e-04, 3.41445149e-04,
          6.92851827e-05, 0., 2.82663004e-05, -1.45067374e-04,
          -3.40512343e-05, -6.18291160e-05, -4.47229722e-05,
          -4.39973228e-04, -1.10142995e-04, -2.42949627e-05,
          -3.50401897e-05, 9.27182627e-05, -5.76243201e-06,
          -1.38300689e-04, 1.16321906e-04, 3.45853687e-06,
          -3.10088808e-06, 0., -2.76309220e-05, 1.77946611e-04, 0.,
          -8.92147582e-05, -8.53458259e-05, -1.20081721e-04,
          7.20092930e-06, 0., 0., -2.28635244e-07, 0., 0.,
          6.80004887e-05, 1.53338173e-04, -3.04556852e-06, 0., 0.,
          8.94490731e-05, 1.25618608e-05, -1.43410198e-05,
          5.04679883e-06, -4.44112637e-04, 1.21881940e-05,
          1.18369499e-05, 4.75966459e-07, -6.11632568e-05, 0.,
          2.56754156e-05, 5.00207534e-05, 0., 0., 0., 0., 1.17315321e-04,
          0., 5.44888535e-05, 2.44674047e-05, -2.20856233e-03,
          -4.54537303e-06, -7.18088340e-05, -9.22897561e-06,
          1.25017905e-04, 0., 8.68311618e-05, 7.99431073e-05,
          1.37815706e-03, 6.25740313e-06, 4.00197059e-05, 1.09364257e-04,
          8.26215488e-04, -1.22252823e-04, 4.64222394e-05,
          1.21377270e-04, -6.91094756e-05, 6.41629158e-04,
          4.75905517e-06, 6.85112784e-04, 9.00696832e-05, 2.74743034e-05,
          -1.43775997e-05, 9.60677426e-05, 4.75905517e-06, 0., 0., 0.,
          2.62986068e-05, -8.13126317e-05, -3.33707590e-06,
          1.55787711e-04, 4.18289274e-05, 1.60206895e-04, 0.,
          1.16281321e-04, 1.99079113e-05, 0., 0., 4.14320948e-06,
          -8.33355170e-06, 3.27376620e-06, 0., -5.71784258e-05,
          4.51494680e-06, -2.29344023e-05, 4.43990803e-06,
          -2.90226541e-04, 0., -9.90682238e-05, 0., 5.03416159e-05, 0.,
          0., 0., 3.91350295e-05, 0., 0., 0., 0., 0., 0., 0.,
          -6.79272271e-05, -2.42116967e-05, 5.67719944e-05, 0.,
          6.49936555e-05, 0., 0., 0., -3.57458339e-05, -3.30390467e-05,
          -4.14256356e-05, 0., 8.79628860e-05, -7.10157183e-05,
          -1.35517994e-05, 2.85480655e-05, -6.87964421e-05,
          5.93803998e-04, -1.46545260e-03, 6.12128060e-05,
          -1.95940328e-03, 1.39116921e-04, 4.91565515e-05,
          -9.55295327e-05, -2.76920822e-04, -3.47402874e-06,
          1.84838291e-06, 0., 2.95017944e-05, -3.65250453e-05,
          -9.31130198e-05, -6.53200914e-05, 4.03026002e-04,
          -5.45666298e-05, 1.16245074e-05, 9.51811046e-07,
          -6.27603513e-05, 0., -8.33355170e-06, 0., -4.76116111e-05,
          9.97645111e-06, -2.08990459e-05, 0., 3.81516329e-05,
          9.61788828e-07, 2.40656718e-05, 0., -2.25521158e-04,
          -7.68178550e-04, -3.75604257e-04, 2.10591897e-05,
          1.21400109e-04, -4.87636571e-05, -3.39968283e-05,
          1.02826874e-04, 3.02415792e-05, 3.80724418e-06, 1.38947344e-05,
          0., -3.30787734e-05, 6.99396551e-05, 9.99520489e-05,
          -1.09983830e-07, -2.10140293e-04, 1.20894308e-03,
          3.55962664e-04, 1.44535979e-05, -1.44939127e-04,
          1.31661305e-04, 1.31743964e-05, 3.83990337e-05,
          -2.04997632e-04, 2.95154721e-04, 7.27162929e-04,
          1.03764782e-04, -2.59125984e-04, -1.47275467e-04,
          1.56783153e-05, -3.15439014e-04, -2.45027622e-04,
          1.08358951e-03, 1.65828140e-04, 1.35087597e-04, 2.02284973e-05,
          -1.31434656e-03, -2.08992642e-05, -4.51987726e-05,
          9.99180367e-04, 1.50044361e-05, 1.30351827e-05, 0.,
          -2.04427724e-05, 4.38077899e-04, 4.85587334e-05,
          4.60993237e-04, 3.89239809e-04, 8.39015484e-05,
          -2.42570066e-04, -1.09216144e-05, 1.64792596e-04,
          -3.70538728e-05, -1.12749749e-05, 1.59065548e-05,
          1.58771683e-04, 5.60660148e-04, 1.43545521e-05,
          -9.01768362e-06, -7.23776393e-05, 5.58905478e-04,
          -2.62941794e-05, 3.83405364e-04, 9.29914750e-05,
          2.76903265e-05, 2.51980487e-06, -7.59037866e-05,
          1.15307967e-05, -2.26783723e-05, 0., -2.85034093e-05,
          -9.29422094e-06, 5.17654871e-06, 0., 0., 0., 1.89598013e-05,
          0., 0., 3.27376620e-06, 5.70632459e-04, -5.67531897e-05,
          -1.17208283e-05, 2.43332452e-05, 6.77906937e-05, 0.,
          5.68111136e-05, 8.56833649e-05, -1.59946198e-04,
          4.44996112e-05, 1.40370403e-05, -2.94947258e-05,
          2.80206092e-04, 5.65074079e-05, 6.62200211e-04,
          -1.47014434e-04, -1.46089902e-03, 2.02197698e-04,
          -6.40058643e-05, -6.79760205e-06, -6.34820375e-04,
          -2.56735871e-06, 1.68716811e-04, -5.68570140e-05,
          -2.81373632e-05, 0., 0., -6.09113704e-06, -2.51160909e-05,
          2.86033865e-05, -5.15709180e-05, 2.75307993e-05,
          1.25685023e-04, 0., 0., 5.62032028e-06, -2.53523576e-05, 0.,
          0., 0., -3.10072537e-05, 5.04679883e-06, 0., 0.,
          5.28274359e-05, 0., 4.63841498e-05, 2.56765434e-05,
          2.82117311e-04, -6.56885531e-05, 0., 6.68673529e-05,
          -1.08333275e-04, 2.12263021e-05, 1.02433965e-04,
          -6.26411347e-05, 3.68724141e-05, -5.73451071e-05, 0., 0.,
          5.16287473e-05, 0., -2.10415001e-05, 1.22477286e-05,
          -1.21854432e-03, -5.34372793e-06, 5.69267941e-05,
          1.63990735e-05, -2.20133559e-04, 0., -6.20512947e-05,
          8.61219378e-05, -2.15499871e-03, 7.57341477e-05,
          -1.22251577e-05, -3.79594130e-05, -6.33930322e-04,
          -1.25206498e-05, 6.32316049e-04, -2.73652957e-04,
          4.80173753e-07, 8.00355512e-04, 0., 1.03832083e-03,
          -1.25008928e-05, 1.66637165e-05, 1.18369499e-05,
          8.69191368e-04, 0., 7.27507086e-07, 0., 9.51811046e-07,
          7.90347985e-05, 7.52051346e-05, -4.56078924e-05,
          3.04453482e-04, 6.48441710e-05, 1.23404126e-04, 0.,
          1.60932086e-05, 5.04679883e-06, 0., 0., 4.26052975e-05,
          -2.84884118e-05, 2.77449144e-05, 0., 3.68493675e-05,
          3.30881812e-05, 8.41340807e-05, 7.04722834e-06,
          -2.22610324e-04, 0., 1.49870903e-05, 0., 0., -1.40328157e-05,
          0., 0., -1.81223959e-06, 0., 0., 0., 0., 0., 0., 0.,
          -9.52073788e-06, 1.47818923e-07, 2.46579351e-04, 0.,
          1.99079113e-05, 0., 0., 0., 2.39498459e-05, 1.19063436e-04,
          3.56422315e-05, 0., -9.52177652e-05, -1.05535386e-04,
          -1.11281493e-04, 2.57648549e-06, -1.26928047e-04,
          -1.00970583e-03, -2.13972220e-04, -2.69770317e-05,
          2.29875077e-04, 1.52750930e-04, 1.18493568e-04, 1.47454397e-04,
          1.11419754e-03, 0., 5.67422612e-05, 0., 4.05452374e-06,
          -3.50177615e-05, -1.40328157e-05, 4.94858505e-05,
          -4.07597981e-05, 8.19495326e-05, -3.44769651e-05, 0.,
          9.77051022e-05, 0., 4.05963010e-06, 0., -3.04409859e-05,
          1.47697792e-05, -1.58325220e-05, 0., 4.74020599e-05,
          -1.71349075e-05, -2.15598957e-05, 2.51980487e-06,
          8.35384344e-05, -7.41479016e-05, -1.16721822e-04, 0.,
          -3.61305603e-04, -8.12657381e-05, -3.92158508e-05,
          6.00259546e-06, 2.29635465e-04, -8.18862372e-06,
          9.47307781e-05, 0., 4.41953889e-05, -1.83557295e-05,
          -3.01667333e-05, -3.44156215e-05, 2.93899764e-04,
          -8.47455813e-04, -1.55027735e-03, 0., -1.29879496e-04,
          -1.38497096e-04, -6.19339335e-05, -3.97088525e-06,
          -3.04866517e-05, -4.44962148e-04, 1.07944732e-04,
          -2.85238202e-05, -3.98176664e-04, -3.92967195e-04,
          -1.74710847e-04, 2.00882831e-04, -2.56358268e-04,
          -3.64514949e-06, -6.04066765e-04, -2.11134568e-04,
          -2.56300729e-04, -3.89991706e-04, 2.53895014e-05,
          -8.71825090e-04, -8.63491950e-05, -1.13921429e-04, 0.,
          -5.35653226e-06, -9.04993976e-06, -2.50680780e-04,
          5.62032028e-06, -3.67874090e-05, -4.20644647e-05,
          8.18235741e-04, -2.38037377e-04, 1.29567456e-06,
          1.32975110e-04, -1.10437373e-04, 0., -3.26755289e-05,
          -4.46936938e-05, -1.81743584e-04, -5.51763624e-05,
          3.24731195e-06, -5.92567485e-05, -2.40468526e-05,
          7.50871550e-05, -8.07407429e-04, -2.97422725e-04,
          1.02444748e-04, 0., 0., 3.78955265e-05, -4.72089732e-06, 0.,
          -5.24935640e-05, -2.19172016e-05, -2.64992577e-05, 0., 0., 0.,
          4.92356303e-05, 0., -4.05431783e-05, 0., 3.01823340e-04,
          -1.03271770e-04, 1.05663479e-04, 8.42358422e-05,
          -2.37829336e-05, -8.36846596e-07, -4.14934584e-05,
          -9.30247406e-05, 3.01687571e-04, -1.64825920e-04, 0.,
          -1.86350735e-05, 2.15988490e-03, -6.98815711e-05,
          5.78702835e-04, 5.95751153e-05, 8.18416811e-05,
          -4.83284821e-04, 2.83737572e-05, -1.59169751e-04,
          -3.19076207e-04, -1.30213302e-05, 4.64362456e-05,
          -1.82692347e-05, 3.72292416e-05, -7.77898895e-05, 0.,
          -7.36458023e-05, -8.77800994e-05, 0., 2.70915134e-05,
          1.36360650e-05, -1.35674345e-05, 0., 0., -2.45853535e-05, 0.,
          0., 0., 0., 3.36046542e-05, -2.56735871e-06, 0., 0.,
          -1.51335989e-04, -6.78445531e-06, 1.65809579e-05,
          -3.93851733e-05, 5.92504744e-04, 3.69928748e-05,
          -5.77690025e-06, -2.58555101e-05, -1.54504058e-04, 0., 0.,
          -3.66044987e-05, 0., 0., 0., 0., -4.82401956e-05, 0.,
          -3.62375838e-04, -4.50592233e-05, -5.19116234e-04,
          1.15187897e-04, 2.18995719e-05, -1.60263353e-05,
          1.05744264e-04, -2.64992577e-05, -1.22185273e-04,
          -4.37315975e-05, -1.17763493e-03, -1.92848984e-05,
          -7.97788496e-04, 7.91420607e-05, -1.44756259e-03,
          -2.91227789e-05, -2.85039656e-04, -1.51705259e-04,
          -8.90864612e-05, 5.31281345e-04, -2.36928154e-05,
          -7.00160235e-05, -1.31755151e-05, -2.97660026e-05,
          -6.03403751e-05, -5.04880445e-04, 0., 2.57588999e-06, 0.,
          3.42158523e-06, 4.97221572e-06, 4.54542933e-05, 0.,
          -3.22679116e-05, -2.50491212e-06, -6.96650750e-05, 0.,
          9.75062649e-05, 0., 0., 0., 2.59248172e-05, 8.80944663e-06,
          2.59180470e-05, 0., 9.16250210e-05, 2.47421231e-05,
          -3.90104615e-05, -7.65641598e-05, -8.96133206e-05,
          2.14907159e-05, -1.61869066e-05, 0., 6.20789651e-05, 0., 0.,
          0., -2.95154587e-05, 0., 0., 0., 0., 0., 0., 0.,
          -1.69788436e-05, 3.57595090e-05, 1.72108383e-04, 0.,
          -3.60048907e-05, 0., -3.86438369e-05, 0., -3.80247839e-05,
          -9.16447152e-06, 5.33515731e-06, 0., 5.90362106e-05,
          -1.09456902e-04, -2.19996436e-04, 1.03805382e-04,
          2.46209765e-05, -2.01875213e-04, 1.63483922e-03,
          -7.51828475e-06, 2.62572570e-03, 9.48209436e-06,
          2.35367770e-04, -3.53141717e-04, -4.10182765e-05,
          -2.95801528e-05, 6.58529607e-05, 2.99024896e-06,
          -7.38908129e-05, 7.82108909e-05, -1.62315573e-05,
          1.38502701e-05, -3.06943170e-04, 7.42045313e-06,
          -1.74702473e-06, 0., -1.14261175e-05, 0., -2.18408750e-05,
          1.87064979e-05, -1.97815916e-05, 2.12047325e-05,
          -6.21557410e-05, 0., -8.78039427e-05, -2.41573389e-06,
          1.35046619e-04, 7.59156101e-05, -1.74088476e-04,
          1.57723873e-04, 3.60042858e-03, -2.45853535e-05,
          1.25644694e-03, -1.90507591e-04, -3.84123668e-05,
          5.82870189e-06, 1.09189932e-04, 2.46138206e-05, 2.13421372e-04,
          0., 6.77500202e-06, 3.61087223e-05, -4.49755680e-06,
          8.02024078e-05, 1.58175346e-04, 3.97126831e-04, 2.66711198e-04,
          1.45813547e-05, 2.13780790e-04, 5.02631956e-05, 1.19501210e-05,
          1.04580431e-05, -3.68581022e-05, -3.12384102e-04,
          1.03424776e-04, 2.16731223e-06, -1.10934488e-03,
          3.18261737e-04, -2.07618228e-04, 3.08093644e-04,
          -2.56748125e-03, 7.78138405e-04, 7.80050876e-04,
          -6.19421917e-05, -1.03772827e-03, 8.02330396e-05,
          2.14623462e-04, 6.26383815e-04, 1.91240179e-04, 8.04566807e-05,
          -8.50223114e-06, 0., -3.98336888e-05, -4.81861091e-04,
          -9.19015874e-05, 5.32027392e-04, 1.84423011e-03,
          9.22831023e-05, 2.82882102e-04, 0., 1.32644109e-05,
          6.98979693e-06, 0., 1.84838291e-06, 4.60161937e-05,
          -2.32289007e-04, 3.39020662e-05, 3.91721369e-05,
          -2.31562663e-04, 2.61094887e-04, -2.96282415e-05,
          6.91229827e-04, 1.16966222e-03, 1.34279253e-04,
          -6.25994217e-05, 1.25618608e-05, -7.94654625e-07,
          -1.80224597e-05, 0., 1.25618608e-05, -1.82433414e-05, 0., 0.,
          0., 0., 4.14344831e-05, 0., -4.63602009e-06, -2.27784058e-05,
          3.54556629e-04, 4.22220073e-05, 7.49934361e-06, 7.49921383e-05,
          -2.90310782e-05, 0., 4.49362597e-05, 5.43469578e-05,
          -1.72441607e-04, -3.03384627e-06, 0., -8.26869509e-05,
          5.15790132e-04, -1.53424495e-04, 1.96548615e-04,
          -1.90523104e-04, -1.03642559e-03, -4.70161351e-04,
          -1.49221751e-06, -8.63417335e-06, 2.04507276e-04,
          2.51980487e-06, 7.41080512e-05, -6.49268841e-05,
          7.65930527e-05, -4.33432251e-06, 0., -8.73809677e-06,
          -6.10650750e-05, -2.12817190e-06, 2.03282580e-05,
          1.92579373e-05, 1.66873651e-04, 0., 0., 0., 7.91533603e-06, 0.,
          0., 0., 1.08136563e-04, 0., 0., -2.12817190e-06,
          -1.99319664e-04, 0., -3.33916832e-05, -8.91262698e-06,
          -2.97033432e-04, -7.28348168e-05, 8.75218302e-06,
          -6.40036160e-05, 2.38101643e-06, 0., -6.21583386e-05,
          -8.60518057e-08, -3.26927475e-05, 0., 0., 0., 2.22321141e-05,
          0., -6.52822418e-05, -8.00617854e-05, -8.81217420e-04,
          1.08530876e-04, 5.75348240e-05, -6.07102993e-05,
          8.85922418e-05, 0., -1.46573293e-04, -2.24685955e-05,
          -1.17220206e-03, -1.27805135e-04, -1.36314658e-04,
          -5.25036603e-06, -8.58715444e-04, -3.85234307e-05,
          1.79519528e-04, -2.81422166e-04, 1.80598479e-04,
          3.62971041e-04, -1.03602065e-06, 3.27266071e-06,
          3.11968070e-05, 2.00004477e-04, 4.70618143e-05, 3.01178615e-03,
          0., -3.14926292e-05, 0., 1.40696302e-05, 2.54495444e-05,
          9.97103871e-06, 0., 1.03231717e-03, 3.17478443e-05,
          -1.00346646e-04, 0., 5.49382603e-05, 0., 0., 0.,
          4.15698960e-05, -2.39405636e-05, -3.37996025e-05, 0.,
          -1.80465377e-05, 5.44522736e-05, -7.78344474e-05,
          -5.31334772e-05, 2.24282223e-04, 0., -2.34951658e-05, 0.,
          3.67907342e-05, 0., 0., 0., 1.45817568e-04, 0., 0., 0., 0., 0.,
          0., 0., 6.76440686e-05, -1.24105009e-05, -2.32527618e-05, 0.,
          -8.43659800e-05, 0., -2.78143816e-05, 0., -1.77892012e-04, 0.,
          1.37010175e-05, 0., -2.74768827e-04, -2.80425738e-05,
          -5.98385759e-06, 3.27376620e-06, -8.91559830e-05,
          5.82729175e-04, -9.04985063e-04, -2.00766008e-04,
          -4.20829933e-03, 3.13536257e-05, 7.54481152e-05,
          -1.40907941e-03, -5.96452272e-04, 2.59554145e-06,
          -1.85052832e-05, -2.36928154e-05, 7.01420213e-05,
          1.69404291e-06, 3.02002863e-05, -9.90035096e-06,
          -1.96087840e-05, 9.41775652e-05, -2.01133280e-05, 0.,
          -4.51686610e-05, 0., -7.58849274e-05, 0., 2.07568110e-06,
          3.59790902e-05, -8.08290279e-05, 0., 2.14686752e-05,
          3.75426753e-05, -9.20102411e-06, 6.22064763e-05,
          -4.51883461e-05, -1.50618056e-04, 1.46992606e-04, 0.,
          -8.17569453e-05, -5.69915792e-05, -2.97639508e-05,
          -2.96360631e-05, 2.18991554e-04, 8.75218302e-06,
          2.38286466e-05, 0., 1.38009671e-06, 6.51392520e-06, 0.,
          1.84838291e-06, 5.91383432e-05, 9.16529272e-04, 2.30109712e-04,
          5.42784328e-05, 4.37262875e-04, 3.97019858e-06,
          -2.23899715e-05, 2.99841686e-05, 5.38443099e-04,
          -3.80176702e-04, -3.31699004e-04, 8.31513389e-05,
          -6.38804224e-04, -2.78790802e-04, 1.35489812e-04,
          -6.57155397e-05, 1.58872514e-04, -1.33958529e-04,
          5.41549991e-04, 1.92254065e-05, 5.56826766e-04, 1.45251601e-04,
          -3.47544010e-05, 2.84637412e-04, 5.01577626e-04,
          1.67527760e-04, 3.98031898e-06, 0., 1.25618608e-05,
          4.56013920e-04, -6.72368260e-05, 2.39369649e-04,
          1.67264743e-03, -3.14270990e-04, -2.96570157e-04,
          5.32339436e-05, -5.18796296e-05, 1.12241229e-04,
          -6.78445531e-06, 9.04652843e-05, 1.08187829e-04,
          5.84761874e-05, 2.44400383e-07, 0., -1.44641337e-04,
          3.79906087e-05, -1.09282928e-05, 3.42410698e-04,
          6.59505255e-04, 3.79993180e-05, -2.78143816e-05, 0.,
          1.15224666e-05, -7.37688242e-05, 0., 0., -3.25335022e-05, 0.,
          3.27376620e-06, 0., 0., 0., 1.25618608e-05, 7.13592890e-05,
          8.19300185e-05, 1.07335078e-03, 1.55001744e-05, 7.69635335e-06,
          3.72947434e-05, -1.94260138e-04, 0., -7.10820859e-06,
          2.30642290e-05, 5.91897813e-04, 1.34839675e-05,
          -7.58849274e-05, 4.15371687e-05, 6.64172287e-04,
          -3.81484831e-04, 3.98216012e-04, -6.40374492e-05,
          -5.48582815e-04, -4.21912759e-04, 0., -1.53770397e-05,
          -1.80209856e-04, -2.56735871e-06, 5.26147744e-07,
          6.50637885e-05, -7.91518396e-05, -2.83322152e-05, 0.,
          -2.56735871e-06, 1.47984698e-04, -3.04556852e-06,
          -6.36815821e-05, -3.10258059e-07, 2.29995669e-04, 0., 0., 0.,
          2.94235524e-05, 0., 0., 0., 1.16149095e-04, -2.05117576e-05,
          0., 0., -1.31343564e-04, 0., 3.98031898e-06, 5.89462870e-05,
          -3.50149858e-05, -1.22533907e-04, 1.15307967e-05,
          -1.82217300e-05, -1.03288781e-04, -2.08990459e-05,
          1.55607158e-05, 1.66012542e-05, 1.67532144e-05, 0., 0., 0.,
          -5.20583490e-05, 0., -3.60601960e-04, -3.55982702e-05,
          -6.95669500e-04, -3.71897477e-04, 3.58833895e-05,
          -4.57695933e-06, 1.31027100e-05, 0., -1.50282222e-05,
          4.90042512e-05, 1.30285672e-03, -2.87182804e-04,
          -4.78410948e-04, 1.63688092e-04, 2.06484832e-03,
          1.14935399e-04, 1.78026690e-04, 1.35445851e-04, 9.65804429e-05,
          5.41942893e-04, 2.41355815e-06, 3.24710796e-04, 3.59735241e-05,
          -4.64334262e-05, 7.82041116e-06, 3.24719702e-04,
          3.12233205e-05, -1.56809896e-04, 0., 0., 9.00004488e-06,
          -1.75066438e-04, 0., 6.38315571e-04, 2.59554145e-06,
          3.88068765e-05, 0., 5.54403705e-05, 0., 0., 0.,
          -2.56620333e-05, 2.86033865e-05, 1.71427873e-05, 0., 0.,
          -4.24788159e-05, 1.58383191e-04, 0., 2.45154748e-04, 0.,
          1.49870903e-05, 0., -7.25070495e-05, 0., 0., 0.,
          2.92773002e-05, 0., 0., 0., 0., 0., 0., 0., -2.19343328e-05,
          7.11091925e-05, 1.21967249e-04, 0., 4.03106496e-05, 0.,
          4.49362597e-05, 5.62032028e-06, -1.22572950e-04,
          6.58828867e-05, -4.87941943e-05, 0., 2.09670670e-05,
          -4.60110350e-05, -3.31639749e-05, -1.10897254e-05,
          -7.23897756e-05, -1.25665462e-03, -3.73763178e-04,
          6.19200582e-05, 5.28215081e-04, -2.51912366e-04,
          1.45411657e-04, -1.10783475e-03, 1.02379243e-03,
          -2.08171296e-05, 4.81104798e-05, -1.59329706e-04,
          -3.91795329e-05, 4.21471623e-06, 1.42531862e-05, 0.,
          2.34637293e-04, 5.70880657e-05, -5.77462015e-05,
          5.62032028e-06, 1.20961076e-05, -1.32774758e-05, 0., 0.,
          -6.91212263e-05, -5.48280623e-05, 9.10054077e-05,
          2.77449144e-05, 6.99543743e-05, -2.39772326e-05,
          9.68881341e-06, -4.12276713e-05, -7.08016887e-05,
          -6.46218308e-04, -5.91712131e-04, 1.60119589e-06,
          -9.90910572e-04, -1.14456838e-04, -2.71373810e-05,
          -1.34533795e-04, -2.31265527e-04, 1.53134879e-05,
          -4.41132215e-05, 0., 3.48950016e-05, 2.94801293e-06,
          -1.36537037e-05, 1.79483850e-05, 1.20789446e-04,
          -2.10576784e-03, -1.88942440e-03, -5.16517903e-05,
          -9.65273466e-06, -6.82785976e-05, -6.42391387e-05,
          1.71628399e-05, -2.54553248e-04, 1.71183172e-04,
          -4.42724413e-04, 7.03398182e-05, -9.22810519e-04,
          -4.41030192e-04, -7.42502307e-05, 3.52895528e-04,
          -4.81544848e-04, 3.51548544e-04, 8.51341872e-04,
          1.04457249e-05, 2.46334122e-04, -1.40369724e-04,
          -2.00666007e-04, -2.52532307e-04, 4.45880491e-04,
          6.53882016e-05, 4.02544683e-05, -5.35653226e-06,
          -3.91795329e-05, 4.00231773e-04, 5.32661325e-05,
          3.43806954e-04, 2.33905463e-04, 1.74417437e-04, 5.83178364e-04,
          8.10834536e-05, 2.08865167e-04, -7.25276768e-05,
          -2.34783911e-05, 5.23282324e-05, -1.26975501e-04,
          -4.64435114e-04, 3.02976259e-05, 1.04580431e-05,
          -2.02680283e-04, -9.91247944e-04, 3.69308473e-05,
          -4.10426990e-04, 2.77323998e-04, -4.99575472e-05, 0.,
          -8.18862372e-06, 5.01144086e-06, -9.44601343e-05, 0.,
          -7.79566744e-06, 4.97221572e-06, 0., 0., 0., 0.,
          5.78852905e-06, 0., 0., 1.93625438e-05, -2.05687742e-04,
          -9.77434102e-05, 0., -5.04041163e-05, 6.62428138e-05, 0.,
          -7.34360801e-05, -4.00723038e-05, 4.84522519e-04,
          1.88533486e-05, 5.69267941e-05, -1.46076127e-04,
          -1.65832625e-03, -1.95095708e-04, -1.13376940e-03,
          2.59782719e-05, -3.83091276e-04, -2.76144943e-04,
          8.67982599e-05, -2.19463443e-04, -2.06071200e-04,
          -4.13810667e-05, 8.22728543e-05, -7.37289447e-05,
          7.39476236e-05, -2.88275332e-05, 0., -4.54314031e-05,
          7.46507203e-06, 8.00597945e-07, -9.49206424e-06, 0.,
          7.76789966e-05, 0., 0., 0., 1.48615272e-05, 0., 1.84838291e-06,
          -1.68952956e-05, -8.27245240e-05, 4.22890309e-07, 0., 0.,
          -8.65962738e-06, 0., -3.56073506e-05, 3.16455407e-05,
          -2.64226168e-04, -7.59027389e-05, 0., -1.53918609e-05,
          1.96875233e-04, 8.00597945e-07, 4.13288872e-05, 5.84184636e-06,
          4.87042853e-05, 0., 0., 0., 4.77148460e-05, 0.,
          -3.77533026e-04, -1.59260344e-05, 2.07821242e-04,
          -1.13005874e-04, -7.17978837e-05, -6.64606268e-05,
          -1.49111715e-04, -1.32774758e-05, -1.24209881e-04,
          1.49302396e-05, 1.24060127e-04, -9.72855923e-05,
          -9.08834627e-04, 9.84373764e-06, -2.83276924e-04,
          -1.05501742e-04, 1.35967231e-04, 3.26388545e-05,
          -1.04148297e-04, 6.43090927e-04, 8.00597945e-07,
          9.32878407e-04, -3.84083505e-05, -5.79992156e-05,
          6.70492170e-07, 1.32444504e-04, 0., 1.78977243e-05, 0., 0.,
          4.74775079e-05, -2.61776659e-05, -2.01621242e-05,
          3.37482867e-04, -5.86578244e-06, 1.40878008e-04, 0.,
          1.35594019e-04, 0., 0., 0., -3.61004531e-05, -1.18367452e-05,
          7.64959896e-06, 0., 7.26245198e-05, 5.20302528e-05,
          -8.41751171e-06, 8.68042116e-05, -2.07078599e-04, 0.,
          -8.10410929e-05, 3.51906128e-05, 1.55607158e-05, 0., 0., 0.,
          -3.78548684e-05, 0., 0., 0., 0., 0., 0., 0., -1.38708521e-04,
          -8.33355170e-06, 9.72688213e-05, 0., -9.00091072e-06, 0., 0.,
          0., -7.53924996e-06, -2.39721503e-05, -3.85453059e-05, 0.,
          -3.06828115e-05, -3.61739149e-05, 1.02327604e-05,
          -4.89736522e-05, 6.14469463e-05, 3.65082000e-04,
          -6.61169877e-04, -6.23483866e-05, 1.00462860e-03,
          -4.26827377e-04, 1.40393138e-04, -1.03738869e-03,
          1.50332029e-03, 0., 2.28641802e-05, 9.44161002e-06,
          1.04735598e-04, 3.86597549e-06, -6.09893214e-05,
          -2.17392935e-05, 1.82249845e-04, 6.57213150e-06,
          -1.54419336e-04, -5.98385759e-06, 3.88211483e-05, 0.,
          -5.35653226e-06, 0., 1.12335496e-04, -8.36846596e-07,
          -9.83897407e-05, 0., -1.19428478e-04, -8.75175829e-06,
          -2.78143816e-05, 4.14023052e-05, -4.77344947e-05,
          -1.91078307e-05, 4.39272786e-04, 0., 8.55124614e-04,
          -2.15979046e-04, 2.69395896e-05, -2.03257805e-04,
          5.39175584e-04, -4.60110350e-05, 0., 0., -1.04620245e-04,
          -3.03385696e-05, 8.14907398e-05, 6.43566091e-05,
          1.95393164e-04, 3.14627629e-04, -5.52216487e-04,
          -7.42837292e-05, -7.64850556e-05, -1.02358617e-05,
          -2.52324789e-05, 7.13942354e-05, 3.64461506e-04,
          -2.53534527e-04, 3.69591027e-04, 2.06161858e-05,
          -6.43787964e-04, -3.43345309e-04, 4.67365571e-05,
          -1.21136203e-04, 1.05379079e-03, 9.21347877e-04,
          -1.14281520e-05, 3.94406125e-05, -2.16534332e-04,
          -5.45401766e-04, 7.83167197e-05, -7.15787348e-04,
          -5.58772532e-04, -7.24157435e-05, 5.97948601e-05,
          -2.78143816e-05, 6.95148847e-05, -1.08385202e-03,
          -9.59068930e-05, -7.92726292e-04, -1.06202834e-03,
          1.48428429e-04, 2.82876019e-04, -1.47859129e-04,
          -8.10120036e-05, -5.22212140e-05, -9.32002422e-06,
          -4.41423035e-05, -1.64138823e-04, -1.77679482e-04,
          4.51617707e-05, -9.78943863e-05, 6.32724405e-05,
          -6.59335463e-04, -5.33565762e-04, 1.68997189e-03,
          -2.42451625e-03, 1.47031824e-04, 5.85363659e-06,
          1.87064979e-05, 0., -1.03044986e-05, 0., -1.22918689e-04,
          3.73907060e-05, -3.09236166e-05, 0., 0., 0., -1.61458447e-04,
          0., -4.17203591e-05, -1.91935524e-05, 1.40805019e-03,
          -2.19474299e-04, 2.74872546e-05, -4.83301046e-05,
          -1.31829118e-04, -5.75782951e-06, 4.46721097e-05,
          -9.05714187e-05, 6.18717284e-04, -2.01942530e-04,
          1.74525809e-07, 9.52884948e-05, -1.87466168e-04,
          -5.20678004e-05, 2.41638612e-04, -7.56008434e-04,
          1.97535010e-05, -2.62772432e-04, 5.00421775e-05,
          -1.16825984e-04, -6.80839948e-05, -1.41888240e-05,
          -1.38259275e-04, -2.22671151e-05, 4.69910538e-06,
          -2.27352175e-05, 0., 0., 3.52209054e-06, 5.62032028e-06,
          -2.07268778e-04, -3.51093186e-05, 1.49852985e-05,
          1.46005150e-05, 0., 0., 8.36428535e-06, 0., 0., 3.51906128e-05,
          -1.60075811e-04, 0., 0., 0., 2.45384843e-04, 2.10197122e-05,
          -3.75980540e-04, -2.73158657e-05, 2.77515093e-04,
          1.54824360e-04, 2.57475176e-06, -1.26715278e-07,
          2.09078236e-04, 5.71596756e-05, 1.07731590e-04,
          -5.47681811e-05, 4.25993931e-05, 3.06178990e-05, 0., 0.,
          2.64824950e-04, -1.69731411e-05, 4.06130857e-05,
          1.26275227e-05, 6.91359397e-04, 1.06888387e-04, 5.69974654e-05,
          8.69122005e-07, -8.87382994e-05, -1.50564201e-05,
          1.38426331e-04, -3.48711656e-05, 3.23056738e-05,
          -1.71389547e-04, 5.82548419e-05, -5.54184135e-06,
          2.97592778e-04, 1.85750778e-05, -3.75112053e-04,
          -1.40235759e-04, -1.36524963e-04, 2.97144667e-04,
          -1.69788436e-05, 1.20198551e-04, 2.11577990e-05,
          1.68978113e-05, -3.90210735e-05, 2.13003295e-04, 0.,
          -1.25146371e-05, 0., 0., 0., -3.67486355e-05, -8.16933971e-06,
          -6.09930838e-04, -3.15644184e-06, -1.67506150e-04, 0.,
          -3.00478878e-05, 0., -4.59639887e-05, 0., 4.14039641e-05,
          -6.30032227e-05, -6.61450540e-05, 0., 1.93469059e-05,
          -3.61070415e-05, -1.91443123e-05, 9.85353763e-05,
          7.20900716e-05, -1.69788436e-05, -5.39788707e-05, 0., 0., 0.,
          0., 0., -1.53869514e-05, 0., 0., 0., 0., 0., 0., 0.,
          4.13191519e-05, 5.75981321e-05, -1.84008713e-05, 0.,
          1.74437118e-05, 2.30642290e-05, 2.73776513e-05, 0.,
          2.24826636e-05, 2.72389570e-05, 1.33611256e-05, 0.,
          -9.14476550e-06, 3.81349128e-05, -2.29131565e-05,
          -4.07976295e-05, -4.82885458e-04, 3.65755870e-04,
          1.85318466e-04, -2.12007199e-05, 5.91628661e-04,
          -1.04571096e-04, 1.63931298e-04, 2.08536483e-04,
          2.17802532e-04, 0., -7.04954800e-07, 0., 4.64647455e-05,
          -2.01645908e-05, -2.07152607e-05, -6.89603112e-05,
          -2.06591241e-04, 1.44409314e-05, -4.13952839e-05,
          -1.69788436e-05, -4.48568835e-06, 0., -4.60212832e-05, 0.,
          2.14907159e-05, -1.25515926e-05, -3.22135857e-05, 0.,
          3.80586680e-05, 7.40663600e-05, -5.11057333e-05,
          6.96237339e-06, -3.55058000e-04, 1.11515273e-03,
          9.94451693e-04, -6.40126091e-05, 1.91554482e-05,
          1.78313043e-04, -5.20302128e-05, -4.16624680e-05,
          4.62751283e-04, -3.23733548e-05, -1.67207854e-05, 0.,
          7.35734693e-06, 7.33046090e-06, 2.23172610e-04,
          -5.14829153e-05, -3.37153979e-05, -1.63086387e-03,
          4.19832912e-04, -1.60258103e-04, 4.34800371e-04,
          1.11722866e-05, 1.91813560e-05, 1.04312467e-05, 1.03436927e-04,
          6.67656539e-04, 6.33782707e-04, -7.09243541e-05,
          6.69486995e-04, 1.24373822e-03, 2.82542169e-04, 9.39352380e-04,
          -1.49688253e-03, -3.33979726e-04, 9.87766034e-05,
          3.70191956e-05, -1.75542300e-04, -2.94068945e-04,
          6.53732714e-05, -3.30885174e-04, -2.49141944e-04,
          7.35695794e-05, 3.94784693e-05, 1.87064979e-05, 1.98741691e-06,
          -6.35966251e-04, 2.44049734e-05, -1.19317707e-03,
          -1.85646597e-04, 3.07257287e-04, -5.48597192e-04,
          4.62779390e-05, 3.36253404e-04, -1.80904288e-04,
          -1.06083091e-04, -2.22349536e-05, -9.04152621e-05,
          -3.69368150e-04, -1.39811411e-04, 2.33027968e-05,
          -9.82456768e-05, -2.10287071e-05, -2.14348358e-04,
          7.49651866e-04, 6.22775638e-04, 7.10804961e-05,
          -5.48315911e-05, 0., 1.87064979e-05, -9.97481857e-06, 0., 0.,
          -6.01114152e-05, 0., 0., 0., 0., -3.80215461e-05,
          -6.84175257e-06, 1.84838291e-06, -3.51801973e-05,
          -1.25443175e-05, 8.20927817e-05, -2.72086272e-05,
          -5.35991676e-05, 3.07187620e-05, 0., -3.36717167e-05,
          6.33824993e-06, -1.65305377e-04, -5.00556780e-05,
          -1.75460827e-05, -2.53523576e-05, 1.12069065e-04,
          -1.10546325e-05, 4.06623061e-04, -4.76530055e-04,
          -1.13824720e-03, 7.57429871e-06, 0., 9.21007995e-06,
          1.35360868e-04, 7.07157233e-05, -5.12630359e-05,
          7.84800941e-05, 7.27507086e-07, 0., 0., 0., -8.98070866e-05,
          0., -3.59808801e-05, 2.75048787e-05, -3.27200432e-05,
          -2.37319127e-05, -5.58555621e-06, 0., -1.69788436e-05, 0.,
          -1.06786320e-05, -1.36537037e-05, -1.68253227e-05,
          -1.17208283e-05, 0., 0., 3.67971870e-06, -2.02799529e-05,
          -1.82549393e-05, 8.26407049e-05, 5.02628507e-04,
          1.94579756e-04, 2.77711897e-05, 6.12816757e-06,
          -2.12472209e-04, 1.38947344e-05, 5.12344923e-05,
          -2.36983433e-05, -1.81409996e-05, 0., 0., 0., 1.07876869e-04,
          1.53134879e-05, -4.07720199e-06, -9.92596415e-06,
          6.87483000e-04, -1.19261262e-04, 2.44012790e-05,
          -3.75487434e-05, -1.63312405e-04, -1.43325497e-05,
          -4.05626779e-05, 8.77275452e-05, -7.82320509e-04,
          9.36059296e-05, 0., -7.11797620e-05, 5.57653730e-05,
          1.63361728e-05, -5.42073030e-06, -5.01090079e-04,
          7.54001594e-05, -2.44682567e-04, 0., -1.45020967e-04,
          -1.27808562e-05, 2.40528811e-06, -3.40689417e-06,
          -1.56108450e-04, 0., 8.48270938e-05, 0., -2.36928154e-05, 0.,
          -9.86056148e-06, -8.35150786e-05, 5.90677446e-05,
          7.87906683e-05, 7.40312098e-05, 0., -9.79126708e-05, 0.,
          -5.35653226e-06, -2.45853535e-05, -2.05805736e-05,
          8.14982798e-07, -9.40034261e-06, 0., 5.71596756e-05,
          4.08575070e-05, 4.28926032e-05, -4.06083127e-05,
          -3.08702642e-04, 0., -5.08223347e-05, 0., 0., 0., 0., 0.,
          -2.75055063e-05, 0., 0., 0., 0., 0., 0., 0., 2.13719923e-05,
          2.68196595e-06, -1.21300662e-04, 0., -6.91782916e-05,
          1.18369499e-05, 0., 0., 8.88211798e-06, 3.30131843e-05, 0., 0.,
          -4.04087768e-05, -1.50564201e-05, 2.04147618e-05,
          -5.07748955e-05, -3.47890076e-04, -7.23527846e-05,
          6.02698943e-04, 6.79431287e-06, 5.59432781e-04, 1.20598372e-04,
          4.71456806e-05, -9.04302869e-05, -2.25298179e-04,
          -3.10985706e-05, -9.49999594e-06, 0., 1.53134879e-05,
          3.09034440e-05, -1.73073579e-06, -6.26672045e-05,
          -1.47591360e-04, 1.24843253e-04, -1.98429974e-04, 0.,
          -9.87670501e-05, -3.91795329e-05, 5.03752235e-05,
          -2.19843114e-05, 7.25903055e-06, 8.24348681e-05,
          1.88118042e-06, -6.78445531e-06, -7.60516050e-05,
          4.99345042e-05, -3.68561523e-05, -2.10722792e-05,
          -1.00475654e-05, 7.00726872e-04, 6.76286523e-04,
          2.53949675e-05, 3.26959504e-04, -3.69661575e-05,
          7.37149094e-05, -1.64671528e-05, -8.04232550e-04,
          -6.46278640e-05, 3.39766484e-05, 0., -8.45155009e-05,
          -9.33563642e-05, 1.58255512e-04, -1.71088977e-04,
          -5.63576119e-04, 2.79809767e-03, 1.58557831e-03,
          5.29503450e-05, -1.53603523e-05, 4.36824375e-05,
          1.33990325e-04, 5.72845602e-05, 1.95568631e-04,
          -4.40869662e-05, 4.47087019e-04, -1.61217777e-05,
          -2.10880549e-04, 3.29723465e-04, 3.90185829e-04,
          -4.38852760e-04, -4.43006604e-04, 5.45380753e-04,
          9.65088693e-05, -1.43365323e-04, -1.34504386e-04,
          -1.13934766e-04, 1.54276422e-05, -2.78478634e-04,
          5.36651700e-04, 4.93151856e-06, 7.41768163e-05, 2.23750649e-05,
          -2.82405699e-06, 2.89830845e-04, -1.45684113e-04,
          7.49520666e-04, 5.32519131e-04, -1.02999085e-03,
          -2.45066418e-04, -4.41666198e-05, -2.12915838e-04,
          -1.02840357e-04, -8.47608244e-05, -6.25075700e-05,
          2.05508608e-04, -5.73827827e-04, 4.10927241e-05,
          -1.11598583e-05, -1.21031244e-05, 6.02633634e-04,
          7.10998429e-05, 8.55494232e-04, 1.88955409e-03, 5.87018585e-05,
          1.01568177e-04, 0., 0., 5.13150735e-05, 2.75176171e-05,
          7.11027860e-06, -4.64573204e-05, 0., 0., 0., 0.,
          6.32154843e-05, 1.67732512e-08, 5.45710573e-05,
          -9.53281924e-05, 1.91817133e-04, 1.55312460e-04,
          -2.11950173e-05, 2.77449144e-05, 2.03593318e-05,
          -1.77563879e-06, 9.44697967e-06, -1.66412901e-05,
          2.71727913e-04, 9.35427452e-05, 0., 3.19987294e-06,
          4.97217698e-05, 1.75423816e-06, -6.60607111e-05,
          -4.74434200e-04, -1.45017009e-04, -1.82480217e-04,
          -9.03926193e-05, 4.98346708e-05, -1.14868126e-04, 0.,
          3.54505355e-05, 2.30115722e-04, 5.63603971e-05, 0., 0., 0.,
          1.31190944e-04, 0., 1.62435404e-04, 3.68305627e-05,
          1.91224754e-04, 3.36980770e-06, 0., 0., -5.03061528e-06, 0.,
          2.63416314e-05, -7.30126121e-05, 5.14966341e-05,
          1.36228828e-05, 0., 0., 2.04324344e-04, 4.10137181e-05,
          -6.90285306e-05, 2.77566956e-04, -3.92825896e-04,
          -3.20501626e-04, 0., 5.03820593e-05, -5.04132367e-05,
          -7.46794785e-06, -6.17611659e-05, 2.65534036e-05,
          3.08034760e-05, 0., 0., 1.49870903e-05, 1.48249364e-05,
          2.00123009e-06, -1.39525335e-04, -1.19939607e-04,
          -3.04383924e-04, 6.41809238e-05, -3.37907913e-05,
          -6.51877199e-05, 3.99500532e-05, 4.30022701e-05,
          2.60195720e-05, -2.02131676e-04, -4.10221779e-04,
          2.79721626e-05, -8.72069995e-06, -3.80154634e-05,
          1.61966367e-04, -6.68199937e-05, 2.86202994e-04,
          -3.39964099e-05, 8.69232972e-05, -4.35996655e-04,
          -3.61479324e-05, -2.89435848e-04, 2.93279008e-05,
          7.50265972e-05, -8.03248622e-05, -6.73530449e-04, 0., 0., 0.,
          -2.71323165e-06, 3.07538940e-05, -4.42240089e-05,
          -2.42025035e-05, -2.69303448e-04, -1.03892628e-04,
          -9.74659633e-05, 0., 3.50340888e-05, 0., 0., 8.00597945e-07,
          -8.47777483e-05, 0., -1.50159913e-05, 5.04679883e-06,
          -1.49221751e-06, 1.12887101e-04, -1.33095673e-05,
          2.29682882e-05, -1.81257899e-04, 0., 7.12486508e-06, 0.,
          5.62032028e-06, 0., 0., 0., 2.37532968e-05, 0., 0., 0., 0., 0.,
          0., 1.04580431e-05, -2.51935817e-05, -6.66713240e-05,
          4.56311172e-05, 0., -7.21509423e-05, 0., -2.54492315e-05, 0.,
          -7.46111664e-06, -3.91795329e-05, 3.38660698e-06, 0.,
          5.05875832e-05, -4.17972433e-06, 8.24710878e-05,
          2.51980487e-06, -1.35948081e-04, -1.04035229e-04,
          7.47321465e-05, -3.20295621e-05, -2.68639065e-04,
          -3.01250275e-05, 1.15282215e-04, 1.30793560e-05,
          4.54306573e-05, 9.51811046e-07, 5.39856010e-05, 0.,
          -1.00388688e-05, -2.91572469e-05, -3.38857826e-05,
          -4.57431510e-04, -6.92914182e-05, 1.07613261e-04,
          -8.91053860e-05, 0., -1.37181720e-04, 0., 2.55710984e-05,
          -2.02178649e-06, 1.35964481e-04, 6.46428816e-05,
          5.95894235e-05, 0., -7.66318844e-05, -1.62331980e-05,
          -5.11235121e-05, -1.42976423e-04, 5.30931175e-05,
          -5.20064845e-04, 4.03215323e-04, -3.13756063e-05,
          -7.84632692e-04, 1.33079971e-04, -5.66088311e-05,
          1.05812418e-04, -1.68538143e-04, -6.61410304e-05,
          -9.67310698e-05, 0., 6.17281330e-05, 1.57931237e-04,
          -8.08373443e-06, -2.75724742e-04, 1.28697400e-04,
          8.95011530e-04, -2.84489390e-04, 1.94485983e-04,
          1.41340002e-04, 2.00174618e-05, 5.63114445e-05,
          -2.71728113e-05, 6.66722844e-05, -6.14041346e-04,
          -2.46190059e-04, 1.80805218e-05, 2.28341334e-04,
          -2.54149345e-04, 6.62167382e-04, -1.09365722e-03,
          9.87863983e-04, -1.06183882e-03, 2.24042597e-04,
          1.04689192e-04, 2.36784923e-04, 2.69812328e-04, 1.05182015e-04,
          -1.76918096e-04, 1.33302540e-03, -8.83368120e-05,
          -4.95518725e-05, 5.87509612e-06, -5.78957697e-05,
          -6.65377069e-04, -4.68663566e-05, -4.92730120e-04,
          -6.34372176e-04, 1.28842556e-04, -2.68004864e-04,
          -7.84303411e-05, 1.10712295e-04, -3.43851338e-04,
          -5.01798022e-05, -7.38863309e-06, 7.04287813e-05,
          -1.84307573e-04, -9.29049929e-05, 5.12808219e-05,
          -2.29980156e-04, 2.34532185e-04, -5.93384611e-04,
          3.95029958e-04, -4.91469691e-04, 3.10558215e-04,
          -1.42373639e-04, -5.06047570e-07, 3.87397886e-05,
          1.01140222e-05, 0., 5.62032028e-06, -2.27202759e-06,
          -7.83211144e-05, 0., 0., 2.14907159e-05, 2.34098516e-05,
          1.53134879e-05, -5.58026768e-05, 2.60970301e-05,
          7.03788653e-04, -2.29849204e-04, -2.20318652e-05,
          -2.43938375e-05, 5.40865149e-05, -6.78445531e-06,
          4.97097571e-05, 4.19429780e-05, 9.00070590e-04,
          -5.09384517e-05, 1.07820058e-04, -1.27680814e-05,
          7.37012713e-04, -1.99242131e-04, -2.14103391e-04,
          -3.79033969e-04, 5.14942745e-04, 1.31584224e-04,
          1.89983257e-05, 1.53909696e-06, 6.87850697e-04, 8.88470004e-06,
          -2.79835913e-05, 2.60006316e-04, -4.41046177e-05,
          7.27507086e-07, 0., -1.69731411e-05, 1.25771723e-04,
          6.70680747e-05, 2.04801763e-05, -1.46916442e-04,
          1.43929370e-04, -1.33902911e-04, 5.69267941e-05,
          2.14907159e-05, 1.12633832e-04, 0., 2.38877474e-05,
          3.80300553e-05, 5.99381274e-05, 4.17707270e-05,
          -9.01768362e-06, -1.04971161e-06, -1.69515115e-04,
          8.45487739e-05, 1.92031643e-04, 1.84086937e-04,
          -1.78263381e-05, 9.49792739e-05, 1.72340478e-05,
          -2.36196638e-06, -1.35489958e-04, 8.14982798e-07,
          7.14899170e-06, 4.77034337e-05, -3.87806977e-05, 0.,
          3.27376620e-06, 0., -1.68281127e-04, 2.51980487e-06,
          1.91273299e-04, -2.54652608e-04, 1.71330583e-04,
          -1.49207612e-04, 5.12391161e-05, -6.43370277e-06,
          -6.70624213e-05, -2.39037163e-05, 9.19073045e-06,
          7.54031498e-06, -1.15944003e-03, 2.13303156e-05,
          5.55772313e-05, -5.26269059e-06, 1.12411194e-03,
          1.11728928e-04, -9.22682346e-04, -3.64579872e-04,
          -2.57709820e-04, -4.02071273e-05, 5.71596756e-05,
          5.86253300e-04, -1.93694395e-05, -7.67157144e-06,
          -3.38795849e-06, 3.65734682e-04, -8.36846596e-07,
          -8.18862372e-06, 0., 3.04517689e-05, -8.48067721e-05,
          -3.33741991e-05, 1.60839936e-05, 1.11369439e-03,
          8.99496008e-05, -1.18261130e-04, 0., -8.73057070e-05, 0.,
          -1.63003165e-07, 1.36360650e-05, 6.66684791e-05,
          5.64752045e-05, -1.02584643e-04, 0., 3.83390125e-06,
          -5.27669454e-06, 2.29586585e-04, 1.59349045e-04,
          1.98569309e-04, -3.04556852e-06, 2.07259909e-05, 0.,
          7.63775752e-05, 0., 0., 0., -5.10568938e-08, 0., 0., 0., 0.,
          0., 0., 2.77449144e-05, -3.01355394e-05, 7.84031217e-05,
          8.05413365e-05, 0., 1.58796611e-05, 0., 0., 0., 5.69465883e-05,
          -4.62445205e-05, 6.28205889e-05, 0., 8.70288295e-06,
          1.33886861e-05, -4.56768648e-05, 5.30261241e-06,
          8.59019565e-05, -6.43498031e-04, -1.79061884e-04,
          1.03369210e-04, 1.90672989e-04, 2.82056513e-04, 1.00771060e-04,
          6.84312954e-06, 7.98995723e-04, -5.35569234e-05,
          3.42460589e-05, 0., -3.30390467e-05, 1.92950720e-05,
          -2.86423838e-05, -7.71337654e-05, 5.14647749e-04,
          -6.48526839e-05, -1.01024802e-04, 1.36360650e-05,
          -7.77566165e-05, 1.36360650e-05, 2.93346584e-05,
          -1.43742163e-05, 8.09667035e-05, -1.21553596e-04,
          -2.28160225e-05, 0., -8.44879760e-05, 2.05247707e-05,
          1.18327916e-04, -5.86438618e-05, 2.65851442e-04,
          -1.50311261e-03, -1.65609561e-03, -9.17031139e-05,
          -1.88924445e-04, -1.47362865e-04, 4.18349337e-05,
          -2.08165016e-04, -4.36177106e-05, -9.71872651e-05,
          -4.93479165e-05, 0., 1.60783638e-05, -2.88826486e-05,
          -3.34948163e-06, -3.39271683e-05, 3.62967548e-04,
          2.66477437e-04, 4.19550706e-05, 2.55778024e-04,
          -4.19012533e-04, 5.68138639e-05, -1.10371649e-04,
          -2.63268914e-04, 2.69711658e-04, -3.84556013e-04,
          1.47736791e-05, -1.10822337e-04, -3.16972932e-04,
          1.35264266e-03, 1.07071632e-04, -2.05962409e-04,
          -7.14580005e-04, -1.38338102e-04, -5.73295460e-04,
          -2.69682758e-04, 3.73445830e-04, -1.31723669e-03,
          -1.63668137e-05, -4.65827412e-04, 1.71016291e-04,
          1.03445796e-04, -3.70634075e-06, -1.89482598e-05,
          -2.80879813e-05, -2.63914088e-04, -6.68386929e-05,
          5.36545667e-05, -1.11367134e-03, -3.42678650e-05,
          4.71388776e-04, 4.73091641e-05, -2.09012986e-04,
          -1.99640985e-04, -3.57767385e-05, 2.25175783e-04,
          -1.39323456e-04, 1.06632314e-03, 6.86176209e-05,
          -6.01373358e-05, -6.44033498e-05, 1.87071017e-03,
          1.24965038e-04, 9.69429151e-04, -8.30961624e-04,
          -4.61889686e-05, -7.72212516e-05, -3.26927475e-05,
          1.43627825e-04, 7.56894442e-05, 0., -1.69788436e-05,
          -4.00615718e-05, 3.39977159e-05, 0., 0., 0., -2.39187193e-05,
          5.62032028e-06, 1.13489739e-04, 4.38822717e-05, 1.75306937e-04,
          -1.84472010e-05, -4.06659565e-05, -6.80279118e-05,
          5.27933444e-05, -4.60110350e-05, -4.34932845e-05,
          2.68667900e-05, -6.01939246e-05, 1.43896350e-05,
          1.53134879e-05, 8.98701546e-06, 1.49420404e-03, 3.58634898e-05,
          6.50178175e-04, -4.96181601e-05, -5.67216310e-04,
          -8.08265468e-05, 1.02709409e-05, -2.95536811e-05,
          1.15585855e-04, -1.76337580e-05, 8.88812110e-07,
          -1.40850170e-04, -2.60392080e-05, 5.62032028e-06, 0., 0.,
          6.18606282e-05, 1.53134879e-05, -6.96745192e-05,
          1.27506995e-04, 4.11906694e-06, -7.50834806e-05, 0.,
          -1.22148194e-05, -7.79606635e-05, 0., 0., 1.51574022e-05,
          -1.88133228e-04, 1.15224666e-05, 0., -1.43410198e-05,
          1.60055162e-04, 1.67732512e-08, -1.57999166e-04,
          -1.32388202e-04, 1.19978009e-04, 6.10711795e-05,
          2.43178579e-06, -4.48743776e-05, 7.33249180e-05, 0.,
          5.45027469e-05, -1.84582488e-04, 3.21651555e-06,
          -2.07204130e-06, 0., 5.62032028e-06, 1.45761413e-04,
          2.99024896e-06, 2.32600123e-05, -8.90958909e-05,
          -1.06581766e-03, 1.25102903e-04, 2.59555381e-05,
          2.05623073e-05, -4.74531989e-04, 0., -1.14896120e-05,
          -1.40683596e-05, -5.57472289e-04, -7.53471249e-05,
          -1.00182508e-04, -4.22666017e-05, 1.55426431e-04,
          -1.37835896e-05, 7.95856060e-04, 5.14703454e-04,
          -2.90117332e-05, 9.99655807e-04, 1.49870903e-05,
          3.28912720e-04, 1.91487088e-05, 6.54619289e-05, 3.35989607e-05,
          3.04014131e-04, 0., -5.35653226e-06, 0., 9.28716690e-05,
          -9.96028248e-05, 4.91839091e-05, 5.83266265e-05,
          7.14984199e-04, 1.37237483e-04, 3.48327092e-08, 0.,
          2.22431525e-04, 2.59554145e-06, -7.58849274e-05,
          -8.01068018e-05, 3.62621290e-06, -6.05846253e-05,
          -1.15348448e-04, 1.87064979e-05, 6.34251555e-05,
          4.11969158e-05, 5.27199591e-05, -1.12475873e-05,
          -7.71748601e-04, 0., 9.42320330e-05, 0., -2.53523576e-05, 0.,
          0., 1.99079113e-05, 3.26543995e-05, 0., 2.59554145e-06, 0.,
          1.67732512e-08, 0., 0., 0., -1.99705421e-04, 2.57135089e-05,
          -1.88879676e-05, 0., -2.22347026e-05, 0., 0., 0.,
          -2.44100120e-05, 1.98728394e-05, 7.76127217e-06, 0.,
          2.86286177e-05, -4.28792118e-05, -4.35776928e-05,
          -2.02225619e-05, -9.96233313e-04, -1.37735842e-04,
          9.50785688e-05, -2.57519332e-05, -1.64918345e-03,
          8.04833544e-05, 1.32995716e-04, 7.07215222e-05, 1.00358436e-03,
          1.91371873e-05, 1.04756866e-04, 0., -4.29472129e-05,
          3.79701887e-05, -3.42321655e-05, -1.60861146e-05,
          -4.50624590e-04, 6.42898740e-05, 8.97967402e-06, 0.,
          -6.89258159e-05, 4.49362597e-05, 1.87064979e-05,
          -9.79164088e-06, 2.26802076e-04, 1.10374065e-04,
          1.45824990e-04, -2.25296444e-05, 1.32420231e-04,
          -3.20240106e-05, -6.31320290e-05, 2.36538865e-04,
          -1.17800540e-04, -2.40960770e-04, 2.85863411e-03,
          -3.49946858e-05, 1.85220083e-03, 6.27909394e-05,
          8.79357049e-06, -4.31718872e-05, 8.97406251e-04,
          -1.77441791e-04, -2.91891211e-05, 0., -1.51099244e-04,
          -3.42816274e-05, -3.16943042e-05, 8.56484330e-05,
          -4.25740640e-04, -2.53937207e-03, -1.64524757e-03,
          -1.75788955e-05, -3.01760010e-04, -1.06949446e-04,
          -8.42887384e-05, -1.17683303e-04, -2.23867173e-04,
          -4.10128472e-04, -3.96311458e-04, -3.01594105e-06,
          2.84175534e-04, -7.91949395e-04, -4.59361851e-04,
          6.29609916e-04, 4.96969733e-04, -2.91271252e-04,
          1.18015462e-03, -1.14996925e-04, 1.66569022e-04,
          -2.69367720e-05, 1.52172652e-04, 2.31010476e-04,
          -2.06258788e-04, -8.18833214e-05, -2.92511118e-06, 0.,
          3.30838448e-05, 7.26034195e-05, 3.49328075e-05, 2.06764787e-04,
          1.34646764e-03, -6.34655997e-04, 1.05488543e-04,
          7.98275723e-05, 1.45350816e-04, -1.02920472e-04,
          2.92923614e-05, 9.27950459e-05, 1.97996458e-04,
          -4.13624046e-04, 2.81400426e-05, 5.23504714e-05,
          -2.27884724e-04, -4.78215923e-04, 1.63175413e-04,
          2.25797761e-03, 7.82401534e-04, -2.90837888e-05,
          2.04054650e-05, 0., -4.60110350e-05, -1.09895282e-05,
          5.04679883e-06, 0., -1.21988842e-05, 0., 0., 0., 0.,
          -5.93737332e-06, 0., -1.02290403e-04, -7.14268663e-06,
          -2.03553325e-04, 1.45183396e-04, 7.20194439e-05,
          2.83737722e-06, 2.29961079e-05, 0., -4.03757076e-05,
          1.12360547e-04, -4.02215053e-04, 1.25591338e-04,
          -3.78721852e-05, 4.62778553e-05, -5.93723380e-04,
          -6.95176495e-05, 1.94501335e-04, -3.40738188e-04,
          -6.99990487e-05, 1.63564458e-04, 2.84894522e-05,
          -3.36557860e-05, -1.38775358e-04, -9.14755074e-05,
          1.08527245e-04, -1.75128007e-04, 0., 0., 0., 0.,
          8.12126018e-05, 1.36360650e-05, 3.84748673e-05, 1.83167765e-04,
          -9.71743430e-05, -1.41242469e-06, 0., 1.64951962e-05,
          -5.25789756e-06, 0., 0., 2.59554145e-06, 2.63257280e-05, 0.,
          0., 4.25857761e-05, -8.02114519e-05, 1.84838291e-06,
          1.08872984e-04, 4.70916566e-05, -5.10577811e-04,
          1.44996244e-04, 0., -3.75200179e-05, 1.22975398e-04,
          -7.50863046e-06, -3.26927475e-05, -4.61801937e-05, 0.,
          -1.50564201e-05, 0., 0., 8.85404588e-05, 2.30642290e-05,
          -2.30312435e-04, 2.70595134e-04, -8.92069424e-04,
          -1.08738408e-04, -6.83644175e-05, -7.25755744e-05,
          2.36437609e-06, -1.95591583e-05, 3.96891082e-05,
          3.75985728e-05, -6.19761646e-04, -5.18034394e-05,
          -3.91795329e-05, -6.90309244e-05, -7.42500531e-04,
          7.50850886e-05, -6.97322190e-04, -4.80217786e-05,
          1.23784572e-04, 2.10461330e-05, 0., 2.89949210e-04, 0.,
          1.40017684e-04, 7.22716413e-06, 7.37980736e-05, 0.,
          3.97456788e-05, 0., 1.49870903e-05, 1.80799889e-05,
          -2.12817190e-06, -2.13580206e-05, -3.58670572e-04,
          -1.93821743e-05, 7.99198897e-05, 0., 6.10729621e-05, 0., 0.,
          2.20009042e-06, -3.43242027e-05, 0., -3.61820166e-05, 0.,
          9.44966268e-06, -4.63602009e-06, 9.25522036e-05,
          -9.91291927e-06, -2.50337733e-04, 3.98031898e-06,
          5.01100694e-05, 0., -4.22187713e-06, 0., 2.86033865e-05, 0.,
          -1.17632298e-04, 0., 0., 0., 0., 0., -4.60110350e-05, 0.,
          2.17411252e-05, 3.47982641e-05, -5.06563301e-05, 0.,
          3.55336597e-05, 0., 0., 0., 3.80300553e-05, 0., 4.79156370e-05,
          0., -3.26842710e-05, 2.77449144e-05, -1.65368856e-05,
          -7.34513087e-05, -3.26797963e-05, 5.04527241e-04,
          -1.00020530e-04, 2.55391897e-05, 5.10879210e-04,
          -1.22971265e-04, -2.07995108e-05, 1.82374730e-04,
          3.91711073e-04, 0., 5.90555501e-05, 0., -1.10694336e-05,
          -7.96082168e-05, -5.34926112e-05, -1.91662970e-04,
          3.11649666e-04, -1.46005274e-04, 2.09532896e-04,
          9.51811046e-07, 7.93150175e-05, -3.23881504e-05,
          2.51980487e-06, 0., 1.15273651e-04, 3.28309216e-05,
          1.45480226e-05, 0., 3.16552469e-05, -1.20985598e-04,
          -3.25555593e-05, 6.86681524e-05, -3.30279545e-05,
          -4.92823659e-04, -3.50745046e-04, -8.17184991e-06,
          -1.85791039e-04, -2.96312683e-05, -1.43930356e-05,
          -9.72428898e-05, 3.99860301e-06, -6.82910177e-05,
          7.98327310e-05, 1.98728394e-05, -1.20459503e-04,
          2.82974888e-05, -1.50409222e-04, 6.85491468e-05,
          9.91656096e-04, 6.55531359e-04, -4.84640972e-04,
          -1.05049556e-04, -4.85776283e-04, -9.49134701e-05,
          -1.79808703e-04, 1.21799334e-04, 5.51217759e-04,
          -3.30702227e-04, -7.30635715e-04, -1.38366358e-05,
          -2.92015466e-04, -7.32556044e-04, -1.02987629e-03,
          -1.53684130e-04, 1.59428769e-03, 2.05499167e-03,
          5.76154329e-04, 6.66296328e-05, 8.67067502e-06,
          -1.22773781e-04, 1.35156675e-04, -2.85979098e-04,
          -1.14028621e-03, 1.51232249e-04, 8.68189018e-05,
          1.71871798e-05, 5.97778380e-05, -4.89650527e-04,
          -2.38330394e-04, 2.63221649e-04, 1.86415657e-03,
          -1.07519445e-03, 6.98120741e-04, -2.56142921e-05,
          2.01838648e-05, -1.89879793e-04, -2.04356638e-06,
          -3.15212237e-05, 4.46184167e-05, 5.53836173e-04,
          -1.39984804e-05, 1.73038861e-05, 3.01401469e-05,
          9.26064895e-05, -3.41266772e-04, -6.24673348e-03,
          -6.12953678e-04, -1.06541789e-04, -8.21796584e-06, 0.,
          5.04679883e-06, 1.45705708e-05, 0., 0., -2.11472216e-05,
          -8.83960001e-06, 0., 0., 0., 1.87064979e-05, 0.,
          3.68729707e-06, 3.35495643e-05, -3.86430445e-04,
          -2.93051999e-04, 0., -2.90808894e-05, -2.86893955e-05,
          1.38947344e-05, -4.22187713e-06, 2.91985671e-05,
          7.16657669e-05, -6.26516412e-05, 0., 2.20009042e-06,
          -4.99422255e-04, -6.57112760e-05, 4.45976511e-05,
          1.80118150e-05, -1.10421941e-04, -4.04278864e-04,
          1.15224666e-05, -2.10805210e-05, 9.69735192e-05,
          2.26469165e-05, 6.14280143e-05, 2.68370932e-04, 2.37754775e-05,
          0., 0., 0., 8.20707792e-05, 7.67996316e-05, 1.38005998e-04,
          1.53658097e-04, -2.22617135e-04, -1.90338014e-05,
          2.30642290e-05, -3.55982702e-05, 2.99599596e-05, 0.,
          4.22394514e-05, -1.40328157e-05, 6.11555297e-05, 0.,
          5.77430592e-06, 0., -1.20900177e-05, 0., -4.75912093e-05,
          -1.61130782e-04, -4.56853650e-06, 7.52346386e-06,
          -2.36928154e-05, 1.13400551e-04, -1.99752743e-04,
          4.22394514e-05, -8.59239008e-05, 6.97795531e-06,
          -1.63840978e-05, 0., 0., 0., 1.80288451e-04, 5.71596756e-05,
          1.18560813e-04, -8.08582117e-05, 9.99489916e-04,
          1.34588890e-05, -7.52366177e-05, 7.35601498e-05,
          -1.00952660e-04, -6.78445531e-06, -8.90457086e-05,
          2.88714864e-06, 8.12259212e-04, -2.51348911e-06,
          8.54162499e-05, 2.79057022e-05, 4.37235605e-04,
          -6.15790559e-05, -7.79774637e-05, -4.13409376e-04,
          4.98377740e-05, 1.24439002e-05, 0., 1.69362291e-04,
          -9.21414721e-06, 6.21597155e-06, -4.24815698e-05,
          4.22029290e-04, 0., 5.69267941e-05, 0., 0., 0., 2.50922913e-05,
          -4.35476759e-05, -9.22795385e-04, 2.02559731e-05,
          1.18739001e-04, 0., -4.22041239e-06, 4.49362597e-05, 0.,
          1.38947344e-05, 5.16252258e-05, 0., 3.39087674e-05, 0.,
          4.51494680e-06, 7.87076533e-06, -9.92866262e-06,
          -1.23095497e-05, 2.19096968e-04, 0., 8.69691139e-05, 0.,
          8.99767037e-05, -5.35653226e-06, 0., 0., -1.68952956e-05, 0.,
          0., 0., 0., 0., 0., -3.26927475e-05, 2.97849929e-05,
          3.35066215e-05, 9.92273344e-05, 0., 2.70787368e-05,
          2.30642290e-05, 1.66747177e-05, 0., 2.53657822e-06,
          1.36228828e-05, 6.24856375e-06, 0., 1.25868619e-05, 0.,
          -3.73733674e-05, 0., -6.21856016e-05, 5.57216699e-04,
          -1.29621255e-03, 5.31691148e-05, 4.41292679e-04,
          1.56212132e-04, 1.63506062e-04, -2.20709830e-04,
          1.19082909e-03, 0., 2.47443531e-05, 0., 1.18369499e-05,
          -6.94440387e-05, -1.07004213e-04, 1.53760469e-04,
          -3.80180463e-05, 2.36843276e-04, 3.62994062e-04, 0.,
          -3.10946707e-05, 0., 0., 2.77449144e-05, 3.43296233e-05,
          4.47823622e-05, -1.23776626e-04, 0., -3.34018841e-05,
          5.30936159e-05, 1.85837835e-05, -7.65233199e-05,
          1.64340265e-04, 7.58978538e-04, -3.18178162e-03,
          4.20060569e-05, -7.41781958e-04, -4.28944368e-05,
          -7.04624763e-05, -1.10252331e-04, 1.34559930e-03,
          -3.98235024e-05, 1.92641328e-05, 0., 2.87231410e-06,
          8.37944826e-05, 1.83033539e-04, 2.69237906e-04, 3.74686875e-04,
          1.67053600e-03, 6.46205212e-04, 1.48296240e-04,
          -2.30300648e-04, 6.18901540e-05, 1.75013891e-04,
          8.86139896e-05, 2.04293014e-04, 1.34561225e-04, 1.42838981e-04,
          -2.73637033e-05, -1.44576101e-04, -4.08963533e-04,
          2.29659927e-05, 2.40244844e-04, -2.69812415e-04,
          4.32659755e-04, 5.70226228e-04, 7.33929337e-05,
          -2.43251648e-04, -5.22373477e-04, 6.11007854e-05,
          3.19446990e-04, -2.04334850e-03, 3.05585236e-05,
          4.99694834e-05, 0., 1.51117374e-05, 4.95824752e-05,
          2.21724680e-04, -9.24164604e-04, 2.47804075e-03,
          3.07012560e-05, -1.56846119e-03, -6.88447981e-05,
          -1.00461977e-04, -3.00844840e-04, 7.24529309e-05,
          1.37181210e-04, 3.44320906e-05, -4.38184681e-04,
          8.29460550e-05, -2.14257925e-05, 1.48530060e-04,
          -1.26016792e-03, -7.96358800e-05, -6.57570607e-04,
          1.40573317e-03, -3.51723829e-05, 1.08392271e-06,
          -1.03602065e-06, -3.40750667e-05, -2.19254798e-06,
          -2.53523576e-05, 0., 1.24123660e-04, 0., 0., 0., 0.,
          1.89230341e-05, 5.04679883e-06, 0., 6.58957215e-05,
          3.00193118e-04, 1.11538691e-04, -3.26927475e-05,
          -1.57151826e-05, 1.35389300e-05, 0., -2.94012771e-05,
          -4.89322556e-05, -4.90916245e-05, -4.88999212e-05,
          8.52455923e-05, 9.78382595e-05, -5.20506524e-04,
          2.45491319e-05, -2.49858887e-04, -7.32243061e-04,
          5.98289364e-04, -1.02093429e-04, 3.42223825e-06,
          -1.69237610e-05, -1.80106377e-04, -2.53523576e-05,
          1.71848460e-05, -1.50329492e-04, 2.27896380e-05, 0., 0., 0.,
          3.88566004e-05, 5.04679883e-06, -2.14075801e-04,
          -6.09110539e-05, -3.13011378e-06, 2.03576965e-05,
          5.33160128e-05, 1.83352477e-05, -1.14724708e-06, 0.,
          -2.45853535e-05, 4.94454325e-05, 1.19271979e-04,
          2.86033865e-05, 1.87064979e-05, -2.95285699e-05,
          6.78265278e-05, 1.86942107e-05, 3.20110630e-05,
          -2.41014990e-04, 7.25116639e-04, -5.74238547e-05,
          -2.08990459e-05, 0., -2.63953461e-05, -6.78445531e-06,
          1.06871092e-04, -3.89833040e-05, 6.19735947e-05, 0., 0., 0.,
          1.70946078e-04, 4.97221572e-06, 4.95671229e-05, 1.85974113e-05,
          1.96050489e-04, 7.20392345e-05, 1.70818130e-05, 5.48571843e-05,
          8.62696979e-05, 1.08491658e-05, 7.83383985e-06, 7.35276553e-05,
          2.46932068e-05, -1.26246350e-05, 5.20445719e-05,
          -4.82483410e-05, 2.01328570e-04, -1.98173202e-05,
          2.90732976e-04, 2.73285899e-04, -4.16486837e-05,
          3.88579734e-04, -3.91717076e-05, -2.27377357e-04,
          -6.24577933e-06, 5.68600553e-05, 5.80615706e-05,
          -1.93266023e-03, 1.49870903e-05, 3.98031898e-06, 0.,
          7.24501660e-05, -2.19753856e-05, 1.01172729e-04,
          8.00790876e-05, -4.93763306e-04, 1.54188747e-05,
          1.09290922e-04, 0., 5.18350316e-05, 5.71596756e-05, 0., 0.,
          4.67299833e-05, -2.64992577e-05, 7.24688925e-06, 0.,
          -7.45822254e-05, 3.42970452e-05, -2.26890752e-05,
          -1.35496402e-05, -8.88680283e-04, 1.99079113e-05,
          9.95243172e-05, 0., 7.17119838e-05, 0., 2.51980487e-06, 0.,
          9.73518127e-06, 0., 0., 0., 0., 0., 0., 0., -3.00830961e-05,
          1.81120220e-06, 1.73067892e-04, 0., 1.45481117e-05, 0.,
          -2.71077806e-05, 0., 6.52217132e-05, 0., -2.01915532e-06, 0.,
          1.14131428e-04, 3.85595849e-05, 6.47075876e-06, 2.77449144e-05,
          -6.34522352e-04, 1.40940445e-03, 2.13661371e-03,
          1.05297215e-04, 4.19291551e-04, 1.10990943e-04,
          -2.62081376e-05, 2.38608089e-04, -3.46662709e-04, 0.,
          -7.18137358e-07, 0., 2.90214007e-06, -7.35016511e-05,
          -2.18071400e-05, 7.71385457e-05, -1.68997014e-03,
          -4.94414890e-05, -9.60275138e-05, -8.13209863e-06,
          -4.49902800e-05, -5.94981866e-05, 0., 3.98031898e-06,
          1.11100519e-04, -2.96055896e-05, 1.09362758e-04, 0.,
          6.85169289e-05, 8.35178798e-05, -1.18150701e-05,
          -5.52033998e-05, -4.31499881e-04, 7.10997614e-04,
          -1.46622490e-03, -1.47651535e-05, 2.50501675e-04,
          -4.70747727e-05, 7.73945212e-05, 7.54836146e-05,
          1.70330095e-05, 2.25255299e-05, 7.79528200e-05, 0.,
          -3.49626534e-05, -1.14514742e-05, 2.55222749e-05,
          5.04215386e-05, -7.51703483e-05, -1.98268052e-03,
          1.60203272e-04, -1.37947109e-06, 1.14421069e-03,
          9.51215188e-05, 9.70825454e-07, -5.57783897e-05,
          2.88706855e-04, 4.94968845e-04, 5.06230164e-04, 1.34816792e-05,
          2.89852411e-04, 2.03235817e-04, 3.08335184e-05, 9.94704096e-05,
          5.23913477e-04, 3.28059844e-03, 1.18731312e-03, 1.81204596e-04,
          4.36538045e-04, -1.06156629e-03, 1.56352777e-04,
          5.11088176e-04, 7.08668958e-04, -2.96112208e-04,
          4.90305774e-06, 4.81185525e-05, -3.03944962e-05,
          -1.08351908e-03, -8.39757777e-05, 1.24466710e-03,
          3.48856731e-04, -2.12528888e-04, 7.45005789e-04,
          1.08949735e-05, -2.11459392e-05, -1.03273866e-04,
          7.54993234e-05, 3.27755086e-04, 5.07212069e-04, 2.60839704e-04,
          5.16323315e-04, 7.05399871e-05, -4.00965437e-05,
          -2.06968456e-04, 4.35840746e-04, -7.16575421e-04,
          -1.67412229e-03, -2.07493198e-04, 4.33984278e-05,
          -2.06050354e-05, 1.15124558e-05, -3.94585331e-05,
          -3.57034914e-05, 1.83549855e-05, -2.46605305e-05,
          -6.44760876e-05, 0., 0., -1.10761021e-05, 6.08731425e-05, 0.,
          -1.49999076e-04, 6.92798130e-05, 7.94122403e-04,
          3.04269226e-04, 5.98376982e-06, -2.03630683e-04,
          1.61246826e-05, -1.75483619e-05, 7.87927565e-05,
          -2.76097038e-04, -7.96234352e-04, -1.80431860e-04,
          -2.19378664e-04, 5.49035103e-05, -2.66317424e-04,
          1.69337800e-04, 5.34597842e-04, -3.04070672e-05,
          -4.10111068e-04, 6.12954827e-05, -8.66351911e-05,
          7.09644737e-05, 1.27175401e-04, -6.64247927e-05,
          -1.64529629e-05, -3.57189783e-05, 5.57619896e-05,
          -9.01768362e-06, -2.20655493e-05, 4.30584041e-05,
          -1.29992477e-04, 1.07786545e-04, 2.32653896e-04,
          -3.71105671e-05, -2.08813493e-04, 1.29443710e-04,
          1.42309307e-06, 1.12361495e-05, -6.41342995e-05,
          -3.61892817e-05, 5.17116750e-05, 2.55130635e-05,
          -2.94754573e-04, -4.48735555e-05, 1.98728394e-05,
          6.97832684e-06, -1.27090534e-04, -9.17784655e-06,
          3.90275527e-04, 1.93489177e-04, 8.20480636e-05,
          -1.34468326e-04, 2.67639507e-06, 1.02193684e-04,
          -1.95404748e-04, -3.59438018e-05, 4.05090723e-05,
          -6.90320303e-06, 4.46602571e-05, 4.58573631e-05, 0.,
          2.55710984e-05, -3.94240269e-05, -2.63378552e-05,
          -1.11740919e-04, 1.98652182e-04, -1.67113077e-03,
          3.04010842e-04, 8.82127279e-05, 6.12550939e-05,
          -5.16675413e-04, -2.50150902e-06, 4.30852815e-05,
          -6.41098959e-05, -2.35666963e-03, -5.44669630e-04,
          6.64962936e-05, 2.42751688e-04, -1.72311312e-03,
          -1.08335655e-04, -6.84829778e-04, 2.08431611e-05,
          -1.31696197e-05, 3.55537522e-05, 6.28461785e-05,
          6.66824984e-04, -4.75160632e-05, -1.22888217e-04,
          9.79149117e-05, 1.08084944e-03, 0., 0., 0., 3.09512779e-06,
          7.69971812e-05, 6.13354350e-05, -2.06451310e-04,
          3.44409404e-04, -2.44369276e-05, 2.08609141e-04,
          -3.55982702e-05, -8.03297226e-05, 2.05337346e-05,
          -1.99801561e-05, -3.30151197e-05, 2.12439045e-04,
          5.61825618e-05, 8.63920650e-05, 9.51811046e-07, 6.35791730e-05,
          8.78043866e-05, -5.71284982e-05, -4.18524578e-05,
          1.04724008e-04, -1.68952956e-05, 3.14693243e-05, 0.,
          4.24595382e-05, 0., 7.27507086e-07, -2.06050354e-05,
          1.69081613e-05, 0., 0., 0., 2.86033865e-05, -3.30390467e-05,
          1.47812480e-05, 0., -6.28680500e-05, -1.47608793e-04,
          7.00501987e-05, -3.26927475e-05, 2.60035013e-05,
          -2.64992577e-05, 7.19836589e-06, 0., 7.58642927e-05,
          1.06551641e-04, 6.90858433e-05, 0., 1.36083981e-04,
          -6.16059260e-05, 9.15077835e-05, -3.50106566e-05,
          -7.91190396e-05, -8.02896102e-05, 5.62576926e-04,
          -3.84610685e-05, -2.71344231e-03, 3.75021104e-04,
          1.46752252e-04, -1.10438697e-04, -3.16128996e-03,
          -3.45477965e-05, 2.73426813e-05, -4.89330450e-05,
          1.77494785e-05, -3.97815638e-05, 1.13462746e-04,
          2.54100043e-04, -2.40625202e-04, 1.68692204e-04,
          3.00908316e-04, 0., 1.94593740e-04, -4.82083633e-05,
          6.59750294e-05, -1.02722894e-04, -1.25944469e-04,
          -2.46911532e-05, -1.72274886e-05, -2.56986605e-05,
          1.14203714e-04, 9.85805527e-05, -3.73686562e-05,
          4.26875893e-04, -8.67800045e-05, 5.50552737e-04,
          2.07449077e-03, 1.85465353e-04, 5.97956241e-04,
          -9.99408512e-05, 1.17438191e-04, 2.54687038e-04,
          -4.73320797e-05, 6.10187817e-05, 1.47440966e-04, 0.,
          7.71669002e-05, 2.74995600e-05, 3.00889997e-06, 2.03089890e-04,
          1.41331169e-03, -4.11474648e-05, -1.72548159e-03,
          -2.03528674e-04, 5.46466443e-04, 2.58042215e-04,
          -5.65848277e-05, 4.08407905e-05, 5.98888262e-04,
          5.06515971e-06, -5.79279731e-04, -1.91809050e-07,
          -1.88546386e-04, -1.42017636e-03, -2.21669310e-04,
          8.45702016e-04, -3.67279717e-04, 9.37900215e-04,
          1.34259765e-03, -3.42315798e-05, -2.64532748e-04,
          3.83077771e-04, 4.29876032e-04, -7.99206027e-04,
          2.00790499e-04, 2.36082888e-05, 6.06710364e-06,
          -1.68952956e-05, 3.16093101e-05, 1.92584397e-04,
          -7.51726911e-05, 1.54522699e-04, 5.84467489e-04,
          4.61067975e-04, 5.72395453e-04, -1.29453083e-05,
          3.54952848e-04, 4.04486258e-04, 7.57126036e-05, 4.61681047e-05,
          9.61879487e-05, 1.96268491e-04, 8.33423328e-05,
          -8.31003945e-06, -3.47279507e-04, -5.26308431e-05,
          7.81298586e-05, -2.22409377e-04, -1.03690790e-03,
          1.94785389e-04, -5.47844866e-05, -3.30390467e-05,
          -2.25566910e-05, -3.90996283e-05, 1.11180157e-06,
          1.61341850e-05, 4.70314189e-05, 1.38947344e-05, 0., 0., 0.,
          4.76356945e-06, 2.55710984e-05, 9.51124166e-05, 6.77296484e-05,
          3.77656776e-04, -1.29169523e-04, 2.76941537e-05,
          7.69509134e-05, 1.90662213e-05, 0., -5.67318639e-05,
          -8.09430421e-05, 6.41963852e-04, -2.59915454e-04,
          6.61561717e-05, 1.87358855e-05, -1.15792523e-03,
          -6.60485239e-04, -1.63808034e-03, -3.32176278e-04,
          -5.70225006e-04, -5.39506786e-04, 7.62522586e-06,
          -5.51233767e-04, 1.93522123e-04, 1.71401098e-05,
          7.56325899e-05, -1.12846457e-04, -3.14629469e-05,
          -4.80464114e-05, 1.90870451e-05, 3.36508820e-05,
          -1.38494215e-04, 2.00928644e-05, 6.37162375e-05,
          7.63107528e-05, 4.57077345e-04, 4.70103623e-05, 0.,
          2.54268998e-05, 1.12641799e-04, 2.15788114e-05, 7.40851756e-05,
          -6.73922914e-05, 2.02844123e-04, 1.42322853e-04,
          -7.60516050e-05, 0., -8.01753995e-05, 2.22794351e-05,
          -6.45758046e-05, -2.19478534e-04, -4.28596322e-05,
          3.58698853e-05, 4.48045876e-06, 7.03950263e-06, 1.80912878e-06,
          -6.13346174e-06, 2.60663601e-05, 2.83534737e-05,
          2.66007301e-05, 0., 0., 0., 5.43268761e-05, -1.03602065e-06,
          -5.69743454e-04, -3.81719656e-05, 6.94560178e-04,
          2.79643777e-04, -5.95222155e-05, 5.08696394e-05,
          -1.19567216e-04, -1.69731411e-05, -3.51354945e-04,
          -5.04827658e-05, 9.60906036e-04, 1.24463128e-04,
          -1.28014898e-03, -1.14891991e-05, -2.72994312e-05,
          -2.17516135e-05, 9.47713852e-04, 2.54363316e-04,
          3.74910305e-05, 4.62611410e-04, 1.09354751e-05, 1.03518961e-03,
          -1.24086073e-04, -3.53957847e-04, -1.64235666e-04,
          1.50608981e-03, 0., -3.30390467e-05, 0., 1.17877244e-04, 0.,
          3.81715108e-05, 7.38784001e-06, -5.29599565e-05,
          2.33369747e-06, -2.78644766e-05, 0., 1.50233363e-05,
          3.40199877e-05, -1.69731411e-05, 0., 2.38053020e-04,
          9.51811046e-07, -2.84107700e-05, 0., 2.47881035e-05,
          -5.27197772e-05, 1.92798816e-05, -9.67797387e-05,
          -4.13350906e-04, 1.49870903e-05, 1.87064979e-05, 0.,
          1.19311306e-04, 0., 0., 4.51494680e-06, -6.98111980e-05, 0.,
          0., 0., 0., 0., 2.51980487e-06, 3.32040281e-06, 8.07470060e-05,
          1.16775655e-05, 3.56938574e-04, 0., -1.27468127e-04,
          2.86033865e-05, -1.71320298e-05, 5.62032028e-06,
          -9.86527302e-05, -2.89869895e-05, 1.60557411e-05, 0.,
          2.26030315e-04, -1.22562597e-05, -4.71947897e-05,
          1.46491539e-05, -7.50834006e-04, -1.15475530e-04,
          -1.13353657e-03, -5.33147540e-04, -1.74079009e-03,
          8.69530923e-05, -5.64979346e-05, -1.10908307e-03,
          1.77647489e-05, 0., 4.27765590e-05, 0., -1.09698638e-04,
          2.38426237e-05, -1.36314149e-04, 6.87943757e-05,
          4.18637326e-04, 1.74725545e-04, 4.02214937e-05, 0.,
          -6.80401572e-05, 4.51494680e-06, -1.43325497e-05,
          1.87064979e-05, -1.70602343e-05, -7.95023516e-05,
          -6.63535247e-05, 0., -5.54884027e-05, -1.44452833e-05,
          -1.36281029e-04, 7.63706339e-06, -3.51200229e-04,
          -1.26160667e-05, 4.62829230e-05, -8.35855026e-05,
          2.46667099e-04, -2.44848314e-04, 3.42185012e-05,
          1.38391524e-05, -4.58587980e-04, -8.46550847e-06,
          5.62032028e-06, 0., 1.21442841e-04, 6.29477727e-05,
          8.98118597e-05, 1.22294048e-04, 7.56219204e-04, 6.65354128e-06,
          -6.87621185e-04, 4.41515331e-05, -2.38668770e-04,
          1.40083885e-05, -1.85073950e-04, 5.21527727e-05,
          2.63133465e-04, 3.55136406e-04, 6.44299842e-04,
          -5.11012804e-05, -9.38930432e-04, 4.96321882e-04,
          2.24528761e-04, 2.52798898e-04, 9.24639287e-04, 5.07134655e-06,
          2.25261599e-03, -1.13668386e-04, 3.30815092e-04,
          -2.77969101e-03, -3.52134848e-05, 1.89957136e-04,
          -3.02705378e-03, -2.46243639e-04, 1.23904887e-04,
          -7.15393689e-05, -2.35757383e-04, 5.42267459e-04,
          3.47152636e-05, -3.59722850e-04, 6.47238223e-04,
          4.77786438e-04, 8.75733094e-05, 1.19067139e-04, 1.19510012e-04,
          1.24056663e-04, 7.21736724e-05, 6.30366631e-05, 2.37325585e-04,
          -2.45945179e-04, 2.72944476e-03, -6.03912167e-06,
          3.13187229e-05, -4.51713306e-04, 1.63265286e-04,
          1.54266960e-03, -8.44528549e-04, 4.15294380e-05,
          -6.34024082e-06, 0., 0., 2.08949382e-06, 0., 8.00597945e-07,
          -7.47731247e-05, 0., 0., 0., 0., 4.83528820e-05, 0.,
          1.75216901e-05, 1.68607639e-05, -1.56134018e-04,
          -4.14829265e-04, -4.66677011e-05, -4.43425051e-05,
          -4.34755384e-05, 0., -9.52303708e-06, 8.63654859e-05,
          6.02780055e-05, 4.17285395e-04, 8.44652968e-05, 6.64373336e-04,
          3.16434336e-04, 8.30575082e-05, 8.00906564e-04,
          -1.86511874e-03, -2.64140981e-04, -4.14929760e-04,
          9.52654518e-05, -1.03667492e-06, 1.19703582e-04,
          7.40848336e-05, 9.43687264e-05, -3.25591565e-04,
          -9.51833499e-05, -1.25967985e-04, 1.71635591e-04,
          -2.15197273e-04, -4.73993918e-04, 1.98728394e-05,
          -5.08991594e-04, 1.67484468e-04, 1.91164625e-04,
          -7.77376990e-05, -1.80519564e-05, 8.98342205e-06,
          -1.13528204e-05, 0., -7.26298003e-06, 0., -3.28064471e-06,
          -3.37905913e-05, 1.34942733e-04, -6.78445531e-06,
          -1.87333018e-04, 2.70960736e-05, 2.30820297e-05,
          -3.36335186e-04, 8.17199587e-04, -6.11242140e-05,
          9.01057283e-05, 2.00025333e-05, -4.85047967e-05,
          2.55710984e-05, -9.29422094e-06, -1.00281526e-04, 0., 0., 0.,
          0., 1.14719705e-05, 0., 1.26758401e-04, 3.44534237e-05,
          9.20647435e-05, -5.92244287e-05, -8.52288067e-05,
          -4.62074095e-05, -2.56861735e-04, -2.53523576e-05,
          1.75795329e-04, 2.96632970e-05, -1.73709309e-03,
          -4.30597574e-05, 1.01184967e-04, -1.35438750e-04,
          -1.52290217e-03, 3.05305475e-05, -6.42031082e-04,
          4.59849871e-05, 4.70548403e-05, 2.02185591e-04, 0.,
          4.06365754e-04, -1.19131773e-05, -7.46321166e-05,
          4.69658611e-04, -7.40134856e-04, 0., 8.00597945e-07, 0.,
          -5.55641709e-05, 1.81562573e-05, -1.00318044e-04,
          2.70080694e-04, -7.87554483e-04, 0., 2.99862004e-05,
          5.05875832e-05, -8.66143091e-05, 8.75218302e-06,
          8.45373288e-05, 0., 7.12702385e-05, 3.49494599e-06,
          1.93528376e-06, 0., 3.79423436e-05, 8.07053220e-05,
          -1.51023005e-05, -2.26382945e-05, -1.91696500e-03, 0.,
          1.55607158e-05, 0., 0., 0., 0., 0., -8.59847296e-06, 0., 0.,
          0., 0., 0., 0., 0., 4.99272683e-05, 0., -6.42656232e-05, 0.,
          3.76301759e-05, 0., -6.20120845e-05, 0., -1.90006558e-05,
          9.51811046e-07, 6.40843573e-05, 0., 3.03197885e-05,
          -1.16793790e-05, 5.08880439e-05, 1.81425148e-05,
          -1.42158836e-03, -1.82824500e-04, 1.31888210e-03,
          -9.78178068e-05, 1.48273434e-03, 2.36908978e-04,
          1.05652194e-04, -7.79069844e-04, -7.34449597e-04,
          -1.11663553e-06, -4.00147619e-05, 0., -2.41303815e-06,
          -2.51664005e-05, 2.91342803e-05, 1.14868380e-04,
          -6.11868600e-05, 9.84276194e-05, -1.97392183e-05, 0.,
          2.51839065e-05, 0., 0., 0., 9.12011001e-06, -3.39491198e-05,
          -1.02595295e-05, 0., 4.42883720e-05, 4.16572948e-05,
          -7.57712587e-06, 1.28898260e-04, 5.21424154e-05,
          1.11345272e-03, 1.24632160e-03, 3.43044434e-07, 5.88909141e-04,
          -1.63871555e-05, -3.12240227e-05, 1.31420151e-04,
          1.96319539e-04, -5.35653226e-06, 1.14958611e-05, 0.,
          -7.62098125e-06, -2.16799572e-06, 4.06806066e-05,
          5.28036107e-05, 2.50675686e-04, 9.04202985e-04, 1.28609687e-03,
          -2.08743986e-05, -1.03564955e-04, -4.72445163e-06,
          6.16422840e-05, 3.77750657e-05, 4.48053761e-05, 4.08200605e-04,
          5.06312412e-04, 0., 7.59420625e-04, -5.02550160e-04,
          -2.53785256e-04, -2.96635117e-05, -1.31242792e-03,
          -6.44247688e-04, 4.38400457e-04, 2.14549626e-04,
          -1.28510999e-06, -7.87057274e-04, -1.51434782e-04,
          2.46716989e-03, -1.18444813e-03, 2.04312048e-04,
          2.21546252e-05, -9.15509281e-06, 2.36704174e-04,
          -2.79340456e-04, 2.44138442e-04, 7.64705474e-04,
          2.55504390e-03, 1.50029093e-03, 3.94438539e-04, 6.90880961e-06,
          8.68353236e-05, -1.85898116e-05, 5.30547986e-05,
          -2.49427594e-05, 1.79285329e-04, 4.08456661e-04,
          2.19001318e-04, -6.07824313e-06, 5.31613536e-04,
          -4.57810285e-03, 6.20512699e-04, 3.18267383e-03,
          -7.82622781e-04, 4.51974520e-05, 0., 0., -1.50564201e-05,
          -1.26361492e-05, 0., 1.93318701e-05, 3.06654620e-05,
          -3.55982702e-05, 0., 0., 0., 3.23425629e-05, 0.,
          2.90307016e-05, -4.80698072e-05, -3.62021558e-04,
          -7.33348425e-05, 3.61681077e-06, -5.33975890e-06,
          -2.12715622e-05, -5.00178903e-05, -4.17659976e-05,
          -9.83952032e-06, -1.66423633e-05, -1.95906439e-04,
          6.92508274e-06, 8.45719362e-04, -3.53519269e-03,
          -2.57320382e-04, -5.76975115e-04, -1.88029022e-04,
          -1.06079178e-03, -4.72422398e-04, 9.32466719e-06,
          -1.58246141e-04, -3.86458298e-04, 1.01480386e-04,
          -2.82390130e-04, 1.40312884e-04, 1.06872685e-04,
          -1.17885160e-04, -6.84175257e-06, 2.29946410e-04,
          -4.77276953e-05, -4.40817257e-06, -5.33316110e-04,
          -3.29580835e-05, 1.83905358e-04, -1.49755942e-05,
          7.27507086e-07, -2.52993341e-05, 5.19365240e-05, 0.,
          1.18369499e-05, 1.88368176e-05, 1.94667227e-04,
          -3.26802001e-05, 0., 7.49104365e-05, -5.59278938e-04,
          1.54461468e-05, 3.68163717e-04, -2.01917472e-04,
          6.68427034e-04, -4.79390801e-05, -2.24478736e-05,
          3.65547676e-05, -6.45903929e-05, 0., -3.16550722e-05,
          -1.40629363e-05, -3.55982702e-05, 0., 0., 0., 1.78425410e-06,
          0., -5.26528631e-04, 2.56670261e-04, 1.15291763e-03,
          -1.14514733e-04, -1.03139046e-05, 5.34192404e-05,
          -9.49041860e-05, 0., -3.18130071e-04, 2.27598866e-04,
          6.78341603e-04, -1.63324376e-06, -9.34632961e-04,
          7.56869442e-04, -1.63766427e-03, 3.12632037e-04,
          -6.61742873e-04, 6.56007556e-04, -2.06555014e-05,
          -5.57152322e-04, -1.50564201e-05, -8.48837226e-06,
          -1.04885494e-05, -3.48320755e-04, 3.18215752e-05,
          3.64094949e-03, 0., 0., 0., -8.89362564e-05, 5.72698409e-05,
          -2.70759047e-04, -2.68625699e-05, 2.58099404e-03,
          -6.07381153e-05, -1.17413059e-04, 0., -9.35338176e-05, 0.,
          8.75218302e-06, 0., 8.29012424e-05, -7.60516050e-05,
          5.45425828e-05, -1.40328157e-05, 5.45155199e-05,
          4.48226956e-07, 5.08615540e-06, -1.52510460e-04,
          -1.19589944e-03, 0., 1.36228828e-05, 0., 1.76032008e-05, 0.,
          0., 0., 4.11810697e-06, 0., 0., 0., 0., 0., 0., 0.,
          -2.32517541e-05, 0., -1.90959487e-04, 0., -5.96525642e-05,
          -4.22187713e-06, -1.35451555e-05, 0., 1.09455774e-04,
          -5.35653226e-06, 8.32461155e-05, 0., -1.04048660e-04,
          5.30171455e-05, 3.66885524e-06, -2.41952337e-04,
          -4.84784978e-04, 2.08287602e-05, 9.95945535e-04,
          -1.29590990e-04, -1.05380814e-03, -1.87626079e-04,
          -5.62108835e-05, -8.93597899e-04, -1.61008048e-03,
          -2.53523576e-05, 4.12479822e-05, 0., -6.87295251e-05,
          4.18408199e-05, 2.04759472e-05, -3.29454633e-05,
          4.97222878e-04, 8.76056311e-06, 1.36732619e-04, 0.,
          -4.57290889e-06, 1.55607158e-05, 0., 0., 1.00897996e-04,
          -2.80227341e-05, -3.47976711e-05, 0., 9.26011853e-05,
          -9.47064182e-05, -2.01105231e-05, 5.03042502e-05,
          -1.48607345e-04, 2.04282536e-04, 7.86239747e-04,
          2.11067727e-05, -1.25812352e-04, -8.47915071e-05,
          -3.01845030e-05, 6.25880830e-06, -3.06965609e-04,
          4.10013599e-05, -7.43385681e-06, 0., 1.18369499e-05,
          7.91533603e-06, 4.29370666e-05, 1.21179975e-04, 6.28779759e-04,
          2.16889963e-03, 1.68670740e-04, 1.98945509e-05, 1.19396878e-04,
          -2.50140092e-05, 4.15072600e-06, -5.64333386e-05,
          -3.15984857e-04, 1.58580136e-04, 1.97735164e-04,
          7.40036849e-05, -6.29076385e-04, -7.87350800e-05,
          -1.46957595e-04, 2.39456058e-04, -2.75232829e-03,
          1.51493913e-03, 1.56865956e-03, 1.10708315e-04, 2.32518141e-05,
          -1.62701658e-03, 2.61995883e-04, -5.16045839e-04,
          -3.59381712e-03, -5.42882117e-05, 7.76002344e-05,
          6.57213150e-06, -2.47654793e-06, -5.25390380e-04,
          -1.40623233e-04, -8.12840997e-04, -2.34284275e-03,
          9.01897321e-04, 2.67662545e-04, -3.09460775e-05,
          1.77744878e-04, 2.05106684e-04, 9.58811415e-06, 1.20996854e-04,
          9.99031909e-05, 4.91117826e-04, 3.19873106e-05,
          -7.12135516e-05, -1.48716106e-04, 4.78127215e-04,
          3.34044948e-04, 2.10330341e-04, -8.82224296e-04,
          -2.41496000e-05, 0., 3.52214010e-05, -1.89661605e-05,
          -1.88481165e-04, 0., 4.70782606e-06, 9.21897754e-06,
          1.25725746e-05, 0., 0., 0., 8.35266037e-05, 2.51980487e-06,
          -6.03627905e-06, -4.96869980e-05, 9.60345264e-04,
          2.02085852e-04, 0., 8.32004444e-05, -3.70335547e-05,
          -2.97653442e-05, -1.67983053e-05, -1.77332171e-04,
          6.21178886e-04, -2.60239583e-04, 7.62360560e-06,
          6.89245062e-05, 1.20749092e-03, -1.08464155e-03,
          2.54213282e-05, -6.34592609e-04, -8.91327916e-04,
          -1.65316596e-04, 1.71615175e-05, 1.73411772e-05,
          -1.36407814e-03, 2.10958715e-05, 4.49863554e-04,
          2.46327865e-04, -1.44267993e-04, -1.18175221e-05,
          -6.84175257e-06, -1.97123809e-04, 9.66447915e-05,
          -2.74187259e-05, -1.18081538e-04, 2.08510814e-04,
          -3.31638788e-04, 1.27822554e-04, 0., -2.49916156e-05,
          -1.74328543e-05, 2.47944013e-06, -2.00954837e-05,
          3.98031898e-06, -3.38704820e-04, -5.17445151e-05,
          1.98728394e-05, -1.74047418e-05, -3.19718762e-04,
          -1.29648161e-05, 1.68269453e-05, -2.40270761e-04,
          6.38109559e-05, -1.83723805e-05, 2.55710984e-05,
          6.90051529e-05, 1.39378986e-04, 5.12902006e-05, 6.13666780e-05,
          1.23996448e-04, 4.87168290e-05, 0., 0., 0., 1.47457031e-04, 0.,
          -6.82407408e-04, 7.31034961e-05, 1.55765112e-04,
          1.96286841e-04, 1.26170062e-05, -4.45297192e-05,
          -1.19679775e-04, 2.40941081e-05, -3.30715935e-04,
          9.69383109e-05, 1.04861578e-03, -3.00601940e-04,
          -1.09112228e-03, -8.10962374e-05, 4.59314870e-05,
          -1.58665789e-04, 4.82755044e-04, -5.74729638e-04,
          1.11301568e-04, 8.12418817e-04, -1.76888152e-05,
          1.61290844e-03, -1.07606000e-04, -5.99547173e-04,
          -1.70421099e-05, 1.38606329e-03, 0., -5.52099982e-06, 0.,
          6.12559161e-05, 1.87064979e-05, 3.55440970e-05, 1.29319815e-04,
          -2.29867664e-03, -7.10048043e-05, 1.79144263e-04, 0.,
          1.78873655e-04, 1.36360650e-05, 9.91012930e-05, 0.,
          -6.61357481e-05, 1.28897391e-05, -6.34489334e-05, 0.,
          -1.68522325e-04, 2.55094819e-05, -4.59808507e-06,
          -9.71123663e-05, 1.00396546e-05, 3.27376620e-06,
          4.08770247e-05, 0., -1.14845767e-04, 1.38947344e-05, 0., 0.,
          9.74416616e-05, 0., 1.87064979e-05, 0., 0., 0.,
          -3.91795329e-05, 0., 6.28678245e-05, 1.04580431e-05,
          -3.67699395e-04, 0., 3.61728089e-05, -3.30390467e-05,
          4.51494680e-06, 0., 7.02304751e-05, 5.72698409e-05,
          -4.45452497e-05, 0., 1.89602142e-04, 8.29734563e-05,
          -4.76555178e-05, -1.52689856e-04, -6.06617832e-04,
          2.08638725e-04, 1.04495918e-03, -5.62747475e-04,
          1.00009074e-03, -1.51878950e-04, 2.65505718e-04,
          -1.68331934e-03, 1.57262501e-03, 3.98031898e-06,
          5.26975091e-05, 0., 4.84456759e-05, 2.28622084e-05,
          2.23872939e-05, 9.60364487e-05, 1.41829092e-04, 4.39729738e-05,
          5.18348825e-05, -7.60516050e-05, 1.27183084e-04,
          3.43044434e-07, 0., 2.57588999e-06, -8.11445061e-05,
          -8.72268283e-05, 5.58439460e-05, 1.98728394e-05,
          -1.91062485e-04, -1.43795638e-04, 2.55742962e-05,
          7.82756615e-05, 3.43322201e-04, 6.31554867e-04, 3.15120473e-04,
          0., 6.81513804e-04, -2.73409300e-04, 9.85981897e-05,
          9.84847575e-05, 3.45483568e-05, 0., 5.85723246e-05,
          1.67732512e-08, 1.58861425e-04, 3.28752358e-05, 3.13614873e-06,
          1.03290797e-04, 7.91635888e-04, 1.24645463e-04,
          -3.37969861e-04, -3.37874117e-05, 5.00406895e-04,
          5.29811514e-05, 4.33725072e-05, 1.52812372e-05,
          -1.18144271e-05, 7.86127872e-04, 2.97375809e-04,
          3.59742844e-05, 4.68396029e-04, -1.19651540e-05,
          4.03613842e-04, 6.16268488e-04, -1.71872939e-03,
          1.27546489e-03, 1.09408842e-03, 1.73492208e-05, 1.36967195e-04,
          -5.29422832e-04, 1.78008355e-04, -1.19046563e-04,
          9.52760383e-05, -2.06157165e-05, -1.02369711e-04,
          -4.41127986e-06, -5.91195521e-06, -1.74429413e-04,
          -1.33322760e-06, 6.23914384e-05, 6.60073769e-04,
          -1.38891221e-04, 6.42746862e-04, 2.62986068e-05,
          9.51279580e-05, -1.68137412e-04, -1.02009008e-05,
          1.28960324e-04, 1.33823676e-04, -4.93648055e-04,
          -2.52511032e-04, 2.72487123e-05, -3.87689157e-04,
          -1.46344141e-03, 1.30670538e-04, -3.71102078e-06,
          8.49418939e-05, 1.48403909e-04, 8.49397620e-05, 0.,
          -4.22187713e-06, 1.48087885e-04, 0., 0., -1.32774758e-05, 0.,
          0., 0., 0., 8.59591746e-05, 0., 3.88110457e-05,
          -4.62842108e-05, 7.90555379e-04, 4.71200610e-06,
          5.71596756e-05, -3.02873832e-05, -2.25480733e-04,
          -3.50250994e-05, 7.07367435e-05, 5.43696660e-05,
          1.70792744e-03, -1.04788248e-03, 4.64118639e-05,
          5.19031964e-05, -2.32855626e-03, -2.57514854e-04,
          -9.20743390e-04, -1.30788947e-03, -9.18015940e-05,
          -2.86312512e-04, -9.73799615e-05, 2.93190205e-05,
          -8.73517070e-04, -1.86854268e-05, -3.74951371e-04,
          -2.46369658e-04, 6.50139918e-05, -6.39034333e-05, 0.,
          -4.51692613e-05, 1.83539829e-04, 0., 2.35174914e-04,
          8.74762191e-05, 2.41593036e-04, 3.09850730e-05,
          -1.32774758e-05, -7.59752147e-05, 3.14861863e-05, 0.,
          -8.33355170e-06, -3.63072177e-05, 8.77198399e-05,
          -3.07749506e-05, 0., 4.26404258e-05, -2.62314512e-04,
          -1.13592214e-04, -2.23696086e-04, -7.51885527e-05,
          1.84717675e-04, 5.77342544e-05, 1.40425527e-05,
          -1.48807521e-05, -9.65459767e-05, 3.03558318e-05,
          3.41314808e-05, 2.07346369e-04, 6.58145655e-05, 0., 0.,
          2.87231410e-06, 1.42789475e-04, 2.55710984e-05,
          -5.89017291e-04, 3.56215132e-05, 2.14126916e-03,
          3.65521519e-05, -1.31336983e-05, 1.37372044e-05,
          -1.99569855e-04, 4.55634545e-05, -1.83523181e-04,
          3.97090698e-05, 3.61878797e-03, -8.79316431e-05,
          -1.31099194e-03, 3.79516096e-05, 1.47556886e-03,
          3.26138506e-05, 3.01257882e-04, 1.27090359e-04, 4.63565702e-05,
          5.84836933e-04, 0., 5.14446474e-05, 5.36244215e-06,
          3.60405429e-05, 2.01684761e-05, -9.44341591e-04,
          1.04580431e-05, 2.51585316e-05, 0., -4.22187713e-06,
          3.44443833e-06, -9.34257230e-07, -1.42433219e-05,
          -5.33025086e-05, 3.60322847e-05, -8.06956596e-05,
          3.27376620e-06, -8.73736062e-05, 1.53134879e-05,
          4.51494680e-06, 3.86787633e-06, 1.80172647e-04, 1.99620195e-06,
          1.20681841e-06, 0., 1.69738250e-05, -5.52964339e-05,
          -1.92758580e-05, -6.13836237e-05, -2.54047900e-05,
          -1.43410198e-05, -3.96289142e-05, 1.53134879e-05,
          5.35907711e-05, -1.17208283e-05, 4.39168762e-05, 0.,
          -1.54079262e-05, 0., 0., 0., 0., 0., 1.53134879e-05, 0.,
          -2.18716832e-05, 4.59721414e-05, -1.17075897e-05,
          5.62032028e-06, 6.90600355e-05, 0., 0., -1.68952956e-05,
          4.54092806e-05, -7.40432952e-05, 4.44008838e-05, 0.,
          7.22316181e-05, -6.01407010e-05, 6.08625232e-05,
          3.47155183e-05, 1.06701627e-03, 5.08715282e-04,
          -1.54424444e-04, -4.68713319e-04, -5.16013941e-04,
          -2.10701401e-04, -2.20705857e-04, -6.00725296e-04,
          -2.01251032e-03, 2.97754355e-06, -5.25763710e-07,
          -3.37905913e-05, -5.21196744e-05, -1.19037897e-04,
          4.15191425e-06, 1.63264904e-05, -1.35203754e-05,
          8.50170254e-05, 5.80024789e-05, 0., 8.71244774e-05,
          4.16907387e-05, 0., 3.27376620e-06, 3.05274307e-06,
          -1.00863599e-06, 1.24315318e-06, 0., -2.06351706e-05,
          5.59237778e-05, 4.74329900e-05, 1.01935533e-04,
          -1.01177357e-04, 4.19904012e-04, 3.84259998e-04,
          3.43044434e-07, -8.28404882e-05, 2.24489049e-04,
          -5.22728151e-05, 4.25904000e-06, -2.31240447e-05,
          3.28508686e-05, -1.80327243e-05, 0., -6.27740428e-06,
          1.02473503e-04, -2.77545751e-05, -4.62272728e-05,
          4.90940001e-04, -8.66859918e-04, -1.45951030e-03,
          4.62827757e-06, -2.47665244e-04, 1.59117662e-05,
          3.59497499e-05, 5.69811018e-05, -4.85420824e-05,
          -6.74441457e-04, 2.08099489e-04, -2.23636016e-05,
          2.58822576e-04, 5.87727060e-04, -4.90926555e-04,
          6.53574709e-04, 8.27167183e-04, 4.12096415e-04, 7.65982899e-04,
          7.02012912e-05, -2.45124858e-04, -1.49160484e-03,
          9.54367861e-05, -2.66085757e-04, 3.21759377e-04,
          -3.60030003e-06, 7.86751116e-06, 0., -7.77428431e-05,
          -9.99938697e-04, -2.99191342e-05, -8.80397740e-04,
          -2.31057289e-03, 1.43364805e-03, 3.88935878e-04,
          -1.28387628e-05, -6.90957531e-05, 9.95455703e-05,
          1.05209125e-04, 5.75038466e-05, -1.87613463e-04,
          2.13829160e-04, 3.75526521e-04, 9.22222098e-05,
          -4.54924331e-04, -1.02938293e-03, 9.57980083e-05,
          -4.68069309e-04, -2.78447894e-03, 4.04565617e-06,
          4.30122454e-05, -2.53523576e-05, -1.24148364e-05,
          1.29875925e-05, 0., 2.73776513e-05, 2.14322845e-05, 0., 0., 0.,
          0., 6.48441710e-05, 2.77449144e-05, -2.12817190e-06,
          -3.90975856e-06, 7.49121129e-04, -1.68688843e-04, 0.,
          1.95091943e-05, -1.67934617e-04, 6.07924994e-05,
          1.53134879e-05, 1.02184367e-05, 3.33932752e-04,
          -1.05868938e-04, 1.53134879e-05, 1.97526992e-06,
          3.78632132e-04, -8.42084293e-04, -9.24611159e-05,
          -1.37347006e-03, -1.01566744e-04, -1.06300366e-04,
          -1.00218931e-05, -4.38669267e-05, -4.67793550e-04,
          2.35630159e-05, 1.27916632e-04, 2.75852908e-05, 2.74843369e-05,
          1.37265861e-05, 0., -4.51692613e-05, -1.86430756e-04, 0.,
          1.81891164e-06, 1.22036465e-04, 2.26314860e-05, 1.23040736e-04,
          2.51980487e-06, 1.36360650e-05, 2.98979576e-05, 0., 0., 0.,
          1.61745789e-04, -3.19517167e-05, 7.27507086e-07,
          7.27507086e-07, -7.53067507e-05, -1.53561778e-05,
          -2.62902122e-05, 6.52631352e-05, -1.58316601e-04,
          -2.24232354e-05, 2.59554145e-06, 0., -2.50773774e-05,
          1.45501417e-06, -5.63142348e-05, -9.52257869e-06,
          -1.00567495e-05, 0., 0., 0., 2.04774144e-04, 0.,
          -6.74032955e-04, 1.21013058e-04, 3.63291561e-04,
          1.35652241e-04, -4.07706793e-05, -2.87138892e-06,
          -2.79985223e-04, 5.57350813e-06, -1.30050874e-04,
          1.53813726e-05, 1.05277868e-04, 3.17682934e-05,
          -3.74199211e-04, 9.20964667e-05, 8.61633394e-04,
          1.80161794e-06, -2.49609991e-04, 2.31800987e-05,
          -2.05912555e-04, 7.17341201e-04, -1.50564201e-05,
          8.45856324e-04, -5.57386265e-05, -4.81989206e-04,
          -3.25037581e-05, -9.76591473e-05, 0., 8.25591542e-06, 0.,
          4.00223580e-05, 0., 3.32861018e-05, -1.40328157e-05,
          -7.78001868e-06, 2.17707366e-05, -1.35430804e-04, 0.,
          1.44828504e-04, -5.35653226e-06, 5.39211896e-06, 0.,
          1.31767592e-05, -1.88292215e-05, 1.67732512e-08, 0.,
          1.32644664e-05, 4.48132687e-06, 3.43913962e-05,
          -2.45459505e-05, 1.41632889e-04, 0., 3.97566873e-05, 0.,
          4.49030704e-05, -8.50223114e-06, 3.57804083e-07, 0.,
          2.43502818e-05, 0., 0., 0., 0., 0., 0., 0., 4.67368181e-06,
          2.81009989e-06, 1.18672826e-04, 0., -1.79669485e-04,
          1.04045102e-05, -4.85208038e-05, 0., -5.41749250e-05,
          -8.31677880e-06, -2.29067155e-05, -1.43410198e-05,
          -4.93994485e-05, -7.28772211e-05, -1.77011529e-07,
          4.85684941e-05, -3.74284311e-04, -9.95304435e-04,
          4.09997956e-05, -4.79501643e-04, 6.63328974e-04,
          8.12452708e-05, -8.47964402e-05, -1.12486200e-03,
          -4.56010923e-04, -7.41935673e-06, -5.81286477e-05, 0.,
          -5.71548590e-05, 1.71581560e-05, -6.49486756e-05,
          4.06769504e-05, 1.30506713e-04, 5.11300350e-05, 2.54506071e-04,
          0., -1.08677224e-04, 0., 5.40435212e-05, 3.43044434e-07,
          -7.99766276e-05, -3.47874811e-05, 1.00558045e-05,
