%YAML:1.0
---
opencv_ml_svm:
   format: 3
   svmType: C_SVC
   kernel:
      type: LINEAR
   C: 2.9999999999999999e-01
   term_criteria: { epsilon:1.1920928955078125e-07, iterations:1000 }
   var_count: 10752
   class_count: 2
   class_labels: !!opencv-matrix
      rows: 2
      cols: 1
      dt: i
      data: [ -1, 1 ]
   sv_total: 1
   support_vectors:
      - [ 1.55168018e-04, -3.53292155e-04, 7.14834605e-04,
          -2.10316968e-04, 3.43398890e-04, 4.71741805e-06,
          -5.25343814e-04, 5.72994351e-04, 1.03337935e-03,
          -3.17963422e-05, -9.64059018e-06, 3.68164910e-05,
          -1.98079055e-04, 0., -1.07214658e-03, -6.43147563e-04,
          -3.99324315e-04, -7.71315354e-06, -1.46897473e-05, 0.,
          6.23107262e-05, 0., -4.54322289e-05, 0., -8.25100229e-04, 0.,
          -1.40598931e-05, -8.08306686e-06, 3.34639713e-04,
          1.10947667e-05, 1.24447909e-03, 2.25047847e-06, 4.76872701e-05,
          -2.95458631e-05, 4.22618235e-04, 1.87917351e-04,
          -6.00480189e-06, 0., 1.44681195e-04, 5.74431215e-05,
          4.12755653e-05, 0., -1.59653737e-05, 0., 1.94820659e-05, 0.,
          -7.70776314e-05, 2.87083225e-07, -5.06624114e-04, 0.,
          1.16918731e-04, 0., -6.01687061e-05, 0., -3.14373974e-05, 0.,
          -3.89093737e-04, 2.25047847e-06, -1.47459123e-05,
          2.25047847e-06, -2.94845468e-05, 0., -2.28774705e-04,
          4.59423291e-07, -9.76220690e-05, 4.37822819e-05,
          -1.38373935e-05, -1.78128557e-05, -6.75476549e-05, 0.,
          4.07643020e-05, 0., -1.14857772e-04, 0., 0., 0.,
          4.53664907e-05, 0., -8.00552880e-06, 0., 9.02754618e-06, 0.,
          0., 0., 0., 0., 0., 0., 3.74378360e-05, 0., 0., 0.,
          -1.40573475e-05, 0., 0., 0., -3.04844260e-04, 0.,
          1.63816338e-04, -6.58089048e-05, -2.76368628e-05, 0.,
          -3.81921524e-07, 2.20170605e-05, -3.17832273e-05, 0.,
          -1.40562834e-05, 0., -9.37310961e-06, 0., -1.32641653e-04,
          -2.00424074e-05, -1.60728887e-04, 0., 4.94924025e-05, 0.,
          -1.64311732e-05, 0., -1.77919283e-05, 0., -3.51829949e-05, 0.,
          1.63726982e-05, -4.04153343e-06, -4.58935801e-06, 0.,
          -5.94358971e-05, 0., 3.76480282e-04, 3.02114204e-04,
          -1.42046374e-05, -1.92392126e-05, 2.61204914e-05,
          5.73509242e-05, 6.44210595e-05, 2.19013702e-04, 1.00250691e-04,
          4.46838822e-05, 1.10947667e-05, 2.04692037e-06,
          -6.22936932e-05, 2.59998378e-05, -1.21302664e-05,
          -7.40619726e-05, -4.13505813e-06, 1.26566802e-05, 0., 0., 0.,
          0., 0., 0., -1.07753171e-04, 2.25047847e-06, -4.16696366e-06,
          0., -4.53109751e-05, -2.90910084e-05, -9.29562520e-05,
          -5.85139605e-06, -1.05175741e-05, -5.22439041e-05,
          4.55666886e-05, 3.54097137e-05, 0., 0., 0., 0.,
          -3.66970926e-06, 0., 0., 0., 2.01011371e-05, 0., 0.,
          -5.95215533e-06, -3.65880551e-05, 1.55936359e-05, 0., 0., 0.,
          0., 0., 0., -4.04855018e-05, -2.70685086e-05, 4.50095695e-06,
          1.84511009e-06, -7.50898253e-05, 0., -2.69107350e-05,
          -1.81970445e-05, 5.06380689e-04, 1.40361697e-03,
          9.66345833e-05, 3.30902811e-04, -5.89517549e-05, 0.,
          -2.99141509e-04, -2.01544917e-05, -5.39643006e-05,
          -3.60790837e-05, -5.85139605e-06, -1.05633371e-05,
          -7.25382124e-05, 4.32339366e-05, -2.71980662e-05,
          -1.32089608e-05, -4.56880880e-05, 0., 0., 0., 0., 0., 0., 0.,
          1.39697104e-05, 0., 0., 0., 2.25047847e-06, 0.,
          -4.04153343e-06, 0., -1.06579845e-03, -2.22973889e-04,
          -2.08670041e-04, -1.53490968e-04, -3.68041619e-05, 0.,
          -7.56559020e-05, 6.58671888e-06, -1.24600658e-04,
          -6.94121918e-05, -1.74897127e-06, 4.50095695e-06,
          -1.21264820e-04, -2.90910084e-05, -1.08232038e-04,
          -2.00069080e-05, 1.02519197e-03, 2.34292693e-05,
          2.32455477e-05, -4.04153343e-06, 5.75238300e-06,
          -3.28544365e-06, -1.00183597e-05, 0., -2.19855632e-04,
          4.34568246e-05, -5.39197254e-06, -1.89854418e-05,
          3.46517045e-05, 0., -1.49104617e-05, -3.60091735e-06,
          -1.74659863e-03, -1.19380704e-04, 9.14940203e-04,
          -3.09656789e-05, -1.63866989e-05, -4.99070811e-05,
          -5.93042467e-04, 2.83707952e-04, 7.01911282e-04,
          3.51320596e-05, 2.10352999e-04, -3.94508834e-06,
          1.08078925e-03, -2.65065355e-05, -1.01928879e-03,
          4.32028814e-04, -2.46473646e-04, 0., 2.22986509e-05,
          -5.85139605e-06, 7.64541328e-05, 0., 6.51029040e-05, 0.,
          3.44839704e-04, 0., -2.50711455e-05, -1.00183597e-05,
          8.13499326e-04, 0., 3.13657423e-04, -3.29047270e-06,
          2.58453510e-04, -3.27621310e-05, 2.25436670e-04,
          3.51320596e-05, 2.08824767e-05, 0., 3.08598319e-05,
          1.21507810e-05, -1.45593061e-04, 0., 1.93166784e-06, 0.,
          9.49293462e-05, 0., -3.31739611e-05, -3.17963422e-05,
          2.71819270e-04, 0., 1.04254126e-04, 0., 9.32301919e-06, 0.,
          7.23947778e-06, 0., -1.15213305e-04, 5.64980667e-07,
          2.91959062e-04, 4.92106483e-05, 7.21695891e-04, 1.35667542e-05,
          -1.02111767e-03, 2.08924102e-04, 2.88736992e-05,
          2.24517335e-05, -2.33278515e-05, 0., 0., 0., 0.,
          4.55666886e-05, 1.04062019e-05, 0., 0., 0., 0., 0.,
          3.88755179e-05, -5.07817822e-05, -3.08976996e-05, 0., 0., 0.,
          0., 0., 0., 0., 1.62201886e-05, 0., 0., 0., 0., 0., 0., 0.,
          3.17332655e-04, -9.76900174e-06, 1.70451021e-05,
          -4.23755628e-05, 0., 0., -2.45330484e-05, -2.91936485e-05,
          -2.52281425e-05, 0., 0., 0., -1.78824863e-04, 0.,
          5.19423302e-05, -2.69107350e-05, 5.62395842e-04, 0.,
          5.31342375e-05, 0., 0., 0., 1.21507810e-05, 1.10947667e-05,
          7.13366753e-05, 5.56063460e-05, -2.98900341e-05,
          1.12780244e-05, -1.44728154e-04, 0., 1.39533850e-05,
          -5.01146815e-06, -2.51367805e-04, -2.35651460e-04,
          -9.61000987e-05, -5.12884289e-04, 0., -8.20849709e-06, 0.,
          1.20697776e-04, 6.32079827e-05, 0., 0., -1.34101399e-04,
          4.62619464e-05, -3.01961791e-05, -6.94792197e-06,
          -7.84348886e-05, 3.83797578e-06, 0., 0., -1.66451529e-04, 0.,
          0., 0., 0., 5.44256909e-05, 0., 0., -1.82611766e-05,
          5.05451535e-05, 0., -7.71315354e-06, -3.04719753e-04,
          1.35349052e-04, 0., -4.16696366e-06, -1.18934731e-05, 0., 0.,
          0., 0., 4.98109785e-06, 0., 0., -6.68483699e-05,
          9.02754618e-06, 0., 0., 1.68679835e-05, 0., -4.16696366e-06,
          0., 1.83813754e-04, 0., 0., 0., -5.95215533e-06,
          1.66205893e-04, 3.76231073e-05, -2.55746563e-05,
          1.50765089e-04, -4.70923478e-05, -1.86816524e-05,
          4.43219651e-05, -2.74238031e-04, 1.97990070e-04,
          7.00638921e-05, -3.28652677e-05, -9.17965663e-05, 0., 0.,
          -2.90910084e-05, 7.07111758e-05, 1.37096242e-04,
          -1.19479037e-05, 0., 0., -1.86816524e-05, 4.52001441e-05,
          -7.00302116e-05, 2.52287573e-05, 6.11370997e-05, 0., 0.,
          -4.91078572e-05, 0., 0., 0., 0., 4.10100110e-05, 0., 0.,
          -3.88414410e-05, 0., 0., 0., 0., -9.74567374e-05,
          1.06719811e-03, -1.72594227e-04, 1.74984132e-04,
          -2.27231867e-05, 0., -2.29964004e-04, -1.00681915e-04,
          -1.34061571e-04, 4.55480631e-06, -1.47854844e-05,
          1.48776253e-05, 7.94639272e-05, -2.90910084e-05,
          1.26934610e-04, -6.55131415e-04, -5.96829108e-04,
          -1.47039493e-04, 0., -4.60319745e-04, 0., 0., -1.91648542e-06,
          0., -1.06173009e-03, 3.73343210e-04, 4.70349951e-05,
          1.45989092e-04, -2.16688459e-05, 0., -1.92461099e-04,
          -2.75138154e-04, -3.01780947e-03, -2.62098492e-05,
          -6.31740491e-04, -6.91971654e-05, 8.91638629e-04,
          -1.99449751e-05, 3.49271111e-04, -2.39006651e-04,
          1.11353688e-03, 1.77927859e-06, 1.21843150e-04,
          -4.29869360e-05, 8.88563518e-05, 1.34356405e-05,
          -7.69579201e-04, 1.19810873e-04, 3.55214666e-04,
          -5.49539363e-05, 5.70443444e-06, -3.28652677e-05,
          1.90630772e-06, 0., 1.31649649e-05, 1.97665831e-05,
          1.58674794e-03, 0., -7.19993477e-05, 0., 2.37519835e-05, 0.,
          -5.04291675e-04, 1.40597422e-06, 2.47237785e-03,
          -2.55683044e-05, 1.72489541e-04, -1.80505085e-05,
          -4.78453258e-05, 0., -1.00154699e-04, 9.72852431e-05,
          -3.10724390e-05, 0., 0., 0., -7.94956650e-05, 0.,
          2.79129126e-05, 6.53012830e-05, 8.54756683e-04,
          -1.47854844e-05, 8.17874898e-05, 0., 0., 0., -1.67349626e-05,
          0., 3.39028426e-04, -1.86816524e-05, 3.25974997e-06,
          -5.85139605e-06, 8.28818156e-05, 0., -3.66027562e-05,
          -4.04153343e-06, 6.78929733e-04, -1.37913582e-06,
          6.87891297e-05, 0., -6.89324224e-05, 0., -9.44622116e-06,
          -4.04153343e-06, -2.58492528e-05, 0., 0., 0., 6.79398145e-05,
          0., -3.16326514e-05, 2.25047847e-06, 1.10947667e-05, 0., 0.,
          0., 0., 0., 0., 0., -5.85139605e-06, 0., 0., 0.,
          1.31749073e-06, 0., 0., 0., -5.75679906e-06, 1.00439365e-05,
          -1.27791776e-04, 7.81140386e-07, 2.55242830e-05, 0.,
          -1.07877255e-04, 0., -8.39188215e-06, 0., 3.70064595e-06, 0.,
          -1.64797428e-04, 0., 7.49400642e-05, -6.08344908e-06,
          3.25940171e-04, 0., 5.15605552e-06, 0., -3.17963422e-05, 0.,
          0., 0., 2.27606743e-05, 0., 1.39697104e-05, 0.,
          -2.00424074e-05, 0., 5.74802434e-05, 0., 3.32945667e-04,
          6.05669280e-04, -7.49524843e-05, -1.04277895e-03,
          2.72623147e-05, 9.30418082e-06, 3.51918934e-05,
          -5.57792482e-05, 1.26375060e-04, -1.89013608e-05,
          8.40644716e-05, 4.62499047e-05, -2.69974116e-05, 0.,
          3.99184355e-05, -1.83814889e-04, 4.55666886e-05, 0., 0., 0.,
          0., 0., 0., 0., 5.67187453e-06, 0., 0., 0., -4.66553001e-06,
          0., -3.09498250e-06, 0., 1.42673263e-04, 2.79370688e-05,
          -3.70167663e-06, 3.01604996e-06, 0., 0., 0., 0.,
          4.09834574e-05, 0., -7.71315354e-06, 0., 0., 0.,
          -1.89854418e-05, 0., 2.06540039e-06, 0., 1.63726982e-05, 0.,
          0., 0., 0., 0., 5.87595277e-05, 0., 0., -5.95215533e-06, 0.,
          0., 9.02754618e-06, -5.95215533e-06, 5.84130932e-04,
          -4.29686799e-04, 4.66251113e-05, -1.36805276e-04,
          -8.70221265e-05, 0., -1.87619862e-05, -9.65345243e-05,
          4.16490002e-05, 9.28740610e-06, -3.09498250e-06,
          4.09834574e-05, -9.00337982e-05, 9.32301919e-06,
          7.77055102e-05, -1.40228978e-04, 9.30418082e-06,
          1.90630772e-06, 0., 0., 0., 0., 0., 0., 0., 0., 0., 0.,
          1.04062019e-05, 0., 0., 0., -2.76954728e-03, -5.45435842e-06,
          -6.58795470e-05, -2.28089280e-04, -1.96077008e-06, 0.,
          -3.85494059e-05, -1.37148954e-05, -1.11494890e-04,
          1.04062019e-05, -3.09498250e-06, -2.00424074e-05,
          1.15621602e-04, 5.15605552e-06, 1.32171072e-05,
          -2.69107350e-05, -5.62741130e-04, -2.34055842e-05,
          -2.68489421e-05, 4.09834574e-05, 0., 0., 0., 0.,
          -9.57196680e-05, 1.93166784e-06, -4.16696366e-06,
          -5.95215533e-06, 0., 0., 9.11114603e-06, -4.16696366e-06,
          1.52000959e-03, 1.20816469e-04, 1.70555210e-03, 4.86940233e-04,
          1.43883968e-04, 0., -3.83700863e-05, 1.43230747e-04,
          -3.42213199e-04, 0., 1.08991590e-04, 4.09834574e-05,
          -3.37747362e-04, -4.16696366e-06, -2.07936577e-03,
          -1.77145004e-04, -3.57780285e-04, -5.85139605e-06, 0., 0.,
          -3.48145368e-05, 1.90630772e-06, 3.34870601e-05,
          9.32301919e-06, -1.74001593e-06, 0., 3.01727850e-05, 0.,
          4.21403529e-04, 2.25047847e-06, -7.07172148e-04,
          -9.11241877e-05, -4.34663991e-04, 0., 5.45932562e-05,
          6.54831092e-05, -1.79105507e-06, 0., -9.05382549e-05,
          3.38161385e-06, -1.06636871e-04, 0., 0., 0., -1.10899935e-04,
          0., -2.53573438e-04, -4.16696366e-06, -2.16470813e-04, 0.,
          1.21507810e-05, 0., 0., 0., 0., 0., -1.31459255e-03,
          7.10332533e-05, 2.67309952e-04, -1.58649360e-04,
          -2.64239439e-04, 2.69304883e-06, 1.30582863e-04,
          1.67017090e-04, 9.12443938e-05, 0., 0., 0., 0., 0., 0.,
          9.02754618e-06, 0., 0., 0., 0., 0., 0., 2.30387595e-05, 0.,
          -2.73043534e-05, 0., 0., 0., 0., 0., 0., 0., 0., 0., 0., 0.,
          0., 0., 0., 0., -7.34979112e-05, -3.17963422e-05,
          2.82961025e-07, 9.32301919e-06, 0., 0., -5.96254431e-05,
          -2.42093720e-05, -8.99352835e-06, 0., 0., 0., 0.,
          -4.16696366e-06, -9.17372308e-05, 1.04062019e-05,
          3.24088069e-05, 0., 0., 0., 0., 0., 0., 0., 1.19028453e-04,
          -1.23786831e-05, -2.39492128e-05, -3.28544365e-06,
          -5.54342187e-05, 0., 8.63771493e-05, -4.66553001e-06,
          1.73039176e-03, 6.69854810e-04, 6.56187040e-05,
          -2.39264482e-04, 1.34768752e-05, 0., 2.09772916e-05,
          1.79855997e-04, 5.54881763e-06, 1.79031649e-05, 1.90630772e-06,
          6.62784296e-05, 1.51804343e-05, -1.34998018e-05,
          -2.82933288e-05, -8.18467757e-04, -1.01139785e-05, 0., 0.,
          8.77405109e-05, 0., 0., 0., 0., -2.75825272e-07, 0., 0.,
          2.12955420e-05, -1.29292694e-05, 0., 5.75238300e-06,
          6.12623990e-04, 1.86571851e-04, -6.08344908e-06,
          -2.53898215e-05, 1.72177053e-04, 0., 0., 0., -2.68987583e-06,
          -2.51521142e-05, 0., 0., 1.62715132e-05, -3.09498250e-06, 0.,
          3.68164910e-05, 9.98283940e-05, -5.85139605e-06, 0.,
          5.75238300e-06, 1.22149388e-04, 0., 0., 0., -3.09498250e-06,
          5.07767218e-05, -9.64471910e-05, 0., -5.34930296e-05,
          -2.51521142e-05, 0., 8.34461898e-05, 6.35699180e-05,
          -7.95426749e-05, -3.46880515e-05, -3.05817593e-05,
          1.00908961e-04, 0., -3.28544365e-06, -1.12735761e-04,
          1.04879058e-04, -1.29879118e-05, -1.47854844e-05, 0.,
          1.66716000e-05, 1.63726982e-05, 0., 3.00640531e-05,
          -9.85848528e-05, -4.58418208e-06, 0., 0., -3.17963422e-05, 0.,
          0., 0., 0., -4.55923873e-05, 0., 0., 0., 9.32301919e-06, 0.,
          1.90630772e-06, 0., -1.35076209e-03, -2.89548479e-04,
          1.70906947e-04, -2.92598648e-04, -1.87117494e-05, 0.,
          1.17819118e-05, -7.87017052e-05, -6.85743871e-05,
          -2.06424229e-05, 2.01011371e-05, -2.93122430e-05,
          9.15572818e-05, 0., 8.80237494e-05, -3.54678341e-04,
          7.42428674e-05, -1.66690570e-05, 2.74889717e-05,
          4.77848982e-04, -5.85139605e-06, 0., 0., 4.10938483e-05,
          2.99314386e-04, -2.04709941e-05, -1.64658068e-05,
          2.42016860e-04, -6.30000295e-06, 1.90630772e-06,
          -3.35815945e-04, 1.95811808e-04, -1.61829652e-04,
          9.84175495e-05, 6.76471042e-04, 3.89167457e-04, 1.16641342e-03,
          1.10947667e-05, 2.33620842e-04, 2.23032222e-03, 8.46911338e-04,
          1.71603024e-05, -1.08792017e-04, -2.33278515e-05,
          9.04300075e-04, -2.00424074e-05, -2.05370365e-03,
          -8.89084986e-05, -2.92317622e-04, -4.16696366e-06,
          8.37512489e-05, -4.48399587e-05, -3.78788427e-05, 0.,
          -1.29410246e-05, 0., -4.10018838e-04, 0., 5.73561556e-05,
          -3.27621310e-05, 3.75748496e-04, 0., 2.89454125e-04,
          3.15067955e-05, -2.48975120e-04, 2.33219762e-05,
          7.43107084e-05, -8.03236799e-06, -1.97389800e-05, 0.,
          2.27627097e-05, 5.10341670e-05, 3.07932678e-05, 0.,
          -1.89854418e-05, 0., 8.18390181e-05, 0., -7.42893535e-05,
          -4.58961767e-05, -9.64650826e-04, -9.89292948e-06,
          1.59076171e-05, -1.47854844e-05, 1.60043892e-05, 0.,
          -5.02873718e-06, 0., -1.21822464e-04, 2.25047847e-06,
          1.82548665e-05, 0., 1.09272725e-04, 0., -2.40477384e-04,
          1.62201886e-05, 3.86654225e-04, 4.50095695e-06,
          -3.32871095e-05, 0., -2.39718265e-05, 0., -1.47854844e-05,
          2.65520412e-05, -5.64027214e-05, 0., 0., 0., -7.40820760e-05,
          0., -3.58485195e-05, 0., -5.85139605e-06, 0., 0., 0., 0., 0.,
          0., 0., -4.32716224e-05, 0., 0., 0., 1.24374128e-05, 0.,
          1.39697104e-05, 0., -1.48369814e-03, 0., 7.44539502e-05,
          -9.06631394e-05, -2.26761586e-05, 0., -1.87924215e-05, 0.,
          -6.76692580e-05, 0., 0., 0., 4.71524545e-05, 0.,
          -1.18863056e-04, -2.90910084e-05, 1.03701161e-04, 0.,
          -3.94816334e-06, 9.77761156e-05, -8.08306686e-06, 0.,
          3.27249586e-06, 0., -3.96090509e-05, 0., 1.39697104e-05, 0.,
          -7.51141924e-05, 0., -1.63159220e-05, -8.00552880e-06,
          1.12171331e-03, -3.38351645e-04, 8.67383860e-05,
          -4.07810439e-04, -6.38315905e-05, 2.25047847e-06,
          1.30358540e-05, 6.04340807e-04, 1.43006284e-04, 1.26293846e-04,
          6.56444463e-05, -9.55307223e-06, 5.30480102e-05,
          4.09834574e-05, -7.82694915e-05, -6.68425855e-05,
          2.13272669e-05, 0., 0., 0., 0., 0., 0., 0., 8.32951446e-06, 0.,
          0., 0., -3.26552872e-05, 0., 1.04062019e-05, -1.35043911e-06,
          8.87984424e-06, 3.56737619e-05, 0., 2.61979712e-05, 0., 0., 0.,
          8.52819867e-05, 1.93166784e-06, -3.09498250e-06, 0., 0., 0.,
          0., 0., 1.12975111e-04, 1.41544806e-05, -1.16064457e-05, 0.,
          0., 0., 0., 0., 0., -9.05457819e-06, -2.69107350e-05, 0., 0.,
          -3.62265212e-07, 0., -1.01139785e-05, 1.93166784e-06,
          -1.32021902e-03, 7.65912002e-04, 1.16999829e-04,
          -7.52455016e-05, -7.59018949e-05, 0., -9.53185227e-05,
          -1.11811503e-04, -1.03824161e-04, 7.03622354e-05, 0.,
          8.65774291e-06, -7.33843190e-05, 7.99115060e-06,
          -4.28454478e-05, 0., -2.66871812e-05, 0., 0., 0., 0., 0., 0.,
          0., -1.62470224e-05, 0., 0., 0., 0., 0., 1.93166784e-06, 0.,
          -7.52268534e-04, -1.10180653e-03, -1.02382219e-04,
          -1.11794070e-04, -4.16696366e-06, 0., 6.29337374e-05,
          1.04062019e-05, -5.04097916e-05, 1.04062019e-05,
          -4.66553001e-06, -1.01139785e-05, -1.39156909e-04, 0.,
          -1.13899645e-04, -8.71417740e-07, 9.44562838e-04,
          -2.40484405e-05, -3.06145776e-05, 0., -4.04153343e-06, 0.,
          -3.31325427e-05, 0., -3.76125536e-04, -7.86349938e-06, 0.,
          2.25047847e-06, -8.50123433e-06, 1.10947667e-05,
          -4.44717152e-05, 0., -1.15328224e-03, -3.14062665e-04,
          -9.45805004e-05, -3.27912334e-04, 3.32713709e-04,
          -6.47847191e-05, -6.33366290e-04, 2.98774277e-04,
          7.73446169e-04, 1.04062019e-05, -1.16814062e-05,
          9.32301919e-06, -5.55669831e-04, -1.97679874e-05,
          -5.80596854e-04, 6.20492094e-04, 3.64263135e-04, 0.,
          6.98598669e-05, 0., 1.00893494e-05, 0., 0., 2.25047847e-06,
          2.89192540e-04, 4.09834574e-05, 5.75238300e-06, 5.75238300e-06,
          2.26504981e-05, 2.25047847e-06, -8.90241412e-04,
          5.00702372e-05, 1.07006193e-03, 1.10947667e-05, 8.36558320e-05,
          0., -4.10123757e-05, -4.66553001e-06, -1.77249640e-05,
          4.09834574e-05, -1.89615283e-04, 0., 4.09834574e-05, 0.,
          -8.87971619e-05, 0., 1.90327293e-04, 4.74595399e-05,
          2.95727397e-04, 0., -8.27545045e-06, 0., 0., 0.,
          1.90630772e-06, 0., -1.06674898e-03, 1.00936661e-04,
          -1.72323162e-05, 1.35917086e-04, 1.08962959e-04,
          1.15734974e-05, -1.20971550e-03, 5.60477492e-05,
          2.17541325e-04, 1.39697104e-05, 0., 0., 0., 0., 0., 0.,
          3.38161385e-06, 0., 0., 0., 0., 0., -1.19685528e-05, 0.,
          -3.29667491e-05, 0., 0., 0., 0., 0., 0., 0., 0., 0., 0., 0.,
          4.09834574e-05, 0., 0., 0., 8.94783705e-04, 1.10947667e-05,
          -9.32333705e-07, -4.16962212e-05, 6.25872008e-06, 0.,
          2.85234801e-05, 0., 1.31602093e-04, 0., 0., 0.,
          -7.51773696e-05, 0., -7.43695491e-05, -2.53898215e-05,
          1.42820738e-03, 0., 6.68032662e-05, 0., -1.89854418e-05, 0.,
          4.71064523e-05, 0., 1.09415210e-03, 0., 3.30024377e-05,
          -1.25350061e-05, -1.16016294e-04, 0., -6.22239349e-06,
          -3.09498250e-06, 5.51809557e-04, 8.36439597e-07,
          -1.76781523e-05, -9.83338803e-04, -7.71315354e-06,
          -3.49162656e-05, 0., -1.92117182e-06, 1.03843504e-05, 0.,
          1.10947667e-05, 2.70422188e-05, 4.04574239e-05,
          -2.90910084e-05, 2.13681924e-05, -7.23603880e-04,
          -2.07015746e-05, 0., 0., -5.30099578e-06, 0., 0., 0., 0.,
          -1.28538168e-05, 0., 0., -5.52612037e-05, 1.76911090e-06, 0.,
          2.25047847e-06, 1.60720792e-05, 6.80920930e-05,
          -2.69107350e-05, 2.04145763e-05, 2.42719951e-04, 0., 0., 0.,
          -1.61661483e-05, 0., 0., 0., 3.68170658e-05, 0., 0.,
          -1.58479324e-05, -1.58216208e-05, 0., 0., 0., -4.59780422e-05,
          0., 0., 0., -1.01139785e-05, 4.76910325e-04, 3.86418134e-04,
          1.11048714e-04, 1.03635684e-04, -8.86465859e-05,
          5.31342375e-05, -5.58346937e-06, 2.89858202e-04,
          8.98321799e-04, 3.15278186e-04, -5.49539363e-05,
          2.59546709e-04, 0., 0., -5.96728678e-05, 6.13159646e-05,
          4.66165984e-05, 0., 0., -5.95215533e-06, 1.62201886e-05,
          4.09834574e-05, -1.70248211e-04, -1.32127228e-04,
          -1.51212971e-05, 0., 0., -2.38990360e-05, 0., 0., 0.,
          1.10947667e-05, 1.81252562e-05, 0., 0., 0., 2.25047847e-06, 0.,
          4.09834574e-05, -3.28544365e-06, -1.25264074e-03,
          2.74144288e-04, -1.65198187e-04, -5.83179703e-04,
          5.54309627e-05, 2.50644771e-05, -2.86524155e-04,
          -8.75793048e-05, -1.55069531e-04, -3.25469991e-05,
          6.25872008e-06, 9.74234081e-06, -1.12425223e-04, 0.,
          1.07022688e-05, -4.60517535e-04, 1.96213776e-04,
          -4.88037676e-06, 0., 2.77542247e-04, 0., 0., 0.,
          -1.28209495e-05, -1.36646349e-03, 3.07277922e-04,
          -3.69922454e-05, 2.27658122e-04, 3.57326877e-04,
          1.21507810e-05, -1.62533805e-04, -5.25324176e-05,
          -1.64245383e-03, -4.21884288e-05, 8.20868227e-05,
          -5.39056782e-04, 8.20287911e-04, 1.10947667e-05,
          9.21479841e-06, 1.38418080e-04, 2.61673168e-03,
          -5.85139605e-06, -4.50619154e-05, 2.94588517e-06,
          1.94714332e-04, -2.45330484e-05, -2.92896992e-03,
          -5.73570724e-04, 9.49777532e-05, 0., 2.34182426e-06, 0.,
          4.52001441e-05, 0., 0., 0., 5.15125343e-04, 0., 4.09834574e-05,
          0., 4.21686884e-04, 0., -4.61655407e-04, 1.38778259e-05,
          1.66678510e-03, 3.11992371e-05, 1.96373148e-04, 1.49071593e-05,
          1.01575439e-04, 0., 4.71901367e-05, 2.32927305e-05,
          2.29256068e-04, 0., 0., 0., -6.80959783e-06, 0.,
          3.19448191e-05, -3.17963422e-05, 7.98374356e-04, 0.,
          5.85453890e-05, 0., 0., 0., 1.44889909e-05, 0.,
          -3.63147701e-04, 1.21507810e-05, 1.05213021e-05,
          6.29938540e-06, 1.66780432e-04, 0., -5.66523195e-05,
          -1.89854418e-05, 9.95794195e-04, 0., 5.69627309e-06,
          -2.49375971e-05, 2.66669576e-05, -1.86816524e-05,
          -8.03460207e-05, -4.04153343e-06, -7.71315354e-06, 0., 0., 0.,
          1.10947667e-05, 0., 1.10947667e-05, 0., 0., 0., 0., 0., 0., 0.,
          0., 0., 3.69268855e-05, 0., 0., 1.10947667e-05, 0., 0., 0., 0.,
          -2.81854271e-04, 2.13272669e-05, -2.85590140e-05, 0.,
          1.26402865e-05, 0., -7.01817116e-05, 0., -2.96384042e-05, 0.,
          0., 0., -3.20474282e-05, 0., 4.01851685e-05, -2.53898215e-05,
          3.16409947e-04, 0., -8.65727117e-08, 0., 0., 0.,
          1.10947667e-05, 0., 1.90805304e-06, 0., 4.55666886e-05, 0., 0.,
          0., 6.01469837e-05, 0., 1.40765391e-04, -1.67735459e-04,
          5.31566111e-05, -1.03836926e-03, 1.60986610e-06,
          -1.29410246e-05, 6.25056564e-05, -3.73683724e-05,
          -2.12244922e-05, 4.98995587e-06, -1.81842745e-06,
          2.20371276e-05, 1.04334176e-04, 0., -5.97308463e-05,
          -3.19314597e-04, 4.50327061e-05, 0., 0., -2.40839418e-05, 0.,
          0., 0., 0., 9.19826416e-05, 4.55666886e-05, 4.52001441e-05,
          1.62476117e-05, 6.77137941e-05, 0., 1.10947667e-05,
          -1.58697549e-05, 3.33194948e-05, 9.82904821e-05,
          -1.96077008e-06, -1.85126646e-05, 0., 0., 0., 0.,
          -1.18035514e-05, 0., 0., 0., 0., 0., 0., 9.02754618e-06,
          -2.69107350e-05, 4.13997259e-05, 0., 0., 0., 0., 0., 0.,
          4.65899575e-05, 2.13272669e-05, 0., -5.85139605e-06, 0., 0.,
          -4.16696366e-06, -5.85139605e-06, 1.81848620e-04,
          2.54634884e-04, -2.10308717e-05, -2.68256787e-04,
          -2.12484747e-06, 0., 2.55362334e-04, -7.27414372e-05,
          -2.37636759e-05, 9.55998039e-05, 0., -4.16696366e-06,
          -2.43293307e-05, 7.02646212e-05, -3.13003766e-05, 0.,
          9.02754618e-06, 0., 0., 0., 0., 0., 0., 0., -1.04857588e-06,
          0., 0., 0., -1.40562834e-05, 0., 5.48897078e-05, 0.,
          -1.39393983e-03, -2.66791554e-04, -1.73583569e-04,
          -1.83652519e-04, 1.03286693e-05, 0., 2.60762408e-05,
          2.34182426e-06, -4.51577362e-05, 1.02861828e-04,
          -1.67753442e-05, 4.13997259e-05, 3.16609148e-05,
          4.63478318e-05, -2.13760995e-05, -9.89292948e-06,
          -3.37219069e-04, -4.59405055e-05, 0., -2.69107350e-05, 0., 0.,
          -2.27231867e-05, 0., -1.91037634e-05, 1.78561568e-05, 0.,
          -4.16696366e-06, -7.71315354e-06, -4.16696366e-06,
          -3.00553511e-05, 0., 1.04389247e-03, -4.10787106e-05,
          1.12358725e-03, 3.25445697e-04, 1.37762734e-04, 1.16726087e-05,
          -5.22789313e-04, 8.32413934e-05, 1.00916906e-04,
          1.04062019e-05, -6.95427443e-05, -4.04153343e-06,
          -3.72659051e-05, -1.86816524e-05, -3.52878269e-04,
          -6.28766429e-05, -1.30013344e-04, 2.13272669e-05,
          -7.71315354e-06, 0., -2.83271602e-05, 0., 4.86108438e-05, 0.,
          -3.23321234e-04, 0., -7.71315354e-06, 0., 3.29509407e-04, 0.,
          -2.78563966e-04, -1.03696948e-04, 3.77994089e-04,
          9.32301919e-06, 1.43992278e-04, 4.32339366e-05, 0., 0.,
          -2.88715055e-05, -3.60091735e-06, -1.04253049e-04, 0.,
          1.71084969e-06, 0., -2.28625740e-05, 0., -1.26606741e-04,
          -5.66550116e-05, -3.34178563e-04, 0., -2.22825693e-05,
          2.25047847e-06, 0., 0., 2.71791778e-05, 0., -1.58755353e-03,
          -2.00708910e-05, 4.24689933e-05, -1.68834176e-05,
          -1.17640891e-04, -4.35184884e-05, -4.07121755e-04,
          1.22880316e-04, 4.42222459e-04, 8.86533780e-06, 0.,
          1.39697104e-05, 0., 0., -3.28544365e-06, 9.02754618e-06,
          3.93487499e-05, 0., 0., 0., -1.91648542e-06, 0.,
          -2.91052834e-06, 2.13272669e-05, 2.50644771e-05, 0., 0., 0.,
          0., 0., 0., 0., 0., 0., 0., 0., 0., 0., 0., 0., 3.32111958e-05,
          2.44753301e-05, -4.37598101e-05, -2.90910084e-05,
          4.09834574e-05, 0., 1.97665831e-05, 0., -2.95944956e-05, 0.,
          0., 0., -5.74282312e-05, 0., -1.76125923e-05, 0.,
          1.85389930e-04, 0., 2.25047847e-06, 0., 0., 0., 0., 0.,
          2.05960299e-04, -5.19330206e-05, -1.47854844e-05,
          1.10947667e-05, 5.63488902e-05, 0., 1.36353783e-05,
          1.08747281e-05, 2.43712054e-03, 2.26016433e-04, 6.81530219e-05,
          -1.55024332e-04, 9.32301919e-06, 1.39697104e-05,
          1.56792259e-04, 2.34775493e-04, 4.19211428e-05, 0.,
          5.34387109e-05, -5.27927186e-05, 6.13542725e-05, 0.,
          -2.20325906e-04, -5.93281351e-04, 0., 0., 0., -7.69735470e-06,
          0., 0., 0., 3.08613489e-05, 0., 0., 0., -1.08714659e-04,
          -2.00424074e-05, 0., -1.65848887e-05, 4.35227732e-04,
          2.80710316e-04, 3.73825387e-05, -2.45330484e-05,
          1.61945631e-04, 0., 0., 9.32301919e-06, -8.29691180e-06, 0.,
          0., 0., -1.11693531e-04, 0., 0., -1.01139785e-05,
          -2.67668452e-06, 4.50095695e-06, 2.25047847e-06, 0.,
          9.43200212e-05, 0., 0., 0., 2.13272669e-05, -8.70266449e-05,
          -9.62211197e-06, 4.45404703e-06, -1.39691183e-05,
          -1.47854844e-05, -1.89854418e-05, -4.59897892e-05,
          5.07585180e-04, 7.24650978e-04, 2.00677474e-04,
          -3.22681763e-06, 5.76535414e-04, 1.97665831e-05, 0.,
          -6.08873488e-05, 8.67313793e-05, -3.73877447e-05,
          1.10947667e-05, 0., -3.07828668e-05, 2.93841749e-05, 0.,
          -1.26643252e-04, 1.24496844e-04, -1.89854418e-05, 0., 0., 0.,
          0., 0., 0., 0., 0., 0., 0., 1.97665831e-05, 0., 0., 0., 0.,
          -2.47457018e-03, -3.62911727e-04, -5.46481097e-05,
          -1.00131158e-03, 2.53776525e-05, 0., -9.22085237e-05,
          4.22193443e-05, -1.99473880e-06, 9.32301919e-06, 0.,
          -4.31872468e-05, 6.52655032e-08, 0., -5.03401388e-05,
          -3.19591665e-04, -1.01845677e-03, 2.28620047e-06,
          -1.17538493e-05, 5.37310436e-04, 0., 0., 1.21507810e-05, 0.,
          -1.67115330e-04, 2.51065485e-05, 2.04695043e-05,
          -3.28586520e-06, 3.73173339e-06, 0., -3.23575186e-05,
          3.16036385e-05, 8.67351540e-04, 2.30723017e-04,
          -5.92822144e-05, 5.37191576e-04, -3.71722330e-04, 0.,
          4.31841327e-05, -4.35430382e-04, -6.26214372e-04,
          -3.09498250e-06, 2.96799772e-05, -8.20849709e-06,
          -6.95721101e-05, 0., -3.90278510e-05, -4.43240206e-05,
          1.00949415e-04, 1.39697104e-05, 7.86423152e-06, 0., 0., 0., 0.,
          0., -4.87330137e-04, 0., -3.62275241e-05, 0., 1.34719030e-05,
          0., -2.90910084e-05, 0., -2.50566890e-03, -5.28435157e-05,
          1.85162178e-04, 1.12036803e-04, -2.00619997e-05, 0.,
          5.75238300e-06, 1.04062019e-05, -6.05596069e-05, 0.,
          -4.16696366e-06, 4.98601275e-06, 1.26718209e-04, 0.,
          1.80550924e-05, 0., -1.05624655e-04, -1.58290950e-05,
          1.14579798e-05, 3.77724864e-05, -4.66553001e-06, 0., 0., 0.,
          1.85488141e-03, 9.50149188e-05, 3.76412063e-05,
          -6.91480454e-05, -2.38413530e-04, 0., -4.91544706e-05, 0.,
          3.37582052e-04, 0., 0., 9.11114603e-06, -3.47176901e-05, 0.,
          0., 0., 4.29469983e-05, 0., 0., 0., 0., 0., 0., 0.,
          1.80550924e-05, 0., 0., 0., 0., 0., 0., 0., 1.80550924e-05, 0.,
          0., 0., 0., 0., 0., 0., 8.18858971e-05, -4.16696366e-06,
          -2.89239415e-05, 1.10947667e-05, 0., 0., 0., 0.,
          -1.76596350e-05, 0., 0., 0., 0., 0., 0., 0., 1.04209197e-04,
          0., -8.00552880e-06, 0., 0., 0., 0., 0., -1.36802468e-04, 0.,
          -4.16696366e-06, 0., -1.93082124e-05, 0., 0., 0.,
          3.30034149e-04, 1.43649697e-04, 1.10395231e-04, 2.95129954e-04,
          0., 0., -4.86178797e-05, -2.68767733e-04, -2.49725454e-05, 0.,
          0., -2.61820387e-05, 0., 0., 0., -4.21136137e-05,
          -4.44289362e-05, -1.36653080e-05, 0., -1.81317937e-05, 0., 0.,
          0., 0., 9.11114603e-06, -8.00552880e-06, 0., -5.40393648e-06,
          0., 0., 0., 0., 1.77721959e-04, 1.52861438e-04, 4.58468057e-05,
          2.21539041e-04, 0., -4.16696366e-06, 0., 0., 1.97665831e-05,
          1.93166784e-06, 0., -2.69107350e-05, 0., 0., 0., 0.,
          1.48553649e-04, 3.68829715e-05, 5.43112910e-05, 3.50331320e-05,
          0., 0., 0., 8.36716936e-06, 2.89059208e-05, -5.51878702e-06,
          1.52093835e-05, 2.68951499e-05, 0., 0., 0., 0.,
          -2.94908765e-04, -1.29153501e-04, -4.98395857e-05,
          5.65269766e-05, 0., 0., -2.00424074e-05, -2.00424074e-05, 0.,
          0., 0., -2.00424074e-05, 0., 0., 0., 0., 0., 0., 0., 0., 0.,
          0., 0., 0., 0., 0., 0., 0., 0., 0., 0., 0., -1.86261401e-04,
          -1.59522060e-05, 5.95363999e-05, -5.32032282e-05, 0., 0., 0.,
          0., 5.92997458e-05, 0., 0., 0., 1.97665831e-05, 0., 0., 0.,
          -4.22780577e-05, -4.16696366e-06, -8.00552880e-06,
          -6.00432759e-05, 0., 0., 0., -4.16696366e-06, -4.00686395e-06,
          -2.90910084e-05, 0., 3.81562313e-05, 9.02754618e-06, 0., 0.,
          -4.16696366e-06, 1.33456243e-03, 1.81828837e-05,
          -1.52956380e-03, -3.73980933e-04, 1.67227292e-04,
          -3.39540056e-05, -3.92898510e-04, 3.74476309e-04,
          5.81114909e-05, -4.16696366e-06, 2.13160005e-04,
          2.06206914e-05, -2.38091947e-04, -4.16696366e-06,
          1.98923124e-04, -6.77420467e-05, -4.28411659e-05, 0.,
          -1.86816524e-05, 0., 1.93166784e-06, 0., 0., 0.,
          -3.49039998e-04, 0., 0., 0., -4.26295228e-05, 0.,
          1.72880518e-05, 0., 2.24671749e-04, -2.00424074e-05,
          2.30944115e-05, 7.82581355e-06, 3.40147417e-05, 0.,
          -8.00552880e-06, 0., -2.31612939e-04, 0., 1.10947667e-05, 0.,
          -1.86816524e-05, 0., 9.18670266e-05, 0., 2.83165311e-04, 0.,
          -1.20470622e-05, 0., 9.02754618e-06, 0., 0., 0.,
          8.24123388e-04, -2.90878324e-05, 2.26170232e-05,
          -1.59760253e-04, -2.23732044e-04, 0., 1.15488456e-05,
          1.69252610e-06, 6.52448798e-05, 0., -2.90910084e-05,
          5.74210253e-06, 0., 0., 0., 0., 1.63726982e-05, 0., 0., 0., 0.,
          0., -3.68134715e-06, 0., 0., 0., 0., 0., 0., 0., 0., 0.,
          -3.14494650e-06, 0., 0., 0., 0., 0., -4.16696366e-06, 0.,
          -1.52518754e-04, 0., 0., 0., 0., 0., -1.86816524e-05, 0., 0.,
          0., 0., 0., 0., 0., -1.34519869e-04, 0., -2.54382845e-04, 0.,
          0., 0., 0., 0., 0., 0., -2.87470903e-04, 0., 0., 0.,
          -1.10148612e-05, 0., 5.33710081e-05, 0., -1.27822030e-04,
          2.01760413e-04, -9.12522810e-05, 4.42541466e-04,
          -2.90910084e-05, -8.00552880e-06, -3.41079576e-05,
          -4.25421546e-04, 4.36059199e-05, 0., 0., 1.36481802e-04,
          -2.90910084e-05, 0., 1.56112408e-04, 7.32905974e-05,
          -4.16696366e-06, 0., 0., 1.48993960e-04, 0., 0., 0.,
          1.31439276e-06, 0., 0., 0., -2.96834387e-05, 0., 0., 0.,
          -5.38109089e-06, 3.19432220e-05, 0., -4.16696366e-06,
          -2.25212789e-04, 0., 0., 0., 4.31271801e-05, 4.09834574e-05,
          0., 0., -2.86689574e-05, 0., 0., -4.16696366e-06,
          -2.57905231e-05, -4.16696366e-06, 0., 0., -1.21957244e-04, 0.,
          0., 0., -8.00552880e-06, 7.62221634e-06, -4.00795034e-05,
          -4.36743248e-05, 1.14559371e-03, -2.00424074e-05, 0.,
          2.87941275e-05, 1.48426552e-04, -1.52100052e-04,
          1.69281848e-05, 0., -9.14870616e-05, 0., 0., 0.,
          1.02201739e-06, 0., 0., 0., -4.66553001e-06, 0.,
          1.97665831e-05, -4.04153343e-06, -2.96012458e-05, 0., 0., 0.,
          4.09834574e-05, 0., 0., 0., 0., 0., 0., 0., 0., 0., 0., 0., 0.,
          -7.24805614e-06, -8.69053838e-05, 1.09692242e-04,
          6.30274299e-05, -4.18343006e-05, 1.10428136e-05,
          9.00642481e-05, -2.96045946e-05, -5.47578238e-05, 0.,
          2.10336420e-05, -3.60091735e-06, 6.34854587e-05, 0.,
          -2.23245428e-04, 1.27858684e-05, 1.07979549e-05, 0., 0.,
          -1.52226363e-04, 0., 0., 0., 0., -4.53719076e-05,
          3.29779286e-05, 7.08476728e-05, -2.41022717e-04,
          9.02754618e-06, 0., -6.67581044e-05, -7.02059333e-05,
          -2.51534220e-04, -7.64536453e-05, 3.01715714e-04,
          5.28100994e-04, -8.91519230e-05, 0., -9.39404272e-05,
          -2.36845722e-06, 8.15104868e-04, -3.75937670e-05,
          -1.21763864e-04, 1.04624836e-04, -8.50315046e-05, 0.,
          -2.09042424e-04, -2.47590342e-05, 1.61876553e-04, 0.,
          2.13272669e-05, 0., 8.06184653e-06, 0., 0., 0., 7.73835753e-04,
          -8.00552880e-06, 3.88775698e-05, -2.30028199e-05,
          4.21469245e-04, -8.00552880e-06, -1.40597927e-04,
          -5.27005432e-05, -8.94705445e-05, 2.32455477e-05,
          5.06671540e-06, -4.35761540e-05, 4.44561601e-06, 0., 0., 0.,
          -1.97812260e-04, 0., -7.71315354e-06, 0., 4.21051627e-05, 0.,
          1.10947667e-05, 0., -3.60733451e-04, 0., -6.17801852e-05,
          -4.04153343e-06, 9.22854542e-06, 0., -4.16696366e-06, 0.,
          -2.20392176e-04, 0., -9.05359848e-05, -4.14078295e-06,
          -4.32908972e-04, 9.02754618e-06, 1.94781151e-05,
          -8.08306686e-06, 2.42472379e-04, -9.32442526e-06,
          -4.66553001e-06, -4.51020642e-05, -2.69107350e-05, 0., 0., 0.,
          -4.56166963e-05, 0., 0., -2.90910084e-05, -1.47854844e-05, 0.,
          0., 0., 0., 0., 0., 0., 0., 0., 0., 0., 5.75238300e-06, 0., 0.,
          0., 0., 0., 0., 0., -1.44039441e-04, 0., 0., 0., 0., 0., 0.,
          0., -6.09426243e-05, 0., 0., 0., -2.72147190e-05, 0., 0., 0.,
          -1.37278636e-04, 0., 2.13272669e-05, 0., 0., 0., 0., 0.,
          -1.18397642e-04, 0., 0., 0., -2.35297830e-05, 0., 0., 0.,
          1.46187947e-03, -8.19816894e-04, 1.60555472e-04,
          9.92173096e-04, -1.89539805e-05, 2.01223138e-05,
          3.03548131e-05, 1.26549145e-04, 1.32797562e-04, 5.04926662e-04,
          -5.75505010e-06, -1.92921172e-04, -2.29140842e-05,
          4.42129131e-05, -4.28544736e-05, -9.84740036e-05,
          2.40067357e-06, 0., 0., -4.17620649e-05, 0., 0., 0., 0.,
          1.67347593e-04, 6.77470453e-05, 9.02754618e-06, 3.71943570e-05,
          2.16685585e-04, -2.57950396e-05, -1.02396607e-05,
          1.17531372e-05, -9.42224142e-05, -8.65627007e-05, 0.,
          -5.00944334e-05, 0., 0., 0., 0., 1.31906281e-05,
          -6.07269703e-06, 0., 0., 0., 0., 0., 0., -3.48489448e-05,
          -4.66553001e-06, -4.16696366e-06, 1.40989559e-05,
          9.02754618e-06, 0., 0., 1.63726982e-05, -9.20309612e-05,
          -1.68778060e-04, -4.04153343e-06, -1.66552010e-04,
          -6.99215889e-06, 3.63924228e-05, 1.63726982e-05,
          3.72327631e-05, -9.78773343e-04, -3.66791122e-04,
          3.06502843e-05, 1.90295032e-04, 9.32301919e-06, 0., 0.,
          -2.00424074e-05, 3.73530384e-05, 9.53953204e-05, 0.,
          -1.23012924e-08, 0., 0., -2.69107350e-05, 0., 0., 0., 0.,
          -5.96254431e-05, 0., 0., 0., 0., 9.02754618e-06,
          -3.09498250e-06, 0., 9.02754618e-06, 0., 4.52001441e-05, 0.,
          0., -7.71855528e-04, -3.90385976e-04, 0., 7.14640419e-06, 0.,
          0., 0., 0., -6.33341479e-05, 0., 0., 1.93166784e-06, 0., 0.,
          0., 0., -2.69107350e-05, -9.05457819e-06, 0., 0., 0., 0., 0.,
          0., 1.88182894e-05, 0., 0., 4.85670034e-06, 0., 0., 0.,
          -4.16696366e-06, 6.16139325e-04, -1.09459106e-04,
          -4.44228877e-04, -1.40480319e-04, -7.92344363e-05,
          -2.90910084e-05, -1.71961219e-04, -2.90910084e-05,
          4.79093695e-04, -1.89854418e-05, -1.90141582e-04,
          -2.11686329e-05, -9.50262242e-04, 0., -1.09120367e-04,
          -3.89802117e-05, 2.28641657e-04, 0., -3.28544365e-06, 0.,
          9.19584345e-05, 0., 0., 0., -7.48201681e-04, -2.69107350e-05,
          -1.00183597e-05, -3.32579730e-05, -3.48370231e-04, 0.,
          -3.21117142e-04, 0., -2.72851583e-04, 5.20782232e-05,
          6.26718829e-05, -7.32697708e-06, 2.37887216e-05, 0., 0., 0.,
          8.81754022e-05, 0., 9.32301919e-06, -4.66553001e-06,
          4.55666886e-05, 0., -1.57399074e-04, 0., -1.27707699e-05,
          -3.28544365e-06, 2.59848275e-05, 0., 3.23944514e-05, 0., 0.,
          0., 1.98505516e-03, -5.87886825e-05, -1.58835959e-04,
          -2.37810928e-05, 5.71522745e-04, 1.21507810e-05,
          -1.16235344e-04, 3.76512471e-05, 1.44691061e-04,
          5.66793497e-05, 1.31439276e-06, -1.71184445e-06, 0., 0., 0.,
          0., 0., 0., 0., 0., 0., 0., 5.46935735e-05, -2.00424074e-05,
          0., 0., 0., 0., 0., 0., 0., 0., -8.00552880e-06, 0., 0., 0.,
          0., 0., 0., 0., -1.53415880e-04, 0., 0., 0., 0., 0., 0., 0.,
          -5.25531104e-05, 0., 0., 0., 0., 0., -1.08083892e-04, 0.,
          -7.92053470e-05, 0., 0., 0., 0., 0., 9.02754618e-06, 0.,
          1.47548475e-04, -3.00057181e-05, 1.10947667e-05,
          9.32301919e-06, -8.00552880e-06, 0., 2.70796500e-05, 0.,
          1.68360944e-03, 1.06382684e-03, -1.16517294e-04,
          -1.28048076e-03, 2.96172111e-05, -4.16696366e-06,
          2.13272669e-05, -8.33423110e-05, -2.17239976e-05,
          -4.56192647e-05, 1.78561568e-05, 2.71386059e-04,
          -2.69107350e-05, 0., 6.95291092e-05, 1.41036735e-05,
          1.97665831e-05, 0., 0., 1.76905939e-06, 0., 0., 0., 0.,
          4.13200869e-05, 4.71763524e-05, 2.13272669e-05,
          -1.86645106e-04, 0., 0., -4.16696366e-06, 1.40046599e-04,
          -1.21185250e-04, -9.63620550e-06, 1.78561568e-05,
          -4.41293887e-05, 0., 0., 0., -4.66553001e-06, 0., 0., 0.,
          -4.50589396e-05, 0., 0., 5.66242416e-05, -2.88411302e-05,
          9.02366355e-06, -4.04153343e-06, 0., -1.18400210e-04, 0., 0.,
          0., -2.90910084e-05, -3.23204440e-04, -1.29811378e-05,
          -5.46312403e-05, -2.00054965e-05, -3.49503025e-05,
          1.97665831e-05, -8.12330982e-05, -4.67782338e-05,
          -6.63041137e-04, 3.08224699e-04, 9.85062889e-06,
          8.83365938e-05, 0., 0., 0., -1.47854844e-05, 1.78561568e-05,
          4.55666886e-05, 0., -3.94103772e-05, 0., 0., -5.61336401e-06,
          -2.26587890e-05, 0., 0., 0., 1.81386913e-05, 0., 0., 0., 0.,
          0., 0., 0., 0., 0., 0., 0., -1.81360992e-05, -1.80434072e-05,
          -9.97500592e-06, 2.51333677e-05, 7.99133923e-05,
          -7.04257181e-05, 0., 5.03064766e-05, 3.54067888e-05,
          2.18675978e-05, 0., 0., -1.58971543e-05, 0., 0.,
          3.64036373e-06, -8.08375535e-06, -2.02727679e-04, 0., 0.,
          -1.11391882e-05, -8.00552880e-06, 0., 0., 0., -1.64398778e-04,
          -5.93221084e-05, -2.80689910e-05, 3.00138963e-05,
          7.51223197e-05, 0., -6.04466550e-06, 3.55613956e-05,
          -2.96834565e-04, -1.20171077e-04, 8.29181517e-04,
          -2.70519580e-04, -2.55865511e-04, -2.41659308e-07,
          9.60634556e-04, -7.83216092e-04, -5.54554455e-04,
          -9.05457819e-06, 9.49762180e-05, -1.28127809e-04,
          -1.08272361e-04, 0., -7.93775398e-05, -5.58686268e-04,
          -1.36698043e-04, -1.86816524e-05, -6.79252917e-05,
          2.74674658e-05, 0., 0., -2.90910084e-05, 4.94480219e-07,
          -2.14846383e-04, 0., 2.30995283e-05, -4.66553001e-06,
          -7.39156676e-05, 0., -7.97363318e-05, -5.96728678e-05,
          1.64852187e-03, 1.55018097e-05, -2.29772377e-06,
          5.25833966e-05, -8.24995586e-05, 0., 0., -8.78922292e-05,
          -1.31996712e-04, 0., 0., -8.58069761e-05, -1.47854844e-05, 0.,
          3.51320596e-05, -4.04153343e-06, 2.80189270e-05,
          -2.30269761e-05, 3.92456423e-05, 4.06957952e-05,
          3.46718516e-05, 0., -4.04153343e-06, 1.93166784e-06,
          -4.58878698e-04, 5.82265784e-05, -1.56734532e-04,
          -1.03637358e-05, -2.80020377e-05, -1.38569249e-05,
          -3.81455866e-05, 3.17615013e-06, 6.41536084e-04, 0.,
          5.91085882e-06, 0., -4.04153343e-06, 0., 0., -5.85139605e-06,
          0., 0., 0., 0., 0., 0., 0., 0., 1.10947667e-05, 0., 0., 0., 0.,
          0., 0., 0., -3.28544365e-06, 0., 0., 0., 0., 0., 0., 0.,
          3.71426198e-04, 0., 4.82220021e-05, -2.17694360e-05,
          -3.30087314e-05, 0., 1.22057345e-05, 0., 0., 0., 0., 0., 0.,
          0., 0., 0., 3.64742969e-04, 5.75238300e-06, -4.51577507e-05,
          -5.40700748e-05, 0., 0., 0., 1.93166784e-06, -5.15740947e-04,
          0., 4.18978452e-05, -3.91972799e-06, 9.02754618e-06, 0., 0.,
          0., -4.49437095e-04, 2.45364354e-04, -4.45679761e-05,
          7.94155814e-04, 5.74802434e-05, 0., 2.56170119e-06,
          -4.27364575e-04, -1.12029542e-04, 1.94154363e-05, 0.,
          -1.66902173e-04, 0., 0., -2.69107350e-05, -1.42009894e-05,
          2.82623605e-05, -2.95228438e-05, 0., 6.16510515e-05, 0., 0.,
          0., 0., -3.72588074e-05, 1.78561568e-05, 0., -6.64215477e-05,
          0., 0., 0., 1.86559537e-05, -8.46924522e-05, -3.06309776e-05,
          2.04445405e-06, 5.06726676e-04, 0., 0., 0., -4.03051199e-05,
          1.21507810e-05, -7.17506919e-05, 0., 1.21507810e-05, 0., 0.,
          0., 0., -4.54342226e-05, -7.37815499e-05, -2.20618113e-05,
          7.42420962e-05, 0., 0., 0., 9.02754618e-06, 3.39422331e-05,
          -3.00518441e-05, 4.52001441e-05, -3.01727414e-05, 0., 0.,
          -2.69107350e-05, 6.93618404e-07, -6.09401977e-05,
          2.17566048e-04, 0., 4.27693158e-04, 0., 0., -5.85139605e-06,
          -2.58938035e-05, 0., 1.63726982e-05, 0., 0., 0., 0., 0., 0.,
          0., 0., 0., 9.11114603e-06, 0., 0., 0., 0., 0., 0., 0., 0., 0.,
          0., 0., -4.16696366e-06, -4.79749840e-04, -5.10553728e-05,
          1.22057345e-05, -5.75637023e-06, 0., 0., -4.16696366e-06, 0.,
          0., 0., 0., 0., 0., 0., 0., 0., 4.74537774e-05, 4.11771325e-05,
          -1.40562834e-05, 0., 0., 0., 0., 1.93166784e-06,
          1.93351061e-05, -4.16696366e-06, 2.01011371e-05,
          3.74570209e-06, 0., 0., 0., 0., -3.49673246e-05,
          -3.87891661e-04, 1.88206451e-03, 6.00775762e-04,
          1.37710362e-04, -5.00954993e-05, 3.52176197e-04,
          2.03092932e-04, -5.24797360e-04, 6.03466178e-05,
          -1.77955764e-04, -7.39071183e-05, -1.75432855e-04,
          1.10947667e-05, 3.47793793e-05, 4.31419940e-05, 7.57702219e-05,
          0., -5.85139605e-06, 1.31906281e-05, 1.93166784e-06, 0., 0.,
          0., 1.38656222e-04, 0., 8.72883538e-06, -3.28544365e-06,
          2.78514257e-04, 0., -3.31527226e-05, -2.23899897e-05,
          1.22198963e-03, 0., -8.05781456e-05, -9.17619400e-05, 0., 0.,
          0., 0., -1.11569265e-04, 0., -2.69107350e-05, 0.,
          -2.69107350e-05, 0., 1.95467743e-04, -2.53898215e-05,
          -9.25916422e-04, 0., -4.42618766e-05, -7.53366339e-06,
          -4.16696366e-06, 0., 0., 0., 1.09522790e-03, -5.66624112e-05,
          -3.55411794e-05, 9.58604869e-05, 1.60846917e-04, 0.,
          -3.63857107e-05, 2.10046332e-04, -1.43444166e-04, 0.,
          -3.70965354e-05, 1.20956092e-05, 0., 0., 0., 0.,
          3.78029472e-05, 0., 0., 0., 0., 0., -2.79096321e-06, 0.,
          -1.40793891e-05, 0., 0., 0., 0., 0., 0., 0., -4.14219267e-06,
          0., 0., 0., 0., 0., 0., 0., 2.58073444e-04, 0., 0.,
          -7.76020897e-05, 0., 0., -2.69107350e-05, 0., -8.53306574e-06,
          0., 0., 0., 0., 0., -1.57256909e-05, 0., -4.16044175e-04, 0.,
          -2.69107350e-05, -2.69107350e-05, 0., 0., 0., 0.,
          -3.03524721e-04, 0., -3.35983168e-05, 0., 0., 0.,
          7.00128021e-06, 0., -1.20092928e-03, 5.92839278e-05,
          -1.02253776e-04, -5.94580371e-04, 9.02754618e-06,
          -1.98712496e-05, -7.76374145e-06, -3.86114290e-04,
          -2.20501533e-05, -1.18185089e-05, 0., 1.15350977e-05,
          2.61979712e-05, 0., 1.41330456e-04, -4.75198787e-04,
          -9.05457819e-06, 0., 0., -5.02174989e-05, 0., 0., 0., 0.,
          7.24032216e-05, 0., 0., -1.28693297e-04, -1.86816524e-05, 0.,
          0., 2.68603599e-05, -2.22844392e-04, -6.69955480e-05, 0.,
          -1.18317461e-04, 0., 0., 0., 0., 0., 1.78561568e-05, 0.,
          -1.47990368e-05, 0., 0., 0., 3.50099945e-05, -6.59480575e-05,
          -1.58159692e-05, 0., 1.56865819e-04, 0., 0., 0., 0.,
          -2.09518403e-04, -2.63419497e-04, -6.12297954e-05,
          4.07346146e-04, 0., 0., 6.66673586e-05, 2.52583297e-04,
          -9.72457929e-05, -6.18269987e-05, -6.49712165e-05,
          -1.00969564e-05, 0., 0., 0., 0., -8.00552880e-06, 0., 0.,
          -3.28544365e-06, 0., 0., -1.00183597e-05, -1.92352763e-05,
          -8.00552880e-06, 0., 0., 0., 0., 0., 0., 0., 0., 0., 0.,
          -2.27231867e-05, 0., 0., 0., 0., 7.04948790e-04,
          -7.30247702e-05, 1.66068552e-04, -2.53204053e-06,
          6.98781287e-06, 0., 7.08902153e-05, -2.54952806e-06,
          -6.97829410e-06, 0., 7.63377247e-05, -1.83492625e-06,
          3.05709400e-05, 0., -1.05954408e-04, -9.34027194e-05,
          -5.61865454e-04, -6.77045318e-05, 0., -4.49338950e-05, 0.,
          1.78561568e-05, 0., 1.78561568e-05, -2.80245353e-04,
          4.05680039e-05, 8.44897659e-05, 4.48713436e-05, 0., 0.,
          -4.01987891e-05, 7.25844948e-05, 1.17671960e-04,
          3.78316763e-04, 7.35962007e-04, 1.36470175e-04, 2.69335487e-05,
          0., 9.15132623e-05, 5.81820859e-05, -1.12075111e-04,
          4.21110162e-05, 2.34992422e-05, 8.47639967e-05, 1.02694656e-04,
          0., -2.53967068e-04, -3.88234512e-05, -1.50523891e-04,
          -2.53898215e-05, 0., -1.12928433e-06, 5.03064766e-05, 0., 0.,
          0., -1.13004574e-03, -1.73998558e-06, 9.19312515e-05,
          2.82699148e-06, 2.30376943e-04, 0., 1.10344532e-04,
          -3.32579730e-05, -8.96994723e-04, 0., -3.31126575e-05,
          -3.49162656e-05, -2.33471819e-05, 0., -4.66553001e-06, 0.,
          -1.13403665e-04, -3.09498250e-06, -3.00553511e-05, 0.,
          1.94337481e-05, 0., 0., 0., 1.58066439e-04, -7.71315354e-06,
          0., -4.04153343e-06, -4.38764910e-05, 0., 0., 0.,
          -6.67470915e-04, 5.20581452e-05, -4.29670472e-05,
          -8.34989623e-05, 1.94250635e-04, 0., -6.72357201e-05,
          -4.04153343e-06, -5.22459122e-05, 3.11959047e-05, 0.,
          1.39697104e-05, 4.98601275e-06, 0., 0., 0., -3.82872386e-05,
          0., 0., 0., -2.95709688e-05, 0., 0., 0., 0., 0., 0., 0., 0.,
          0., 0., 0., -4.66553001e-06, 0., 0., 0., 0., 0., 0., 0.,
          1.24984763e-05, 0., 0., 0., 0., 0., 0., 0., -2.57251577e-06,
          0., -8.00552880e-06, 0., 0., 0., 0., 0., -8.55824255e-05, 0.,
          0., 0., 0., 0., 0., 0., -2.21051145e-04, 0., 0., 0., 0., 0.,
          0., 0., 5.59671549e-04, -3.04791320e-04, -4.79147457e-05,
          -6.88885455e-04, 1.42497420e-05, 4.71318126e-05,
          -1.89854418e-05, 1.45697675e-04, 1.89069571e-04,
          4.11680339e-05, -9.43978193e-07, 1.73583278e-04,
          3.82416001e-05, 0., -6.40072685e-05, -2.94555903e-05, 0., 0.,
          -3.09498250e-06, 1.93166784e-06, 0., 0., 0., 0.,
          5.94059384e-05, -3.98950760e-06, 2.01011371e-05,
          1.48245977e-04, -1.18317994e-05, 0., -1.21724925e-05,
          -1.62189735e-05, -1.03985913e-05, -1.59216506e-05, 0.,
          7.76327215e-05, 0., 0., 0., -8.00552880e-06, 0., 0.,
          2.01011371e-05, 0., 1.78561568e-05, 0., 0., 0.,
          -8.87206843e-05, 4.59423291e-07, 0., -5.11076632e-06, 0., 0.,
          0., 0., -2.90252356e-05, 1.80350580e-05, -5.12554579e-05,
          3.24694760e-04, 6.79656878e-05, 9.02754618e-06,
          -4.04153343e-06, -6.82974060e-05, 1.37497846e-04,
          5.18329500e-04, 0., 2.98883650e-04, 0., 0., -4.04153343e-06,
          -8.33392733e-06, 1.10947667e-05, 0., 0., 9.02754618e-06,
          -1.47854844e-05, 0., 0., 0., 0., 0., 0., 0., 0., 0., 0., 0.,
          0., 1.21507810e-05, 0., 0., 4.09834574e-05, 0., 0., 0.,
          -1.06176849e-05, -1.82021868e-05, 1.10947667e-05,
          4.86058207e-06, 0., 0., 0., -4.04153343e-06, 2.23018051e-05,
          0., 0., 0., 0., 0., 0., 0., 0., 9.02754618e-06, 0., 0., 0., 0.,
          0., 0., 6.93618404e-07, -3.71740753e-05, 0., 9.05372690e-06,
          0., 0., 0., 0., -1.35555514e-03, -3.63182800e-04,
          -2.54783343e-04, -1.35306182e-04, -1.67049839e-05, 0.,
          8.20993773e-06, -5.99451523e-05, 8.09783989e-04, 0.,
          -2.46338077e-05, -1.64311732e-05, 1.25594946e-04, 0.,
          -1.74942921e-04, 2.71283661e-05, 5.83184185e-04, 0., 0., 0.,
          4.86058207e-06, 0., 0., 0., -8.22353395e-05, 0.,
          1.00495636e-05, -4.04153343e-06, 3.24069377e-04, 0.,
          -5.37248161e-05, 2.25047847e-06, 9.48300876e-04, 0., 0.,
          -4.66553001e-06, 1.21507810e-05, 0., 0., 0., 1.71810934e-05,
          0., 0., 0., 0., 0., -1.15767734e-05, -3.28544365e-06,
          5.21535811e-04, 0., 0., 0., -1.99930546e-05, 0., 0., 0.,
          -1.49222134e-04, -8.74947909e-06, -6.11024952e-05,
          -8.30268109e-05, 3.35552002e-04, 0., 6.71325106e-05,
          -4.93902116e-05, -1.23017351e-04, 1.32365187e-06,
          9.02754618e-06, -1.47599540e-05, 0., 0., 0., 0.,
          -8.00552880e-06, 0., 0., 0., 0., 0., -2.84572366e-06, 0., 0.,
          0., 0., 0., 0., 0., 0., 0., 2.01011371e-05, 0., 0., 0., 0., 0.,
          0., 0., -8.41697401e-05, 2.01011371e-05, -4.16696366e-06, 0.,
          0., 0., 0., 0., 6.23107262e-05, 0., -4.48399587e-05, 0., 0.,
          0., 1.69817467e-05, 0., 1.40069160e-05, 0., 0., 0., 0., 0., 0.,
          0., 2.02221621e-04, 1.78561568e-05, 0., 0., -8.00552880e-06,
          0., -3.94508834e-06, 1.10947667e-05, -5.20591042e-04,
          -3.73653660e-04, -2.94009864e-04, -2.63163733e-04,
          2.01011371e-05, 0., -1.19307051e-05, -5.15078791e-05,
          9.73559654e-05, 3.27080052e-05, 0., 5.13147643e-05,
          -3.69071745e-06, 0., 1.78191258e-05, 1.89113911e-04,
          2.01011371e-05, 0., 0., 5.66863309e-05, 9.32301919e-06, 0., 0.,
          0., 2.30397363e-05, 0., 0., 1.51471235e-04, 5.87299098e-08, 0.,
          0., 5.20959875e-05, -1.01633768e-05, -7.72243857e-06,
          -4.04153343e-06, 1.06499989e-04, 0., 0., 0., 0., 0.,
          -3.09498250e-06, 0., 6.91773748e-05, 0., 0., -1.86816524e-05,
          -7.15554097e-06, -3.12412158e-05, 1.93166784e-06, 0.,
          -1.35914059e-04, 0., 0., 0., -1.18020462e-05, 1.77804322e-04,
          1.55141825e-04, -8.90639567e-05, -2.93843244e-04,
          -8.00552880e-06, 0., -5.97318467e-05, -1.03052924e-04,
          -4.13329544e-05, 3.14117817e-04, 0., 3.95229523e-04, 0., 0.,
          0., -2.69107350e-05, -4.82526229e-05, 6.10845964e-05, 0., 0.,
          -1.86816524e-05, 0., -5.43649330e-05, -8.74297839e-05, 0., 0.,
          0., 0., 0., 0., 0., 0., 0., 0., 0., 0., 0., 0., 0.,
          4.09834574e-05, 4.44698118e-04, -9.56659860e-05,
          -1.62012264e-04, -1.87474972e-04, -2.00679028e-06, 0.,
          -4.48399587e-05, -2.73562298e-04, 6.82569153e-05, 0.,
          -2.90910084e-05, -9.56395888e-06, 1.68471506e-05, 0.,
          1.68160313e-05, 1.32909836e-05, -1.01500824e-04,
          -2.00424074e-05, 0., -1.49728237e-06, 0., 0., 0., 0.,
          -1.42291159e-04, -8.41036599e-05, 9.53687195e-05,
          -1.52282839e-04, 1.65535210e-04, 0., 3.81562313e-05,
          3.70860616e-05, -4.10041917e-04, 8.54227255e-05,
          -6.48693240e-04, -1.00848039e-04, 6.30305658e-05, 0.,
          8.97257778e-05, -2.78184925e-05, 6.51386625e-04, 0.,
          8.21855065e-05, 4.55666886e-05, 4.63459321e-04, 0.,
          2.15272259e-04, 0., 5.49121578e-05, 0., 4.09834574e-05, 0., 0.,
          0., 0., 0., -1.12900561e-04, 0., -2.00424074e-05,
          -7.71315354e-06, 1.31248948e-04, 0., 4.73409527e-05,
          5.77174724e-05, -6.77973367e-05, 0., -3.73633047e-05, 0., 0.,
          0., 0., 0., -9.41250473e-05, 0., 0., 0., 0., 0., 0., 0.,
          -1.53669040e-04, 0., 0., 0., 0., 0., 0., 0., -1.75865644e-04,
          0., -7.71315354e-06, 0., 1.26566802e-05, 0., 0., 0.,
          1.08740984e-04, 0., 0., 0., 0., 0., 0., 0., 0., 0., 0., 0.,
          1.97665831e-05, 0., 0., 0., 0., 0., 0., 0., 0., 0., 0., 0., 0.,
          0., 0., 0., 0., 0., 0., 0., 4.96150133e-05, 0., 0., 0., 0., 0.,
          0., 0., 0., 0., 0., 0., 0., 0., 0., 0., 1.39052892e-04, 0., 0.,
          0., 0., 0., 0., 0., 3.01727850e-05, 0., 0., 0., 0., 0., 0., 0.,
          -3.85941705e-04, -1.73235472e-04, -4.75031084e-05,
          -5.30189891e-06, 0., 0., 0., 3.54527110e-05, -7.71315354e-06,
          0., 0., 0., 0., 0., -4.00848148e-05, 0., 0., 0., 0., 0., 0.,
          0., 0., 0., 0., 0., 0., 0., 0., 0., 0., 0., 2.02420724e-05, 0.,
          0., -1.01139785e-05, 0., 0., 0., 0., 1.97665831e-05, 0., 0.,
          0., 0., 0., 0., 0., 0., 0., 0., 0., 0., 0., 0., 0., 0., 0., 0.,
          0., 0., 0., 0., 0., 1.61331380e-04, -3.20215368e-05,
          -7.71315354e-06, -5.85139605e-06, 0., 0., 0., -2.00424074e-05,
          0., 0., 0., 0., 0., 0., 0., 0., 0., 0., 0., 0., 0., 0., 0., 0.,
          0., 0., 0., 0., 0., 0., 0., 0., -1.15048766e-04,
          -1.98377529e-05, 0., 0., 0., 0., 0., 0., 0., 0., 0., 0., 0.,
          0., 4.09834574e-05, 0., 4.80258823e-05, -2.00424074e-05, 0.,
          0., 4.09834574e-05, 0., 0., 0., 0., 0., 0., 0., 0., 0., 0., 0.,
          -6.09421055e-04, 2.59843364e-05, -9.52017217e-05,
          -1.48805644e-04, 9.35596545e-05, 0., -5.87413924e-05,
          5.13193481e-06, -3.38081270e-04, 0., -8.42741792e-05,
          1.04062019e-05, -3.94578055e-05, 0., 1.86422349e-05,
          2.70415272e-04, -4.32795387e-05, 0., 0., 0., 0., 0., 0., 0.,
          -1.07429223e-04, 0., 0., 0., -1.77315123e-05, 0.,
          -4.40714139e-05, 0., -3.54809075e-04, 0., -1.62462184e-05, 0.,
          0., 0., 0., 0., -2.56048515e-05, 0., 0., 0., -7.71315354e-06,
          0., 2.02458177e-05, 0., -1.19065480e-04, 0., 0., 0., 0., 0.,
          -7.71315354e-06, 0., 3.27108457e-04, -1.51451759e-05,
          -1.67883831e-04, 9.35162916e-06, -5.12836232e-05, 0.,
          5.81510649e-05, -1.47231121e-05, 1.10131885e-04, 0., 0., 0.,
          0., 0., 0., 0., 0., 0., 0., 0., 0., 0., -1.47854844e-05, 0.,
          0., 0., 0., 0., 0., 0., 0., 0., 0., 0., 0., 0., 0., 0., 0., 0.,
          1.51520599e-05, 0., 4.09834574e-05, 0., 0., 0., 0., 0., 0., 0.,
          0., 0., 0., 0., 0., 0., 0., 0., 0., 0., 0., 0., 0., 0.,
          2.35178359e-05, 0., 0., 0., 0., 0., 0., 0., 1.12264242e-03,
          3.72022296e-05, -1.74665765e-05, -2.36518550e-04, 0., 0., 0.,
          4.37100862e-05, 0., 0., 0., 1.33453796e-04, 0., 0.,
          -4.49459440e-05, -8.26867326e-05, 0., 0., 0., -7.45648094e-06,
          0., 0., 0., 0., 0., 0., 0., -1.46363527e-05, 0., 0., 0.,
          -6.21284562e-06, -3.52297175e-05, -7.71315354e-06,
          -7.71315354e-06, -1.03384627e-04, 0., 0., 0., 0., 0., 0., 0.,
          5.75238300e-06, 0., 0., 0., 0., 0., 0., 0., 2.49503737e-05, 0.,
          0., 0., 0., -6.37340272e-05, -3.07508599e-05, 2.23018051e-05,
          -6.81240781e-05, 0., 0., 1.88611523e-06, -3.20810723e-05,
          3.04795452e-04, 1.27549312e-04, 0., 1.56213591e-05, 0., 0., 0.,
          0., 0., 0., 0., 0., 0., 0., 1.97665831e-05, 0., 0., 0., 0., 0.,
          0., 0., 0., 0., 0., 0., 0., 0., 0., 0., 0., 0., 1.77886963e-04,
          -1.19091259e-04, -2.28610406e-05, 5.22141127e-05,
          5.74802434e-05, 0., 0., -4.43752615e-05, 3.94022682e-05, 0.,
          -4.33298646e-06, -1.62462184e-05, 0., 0., 0., 3.37362944e-05,
          7.27458464e-05, 0., 0., 3.14339086e-05, 0., 0., 0., 0.,
          -4.47299572e-05, -2.22639537e-05, -1.49750995e-05,
          -1.27719950e-05, 4.55666886e-05, 4.09834574e-05, 0.,
          1.90630772e-06, 3.60457314e-04, -2.41273825e-04,
          1.59280491e-03, -2.78524560e-04, 2.20453498e-04, 0.,
          -4.33612768e-05, 4.61995933e-06, -1.22224784e-03,
          -1.80709285e-05, 2.57102547e-05, 0., -8.84756562e-04, 0.,
          -1.98844937e-03, -7.04094646e-06, 3.34893208e-04,
          -1.09985967e-05, 0., 0., -1.89854418e-05, 0., 0., 0.,
          -9.32009425e-04, 0., -5.67200732e-05, 0., -3.40197497e-04, 0.,
          1.08322849e-04, -5.85139605e-06, 3.87685519e-04,
          -1.47854844e-05, 1.78176662e-04, -1.86816524e-05, 0., 0.,
          4.74983572e-05, -3.17963422e-05, 1.04895669e-04, 0.,
          -2.33471819e-05, 0., -1.70947660e-05, 0., -1.55659145e-04, 0.,
          2.90914468e-04, -6.50679140e-05, -5.04779928e-05, 0.,
          -9.65410618e-06, 0., 1.93166784e-06, 0., -1.40823633e-03,
          -4.16696366e-06, 3.90663045e-05, 0., -1.95279077e-04, 0.,
          -5.06730248e-05, 0., 9.18233185e-04, 0., 2.01011371e-05, 0.,
          4.31993030e-05, 0., 0., 0., -1.47854844e-05, 0., 0., 0.,
          -6.96118732e-05, 0., -7.26194639e-06, 0., -1.86816524e-05, 0.,
          0., 0., 0., 0., 0., 0., 0., 0., 0., 0., 0., 0., 0., 0.,
          8.96323647e-04, 0., 1.03046936e-04, 0., 1.93166784e-06, 0.,
          -4.48399587e-05, 0., 7.16907962e-05, 0., 0., 0.,
          1.45517888e-05, 0., 1.79618528e-05, 0., 1.51907079e-04, 0., 0.,
          0., 0., 0., 0., 0., 5.66919916e-04, 0., -1.86816524e-05, 0.,
          5.20708381e-05, 0., -5.24712523e-05, 0., -3.38654558e-04,
          -7.45806261e-04, 2.87224702e-05, -2.30125457e-04, 0., 0.,
          3.56899473e-05, -1.30881726e-05, -5.49890065e-05,
          -3.78695404e-05, 0., 0., -1.33874919e-05, -4.16696366e-06,
          -1.04992010e-04, -4.60235497e-05, 5.75238300e-06, 0., 0., 0.,
          0., 0., 0., 0., -3.12798875e-05, 0., 0., 0., -2.07376397e-05,
          0., -5.95215533e-06, 0., 1.38931457e-04, 2.01011371e-05,
          5.74802434e-05, 0., -5.95215533e-06, 0., 0., 0.,
          3.63179279e-05, -2.00424074e-05, 0., 0., 0., 0., 0.,
          -4.16696366e-06, -2.71581903e-05, -3.17963422e-05, 0., 0., 0.,
          0., 0., 0., -9.27290330e-06, 0., 0., -2.02279571e-05,
          -1.47854844e-05, 0., 0., 0., 4.68563259e-04, -5.24888630e-04,
          -1.37382476e-05, -1.40095508e-04, -2.00424074e-05, 0.,
          -5.20866233e-05, 1.47150722e-05, -6.06655376e-05,
          -5.95215533e-06, 0., 0., -1.47854844e-05, -7.71315354e-06,
          1.30342989e-04, -1.42840399e-05, -3.64234111e-05, 0., 0., 0.,
          0., 0., 0., 0., 2.10568342e-05, 0., 0., 0., 0., 0., 0., 0.,
          3.12337652e-03, -8.91788659e-05, 8.83317553e-05,
          2.49426339e-05, 5.74802434e-05, 0., 2.37518225e-06,
          2.74194772e-05, -1.76422545e-04, -1.47854844e-05, 0., 0.,
          -5.67433881e-06, 0., -3.82021462e-05, -8.33392733e-06,
          5.25825599e-04, -5.85139605e-06, 5.74802434e-05, 0., 0., 0.,
          0., 0., -8.32203732e-05, -7.71315354e-06, 0., 0., 0., 0., 0.,
          0., 3.68996360e-03, 8.53325764e-05, -7.70020270e-05,
          -5.84149268e-04, 2.22830990e-04, 4.55666886e-05,
          3.98163480e-04, 5.44157578e-04, -6.18147606e-04, 0.,
          1.80951931e-04, 0., 7.97027678e-05, 0., 9.48005763e-04,
          6.82024460e-04, 2.38094890e-05, 0., 4.55666886e-05, 0.,
          -7.71315354e-06, 0., -3.09498250e-06, 0., -4.21248493e-04, 0.,
          0., 0., -4.56819718e-04, 0., -1.68539031e-04, 0.,
          1.48177217e-03, 0., 9.02754618e-06, 0., -3.09498250e-06, 0.,
          0., 0., -4.32311390e-05, 0., -4.16696366e-06, 0.,
          1.28697007e-04, 0., 1.79436262e-04, 0., 1.59159135e-05, 0., 0.,
          0., 0., 0., 0., 0., -6.64519321e-04, 6.65824264e-05,
          -5.01265495e-05, 9.53569997e-06, -2.34878040e-04, 0.,
          1.18274751e-04, 1.03604043e-06, 5.88737857e-05, 0., 0., 0., 0.,
          0., -5.85139605e-06, 0., 0., 0., 0., 0., 0., 0.,
          9.84637009e-05, 0., 0., 0., 0., 0., 0., 0., 0., 0.,
          4.55666886e-05, 0., 0., 0., 0., 0., 0., 0., 1.34302286e-06,
          4.09834574e-05, 1.14960487e-04, 0., 0., 0., 4.97670917e-05, 0.,
          -2.93647954e-05, 0., 0., 0., -5.95215533e-06, 0.,
          3.02305620e-04, 5.74802434e-05, 8.27109307e-06, 0., 0., 0., 0.,
          0., 0., 0., -5.94800258e-05, 1.90630772e-06, 0., 0.,
          -1.42860827e-05, 0., 1.72925036e-04, 4.55666886e-05,
          -1.90525397e-03, -1.07313809e-03, -1.49229949e-04,
          -1.88641687e-04, 0., 0., 4.04141138e-05, -1.54998706e-05,
          4.09834574e-05, 0., 0., 5.87530267e-05, -4.22748053e-05, 0.,
          1.14666254e-04, -1.44628575e-04, -5.95215533e-06, 0., 0.,
          7.64894939e-05, 0., 0., 0., 5.74802434e-05, 0., 0., 0.,
          2.22115395e-05, 0., 0., 0., 2.43482689e-04, -3.39073085e-05,
          0., 0., 5.65238406e-05, 0., 0., 0., 0., -4.48399587e-05, 0.,
          0., -5.47089003e-05, 0., 0., 5.20782232e-05, 3.36817684e-05,
          0., 0., 0., 8.49779462e-05, 0., 0., 0., 0., -9.09457012e-05,
          -2.50921767e-05, 2.55800751e-05, -2.05359727e-04, 0., 0.,
          7.35398498e-05, 9.15337114e-06, -7.00011034e-04,
          -3.57203360e-04, -8.91317686e-05, -5.41486952e-04, 0., 0.,
          -4.16696366e-06, 4.09834574e-05, -3.09498250e-06, 0., 0., 0.,
          0., 0., 2.45325413e-04, 8.31675789e-05, 0., 0., 0.,
          1.37703491e-05, 0., 0., 0., 0., 0., 0., 0., 0., 0., 0., 0., 0.,
          -1.98212406e-03, 1.46480495e-04, -3.07611015e-04,
          -4.77892871e-04, -3.56448327e-05, 0., -2.55706927e-05,
          -1.30426979e-05, -2.87833478e-04, 9.11114603e-06,
          1.21507810e-05, -8.78997962e-05, -2.00333903e-04, 0.,
          1.58320158e-03, 5.36894295e-05, -2.68641073e-04, 0., 0.,
          -8.34637322e-05, 0., 0., 0., 0., -9.35725111e-05,
          -8.55608669e-05, 3.12126213e-06, -3.46014385e-05,
          -6.93806433e-05, 0., -2.26056491e-05, 6.62286984e-05,
          -2.90605170e-03, -1.15715711e-05, 8.96318408e-04,
          -5.14049432e-04, 3.93282564e-04, 0., 5.48817567e-04,
          -9.96273477e-04, 6.01912674e-04, 0., -1.99376009e-05,
          9.79140532e-05, -5.34029910e-04, 0., -1.70031085e-03,
          2.12582236e-04, 4.74966764e-05, -1.86816524e-05,
          -3.90992864e-05, 0., 0., 0., 0., 0., 5.56235085e-04,
          -2.35133994e-05, 3.46316265e-05, -4.48399587e-05,
          4.19408898e-04, 0., -7.58539172e-05, -4.16696366e-06,
          5.10467624e-04, 0., 6.80074663e-05, -4.48399587e-05,
          -4.16696366e-06, 0., 4.09834574e-05, 0., 2.23600480e-04, 0.,
          -5.73749639e-05, 0., 2.56955173e-05, 0., -3.37273414e-05, 0.,
          6.33497490e-04, 2.25047847e-06, 2.25047847e-06, 0., 0., 0.,
          -4.16696366e-06, 0., 3.10648652e-03, 0., 7.04365902e-06,
          2.25047847e-06, 4.41913115e-04, 0., 1.12787042e-04,
          -1.01139785e-05, -1.06756443e-05, 0., -5.85139605e-06, 0.,
          -1.55698057e-04, 0., 5.74802434e-05, 0., 0., 0., 0., 0.,
          -1.40562834e-05, 0., 0., 0., 0., 0., 0., 0., 0., 0., 0., 0.,
          0., 0., 0., 0., 0., 0., 0., 0., -3.34556389e-04, 0.,
          5.97307226e-05, 0., 1.20896675e-05, 0., 9.02754618e-06, 0.,
          2.79873584e-05, 0., 0., 0., -1.89834798e-04, 0.,
          -8.76323029e-05, 0., 6.21739542e-04, 0., 0., 0., 0., 0., 0.,
          0., 4.93306317e-04, 0., 0., 0., 1.18544813e-04, 0., 0., 0.,
          2.97698454e-04, -1.02437648e-03, 2.78267398e-05,
          -4.31531407e-05, 0., 0., -8.63371242e-05, -1.90133927e-04,
          -9.28892259e-05, -3.70167663e-06, -1.86816524e-05, 0., 0., 0.,
          3.10743373e-04, 1.47986808e-04, 0., -1.47854844e-05, 0., 0.,
          0., 0., 0., 0., 0., -4.48399587e-05, 0., 0., 0., 0., 0., 0.,
          5.19719179e-05, 4.09834574e-05, 0., -1.68891820e-05, 0., 0.,
          0., 0., -4.48399587e-05, 0., 0., 0., 0., 0., 0., 0.,
          -4.49806157e-06, 0., 0., 0., 0., 0., 0., 0., -5.67442694e-05,
          -5.95215533e-06, 0., 0., 0., 0., -4.16696366e-06, 0.,
          5.50785189e-05, -5.53320802e-04, -1.30537373e-04,
          -8.41037399e-05, 0., 0., 1.68528844e-04, 4.46890299e-05,
          -3.64234111e-05, 0., 0., 0., 0., 0., 4.17540796e-05,
          4.34239591e-05, 0., 0., 0., 0., 0., 0., 0., 0., 0., 0., 0., 0.,
          0., 0., 0., 0., -1.32512825e-03, 4.75368834e-05,
          3.88458830e-06, 3.87842476e-07, -3.28544365e-06, 0.,
          -8.36610925e-05, 0., 5.75238300e-06, 0., 4.09834574e-05, 0.,
          -6.82197497e-05, 0., -2.45319126e-04, 4.10530265e-05,
          2.30201593e-04, 0., 0., 0., 0., 0., 0., 0., 2.96930484e-05, 0.,
          0., 0., 8.30783247e-05, 0., -7.59329050e-05, 0.,
          -3.74078401e-03, 5.42569724e-05, 5.07819117e-04,
          2.26014221e-04, -8.07055767e-05, 2.25047847e-06,
          2.71487574e-04, 2.20713191e-04, 3.30664305e-04, 0.,
          5.75672711e-05, 0., 3.19469691e-04, 0., -1.13643822e-03,
          3.08964809e-04, -1.48317646e-04, 0., 0., 0., -4.66553001e-06,
          0., 5.74802434e-05, 0., -4.52861364e-04, 0., 0., 0.,
          -2.79841421e-04, 0., -1.44375168e-04, 0., 1.83249518e-04,
          -8.70706299e-06, -1.01139785e-05, -2.02279571e-05, 0., 0.,
          -3.64234111e-05, 0., 2.98476836e-04, 0., 4.55666886e-05, 0.,
          2.42561262e-04, 0., 1.07887980e-04, 0., 3.55324562e-04, 0., 0.,
          0., 0., 0., 0., 0., 3.52392613e-04, 1.10089049e-05,
          -4.11269866e-05, 2.05604418e-04, -1.47116385e-04, 0.,
          -2.25199634e-04, -7.13973131e-05, -7.58972310e-05, 0., 0., 0.,
          0., 0., 0., 0., -5.85139605e-06, 0., 0., 0., 0., 0.,
          -8.42069221e-06, 0., 0., 0., 0., 0., 0., 0., 0., 0., 0., 0.,
          0., 0., 0., 0., 0., 0., 3.81412479e-04, 0., 5.74802434e-05, 0.,
          0., 0., 0., 0., 5.18972847e-05, 0., 5.74802434e-05, 0.,
          1.14960487e-04, 0., -2.46044656e-04, 0., -6.43382140e-04, 0.,
          0., 0., 0., 0., 0., 0., -5.69750264e-04, 0., -3.28544365e-06,
          0., -1.59982701e-05, 0., -2.48155357e-05, 0., 5.37076558e-04,
          1.23751321e-04, 1.61826450e-04, 3.83315887e-03, 0., 0.,
          -9.17157558e-06, 5.43591683e-04, -7.86349938e-06, 0., 0.,
          -1.06601467e-04, -5.12088955e-05, 0., -1.34248185e-05,
          6.22842272e-05, 0., 0., 0., -7.58906681e-05, 0., 0., 0., 0.,
          0., 0., 0., 1.81840267e-04, 0., 0., 0., -2.11752864e-04,
          7.70884362e-05, 0., -3.09498250e-06, -1.54034526e-04, 0., 0.,
          0., 0., -4.66553001e-06, 0., 0., -4.47613411e-06, 0., 0.,
          -1.88270187e-05, -5.97123544e-05, 0., 0., 0., 1.84097196e-04,
          0., 0., 0., 0., -1.11597234e-04, 5.88804978e-05,
          -1.50633023e-05, -4.40184347e-04, 0., 0., -7.84268013e-06,
          -8.41468791e-05, -2.88217532e-04, 9.02921165e-05,
          4.41746233e-05, 7.86786317e-04, 0., 0., 0., 1.06965654e-05, 0.,
          0., 0., 0., 5.74802434e-05, 0., -1.76002010e-04,
          7.43530618e-05, 0., 0., 0., 0., 0., 0., 0., 0., 0., 0., 0., 0.,
          0., 0., 0., 0., -1.16917433e-03, 1.18924181e-04,
          1.03602477e-04, -2.13501335e-06, -3.17963422e-05, 0.,
          1.77506499e-05, 3.10115312e-04, 5.69865406e-05, 0.,
          -3.10776995e-05, -1.80349548e-06, -1.80381339e-05, 0.,
          -6.42002269e-04, -1.96249326e-04, -3.92183458e-04,
          2.25047847e-06, 0., 1.25278020e-05, 0., 0., -1.40562834e-05,
          0., 4.06092819e-04, -1.19959832e-05, 1.90630772e-06,
          -5.26334334e-05, 5.27357843e-05, 0., -1.01510203e-04,
          -8.20806526e-05, 3.20301671e-03, 3.08127375e-04,
          9.59811878e-05, -5.03988646e-04, 7.46904843e-05, 0.,
          4.07211890e-04, -2.79688302e-05, -4.08063905e-04,
          -2.95709688e-05, 2.26959510e-05, 5.61991055e-06,
          6.45577820e-05, 2.10568342e-05, -3.19253566e-04,
          -3.05237481e-04, 1.93961532e-04, 0., 0., 1.04062019e-05, 0.,
          0., 0., 0., -2.25029638e-04, 0., -5.27563679e-05,
          1.04062019e-05, 4.75888519e-04, 0., 1.58085852e-04,
          -5.49539363e-05, -2.37392975e-04, -1.03496518e-06,
          -9.53850395e-05, -4.25410472e-05, -1.88270187e-05, 0.,
          -2.26065617e-06, 0., -9.43684208e-05, 0., -4.04153343e-06, 0.,
          -8.67530835e-05, 0., -6.82869650e-05, -1.01139785e-05,
          -4.39190888e-04, 0., 3.70523157e-05, 0., -4.04153343e-06, 0.,
          4.89471786e-05, 0., -2.59619410e-04, 0., -1.81970445e-05,
          -2.40839418e-05, 8.39989807e-04, 0., -1.34459275e-04, 0.,
          4.43004799e-04, 0., 0., -5.85139605e-06, 0., 0., 0., 0.,
          4.78171678e-05, 0., 0., 0., 4.55666886e-05, 0., 0., 0., 0., 0.,
          0., 0., 0., 0., 0., 0., 0., 0., 0., 0., 0., 0., 0., 0.,
          -7.40246440e-04, 0., 9.45909123e-05, 0., -6.10418356e-05, 0.,
          -1.86470443e-05, 0., 7.17756666e-06, 0., -4.04153343e-06, 0.,
          -9.74952927e-05, 0., -9.36706128e-05, -1.62462184e-05,
          -5.51905425e-04, 0., -1.01139785e-05, 2.25047847e-06, 0., 0.,
          0., 0., -3.36498953e-04, 2.25047847e-06, -1.89854418e-05, 0.,
          -4.17890951e-05, 0., -2.21776336e-05, 0., 4.50946158e-04,
          -6.09243580e-05, 9.67562373e-05, 5.75104932e-05,
          -7.71315354e-06, 0., -4.20286460e-06, -6.01555730e-05,
          -6.62904058e-05, -3.59633050e-05, 1.04062019e-05,
          -3.17963422e-05, 0., 0., 3.36188386e-04, 1.77206421e-05,
          -2.07015746e-05, 0., 0., 0., 0., 0., 0., 0., 0., 0., 0., 0.,
          1.93166784e-06, 0., -4.16696366e-06, 0., 7.13386471e-05,
          -1.60661330e-05, 0., -3.33685821e-05, 0., 0., 0.,
          -7.71315354e-06, -7.13651616e-06, 0., 0., 0., 0., 0., 0., 0.,
          3.38161385e-06, -3.70167663e-06, 0., 2.25047847e-06, 0., 0.,
          0., 0., -3.33308526e-05, 0., -4.16696366e-06, 6.75143519e-06,
          0., 0., 0., 0., 1.45775979e-04, 3.44528926e-05, 2.90691896e-05,
          -1.20349905e-04, 0., 0., 1.40435222e-04, -3.09498250e-06,
          3.97852054e-05, 0., -4.48399587e-05, 0., 0., 0.,
          -1.13437192e-04, -4.16696366e-06, 0., 0., 5.74802434e-05, 0.,
          0., 0., 0., 0., 1.93166784e-06, 0., 0., 0., 0., 0., 0., 0.,
          -1.67922047e-03, 1.43586527e-04, -2.51773366e-04,
          -1.22500305e-05, -3.09498250e-06, 0., -7.61200863e-05,
          -4.16696366e-06, 9.30619208e-05, 0., 0., 2.13272669e-05,
          -1.85212884e-05, 0., -3.66314605e-04, 4.49793515e-05,
          1.68696090e-04, -8.08306686e-06, -2.00424074e-05, 0., 0., 0.,
          -1.62462184e-05, 0., -6.43610329e-05, -1.91648542e-06, 0., 0.,
          1.10685636e-04, 0., -1.52725934e-05, 0., 4.18153405e-03,
          3.47062742e-05, -1.45491178e-03, -5.30410325e-04,
          1.89583880e-04, -1.70661315e-05, -9.48413566e-04,
          -2.83658475e-04, 8.68004747e-04, 0., 3.71783426e-05,
          -2.06368804e-05, 1.20245655e-04, 0., -1.14479032e-03,
          7.15513670e-05, 2.47866614e-04, 0., 4.55666886e-05, 0., 0., 0.,
          0., 0., 2.43553804e-04, 0., 0., 0., -1.67394246e-05, 0.,
          -4.06387582e-04, -1.34938464e-05, 1.77360896e-04,
          -1.47854844e-05, 5.43852620e-05, 0., -1.86816524e-05, 0.,
          -3.28544365e-06, 0., 4.84058255e-05, 0., 0., 0.,
          9.71955378e-05, 0., -1.72986533e-04, 0., 3.16664555e-05, 0.,
          -4.04153343e-06, 0., 0., 0., 0., 0., -6.08244212e-04,
          -9.37264304e-06, -1.23603731e-05, -1.26126281e-04,
          9.79732649e-05, 0., -6.15941244e-05, 3.23957829e-05,
          4.57684546e-05, 0., 0., 0., 0., 0., 0., 0., 0., 0., 0., 0., 0.,
          0., -5.99833584e-05, 0., 0., 0., 0., 0., 0., 0., 0., 0., 0.,
          0., 0., 0., 0., 0., 0., 0., 4.26580169e-04, 0.,
          -3.97088515e-05, 0., -4.04153343e-06, 0., 0., 0.,
          -4.42517776e-05, 0., 0., 0., 5.33132807e-05, 0.,
          -1.49767991e-04, 0., -2.52289668e-04, 0., 0., 0., 0., 0., 0.,
          0., -8.88651557e-05, 0., 9.02754618e-06, 0., -5.18387496e-05,
          0., 1.06580505e-04, 0., 4.34794725e-04, 2.62531219e-04,
          4.70052364e-05, -1.63102231e-04, 0., -4.04153343e-06,
          -1.08081358e-05, -3.34471086e-04, 0., 0., 0., -3.93001574e-06,
          2.10568342e-05, 0., -3.50870541e-04, -6.18049875e-04, 0., 0.,
          0., 1.80560266e-04, 0., 0., 0., 2.25047847e-06, 0., 0., 0.,
          2.90437456e-05, 0., 0., 0., 2.60241475e-04, 5.67575917e-05, 0.,
          0., -8.99490551e-05, 0., 0., 0., 0., 0., 0., 0.,
          5.82456050e-05, 0., 0., -9.03310138e-06, -1.47716873e-05, 0.,
          0., 0., 6.15463141e-05, 0., 0., 0., 0., -1.82329837e-04,
          -5.31358273e-05, -6.78061269e-06, -1.01356462e-04, 0., 0.,
          1.10826652e-04, -6.06746653e-05, 1.10042412e-04,
          5.81701170e-04, 1.18878561e-05, 5.86506911e-04, 0., 0.,
          -3.09498250e-06, 4.58882569e-05, -7.71315354e-06, 0., 0., 0.,
          0., 0., -2.09482998e-04, -1.51187036e-04, 0., 0., 0., 0., 0.,
          0., 0., 0., 0., 0., 0., -4.04153343e-06, 0., 0.,
          5.74802434e-05, 0., -1.70549983e-03, 9.29819726e-05,
          -4.38371580e-06, 3.34471333e-05, 4.32339366e-05, 0.,
          6.09099443e-05, 1.66990299e-04, 2.11779727e-04, 0.,
          -1.29410246e-05, -9.61496189e-05, -5.13706873e-05, 0.,
          5.39458197e-05, -7.16240947e-06, -5.10705344e-04, 0., 0.,
          1.64249665e-04, 5.74802434e-05, 0., -3.64234111e-05, 0.,
          2.73793819e-04, -4.35166185e-05, -8.70706299e-06,
          -2.27214186e-04, 5.34838291e-05, 0., 1.66575497e-04,
          1.23948834e-04, -9.33004892e-04, -7.40482574e-05,
          1.42102635e-05, -7.38436938e-05, 1.42373727e-04, 0.,
          1.46302729e-04, -1.06124207e-05, 7.16872601e-05, 0.,
          -4.58526229e-05, 0., 6.90158631e-05, 0., 9.32508497e-04,
          4.27378254e-05, 2.25462300e-05, -8.08306686e-06, 0., 0., 0.,
          0., 0., -3.28544365e-06, -3.69629197e-05, 1.04062019e-05, 0.,
          0., 0., 0., -4.63398137e-05, 0., -6.64249601e-05,
          -3.28544365e-06, 0., 0., 0., 0., 0., 0., 0., 0., 0., 0., 0.,
          0., 0., 0., -4.31789449e-05, 0., 0., 0., 0., 0., 0., 0., 0.,
          0., 0., 0., 0., 0., 0., 0., -2.38460689e-05, 0., 0., 0., 0.,
          0., 0., 0., 0., 0., 0., 0., 0., 0., 0., 0., 0., 0., 0., 0., 0.,
          0., 0., 0., 0., 0., 0., 0., 0., 0., 0., 0., -8.92566914e-06,
          0., 0., 0., 0., 0., 0., 0., 0., 0., 0., 0., 0., 0., 0., 0.,
          -7.32697708e-06, 0., 0., 0., 0., 0., 0., 0., 0., 0., 0., 0.,
          0., 0., 0., 0., -2.99353251e-05, -2.94806614e-05, 0., 0., 0.,
          0., 0., 0., 0., 0., 0., 0., 0., 0., 0., 0., 0., 0., 0., 0., 0.,
          0., 0., 0., 0., 0., 0., 0., 0., 0., 0., 0., 5.71892315e-06, 0.,
          0., 0., 0., 0., 0., 0., 0., 0., 0., 0., 0., 0., 0., 0., 0., 0.,
          0., 0., 0., 0., 0., 0., 0., 0., 0., 0., 0., 0., 0., 0.,
          -4.28287567e-05, -1.27485964e-05, 0., 0., 0., 0., 0., 0., 0.,
          0., 0., 0., 0., 0., 0., 0., 0., 0., 0., 0., 0., 0., 0., 0., 0.,
          0., 0., 0., 0., 0., 0., 0., 1.11388159e-04, -1.62915640e-05,
          0., 0., 0., 0., 0., 0., 0., 0., 0., 0., 0., 0., 0., 0.,
          -5.25895448e-05, 0., 0., 0., 0., 0., 0., 0., 0., 0., 0., 0.,
          0., 0., 0., 0., 0., 0., 0., 0., 0., 0., 0., 0., 0., 0., 0., 0.,
          0., 0., -6.94588234e-04, -8.10764541e-05, 0., 0., 0., 0., 0.,
          0., 0., 0., 0., 0., 0., 0., 0., 0., -7.61679476e-05, 0., 0.,
          0., 0., 0., 0., 0., 0., 0., 0., 0., 0., 0., 0., 0.,
          -1.22576705e-04, 0., 0., 0., 0., 0., 0., 0., 0., 0., 0., 0.,
          0., 0., 0., 0., -6.74490293e-05, -1.47854844e-05, 0., 0., 0.,
          0., 0., 0., 0., 0., 0., 0., 0., 0., 0., 0., 3.27952657e-05, 0.,
          0., 0., 0., 0., 0., 0., 0., 0., 0., 0., 0., 0., 0., 0.,
          -3.28544365e-06, 0., 0., 0., 0., 0., 0., 0., 0., 0., 0., 0.,
          0., 0., 0., 0., 9.34025593e-05, 0., 0., 0., 0., 0., 0., 0., 0.,
          0., 0., 0., 0., 0., 0., 0., -3.86366846e-05, 0., 0., 0., 0.,
          0., 0., 0., 0., 0., 0., 0., 0., 0., 0., 0., 1.30447042e-05,
          -4.13733396e-05, 0., 0., 0., 0., 0., 0., 0., 0., 0., 0., 0.,
          0., 0., 0., 0., 0., 0., 0., 0., 0., 0., 0., 0., 0., 0., 0., 0.,
          0., 0., 0., 1.80564894e-06, -3.63628787e-05, 0., 0., 0., 0.,
          0., 0., 0., 0., 0., 0., 0., 0., 0., 0., -5.18387496e-05,
          -9.36193610e-05, 0., 0., 0., 0., 0., 0., 0., 0., 0., 0., 0.,
          0., 0., 0., -4.34529175e-05, 2.25047847e-06, 0., 0., 0., 0.,
          0., 0., 0., 0., 0., 0., 0., 0., 0., 0., 0., 0., 3.29372182e-04,
          -5.82044959e-05, -4.58341929e-05, 1.59733063e-05,
          1.40570892e-05, 0., -3.12711527e-05, -9.46220280e-06,
          -1.27876803e-04, 0., 1.90630772e-06, -3.49162656e-05,
          -4.17254159e-05, 0., 1.00611011e-03, 3.88715380e-05,
          -9.86155355e-05, 0., -8.53306574e-06, 6.31152488e-06, 0., 0.,
          -1.86816524e-05, 0., 9.74422073e-05, -4.56387497e-05,
          -9.03310138e-06, -1.81970445e-05, -4.25662402e-05, 0.,
          1.90236518e-04, 1.12189729e-04, 1.53367780e-03, 1.49051877e-04,
          1.62378070e-03, 6.09668728e-04, -1.42449746e-04,
          -3.64234111e-05, 7.69820472e-04, 4.32768516e-04,
          -1.37039321e-03, 0., -3.45217668e-05, 0., -1.71689596e-03,
          -2.69107350e-05, -3.66983283e-03, 1.77361726e-04,
          -5.90371492e-04, 9.02754618e-06, 0., 0., 0., 0., 0., 0.,
          -7.35359907e-04, 0., 0., 0., -8.18212051e-04, 0.,
          -1.05404411e-03, 0., 9.02976142e-04, 0., 8.35954197e-05,
          3.57123135e-05, 0., 0., -2.69107350e-05, 0., 8.42971494e-05,
          0., 0., 0., -8.01731803e-05, 0., -1.54673558e-04,
          -2.51521142e-05, -3.06575384e-04, 0., 0., 0., 0., 0.,
          1.78561568e-05, 0., 4.72666376e-04, 0., 0., 9.02754618e-06,
          -1.29730368e-04, 0., -1.71243795e-04, 0., 1.60841606e-04,
          3.05695103e-05, -4.55923873e-05, 0., -5.50445147e-05, 0.,
          2.15169384e-05, 0., 1.93166784e-06, 0., -5.20628491e-05, 0.,
          6.92780304e-06, 0., -2.69107350e-05, 0., -1.86816524e-05, 0.,
          0., 0., 0., 0., 0., 0., 0., 0., 0., 0., 1.04062019e-05, 0., 0.,
          0., 3.57163663e-04, -3.64234111e-05, -2.81125667e-05, 0.,
          -3.64234111e-05, 0., -3.09498250e-06, 0., -3.17566924e-06, 0.,
          0., 0., -4.80986964e-05, 0., -6.58008648e-05, 0.,
          6.11623283e-04, 0., -2.51521142e-05, 1.78561568e-05, 0., 0.,
          0., 0., 2.89873191e-04, 0., 1.78561568e-05, 0.,
          -9.77772870e-05, 0., -5.78303552e-05, 0., -1.34260894e-03,
          8.10322308e-05, 1.45183978e-04, 2.58234853e-04, 4.09890781e-05,
          1.63726982e-05, -1.37610739e-04, 2.93181161e-04,
          -2.11276521e-04, 5.31788828e-07, -5.52073925e-06,
          -5.98358893e-05, -3.45886911e-05, 0., -2.20906586e-04,
          -1.38357849e-04, 4.14141105e-05, 1.10595192e-05, 0., 0., 0.,
          0., 0., 1.63726982e-05, 0., 0., -2.53898215e-05, 0.,
          -4.66553001e-06, -4.66553001e-06, -4.76423993e-05,
          -6.35926845e-05, 8.16932661e-05, 7.39903917e-05,
          -1.86816524e-05, 1.06213577e-06, 0., 0., 0., -2.51521142e-05,
          0., 0., -2.53898215e-05, 0., -1.89854418e-05, -2.51521142e-05,
          -5.85139605e-06, 0., 1.07463355e-04, 0., 0., 0., 0., 0., 0.,
          0., 9.39009697e-05, 0., 0., 0., 0., 0., -1.41555120e-05, 0.,
          4.27363644e-04, 1.41634408e-03, -1.09372799e-04,
          -8.22101283e-05, -6.38192723e-05, 5.75238300e-06,
          -5.78337858e-05, 7.49097526e-05, -3.53077121e-05,
          1.43491752e-05, 0., -5.51435223e-05, -3.62948776e-05, 0.,
          -3.28817223e-05, -9.21317696e-05, 1.53759087e-04, 0., 0., 0.,
          0., 0., 0., 0., 0., -4.04153343e-06, 0., 0., 0., 0., 0., 0.,
          2.09777942e-03, -7.52298865e-06, 1.55485031e-04,
          3.74373776e-05, 0., -8.20849709e-06, 4.77703470e-05,
          -2.53898215e-05, 2.32938164e-05, 2.01011371e-05,
          -1.01139785e-05, 0., 4.15501527e-05, -3.17963422e-05,
          8.15369567e-05, -1.10628906e-04, 5.45015559e-04,
          9.95808223e-05, 0., 1.78561568e-05, 0., 0., 0., 0.,
          1.18446715e-05, -1.28209495e-05, -4.04153343e-06, 0.,
          -1.96305859e-06, 0., -4.77342037e-05, -2.27231867e-05,
          6.40459533e-04, -1.36651593e-04, 1.24583929e-03,
          1.60292911e-04, 1.20766548e-04, 0., 7.24021811e-04,
          7.22552824e-04, -8.16983171e-04, 0., 1.44564241e-04,
          1.97665831e-05, 5.77208812e-05, 1.68156930e-05, 1.35214557e-03,
          4.90336039e-04, -4.30533582e-05, 0., 5.74802434e-05, 0.,
          -3.17963422e-05, 0., 0., 0., 8.53177626e-05, 0., 0., 0.,
          2.77447922e-04, 0., 6.97052164e-04, 1.97665831e-05,
          1.05258147e-03, -1.86816524e-05, 0., 0., 5.74802434e-05, 0.,
          5.74802434e-05, 0., 8.93704055e-05, 0., 0., 0., 8.87390052e-05,
          0., 1.48021994e-04, 1.97665831e-05, 6.52046656e-05, 0.,
          5.74802434e-05, 0., -3.17963422e-05, 0., 0., 0.,
          1.28148345e-03, -5.13661980e-05, 1.10006054e-04,
          -4.32985034e-05, 3.86327156e-04, 0., 3.51025155e-05,
          -1.10940971e-04, 1.10635672e-04, -1.59653737e-05, 0., 0., 0.,
          0., -2.51521142e-05, 0., 1.39697104e-05, 0., 0., 0.,
          -1.01139785e-05, 0., 3.23332897e-05, -1.23786831e-05, 0., 0.,
          0., 0., 0., 0., 0., 0., 0., 0., 0., 0., 0., 0., 0., 0.,
          9.67287458e-04, -4.58526229e-05, 0., -4.04153343e-06,
          -2.51521142e-05, 0., 0., 0., 6.78115757e-05, 0., 0., 0., 0.,
          0., 4.04507373e-05, 0., 3.10848875e-04, 0., 0., 0., 0., 0., 0.,
          0., 4.62756725e-04, 5.75238300e-06, 0., 0., -1.01112470e-04,
          0., 2.03331161e-04, -3.64234111e-05, -1.05487974e-03,
          -2.30293634e-04, -2.25310039e-04, -1.08461136e-04, 0., 0.,
          -3.63345171e-05, -1.79883631e-04, -1.40562834e-05, 0.,
          -1.36653080e-05, -2.34648745e-04, 0., 0., -7.73090505e-05,
          5.49604592e-04, 0., 0., 0., 1.76442354e-05, 0., 0., 0., 0., 0.,
          0., 0., -3.84876876e-05, 0., 0., 0., 1.13830945e-04,
          1.94703607e-04, -1.18801172e-05, -4.04153343e-06,
          -1.31031572e-06, 0., 0., 0., 0., 0., 0., -1.01139785e-05,
          5.59872315e-05, 0., 0., 1.18214994e-05, 9.45872853e-06,
          -4.66553001e-06, 0., 0., 1.67902399e-04, 0., 0., 0., 0.,
          -2.43035873e-04, -1.26175029e-04, -2.94897873e-05,
          3.47175548e-04, 0., 0., 1.18892276e-05, -6.15682075e-05,
          -1.15719403e-03, -7.24966521e-04, -1.56956175e-05,
          -2.30080201e-04, 0., 0., -1.59653737e-05, 5.53147293e-05, 0.,
          0., 0., 0., 0., 0., -2.63435475e-04, -3.06641450e-04,
          -3.64234111e-05, 0., 0., 0., 0., 0., 0., 0., 1.78561568e-05,
          0., 0., 0., 0., 0., 0., -3.64234111e-05, -3.55526968e-03,
          -1.27352634e-03, 2.02349711e-05, -1.60810123e-05,
          -3.74415067e-05, 0., -1.85562720e-04, -9.35833159e-05,
          -2.84103327e-04, -2.33471819e-05, -5.85223606e-05,
          -3.36000339e-05, 2.79354630e-04, 0., 2.90953303e-05,
          -2.43495946e-04, 6.22021689e-05, 0., 0., -1.37729177e-04, 0.,
          0., 0., 0., -6.99181634e-04, -2.23881958e-04, -9.88694519e-05,
          2.05784690e-05, -1.05454819e-04, 0., -2.28704317e-04,
          -1.09671855e-04, -3.40150530e-03, 1.41867495e-03,
          2.20434531e-03, 1.57065887e-03, 4.88306279e-04, 2.13272669e-05,
          5.00408605e-05, 4.67355800e-04, 1.05314935e-03, 1.13902068e-04,
          -5.12924162e-05, 8.34629918e-06, -4.19732649e-04,
          -4.41365628e-05, -3.79206124e-03, -1.55135378e-04,
          -2.17435474e-04, -1.01139785e-05, 6.05106907e-05,
          -3.17963422e-05, -1.01139785e-05, 0., 0., 0., -3.51096242e-04,
          -4.04153343e-06, -6.99110897e-05, -1.67125927e-05,
          -3.93590977e-04, 1.04062019e-05, -3.32984724e-04,
          -4.74073495e-05, 8.60472792e-04, 5.74793376e-05,
          -5.52820566e-05, -3.06074458e-06, -8.27545045e-06, 0.,
          -2.95458631e-05, 0., 3.39580874e-05, 0., -4.43752615e-05,
          2.13272669e-05, -9.49523819e-05, 0., -7.51912448e-05, 0.,
          -7.83992815e-04, 0., -2.73887163e-05, 4.11586116e-05,
          -5.85139605e-06, 0., -5.85139605e-06, 0., 5.38798224e-04,
          -2.91936485e-05, 1.09735083e-04, -4.04153343e-06,
          6.28728303e-05, 0., 5.22252631e-05, -4.04153343e-06,
          1.08247354e-04, 0., 5.56063460e-05, 1.63726982e-05,
          5.68465111e-05, 0., 6.17589831e-05, 0., 1.88121357e-05, 0., 0.,
          0., 2.13272669e-05, 0., 8.61836015e-05, 0., 0., 0., 0., 0., 0.,
          0., 0., 0., 0., 0., 0., 0., 0., 0., 0., 0., 3.96968280e-05,
          -1.47854844e-05, -5.02419462e-05, 0., -4.66553001e-06, 0.,
          -5.95215533e-06, 0., 9.26810608e-05, 0., -3.17963422e-05, 0.,
          -1.22913872e-04, 0., -1.23309495e-04, 0., -2.39640853e-04, 0.,
          -5.45195253e-05, 0., 0., 0., 0., 0., 1.30583212e-05, 0.,
          2.25047847e-06, 0., 3.44808213e-05, 1.04062019e-05,
          -1.37946176e-04, 0., 1.97489187e-03, 9.62977705e-04,
          4.94620763e-04, 3.16300965e-03, 2.56170119e-06, 0.,
          1.76881178e-04, -1.58745504e-04, 1.25525272e-04,
          -1.47795081e-05, -1.86816524e-05, 6.03538647e-05,
          3.62525025e-05, 4.52001441e-05, -1.46972539e-04,
          -7.75476292e-05, 2.51553429e-05, 2.67789001e-05, 0.,
          -4.04153343e-06, 0., 0., 0., 0., 4.86318640e-05,
          -2.51521142e-05, 0., 2.46991822e-05, 4.52001441e-05, 0.,
          -1.47854844e-05, -1.79105507e-06, 1.91296331e-05,
          9.91171873e-06, -3.62526262e-05, 3.15767138e-05, 0., 0.,
          -1.40562834e-05, -4.04153343e-06, -2.69107350e-05, 0., 0.,
          -1.86816524e-05, 0., 0., 0., 2.25047847e-06, 4.98601275e-06,
          -3.09498250e-06, 1.72857326e-05, 8.86092312e-05, 0., 0., 0.,
          0., -4.98245499e-05, -2.51521142e-05, -4.74385852e-05,
          1.60592914e-04, -2.51521142e-05, 0., -1.88933936e-05,
          -9.89292948e-06, -6.96314324e-04, 1.62469922e-04,
          -1.44014601e-04, -1.96339242e-05, 3.29612012e-05, 0.,
          -4.63150645e-04, -2.88021783e-05, -6.69716201e-06,
          -3.69071745e-06, 0., 2.00480299e-05, 3.99114615e-05, 0.,
          -3.39228864e-05, 5.71041455e-05, -3.09498250e-06,
          -1.86816524e-05, 0., 0., 0., 0., 0., 0., 0., 0., 0.,
          1.97665831e-05, 0., 0., 0., 0., -2.61224271e-03,
          -4.38183451e-05, -1.33201233e-04, 2.22585790e-04,
          -3.12412158e-05, 0., -1.37460200e-04, 8.80902007e-06,
          -1.25855629e-04, 0., -2.69107350e-05, -2.53898215e-05,
          -8.70972654e-05, 0., -4.37814044e-04, -4.89577724e-05,
          -4.09245928e-04, 7.53080749e-05, 0., -8.08306686e-06, 0., 0.,
          0., 0., 1.70497988e-05, -8.00552880e-06, 0., 0.,
          -1.18115669e-04, 0., -3.44871834e-04, -1.79105507e-06,
          4.56882874e-03, -5.67967189e-04, -5.36596519e-04,
          -4.29724168e-04, 1.25567691e-04, -1.86816524e-05,
          1.13561066e-04, -2.52164173e-04, 1.16571214e-03, 0.,
          9.61579062e-05, 0., -9.19972605e-04, 0., -3.89178959e-03,
          -6.03268272e-04, 4.43597964e-04, 0., 1.04062019e-05,
          1.04062019e-05, 1.10947667e-05, 0., 2.25047847e-06, 0.,
          1.10782706e-03, 0., 1.26566802e-05, 0., 2.42638271e-04, 0.,
          -3.44551481e-05, 2.25047847e-06, 9.72843380e-04,
          2.08124038e-05, 1.01495054e-04, 0., -9.38414451e-06, 0.,
          -5.85139605e-06, 0., 6.34796743e-05, 0., 4.55666886e-05, 0.,
          3.09899551e-05, 0., -1.24038546e-04, -1.40562834e-05,
          1.86795357e-03, 0., 0., 0., -5.85139605e-06, 0., 0., 0.,
          1.93145184e-03, -2.99010594e-06, 1.03120037e-04,
          5.67436946e-05, -2.87244678e-04, 0., 2.81776360e-04,
          2.39085901e-04, -5.87686336e-05, 0., 0., -4.48399587e-05, 0.,
          0., -2.40839418e-05, 0., 1.10947667e-05, 0., 0., 0., 0., 0.,
          0., 0., 6.36466848e-06, 0., 0., 0., 0., 0., 0., 0.,
          2.15009695e-05, 0., 0., 0., 0., 0., 1.04062019e-05, 0.,
          -9.37686418e-04, -1.47854844e-05, -1.57443246e-05, 0., 0., 0.,
          -5.85139605e-06, 0., 8.53852835e-05, 0., 0., 0.,
          -9.64760256e-05, 0., 1.06125226e-05, 1.63726982e-05,
          8.07392498e-05, 0., 0., 0., 0., 0., 0., 0., -2.31838421e-04,
          0., 0., 4.09834574e-05, 6.73179311e-05, 0., 3.62105726e-04, 0.,
          9.70938781e-05, 2.62347567e-06, 7.71700979e-06,
          -2.92727054e-04, 0., -2.27231867e-05, -6.42360101e-05,
          -3.47195484e-04, 3.21750413e-05, 1.63726982e-05,
          2.01011371e-05, -2.60289817e-04, 2.13272669e-05, 0.,
          -1.13655573e-04, 5.52021047e-05, -1.79105507e-06, 0., 0.,
          1.63955381e-04, 0., 1.04062019e-05, 0., 0., 0., 0., 0.,
          2.86556053e-04, 0., 0., 1.97665831e-05, -2.20038419e-05,
          -7.18017736e-06, -4.04153343e-06, 3.73333751e-05,
          -5.48104181e-05, 0., 0., 0., 4.35681204e-06, 0., 0.,
          -1.89854418e-05, 1.32447225e-04, 0., 0., 2.43308914e-05,
          -1.44843818e-06, -9.89292948e-06, 0., 0., 1.74943489e-04, 0.,
          0., 0., 0., -3.36778321e-05, 1.87850790e-04, -8.20849709e-06,
          6.29715389e-04, 1.04062019e-05, 0., -3.09498250e-06,
          -1.91620129e-04, -4.45270969e-04, -2.95638340e-04,
          -8.61771114e-05, -1.74319910e-04, 0., 0., -1.11950896e-04,
          9.29079761e-05, 1.39151862e-05, 0., 0., -9.63620550e-06,
          1.97665831e-05, 0., 3.14481331e-05, -5.86891947e-05, 0., 0.,
          0., 0., 0., 0., 0., 0., -4.16696366e-06, 0., 0., 0., 0., 0.,
          0., 0., -4.03975463e-03, -6.03530556e-04, -8.68377901e-05,
          -1.74090514e-04, -1.71512656e-05, 0., -9.33916017e-05,
          -1.31926412e-04, -1.81419731e-04, 0., -4.40714721e-05,
          -1.48822346e-05, 1.06434876e-04, 0., -3.46622634e-04,
          3.44530781e-05, 4.39661497e-04, -4.34803260e-05,
          1.04062019e-05, -1.76145782e-04, 2.87941275e-05, 0.,
          4.09834574e-05, 0., -1.79771741e-04, 2.15016727e-04,
          1.41921928e-05, 1.21541358e-04, 2.25194919e-04, 0.,
          9.95127994e-06, 2.30113088e-04, -1.34897346e-04,
          2.34142586e-04, -2.01926610e-04, 1.14160869e-03,
          2.96863174e-04, 0., 3.93239810e-04, 1.98279711e-04,
          5.71800396e-04, -8.00552880e-06, 2.48707278e-04,
          7.34883652e-05, 9.29204398e-04, -1.57186823e-05,
          1.26751896e-03, 7.94738356e-04, -3.43604886e-04,
          9.02754618e-06, 0., 4.52001441e-05, -4.04153343e-06, 0., 0.,
          0., -6.95863491e-05, 0., -3.17403101e-05, -1.88210415e-05,
          4.12554306e-04, 0., 3.71140020e-04, -9.30329225e-06,
          -1.14099623e-03, -3.28652677e-05, -9.57024349e-06,
          -8.25067764e-05, 0., 0., 1.61757824e-04, -9.27501897e-05,
          -9.76365336e-05, 0., 0., 0., -1.82346339e-05, 0.,
          5.87425784e-05, 6.75143519e-06, -5.50643075e-04,
          -4.04153343e-06, -1.53188266e-05, -3.58378747e-05, 0., 0.,
          -1.01139785e-05, 0., -2.91532397e-05, 0., 5.62534115e-05,
          1.23311647e-05, 5.47837757e-04, 0., 1.68121303e-04,
          -8.72086530e-05, -6.12437652e-05, 0., -6.35454708e-05, 0.,
          4.97235715e-06, 0., -3.09498250e-06, 0., 2.01011371e-05, 0.,
          0., 0., 0., 0., -5.95215533e-06, 0., 0., 0., 0., 0., 0., 0.,
          0., 0., 0., 0., 0., 0., 0., 0., 0., 0., -9.82170692e-04,
          -3.64234111e-05, -2.62072190e-05, -1.86816524e-05, 0., 0.,
          -3.76354728e-05, -6.13422017e-05, 4.53289467e-05, 0.,
          -2.53898215e-05, 0., 1.73049393e-05, 0., -6.13422017e-05, 0.,
          -6.05124107e-04, 0., -6.13422017e-05, -4.04153343e-06, 0., 0.,
          2.25047847e-06, 0., 4.32044413e-04, 0., 0., 0., 7.55792789e-05,
          0., -1.52203778e-04, -2.69107350e-05, 8.11178470e-04,
          4.53711036e-05, -6.02528371e-06, 2.47471151e-04,
          4.15251561e-05, 0., -3.44820328e-05, -1.58256255e-04,
          8.90533629e-05, 0., 1.10947667e-05, -1.59003794e-05,
          -9.45564716e-06, 0., 8.05648415e-06, -2.60573997e-05, 0.,
          1.04062019e-05, 0., 0., 0., 0., 0., 0., 0., 1.78561568e-05,
          4.52001441e-05, 0., -5.95215533e-06, 0., 0., -1.86232137e-05,
          1.89380307e-06, -2.94313541e-05, -4.04153343e-06,
          -3.60662125e-05, 0., 0., -4.16696366e-06, -4.36021473e-05, 0.,
          0., 0., 0., 0., 0., -7.71315354e-06, 0., -2.40296340e-05, 0.,
          0., -1.41555120e-05, 0., 0., 0., 0., 3.82093549e-06, 0., 0.,
          -2.22385788e-05, 0., 0., 0., -2.84868747e-05, 8.40388297e-04,
          1.38355463e-04, -2.47585820e-04, -6.41909173e-06,
          2.29972575e-05, -3.64234111e-05, 4.96876346e-05,
          7.05571147e-05, -3.88756380e-05, -4.04153343e-06,
          1.78561568e-05, 0., 5.75238300e-06, 0., 1.80415489e-04,
          6.74622643e-05, 0., 0., 0., 0., 0., 0., 0., 0.,
          -4.16696366e-06, 0., 0., 0., 0., 0., 0., 0., -2.35098391e-03,
          -1.90398732e-05, -2.49229430e-04, -1.60478201e-04, 0., 0.,
          -8.59074353e-05, -7.28851155e-05, -1.66958795e-04,
          -5.95215533e-06, 0., -4.16696366e-06, -4.20288343e-05, 0.,
          -1.55777874e-04, 3.01743985e-05, -1.23907952e-03,
          -3.34728866e-05, -1.41660757e-06, -7.86349938e-06, 0., 0.,
          -3.17963422e-05, 0., -3.36249213e-04, 0., 2.25047847e-06,
          -3.40968836e-05, -3.51364142e-05, 0., -1.42076213e-04,
          -7.77481910e-05, 7.05808692e-04, -2.27081953e-04,
          -8.45438393e-04, -1.40132106e-04, -1.43098936e-04,
          -2.53898215e-05, -9.07260808e-04, 6.29337319e-06,
          1.51987842e-04, 4.15251561e-05, 5.44151726e-06,
          -2.30666865e-05, 1.01429259e-03, -5.26982694e-05,
          -2.80198827e-03, -1.52259786e-03, -2.68909534e-05, 0., 0., 0.,
          0., 0., 5.74802434e-05, 0., -2.61337118e-04, 0.,
          7.53196446e-06, 0., 3.21679399e-05, 0., 7.03606420e-05,
          7.53196446e-06, 2.19062538e-04, 0., 4.38516581e-05, 0., 0., 0.,
          1.55996186e-05, 0., -8.67588969e-05, 0., 0., 0.,
          -5.06913530e-05, 0., -3.11208336e-04, -5.95215533e-06,
          2.93747260e-04, 0., 0., 0., 1.78561568e-05, 0., 0., 0.,
          1.80460443e-03, -6.85445193e-05, 4.47584389e-05,
          -1.82474105e-04, 2.32714578e-04, 0., -6.61225640e-04,
          -3.73186718e-04, 5.43440228e-06, 0., 0., 0., 0., 0., 0., 0.,
          0., 0., 0., 0., 0., 0., 5.03437295e-05, 0., -4.71194153e-06,
          0., 0., 0., 0., 0., 0., 0., 0., 0., 0., 0., 0., 0., 0., 0.,
          4.22997226e-04, 2.01011371e-05, -5.95215533e-06, 0., 0., 0.,
          -1.01139785e-05, 0., -3.57647841e-05, 0., 0., 0., 0., 0.,
          -1.79021503e-04, 0., -1.78833667e-04, 0., 0., 0., 0., 0., 0.,
          0., 9.67818414e-05, -3.64234111e-05, 4.52001441e-05, 0.,
          6.36650366e-05, 0., 2.88987303e-05, 0., 1.21793628e-03,
          5.55563369e-04, -1.46932420e-04, 3.68310459e-04,
          -3.17963422e-05, -2.69107350e-05, -7.34068090e-05,
          -1.45766273e-04, 3.67864304e-05, 2.25047847e-06, 0.,
          -9.15981364e-05, 0., 0., 1.09782859e-05, -3.41937644e-04,
          -1.64311732e-05, 0., 0., -3.25052897e-05, 0., 0., 0., 0., 0.,
          0., 0., 4.16840230e-05, 0., 0., 0., 8.91000527e-05,
          1.04716994e-04, 0., -2.00424074e-05, -1.41607350e-04, 0., 0.,
          0., 0., 0., 0., 0., -2.41505131e-06, 0., 0., -3.67009307e-05,
          -3.10641590e-05, 1.10947667e-05, 0., 0., -3.82260305e-06, 0.,
          0., 0., 0., -7.83980940e-05, -2.07887570e-04, 1.63726982e-05,
          -5.20296744e-04, 0., -1.01139785e-05, 9.80515615e-05,
          -1.02749451e-04, 3.76274198e-04, 6.88613334e-04,
          -6.65427706e-06, 2.15911350e-04, 0., 0., -4.16696366e-06,
          2.12552750e-05, 0., 0., 0., 0., 0., 0., -1.29585431e-04,
          -2.48378528e-05, -2.46602576e-05, 0., 0., 0., 0., 0., 0., 0.,
          0., 0., 0., 0., 0., 0., -7.71315354e-06, 0., -5.27541852e-04,
          -1.26143841e-05, 2.07728692e-04, 6.23904401e-04,
          -2.64547507e-05, 0., -6.54127507e-05, -1.19726472e-04,
          -8.58831045e-05, 0., 3.50313021e-05, -1.69667521e-06,
          5.12475322e-04, 0., 4.26449493e-04, 9.05023117e-05,
          8.41953908e-04, -4.04153343e-06, 4.62869975e-05,
          -2.28588498e-04, 0., 0., 0., 0., 1.90019739e-04,
          1.94663735e-04, 5.54968938e-05, -2.60545494e-04,
          1.68932194e-04, 0., -8.38882715e-06, 1.43564712e-05,
          -3.93266469e-04, -7.93647196e-05, -1.66232188e-04,
          -1.12365211e-04, -1.16207102e-05, 0., -1.21627127e-04,
          3.26622139e-05, 5.56035448e-05, 0., 5.98586530e-06,
          -5.85139605e-06, 3.94974704e-05, 0., 5.13662701e-04,
          2.53223901e-04, -2.26967713e-05, 0., 0., 0., 0., 0., 0., 0.,
          -2.37799559e-05, 0., 0., 0., 0., 0., 2.72684538e-05, 0.,
          1.53090368e-04, 0., 0., 0., 0., 0., 0., 0., 0., 0., 0., 0., 0.,
          0., 0., 0., 1.60986610e-06, 0., 0., 0., 0., 0., 0., 0., 0., 0.,
          0., 0., 0., 0., 0., 0., 0., 0., 0., 0., 0., 0., 0., 0., 0., 0.,
          0., 0., 0., 0., 0., 0., 0., 0., 0., 0., 0., 0., 0., 0., 0., 0.,
          0., 0., 0., 0., 0., 0., 5.44893774e-05, 9.11114603e-06, 0., 0.,
          0., 0., 0., 0., 0., 0., 0., 0., 0., 0., 0., 0., 0., 0., 0., 0.,
          0., 0., 0., 0., 0., 0., 0., 0., 0., 0., 0., 0.,
          -3.92835318e-05, -1.42402772e-04, 0., 0., 0., 0., 0., 0., 0.,
          0., 0., 0., 0., 0., 0., 0., 0., 0., 0., 0., 0., 0., 0., 0., 0.,
          0., 0., 0., 0., 0., 0., 0., 8.02863069e-05, 0., 0., 0., 0., 0.,
          0., 0., 0., 0., 0., 0., 0., 0., 0., 0., 0., 0., 0., 0., 0., 0.,
          0., 0., 0., 0., 0., 0., 0., 0., 0., 0., -5.73050456e-05,
          -8.13798833e-05, 0., 0., 0., 0., 0., 0., 0., 0., 0., 0., 0.,
          0., 0., 0., 0., 0., 0., 0., 0., 0., 0., 0., 0., 0., 0., 0., 0.,
          0., 0., 0., 1.03531354e-04, -7.28468221e-05, 0., 0., 0., 0.,
          0., 0., 0., 0., 0., 0., 0., 0., 0., 0., 0., 0., 0., 0., 0., 0.,
          0., 0., 0., 0., 0., 0., 0., 0., 0., 0., 0., 0., 0., 0., 0., 0.,
          0., 0., 0., 0., 0., 0., 0., 0., -2.81209825e-04,
          -7.71315354e-06, 0., 0., 0., 0., 0., 0., 0., 0., 0., 0., 0.,
          0., 0., 0., -2.00220617e-04, 0., 0., 0., 0., 0., 0., 0., 0.,
