%YAML:1.0
---
opencv_ml_svm:
   format: 3
   svmType: C_SVC
   kernel:
      type: LINEAR
   C: 2.9999999999999999e-01
   term_criteria: { epsilon:1.1920928955078125e-07, iterations:1000 }
   var_count: 10752
   class_count: 2
   class_labels: !!opencv-matrix
      rows: 2
      cols: 1
      dt: i
      data: [ -1, 1 ]
   sv_total: 1
   support_vectors:
      - [ -1.65970385e-04, -5.00449853e-04, -1.45724101e-04,
          1.14889852e-04, -7.17208532e-05, 5.03383171e-06,
          -2.41421294e-04, 4.02249971e-05, 7.64243770e-04,
          -3.98105767e-05, -2.27833643e-05, 0., 1.43449011e-04, 0.,
          -3.84805695e-04, 4.64104560e-05, -7.46083824e-05, 0.,
          -2.49374989e-05, 0., 0., 0., 1.78946266e-05, 0.,
          -2.71153986e-04, 0., 4.09068452e-05, 9.61331261e-06,
          3.35499441e-04, 0., -1.57351562e-04, 3.24301800e-05,
          8.30260920e-04, -3.98105767e-05, -4.32818124e-05,
          -4.79612083e-07, 1.71987940e-05, 0., 2.02530558e-04,
          -3.32102973e-05, 1.16920537e-05, 0., 3.18458842e-06, 0.,
          -4.22952580e-05, 0., -4.87512079e-05, 3.87859327e-05,
          -1.07708802e-04, 0., 2.79840197e-06, 3.36909693e-06,
          -2.33669889e-05, 0., -2.72348261e-05, 0., -6.63237646e-04, 0.,
          -1.95142584e-05, 0., -1.26482382e-05, 0., -2.55051040e-04,
          6.53077541e-06, 1.52432985e-04, 0., -3.06883921e-05,
          -3.98105767e-05, 1.90876053e-05, 1.46386776e-06,
          1.80853874e-06, 0., -2.62168123e-05, -7.41848135e-06, 0., 0.,
          -4.65748235e-05, 0., -3.86581924e-05, 0., 0., 0., 0., 0., 0.,
          0., 0., 0., 2.28184999e-05, 0., 0., 0., -2.26834873e-05, 0.,
          0., 0., 5.29114564e-04, 1.18238740e-05, 4.93160769e-05,
          -7.19230547e-06, -4.47196044e-06, 0., -1.31227762e-05,
          5.03383171e-06, -2.23882344e-05, 0., 0., 0., -3.44900945e-06,
          0., -1.03361388e-04, -3.44120099e-06, -1.82444870e-04, 0.,
          -4.66044958e-06, 0., 0., 0., -8.47503270e-06, 0.,
          -1.14308816e-04, 0., 4.43550853e-05, 0., -1.30110823e-06, 0.,
          -7.96211534e-05, 0., -3.85082421e-05, 4.28033847e-04,
          7.39036186e-05, -2.01814153e-04, 1.91723775e-05,
          -6.11946462e-06, 4.83765943e-05, -7.33989291e-05,
          -8.65306647e-05, 2.22526560e-05, 3.81458312e-06,
          7.17478106e-05, 8.55748149e-05, 3.36909693e-06, 2.71367117e-05,
          -1.09716275e-04, 7.65932200e-05, 0., 0., 0., 0., 0., 0., 0.,
          -3.08408999e-05, 3.18458842e-06, 0., 0., 1.71808078e-05,
          -2.33669889e-05, -5.97955295e-05, 2.41144826e-05,
          4.05340252e-05, 5.20247431e-06, 3.36909693e-06, 3.52445895e-05,
          0., 0., 0., 0., -8.47503270e-06, 0., 0., 3.36909693e-06,
          -8.46232706e-06, 0., 3.16641831e-06, 7.55934525e-06,
          6.88276077e-06, 2.49711065e-05, 0., 0., 0., 0., 0., 0.,
          -3.40520528e-05, -4.79612083e-07, 0., 0., 4.12061172e-06, 0.,
          1.53577930e-05, 0., -9.50002432e-05, 2.01385497e-04,
          3.36472440e-05, 9.77816526e-05, 7.24629936e-05, 1.46386776e-06,
          -8.55656835e-05, 2.28724912e-05, -1.56343194e-05,
          -6.32390875e-05, 0., 0., -5.12173719e-05, 2.88754127e-05,
          1.50546024e-04, 2.41144826e-05, -8.45183531e-05,
          6.16328107e-05, 0., 0., -7.41848135e-06, 0., 0., 0.,
          -1.96298970e-05, 2.88754127e-05, 0., 0., 1.12607286e-05, 0.,
          4.96026632e-06, 0., 2.23088995e-04, 3.49384674e-04,
          -9.80270343e-05, -3.98127522e-05, 8.39334643e-06, 0.,
          -9.69306857e-05, -1.77965721e-05, -1.74368746e-04,
          -2.59598492e-05, -7.36465927e-06, 0., -1.92542302e-05,
          -2.98977648e-05, -4.93270163e-05, 3.56896589e-06,
          4.65059165e-05, 0., 3.81458312e-06, 6.53077541e-06, 0., 0.,
          5.29309818e-06, 0., -5.49693614e-05, 2.18885689e-05, 0.,
          -3.66420045e-06, 3.20600011e-05, 2.88754127e-05,
          -1.21525998e-04, -7.41848135e-06, 8.06739496e-04,
          -2.70983146e-04, 4.64888610e-04, 1.82359785e-04,
          -5.62386958e-05, -4.44710276e-05, 1.96010602e-04,
          3.38434947e-05, -2.70719553e-04, 0., 2.64785413e-05, 0.,
          9.38321682e-05, -2.82085639e-05, -1.24159575e-04,
          9.79885408e-06, 2.13039639e-05, 0., -1.02235151e-06, 0.,
          3.18458842e-06, 0., 4.06337749e-05, 0., -2.12512285e-04, 0.,
          -1.94425729e-06, 6.53077541e-06, 5.51893099e-05, 0.,
          8.47034855e-04, -5.83366909e-06, 1.56801652e-05,
          5.03383171e-06, 7.81788549e-06, 0., 0., 0., -4.21602526e-05,
          0., -1.22807440e-04, 0., 2.88754127e-05, 0., -3.81299178e-05,
          0., 1.36910921e-05, -3.98105767e-05, -1.35969734e-04, 0., 0.,
          0., -2.51994038e-06, 0., -2.99107032e-05, 0., -8.19821871e-05,
          1.82708263e-05, 1.69427454e-04, -3.66999193e-05,
          1.79153052e-04, -7.41848135e-06, -1.37318352e-06,
          2.92798522e-05, 2.72581412e-04, 2.52112131e-05,
          -1.21866324e-05, 3.78243094e-05, 0., 0., 0., 0.,
          9.61331261e-06, 0., 0., 0., 3.36909693e-06, 0.,
          -3.86581924e-05, -4.02901896e-05, -3.55765296e-05, 0., 0., 0.,
          0., 0., 0., 0., -7.41848135e-06, 0., 0., 0., 0., 0., 0., 0.,
          -3.30558716e-04, -1.93155142e-06, 2.33732080e-05,
          -2.51339952e-05, 0., 0., 0., -2.79765845e-05, 6.82304089e-05,
          0., 0., 0., -3.67823268e-05, 0., -1.70317198e-05,
          9.61331261e-06, 9.04197441e-05, 0., 0., 0., 0., 0., 0., 0.,
          -8.29999917e-05, 0., -3.64414809e-05, 0., 8.83595421e-05, 0.,
          -2.20087313e-04, -9.20781645e-07, -1.22315134e-04,
          -3.64469684e-04, -3.53186333e-05, -7.29034771e-04, 0.,
          6.53077541e-06, 1.88623744e-05, -8.62236629e-05,
          4.96327011e-05, 0., 5.03383171e-06, 4.09543645e-05,
          -2.51994038e-06, 0., 6.98565927e-05, 3.74297641e-04,
          -8.46232706e-06, 0., 0., -5.18094494e-05, 0., 0., 0.,
          -8.46232706e-06, 3.18458842e-06, 0., 0., -2.97465022e-06, 0.,
          0., 0., -3.34039532e-06, -1.74105862e-05, 3.36909693e-06, 0.,
          6.09344306e-06, 0., 0., 0., 0., 0., 0., 0., 4.20014294e-06, 0.,
          0., 0., 1.26296200e-05, 0., 6.53077541e-06, 0., 8.04016890e-05,
          0., 0., 0., -5.50220511e-06, 2.92282726e-04, -3.90616588e-05,
          -2.48228735e-05, 5.83449182e-05, 2.88754127e-05, 0.,
          -1.39829699e-05, -2.69355078e-04, -1.67689141e-04,
          2.30656413e-04, -7.56313057e-06, 1.61170203e-04, 0., 0.,
          1.93265605e-05, -2.28411391e-05, 6.09543131e-05, 0., 0.,
          3.51081180e-05, 1.12607286e-05, 0., -1.18643047e-05,
          -4.47881648e-05, 4.53208377e-05, 0., 0., -9.16640602e-06, 0.,
          0., 0., 0., 0., 0., 0., -2.98977648e-05, 0., 0.,
          -8.87705824e-07, 0., 2.22626823e-05, 8.70677904e-05,
          -1.55085683e-04, 6.01331303e-05, 2.43777595e-06, 0.,
          -8.75669230e-06, -1.56366572e-04, -3.52692496e-06,
          2.88754127e-05, 1.19511278e-05, -5.49827491e-05,
          4.30199070e-05, -3.23559798e-05, 2.70746696e-05,
          -2.68779986e-04, 3.84934974e-05, -4.29401152e-05, 0.,
          -2.51988415e-04, 0., 0., 5.03383171e-06, 0., 3.19022161e-06,
          1.40815227e-05, 2.06105033e-05, -1.19701421e-04,
          3.18794664e-05, 0., -2.16081069e-04, -4.54436959e-05,
          -1.14190776e-03, -1.90078528e-04, -2.83937465e-04,
          3.13187134e-04, 4.60275012e-04, 0., 1.27159743e-04,
          3.47262627e-04, 2.70945107e-04, -8.46232706e-06,
          6.65054540e-05, 2.53277212e-05, -4.89841797e-04,
          -8.47503270e-06, -3.73348375e-05, -7.47892191e-04,
          1.02916078e-04, -1.21975645e-05, -3.10357282e-05,
          -1.95142584e-05, 0., 0., 0., 0., 3.80482263e-04,
          1.75837067e-05, -5.43645692e-05, 1.12607286e-05,
          8.11395730e-05, 0., -1.36427319e-04, 1.19511278e-05,
          2.33174433e-04, -3.98105767e-05, 3.84196683e-05,
          -2.04611388e-05, -1.37836469e-05, 0., -4.72706706e-05,
          2.88754127e-05, -2.84354464e-05, 0., 3.16641831e-06, 0.,
          -3.20156796e-05, 1.07541427e-05, -1.08418637e-04, 0.,
          8.30155914e-05, 0., -1.89895054e-05, 0., 0., 0.,
          -4.97782310e-07, 0., -7.97502871e-05, 0., 0., 0.,
          5.23990020e-05, 0., -2.86926479e-05, 0., -4.08072701e-05, 0.,
          3.06969469e-06, -8.46232706e-06, -6.55887879e-06, 0.,
          1.46379343e-05, -9.35003209e-06, -1.24797589e-05, 0., 0., 0.,
          1.37846719e-05, 0., 0., 0., 0., 0., 0., 0., 0., 0., 0., 0., 0.,
          0., 0., 0., -3.86581924e-05, 0., 0., 0., -6.81123056e-04,
          -4.79612083e-07, -1.09338260e-04, -1.21265275e-05,
          2.65755659e-07, 0., -6.64096951e-05, 0., -2.69996526e-05, 0.,
          0., 0., -3.76220305e-05, 0., -3.14329736e-05, 1.07541427e-05,
          9.26533394e-05, 0., 0., 0., -3.98105767e-05, 0., 0., 0.,
          -1.41530054e-05, 0., 0., 0., -8.47503270e-06, 0., 0., 0.,
          9.08425194e-04, 8.80461594e-04, 5.58302308e-05, 1.90855318e-03,
          -5.12674233e-05, 1.75837067e-05, 5.93167533e-05,
          7.48976308e-05, -3.93708651e-05, 6.55122176e-06,
          2.18998821e-06, 2.88754127e-05, -6.57344845e-06,
          -4.98818190e-06, -8.07853939e-05, 1.82081945e-04, 0., 0., 0.,
          0., 0., 0., 0., 0., -1.93055166e-06, 9.61331261e-06, 0., 0.,
          0., 0., 6.53077541e-06, 0., 5.99144223e-05, 3.51246927e-05,
          2.96224880e-05, 1.72849177e-05, 0., 0., -1.84908258e-05,
          -8.46232706e-06, 0., 0., 1.19511278e-05, 0., 0., 0.,
          -4.79612083e-07, 0., -1.10044102e-05, 0., 0., 0., 0., 0., 0.,
          0., 3.36909693e-06, 0., 0., -5.50220511e-06, 0., 0., 0.,
          -5.50220511e-06, 1.46149134e-04, 4.22697427e-04,
          -9.10842118e-06, 3.45581764e-04, -5.82887515e-05, 0.,
          8.48502259e-06, -4.50599218e-05, 1.25485212e-05, 0., 0., 0.,
          -1.28951884e-04, 0., -3.98105767e-05, -1.37748764e-04,
          -8.46232706e-06, 0., 0., 0., 0., 0., 0., 0., 4.96026632e-06,
          0., 0., 0., 0., 0., 0., 0., -2.40026554e-03, 2.16207831e-04,
          6.94390692e-05, -8.36625550e-05, 0., 3.16641831e-06,
          5.97669859e-05, -9.35003209e-06, -1.68592000e-04, 0., 0.,
          -8.47503270e-06, -3.93591799e-05, 0., -9.29236339e-05,
          -8.46232706e-06, -9.20903694e-05, 0., -2.95103519e-07,
          -8.46232706e-06, 0., 0., -5.37376400e-05, 0., -3.12983466e-05,
          0., 0., -5.50220511e-06, 0., 0., 0., 0., -5.26019488e-04,
          -1.32962406e-04, -3.25702895e-05, -4.94491032e-05,
          -8.81945525e-05, 0., -4.38722549e-04, -8.60902510e-05,
          1.15358736e-03, 0., -6.32276033e-06, 0., 4.57193782e-05,
          2.12764298e-05, -2.69591552e-03, 2.37759759e-05,
          -1.32477740e-04, 0., 0., 0., -2.31784579e-05, 0.,
          4.96026632e-06, 0., 7.56362686e-04, 0., 0., 0., 4.34037269e-04,
          0., 2.19410340e-05, -9.13203439e-06, 4.41217388e-04, 0.,
          -1.44156211e-05, -8.46232706e-06, 2.18998821e-06, 0.,
          -1.31987281e-05, 0., -1.28035885e-04, 0., 0., 0.,
          -5.16873006e-05, 0., -8.18875287e-06, 0., 2.94582016e-04, 0.,
          9.61331261e-06, 0., 0., 0., 0., 0., 1.31111604e-03,
          -1.03278944e-04, 6.41813895e-05, -4.96396751e-05,
          2.89061645e-05, -2.43431350e-05, 4.05535073e-04,
          5.97693324e-05, 1.15388189e-04, 0., 0., 0., 0., 3.81458312e-06,
          0., 0., 3.18458842e-06, 0., 0., 0., 0., 0., 1.46386776e-06, 0.,
          2.69311549e-05, 0., 0., 0., 0., 0., 0., 0., -1.84908258e-05,
          0., 0., 0., 0., 0., 0., 0., 3.55591066e-04, -2.87333951e-05,
          -4.16758958e-05, 0., 0., 0., -1.21975645e-05, -8.47503270e-06,
          1.33438143e-05, 0., 0., 0., 2.36422584e-05, 0.,
          -1.17809810e-04, 0., 4.72087937e-04, 0., 0., 0., 0., 0., 0.,
          0., -1.20294637e-04, 0., 0., 0., 1.33216483e-04, 0.,
          -3.78988298e-05, 0., -4.43567114e-05, 4.05292434e-04,
          1.39545236e-05, -2.75761966e-04, 3.36909693e-06, 0.,
          -1.99395035e-05, 1.52739682e-04, -4.09037712e-05, 0., 0.,
          8.79744039e-05, -5.65911250e-06, -1.82656950e-05,
          -2.44796665e-05, -5.50333294e-04, 0., 0., 0., 3.85967833e-05,
          0., 0., 0., 0., -3.68256915e-05, 0., 0., 8.58196872e-05, 0.,
          0., 0., 5.04536620e-05, 9.90405606e-05, 0., 0., 1.82869917e-04,
          0., 0., 0., -3.86581924e-05, -1.95142584e-05, 0., 0.,
          4.48339342e-05, 0., 0., 0., -3.05120629e-05, 1.46386776e-06,
          0., 0., 9.58399469e-05, 0., 0., 1.07541427e-05,
          -6.11946462e-06, -1.85488079e-05, -2.07763842e-05,
          -4.23389247e-06, 4.46002581e-04, 2.59436462e-07, 0.,
          -2.37771437e-05, 1.97635498e-04, -8.05708332e-05,
          1.19817181e-04, -1.62490178e-05, -1.53939254e-04, 0., 0.,
          -4.68021608e-05, 5.15462125e-05, -1.39581798e-05, 0., 0.,
          4.96026632e-06, 1.19511278e-05, 0., -1.09799441e-06,
          -1.25278539e-05, 2.31878994e-06, 0., 0., -3.98105767e-05, 0.,
          0., 0., 0., -1.69246541e-05, 0., 0., 0., 0., 0., 0., 0.,
          -1.22692983e-03, -4.66173515e-05, -9.66541993e-05,
          -1.53887260e-04, -1.84908258e-05, 0., 1.71586489e-05,
          4.45027254e-05, 6.87513821e-05, -1.36370033e-06,
          2.27249711e-05, 3.59682090e-05, -1.42328463e-06, 0.,
          1.49872052e-04, -1.14081675e-04, -6.24987239e-04,
          -8.60487944e-06, 0., 3.40207007e-05, 0., 0., -8.46232706e-06,
          0., 6.89748849e-04, 4.49868821e-05, -1.99382757e-05,
          3.43346182e-05, -1.65995560e-04, -2.68867916e-05,
          -3.51219438e-04, -4.30474211e-05, -1.51568977e-03,
          1.19007374e-04, -6.76504627e-04, 2.83786678e-04,
          8.37136991e-04, 1.00167469e-07, -4.98571317e-04,
          2.40601483e-04, 8.50625976e-04, 2.93854409e-05, 7.07628496e-05,
          3.25009023e-05, 2.47371179e-04, -8.47503270e-06,
          -1.27821579e-03, 5.68724354e-04, 9.22873514e-05, 0.,
          4.79225928e-05, -1.21975645e-05, -2.92970381e-05, 0.,
          8.89931180e-05, 0., 1.85856567e-04, 0., 3.47771274e-05, 0.,
          1.12906520e-04, 0., 1.55073838e-04, 5.56866944e-05,
          1.05423329e-04, 2.52763512e-05, -2.28888530e-05,
          -6.74125567e-06, 2.03916261e-05, 0., -1.73330947e-04,
          -2.33716219e-05, -1.39307376e-05, 0., -3.66420045e-06, 0.,
          2.86181457e-05, 0., -1.24359785e-05, 4.61873060e-05,
          -1.87349811e-04, 0., -1.40826369e-05, 0., -2.51994038e-06, 0.,
          2.25439726e-05, 3.81458312e-06, 8.90252704e-05, 0.,
          6.53077541e-06, 0., 7.10686945e-05, 0., 1.22371392e-04,
          3.36909693e-06, 6.15833327e-04, 3.18458842e-06,
          -5.20081412e-05, 0., 2.04130865e-05, 0., 2.42154420e-05, 0.,
          3.21103926e-06, 0., 0., 0., -5.08408848e-05, 0.,
          -5.90983545e-05, 0., 0., 0., 0., 0., 0., 0., 0., 0.,
          -5.81724526e-05, 0., 0., 0., 3.81458312e-06, 0., 0., 0.,
          -9.93762282e-04, 0., -1.22569884e-06, -7.89596379e-05,
          4.18802083e-05, 0., 2.04130865e-05, 4.39507239e-05,
          -3.93403025e-05, 0., 1.53577930e-05, 0., 2.61929090e-05, 0.,
          -7.80072805e-05, -2.84338967e-05, 5.11863036e-04,
          6.53077541e-06, 2.04213902e-05, 0., 0., 0., -9.78277967e-06,
          0., 1.30253844e-04, 0., 3.81458312e-06, 0., -7.32504777e-05,
          0., 1.15098635e-06, -3.86581924e-05, 7.18016759e-04,
          3.25443136e-04, 6.68598368e-05, -1.41958764e-04,
          -4.27665473e-05, -7.41848135e-06, 4.05750397e-05,
          1.88632606e-04, 1.54368812e-04, 4.60995761e-06, 3.12935335e-05,
          -1.25006645e-05, -1.05191411e-05, 2.63696602e-05,
          -6.06899193e-05, 3.53701798e-05, 1.46386776e-06, 0., 0., 0.,
          0., 0., 0., 0., 1.28896263e-05, 4.96026632e-06, 0.,
          1.53577930e-05, -1.45993645e-05, 0., 5.03932279e-05, 0.,
          -7.36328075e-05, 2.88754127e-05, 0., 7.10444874e-05, 0., 0.,
          0., 0., 9.61331261e-06, 0., 0., 0., 0., 0., 1.19511278e-05,
          -6.11946462e-06, -2.18030436e-05, -3.86581924e-05, 0.,
          1.53577930e-05, 0., 0., 0., 0., 9.99409804e-06, 0.,
          2.18998821e-06, 0., -3.66420045e-06, 0., 9.71536338e-06, 0.,
          -1.05624273e-03, 6.64958963e-04, 5.79480293e-05,
          4.82065589e-05, 4.48065430e-06, 0., -7.12048568e-05,
          -1.60379186e-05, 1.03880200e-04, -1.58808070e-05, 0., 0.,
          -5.80301930e-05, -8.46232706e-06, -3.32540299e-06, 0.,
          -3.86581924e-05, 0., 0., 0., -2.51994038e-06, 0., 0., 0.,
          1.54696190e-05, 0., 0., 0., 0., 0., 0., 0., -3.72604351e-04,
          -3.12695571e-04, -6.58411182e-06, -5.63299654e-05, 0., 0.,
          1.49025786e-04, 6.89546687e-06, -1.17399264e-04,
          3.33546450e-05, 5.98105771e-06, 1.53577930e-05,
          -1.78544738e-04, 0., -9.43144041e-05, 5.69761505e-06,
          -1.43873011e-04, 0., 4.47673410e-05, 0., 0., 0.,
          1.15356615e-05, 2.88754127e-05, -1.15950854e-04,
          6.53077541e-06, 0., 1.53577930e-05, 0., 0., -5.01731392e-07,
          0., -3.51504917e-04, -1.27299645e-04, 2.34553499e-05,
          2.29583558e-04, 7.43236815e-05, -1.78643531e-05,
          -1.92854946e-04, 5.08033379e-04, 5.37373824e-04,
          -5.03988076e-06, -1.25974539e-05, 0., -2.86631170e-04,
          2.75372968e-05, -8.36575811e-04, -4.35900613e-04,
          1.72128130e-05, 0., -8.47503270e-06, 0., 0., 0.,
          3.48685608e-05, 0., 1.35226102e-04, 0., 1.53577930e-05, 0.,
          4.32640722e-04, 0., -1.21195852e-04, 6.35068500e-05,
          -3.96263757e-04, 0., 4.04331367e-05, 0., -2.79892902e-05, 0.,
          2.88754127e-05, 0., 6.61144222e-05, -2.51994038e-06, 0., 0.,
          3.03424986e-05, 0., -2.00568291e-04, 2.04003809e-05,
          4.41279626e-05, 1.53577930e-05, 0., 0., 1.46386776e-06, 0.,
          1.27979010e-05, 0., -4.59526083e-04, -7.10094946e-06,
          1.31455192e-04, 9.97216848e-05, 7.56333029e-05, 0.,
          -6.02008833e-04, 1.00795616e-04, -3.42998064e-05, 0., 0., 0.,
          0., 0., 0., 0., -3.71159967e-06, 0., 0., 0., 0., 0.,
          -2.64249848e-05, 0., -4.27454506e-05, 0., 0., 0., 0., 0., 0.,
          0., 2.88754127e-05, 0., 0., 0., 0., 0., 0., 0., 3.27898706e-05,
          7.25130158e-05, 0., 0., 0., 0., 0., 0., -4.40194162e-05, 0.,
          0., 0., 1.16695464e-05, 0., -8.25378229e-05, 1.46386776e-06,
          -1.87065307e-04, 0., 2.88754127e-05, 0., -3.66420045e-06, 0.,
          0., 0., 3.22020118e-04, 0., 0., 0., -4.02037840e-05, 0.,
          1.19531389e-04, 0., 4.64184879e-04, 5.89254312e-04,
          -6.38044221e-05, -5.36526553e-04, 0., -3.36979247e-05,
          1.26982741e-05, -1.31993045e-04, -6.35127799e-05, 0., 0.,
          -4.39427422e-05, 2.78335265e-05, -3.45455082e-05,
          -7.54019929e-05, -2.28076460e-05, -2.85498481e-05, 0., 0.,
          1.25733613e-05, 0., 0., 0., -6.99845896e-06, 0., 0., 0.,
          4.66261895e-07, 0., 0., 0., 1.15738294e-04, 4.43477402e-05,
          1.12607286e-05, -1.95142584e-05, 6.87843713e-05, 0., 0., 0.,
          0., 0., 0., 0., 3.47609512e-06, 0., 0., -1.95142584e-05,
          -1.06760435e-05, 1.53577930e-05, 1.86312463e-05, 0.,
          6.59443504e-06, 0., 0., 0., 0., 1.01896745e-04, 1.57446295e-04,
          1.80271786e-06, 3.91134789e-04, -5.53419086e-05, 0.,
          4.38056850e-05, 1.14030983e-04, 3.24146764e-04, 1.05510335e-04,
          6.98599542e-05, 4.86532517e-05, -2.51994038e-06, 0.,
          -2.51994038e-06, -6.23531669e-05, 2.14392840e-05, 0., 0.,
          -5.50220511e-06, 0., 0., 8.47435440e-05, -3.96452597e-05,
          -2.59683657e-05, 0., 0., 4.92670370e-05, 0., 0., 0., 0.,
          -5.59809450e-05, 0., 0., 0., 0., 0., 1.28378533e-05,
          1.46386776e-06, -9.16763092e-04, 1.02252940e-04,
          -4.30649234e-05, -6.46750792e-04, 1.44271471e-05,
          1.14910417e-05, -3.21071828e-04, 1.00767451e-04,
          -6.35070537e-05, 3.81458312e-06, 0., 5.30082325e-05,
          -6.97314172e-05, 3.18182865e-05, 1.17997144e-04,
          -1.84965596e-04, 6.42345636e-04, 5.63183949e-06, 0.,
          3.90209345e-04, 0., 0., 0., -1.56996757e-05, -1.64420504e-04,
          2.46975716e-04, -3.24491593e-05, 2.36906286e-04,
          1.33822439e-04, 0., -1.73126697e-04, 1.34370901e-04,
          -1.41190656e-03, 9.93513167e-05, -8.88938142e-04,
          4.12376306e-04, 3.41259874e-04, 7.85720622e-05,
          -8.93263088e-04, 8.63452966e-04, 1.07675500e-03, 0.,
          4.78372858e-05, 2.28561166e-05, -8.03120609e-04,
          3.13299242e-05, -2.88391230e-03, -4.79788287e-04,
          2.78655527e-04, 0., -3.66420045e-06, 0., 0., 0.,
          9.61331261e-06, 0., 3.68165580e-04, 0., 6.53077541e-06, 0.,
          5.79992957e-05, 0., -1.83047494e-04, 0., 6.98910095e-04,
          1.56178849e-05, 3.04729165e-05, -7.41848135e-06, 0., 0.,
          -4.82338110e-05, -1.36370033e-06, 5.12921251e-05, 0.,
          3.51246927e-05, 0., 1.46386776e-06, 0., -2.07187786e-05,
          -2.90564330e-05, 3.46674846e-04, 0., 3.18458842e-06, 0., 0.,
          0., 8.32936348e-06, 0., 4.19356229e-06, 0., 2.18998821e-06, 0.,
          1.88243739e-05, 0., -1.91641066e-05, -3.66420045e-06,
          5.23675641e-04, 0., -2.28006525e-06, -9.16640602e-06,
          1.93394499e-05, 0., -1.59648953e-05, 0., 0., 0., 0., 0.,
          -2.46102900e-05, 0., 0., 0., 3.38356804e-05, 0., 0., 0., 0.,
          0., 0., 0., 0., 0., 0., 0., 0., 0., 0., 0., -2.87842646e-04,
          1.75837067e-05, -1.57143251e-04, 0., -6.87802185e-06, 0.,
          -1.09412955e-04, 0., -9.94972288e-05, 0., 9.61331261e-06, 0.,
          1.45735794e-05, 0., -1.33729363e-05, 0., 1.33787427e-04, 0.,
          0., 0., 0., 0., 0., 0., 5.08849189e-05, 0., 0., 0.,
          3.51246927e-05, 0., 0., 0., 1.22320349e-03, 9.63956292e-04,
          3.45704670e-04, 1.51181244e-03, 7.73427601e-05, 0.,
          5.11706348e-05, 3.39379738e-04, 3.47052810e-05, 0.,
          -7.21297829e-06, -3.46346096e-05, 1.99842634e-05,
          -5.95461324e-06, -1.08814653e-04, -5.19331843e-05, 0.,
          3.51246927e-05, 0., -8.47503270e-06, 0., 0., 0., 0.,
          -9.64122864e-06, 0., 0., -1.95142584e-05, 0., 0.,
          -1.36370033e-06, -8.46232706e-06, 5.56263913e-05,
          -1.93155142e-06, 1.07541427e-05, -6.99845896e-06, 0., 0., 0.,
          0., -5.50220511e-06, 0., 0., 0., 0., 0., 0., 0.,
          -1.46014954e-05, 0., -7.41848135e-06, 0., 0., 0., 0., 0.,
          2.88754127e-05, 0., 0., 0., 0., 0., 0., 0., -4.87066514e-04,
          7.53756904e-04, 1.21330777e-04, 3.67462722e-04, 2.62680933e-05,
          -8.46232706e-06, -2.05401057e-06, -7.37281007e-05,
          -4.85751552e-05, -2.45821479e-06, 0., 0., -1.07174179e-04, 0.,
          -2.40576105e-06, -1.93155142e-06, -2.83506597e-05,
          1.46386776e-06, 0., 0., 0., 0., 0., 0., -2.84338967e-05,
          2.88754127e-05, 0., 0., 0., 0., 0., 0., -1.53074088e-03,
          -5.02292940e-04, 4.32495908e-05, -6.70710642e-06, 0., 0.,
          2.12510076e-06, -1.59031297e-05, -6.18426129e-05,
          3.27176604e-05, 0., -1.58808070e-05, -4.12953741e-05,
          -3.66420045e-06, -5.14362655e-05, -8.46232706e-06,
          -1.51765576e-04, 0., 0., 0., 0., 0., 5.03383171e-06, 0.,
          7.51345488e-06, 0., 1.07541427e-05, 0., 0., 0., 2.88754127e-05,
          0., -6.34597673e-05, -2.03568452e-05, 3.30106675e-04,
          2.40179099e-04, -5.14873645e-05, 0., -2.40253125e-04,
          1.15836492e-05, 1.18186523e-03, 5.03383171e-06, 2.91041833e-05,
          1.85423814e-05, 1.11397683e-04, 0., -1.56225532e-03,
          -3.44877699e-05, 4.39560608e-05, 0., 6.53077541e-06, 0.,
          2.05200959e-05, 0., -1.34173206e-05, 0., 7.67755380e-04, 0.,
          6.53077541e-06, 0., 7.65101402e-04, 0., -6.04503206e-04,
          -7.28559025e-05, -4.64951045e-05, 6.53077541e-06,
          -1.43133491e-06, 3.96295545e-05, 0., 0., -1.15098246e-05, 0.,
          -1.20073610e-05, 0., 0., 0., -8.78689934e-06, 0.,
          -5.96572136e-05, -3.98105767e-05, 5.95232646e-04, 0., 0., 0.,
          0., 0., 1.75837067e-05, 0., 3.79798701e-04, 1.25457427e-05,
          5.98498373e-05, -1.03296788e-05, 8.41585934e-05,
          -6.18414106e-06, -2.55789801e-05, 5.62190398e-05,
          3.12113334e-05, 0., 0., 1.19511278e-05, 0., 0., 0., 0.,
          1.32223204e-06, 0., 0., 0., 0., 0., -3.18193429e-06, 0., 0.,
          0., 0., 0., 0., 0., 0., 0., 0., 0., 0., 0., 0., 0., 0., 0.,
          -3.61795712e-04, -1.48046174e-05, -5.21656284e-06,
          -2.98977648e-05, 0., 0., 0., 0., -2.62348876e-05, 0.,
          -1.36370033e-06, 0., -5.29553254e-05, 0., 9.31538452e-05,
          1.46386776e-06, 7.26826373e-04, 0., 0., 0., 0., 0., 0., 0.,
          4.11917048e-04, -1.69373598e-05, 1.23997070e-05, 0.,
          -1.97493900e-05, 0., -4.01785437e-05, 2.14569318e-05,
          2.41716552e-04, -1.26961568e-05, -4.89449885e-05,
          -7.67887759e-05, 0., 0., 4.35115435e-05, -9.74468276e-05,
          -9.94916809e-06, 0., 0., 2.86263803e-05, 3.19062201e-05, 0.,
          1.14100141e-04, -2.64242844e-04, 0., 0., 0., 1.67416365e-05,
          0., 0., 0., 0., 0., 0., 0., 2.96083832e-04, -8.47503270e-06,
          0., -1.96160454e-05, 1.92470281e-04, 1.69124687e-05, 0.,
          1.07541427e-05, -1.18441003e-05, 0., 0., 1.19511278e-05, 0.,
          0., 0., 0., 6.37041812e-05, -3.71159967e-06, 0.,
          2.65705312e-05, 4.53791472e-05, 0., 0., 0., 1.10583547e-04, 0.,
          0., 0., 0., 5.99760351e-05, 5.25193764e-06, -5.50220511e-06,
          7.18982425e-04, 0., -3.66420045e-06, 2.74277972e-05,
          2.25415701e-04, 3.96162759e-05, -3.79436678e-05,
          1.59151059e-05, 4.14141214e-05, 2.08740421e-05, 0.,
          -5.21246329e-05, 1.74109155e-05, -1.69373598e-05, 0., 0.,
          -1.07336964e-05, 0., 0., 1.20842913e-06, 5.92859142e-05,
          -3.66420045e-06, 0., 0., 0., 0., 0., 0., 0., 0., 0., 0., 0.,
          0., 0., 1.75837067e-05, 0., -2.70300452e-03, -2.76411065e-05,
          8.77188086e-07, -9.57549026e-04, 0., 0., 1.48102235e-05,
          1.40446777e-04, 1.47587707e-04, 0., 0., -1.71021547e-05,
          -8.08486948e-05, 0., -2.08707512e-04, -1.92190346e-04,
          -5.58300526e-04, 2.10673988e-05, 6.98100121e-06,
          1.24902508e-04, 0., 0., 3.13299242e-05, 2.88754127e-05,
          -3.45339562e-04, 8.25621901e-05, 2.62928224e-05,
          6.43199455e-05, 1.19151955e-04, 0., -2.44135386e-04,
          6.42503510e-05, -1.40057341e-03, -1.94008739e-04,
          -2.89092452e-04, -3.75768170e-04, 1.99697461e-05,
          1.19511278e-05, -7.67905294e-06, 1.01887315e-04,
          1.38981349e-03, -2.51994038e-06, 5.74794976e-05,
          7.37993196e-06, 1.34100788e-04, 0., -6.97215819e-06,
          4.96026632e-06, 7.73347324e-07, 0., -1.46014954e-05, 0., 0.,
          0., 0., 0., 5.56928862e-04, -1.46014954e-05, -1.05332913e-06,
          1.46386776e-06, 7.59402392e-05, 0., -2.98977648e-05, 0.,
          3.46798712e-04, -2.07209596e-05, -4.32979959e-06,
          -5.19740097e-05, -9.33731917e-06, 0., 0., 0., -4.92777035e-05,
          0., 0., 0., 2.96856670e-05, 0., 4.96026632e-06, 0.,
          1.70026964e-04, -3.65412161e-05, -1.03362008e-05,
          -3.86581924e-05, 0., 0., 0., 0., 9.92860645e-04,
          3.20600011e-05, -1.85419776e-04, 3.94544622e-05,
          -4.92715772e-05, 0., -5.97955295e-05, 1.75837067e-05,
          -1.63748322e-04, 0., 3.36909693e-06, 1.75837067e-05,
          2.85463625e-06, 0., 1.19511278e-05, 0., -3.86581924e-05, 0.,
          0., 0., 0., 0., 0., 0., 0., 0., 0., 0., 0., 0., 0., 0., 0., 0.,
          0., 0., 0., 0., 0., 0., 1.72674074e-04, 0., -1.02235151e-06,
          0., 3.36909693e-06, 0., 1.86312463e-05, 0., 3.77238794e-05, 0.,
          0., 0., 1.66364844e-05, 0., -2.51994038e-06, 0.,
          -3.74355965e-04, 0., -3.24152170e-05, 0., 0., 0., 0., 0.,
          -6.13366487e-04, 0., 0., 0., -2.51994038e-06, 0.,
          1.75837067e-05, 0., 3.46439891e-04, 2.96311860e-04,
          1.88143633e-04, 2.28759629e-04, 3.65045780e-05, 3.18458842e-06,
          -1.69500654e-05, -2.35111060e-04, 2.32992261e-05,
          2.32228140e-05, 1.34507172e-05, 8.87908318e-05, 0., 0., 0.,
          -1.23140580e-05, -4.58711693e-05, 3.84511623e-05,
          -2.51994038e-06, -2.98977648e-05, 0., 0., 0., 0.,
          -1.14169070e-05, -3.86581924e-05, 0., 1.19904153e-05, 0., 0.,
          0., 0., 4.68525577e-05, -1.00245641e-04, -4.94120213e-05,
          1.87283445e-06, 0., 0., 0., 0., 3.18458842e-06, 0., 0.,
          1.12607286e-05, 0., 0., 0., 0., 1.79095405e-05,
          -7.73175198e-05, 0., -3.33256394e-05, 0., 0., 0.,
          -3.86581924e-05, -1.76483416e-04, -9.68606128e-06, 0.,
          4.58451759e-05, 0., 0., 0., 6.53077541e-06, -2.81448360e-04,
          -2.46111915e-04, -4.23223937e-05, 3.44029613e-05, 0., 0.,
          -8.47503270e-06, -8.47503270e-06, 0., 0., 0., -8.47503270e-06,
          0., 0., 0., 0., 1.75837067e-05, 0., 0., 0., 0., 0., 0., 0., 0.,
          0., 0., 0., 0., 0., 0., 0., -7.12558613e-05, -7.41212134e-05,
          8.74078796e-06, -2.04470302e-06, 0., 0., 0., 0., 0., 0., 0.,
          0., 0., 0., 0., 0., 4.89002014e-05, 0., -3.33650933e-05,
          5.26964868e-06, 0., 0., 0., 0., -1.14297669e-04,
          -1.02235151e-06, 0., 0., 0., 0., 0., 4.96026632e-06,
          4.97734349e-04, -2.69327080e-04, -2.54740677e-04,
          1.87155983e-05, -2.67601834e-04, -2.20977236e-05,
          -2.45620322e-04, -2.62936781e-04, 3.14023404e-04, 0.,
          2.70587188e-05, 9.10867402e-06, 1.02860831e-04, 0.,
          3.24923240e-05, 1.01099991e-04, -2.86251598e-05, 0.,
          -2.83506597e-05, 1.75837067e-05, 0., 0., 0., 0.,
          -1.11041860e-04, 0., 1.49333391e-05, 2.95348345e-05,
          -2.40690442e-05, 0., -3.83416909e-06, 0., 5.43449642e-05,
          -8.47503270e-06, 3.03448996e-05, -5.69882759e-05,
          5.29309818e-06, 0., -3.86581924e-05, 0., -9.72910057e-05, 0.,
          0., 0., 1.75837067e-05, 0., -8.68223506e-05, 0.,
          -6.74843322e-04, 0., -3.86581924e-05, 4.64281402e-05, 0., 0.,
          0., 0., -3.15426965e-04, -8.61246808e-05, -2.05996956e-04,
          7.71518608e-05, -3.04251938e-04, -2.83506597e-05,
          -1.52261346e-04, 1.29685752e-04, 1.40108050e-05, 0.,
          -1.10129167e-06, 0., 0., 0., 0., 0., 3.18458842e-06, 0., 0.,
          0., 0., 0., 5.74298938e-05, 0., 3.36909693e-06, 0., 0., 0., 0.,
          0., 0., 0., -3.86581924e-05, 0., 0., 0., 0., 0., 0., 0.,
          -7.77237510e-05, 0., 0., 0., 0., 0., 0., 0., 0., 0., 0., 0.,
          0., 0., -3.65926935e-05, 0., 2.41741782e-05, 0., 0., 0., 0.,
          0., 0., 0., -1.37936033e-04, 3.81458312e-06, 0., 0.,
          -8.47503270e-06, 0., 6.04031015e-07, 0., 1.39152620e-03,
          5.17164532e-04, -4.39207433e-05, 1.40765077e-03,
          -2.98977648e-05, -3.52890966e-05, 2.18998821e-06,
          -6.01583626e-04, 1.75837067e-05, 2.88754127e-05, 0.,
          -1.77766575e-04, -2.98977648e-05, 0., 1.27753272e-04,
          -2.51896156e-04, 0., 0., 0., -3.15272664e-05, 0., 0., 0., 0.,
          6.01689462e-05, 0., 0., -1.51823813e-04, 0., 0., 0.,
          -5.95544370e-05, 3.13246492e-05, 0., 0., -7.34157278e-04, 0.,
          0., 0., -2.10744856e-05, 0., 6.53077541e-06, 0.,
          -6.27816044e-05, 0., 0., 0., -2.10806593e-05, -7.86330111e-06,
          8.89824005e-05, 5.29309818e-06, -3.87460517e-04, 0., 0., 0.,
          -3.86581924e-05, -1.03310085e-04, 1.92108011e-04,
          9.63262355e-05, 8.50833894e-04, -8.47503270e-06, 0.,
          4.32446614e-05, -3.96316027e-05, -4.28404337e-06,
          -2.95160476e-06, -4.93737753e-06, 1.31874724e-04, 0., 0., 0.,
          -3.86581924e-05, 7.62916625e-06, 0., 0., 0., 0., 0.,
          -1.53244073e-05, -9.34646778e-06, 0., 0., 0., 9.61331261e-06,
          0., 0., 0., 0., 0., 0., 0., 3.36909693e-06, 0., 0., 0., 0.,
          -2.81567714e-04, 4.80492890e-05, -2.22438066e-05,
          -3.13747514e-05, 3.36401281e-05, 0., 3.30575094e-05,
          6.50904940e-06, 1.58818148e-04, 0., 3.32049676e-05,
          -9.83106384e-06, 9.43609193e-05, 0., -3.62637184e-05,
          7.62927375e-05, -3.54229201e-06, 0., 0., 1.39107524e-05, 0.,
          0., -6.11946462e-06, 0., 3.50344235e-05, -2.12107225e-05,
          4.99247799e-05, -4.47710481e-05, 3.26899972e-05, 0.,
          -2.91819888e-05, 4.40390650e-05, 1.79662893e-03,
          -1.07585824e-04, -2.10007231e-04, 5.15125343e-04,
          -7.00170422e-05, 1.75837067e-05, -2.66219227e-04,
          7.58575788e-06, 9.10581439e-04, -9.51702441e-06,
          -8.53177553e-05, 4.70337109e-05, -3.78748264e-05,
          5.03383171e-06, -6.93380483e-04, -3.17398226e-05,
          1.59880583e-05, -1.36370033e-06, -6.11946462e-06, 0.,
          4.99580055e-05, 0., 1.12607286e-05, 0., 2.78686784e-04,
          6.84946281e-05, 1.16943447e-04, 3.00510746e-05, 2.92816785e-05,
          -9.78277967e-06, -1.28745683e-04, 8.14485429e-06,
          -5.32495847e-04, 1.42739182e-05, 2.42561273e-05,
          -7.65654549e-05, -1.46014954e-05, 0., 1.46386776e-06, 0.,
          -1.45452086e-05, 0., 0., 0., 5.29309818e-06, 0.,
          -4.11548572e-05, 0., -6.98159216e-04, 0., -5.28622804e-05,
          -1.36370033e-06, 0., 0., 0., 0., 1.02700514e-03,
          1.12607286e-05, -4.52789500e-05, -2.77131585e-05,
          -4.52480512e-04, 0., -1.04676246e-05, 4.64591212e-05,
          -6.89170731e-04, -4.62972966e-05, 5.14126441e-06,
          -7.83387368e-05, -1.46014954e-05, 0., 0., 0., 5.92249307e-05,
          0., 0., -2.98977648e-05, 0., 0., 0., 0., 0., 0., 0., 0., 0.,
          0., 0., 0., 0., 0., 0., 0., 0., 0., 0., 0., -7.76247180e-05,
          0., 0., 0., 0., 0., 0., 0., -4.51337037e-05, 0., 0., 0., 0.,
          0., 5.29309818e-06, 0., -3.15998432e-06, 0., 0., 0., 0., 0.,
          0., 0., 2.55694285e-05, 0., 0., 0., -5.09722486e-05, 0.,
          5.29309818e-06, 0., 3.98172473e-04, -1.13968237e-03,
          1.05090885e-05, 9.07587120e-04, 8.79511117e-06, 3.81458312e-06,
          5.40882866e-05, -4.14790920e-05, -1.57003858e-04,
          2.68458025e-05, -6.92860704e-05, -8.61676162e-05,
          3.19104292e-05, -2.51994038e-06, -8.38423693e-06,
          -6.76388008e-05, -7.46220248e-05, 5.99408122e-05, 0.,
          -6.85559571e-05, 0., 0., 0., 0., -4.52898930e-05,
          -1.02231616e-05, -1.46014954e-05, 6.63949104e-05,
          -4.63981341e-05, -5.02790090e-06, -1.50437654e-05,
          9.18621663e-05, -2.89102354e-05, 8.86431644e-06, 0.,
          -1.11792448e-04, 0., 0., 0., 0., 1.12607286e-05,
          -8.47503270e-06, 5.29309818e-06, -3.08706003e-05,
          2.88754127e-05, 0., 0., 0., 3.36402773e-05, 2.07749472e-05, 0.,
          -4.28200146e-05, 0., 0., 0., 0., -1.37593715e-05,
          -7.26878570e-05, 0., -1.43884856e-04, 1.99960705e-05,
          -5.32596860e-05, 1.07541427e-05, -2.24460236e-05,
          2.11815728e-04, -5.87367860e-04, 2.25214571e-05,
          -2.35839434e-05, 0., 0., 0., -8.47503270e-06, 3.79531084e-05,
          -4.09110089e-06, 0., 5.65864611e-05, 0., 0., 0., 0.,
          -1.46014954e-05, 0., 0., -1.21975645e-05, 0., 0., 0., 0.,
          1.19511278e-05, 1.19511278e-05, 0., 0., 0., 0., 0., 0.,
          2.88974959e-04, 1.21122786e-04, 0., -5.22813716e-05, 0., 0.,
          0., 0., -1.91641066e-05, 0., 0., 0., 0., 0., 0., 0.,
          -2.83506597e-05, 0., 0., 3.36909693e-06, 0., 0., 0., 0.,
          2.88754127e-05, -1.16192832e-05, 0., 4.08265405e-05, 0.,
          2.88754127e-05, 0., 0., -3.61754559e-04, -1.00735830e-04,
          -2.00097682e-04, -2.83522182e-04, 6.33512536e-05,
          -2.98977648e-05, -1.48606108e-04, -2.23982875e-06,
          5.65251044e-04, -3.66420045e-06, -2.04367316e-05,
          6.69914662e-05, 7.06338105e-05, 3.12935335e-05, 2.24487128e-04,
          9.19923605e-06, 9.80279074e-05, 0., -2.68867916e-05, 0.,
          4.51965752e-05, 0., 2.88754127e-05, 0., -9.29862144e-04,
          2.88754127e-05, -8.26610849e-05, 1.39576889e-06,
          -5.07963879e-04, -2.83506597e-05, 1.82741613e-04,
          -1.46014954e-05, 1.47276281e-04, 0., -1.34569946e-05,
          1.46386776e-06, 0., 0., 0., 0., -9.16028366e-05, 0., 0., 0.,
          -3.91375725e-05, 0., -1.17920690e-05, 0., 4.31465858e-04,
          -1.84908258e-05, 0., 0., -1.11473655e-05, 0., 0., 0.,
          1.40478893e-03, -6.81979509e-05, -2.74233316e-05,
          -2.00088718e-04, 5.65178671e-05, 0., 1.27592633e-04,
          -9.78794560e-05, 1.26859202e-04, -2.45846604e-05,
          1.03269304e-05, -2.91452052e-05, 0., 0., 0., 0.,
          4.79229857e-05, 0., 0., 0., 0., 0., -3.53707510e-05,
          -8.47503270e-06, 0., 0., 0., 0., 0., 0., 0., 0.,
          -3.86581924e-05, 0., 0., 0., 0., 0., 0., 0., -2.26808945e-04,
          0., 0., 0., 0., 0., 0., 0., 3.93823284e-05, 0., 0., 0.,
          7.62916625e-06, 0., -5.68423093e-05, 0., -5.25175983e-06, 0.,
          0., 0., 0., 0., 0., 0., 1.51622271e-05, 3.47208038e-06, 0., 0.,
          -3.86581924e-05, 0., -1.46762432e-05, 0., 1.16914022e-03,
          6.30496652e-04, -1.53827903e-04, 1.57885451e-03,
          2.16834815e-06, 0., 1.75837067e-05, -3.57122553e-05,
          1.30153412e-05, -3.12062984e-05, -3.33388416e-05,
          -1.80135103e-04, 2.88444353e-05, 0., -5.41404515e-05,
          1.59999836e-05, -2.51994038e-06, 2.63696602e-05,
          -2.51994038e-06, 1.32928326e-05, 0., 0., 0., 1.75837067e-05,
          -3.02449807e-05, -1.34139900e-05, 0., -1.25653954e-04, 0.,
          1.46386776e-06, 3.22445085e-05, -2.78567779e-04,
          -1.68401137e-04, 2.67640007e-05, 5.03383171e-06,
          1.56383812e-05, 0., 0., 0., -2.83506597e-05, -1.84908258e-05,
          0., 0., -5.36399093e-05, 0., 0., -1.13526758e-05,
          -4.39604082e-06, 2.21557839e-05, 2.18998821e-06, 0.,
          -8.26705873e-05, 0., 0., 0., -2.98977648e-05, 9.97318057e-05,
          1.98954847e-04, -5.64627953e-05, -7.21664692e-04,
          1.93780288e-05, 0., -4.83252988e-05, 1.96425099e-05,
          -2.03094620e-04, -2.14283325e-04, -5.32596860e-05,
          -3.73081333e-04, 0., 0., 0., 1.75837067e-05, 3.18576240e-05,
          2.95348345e-05, 0., -5.68999312e-05, 0., 0., -2.79290384e-06,
          3.31602205e-05, 0., 0., 0., 0., 0., 0., 0., 0., 0.,
          -1.71214360e-05, 0., 0., 0., 0., 0., 2.78569610e-06,
          -7.52041058e-04, 1.15336072e-04, 1.88329868e-04,
          -2.10640919e-05, -7.12592810e-05, 0., 1.52936380e-04,
          -1.36146657e-04, -2.46971995e-05, 0., 0., -1.82887907e-05,
          7.39673560e-05, 0., -5.45660550e-05, -1.03381266e-04,
          -1.34198548e-04, 2.88754127e-05, 0., 1.86841826e-05,
          -9.78277967e-06, 0., 0., 0., -2.48841447e-04, -9.77187301e-05,
          -6.80312078e-05, 1.58284805e-04, -5.32577542e-05, 0.,
          -5.65772780e-06, 3.93053742e-05, 7.84948992e-04,
          -2.51810066e-04, -1.14519880e-05, -1.14453770e-03,
          -7.21645833e-04, -1.09476396e-05, 4.12115012e-04,
          -1.02114736e-03, -4.09940141e-04, 0., -9.79991310e-05,
          3.98062184e-05, -2.06464712e-04, 0., 6.99861790e-04,
          6.38866140e-06, -6.01544452e-05, 0., -6.63498140e-05, 0., 0.,
          0., -2.98977648e-05, 2.88754127e-05, 1.96196979e-05, 0.,
          6.46477815e-07, 1.19511278e-05, -1.20656390e-04, 0.,
          -2.58680120e-05, 1.12607286e-05, 8.44746828e-04,
          -4.77940812e-05, 1.29361462e-04, -9.32199182e-05,
          -1.15091916e-05, 0., 0., -7.09420056e-05, 3.07812188e-05, 0.,
          -4.29324500e-05, -1.83170287e-05, 2.14569318e-05, 0., 0.,
          -1.46014954e-05, -1.11820096e-04, 2.16746275e-06,
          -4.68534454e-05, 3.43226529e-05, 1.65538277e-05, 0.,
          9.89702858e-06, 0., 1.67953025e-03, -9.82602705e-06,
          -4.94728374e-05, 2.41678263e-05, -3.73838884e-05,
          -3.86581924e-05, 2.78530606e-05, 2.88754127e-05,
          3.59750302e-05, -4.65559651e-06, -1.46762432e-05, 0.,
          4.13390035e-06, 0., -7.41848135e-06, 0., 1.16290930e-05, 0.,
          0., 0., 0., 0., 0., 0., 1.46386776e-06, 0., 0., 0., 0., 0., 0.,
          0., 4.64591212e-05, 0., 0., 0., 0., 0., 0., 0.,
          -1.99151531e-04, 0., 3.20600011e-05, 0., 0., 0., 0., 0.,
          -5.33322236e-05, 0., 0., 0., 0., 0., 0., 2.88754127e-05,
          2.49792211e-04, 1.46386776e-06, -8.17057226e-05,
          -3.74975207e-06, 0., 0., 0., 0., 8.52316502e-04, 0.,
          7.14250564e-05, 0., 0., 0., 0., 0., -1.37773195e-05,
          -3.39766440e-04, -1.08164539e-04, 1.37629046e-03, 0.,
          -9.87669591e-06, 2.19483195e-06, -7.48879975e-04,
          -1.55440604e-04, -3.67594985e-05, 2.18998821e-06,
          -2.15794498e-04, 2.88754127e-05, 0., 0., -3.81334394e-05, 0.,
          1.61425044e-06, 0., 0., 0., 0., 0., 0., -2.96453509e-05,
          -5.95461324e-06, 0., -4.52038221e-05, 0., -7.41848135e-06, 0.,
          0., -5.43489332e-05, -8.43308808e-05, -1.78369573e-05,
          2.27447032e-04, 0., 0., 0., -3.09201168e-05, -6.11946462e-06,
          -7.16373233e-06, 0., -2.51994038e-06, 0., 0., 0., 0.,
          6.96536517e-05, -1.18313554e-04, -2.42128754e-05,
          1.26277417e-04, 0., 0., 0., 2.88754127e-05, -2.49994118e-05,
          2.71857516e-05, 2.57231441e-05, -3.85500134e-05, 0.,
          -6.11946462e-06, 0., 1.12607286e-05, -1.37990515e-04,
          -3.87850123e-05, 0., 1.40751465e-04, 0., 0., 3.81458312e-06,
          5.30903781e-05, -2.83506597e-05, 0., 0., 0., 0., 0., 0., 0.,
          0., 0., 0., 0., 0., 0., 0., 0., 0., 0., 0., 0., 0., 0., 0., 0.,
          -2.96348036e-04, 2.30650821e-05, 2.53518920e-05,
          -3.61771454e-05, 0., 0., 2.88754127e-05, 0., 0., 0., 0., 0.,
          0., 0., 1.20461918e-04, 0., -5.15285705e-04, -2.33003993e-05,
          0., -6.95841209e-06, 0., 0., 1.12607286e-05, 0.,
          -1.02027545e-04, 6.75696629e-06, 0., -4.94332526e-05, 0., 0.,
          0., 0., -1.53022833e-04, -4.79599403e-04, -6.96346469e-05,
          7.62382479e-05, -9.14892225e-05, 2.08439760e-05,
          -1.58805677e-04, 1.93362255e-04, 8.77331040e-05,
          6.75696629e-06, -1.07326137e-04, -1.26846426e-05,
          -2.75740113e-05, 0., -1.55298243e-04, -1.33622350e-04,
          2.18693109e-04, 0., 2.59850149e-05, 0., 0., 0., 0., 0.,
          -4.61246789e-04, -2.83506597e-05, 0., 1.25698571e-05,
          -5.69775038e-05, 0., -5.10173268e-05, -3.86581924e-05,
          6.19979692e-04, 0., -1.19174738e-05, 2.58867549e-05, 0., 0.,
          1.75837067e-05, 1.46386776e-06, -3.71895985e-05, 0.,
          1.19511278e-05, 0., -1.08563268e-06, 0., 5.77045685e-05,
          3.81458312e-06, -1.10810599e-03, 1.46386776e-06,
          8.36835443e-06, 2.63554721e-05, -6.11946462e-06, 0., 0., 0.,
          1.34510419e-03, -4.05093342e-05, 7.44310601e-05,
          -4.81720745e-05, 1.17960364e-04, 0., -2.36165419e-04,
          1.19618897e-04, -5.48456301e-05, 1.46386776e-06,
          -3.96805444e-05, -1.81467512e-05, 0., 0., 0., 0.,
          -2.98977648e-05, 0., 1.46386776e-06, 0., 0., 0.,
          -1.29819955e-05, 0., -3.22209671e-05, 0., 0., 0., 0., 0., 0.,
          0., -3.86581924e-05, 0., 0., 0., 0., 0., 0., 0.,
          1.29025109e-04, 0., -1.31376273e-05, -9.03114596e-06, 0., 0.,
          4.96026632e-06, 0., 2.88754127e-05, 0., 0., 0., 0., 0.,
          1.87816295e-05, 0., -7.90832913e-04, 0., 1.42739182e-05,
          2.88754127e-05, 0., 0., 0., 0., -6.92282978e-04,
          2.88754127e-05, 0., 0., 3.38356804e-05, 0., 2.77672862e-05, 0.,
          -5.94250974e-04, -3.47383611e-04, -2.34053936e-04,
          2.94456352e-03, 0., 3.39092439e-05, -2.84338967e-05,
          8.05680233e-04, -1.59225947e-05, -3.57691424e-05, 0.,
          1.27810679e-04, 0., 3.18458842e-06, 3.42890635e-05,
          -1.91859697e-04, 1.75837067e-05, 0., 0., -8.95911580e-05, 0.,
          0., 0., 1.46386776e-06, -4.38866846e-05, -7.41848135e-06, 0.,
          6.70672744e-05, 0., 0., 0., 5.08072844e-05, -1.27733278e-04,
          -3.00876927e-05, 0., -2.04235606e-04, 0., 0., 0.,
          7.11658213e-05, 2.18998821e-06, 0., 0., -4.13127818e-05, 0.,
          0., 0., 1.62889785e-06, -1.61165372e-05, 0., 0.,
          -4.25835242e-05, 0., 0., 0., -2.12538271e-06, -1.93451619e-04,
          -7.75876833e-05, -5.22251648e-05, 1.01446778e-04, 0., 0.,
          -4.64752229e-05, -2.17989896e-06, -1.66526021e-04,
          -4.46128070e-05, -8.96932906e-05, 4.45937394e-06, 0., 0.,
          4.96026632e-06, 0., -3.86581924e-05, 0., 0., 2.63696602e-05,
          0., 0., 4.96026632e-06, -9.05855923e-05, -4.00218923e-05, 0.,
          0., 2.28768058e-05, 0., 0., 0., 0., 0., 0., 0., 0., 0., 0., 0.,
          0., 9.75734380e-04, -7.46652586e-05, 8.50041324e-05,
          6.72027600e-05, -2.20681613e-05, 0., -3.31252813e-05,
          4.02440310e-06, -1.77514194e-05, 0., 0., 4.57868082e-05,
          -6.11946462e-06, 0., -4.21978402e-05, -8.18424596e-05,
          1.12891885e-05, -2.98977648e-05, 3.81458312e-06,
          -2.49103003e-04, 0., 0., 3.38356804e-05, 0., -5.73458783e-05,
          -6.32837837e-05, 1.78047031e-07, -1.84902819e-04,
          1.66920381e-05, 0., 8.72847668e-05, -4.59563016e-05,
          -2.12980667e-05, -3.31754592e-04, 1.19507065e-04,
          6.09627750e-04, -3.73516668e-04, -1.46014954e-05,
          -6.44308748e-05, 7.07419895e-05, 6.02197193e-04,
          -4.73622749e-05, 1.37211973e-04, -8.48994841e-06,
          6.72987429e-04, 0., 4.18588228e-04, -3.97388394e-05,
          2.40913985e-04, 0., -3.57691424e-05, 1.39195063e-05, 0., 0.,
          0., 0., 9.07017093e-05, -6.11946462e-06, 1.06489657e-04,
          -6.89786975e-06, -6.77128482e-05, 0., 1.16435825e-04,
          -2.98977648e-05, 1.30128604e-03, 6.53077541e-06,
          -2.33100236e-05, -2.43842751e-05, 3.18458842e-06, 0., 0., 0.,
          -6.00254680e-06, 0., 0., 0., 3.99146884e-05, 0., 0., 0.,
          1.33533531e-03, 0., 2.88754127e-05, -2.51994038e-06,
          -2.98977648e-05, 0., 0., 0., -9.34445125e-04, 1.90049996e-05,
          -8.18059125e-05, -5.72254612e-05, 4.05615603e-04, 0.,
          -1.44145224e-05, -2.83506597e-05, 1.05224179e-04, 0.,
          6.98100121e-06, 2.88754127e-05, 1.07541427e-05, 0., 0., 0.,
          2.02501942e-05, 0., 0., 0., 0., 0., 0., 0., 0., 0., 0., 0., 0.,
          0., 0., 0., 6.42413397e-06, 0., 0., 0., 0., 0., 0., 0.,
          -3.97838267e-05, 0., 0., 0., 0., 0., 0., 0., -1.02235151e-06,
          0., -3.86581924e-05, 0., 0., 0., 0., 0., 2.37398799e-05, 0.,
          0., 0., 0., 0., 0., 0., 1.05594563e-05, 0., 4.39533651e-05, 0.,
          0., 0., 5.29309818e-06, 0., -9.57456417e-04, -1.71635894e-03,
          -1.79293187e-04, -7.00978795e-04, -2.33903938e-05, 0.,
          9.76369574e-06, -2.38732846e-05, -9.60964007e-06,
          -1.41075279e-05, -1.57202994e-05, -1.02212443e-05,
          -6.70088557e-05, 0., -7.46754231e-05, -7.42626389e-06,
          -1.46014954e-05, 0., 0., -2.51660713e-05, 0., 0., 0., 0.,
          1.50720325e-05, -5.96303062e-06, 0., -1.67787948e-04,
          -3.86581924e-05, 0., 2.16834815e-06, -1.11851186e-04,
          -9.16640602e-06, 3.20418294e-05, 0., -9.83705904e-05, 0., 0.,
          0., -3.86581924e-05, 0., 0., 0., 1.75837067e-05, 0., 0., 0.,
          0., -5.72952267e-05, -3.71159967e-06, -2.51994038e-06,
          5.29517365e-06, 0., 0., 0., 0., -8.60262007e-05,
          8.05162417e-05, -5.81724526e-05, 1.81561656e-04,
          2.88754127e-05, 0., 2.88754127e-05, -9.84537182e-05,
          -1.22664016e-04, -2.81814428e-05, 0., 1.10091314e-04, 0., 0.,
          0., 0., 5.29309818e-06, 0., 0., 0., 0., 0., 0., 0., 0., 0., 0.,
          0., 0., 0., 0., 0., 0., 0., 0., 0., 0., 0., 0., 0.,
          -9.99299573e-06, 1.70417679e-05, 0., 6.53077541e-06, 0., 0.,
          0., 0., 0., 0., 0., 0., -6.11946462e-06, 0., 0., 0.,
          -6.11946462e-06, 0., 0., -1.46014954e-05, 0., 0., 0., 0.,
          -4.68096277e-06, -2.98977648e-05, -2.51994038e-06, 0.,
          2.88754127e-05, 0., 0., 0., 1.80656556e-03, 1.51575514e-04,
          9.32377996e-04, 6.48658082e-04, -8.48109339e-05, 0.,
          4.54775800e-05, -4.55270638e-05, -1.16119755e-03, 0.,
          -6.52061208e-05, -5.52374513e-05, -1.96115598e-05, 0.,
          1.83307475e-05, -2.41760699e-05, -2.42994356e-05, 0.,
          3.16641831e-06, 1.75837067e-05, 0., 0., 0., 0.,
          -1.61717145e-03, -2.83506597e-05, -3.86581924e-05, 0.,
          -3.56890960e-05, 0., -3.53999712e-05, 0., 5.58097032e-04, 0.,
          -2.92029908e-05, 1.18238740e-05, 0., 0., 0., 0.,
          -1.58292329e-04, 0., 0., 0., 1.75837067e-05, 0.,
          -1.55824328e-05, 0., 3.21345258e-04, 0., 0., 1.12607286e-05,
          0., 0., 0., 0., -6.78068725e-04, 7.80823666e-06,
          -9.03926048e-05, -3.75850177e-05, 4.66476122e-05, 0.,
          7.96898457e-05, -4.66127221e-06, -5.26848773e-04,
          -2.98977648e-05, 2.88754127e-05, 0., 0., 0., 0., 0.,
          -3.86581924e-05, 0., 0., 0., 0., 0., 3.91279682e-05,
          3.18458842e-06, 0., 0., 0., 0., 0., 0., 0., 0., 6.53077541e-06,
          0., 0., 0., 0., 0., 0., 0., 4.79923001e-05, 0., 0.,
          -1.46014954e-05, 0., 0., 0., 0., 5.29309818e-06, 0.,
          -1.21975645e-05, 0., 0., 0., 1.50062015e-05, 0.,
          5.96804603e-05, 0., 0., 0., 0., 0., 0., 0., 4.70972664e-05, 0.,
          0., 0., -3.86581924e-05, 0., 2.86069844e-05, 0.,
          4.08438325e-04, -7.40130141e-04, -6.47955312e-05,
          -6.04162517e-04, 1.14642426e-05, 2.63696602e-05,
          -1.56238475e-05, 1.56342663e-04, 4.73974396e-05,
          -6.11946462e-06, 0., -1.13287271e-04, 0., 0., 1.19619282e-04,
          8.13603838e-05, 9.43118721e-06, 2.63696602e-05, 0.,
          -7.77932746e-06, 0., 0., 0., 0., 1.75837067e-05,
          -1.01554160e-05, 0., -1.34456030e-04, -8.47503270e-06, 0., 0.,
          4.08303640e-05, 8.04817391e-05, 0., 0., -6.50512811e-05, 0.,
          0., 0., 0., 2.63696602e-05, 0., 0., 1.46386776e-06, 0., 0.,
          9.43118721e-06, -1.32199157e-05, 9.43118721e-06,
          3.44725850e-05, -1.46014954e-05, -1.47992061e-04, 0., 0., 0.,
          0., -3.10703937e-04, -7.40950272e-05, 1.88563481e-05,
          3.51177499e-04, -3.86581924e-05, 3.16641831e-06,
          -3.87434775e-05, 8.20805726e-05, 3.91772133e-04,
          -1.57272574e-04, 2.07501253e-05, 5.78660576e-04, 0., 0., 0.,
          3.12935335e-05, 0., 0., 0., 1.75837067e-05, 0., 0.,
          -1.24925034e-04, 1.12163716e-05, 0., 0., 0., 0., 0., 0., 0.,
          0., 0., 0., 0., 0., 0., 0., 0., 0., 2.27221826e-04,
          -4.07193784e-06, 2.49163219e-04, 1.60148906e-04,
          -1.32789473e-05, 0., 5.38614267e-06, 8.20139539e-05,
          -1.78004440e-04, 0., -3.76344469e-05, 4.74791705e-06,
          1.07541427e-05, 0., -4.52990353e-05, -5.52620941e-06,
          -1.31359702e-05, -8.47503270e-06, 3.36909693e-06,
          -7.43970231e-05, 0., 0., -1.46014954e-05, 0., 2.80167842e-05,
          -3.26086811e-05, 5.24424786e-06, -1.32149216e-04,
          -1.40252436e-04, -2.83506597e-05, 5.09330175e-06,
          -2.59450335e-05, -2.21846229e-03, -2.08406527e-05,
          4.44033998e-04, -2.23129355e-05, 1.87411162e-04, 0.,
          2.66049057e-04, 2.04410412e-06, -2.27728760e-05, 0.,
          8.08629411e-05, 3.81458312e-06, 1.55338319e-04, 0.,
          3.25010129e-04, 1.67368471e-05, 1.54883412e-06, 0., 0.,
          -3.71159967e-06, 0., 0., 0., 0., -3.52617499e-04, 0.,
          -1.96343772e-05, -2.51994038e-06, -4.35038004e-04, 0.,
          5.75029080e-05, -3.71159967e-06, -3.95465067e-05,
          -2.51994038e-06, -6.11946462e-06, 0., 0., 0., 0., 0.,
          1.56702718e-05, 0., 0., 0., -2.49815639e-05, 0.,
          3.36909693e-06, 0., -4.88384212e-05, 0., 0., 0., 0., 0., 0.,
          0., 1.48473802e-04, 0., -1.21739267e-05, 0., -1.93155142e-06,
          0., -5.09322945e-06, 0., 3.58663790e-04, 3.81458312e-06, 0.,
          0., 0., 0., 1.86312463e-05, 0., 0., 0., 0., 0., 0., 0., 0., 0.,
          -3.71159967e-06, 0., 0., 0., 0., 0., 0., 0., 0., 0., 0., 0.,
          0., 0., 3.81458312e-06, 0., -1.74512006e-05, 3.81458312e-06,
          0., 0., 0., 0., 0., 0., 8.52263292e-06, 0., 0., 0., 0., 0.,
          3.16641831e-06, 0., -1.96069726e-04, 0., 0., 0., 0., 0., 0.,
          0., -8.46232706e-06, 0., 0., 0., 0., 0., 0., 0.,
          1.10972452e-03, 3.72311224e-05, -6.28504449e-06,
          -7.94450389e-05, 0., 0., -2.83506597e-05, 3.81458312e-06,
          5.03383171e-06, 0., 0., 0., 5.03383171e-06, 0.,
          -1.69500654e-05, -6.11946462e-06, 0., 0., 0., 0., 0., 0., 0.,
          0., 0., 0., 0., 0., 0., 0., 0., 0., 9.09548908e-05, 0., 0., 0.,
          0., 0., 0., 0., 0., 0., 0., 0., 0., 0., 0., 0., 3.45798217e-05,
          0., 0., 0., 0., 0., 0., 0., 0., 0., -8.46232706e-06, 0., 0.,
          0., 0., 0., 2.14815125e-04, -6.96122788e-06, 2.18998821e-06,
          6.00457133e-06, 1.69849591e-05, 0., 1.07955848e-05,
          -4.66044958e-06, 0., 0., 0., 0., 1.00676634e-05, 0., 0.,
          3.81458312e-06, 0., 0., 0., 0., 0., 0., 0., 0., 0., 0., 0., 0.,
          0., 0., 0., 0., 3.05154990e-05, 1.49087473e-05, 0.,
          -1.45817912e-05, 0., 0., 0., 0., 1.51014956e-05, 0., 0., 0.,
          0., 0., 1.14437498e-05, 0., -4.23744350e-05, -8.47503270e-06,
          0., 0., 0., 0., 0., 0., -3.38493082e-05, 0., -8.46232706e-06,
          0., 0., 0., 0., 2.18998821e-06, -1.49247574e-03,
          -1.02699087e-05, 1.97078378e-04, -1.20345409e-04,
          1.54695681e-05, 0., -2.36524123e-04, -3.82162434e-05,
          7.48099759e-04, 0., 8.89660150e-05, 0., 1.45223603e-04, 0.,
          -1.79727082e-04, -6.16826655e-05, -1.43000843e-05, 0., 0., 0.,
          0., 0., 0., 0., -1.90863084e-05, 0., -8.46232706e-06, 0.,
          3.81458312e-06, 0., 2.74343292e-05, 0., 3.49107228e-04, 0.,
          -8.46232706e-06, 0., 0., 0., 0., 0., -2.33995434e-05, 0., 0.,
          0., 0., 0., 2.89317923e-05, 0., -5.04678501e-05, 0., 0., 0.,
          0., 0., 0., 0., -3.67251516e-04, -5.32858678e-07,
          -2.22409890e-05, -3.71159967e-06, -1.68247025e-05, 0.,
          1.67647260e-04, 5.72645295e-05, 1.23173095e-05, 0., 0., 0., 0.,
          0., -2.51994038e-06, 0., 0., 0., 0., 0., 0., 0., 0., 0., 0.,
          0., 0., 0., 0., 0., 0., 0., 0., 0., 0., 0., 0., 0., 0., 0.,
          8.71608063e-05, 0., 0., 0., 0., 0., 0., 0., 0., 0., 0., 0., 0.,
          0., 0., 0., -4.64774348e-06, 0., 0., 0., 0., 0., 0., 0.,
          -1.39772792e-05, 0., 0., 0., 0., 0., 0., 0., -1.81467749e-05,
          -7.70189799e-05, 7.54772327e-06, -2.88914394e-04,
          -8.46232706e-06, 0., 0., 9.32694365e-06, -8.46232706e-06, 0.,
          0., 9.72403068e-05, 0., 0., 9.77199743e-05, 1.91232743e-04, 0.,
          0., 0., -1.53244073e-05, 0., 0., 0., 0., 0., 0., 0.,
          1.83546490e-05, 0., 0., 0., 1.40819093e-05, 7.84512813e-05, 0.,
          0., 8.71838711e-05, 0., 0., 0., 0., 0., 0., 0., 2.18998821e-06,
          0., 0., 3.36909693e-06, -1.46014954e-05, 0., 0., 0.,
          1.86260258e-05, 0., 0., 0., 0., 3.61440943e-05, 0.,
          2.02127467e-05, 7.47610175e-05, 0., 0., -1.63995319e-05,
          -1.23850680e-06, 6.59906145e-05, -1.52873588e-04, 0.,
          -6.38170241e-05, 0., 0., 0., 0., 0., 0., 0., 0., 0., 0.,
          3.37083766e-05, 1.00246243e-05, 0., 0., 0., 0., 0., 0., 0., 0.,
          0., 0., 0., 0., 0., 0., 0., 0., 7.07245723e-04,
          -4.53624671e-04, 7.11604589e-05, 3.44395266e-05,
          -2.51994038e-06, 0., 3.16641831e-06, -2.41553403e-06,
          4.29524516e-05, 3.81458312e-06, -1.91641066e-05,
          1.86312463e-05, -2.51994038e-06, 0., 0., 1.39526492e-05,
          1.26808336e-05, 0., 0., 6.49769936e-06, 0., 0., 0., 0.,
          1.12504793e-04, 5.63612120e-05, -3.71159967e-06,
          -4.56135167e-05, 9.10768176e-06, 0., 1.29464274e-06,
          1.46386776e-06, 2.29374692e-03, -1.28643733e-04,
          -5.70141128e-04, -3.22712964e-04, -2.69126293e-04, 0.,
          -1.38287491e-04, -1.81504773e-04, -1.21885992e-03, 0.,
          1.00324987e-05, 0., -9.10050410e-04, 0., -7.02790203e-05,
          4.63730867e-05, 2.43040646e-04, 0., 0., 0., -3.66420045e-06,
          0., 0., 0., -4.61912045e-04, 0., -1.44342141e-06, 0.,
          -3.43141292e-04, 0., 9.85428997e-05, -8.46232706e-06,
          2.02890043e-03, 3.36909693e-06, 4.59922376e-06, 6.53077541e-06,
          0., 0., 1.05849438e-04, -3.98105767e-05, -5.45561634e-05, 0.,
          -8.46232706e-06, 0., 2.97333045e-05, 0., 2.84354610e-05, 0.,
          -6.73867034e-05, -1.21975645e-05, -3.98105767e-05, 0., 0., 0.,
          6.53077541e-06, 0., -1.24246546e-03, 0., -1.94667373e-05, 0.,
          -5.93375516e-05, 0., -1.15194714e-04, 0., -4.28060121e-05, 0.,
          0., 0., 1.21005223e-05, 0., -7.41848135e-06, 0.,
          -2.30488126e-06, 0., 0., 0., -1.80503903e-05, 0., 0., 0., 0.,
          0., 0., 0., 0., 0., 0., 0., 0., 0., 0., 0., 0., 0., 0., 0.,
          2.32259580e-03, 0., 3.29004361e-05, 6.53077541e-06, 0., 0.,
          -1.21975645e-05, 0., 4.39112409e-05, 0., 0., 0.,
          8.94173936e-05, 0., 1.42741628e-04, 0., 6.72913447e-04, 0., 0.,
          0., 0., 0., 0., 0., 1.70389729e-04, 0., 3.36909693e-06, 0.,
          -2.88701922e-05, 0., -5.66678909e-06, 0., -8.71347322e-04,
          -4.72869520e-04, -7.50422769e-05, -3.52801784e-04, 0., 0.,
          -1.21975645e-05, -6.47384950e-05, -6.78140059e-05,
          -1.45944969e-05, 0., 0., 0., 0., -3.65881715e-05,
          -3.38493082e-05, 3.12935335e-05, 0., 0., 0., 0., 0., 0., 0.,
          3.81458312e-06, 0., 0., 0., -2.75671609e-05, 0.,
          -5.50220511e-06, 0., -9.87520889e-06, 0., 0., 0.,
          -5.50220511e-06, 0., 0., 0., 1.05874278e-05, -8.47503270e-06,
          0., 0., 0., 0., 0., 0., -2.51994038e-06, -3.98105767e-05, 0.,
          0., 0., 0., 0., 0., -3.86581924e-05, -8.46232706e-06,
          -8.46232706e-06, 0., -9.83106384e-06, 0., 0., 0.,
          -5.96514146e-04, -4.87090118e-04, -4.41603988e-05,
          -3.34439756e-05, -8.47503270e-06, 0., -8.68328880e-06,
          -3.93515111e-05, -5.89406045e-05, -2.00839968e-05, 0.,
          -6.11946462e-06, -1.84908258e-05, 0., -2.16840472e-05, 0.,
          -1.91641066e-05, 0., 0., 0., 0., 0., 0., 0., -5.59770924e-05,
          0., 0., 0., 0., 0., 0., 0., 7.23798410e-04, -3.12068325e-04,
          2.73982296e-05, -3.16922819e-06, 0., 0., 2.61567311e-05,
          -2.53996859e-05, -3.00930133e-05, 0., 0., 0., 3.42364074e-05,
          0., 1.59203366e-04, 6.53077541e-06, 8.31566285e-04,
          6.53077541e-06, 0., 6.53077541e-06, 0., 0., -8.46232706e-06,
          0., -1.01635387e-05, 0., 0., 0., 0., 0., 1.08073691e-04, 0.,
          1.53508328e-03, 2.49795612e-05, 2.42332369e-03,
          -3.82892933e-04, -1.74377583e-05, 0., 2.13723094e-03,
          6.63072744e-04, -1.08918548e-03, 3.94312083e-05, 0., 0.,
          -1.15548365e-03, 9.38805970e-05, 6.95475959e-04,
          7.14096008e-04, -1.51772721e-04, 0., 0., 0., 0., 0.,
          -6.51636437e-05, 0., -2.34882376e-04, 0., 0., 0.,
          -2.98742350e-04, 0., -3.45089240e-04, 0., -1.12815040e-04,
          -8.46232706e-06, 3.36909693e-06, 0., 0., 0., 0., 0.,
          -5.87087343e-05, 0., 0., 0., -2.51994038e-06, 0.,
          2.74207268e-05, 0., -2.22610743e-05, 0., -8.46232706e-06, 0.,
          0., 0., 0., 0., -3.44398839e-04, -1.80518091e-05,
          1.00257501e-04, -9.32608054e-06, -2.27641780e-04, 0.,
          2.52855534e-04, 3.59926489e-05, -1.17521507e-04, 0.,
          -1.84908258e-05, 0., 0., 0., 0., 0., 0., 0., 0., 0., 0., 0.,
          -7.41848135e-06, 0., 0., 0., 0., 0., 0., 0., 0., 0., 0., 0.,
          0., 0., 0., 0., 0., 0., 9.32464682e-05, 0., 0., 3.12935335e-05,
          0., 0., 0., 0., 0., 0., 0., 0., -5.50220511e-06, 0.,
          4.59392249e-05, 0., -1.02051745e-04, 0., 0., 0., 0., 0., 0.,
          0., -2.58909189e-04, 0., 0., 0., -1.05420859e-05, 0.,
          -4.26369697e-05, 0., -1.27347768e-03, -4.49028448e-04,
          -2.01846473e-04, -5.81877597e-04, 0., 0., 4.07247207e-05,
          1.42508128e-04, 0., 0., 0., -1.84925651e-04, -1.91641066e-05,
          6.53077541e-06, 5.07870245e-05, 4.68161074e-04,
          -1.39645317e-05, 0., 0., -4.23278980e-05, 0., 0., 0., 0., 0.,
          0., 0., -6.24882960e-05, 0., 0., 0., -2.04560900e-04,
          4.44647048e-05, 0., 0., -9.04856643e-05, 0., 0., 0., 0.,
          -1.21975645e-05, 0., 0., -1.79327599e-05, 0., 0., 0.,
          -1.69365251e-06, 0., 0., 0., -2.14674001e-05, 0., 0., 0., 0.,
          -1.72226108e-04, 5.07935983e-05, -2.42555489e-05,
          -3.26046720e-05, 0., 0., 1.51175464e-05, -1.19094038e-04,
          -4.46106598e-04, -3.47205671e-04, -1.12046864e-05,
          -2.50975252e-04, 0., 0., 0., 1.05374078e-04, 0., 0., 0., 0.,
          0., 0., 1.23129459e-04, 7.52629639e-05, 0., 0., 0.,
          -3.98105767e-05, 0., 0., 0., 0., 6.53077541e-06, 0., 0., 0.,
          0., 0., 0., 0., -2.01603703e-04, 1.32782763e-04,
          8.18768240e-05, -1.56507725e-04, 1.17267818e-05, 0.,
          -4.42612691e-06, -3.01326054e-05, -2.57575321e-05, 0., 0.,
          -5.70669035e-05, -3.78685545e-05, 0., 4.29077918e-04,
          -7.35497597e-05, -8.14360828e-06, 0., 0., -9.23814732e-05, 0.,
          0., 0., 0., -7.55171131e-05, -2.49298264e-05, 9.03607634e-06,
          -6.35682227e-05, -9.74276986e-07, 0., -1.22720288e-04,
          1.60674165e-06, -7.70272687e-04, -1.75680645e-04,
          -3.77810968e-04, -8.09749239e-04, -6.79767036e-05, 0.,
          4.43282806e-05, -4.41008451e-04, 1.24926749e-03,
          3.39890394e-05, -3.99556211e-06, 0., 4.13010974e-04, 0.,
          1.28153333e-04, -7.48038074e-05, 2.73750455e-04, 0.,
          -3.07131086e-06, 0., 5.29309818e-06, 0., 0., 0.,
          5.49272692e-04, 0., -8.46232706e-06, -1.21975645e-05,
          3.07274167e-04, 0., 3.15878715e-05, 6.53077541e-06,
          4.84802295e-04, 0., -4.72290594e-05, 3.16022920e-06, 0., 0.,
          1.53577930e-05, 0., 1.69181483e-04, 0., -1.21975645e-05, 0.,
          7.62110994e-06, 0., 6.19409839e-05, 0., 6.46589848e-04, 0.,
          3.36909693e-06, 0., 0., 0., 6.53077541e-06, 0., 9.27921647e-05,
          0., -8.46232706e-06, 0., 1.06092906e-04, 0., 9.04284680e-05,
          0., 4.92524632e-05, 0., -1.36370033e-06, 0., -1.32324887e-04,
          0., -2.51994038e-06, 0., 1.86312463e-05, 0., 0., 0.,
          -8.63940477e-06, 0., 3.12935335e-05, 0., 0., 0., 0., 0., 0.,
          0., 0., 0., 0., 0., 0., 0., 0., 0., 0., 0., 4.29380714e-04, 0.,
          2.18885689e-05, 6.53077541e-06, 3.08251583e-05, 0.,
          3.12935335e-05, 0., 2.81772668e-06, 0., 0., 0.,
          -8.82814347e-05, 0., -7.03467822e-06, 0., 5.09668840e-04, 0.,
          0., 0., 0., 0., 0., 0., 2.93424440e-04, 0., 0., 0.,
          1.57657105e-05, 0., 0., 0., -5.53866441e-04, -1.09732675e-03,
          -4.24872938e-04, -5.65863389e-04, 0., 0., -7.71899649e-05,
          -1.63347227e-04, 1.84793298e-05, -1.39645317e-05, 0.,
          6.73819386e-06, 0., 0., 1.65760284e-05, 1.51542154e-05, 0., 0.,
          0., 0., 0., 0., 0., 0., -1.03938783e-05, -1.21975645e-05, 0.,
          -8.46232706e-06, 1.86312463e-05, 0., 0., 6.53077541e-06,
          3.36909693e-06, 0., 0., -2.19952267e-06, 0., 0., 0., 0.,
          -1.21975645e-05, 0., 0., 0., 0., 0., 0., 0., -1.39645317e-05,
          0., 0., -8.46232706e-06, 0., 0., 0., 0., -3.16643018e-05,
          -5.50220511e-06, 0., -2.53869803e-05, 0., 0., 0.,
          6.53077541e-06, -1.72300832e-04, -2.46200827e-04,
          -1.49603686e-04, -1.84309582e-04, 1.41411156e-05, 0.,
          1.13496753e-05, -5.03337797e-05, 1.59605861e-05, 0., 0., 0.,
          0., 0., -1.22547690e-05, 0., 0., 3.36909693e-06, 0., 0., 0.,
          0., 0., 0., 6.01689462e-05, 0., 0., 0., 0., 0., 0., 0.,
          2.27848926e-04, -9.29272301e-06, 6.91178429e-05,
          9.83967839e-05, 3.36909693e-06, 0., -1.89086917e-04, 0.,
          1.25174134e-04, 0., 0., 0., -2.43120521e-05, 0.,
          -1.17637304e-04, -2.51994038e-06, 2.70460325e-04, 0., 0., 0.,
          0., 0., 0., 0., 1.18949778e-04, 0., 0., 0., 0., 0.,
          -4.36168884e-05, 0., -1.24783965e-03, 3.18780047e-04,
          8.02668976e-04, 3.75750969e-04, 1.13574191e-04, 3.12935335e-05,
          5.19658788e-04, 4.00841265e-04, -5.46677911e-04, 0.,
          8.49156663e-07, 0., 5.80673295e-05, 0., -3.41585401e-04,
          2.17752357e-04, -4.54031615e-05, 0., 0., 0., 0., 0., 0., 0.,
          -5.25565469e-04, 0., 0., 0., -1.76652786e-04, 0.,
          -1.62806144e-04, 0., -3.68507986e-04, 0., 2.28312074e-05, 0.,
          0., 0., -1.91641066e-05, 0., -4.21417681e-05, 0., 0., 0.,
          2.84459202e-05, 0., 1.30613567e-04, 0., -3.61977698e-04, 0.,
          1.53577930e-05, 0., 0., 0., 6.53077541e-06, 0.,
          -8.66072718e-04, -2.91477099e-05, -5.64969705e-05,
          -1.25112711e-05, -2.81955115e-04, 0., 6.43475942e-05,
          4.25967573e-06, -1.20340264e-04, 0., 0., 0., 3.12935335e-05,
          0., 0., 0., 0., 0., 0., 0., 0., 0., 7.63627395e-06, 0., 0., 0.,
          0., 0., 0., 0., 0., 0., 0., 0., 0., 0., 0., 0., 0., 0.,
          -1.44410049e-04, 0., 0., 0., 0., 0., 0., 0., -2.21359860e-05,
          0., 0., 0., -3.71159967e-06, 0., -9.45634310e-05, 0.,
          -3.28510301e-04, 0., 0., 0., 0., 0., 0., 0., -3.67526285e-04,
          0., 0., 0., -1.94445929e-05, 0., 5.56844861e-05, 0.,
          1.13514846e-03, -1.69212672e-05, 7.36149595e-05,
          1.56827422e-03, 3.12935335e-05, 0., -3.46502165e-05,
          3.97259166e-04, 3.36909693e-06, 0., 0., -2.34383508e-04,
          2.74872218e-05, 6.53077541e-06, 2.08152618e-04, 1.08965374e-04,
          0., 0., 0., -8.02274008e-05, 0., 0., 0., 0., 0., 0., 0.,
          -4.82256582e-05, 0., 0., 0., -1.47315004e-04, 2.00539671e-06,
          0., 0., -1.06375788e-04, 0., 0., 0., 0., -3.71159967e-06, 0.,
          0., -4.54044166e-05, 0., 0., 3.12935335e-05, -1.46591738e-05,
          0., 0., 0., -1.03641010e-04, 0., 0., 0., 0., -2.92775280e-06,
          2.17898578e-05, -1.88866616e-05, -3.49272828e-04, 0.,
          -2.51994038e-06, 1.53552064e-05, -4.07369917e-05,
          4.39919444e-04, 1.60354335e-04, 7.42584689e-06, 7.77899259e-05,
          0., 0., 6.53077541e-06, 5.03383171e-06, 4.66513266e-05, 0., 0.,
          1.03269304e-05, 0., 0., -5.19549831e-05, 2.76076807e-05, 0.,
          0., 0., 0., 0., 0., 0., 0., 2.18885689e-05, 0., 0., 0., 0., 0.,
          0., 0., 2.52316153e-04, 1.24308630e-04, 2.17968973e-05,
          -2.62159971e-04, -4.11742767e-05, 0., 6.72402894e-05,
          3.18017919e-05, 4.80576673e-05, 0., -1.36370033e-06,
          -4.11781330e-05, -1.21404955e-04, 0., -1.82954915e-04,
          1.09322093e-04, -2.50235957e-04, 0., 0., -6.42614541e-05, 0.,
          0., 0., 0., 3.56431992e-04, -1.59787960e-05, 1.22740994e-05,
          -1.01153091e-04, -1.69273026e-05, 0., -2.84356338e-05,
          -4.96644207e-05, 3.21329781e-03, -3.23099172e-04,
          -1.50249619e-03, -3.23119835e-04, -4.43932775e-04, 0.,
          -5.65047201e-04, -7.12025794e-04, 2.92269536e-03, 0.,
          5.36161788e-05, 0., 1.63230929e-03, 1.21294279e-05,
          2.26209915e-04, -5.91101008e-04, 3.58692196e-04, 0.,
          -8.46232706e-06, 0., 0., 0., 3.12935335e-05, 0.,
          -4.97232599e-04, 0., -1.10400006e-05, 2.18885689e-05,
          4.31891589e-04, 0., 2.10157465e-04, -1.21975645e-05,
          -9.09577939e-04, -1.84908258e-05, -1.04807168e-05,
          -1.45944969e-05, 0., 0., -5.14982503e-06, -6.11946462e-06,
          8.61491208e-05, 0., 7.22381992e-06, 0., -1.89732800e-05, 0.,
          5.91940261e-06, 0., -6.98622607e-04, 0., -1.08563268e-06, 0.,
          0., 0., 0., 0., -6.98140822e-04, 0., 0., -8.47503270e-06,
          8.62786328e-05, 0., 5.82358771e-05, 0., -1.68907849e-04, 0.,
          0., 0., 6.45732098e-06, 0., 0., 0., 0., 0., 0., 0., 0., 0.,
          1.07541427e-05, 0., 0., 0., 0., 0., 0., 0., 0., 0., 0., 0., 0.,
          0., 0., 0., 0., 0., -5.06113633e-04, 0., 1.53904039e-05, 0.,
          1.91196068e-05, 0., 0., 0., 1.82512413e-05, 0., 0., 0.,
          -1.10342689e-05, 0., -2.61987843e-05, 0., -5.29737503e-04, 0.,
          0., 0., 0., 0., 0., 0., -2.53619102e-04, 0., -3.66420045e-06,
          0., 7.72832573e-06, 0., 1.01562146e-05, 0., -7.59557661e-05,
          -4.12757858e-04, -1.05160449e-04, 5.22805087e-04,
          3.36909693e-06, 0., -6.28007911e-06, 3.10368123e-05,
          -4.37410999e-05, -2.44527837e-05, 1.53577930e-05,
          -3.98105767e-05, 4.59922376e-06, 0., -2.88435476e-05,
          1.56276910e-05, -8.51704317e-06, 0., 0., 0., 0., 0., 0., 0.,
          -7.41848135e-06, 0., 0., 0., 0., 0., 0., 0., 1.00307625e-04,
          -5.50220511e-06, 0., -8.47503270e-06, 0., 0., 0.,
          -6.11946462e-06, 0., 0., 0., 0., 3.12935335e-05, 0., 0., 0.,
          0., -1.39645317e-05, 0., -8.46232706e-06, 0., 0., 0., 0.,
          -5.50220511e-06, 0., 0., 4.60733791e-05, 0., 0., 0., 0.,
          1.07311113e-04, -2.59470398e-04, -5.67899478e-05,
          -7.48388848e-05, 0., 0., 8.41360888e-05, -4.23116326e-05,
          1.30615508e-05, 0., -1.21975645e-05, 0., 1.72849177e-05,
          6.53077541e-06, -1.54446425e-05, -8.46232706e-06, 0., 0., 0.,
          0., 0., 0., 0., 0., 6.53077541e-06, 0., 0., 0., 0., 0.,
          6.53077541e-06, 0., -2.12922183e-04, -2.15168766e-05,
          -8.89859875e-05, 7.44994613e-05, 0., 0., 1.19589922e-05,
          -3.63692452e-05, 1.68597093e-04, 0., 0., 0., 6.06789217e-05,
          0., -5.39538269e-05, -8.46232706e-06, -1.61722142e-04,
          -1.69246541e-05, -8.47503270e-06, -8.46232706e-06,
          1.86312463e-05, 0., 1.86312463e-05, 0., -1.14861323e-04, 0.,
          -8.46232706e-06, 1.53577930e-05, 3.12935335e-05, 0.,
          3.29874201e-05, 0., 3.11925216e-03, 1.06675587e-04,
          -1.36116485e-03, -7.45939033e-04, -1.39951608e-05, 0.,
          -6.75488322e-04, -2.48124328e-04, 9.40101745e-05,
          1.86312463e-05, 1.53577930e-05, 0., 2.02784766e-04, 0.,
          -1.02281643e-04, -9.40449900e-05, -1.27589286e-04, 0., 0., 0.,
          0., 0., 0., 0., -2.68345146e-04, 0., -8.46232706e-06, 0.,
          -2.17172972e-04, 0., -1.56550581e-04, -8.46232706e-06,
          -8.31325422e-04, 6.53077541e-06, -8.46232706e-06, 0.,
          6.53077541e-06, 0., 0., 0., -6.37595294e-05, 0., 0., 0.,
          -1.94445929e-05, 0., -2.39751651e-04, 0., -1.38846633e-04, 0.,
          0., 0., 0., 0., 0., 0., 2.92957120e-04, 2.81843677e-05,
          -9.84031794e-05, -1.43584330e-05, -9.16380523e-05, 0.,
          -6.65202824e-05, -6.28232083e-05, 2.07833436e-05, 0., 0.,
          -2.51994038e-06, 0., 0., 0., 0., 1.86312463e-05, 0., 0., 0.,
          0., 0., -1.58617640e-05, 0., 0., 0., 0., 0., 0., 0., 0., 0.,
          0., 0., 0., 0., 0., 0., 0., 0., -6.72856520e-04, 0.,
          1.21294279e-05, -8.46232706e-06, 0., 0., 0., 0.,
          -1.19162332e-05, 0., 0., 0., 2.29181614e-06, 0.,
          -1.96987618e-04, 3.12935335e-05, -5.90920390e-04, 0., 0., 0.,
          0., 0., 0., 0., -5.03757983e-05, 0., 5.29309818e-06, 0.,
          -7.36725924e-05, 0., -1.40976816e-04, 0., 2.70378822e-03,
          -1.48816485e-04, -3.76079015e-06, -1.89996616e-04, 0., 0.,
          1.49196476e-05, -3.42156651e-04, 0., 0., 0., -5.18737070e-05,
          -1.91641066e-05, 0., 1.55094371e-04, -3.92521266e-04, 0., 0.,
          0., -1.72546061e-05, 0., 0., 0., 0., 0., 0., 0.,
          -5.85864909e-05, 0., 0., 0., -3.48832987e-06, 4.48868268e-05,
          0., 0., -2.72307196e-04, 0., 0., 0., 0., 0., 0., 0.,
          -7.17684452e-06, 0., 0., 5.03383171e-06, -4.38038041e-05, 0.,
          0., 0., 9.61736805e-06, 0., 0., 0., 0., -8.92550270e-06,
          -5.06775687e-05, 4.80636445e-05, 9.12120304e-05, 0., 0.,
          1.46386776e-06, 2.93094172e-06, 1.07915013e-03, 2.20025511e-04,
          -2.58551631e-06, 4.04803111e-04, 0., 0., 0., 0.,
          3.71238020e-05, 0., 0., 0., 0., 0., 6.14368109e-05,
          5.40622750e-06, 0., 0., 0., 0., 0., 0., 0., 0., 0., 0., 0., 0.,
          0., 0., 0., 0., -6.14846183e-04, 1.82999764e-04,
          3.46511370e-04, 4.48844294e-05, 0., 0., 2.07797930e-05,
          1.14861228e-04, -4.86243989e-05, 0., 0., -5.04674463e-05,
          -2.15471973e-05, 3.12935335e-05, 4.44394595e-04,
          2.89111165e-04, -4.71740554e-04, 0., 3.12935335e-05,
          -3.10125703e-04, 0., 0., -1.91641066e-05, 0., 1.23782185e-04,
          6.67121867e-06, 1.33565654e-05, -1.70908049e-06,
          4.59922376e-06, 0., 1.24150043e-04, -6.61578306e-05,
          6.20481092e-04, -9.20228122e-05, -1.16300456e-04,
          -5.70164120e-05, 2.65329909e-05, 0., -8.04944284e-05,
          -6.11946462e-06, 1.88905673e-04, 0., -3.98105767e-05, 0.,
          1.71229694e-05, 0., -1.96110763e-04, 2.28312074e-05,
          8.74569814e-05, -8.46232706e-06, 0., 0., 0., 0., 0., 0.,
          -4.79612083e-07, 0., 0., 0., 3.37749480e-05, 0.,
          7.02265606e-05, 0., 1.92004863e-05, 0., 0., 0., 0., 0., 0., 0.,
          0., 0., 0., 0., 0., 0., 0., 0., 1.85423814e-05, 0., 0., 0., 0.,
          0., 0., 0., 0., 0., 0., 0., 0., 0., 0., 0., 1.86312463e-05,
          -8.46232706e-06, 0., 0., 0., 0., 0., 0., 0., 0., 0., 0., 0.,
          0., 0., 0., 0., 0., 0., 0., 0., 0., 0., 0., 0., 0., 0., 0., 0.,
          0., 0., 0., -5.46457959e-05, 0., 0., 0., 0., 0., 0., 0., 0.,
          0., 0., 0., 0., 0., 0., 0., -1.69246541e-05, 0., 0., 0., 0.,
          0., 0., 0., 0., 0., 0., 0., 0., 0., 0., 0., -8.32026199e-05,
          -6.54245232e-05, 0., 0., 0., 0., 0., 0., 0., 0., 0., 0., 0.,
          0., 0., 0., 0., 0., 0., 0., 0., 0., 0., 0., 0., 0., 0., 0., 0.,
          0., 0., 0., 0., 0., 0., 0., 0., 0., 0., 0., 0., 0., 0., 0., 0.,
          0., 0., 0., 0., 0., 0., 0., 0., 0., 0., 0., 0., 0., 0., 0., 0.,
          0., 0., 0., -9.15035780e-05, -1.31344195e-05, 0., 0., 0., 0.,
          0., 0., 0., 0., 0., 0., 0., 0., 0., 0., 0., 0., 0., 0., 0., 0.,
          0., 0., 0., 0., 0., 0., 0., 0., 0., 0., -1.48982901e-04,
          -1.32707974e-05, 0., 0., 0., 0., 0., 0., 0., 0., 0., 0., 0.,
          0., 0., 0., -3.13380333e-05, 0., 0., 0., 0., 0., 0., 0., 0.,
          0., 0., 0., 0., 0., 0., 0., 0., 0., 0., 0., 0., 0., 0., 0., 0.,
          0., 0., 0., 0., 0., 3.03438661e-04, -3.98003576e-05, 0., 0.,
          0., 0., 0., 0., 0., 0., 0., 0., 0., 0., 0., 0.,
          -7.10234817e-05, 0., 0., 0., 0., 0., 0., 0., 0., 0., 0., 0.,
          0., 0., 0., 0., -1.47937404e-04, 0., 0., 0., 0., 0., 0., 0.,
          0., 0., 0., 0., 0., 0., 0., 0., 5.47515810e-05, 0., 0., 0., 0.,
          0., 0., 0., 0., 0., 0., 0., 0., 0., 0., 0., 2.28184999e-05, 0.,
          0., 0., 0., 0., 0., 0., 0., 0., 0., 0., 0., 0., 0., 0., 0., 0.,
          0., 0., 0., 0., 0., 0., 0., 0., 0., 0., 0., 0., 0., 0.,
          -2.54781517e-05, 0., 0., 0., 0., 0., 0., 0., 0., 0., 0., 0.,
          0., 0., 0., 0., -2.31254999e-05, 0., 0., 0., 0., 0., 0., 0.,
          0., 0., 0., 0., 0., 0., 0., 0., 9.84468134e-05, 4.05895516e-05,
          0., 0., 0., 0., 0., 0., 0., 0., 0., 0., 0., 0., 0., 0.,
          -8.46232706e-06, 0., 0., 0., 0., 0., 0., 0., 0., 0., 0., 0.,
          0., 0., 0., 0., -1.21392331e-05, -3.75314667e-05, 0., 0., 0.,
          0., 0., 0., 0., 0., 0., 0., 0., 0., 0., 0., -4.82856085e-05,
          -1.98107336e-05, 0., 0., 0., 0., 0., 0., 0., 0., 0., 0., 0.,
          0., 0., 0., -2.91069045e-05, 1.53202254e-05, 0., 0., 0., 0.,
          0., 0., 0., 0., 0., 0., 0., 0., 0., 0., 0., 0., 3.65035841e-04,
          5.68523938e-05, -3.10815835e-06, 9.88290121e-05,
          1.86312463e-05, 0., -3.13380333e-05, -7.14009457e-06,
          -9.08379079e-05, 0., 1.86312463e-05, -3.86581924e-05,
          -4.96399916e-05, -6.11946462e-06, -3.34338052e-04,
          6.35645192e-05, 1.14917184e-05, 0., 0., -5.10762175e-06, 0.,
          0., 0., 0., -2.01593302e-05, -2.21250539e-05, 0.,
          -5.09322945e-06, -3.69086738e-05, 0., -4.90068742e-05,
          -6.11946462e-06, 9.51059395e-04, 2.00202077e-04,
          7.92097417e-04, 9.33683696e-05, -5.42489288e-05,
          -5.32858678e-07, -1.01510144e-04, 2.41858943e-04,
          -1.21817773e-03, -5.09322945e-06, -3.29133327e-05, 0.,
          -1.07652438e-03, 0., -2.20154366e-03, -4.50349762e-05,
          1.26336075e-04, 0., 1.86312463e-05, 0., 0., 0.,
          -1.46014954e-05, 0., -5.55894920e-04, 0., -9.93842150e-06, 0.,
          -2.76602921e-04, 0., -4.57585440e-04, 0., 1.67268270e-03, 0.,
          9.71859918e-05, 0., 0., 0., 2.51620222e-05, 4.04289131e-05,
          8.82223540e-05, 0., 0., 0., -3.77799552e-05, 0.,
          -1.47036772e-05, -1.95142584e-05, 3.22041124e-05, 0.,
          1.86312463e-05, 0., 0., 0., 0., 0., 5.62490459e-05, 0., 0., 0.,
          -2.40803216e-04, 0., -1.51067215e-04, 0., -2.95057631e-04, 0.,
          6.53077541e-06, 0., 1.21294279e-05, 0., -3.98105767e-05, 0.,
          3.12935335e-05, 0., -1.95142584e-05, 0., 1.53202254e-05, 0.,
          0., 0., 0., 0., 0., 0., 0., 0., 0., 0., 0., 0., 0., 0., 0., 0.,
          0., 0., 1.45189767e-03, -1.91641066e-05, 3.72624927e-05, 0.,
          -1.91641066e-05, 0., -8.46232706e-06, 0., 9.25933455e-06, 0.,
          0., 0., -6.39564532e-05, 0., -3.40295151e-06, 0.,
          -1.86027290e-04, 0., -1.95142584e-05, 0., 0., 0., 0., 0.,
          -2.19069218e-04, 0., 0., 0., -2.31784579e-05, 0.,
          -4.52505519e-05, 0., -9.28662368e-04, 1.73342228e-03,
          8.11275095e-05, 9.04246874e-04, -2.29554589e-05, 0.,
          -1.33912021e-04, -1.98624039e-05, -5.25551877e-05,
          -6.18447739e-05, 0., -2.39167075e-05, 0., 0., -1.56350929e-04,
          1.30612325e-05, -5.50220511e-06, 0., 0., 0., 0., 0., 0., 0.,
          0., -2.51994038e-06, 0., 0., 0., 0., -5.50220511e-06,
          -7.96211534e-05, -2.05242141e-05, 3.36909693e-06,
          1.46386776e-06, -9.70710880e-06, 0., 0., 0., -1.95142584e-05,
          0., 0., -6.11946462e-06, 0., -3.66420045e-06, -1.95142584e-05,
          0., 0., -7.69024791e-06, -8.46232706e-06, 0., 0., 0., 0., 0.,
          0., -4.02352161e-05, 0., 0., -8.46232706e-06, 0., 0., 0., 0.,
          -1.19638105e-03, -8.01565824e-04, -7.78571339e-05,
          1.19849494e-04, -2.34085637e-05, 0., -4.97131732e-05,
          -5.04034433e-05, 1.34990587e-05, 0., 0., -4.35221773e-05, 0.,
          0., -8.51704317e-06, -5.95529600e-05, 3.12935335e-05, 0., 0.,
          0., 0., 0., 0., 0., 0., 0., 0., 0., 0., 0., 0., 0.,
          2.57636397e-03, -2.33215149e-04, 8.90528609e-05,
          2.60170036e-05, 4.53264647e-06, 0., 2.21200480e-05,
          1.33353387e-05, 2.00461582e-05, 0., 0., -6.11946462e-06, 0.,
          -3.98105767e-05, 6.25870671e-05, -7.33730985e-06,
          9.71895861e-05, -3.98105767e-05, 0., 0., 0., 0., 0., 0.,
          -5.26581280e-05, -2.79765845e-05, 0., 0., 0., 0., 0., 0.,
          2.00497988e-03, -1.13657872e-04, 1.39884709e-03,
          3.92935006e-04, -3.90257628e-05, 1.86312463e-05,
          1.10091583e-03, -3.52939474e-04, -9.85322869e-04, 0.,
          3.26184199e-05, 0., -1.19661051e-03, 0., 1.97920832e-03,
          1.74216916e-06, -5.98281440e-05, 0., 0., 0., -3.98105767e-05,
          0., 0., 0., 1.31976348e-03, 0., 0., 0., -7.01156969e-04, 0.,
          -1.99928312e-04, 0., 5.96756407e-04, 0., -1.21739267e-05, 0.,
          -3.71159967e-06, 0., 6.25870671e-05, 0., 1.05131658e-04, 0.,
          0., 0., 4.13697926e-05, 0., 9.45812353e-05, 0., 1.59354444e-04,
          0., 0., 0., -3.98105767e-05, 0., 0., 0., 9.92664951e-04,
          4.81142888e-05, 1.08998265e-05, -5.62034911e-05,
          -1.78522823e-04, 0., 8.08560930e-04, 4.29561514e-05,
          -1.28944957e-04, 0., 0., 0., 0., 0., -1.95142584e-05, 0., 0.,
          0., 0., 0., 0., 0., 1.09986522e-05, 0., 1.86312463e-05, 0., 0.,
          0., 0., 0., 0., 0., 0., 0., 0., 0., 0., 0., 0., 0.,
          -6.49670328e-05, -8.51704317e-06, 3.12935335e-05, 0.,
          -1.95142584e-05, 0., 0., 0., -1.13580845e-09, 0., 0., 0.,
          3.95277348e-05, 0., -6.62964303e-05, 0., 4.28489264e-04, 0.,
          0., 0., 0., 0., 0., 0., -8.07893011e-05, -1.84908258e-05, 0.,
          0., -3.89248016e-05, 0., 1.86958514e-05, -1.91641066e-05,
          -1.17032323e-03, -3.70413210e-04, -1.16278490e-04,
          2.21436276e-04, 0., 0., -3.90285168e-05, -1.45716986e-04,
          -1.05607262e-06, 0., -5.50220511e-06, -2.67627212e-04, 0., 0.,
          -6.07187576e-05, -2.30133432e-04, 0., 0., 0., -5.36957923e-05,
          0., 0., 0., 3.36909693e-06, 0., 0., 0., 1.40464781e-05, 0., 0.,
          0., -2.90332046e-05, -4.10445464e-05, 0., 0., 9.25029053e-06,
          0., 0., 0., 0., -8.46232706e-06, 0., 0., -2.33578703e-06, 0.,
          0., -2.91222168e-05, 2.63085931e-05, 0., 0., 0.,
          2.57207939e-05, 0., 0., 0., 0., -6.78412762e-05,
          -1.18297168e-04, 3.63273648e-05, -2.21860919e-05, 0., 0.,
          1.86312463e-05, -3.90964815e-05, -7.27029867e-04,
          -3.21837026e-04, -4.34747781e-05, -2.39015615e-04, 0., 0.,
          2.75819330e-05, -3.06490583e-05, 0., 0., 0., 0., 0., 0.,
          -9.24847482e-05, -1.29721826e-04, -1.91641066e-05, 0., 0., 0.,
          0., 0., 0., 0., 0., 0., 0., 0., 0., 0., 0., -1.91641066e-05,
          -2.91142915e-03, -5.64319605e-04, 1.28965388e-04,
          -9.40597893e-05, -1.72733944e-05, 0., 1.88171281e-04,
          -6.97217620e-05, -8.30290664e-05, 0., -2.98977648e-05,
          2.76948253e-06, -7.20485332e-05, -1.46014954e-05,
          6.15436817e-04, 2.92851910e-04, -1.03377221e-04,
          -8.46232706e-06, 0., 2.22175058e-05, 0., 0., 2.63696602e-05,
          0., -4.21206787e-04, -1.18699081e-05, -4.82108953e-05,
          -1.04072406e-05, -8.05711970e-05, 0., -3.57272038e-05,
          4.07860316e-05, 1.23621302e-03, 8.36482330e-04, 7.09750107e-04,
          1.03094429e-03, -1.94964639e-04, 0., 5.17531123e-04,
          3.14652105e-04, -4.53490240e-04, 3.36909693e-06,
          3.73440598e-05, -3.36243611e-05, 2.55930732e-04,
          -1.91641066e-05, -2.13950849e-03, 1.38476011e-04,
          -2.33407161e-04, 0., 4.06315921e-05, -3.98105767e-05,
          1.86312463e-05, 0., 0., 0., -3.06712085e-04, -6.11946462e-06,
          -6.47625711e-05, -4.11781330e-05, -6.60295947e-04, 0.,
          -1.71576521e-05, -1.21739267e-05, 2.51198417e-05,
          3.14130921e-05, -1.52761386e-05, 1.86312463e-05, 0., 0.,
          -3.98105767e-05, 0., -8.70933873e-05, 0., -8.31979742e-06, 0.,
          -1.03603939e-04, 0., 4.22069461e-05, 3.35508958e-05,
          -1.39105628e-04, 0., 3.16641831e-06, 0., 0., 0., 0., 0.,
          -1.41429866e-03, -1.95142584e-05, -4.20242905e-05, 0.,
          -4.89309255e-04, 0., -1.06616040e-04, 0., -1.30753149e-04,
          -3.71159967e-06, 0., 0., 4.43331282e-06, 0., 5.07351288e-05,
          0., -3.98105767e-05, 0., 0., 0., 1.07541427e-05, 0., 0., 0.,
          0., 0., 0., 0., 0., 0., 0., 0., 0., 0., 0., 0., 0., 0., 0., 0.,
          1.43375597e-04, 4.96026632e-06, -3.91467365e-05,
          1.86312463e-05, -5.95461324e-06, 0., -3.02653698e-05, 0.,
          3.01047257e-05, 0., -3.98105767e-05, 0., -3.29118229e-05, 0.,
          -1.29467844e-05, 0., -1.23164631e-04, 0., -4.35221773e-05, 0.,
          0., 0., 0., 0., 6.66382184e-05, 0., 0., 0., -2.07739853e-04,
          0., -1.32163375e-04, 0., 2.21988303e-03, 1.50806515e-03,
          6.22915046e-04, 2.20197090e-03, -7.41848135e-06, 0.,
          -9.30657407e-05, 7.56768568e-05, -3.30519106e-05,
          -2.51994038e-06, 1.86312463e-05, -2.85217666e-05,
          -1.21866324e-05, 3.54061885e-05, -2.43175164e-05,
          -2.84219932e-05, -4.97489964e-05, 0., 0., 0., 0., 0., 0., 0.,
          0., -1.95142584e-05, 0., -6.31459770e-05, 0., 0., 0., 0.,
          4.04487000e-05, -2.44236580e-05, -6.66347769e-05,
          2.35307175e-06, 0., 0., 0., 0., 0., 0., 0., 2.80624354e-05, 0.,
          0., 0., -1.51217291e-05, 0., -8.63940477e-06, 0.,
          -2.51994038e-06, 0., 0., 0., 0., -4.15646491e-06,
          -1.95142584e-05, -5.81724526e-05, -1.69246541e-05,
          -1.95142584e-05, 0., -1.95142584e-05, 0., -7.99916568e-04,
          5.56665946e-05, -4.19688513e-05, 5.45580406e-05,
          -1.73518620e-05, 0., -1.76050191e-04, -1.25683189e-04,
          -8.47503270e-06, 0., 0., -1.95142584e-05, 2.51389133e-06, 0.,
          -2.30994065e-05, -5.50220511e-06, 5.03383171e-06, 0., 0., 0.,
          0., 0., 0., 0., 9.89987257e-06, 0., 0., 0., 0., 0., 0., 0.,
          -1.37203175e-03, 4.92910513e-05, -5.98939369e-05,
          -2.86189925e-06, 0., 0., -4.36796145e-05, 1.31290417e-05,
          -1.73306718e-04, 0., 0., 0., -1.22528552e-04, 0.,
          -3.37092992e-04, -3.92678048e-05, -3.73934832e-04,
          -7.73163847e-05, 0., 0., 0., 0., 0., 0., -1.64388868e-04,
          -3.86581924e-05, -8.46232706e-06, -6.17051046e-06,
          -9.18187143e-05, 0., -2.91915319e-04, 0., 3.42215318e-03,
          -4.65641031e-04, 7.39002280e-05, 2.30097817e-06,
          -1.44148498e-06, 0., -2.53124628e-04, -1.53936227e-04,
          1.44047418e-03, 0., 2.27027613e-05, 0., -5.69810800e-04,
          5.03383171e-06, -1.69588334e-03, -6.09154464e-04,
          4.37353621e-04, 0., 0., 0., 0., 0., 6.53077541e-06, 0.,
          1.67644804e-03, 0., 0., 0., -8.34927050e-05, 0.,
          -1.64875950e-04, 0., 6.28209498e-04, 1.86312463e-05, 0., 0.,
          -3.98105767e-05, 0., 1.86312463e-05, 0., 2.43335147e-04, 0.,
          0., 0., 3.97107615e-05, 0., -2.71358863e-06, -7.41848135e-06,
          9.52009752e-04, 0., 1.86312463e-05, 0., 0., 0., 3.36909693e-06,
          0., 2.29781726e-03, 4.38845564e-06, 1.08215288e-04,
          -8.38969572e-05, -1.85177967e-04, 0., -2.31836402e-05,
          1.11556947e-04, -1.82962918e-04, 0., 0., -1.21975645e-05, 0.,
          0., -8.47503270e-06, 0., 0., 0., 0., 0., 0., 0.,
          -2.51994038e-06, 0., 1.86312463e-05, 0., 0., 0., 0., 0., 0.,
          0., 0., 0., 0., 0., 0., 0., 0., 0., -1.97958016e-05,
          6.53077541e-06, 0., 0., 0., 0., -1.84908258e-05, 0.,
          -1.22374904e-05, 0., 0., 0., -3.40782681e-05, 0.,
          4.60783813e-05, 0., 8.39385830e-05, 0., 0., 0., 0., 0., 0., 0.,
          -3.16115111e-05, 0., 0., 0., 2.17794350e-05, 0.,
          1.81369323e-05, 0., -5.37207525e-04, -4.14134120e-04,
          1.23398047e-06, -1.55050238e-03, 0., 0., -3.86581924e-05,
          -2.01382587e-04, 2.11173337e-05, 0., 0., -2.71855446e-04, 0.,
          0., -1.60074545e-04, 5.30680518e-05, 0., 0., 0.,
          8.50037250e-05, 0., 0., 0., 0., 0., 0., 0., 1.03185252e-04, 0.,
          0., 0., -6.07683214e-05, 6.20582941e-05, 1.53577930e-05, 0.,
          -2.34152569e-04, 0., 0., 0., 0., 0., 0., -3.66420045e-06,
          1.79974348e-04, 0., 0., 0., 6.39189375e-06, 0., 0., 0.,
          -4.29907705e-05, 0., 0., 0., 0., 1.46441189e-05,
          3.48306276e-05, 8.08287514e-05, -9.35492717e-05,
          3.51246927e-05, 0., -1.57678312e-06, -9.57944430e-05,
          -6.28180336e-04, -2.18326662e-04, 2.91791494e-05,
          -8.42282840e-04, 0., 0., -4.56508569e-05, 1.61113076e-05, 0.,
          0., 0., -8.47503270e-06, 0., 0., 3.26727377e-06,
          -1.87733487e-04, 0., 0., 0., 0., 0., 0., 0., 0., 0., 0., 0.,
          0., 1.86312463e-05, 0., 4.00849603e-05, -3.71159967e-06,
          -1.75827870e-03, -4.25530947e-04, -1.21717807e-04,
          3.15417128e-04, -1.93155142e-06, 0., -2.09479986e-04,
          -2.43084374e-04, 1.74024135e-05, 3.05823742e-05,
          -1.46014954e-05, -1.60125410e-06, -1.95320645e-05, 0.,
          -1.67829407e-04, -1.83689917e-05, 3.24992521e-04,
          -3.98105767e-05, -7.41848135e-06, -1.84567456e-04, 0., 0., 0.,
          0., 1.11331719e-04, -8.25989537e-06, 0., -2.29077468e-05,
          5.82015600e-05, 0., 1.26711151e-04, 3.62934770e-05,
          -2.72421439e-05, 2.90665717e-04, -2.20700353e-03,
          8.87327769e-05, -6.43450257e-05, 0., -1.74688734e-03,
          -9.44728963e-04, 1.45773904e-03, -3.86581924e-05,
          1.70252770e-05, -4.97408728e-05, 1.31351897e-03,
          -3.86581924e-05, 2.94238125e-04, -1.88191298e-05,
          -5.75269769e-05, 0., 1.86312463e-05, 5.03383171e-06, 0., 0.,
          3.36909693e-06, 0., 3.17893573e-04, 0., 1.53577930e-05, 0.,
          2.46331940e-04, 0., 4.10615205e-04, 1.31290417e-05,
          -8.19991168e-04, -1.95142584e-05, -8.60073633e-05,
          -2.91222168e-05, 6.53077541e-06, 0., 5.90655327e-06,
          -3.04771456e-05, 8.32549631e-05, 0., 1.19511278e-05, 0.,
          -7.24612573e-06, 0., 1.63863642e-05, 0., -1.88262624e-04, 0.,
          1.70659393e-06, -4.82729047e-05, 0., 0., 3.16641831e-06, 0.,
          4.73117630e-04, 0., -4.82729047e-05, 0., 1.11169044e-04, 0.,
          -1.09501147e-04, -4.45307232e-05, -1.92034160e-04, 0.,
          -2.76264327e-05, -6.11946462e-06, -8.02214527e-06, 0., 0., 0.,
          9.43118721e-06, 0., 0., 0., 2.18998821e-06, 0.,
          -5.50220511e-06, 0., 0., 0., 0., 0., 0., 0., 0., 0., 0., 0.,
          0., 0., 0., 0., 0., 0., -9.35678079e-04, -1.57950089e-05,
          -2.70316741e-06, 0., -6.53969846e-06, 0., -4.53127832e-05,
          -7.96211534e-05, -2.89608524e-05, 0., 0., 0., 2.19035587e-06,
          0., -7.96211534e-05, 0., -2.58497545e-04, 0., -6.09899071e-05,
          0., 0., 0., 0., 0., 6.47406478e-06, 0., 0., 0.,
          -3.04997266e-05, 0., -4.34747781e-05, 0., 1.20029890e-03,
          9.09418974e-04, 3.64158594e-04, 1.33057381e-03,
          -8.87705824e-07, 0., 5.98561710e-05, 3.72159739e-05,
          3.57008539e-05, 0., 0., -1.12665175e-05, 6.18759586e-05,
          6.53077541e-06, 1.50455598e-04, 1.21694029e-04, 0., 0., 0., 0.,
          0., 0., 0., 0., 1.86312463e-05, 0., 0., 0., -5.50220511e-06,
          0., 6.53077541e-06, -4.41603988e-05, 2.42879996e-05, 0., 0.,
          -1.34290358e-05, 0., 0., 0., -3.98105767e-05, 0., 0., 0., 0.,
          0., 0., 0., 0., 5.03383171e-06, 0., 0., 0., 0., 0., 0., 0.,
          -5.50220511e-06, 0., 0., 0., 0., 0., 0., 0., 6.35484350e-04,
          1.53913599e-04, -1.21824502e-04, 4.27987379e-06,
          -8.46232706e-06, -1.91641066e-05, 6.02397668e-05,
          -2.74307822e-05, 1.02857007e-06, 0., 0., 0., 3.16641831e-06,
          0., -7.16373233e-06, -5.50220511e-06, 0., 0., 0., 0., 0., 0.,
          0., 0., 1.21005223e-05, 0., 0., 0., 6.53077541e-06, 0., 0., 0.,
          -5.93232689e-04, 1.68380124e-04, -6.17399273e-05,
          8.39790300e-05, 0., 0., -8.39911954e-05, -6.43705425e-05,
          3.80659440e-05, -5.50220511e-06, 0., -1.09822668e-05,
          2.54706702e-05, 0., -6.62339562e-06, -9.42897605e-05,
          -6.68647466e-04, 0., -2.31309386e-05, 0., 0., 0.,
          -3.98105767e-05, 0., -2.08736208e-04, 0., -8.46232706e-06,
          6.53077541e-06, 6.50477023e-06, 0., -5.26411823e-05,
          -7.96211534e-05, 1.06852979e-03, -1.04280720e-04,
          -9.00700921e-04, -7.43251148e-05, -7.92182909e-05, 0.,
          -8.86490277e-04, -2.22135524e-04, 1.39840960e-03, 0.,
          -4.94613851e-05, 0., 6.62743580e-04, -4.34747781e-05,
          -1.24653359e-03, -5.44318231e-04, -1.67776263e-04, 0., 0., 0.,
          0., 0., 0., 0., 6.92273257e-04, 0., 0., 0., 6.35517281e-05, 0.,
          2.50727782e-04, 0., -2.74756574e-03, 0., 1.19511278e-05, 0.,
          2.87735929e-05, 0., 3.12935335e-05, 0., 3.00422020e-04, 0., 0.,
          0., 3.38055324e-05, 0., -6.55467375e-05, -5.50220511e-06,
          -2.30338719e-05, 0., 0., 0., 0., 0., 0., 0., 1.79703301e-03,
          1.12995813e-05, -7.18751617e-05, -5.23673807e-05,
          -6.35536126e-05, 0., -1.45228434e-04, -1.81917872e-04,
          -2.34444160e-04, 0., 0., 0., 0., 0., 0., 0., -7.41848135e-06,
          0., 0., 0., 0., 0., 2.34642121e-05, 0., 1.61113076e-05, 0., 0.,
          0., 0., 0., 0., 0., 0., 0., 0., 0., 0., 0., 0., 0.,
          -1.30950811e-03, 3.16641831e-06, 4.44225770e-05,
          1.21005223e-05, 0., 0., 0., 0., 8.58013755e-06, 0., 0., 0.,
          4.82784926e-05, 0., 1.29168156e-05, 0., -8.30467965e-04, 0.,
          0., 0., 0., 0., 0., 0., -2.67847296e-04, -1.91641066e-05, 0.,
          0., -4.03833747e-06, 0., 3.01359105e-05, 0., 1.29287422e-03,
          6.10782648e-04, -5.31920159e-05, 4.06691252e-05,
          -3.98105767e-05, 0., -8.03084331e-05, -3.07676877e-04,
          1.19511278e-05, 0., 0., -5.95529991e-06, 1.19511278e-05, 0.,
          1.42448640e-04, -7.06357241e-05, 0., 0., 0., 3.36802004e-05,
          0., 0., 0., 0., 0., 0., 0., 1.11231748e-05, 0., 0., 0.,
          4.99537346e-05, 3.05399444e-05, 0., -8.47503270e-06,
          -1.79625276e-04, 0., 0., 0., 0., 2.18998821e-06, 0., 0.,
          6.02056534e-05, 0., 0., -3.06883921e-05, 9.61331261e-06,
          -8.46232706e-06, 0., 0., 1.09790853e-04, 0., 0., 0.,
          -2.51994038e-06, 1.42037650e-04, -5.43943934e-05,
          3.06159673e-05, 1.85432291e-04, -2.51994038e-06, 0.,
          1.23624386e-05, -1.01089327e-05, 1.09705434e-03,
          4.85158787e-04, 7.74174532e-06, -3.31013071e-05, 0., 0.,
          -1.71214360e-05, -1.83130942e-05, 6.53077541e-06, 0., 0., 0.,
          0., 0., -8.63121750e-05, 2.08212350e-05, 0., 0., 0.,
          -2.51994038e-06, 0., 0., 0., 0., 0., 0., 0., 0., 0., 0.,
          3.12935335e-05, 0., 1.17681921e-04, -2.46121108e-05,
          -8.66876653e-05, 2.89246873e-05, 1.73290009e-05, 0.,
          3.50681767e-05, -8.90272713e-05, 1.37210693e-04, 0.,
          -4.03833747e-06, -3.75644668e-05, 9.04287590e-05, 0.,
          3.77886681e-05, 3.92114043e-06, -2.46901036e-04, 0., 0.,
          -1.91888888e-04, 0., 0., 0., 0., 1.78102360e-04,
          1.05243606e-04, 2.14267493e-05, 1.57207629e-04,
          -7.53831091e-06, 0., 8.72838718e-05, 4.37634480e-05,
          -6.60898339e-04, -1.55147136e-05, -1.06060379e-05,
          -5.85652306e-05, -2.46560853e-06, 0., 6.64910331e-05,
          2.45533602e-06, -9.01306339e-05, 0., -1.05607262e-06, 0.,
          6.09084491e-05, 0., 6.75033545e-04, 1.63619334e-05,
          1.19795122e-05, 0., 0., 0., 0., 0., 0., 0., -8.46232706e-06,
          0., 0., 0., 0., 0., 4.99247799e-05, 0., 3.36754965e-05, 0., 0.,
          0., 0., 0., 0., 0., 0., 0., 0., 0., 0., 0., 0., 0.,
          -2.30638216e-05, 0., 0., 0., 0., 0., 0., 0., 0., 0., 0., 0.,
          0., 0., 0., 0., 2.33043156e-05, 0., 0., 0., 0., 0., 0., 0., 0.,
          0., 0., 0., 0., 0., 0., 0., 0., 0., 0., 0., 0., 0., 0., 0., 0.,
          0., 0., 0., 0., 0., 0., 0., -1.18097014e-05, 0., 0., 0., 0.,
          0., 0., 0., 0., 0., 0., 0., 0., 0., 0., 0., 0., 0., 0., 0., 0.,
          0., 0., 0., 0., 0., 0., 0., 0., 0., 0., 0., 1.07875523e-04,
          -1.09654960e-04, 0., 0., 0., 0., 0., 0., 0., 0., 0., 0., 0.,
          0., 0., 0., 0., 0., 0., 0., 0., 0., 0., 0., 0., 0., 0., 0., 0.,
          0., 0., 0., 2.18998821e-06, 0., 0., 0., 0., 0., 0., 0., 0., 0.,
          0., 0., 0., 0., 0., 0., 0., 0., 0., 0., 0., 0., 0., 0., 0., 0.,
          0., 0., 0., 0., 0., 0., -2.73939986e-05, -5.68190371e-05, 0.,
          0., 0., 0., 0., 0., 0., 0., 0., 0., 0., 0., 0., 0., 0., 0., 0.,
          0., 0., 0., 0., 0., 0., 0., 0., 0., 0., 0., 0., 0.,
          1.83556003e-05, 7.88496891e-06, 0., 0., 0., 0., 0., 0., 0., 0.,
          0., 0., 0., 0., 0., 0., 0., 0., 0., 0., 0., 0., 0., 0., 0., 0.,
          0., 0., 0., 0., 0., 0., 0., 0., 0., 0., 0., 0., 0., 0., 0., 0.,
          0., 0., 0., 0., -7.09582295e-04, -1.46014954e-05, 0., 0., 0.,
          0., 0., 0., 0., 0., 0., 0., 0., 0., 0., 0., -8.29324636e-05,
          0., 0., 0., 0., 0., 0., 0., 0., 0., 0., 0., 0., 0., 0., 0.,
          7.25286736e-05, 0., 0., 0., 0., 0., 0., 0., 0., 0., 0., 0., 0.,
          0., 0., 0., -7.40680553e-05, 0., 0., 0., 0., 0., 0., 0., 0.,
          0., 0., 0., 0., 0., 0., 0., 1.19511278e-05, 0., 0., 0., 0., 0.,
          0., 0., 0., 0., 0., 0., 0., 0., 0., 0., 0., 0., 0., 0., 0., 0.,
          0., 0., 0., 0., 0., 0., 0., 0., 0., 0., 3.41503437e-05, 0., 0.,
          0., 0., 0., 0., 0., 0., 0., 0., 0., 0., 0., 0., 0.,
          2.52068585e-05, 0., 0., 0., 0., 0., 0., 0., 0., 0., 0., 0., 0.,
          0., 0., 0., -1.42581284e-05, -5.81420682e-05, 0., 0., 0., 0.,
          0., 0., 0., 0., 0., 0., 0., 0., 0., 0., 0., 4.13365160e-05, 0.,
          0., 0., 0., 0., 0., 0., 0., 0., 0., 0., 0., 0., 0., 0.,
          -8.46232706e-06, 0., 0., 0., 0., 0., 0., 0., 0., 0., 0., 0.,
          0., 0., 0., 0., -1.91641066e-05, 0., 0., 0., 0., 0., 0., 0.,
          0., 0., 0., 0., 0., 0., 0., 1.24560276e-04, 0., 0., 0., 0., 0.,
          0., 0., 0., 0., 0., 0., 0., 0., 0., 0., 0., 0.,
          -7.51187763e-05, 5.49586111e-05, 1.88890190e-05,
          -2.48635497e-05, 2.36650794e-05, 0., -2.81535358e-05,
          -9.93842150e-06, 6.22110674e-05, 0., -2.51994038e-06,
          2.56737894e-05, -2.22015933e-05, 0., 6.00590603e-04,
          8.11915670e-05, 6.48076748e-05, 0., 0., -8.46232706e-06, 0.,
          0., 0., 0., -7.38086674e-05, 0., 3.12935335e-05,
          -1.91641066e-05, -7.51321350e-05, 0., 3.04496298e-05,
          1.71096362e-05, -3.38318711e-03, -1.88066806e-05,
          8.94654484e-04, 2.17381821e-05, 6.60787327e-06, 5.03383171e-06,
          7.39544630e-04, 3.02688186e-05, -3.17349550e-05, 0.,
          -3.71159967e-06, 0., 5.24208066e-04, 0., 7.25006161e-04,
          -4.52601525e-05, 2.82802084e-05, 0., 5.29309818e-06, 0., 0.,
          0., 0., 0., -1.18705721e-04, 0., 0., 0., -7.51218104e-05, 0.,
          6.53077541e-06, 0., 7.99235539e-04, 0., 0., 0.,
          -7.41848135e-06, 0., 2.63696602e-05, 0., 6.88618384e-05, 0.,
          0., 0., 1.41411156e-05, 0., 2.38750526e-05, 0., 8.21469876e-05,
          0., 0., 0., 0., 0., 0., 0., 3.91846515e-05, 0., 0., 0.,
          -8.46232706e-06, 0., 0., 0., 2.90704716e-04, 0., 0., 0.,
          1.19511278e-05, 0., 0., 0., 0., 0., 0., 0., -7.41848135e-06,
          0., 0., 0., 0., 0., 0., 0., 0., 0., 0., 0., 0., 0., 0., 0., 0.,
          0., 0., 0., 4.65727440e-04, 0., 0., 0., 0., 0., 0., 0., 0., 0.,
          0., 0., 2.63696602e-05, 0., 0., 0., 0., 0., 0., 0., 0., 0., 0.,
          0., 0., 0., 0., 0., 0., 0., 0., 0., -1.43908325e-03,
          -4.05967585e-04, -9.93774302e-05, -3.92254238e-04, 0., 0., 0.,
          0., -6.99845896e-06, 0., 0., -8.46232706e-06, 0., 0.,
          1.17792752e-05, -1.14984636e-04, 0., 0., 0., 0., 0., 0., 0.,
          0., 0., 0., 0., 0., 0., 0., 0., 0., -3.98105767e-05, 0., 0.,
          0., 0., 0., 0., 0., 0., 0., 0., 0., 0., 0., -1.95142584e-05,
          0., 0., 0., 0., 0., 0., 0., 0., 0., 0., 0., 0., 0., 0., 0., 0.,
          0., -3.92089569e-04, -1.21105935e-04, -9.93842150e-06,
          -5.78222971e-05, 0., 0., -2.75740695e-05, 0., 0., 0., 0., 0.,
          0., 0., 0., 0., 0., 0., 0., 0., 0., 0., 0., 0., 0., 0., 0., 0.,
          0., 0., 0., 0., 1.85850833e-03, -5.27571819e-06,
          4.71094654e-06, -5.74923179e-05, 0., 0., -7.41848135e-06, 0.,
          1.07541427e-05, 0., 0., 0., 0., 0., 5.83362998e-05, 0.,
          1.25174134e-04, 0., 0., 0., 0., 0., 0., 0., 0., 0., 0., 0., 0.,
          0., 0., 0., -2.50634132e-03, 4.00054123e-05, 5.04675787e-04,
          3.26538757e-05, 5.65438095e-05, 0., 3.93528666e-04, 0.,
          -1.30798307e-03, 0., 4.68412254e-05, 0., -2.60988716e-04, 0.,
          1.95701420e-03, 1.22579513e-04, -4.88024816e-05, 0., 0., 0.,
          0., 0., 0., 0., -1.30132132e-04, 0., -8.46232706e-06, 0.,
          -2.07407338e-05, 0., -1.05144252e-04, 0., 8.65280163e-04, 0.,
          0., 0., 0., 0., 0., 0., -1.84313812e-05, 0., 0., 0., 0., 0.,
          -1.76832167e-04, 0., -2.13508392e-05, 0., 0., 0., 0., 0., 0.,
          0., -3.07400507e-04, -1.72495456e-05, -3.57373247e-05,
          4.18797317e-05, -3.27320624e-04, -3.66420045e-06,
          -9.15134951e-05, 1.25174134e-04, 1.71009901e-06, 0., 0., 0.,
          0., 0., 0., 0., 0., 0., 0., 0., 0., 0., -3.63217769e-05, 0.,
          0., 0., 0., 0., 0., 0., 0., 0., 0., 0., 0., 0., 0., 0., 0., 0.,
          3.33461474e-04, 0., 0., 0., 0., 0., 0., 0., 0., 0., 0., 0.,
          3.12935335e-05, 0., -7.53845889e-05, -6.11946462e-06,
          1.06010026e-04, 0., 0., 0., 0., 0., 0., 0., -2.75677266e-05,
          0., 1.19511278e-05, 0., 0., 0., -3.86581924e-05,
          5.03383171e-06, 9.53839262e-05, -1.00003745e-04,
          5.03383171e-06, -3.30461335e-04, 0., 0., 0., 3.83893639e-05,
          -3.71159967e-06, 0., 0., 3.00976135e-05, 0., 0.,
          -5.30783800e-05, 2.09839811e-04, 0., 0., 0., 3.16641831e-06,
