%YAML:1.0
---
opencv_ml_svm:
   format: 3
   svmType: C_SVC
   kernel:
      type: LINEAR
   C: 2.9999999999999999e-01
   term_criteria: { epsilon:1.1920928955078125e-07, iterations:1000 }
   var_count: 2000
   class_count: 2
   class_labels: !!opencv-matrix
      rows: 2
      cols: 1
      dt: i
      data: [ -1, 1 ]
   sv_total: 1
   support_vectors:
      - [ -1.61541142e-02, -5.82186785e-03, 3.86106712e-03,
          8.12071469e-03, 4.62562265e-03, 1.69444596e-03,
          -2.63439980e-03, 6.24305569e-03, 3.07137729e-03,
          3.12518491e-03, 1.42670714e-03, 4.08376538e-04,
          -4.67470055e-03, -6.49370486e-04, 9.04156244e-04,
          5.39600011e-03, -4.80476022e-03, -6.47005625e-04,
          1.62754627e-03, 1.65533694e-03, 7.70653645e-03, 2.51086522e-03,
          8.90589508e-05, 4.90456773e-03, -1.78504072e-03,
          -2.21535913e-03, 1.07719749e-03, -1.07439526e-03,
          2.54969206e-03, -1.49330765e-03, -8.96654848e-04,
          2.08874908e-03, -2.80888379e-03, 2.91596586e-03,
          -2.92758783e-03, -2.38889805e-03, -1.08523224e-03,
          7.09034910e-04, -2.37142364e-03, 3.20961676e-03,
          4.17307205e-03, -8.00848997e-04, -9.16221412e-04,
          1.54558301e-03, 4.57667629e-04, 2.19986984e-03, 1.37415587e-03,
          4.98511537e-04, 9.80407582e-04, 6.26610650e-04,
          -5.21981157e-04, -1.40306482e-03, 3.91600654e-04,
          -8.08012283e-06, -1.11899304e-03, -9.85681894e-04,
          -5.51915262e-04, 2.87261652e-03, -1.15100108e-03,
          1.02390139e-03, -8.44615453e-04, -3.23371170e-03,
          -1.00501471e-04, 1.13743113e-03, 1.87253929e-03,
          -1.46291580e-03, -8.65011243e-04, 7.71496780e-05,
          -2.81086378e-03, -8.10612808e-04, 1.33886619e-03,
          -1.75751140e-03, 2.48447573e-03, 1.71017344e-03,
          2.23063654e-03, -1.26962352e-03, 3.67470551e-04,
          -4.40661039e-04, -8.96793674e-04, 4.47809789e-03,
          1.52510102e-03, -2.01697950e-03, 3.97003023e-04,
          1.23071775e-04, 1.29187480e-03, 3.91877303e-03,
          -1.26940012e-03, -6.65193365e-04, 1.31904241e-03,
          -1.13700866e-03, -7.34881382e-04, 3.36884899e-04,
          1.46735960e-03, -2.31400342e-03, -7.70908606e-04,
          -1.44530076e-03, -2.90819001e-03, -5.09743113e-05,
          8.35416373e-04, -5.85501315e-04, -2.28994479e-03,
          -7.90447404e-04, 1.19392877e-03, -1.22414844e-03,
          1.39335089e-03, -3.51023569e-04, -1.75156561e-03,
          1.76601042e-03, 1.55471178e-04, -1.17795612e-03,
          -1.26237865e-03, 3.51335388e-04, -1.71061300e-04,
          -7.96088832e-04, -2.55157764e-04, -4.06977022e-04,
          3.30561961e-05, -4.06692008e-04, -7.39512849e-04,
          5.87915674e-05, -3.49435932e-03, 3.78150813e-04,
          -1.51570165e-03, -1.38047349e-03, 6.06377318e-04,
          -8.56209721e-04, -2.21762131e-03, 2.27052777e-04,
          2.30612955e-03, -1.62542070e-04, 1.50691869e-03,
          -2.92636896e-03, -1.20359939e-03, -1.10963290e-03,
          8.23993643e-04, -2.46115553e-04, -2.40123621e-03,
          2.84731225e-03, 2.05238559e-03, 1.05466938e-03,
          -1.82537874e-03, -3.77809932e-03, -5.50488803e-05,
          3.48200381e-04, 6.58539298e-04, -2.11059305e-05,
          -1.22038240e-03, -2.36412045e-03, -1.26197794e-03,
          -3.47512751e-03, -1.01993920e-03, 1.04518165e-03,
          2.79172952e-03, 2.55301059e-03, 5.73313446e-06, 2.29275800e-04,
          2.56718881e-03, -1.18068024e-03, -1.60312600e-04,
          -8.63221649e-04, 2.31146859e-03, -1.86429615e-03,
          -2.50260928e-04, -3.67718795e-03, 8.57979874e-04,
          -2.63723894e-04, -3.65753309e-04, 1.30215078e-03,
          -6.83088787e-04, -6.93880604e-04, 5.18418988e-03,
          4.90419879e-05, -1.04620890e-03, -1.14837964e-03,
          -1.29313814e-03, 5.43978298e-04, -1.22988294e-03,
          -1.53081201e-03, 3.09913279e-03, 5.71824959e-04,
          1.23644434e-03, -1.80219207e-03, 8.22891423e-04,
          -1.59801065e-03, -1.40217645e-03, -1.48913544e-03,
          -8.68997944e-04, -3.50841729e-04, -2.72396283e-04,
          1.19320396e-03, -5.36674343e-04, 2.24829442e-03,
          3.81002738e-03, -2.34650378e-03, 7.97632165e-05,
          1.04867027e-03, -1.65070815e-03, 1.78565644e-03,
          -2.09907140e-03, -1.09131390e-04, -1.96921857e-04,
          9.65715211e-04, 1.64106023e-03, -1.00751349e-03,
          -1.50580599e-03, -7.28584710e-04, -2.03570444e-03,
          -1.07109442e-03, -6.78128912e-04, 4.93951840e-04,
          -5.22498565e-04, -9.63713101e-05, 8.30545905e-04,
          -1.89598606e-04, -1.26394996e-04, 2.90957134e-04,
          -1.79380726e-03, -1.59784243e-03, -9.48811823e-04,
          -8.04421550e-04, -1.64256897e-03, -2.12776009e-03,
          1.05231185e-03, 7.78663089e-04, 1.27532426e-03,
          -1.51475740e-03, 3.13627388e-04, -6.21307583e-04,
          -5.29142970e-04, 2.04792898e-03, 1.34831454e-04,
          -2.96557974e-03, 5.87705756e-04, -1.06308784e-04,
          5.32016973e-04, -6.41625084e-04, 4.46247723e-04,
          4.55628942e-05, 6.66689943e-04, 9.57188837e-04,
          -5.16827218e-04, -3.96771444e-04, 5.64565067e-04,
          -1.31164910e-03, 8.08301906e-04, -1.48283411e-03,
          4.10467270e-04, 6.50361690e-05, 1.26855211e-05, 1.80854485e-03,
          3.06433998e-04, 6.92095433e-04, -9.05607478e-04,
          -3.88460583e-04, 1.36859831e-03, -4.02505713e-04,
          -8.82955443e-04, 4.25307589e-05, 6.61752129e-04,
          2.70261266e-03, 1.76510413e-03, 1.24729867e-03,
          -3.03307781e-03, -1.21487759e-03, -4.04007665e-07,
          -1.54022899e-04, 1.31651736e-03, -9.96390823e-04,
          -8.42483831e-04, -1.43258634e-03, 2.51501362e-04,
          -7.23435078e-05, 1.28065539e-03, -2.97669205e-04,
          1.09879067e-03, -1.56738260e-03, -5.84354741e-04,
          -1.26975204e-03, -1.05622271e-03, -1.38555974e-04,
          1.07829669e-03, -1.81019714e-04, -1.10965432e-03,
          9.78500582e-04, 4.42725432e-04, 1.51386485e-03, 3.45542328e-04,
          2.78356692e-05, -1.63605437e-03, -1.49157632e-03,
          -1.47179258e-03, -1.01789820e-03, 1.82116259e-04,
          -2.29506521e-03, -7.34405941e-04, 1.32840511e-03,
          -5.94900979e-04, -5.04603027e-04, 8.23128503e-04,
          5.47904579e-04, 1.95980654e-03, -2.19765469e-03,
          -1.42890273e-03, 1.75363850e-03, 1.64148130e-03,
          6.42938365e-04, -4.65862220e-04, 8.17685097e-04,
          -2.93156569e-04, -2.30162899e-04, -7.69968552e-04,
          -2.42462289e-03, -3.38883896e-04, -3.23739019e-04,
          -1.33241736e-03, -2.11131628e-04, -8.63404071e-04,
          3.17860395e-04, 2.94721103e-04, -6.22740015e-04,
          3.25638015e-04, 1.62021934e-05, 1.12113470e-04,
          -5.82431327e-04, 5.06026627e-05, -5.11463906e-04,
          -7.97988090e-04, -4.86392382e-04, -1.53566754e-04,
          -1.79033761e-03, -9.07661975e-04, -2.47860141e-03,
          -5.28091507e-04, -1.07115111e-03, 7.64716606e-05,
          1.41462358e-03, -1.45618833e-05, 1.75956020e-03,
          3.38906626e-04, 1.65722833e-03, -4.46842860e-05,
          -5.50101802e-04, -2.17130058e-03, -1.13482958e-04,
          -7.46661564e-04, 1.44612079e-03, -1.35262730e-03,
          -1.23462779e-03, -8.96273632e-05, -4.09544475e-04,
          1.32856090e-04, 2.48865690e-04, -9.61711165e-04,
          -1.61274720e-03, -7.11332832e-05, 1.17136515e-03,
          2.43212344e-04, 1.48215622e-03, -1.58260937e-03,
          1.03753064e-06, 1.57671329e-03, 1.14219869e-03, 2.72422971e-04,
          6.70405221e-04, 6.20419451e-04, -1.54120638e-03,
          -5.67806128e-04, 1.87608134e-03, 2.99807525e-05,
          2.28859019e-04, -3.29472998e-04, 4.82655596e-04,
          -1.02709420e-03, 1.92031570e-04, -2.40036417e-04,
          5.78467734e-04, 9.16699821e-04, 7.41074618e-04, 1.20899617e-03,
          -5.05759439e-04, 1.10467384e-03, 1.07224088e-03,
          8.37798754e-04, -8.17733526e-05, 2.27794226e-04,
          -2.97553343e-04, -1.41700686e-04, -1.07872020e-03,
          2.53532198e-04, -4.68675076e-04, 6.49620604e-04,
          7.20414508e-04, -4.08443942e-04, -9.82709811e-04,
          -8.14232393e-04, -7.94591382e-04, 2.04953714e-03,
          -8.42135458e-04, 2.05250923e-04, -4.01689613e-04,
          -4.04258375e-04, 7.32050103e-05, -5.71360979e-05,
          2.99597858e-04, -1.53058296e-04, 7.85216689e-04,
          -6.74615090e-04, -7.23198580e-04, 1.01148197e-03,
          6.64453080e-04, -3.09674615e-05, -1.64153846e-03,
          1.52566514e-04, -7.61403062e-04, 1.74846698e-03,
          1.89371549e-05, 3.12848511e-04, 4.43747354e-04, 3.27481066e-05,
          -5.42541966e-04, 9.14767268e-04, 1.07063202e-03,
          3.35178687e-04, -1.99358503e-04, -8.68860225e-04,
          9.53003182e-05, 6.41170831e-04, -8.00297246e-04,
          5.36303878e-06, 1.16588475e-04, 6.63460291e-04,
          -1.14186807e-03, 8.02811002e-04, -1.40676904e-03,
          1.12100635e-04, -9.41480335e-04, 5.06332959e-04,
          3.35166318e-04, -5.51610952e-04, -5.61335473e-04,
          -7.80437374e-04, -1.19557582e-04, -4.13620670e-04,
          4.91934537e-04, 2.31299506e-04, 3.82157159e-04,
          -9.40489525e-04, -8.14557934e-05, 7.30072963e-04,
          1.19618664e-03, -3.86649808e-05, -5.03635383e-04,
          5.22252754e-04, 4.05808561e-04, -5.58255066e-04,
          -4.66671394e-04, -2.92881712e-04, 2.87480420e-04,
          -1.85327895e-04, 1.32542499e-03, -4.36497532e-04,
          6.42083643e-04, 4.87294747e-04, -4.79418406e-04,
          -9.73856222e-05, 7.39087882e-13, 4.65664790e-12,
          -7.71433525e-12, -8.24636193e-12, -8.26996891e-12,
          -2.02785254e-11, 2.93982581e-11, 6.69176867e-11,
          -1.37768928e-11, 7.51899411e-12, 1.47817370e-12,
          -7.54143623e-11, 1.47817934e-12, -7.39087773e-13,
          -7.39087773e-13, 2.44815834e-11, 5.74627151e-18,
          1.01381256e-11, 1.16225233e-11, 1.16225233e-11,
          -1.84314369e-18, -1.84314369e-18, 2.66539030e-11,
          2.66539030e-11, 6.27265340e-12, 6.27265340e-12, 1.19448921e-11,
          -4.18047194e-11, -4.82241330e-11, -1.05876710e-10,
          -1.05876710e-10, 2.05071533e-11, 2.05071533e-11,
          -2.29991009e-11, -2.29991009e-11, -7.72971964e-12,
          -7.72971964e-12, -2.33351923e-12, -2.33351923e-12,
          -2.08065717e-11, -8.88251278e-12, -8.88251278e-12,
          1.57058828e-11, 1.57058828e-11, 1.51793855e-11, 1.51793855e-11,
          2.10339073e-11, -7.61326696e-11, -7.61326696e-11,
          7.94311405e-12, 1.34593237e-12, 1.34593237e-12, 2.00205182e-11,
          2.00205182e-11, -7.80633821e-11, -7.80633821e-11,
          1.71724926e-11, 1.71724926e-11, 8.26975901e-12, 8.26975901e-12,
          3.25260652e-18, 5.42101086e-20, 5.42101086e-20,
          -1.29427866e-11, -1.29427866e-11, 7.37432164e-12,
          7.37432164e-12, -5.42101086e-19, 2.27682456e-18,
          2.27682456e-18, -5.96311195e-19, -5.96311195e-19,
          4.87890978e-19, 4.87890978e-19, 3.52365706e-18, 3.52365706e-18,
          -5.32589112e-11, -5.32589112e-11, -2.10054630e-12,
          -2.10054630e-12, -1.66192754e-11, -1.66192754e-11,
          4.70008624e-12, 4.70008624e-12, -1.56981251e-11,
          -1.56981251e-11, -3.42541967e-11, 1.46367293e-18,
          1.46367293e-18, -6.30462609e-12, -6.30462609e-12,
          -3.96350210e-11, -3.96350210e-11, -5.30809077e-12,
          -5.30809077e-12, 2.36520907e-11, 2.36520907e-11,
          -8.20979187e-11, 1.89262217e-11, 1.89262217e-11,
          -1.88535906e-11, -1.88535906e-11, 6.92380805e-11,
          3.11402674e-11, 3.11402674e-11, -7.97605818e-12,
          -7.97605818e-12, 1.08726595e-11, 1.08726595e-11,
          5.98877267e-11, 5.98877267e-11, 2.16840434e-18, 2.16840434e-18,
          -1.42911377e-11, -1.42911377e-11, -5.69553129e-12,
          -5.69553129e-12, -1.29422861e-10, -1.29422861e-10,
          -6.50073190e-11, -6.50073190e-11, 3.81655168e-12,
          3.81655168e-12, 7.62838317e-12, 7.62838317e-12,
          -1.95156391e-18, -1.95156391e-18, -6.64126653e-12,
          -6.64126653e-12, -4.82678029e-11, 5.42101086e-19,
          5.42101086e-19, -3.23755432e-12, -3.23755432e-12,
          1.76132008e-11, 1.76132008e-11, -1.65170603e-11,
          -1.65170603e-11, 3.40056525e-11, 3.40056525e-11,
          1.67046086e-12, -4.45456103e-11, -4.45456103e-11,
          -3.69543697e-13, -3.69543697e-13, 2.37071612e-11,
          2.37071612e-11, 8.67361738e-19, 8.67361738e-19, 1.78954126e-11,
          1.71925391e-11, 1.71925391e-11, 1.68051337e-18, 1.68051337e-18,
          -2.04813111e-11, -2.04813111e-11, 2.36680692e-11,
          2.36680692e-11, 8.85819716e-12, 8.85819716e-12, 1.02999206e-18,
          1.02999206e-18, 9.17071141e-11, 9.17071141e-11,
          -8.61941074e-11, -8.61941074e-11, -3.71228707e-11,
          -3.71228707e-11, 2.56699540e-11, 4.00933176e-11,
          4.00933176e-11, 4.58028095e-11, 4.58028095e-11,
          -2.11419424e-18, -2.11419424e-18, -2.35841225e-11,
          -2.35841225e-11, -7.14993472e-12, -7.14993472e-12,
          1.23473402e-11, 1.23473402e-11, -1.82616526e-11,
          -1.82616526e-11, 2.35882217e-11, 2.35882217e-11,
          -1.73002238e-11, -1.73002238e-11, -3.25260652e-18,
          -3.25260652e-18, -1.98675069e-11, -1.98675069e-11,
          -2.22864192e-11, -2.22864192e-11, 2.05626897e-13,
          2.05626897e-13, -2.66685667e-11, -2.66685667e-11,
          -3.58087344e-11, -3.58087344e-11, 3.56458404e-11,
          3.56458404e-11, 1.62306099e-10, -6.41598753e-12,
          -6.41598753e-12, 7.71297522e-12, 7.71297522e-12,
          -3.90841526e-12, -3.90841526e-12, 1.93278778e-11,
          1.93278778e-11, 3.36650950e-11, -4.88952758e-12,
          -6.87971858e-12, -6.87971858e-12, -2.04655715e-12,
          -2.04655715e-12, 6.87827399e-12, 5.46876238e-13,
          5.46876238e-13, -2.32886349e-11, -2.32886349e-11,
          -7.74960443e-11, -7.74960443e-11, -7.43320824e-13,
          -7.43320824e-13, 7.22933258e-12, 7.22933258e-12,
          2.08708918e-18, -6.50521303e-19, -6.50521303e-19,
          -4.06575815e-19, -4.06575815e-19, 1.32055495e-11,
          1.32055495e-11, 2.59269568e-11, 2.59269568e-11,
          -2.00991758e-11, -2.00991758e-11, 2.00359555e-11,
          2.20392749e-11, 2.20392749e-11, 2.62807276e-11, 2.62807276e-11,
          -2.72680012e-12, -2.72680012e-12, 2.41755903e-11,
          2.41755903e-11, -1.30104261e-18, -1.30104261e-18,
          4.83713894e-12, -1.00589875e-11, -1.00589875e-11,
          -2.15452742e-11, -2.15452742e-11, 1.81561259e-11,
          1.81561259e-11, 6.90900896e-12, 6.90900896e-12, 1.00834029e-11,
          1.00834029e-11, 7.82743575e-12, 7.82743575e-12, 1.14713117e-11,
          1.14713117e-11, 2.80814452e-11, 2.80814452e-11, 1.63595925e-11,
          1.63595925e-11, -9.22717024e-12, -9.22717024e-12,
          -2.19071410e-11, -2.19071410e-11, -1.73604967e-11,
          -1.73604967e-11, 1.09015349e-11, 1.09015349e-11,
          -4.62968682e-12, -4.62968682e-12, 2.65404495e-12,
          2.65404495e-12, -2.06948282e-12, 3.85784720e-12,
          -6.24027671e-14, -6.24027671e-14, -5.69206141e-19,
          -5.69206141e-19, 6.64442373e-12, 6.64442373e-12,
          -1.22047268e-11, -1.22047268e-11, 2.27372062e-11,
          2.27372062e-11, 1.04744720e-11, 1.04744720e-11, 9.79470255e-11,
          9.79470255e-11, 1.32002725e-11, 1.49661741e-11, 1.49661741e-11,
          3.25260652e-19, 3.25260652e-19, 8.13151629e-19, 8.13151629e-19,
          1.02999206e-18, 1.02999206e-18, -1.97740973e-11,
          -1.97740973e-11, -9.10648239e-14, -9.10648239e-14,
          7.37988576e-12, 7.37988576e-12, 4.19501803e-12, 4.19501803e-12,
          2.81150658e-11, 2.81150658e-11, 7.90293959e-12, 7.90293959e-12,
          5.04269335e-11, -7.98377510e-12, -7.98377510e-12,
          -3.66985912e-12, -3.66985912e-12, -2.07691260e-11,
          -2.07691260e-11, 8.14798489e-12, 9.28197103e-12,
          9.28197103e-12, 2.92734587e-18, 2.92734587e-18,
          -2.91000887e-11, -2.91000887e-11, -4.53307270e-12,
          -4.53307270e-12, 1.27407991e-12, 1.27407991e-12,
          -2.74873765e-12, -2.74873765e-12, -3.25260652e-19,
          -3.25260652e-19, -1.07771977e-11, -1.07771977e-11,
          9.79028664e-12, 9.79028664e-12, -4.87890978e-19,
          -4.83714067e-12, -4.83714067e-12, -6.06075129e-12,
          -6.06075129e-12, 3.23744052e-11, 1.52564766e-10,
          1.52564766e-10, -5.69206141e-19, -5.69206141e-19,
          1.62630326e-19, 1.62630326e-19, -2.20299668e-12,
          -2.20299668e-12, 7.32496182e-12, 7.32496182e-12,
          -1.75451945e-11, -1.75451945e-11, -1.48722007e-11,
          -1.48722007e-11, 7.39088586e-13, 7.39088586e-13,
          7.24142187e-12, 7.24142187e-12, -1.20049505e-14,
          -1.20049505e-14, 1.56940173e-11, 1.56940173e-11,
          -2.93983692e-11, -1.68694746e-12, -1.68694746e-12,
          -8.39254556e-13, -8.39254556e-13, -1.62307982e-12,
          -1.62307982e-12, 1.48820331e-11, 1.48820331e-11,
          -1.10506257e-11, -1.10506257e-11, 1.21390929e-12,
          1.21390929e-12, -2.79665982e-12, -2.79665982e-12,
          1.06665165e-12, 1.06665165e-12, 4.26286610e-12, 4.26286610e-12,
          -2.19399238e-11, -2.19399238e-11, 2.87447930e-12,
          2.87447930e-12, 1.88535906e-11, 1.88535906e-11,
          -9.40724061e-12, -9.40724061e-12, -1.16560052e-11,
          1.30104261e-18, 1.30104261e-18, 1.20845729e-11, 1.20845729e-11,
          -5.55719923e-12, -5.55719923e-12, -6.37452374e-12,
          -6.37452374e-12, 2.33103467e-18, 2.33103467e-18,
          8.88781670e-12, 8.88781670e-12, -2.90361398e-11,
          -2.90361398e-11, -7.92585789e-12, -7.92585789e-12,
          1.48207445e-12, 1.48207445e-12, 6.71871369e-12, 6.71871369e-12,
          -1.26523089e-11, -1.35525272e-19, -1.35525272e-19,
          5.42101086e-19, 5.42101086e-19, -1.67613944e-11,
          -1.42339959e-11, -1.42339959e-11, 2.47250050e-11,
          2.47250050e-11, 1.22653580e-11, 1.22653580e-11,
          -1.27173456e-12, -1.27173456e-12, 2.71050543e-20,
          2.71050543e-20, -2.30311538e-12, -2.30311538e-12,
          1.19207717e-11, -2.05736435e-11, -2.05736435e-11,
          4.59574392e-12, 4.59574392e-12, -6.25513356e-12,
          -6.25513356e-12, 7.97825727e-13, 7.97825727e-13,
          -1.18787060e-13, -1.18787060e-13, 9.01198734e-12,
          9.01198734e-12, -2.76265686e-12, -2.76265686e-12,
          -4.37688844e-11, -4.37688844e-11, -1.16400188e-11,
          -1.58858968e-11, -1.58858968e-11, -1.03442211e-11,
          -1.03442211e-11, -1.31711621e-11, -1.31711621e-11,
          -1.24683250e-18, -1.24683250e-18, 1.29786168e-10,
          1.29786168e-10, 1.60572909e-11, 1.60572909e-11, 1.26466827e-12,
          1.26466827e-12, 5.97313269e-13, 5.97313269e-13, 8.55077988e-12,
          2.12037527e-12, 2.12037527e-12, -3.29326800e-12,
          -3.29326800e-12, -1.86772776e-12, -1.86772776e-12,
          -7.65455407e-12, -7.65455407e-12, 1.57209315e-18,
          1.57209315e-18, 8.50794207e-13, 8.50794207e-13,
          -2.79023115e-12, -2.79023115e-12, 2.88774213e-11,
          2.88774213e-11, 2.27682456e-18, 2.27682456e-18, 1.70607625e-12,
          1.70607625e-12, 1.89439133e-12, 1.89439133e-12, 6.71899428e-12,
          6.71899428e-12, 1.30034341e-12, 1.30034341e-12, 8.73692264e-12,
          8.73692264e-12, 5.50921830e-13, 5.50921830e-13,
          -5.04525415e-11, -5.04525415e-11, 2.63327619e-12,
          2.63327619e-12, -2.40216475e-11, -2.40216475e-11,
          4.58458167e-11, 1.25679077e-11, 1.25679077e-11,
          -2.92041703e-11, -2.92041703e-11, 4.87890978e-19,
          4.87890978e-19, 9.22878093e-12, 9.22878093e-12,
          -1.93049621e-11, -1.93049621e-11, 7.72759808e-12,
          7.72759808e-12, 1.79157453e-11, 1.79157453e-11,
          -9.58878636e-12, -9.58878636e-12, -3.62185650e-12,
          -3.62185650e-12, 2.65845922e-11, 2.65845922e-11,
          1.69152314e-11, 1.69152314e-11, 2.89385946e-11, 2.89385946e-11,
          -6.57896090e-12, -9.14737036e-12, -9.14737036e-12,
          5.14996032e-19, 5.14996032e-19, -1.08420217e-19,
          -1.08420217e-19, -5.13334861e-12, -5.13334861e-12,
          1.01877543e-11, 1.01877543e-11, 2.63327598e-12, 2.63327598e-12,
          -5.77235633e-13, -5.77235633e-13, 1.71858933e-11,
          1.71858933e-11, -9.50685711e-12, -9.50685711e-12,
          1.39137183e-13, 1.39137183e-13, -5.46052049e-12,
          -5.46052049e-12, -5.85107136e-12, -5.85107136e-12,
          5.18262126e-12, 5.18262126e-12, 4.06575815e-20, 4.06575815e-20,
          8.82359203e-12, 8.82359203e-12, 2.06913427e-11, 2.06913427e-11,
          1.84771957e-13, 1.84771957e-13, 1.22540554e-11, 1.22540554e-11,
          1.92180178e-11, 1.92180178e-11, -5.96311195e-19,
          -5.96311195e-19, -2.06838713e-12, -2.06838713e-12,
          -1.26647965e-12, -1.26647965e-12, 2.07855326e-12,
          2.07855326e-12, -9.55552586e-13, -9.55552586e-13,
          7.66217818e-12, 7.66217818e-12, -4.91482133e-11,
          -1.40946282e-18, -1.40946282e-18, -4.08457079e-12,
          -4.08457079e-12, -4.74338450e-19, -4.74338450e-19,
          -1.11318446e-11, -1.11318446e-11, -3.84959911e-11,
          -3.84959911e-11, -1.08247369e-11, -1.08247369e-11,
          6.49450979e-13, 6.49450979e-13, 2.93796758e-11, 2.93796758e-11,
          1.24683250e-18, 1.24683250e-18, 2.38088981e-13, 2.38088981e-13,
          -6.91185607e-12, -6.91185607e-12, 8.29693085e-12,
          8.29693085e-12, -1.09509693e-11, -1.09509693e-11,
          3.59250607e-12, 3.59250607e-12, -9.00759502e-12,
          -9.00759502e-12, -7.01889848e-12, -7.01889848e-12,
          3.69543941e-13, 3.69543941e-13, 1.22975883e-11, 1.22975883e-11,
          9.78262870e-12, -1.41286479e-11, -1.41286479e-11,
          -2.34720923e-11, -2.34720923e-11, -5.42101086e-19,
          -5.42101086e-19, -1.73472348e-18, -1.73472348e-18,
          1.20107709e-11, 7.41036843e-13, 7.41036843e-13,
          -1.57209315e-18, -1.57209315e-18, -1.28807650e-11,
          -1.28807650e-11, -4.83952635e-12, -4.83952635e-12,
          -4.33680869e-19, -4.33680869e-19, -7.39814568e-13,
          -7.39814568e-13, 1.98577851e-12, 1.98577851e-12,
          -2.04170166e-12, 4.52966484e-12, 4.52966484e-12,
          2.99286151e-11, 2.99286151e-11, 5.02583522e-12, 5.02583522e-12,
          6.50946853e-13, 6.50946853e-13, 4.73837072e-12, 4.73837072e-12,
          -2.82584308e-12, -2.82584308e-12, 2.42378519e-13,
          2.42378519e-13, 1.05421249e-12, 1.05421249e-12,
          -1.72267756e-12, -1.72267756e-12, -3.69545974e-13,
          -3.69545974e-13, -8.88819313e-12, -8.88819313e-12,
          -1.04079306e-11, -1.04079306e-11, 4.88623638e-12,
          4.88623638e-12, 6.10388693e-12, 6.10388693e-12,
          -1.25582331e-11, -1.25582331e-11, 2.62730647e-13,
          2.62730647e-13, -1.10297396e-11, -1.10297396e-11,
          -4.72934148e-12, 6.57918078e-12, 6.57918078e-12,
          -1.56627454e-11, -1.56627454e-11, -2.04911045e-12,
          -2.04911045e-12, 1.94518143e-12, 1.94518143e-12,
          -7.02034264e-12, -7.02034264e-12, -1.98032649e-11,
          -1.98032649e-11, -1.78603365e-11, -1.78603365e-11,
          1.45037302e-12, 1.45037302e-12, 2.03568802e-12, 2.03568802e-12,
          -8.35508052e-12, -8.35508052e-12, 2.47232703e-11,
          -4.79106381e-12, -4.79106381e-12, 1.02294551e-12,
          1.02294551e-12, -4.78956111e-12, -4.78956111e-12,
          -2.98692321e-11, -2.98692321e-11, 2.01157389e-11,
          1.02999206e-18, 1.02999206e-18, 2.11059685e-12, 2.11059685e-12,
          -1.13835000e-11, -1.13835000e-11, 2.95625633e-12,
          2.95625633e-12, -1.49077799e-19, -1.49077799e-19,
          3.11184780e-12, 3.11184780e-12, -2.02847461e-11,
          -2.02847461e-11, 1.62630326e-19, 1.62630326e-19,
          -7.31836466e-19, -7.31836466e-19, 5.20732546e-12,
          5.20732546e-12, 2.66095327e-12, 2.66095327e-12,
          -1.17489905e-12, -1.17489905e-12, -4.82513751e-11,
          -4.82513751e-11, 3.72833969e-12, 3.72833969e-12,
          7.14392000e-12, 7.14392000e-12, -2.47916271e-12,
          -2.47916271e-12, -3.42889172e-12, -3.42889172e-12,
          -3.06194545e-12, -3.06194545e-12, 1.84906886e-12,
          1.84906886e-12, -5.55177865e-12, -5.55177865e-12,
          6.51988619e-12, 6.51988619e-12, 1.26444202e-11, 1.26444202e-11,
          -9.25808800e-13, -9.25808800e-13, -9.79636077e-12,
          -1.25433775e-13, -1.25433775e-13, -7.28135087e-12,
          -7.28135087e-12, -8.73714989e-12, -8.73714989e-12,
          -1.38427356e-13, 4.33680869e-19, 4.33680869e-19,
          1.96075014e-12, 1.96075014e-12, -1.52278311e-11,
          -1.52278311e-11, 6.77626358e-19, 6.77626358e-19,
          3.56216380e-12, 3.56216380e-12, -2.30692982e-11,
          -2.30692982e-11, -1.11130723e-18, -1.11130723e-18,
          6.95635693e-12, 6.95635693e-12, -2.17792949e-12,
          -2.17792949e-12, 1.37921063e-11, 1.37921063e-11,
          -4.99992625e-12, -4.99992625e-12, 1.98577808e-12,
          1.98577808e-12, -3.96537404e-12, -3.96537404e-12,
          -3.17005588e-11, -3.17005588e-11, -2.41579499e-12,
          -2.41579499e-12, -1.35525272e-19, -1.35525272e-19,
          1.18072246e-13, 1.18072246e-13, 1.80100639e-12, 1.80100639e-12,
          -2.71592367e-11, -2.71592367e-11, 2.36720431e-12,
          2.36720431e-12, -4.25313604e-12, -4.25313604e-12,
          -6.49091631e-12, -6.49091631e-12, 1.50238632e-12,
          1.50238632e-12, -1.78829293e-12, -1.78829293e-12,
          -4.07772817e-12, -4.07772817e-12, 2.99698048e-12,
          2.99698048e-12, 3.52365706e-19, 3.52365706e-19,
          -9.48676901e-20, -9.48676901e-20, 7.19170513e-12,
          -9.68952696e-12, -9.68952696e-12, 4.82134775e-12,
          4.82134775e-12, 7.04731412e-19, 7.04731412e-19, 4.43156232e-12,
          4.43156232e-12, -1.73472348e-18, -1.73472348e-18,
          -1.50507593e-11, -1.50507593e-11, -5.42101086e-20,
          -5.42101086e-20, 8.73425464e-12, 8.73425464e-12,
          5.58059631e-12, 5.58059631e-12, 8.45218513e-12, 8.45218513e-12,
          -6.22693954e-13, -6.22693954e-13, -1.88834517e-12,
          -1.88834517e-12, -9.62067557e-13, -9.62067557e-13,
          -1.88956212e-11, -1.88956212e-11, 2.91379334e-19,
          2.91379334e-19, 4.23232955e-14, 4.23232955e-14,
          -1.80100574e-12, -1.80100574e-12, 2.76439570e-14,
          2.76439570e-14, -5.78142308e-12, -5.78142308e-12,
          -3.76262172e-12, -3.76262172e-12, 2.36298828e-12,
          2.36298828e-12, -3.16976740e-12, -3.16976740e-12,
          -6.50521303e-19, -6.50521303e-19, -1.32362697e-11,
          -1.32362697e-11, 2.70500601e-11, 1.22242060e-11,
          -2.01012015e-12, -2.01012015e-12, 8.16763497e-12,
          8.16763497e-12, -6.08589730e-13, -6.08589730e-13,
          -3.46322341e-12, -3.46322341e-12, -7.49628495e-13,
          -7.49628495e-13, -5.28816834e-12, -5.28816834e-12,
          -3.78111344e-12, -3.78111344e-12, -2.70040726e-11,
          -5.25087135e-13, -5.25087135e-13, 7.58941521e-19,
          7.58941521e-19, -7.32740171e-12, -7.32740171e-12,
          8.35228967e-13, -3.85689397e-12, -3.85689397e-12,
          7.97664799e-12, 7.97664799e-12, -1.35652958e-12,
          -1.35652958e-12, 1.18579131e-11, 1.18579131e-11,
          -2.87196083e-11, -2.87196083e-11, -5.39663843e-12,
          -5.39663843e-12, -1.61564013e-12, -1.61564013e-12,
          -1.96193495e-11, -1.96193495e-11, 1.78091287e-12,
          1.78091287e-12, 1.45594162e-11, 1.45594162e-11, 6.15572589e-13,
          6.15572589e-13, -6.10077613e-12, -6.10077613e-12,
          2.40339259e-12, 2.40339259e-12, -1.27393755e-18,
          -1.27393755e-18, 2.99875012e-12, 2.99875012e-12,
          -3.63666063e-12, -3.63666063e-12, 1.29465124e-12,
          1.29465124e-12, -1.37426756e-12, -1.37426756e-12,
          3.41081178e-12, 3.41081178e-12, 9.97304409e-12, 9.97304409e-12,
          6.47322734e-12, 6.47322734e-12, -1.48890850e-12,
          -1.48890850e-12, -1.98577851e-12, 4.19535825e-13,
          4.19535825e-13, -2.35571697e-12, -2.35571697e-12,
          -9.66059524e-12, -9.66059524e-12, -1.28536713e-11,
          -1.28536713e-11, -4.87890978e-19, -4.87890978e-19,
          -8.53593585e-12, -8.53593585e-12, -2.73334081e-11,
          -2.73334081e-11, -3.87789020e-12, -3.87789020e-12,
          5.45395760e-12, 5.45395760e-12, -4.19004214e-13,
          -4.19004214e-13, 4.65206346e-12, 4.65206346e-12,
          -4.89210235e-12, -4.89210235e-12, 1.82553473e-12,
          1.82553473e-12, 1.77662052e-11, 1.77662052e-11,
          -3.93023288e-19, -3.93023288e-19, 1.07588135e-12,
          1.07588135e-12, -9.62229428e-19, -9.62229428e-19,
          -6.00012011e-12, -6.00012011e-12, 1.17120159e-12,
          1.17120159e-12, -1.22049411e-11, -1.22049411e-11,
          1.34629103e-12, 1.34629103e-12, -2.04636811e-11,
          -2.04636811e-11, -4.83952635e-12, -4.83952635e-12,
          -1.50506933e-11, -1.50506933e-11, -2.92007217e-11,
          -2.92007217e-11, 5.34736264e-13, 5.34736264e-13,
          8.17016073e-12, 8.17016073e-12, -6.13516399e-12,
          -6.13516399e-12, 4.94607773e-13, 4.94607773e-13,
          -3.48631454e-12, -3.48631454e-12, -1.79267083e-12,
          -1.79267083e-12, 1.46726381e-11, 1.46726381e-11,
          7.35851137e-12, 7.35851137e-12, 1.16503443e-12, 1.16503443e-12,
          -4.33288258e-12, -4.33288258e-12, -8.21400760e-12,
          -8.21400760e-12, -3.98210284e-12, -3.98210284e-12,
          1.48707505e-11, 1.48707505e-11, 1.00897016e-11, 7.52500764e-13,
          7.52500764e-13, -1.23723037e-12, -1.23723037e-12,
          2.18401772e-12, 2.18401772e-12, 4.80264309e-12, 4.80264309e-12,
          -1.99919766e-13, -1.99919766e-13, 4.35195196e-12,
          4.35195196e-12, -5.06272585e-12, -5.06272585e-12,
          3.52365706e-19, 3.52365706e-19, 2.49417457e-13, 2.49417457e-13,
          6.88042028e-12, 6.88042028e-12, 1.55244116e-11, 1.55244116e-11,
          -6.47576567e-12, -6.47576567e-12, -3.04879169e-12,
          -3.04879169e-12, 1.34233995e-11, 1.34233995e-11,
          -2.53869235e-12, -2.53869235e-12, 5.92621655e-12,
          5.92621655e-12, 5.80342328e-12, 5.80342328e-12,
          -6.98369184e-12, -3.77656803e-12, -3.77656803e-12,
          -1.55782175e-11, -1.55782175e-11, -2.33986285e-11,
          -2.33986285e-11, 8.20438075e-12, 8.20438075e-12,
          4.28959429e-12, 4.28959429e-12, -1.97668054e-12,
          -1.97668054e-12, -3.82463072e-12, -3.82463072e-12,
          -4.31580813e-12, -4.31580813e-12, 3.25260652e-19,
          3.25260652e-19, 4.10638667e-12, 4.10638667e-12,
          -1.88040078e-12, -1.88040078e-12, 9.96731170e-12,
          9.96731170e-12, -2.16491579e-13, -2.16491579e-13,
          -3.39876521e-12, -3.39876521e-12, -1.18139548e-12,
          -1.18139548e-12, 3.76745206e-12, 3.76745206e-12,
          -3.93023288e-19, -3.93023288e-19, -6.20865425e-12,
          -6.20865425e-12, -9.48676901e-20, -9.48676901e-20,
          -4.70368059e-12, -4.70368059e-12, -1.91853066e-12,
          -1.91853066e-12, -1.49149258e-12, -1.49149258e-12,
          -6.22591475e-12, -6.22591475e-12, 7.56168240e-13,
          7.56168240e-13, -7.72638984e-12, -7.72638984e-12,
          -3.34461923e-13, -3.34461923e-13, -5.63248189e-12,
          -2.69960963e-12, -2.69960963e-12, -7.00115096e-12,
          -7.00115096e-12, -6.40531595e-12, -6.40531595e-12,
          1.83214338e-12, 1.83214338e-12, -5.29966565e-12,
          -6.84682389e-12, -6.84682389e-12, 6.08392807e-12,
          6.08392807e-12, -7.23940786e-12, -7.23940786e-12,
          -1.62630326e-19, -1.62630326e-19, -3.43540170e-12,
          -3.43540170e-12, -2.02049141e-12, -2.02049141e-12,
          2.18723520e-12, 2.18723520e-12, 2.47081587e-12, 2.47081587e-12,
          5.20810012e-13, 5.20810012e-13, 1.11025000e-11, 1.11025000e-11,
          2.63751282e-12, 2.63751282e-12, -8.99305316e-13,
          -8.99305316e-13, 9.94365874e-12, 9.94365874e-12,
          -1.19024116e-12, -1.19024116e-12, -2.68834369e-12,
          -2.68834369e-12, 1.61755104e-12, 1.61755104e-12,
          -2.76439895e-12, -2.76439895e-12, -5.18070352e-12,
          -5.18070352e-12, 1.37735548e-12, 1.37735548e-12,
          -4.92451349e-12, -4.92451349e-12, 7.83159724e-13,
          7.83159724e-13, -7.18283939e-19, -7.18283939e-19,
          1.26335184e-12, 1.26335184e-12, -4.24158582e-12,
          -4.24158582e-12, -2.19974191e-12, -2.19974191e-12,
          -2.98155597e-19, -2.98155597e-19, 3.11433453e-12,
          3.11433453e-12, 2.01548899e-11, 2.01548899e-11,
          -2.46713739e-12, -2.46713739e-12, 1.94314139e-12,
          1.94314139e-12, -3.11346543e-12, -3.11346543e-12,
          1.86931438e-12, 1.86931438e-12, -4.85853892e-12,
          3.88031317e-12, 3.88031317e-12, 4.82436053e-12, 4.82436053e-12,
          -2.68358599e-12, -2.68358599e-12, -4.28642473e-13,
          -4.28642473e-13, -3.53627853e-14, -3.53627853e-14,
          -5.64334929e-13, -5.64334929e-13, 2.11683297e-12,
          2.11683297e-12, -4.75866005e-12, -4.75866005e-12,
          -1.34297044e-12, -1.34297044e-12, 4.07141378e-12,
          4.07141378e-12, 2.73388300e-12, -1.32375903e-12,
          -1.32375903e-12, 3.07600364e-12, 3.07600364e-12,
          6.19920293e-13, 6.19920293e-13, 1.51155629e-12, 1.51155629e-12,
          6.63511238e-13, 6.63511238e-13, 1.08342361e-12, 1.08342361e-12,
          2.39252411e-12, 2.39252411e-12, -4.09809903e-12,
          -4.09809903e-12, -2.27242834e-12, -2.27242834e-12,
          4.31553285e-13, 4.31553285e-13, 3.03038172e-12, 3.03038172e-12,
          -5.43985473e-12, -5.43985473e-12, 3.85111431e-13,
          3.09397603e-12, 3.09397603e-12, 9.46635999e-13, 9.46635999e-13,
          -6.88502727e-12, -6.88502727e-12, -2.43945489e-19,
          -2.43945489e-19, 2.79219356e-12, 2.79219356e-12,
          4.09600479e-12, 4.09600479e-12, -1.14768926e-13,
          -1.14768926e-13, -2.85198276e-12, -2.85198276e-12,
          -3.11480312e-12, -3.11480312e-12, 5.26320957e-12,
          5.26320957e-12, 5.45336519e-12, 5.45336519e-12, 7.39314751e-13,
          7.39314751e-13, -1.21157240e-12, -1.21157240e-12,
          2.79443179e-12, 2.79443179e-12, 2.03287907e-20, 2.03287907e-20,
          6.18383643e-12, -3.09433013e-12, -3.09433013e-12,
          -1.01673205e-12, -1.01673205e-12, -6.72599693e-12,
          -6.72599693e-12, -5.89807202e-14, -5.89807202e-14,
          -9.82021105e-13, -9.82021105e-13, -1.29517729e-12,
          -1.29517729e-12, 9.38933610e-13, 9.38933610e-13,
          -5.75005018e-12, -5.75005018e-12, 3.70417239e-12,
          3.70417239e-12, -6.35058629e-12, -6.35058629e-12,
          9.83912713e-13, 1.80378646e-11, 1.80378646e-11, 2.65930203e-12,
          2.65930203e-12, -1.28627848e-12, -1.28627848e-12,
          3.17880292e-12, 3.17880292e-12, -1.34739962e-12,
          -1.34739962e-12, 7.45388994e-20, 7.45388994e-20,
          6.13571997e-12, 6.13571997e-12, 3.98358256e-12, 3.98358256e-12,
          -2.94477290e-12, -7.74981468e-12, -7.74981468e-12,
          9.94884622e-13, 9.94884622e-13, 1.32394031e-12, 1.32394031e-12,
          -3.10326461e-12, -6.15317996e-12, -6.15317996e-12,
          -9.92889148e-13, -9.92889148e-13, -6.39585336e-13,
          -6.39585336e-13, 1.82785315e-11, 1.82785315e-11,
          -1.82519668e-12, -1.82519668e-12, -4.73003060e-12,
          -4.73003060e-12, -5.52955945e-12, -5.52955945e-12,
          -4.99071054e-13, -4.99071054e-13, 1.90521305e-13,
          1.90521305e-13, -2.59337311e-13, -2.59337311e-13,
          9.92889039e-13, 9.92889039e-13, 1.42301535e-19, 4.53246707e-13,
          4.53246707e-13, -7.80571571e-13, -7.80571571e-13,
          1.60391546e-12, 1.60391546e-12, -6.73025524e-12,
          -6.73025524e-12, 6.08318937e-14, 6.08318937e-14,
          4.55480868e-13, 4.55480868e-13, 8.44033909e-14, 8.44033909e-14,
          1.09484481e-12, 1.09484481e-12, -4.04109819e-12,
          -4.04109819e-12, -3.52001821e-14, -1.01468725e-12,
          -1.01468725e-12, 5.84717951e-12, 2.62139789e-12,
          2.62139789e-12, -1.97098696e-12, -1.97098696e-12,
          6.51797301e-13, 6.51797301e-13, -3.02581582e-13,
          -3.02581582e-13, 1.91125300e-13, 1.91125300e-13,
          2.55946609e-12, 2.55946609e-12, 1.70101936e-14, 1.70101936e-14,
          6.68255121e-12, 6.68255121e-12, 3.33193347e-12, 3.33193347e-12,
          -2.49727908e-12, -2.49727908e-12, -2.25273034e-12,
          -2.25273034e-12, 3.07833685e-12, 3.07833685e-12,
          2.01945947e-12, 2.01945947e-12, -5.49669121e-12,
          -4.47789418e-12, -4.47789418e-12, -1.79170621e-12,
          -1.79170621e-12, -2.36414648e-13, -2.36414648e-13,
          6.21756390e-13, 6.21756390e-13, 4.76214857e-12, 4.76214857e-12,
          5.10866046e-12, -8.45913780e-13, -8.45913780e-13,
          -4.26210803e-12, -4.26210803e-12, -5.19590707e-12,
          -5.19590707e-12, -3.13282581e-12, -3.13282581e-12,
          2.36541212e-12, 2.36541212e-12, 2.27362031e-12, 2.27362031e-12,
          4.11756089e-12, 4.11756089e-12, -6.16600195e-13,
          -6.16600195e-13, 6.55542732e-13, 6.55542732e-13,
          -2.50704795e-12, -2.50704795e-12, -1.02775470e-11,
          -1.02775470e-11, 2.38028976e-12, 5.30238744e-12,
          5.30238744e-12, -2.43945489e-19, -2.43945489e-19,
          3.06009645e-12, 3.06009645e-12, -8.25201507e-13,
          6.08359977e-12, 6.08359977e-12, 8.35669750e-13, 8.35669750e-13,
          -3.25499913e-12, -3.25499913e-12, -1.50027647e-12,
          -1.50027647e-12, -9.55835888e-13, -9.55835888e-13,
          -3.45524336e-13, -3.45524336e-13, 3.06137006e-13,
          3.06137006e-13, 3.65877771e-12, 3.65877771e-12,
          -1.72380014e-12, -1.72380014e-12, -4.20128342e-19,
          -4.20128342e-19, 9.58837697e-12, 9.58837697e-12,
          -4.79825760e-13, 2.88104198e-12, 2.88104198e-12,
          -1.85476027e-12, -1.85476027e-12, -1.17545036e-12,
          -1.17545036e-12, -3.23363536e-12, -3.23363536e-12,
          -3.85361144e-12, -3.85361144e-12, -8.58130570e-13,
          -8.58130570e-13, 2.83306603e-12, 2.83306603e-12,
          -1.88416535e-12, -1.88416535e-12, -2.31391599e-12,
          -2.31391599e-12, -4.33259895e-12, -4.33259895e-12,
          2.57006113e-12, 3.23517775e-12, 3.23517775e-12,
          -1.31608504e-12, -1.31608504e-12, -2.24046083e-13,
          -2.24046083e-13, -8.02946598e-12, -8.02946598e-12,
          3.74872789e-12, 3.74872789e-12, -1.12983218e-14,
          -1.12983218e-14, 2.75009746e-12, 2.75009746e-12,
          -3.47103206e-12, -4.02430178e-13, -4.02430178e-13,
          1.83204537e-12, 1.83204537e-12, 2.08251862e-12, 2.08251862e-12,
          7.79499468e-12, 7.79499468e-12, -2.95741730e-12,
          -2.95741730e-12, 3.43010212e-12, 3.43010212e-12,
          -2.17932999e-13, -2.17932999e-13, 1.51991301e-11,
          1.51991301e-11, 2.50543466e-12, 2.50543466e-12,
          -1.51017924e-13, -1.51017924e-13, -1.31755891e-12,
          -1.31755891e-12, -3.45793533e-12, -3.45793533e-12,
          -5.58820828e-12, -5.58820828e-12, -2.12663849e-12,
          -2.12663849e-12, 2.32973536e-12, 2.32973536e-12,
          1.03313029e-12, -2.70918856e-12, -2.70918856e-12,
          2.84603070e-19, 2.84603070e-19, 1.19840271e-12, 1.19840271e-12,
          -5.11157132e-12, -3.52093528e-12, -3.52093528e-12,
          -1.76396918e-12, -1.76396918e-12, 9.48017977e-14,
          9.48017977e-14, -4.73538006e-12, -4.73538006e-12,
          -1.82210670e-12, -1.82210670e-12, -4.00750657e-12,
          1.90032495e-12, 1.90032495e-12, 3.88713194e-12, 3.88713194e-12,
          9.79574386e-13, 9.79574386e-13, 3.56642125e-12, 3.56642125e-12,
          -1.74996671e-12, -1.74996671e-12, -1.02831383e-12,
          -1.02831383e-12, 1.69406589e-19, 1.69406589e-19 ]
   uncompressed_sv_total: 85
   uncompressed_support_vectors:
      - [ -1.04328835e+02, 6.81167831e+01, -1.16883408e+02,
          5.12453918e+01, 7.67110214e+01, -1.72080746e+01,
          1.13285622e+02, -2.54702358e+01, -1.38312286e+02,
          -3.70505500e+00, 3.65059395e+01, 4.32321587e+01,
          2.51634159e+01, -4.04478188e+01, 3.51483879e+01,
          -6.37543335e+01, 4.21323166e+01, 6.35095444e+01,
          -1.74717541e+01, -1.32967100e+01, 3.65835190e+01,
          -2.08177299e+01, 3.34473877e+01, 3.79307899e+01,
          1.29938250e+01, -1.12193155e+00, -2.85466075e+00,
          2.68710480e+01, 2.44506378e+01, 2.32114639e+01,
          -1.41594162e+01, 3.29884605e+01, 5.16475022e-01,
          -4.58989716e+01, 2.57258396e+01, 5.44535751e+01,
          2.96797028e+01, 2.02177334e+01, 2.03006706e+01,
          -2.13082409e+01, -1.19899282e+01, -2.13224678e+01,
          2.91383038e+01, -2.73725643e+01, 1.55817661e+01,
          2.27711048e+01, 4.32183504e+00, -1.36583347e+01,
          1.87646732e+01, -1.07515020e+01, 2.61681213e+01,
          2.53888226e+01, 4.21782112e+00, -1.19597044e+01,
          2.82871380e+01, -1.99939644e+00, 3.50689964e+01,
          -3.61560516e+01, -1.12507429e+01, -1.28421497e+01,
          2.67414417e+01, 6.75783348e+00, -8.34428120e+00,
          -1.16487169e+01, 4.11781263e+00, -7.30176497e+00,
          1.13736267e+01, -4.76708508e+00, -2.91269245e+01,
          -6.19245434e+00, -3.21374631e+00, -1.98040223e+00,
          -1.72476482e+01, 1.74604702e+01, -5.77251911e+00,
          -6.81638861e+00, -2.77614956e+01, -1.20976996e+00,
          1.82555637e+01, -1.30575333e+01, -1.73006992e+01,
          5.80136251e+00, 8.16842175e+00, -2.32477736e+00,
          8.56214538e-02, -5.76912165e+00, -9.90613461e+00,
          -7.23631573e+00, 1.69676590e+00, 1.05281515e+01,
          1.93084068e+01, -9.59400845e+00, -1.24948673e+01,
          3.51746416e+00, 3.50934982e+01, 9.42410564e+00,
          -7.04487944e+00, 1.03206663e+01, -3.76058888e+00,
          5.57328510e+00, -1.80014210e+01, -7.16696024e+00,
          4.89263868e+00, 1.80998669e+01, 2.07880616e+00, 8.80291557e+00,
          1.37077084e+01, 1.27208281e+01, -8.09256172e+00,
          -1.13029118e+01, 7.74473476e+00, -2.07079649e+00,
          8.89198017e+00, -3.06478167e+00, 1.75830441e+01,
          4.08404636e+00, -3.06939340e+00, -1.30209863e+00,
          4.94605690e-01, 1.12907362e+01, 9.76856899e+00, 3.27656078e+00,
          9.28104115e+00, 2.71294904e+00, 2.82295775e+00, 4.09162378e+00,
          -1.47248211e+01, 1.31248251e-01, -3.45934510e+00,
          -1.22005141e+00, -3.12141800e+00, 1.16389694e+01,
          -9.22261143e+00, 1.24186354e+01, -1.16529322e+01,
          -6.26099110e+00, -1.45874653e+01, -6.15028191e+00,
          -8.64588261e-01, 2.18326712e+00, 1.20077693e+00,
          1.13696699e+01, 1.17512913e+01, -3.93800169e-01,
          -9.87812710e+00, -1.32016802e+01, 2.02951756e+01,
          -3.18454146e+00, 5.54747868e+00, 1.59205694e+01,
          2.46138549e+00, -1.87890682e+01, 1.26179421e+00,
          -2.32905340e+00, 6.28623819e+00, -6.31131601e+00,
          1.33322918e+00, 1.04968891e+01, -2.53941345e+00,
          1.80917668e+00, -1.29324121e+01, 1.62790632e+00,
          1.44687357e+01, -1.03721914e+01, -6.39180565e+00,
          1.09187472e+00, -7.51839817e-01, -1.15309830e+01,
          -5.61178565e-01, -4.83318758e+00, -5.77333355e+00,
          7.71471214e+00, 3.51207447e+00, 3.06647563e+00,
          -1.64682503e+01, -2.04380913e+01, -1.18810949e+01,
          -3.64800513e-01, 2.53742981e+00, 2.38607521e+01,
          -3.47095227e+00, -1.17764091e+01, 1.23441238e+01,
          -2.93469715e+00, -7.44228363e+00, -2.59150505e+00,
          -2.94101810e+00, -1.60719097e+00, 2.35786176e+00,
          3.09925246e+00, 4.66544956e-01, 4.67945433e+00,
          -1.03930264e+01, 5.11278105e+00, -2.66826992e+01,
          -1.66532059e+01, 1.34335070e+01, -4.13996965e-01,
          1.44145593e-01, 3.84580159e+00, 1.05834532e+01,
          -5.53940773e+00, -8.96214294e+00, -8.38136101e+00,
          -8.41147137e+00, -1.22279730e+01, -3.53789020e+00,
          9.81870556e+00, -7.38452435e+00, -1.33881483e+01,
          5.40195465e+00, 2.90570706e-01, 6.02476072e+00,
          -5.24457932e+00, 2.61357570e+00, -2.68083692e+00,
          -2.47457814e+00, 8.96450138e+00, 5.41810656e+00,
          -1.34194860e+01, -2.67898750e+00, 4.23937988e+00,
          -8.10691893e-01, 9.90329623e-01, -6.04251957e+00,
          -5.75681591e+00, -1.23659424e-01, 2.36216903e+00,
          -6.85099840e+00, -3.73406053e+00, 1.50191250e+01,
          3.83427334e+00, 1.79210033e+01, 6.88139582e+00,
          -2.64590073e+00, 4.42145205e+00, 1.25843973e+01,
          4.61282110e+00, -1.83852158e+01, 3.28980803e-01,
          -1.19186735e+01, -6.58259869e+00, -9.41328239e+00,
          -1.62350979e+01, -9.34315860e-01, -1.13451757e+01,
          -1.12145185e+01, 6.11028433e-01, 5.26533270e+00,
          -2.17515993e+00, -3.04621458e+00, -1.24574757e+00,
          4.42399645e+00, -1.84661770e+00, 8.01744938e+00,
          1.97357678e+00, 5.18596935e+00, 4.51529884e+00,
          -4.86997461e+00, 7.06085396e+00, -1.66763210e+00,
          -6.89868736e+00, 9.27254486e+00, 6.50379324e+00,
          1.70091553e+01, 8.63272190e+00, 5.37149048e+00,
          -1.32265005e+01, 1.48231876e+00, 9.57271957e+00,
          4.15827036e-01, -5.46165371e+00, 2.52922583e+00,
          5.89533901e+00, -9.19101429e+00, 1.13250220e+00,
          9.76839828e+00, -1.66016793e+00, -1.37746058e+01,
          -4.29413259e-01, 4.91319418e+00, 2.80460811e+00,
          1.37224712e+01, 1.99828851e+00, 2.09624805e+01, 1.22963548e+00,
          -3.32913113e+00, 2.19001985e+00, -1.93514156e+00,
          1.12627602e+01, -1.08296413e+01, 1.67763042e+00,
          -3.47863340e+00, 5.93138170e+00, -3.24186563e-01,
          1.03089657e+01, -9.11553442e-01, -6.54918432e+00,
          3.21029043e+00, -5.91998196e+00, -2.32053638e+00,
          1.04163666e+01, 3.64066172e+00, -1.68077736e+01,
          -2.78004909e+00, 1.89665222e+00, -2.99550247e+00,
          -6.49616480e+00, 1.45354023e+01, 2.43882346e+00,
          3.96087408e+00, -2.78547907e+00, -2.80253935e+00,
          -7.65309286e+00, 1.47384393e+00, 7.61389685e+00,
          3.07753682e-01, 6.73113823e+00, 7.44927549e+00,
          -1.46326101e+00, -1.17402353e+01, -3.37553144e+00,
          -2.87217951e+00, -2.10247087e+00, -3.71478915e+00,
          1.75126648e+01, 4.50097322e+00, -4.96506393e-02,
          8.72355556e+00, 7.60715294e+00, 4.82629538e+00, 9.09490407e-01,
          -5.11829615e+00, -6.86800766e+00, -2.11190391e+00,
          -5.86353111e+00, -4.69530916e+00, -5.09699106e-01,
          -3.62582850e+00, -3.90215635e+00, -7.86290169e+00,
          9.13833332e+00, -1.40101423e+01, -1.10409260e+01,
          -1.29155767e+00, 4.19354534e+00, -6.38565868e-02,
          -4.02192511e-02, -2.84668756e+00, -1.34715261e+01,
          -1.69821441e+00, -6.21114635e+00, -3.08042318e-01,
          -5.20991278e+00, 2.93622255e+00, -6.72461748e+00,
          -1.15312281e+01, -4.75032568e+00, -1.03839149e+01,
          -1.25225296e+01, 1.39432058e+01, -6.39984655e+00,
          -1.14838238e+01, 2.61179566e+00, -3.88168645e+00,
          8.44999790e+00, -1.25865192e+01, -4.82448757e-01,
          -8.03313777e-02, 4.61512995e+00, 2.49463320e+00,
          1.11208591e+01, -2.78791380e+00, 1.38093150e+00,
          -3.16929936e-01, -5.81263971e+00, 1.41027659e-01,
          4.47805929e+00, 5.09949207e+00, -3.85843611e+00,
          3.64056158e+00, 3.04928660e+00, -3.47676945e+00,
          -7.56557131e+00, 2.29414105e+00, 1.14861622e+01,
          6.66338634e+00, 1.11715555e+01, 8.99566364e+00,
          -1.52995765e+00, 8.10272312e+00, -1.49573746e+01,
          1.19296484e+01, 2.93945765e+00, -1.76855326e+00,
          4.34519053e+00, -1.63411582e+00, -2.48304963e+00,
          1.98662996e+00, -1.98537755e+00, -8.43930721e+00,
          -5.30989647e+00, 5.94435167e+00, -4.18410254e+00,
          -6.39427328e+00, 7.31282139e+00, -5.68117380e+00,
          5.07420206e+00, 9.64778423e+00, 4.04328816e-02, 1.10441422e+00,
          2.87293959e+00, -1.00708589e-01, 5.64119434e+00,
          -2.39313960e+00, -4.11728859e+00, 2.51520848e+00,
          -3.38831514e-01, 8.98697662e+00, 1.12615242e+01,
          6.43963337e-01, 3.66482711e+00, 2.62651396e+00,
          -3.44437122e+00, 3.01117778e+00, 3.18039727e+00,
          5.07556009e+00, -7.74475431e+00, 7.98697352e-01,
          5.78206110e+00, -7.82074928e+00, -1.67984068e+00,
          7.21313858e+00, 3.68834352e+00, 3.40515852e+00,
          -3.36074495e+00, -1.82478690e+00, 1.31873264e+01,
          -4.94930655e-01, -8.62202454e+00, -1.26223373e+01,
          1.05649698e+00, -1.07115734e+00, -5.79310036e+00,
          -3.93542767e+00, -1.05809536e+01, 5.15048885e+00,
          -5.39557934e-02, -2.39260331e-01, -7.32129097e+00,
          -1.04249489e+00, 1.04877720e+01, 5.05396366e+00,
          1.93718362e+00, 3.50885057e+00, 7.13924551e+00, 7.90622377e+00,
          -6.66922951e+00, -2.40539145e+00, -8.94466305e+00,
          4.06963682e+00, 2.49034286e+00, -1.47772670e+00,
          1.75787723e+00, 5.82421684e+00, 7.45250177e+00, 4.20240879e+00,
          -6.56267405e+00, 3.74953222e+00, -7.76578712e+00,
          2.03465748e+01, -5.46963871e-01, -5.68967962e+00,
          1.41084719e+01, -1.04860153e+01, -2.10854168e+01,
          2.32551250e+01, -3.08730526e+01, -8.55856228e+00,
          -8.55856228e+00, -6.37712288e+00, -1.91357727e+01,
          1.43218786e-01, -3.90429735e+00, -3.90429735e+00,
          1.98244133e+01, 1.98244133e+01, -1.44228048e+01,
          -1.44228048e+01, -9.88832188e+00, -9.88832188e+00,
          5.93999863e+00, -4.12301970e+00, -9.47392082e+00,
          1.01093292e+01, 1.01093292e+01, -7.59715748e+00,
          -7.59715748e+00, 9.58030033e+00, 9.58030033e+00,
          -1.42811661e+01, -1.42811661e+01, 1.75960195e+00,
          1.75960195e+00, 3.03950459e-01, -5.93644667e+00,
          -5.93644667e+00, -7.61926842e+00, -7.61926842e+00,
          4.97312498e+00, 4.97312498e+00, -6.44145679e+00,
          -8.59528637e+00, -8.59528637e+00, 1.17054758e+01,
          -2.34270930e+00, -2.34270930e+00, 3.41562843e+00,
          3.41562843e+00, 8.01012135e+00, 8.01012135e+00,
          -1.66416121e+00, -1.66416121e+00, -3.40325689e+00,
          -3.40325689e+00, -1.46629124e+01, -1.10065088e+01,
          -1.10065088e+01, -2.57019091e+00, -2.57019091e+00,
          1.81272328e+00, 1.81272328e+00, 2.10330219e+01, 1.21831913e+01,
          1.21831913e+01, -9.71285915e+00, -9.71285915e+00,
          -1.19436579e+01, -1.19436579e+01, 1.07732430e+01,
          1.07732430e+01, 1.15569983e+01, 1.15569983e+01, 3.12777090e+00,
          3.12777090e+00, -7.55259895e+00, -7.55259895e+00,
          5.52859449e+00, 5.52859449e+00, 1.05559292e+01, 1.05559292e+01,
          -4.88501215e+00, 9.49628353e+00, 9.49628353e+00,
          -6.80540419e+00, -6.80540419e+00, 4.55801487e+00,
          4.55801487e+00, 1.24374781e+01, 1.24374781e+01, 6.73247766e+00,
          6.73247766e+00, 1.30107374e+01, -2.99896598e+00,
          -2.99896598e+00, 4.09950876e+00, 4.09950876e+00,
          6.42395353e+00, 2.69610786e+00, 2.69610786e+00,
          -4.50528097e+00, -4.50528097e+00, 4.88523304e-01,
          4.88523304e-01, 5.83513403e+00, 5.83513403e+00, 9.57635880e+00,
          9.57635880e+00, -4.69819498e+00, -4.69819498e+00,
          -3.60220098e+00, -3.60220098e+00, 9.63116741e+00,
          9.63116741e+00, 9.08784485e+00, 9.08784485e+00, 2.45597750e-01,
          2.45597750e-01, 5.93349099e-01, 5.93349099e-01,
          -1.13940630e+01, -1.13940630e+01, -3.22446132e+00,
          -3.22446132e+00, -4.44176435e+00, -1.30283585e+01,
          -1.30283585e+01, -3.40806603e+00, -3.40806603e+00,
          -3.22505665e+00, -3.22505665e+00, 1.98236728e+00,
          1.98236728e+00, -4.21280813e+00, -4.21280813e+00,
          1.41849546e+01, -1.06246290e+01, -1.06246290e+01,
          6.62670994e+00, 6.62670994e+00, 1.69150019e+00, 1.69150019e+00,
          1.62031860e+01, 1.62031860e+01, -5.19447923e-01,
          -3.76781535e+00, -3.76781535e+00, 9.87423038e+00,
          9.87423038e+00, -1.29598923e+01, -1.29598923e+01,
          9.92851257e+00, 9.92851257e+00, 4.45627975e+00, 4.45627975e+00,
          -9.65317917e+00, -9.65317917e+00, -7.26837540e+00,
          -7.26837540e+00, 1.31084032e+01, 1.31084032e+01,
          -9.99724102e+00, -9.99724102e+00, 1.59985161e+00,
          4.16623592e-01, 4.16623592e-01, 6.20308638e+00, 6.20308638e+00,
          8.67658901e+00, 8.67658901e+00, -1.11203945e+00,
          -1.11203945e+00, -1.78804211e-02, -1.78804211e-02,
          -5.80203295e+00, -5.80203295e+00, -4.69866467e+00,
          -4.69866467e+00, -3.62168598e+00, -3.62168598e+00,
          -6.04707861e+00, -6.04707861e+00, 3.09225082e+01,
          3.09225082e+01, -4.17409706e+00, -4.17409706e+00,
          -1.96242809e+00, -1.96242809e+00, 2.93716335e+00,
          2.93716335e+00, -4.15261459e+00, -4.15261459e+00,
          2.35342717e+00, 2.35342717e+00, -6.95159292e+00,
          -6.95159292e+00, -9.26254368e+00, -3.01076978e-01,
          -3.01076978e-01, 1.79349935e+00, 1.79349935e+00,
          -3.43920660e+00, -3.43920660e+00, -4.77093935e+00,
          -4.77093935e+00, 7.05083942e+00, 7.08732605e-02,
          2.81773734e+00, 2.81773734e+00, -4.31249142e+00,
          -4.31249142e+00, -3.60470033e+00, -1.64054441e+00,
          -1.64054441e+00, -2.80959797e+00, -2.80959797e+00,
          -6.98425579e+00, -6.98425579e+00, -7.39812279e+00,
          -7.39812279e+00, -3.48626232e+00, -3.48626232e+00,
          6.01476526e+00, 9.20299244e+00, 9.20299244e+00,
          -5.13609934e+00, -5.13609934e+00, -7.68373680e+00,
          -7.68373680e+00, -5.55424976e+00, -5.55424976e+00,
          4.71877873e-01, 4.71877873e-01, -2.27434263e-01,
          3.32700491e+00, 3.32700491e+00, 3.36964893e+00, 3.36964893e+00,
          -3.58116531e+00, -3.58116531e+00, 1.11244974e+01,
          1.11244974e+01, 1.28323364e+01, 1.28323364e+01,
          -7.54219770e+00, 1.82317567e+00, 1.82317567e+00,
          -3.33111197e-01, -3.33111197e-01, 2.75673580e+00,
          2.75673580e+00, -7.99410772e+00, -7.99410772e+00,
          3.84954858e+00, 3.84954858e+00, -7.10251904e+00,
          -7.10251904e+00, 6.02901840e+00, 6.02901840e+00,
          -3.47047186e+00, -3.47047186e+00, -1.63125110e+00,
          -1.63125110e+00, -6.82858527e-01, -6.82858527e-01,
          1.78424335e+00, 1.78424335e+00, 3.68242478e+00, 3.68242478e+00,
          4.37918603e-01, 4.37918603e-01, 7.81989038e-01, 7.81989038e-01,
          4.23188353e+00, 4.23188353e+00, 1.40359735e+00, 9.67441273e+00,
          -9.28227425e-01, -9.28227425e-01, -4.98840046e+00,
          -4.98840046e+00, -6.07553959e+00, -6.07553959e+00,
          5.92783213e+00, 5.92783213e+00, 6.30767012e+00, 6.30767012e+00,
          1.29221344e+00, 1.29221344e+00, 1.08728905e+01, 1.08728905e+01,
          -6.68935490e+00, -2.00607920e+00, -2.00607920e+00,
          -1.38675928e+01, -1.38675928e+01, -8.20252132e+00,
          -8.20252132e+00, 4.10545492e+00, 4.10545492e+00,
          6.53860140e+00, 6.53860140e+00, 3.67090082e+00, 3.67090082e+00,
          -2.54894805e+00, -2.54894805e+00, 7.79045045e-01,
          7.79045045e-01, 7.47633696e-01, 7.47633696e-01,
          -4.82626486e+00, -4.82626486e+00, -3.64403629e+00,
          5.17629004e+00, 5.17629004e+00, 2.81527877e+00, 2.81527877e+00,
          -6.01763666e-01, -6.01763666e-01, -6.35951281e+00,
          -2.98804927e+00, -2.98804927e+00, 1.00715685e+01,
          1.00715685e+01, 6.68899298e+00, 6.68899298e+00, 1.04891644e+01,
          1.04891644e+01, -8.71028900e-01, -8.71028900e-01,
          1.72501755e+00, 1.72501755e+00, -9.59726906e+00,
          -9.59726906e+00, -6.51949883e-01, -6.51949883e-01,
          -2.70754957e+00, -2.70754957e+00, 7.33345318e+00,
          5.47710180e+00, 5.47710180e+00, -2.38079357e+00,
          -2.38079357e+00, -5.25122452e+00, -2.81907196e+01,
          -2.81907196e+01, -5.86703062e+00, -5.86703062e+00,
          -4.63199329e+00, -4.63199329e+00, 2.32935333e+00,
          2.32935333e+00, 2.22243738e+00, 2.22243738e+00, 2.29041600e+00,
          2.29041600e+00, 3.06698012e+00, 3.06698012e+00,
          -9.43471336e+00, -9.43471336e+00, -2.86363411e+00,
          -2.86363411e+00, -1.29380560e+00, -1.29380560e+00,
          -2.69766212e+00, -2.69766212e+00, -4.49471998e+00,
          2.23215318e+00, 2.23215318e+00, 2.83265257e+00, 2.83265257e+00,
          9.44864810e-01, 9.44864810e-01, 4.01784563e+00, 4.01784563e+00,
          9.00654411e+00, 9.00654411e+00, -3.40608120e+00,
          -3.40608120e+00, 4.17922211e+00, 4.17922211e+00,
          5.41599035e+00, 5.41599035e+00, -3.95992064e+00,
          -3.95992064e+00, -2.35767317e+00, -2.35767317e+00,
          1.96611786e+00, 1.96611786e+00, 7.31405640e+00, 7.31405640e+00,
          3.50350666e+00, 3.50350666e+00, 1.07980595e+01, 5.79801989e+00,
          5.79801989e+00, -2.70247293e+00, -2.70247293e+00,
          -4.07506084e+00, -4.07506084e+00, 2.15012121e+00,
          2.15012121e+00, -5.99409723e+00, -5.99409723e+00,
          7.01626301e+00, 7.01626301e+00, -1.25327027e+00,
          -1.25327027e+00, 6.82968199e-01, 6.82968199e-01,
          5.48742819e+00, 5.48742819e+00, 1.18354380e+00, 1.18354380e+00,
          -6.51244688e+00, -5.37676191e+00, -5.37676191e+00,
          -5.12580633e+00, -5.12580633e+00, -7.15835953e+00,
          -4.35104430e-01, -4.35104430e-01, -2.72697306e+00,
          -2.72697306e+00, 4.73354578e+00, 4.73354578e+00,
          -3.55028462e+00, -3.55028462e+00, 4.19223213e+00,
          4.19223213e+00, 1.22288680e+00, 1.22288680e+00, 1.78434968e+00,
          -4.79626608e+00, -4.79626608e+00, 1.47765160e+00,
          1.47765160e+00, -2.43945313e+00, -2.43945313e+00,
          2.75844932e+00, 2.75844932e+00, 3.65572977e+00, 3.65572977e+00,
          -1.64653778e-01, -1.64653778e-01, 3.30613685e+00,
          3.30613685e+00, 5.88944435e+00, 5.88944435e+00, 1.10663557e+00,
          1.22825515e+00, 1.22825515e+00, 6.56425416e-01, 6.56425416e-01,
          3.04230690e-01, 3.04230690e-01, -1.14915838e+01,
          -1.14915838e+01, -6.44054508e+00, -6.44054508e+00,
          -5.48901939e+00, -5.48901939e+00, -1.75603211e+00,
          -1.75603211e+00, 9.59294677e-01, 9.59294677e-01,
          3.68608572e-02, 5.06247953e-02, 5.06247953e-02,
          -8.27993989e-01, -8.27993989e-01, -1.66662741e+00,
          -1.66662741e+00, -3.39719319e+00, -3.39719319e+00,
          -5.62424660e+00, -5.62424660e+00, 9.05920863e-02,
          9.05920863e-02, 2.20764184e+00, 2.20764184e+00, 1.54996192e+00,
          1.54996192e+00, 8.85306835e+00, 8.85306835e+00, 1.79401919e-01,
          1.79401919e-01, 2.64680958e+00, 2.64680958e+00,
          -2.02558923e+00, -2.02558923e+00, -2.78735781e+00,
          -2.78735781e+00, 2.55192471e+00, 2.55192471e+00,
          8.57688725e-01, 8.57688725e-01, -4.03879023e+00,
          -4.03879023e+00, 3.47499347e+00, 3.47499347e+00,
          -2.73143601e+00, -2.73143601e+00, -4.39642572e+00,
          -1.34603727e+00, -1.34603727e+00, 5.04710627e+00,
          5.04710627e+00, -9.79853153e+00, -9.79853153e+00,
          -9.19381559e-01, -9.19381559e-01, -1.68041706e+00,
          -1.68041706e+00, 1.43606055e+00, 1.43606055e+00,
          -3.83909488e+00, -3.83909488e+00, 2.11065388e+00,
          2.11065388e+00, -3.22520828e+00, -3.22520828e+00,
          -4.66069698e-01, -4.66069698e-01, -4.33224964e+00,
          -4.33224964e+00, 5.55859089e+00, 5.55859089e+00,
          -2.95519257e+00, -1.14308298e+00, -1.14308298e+00,
          4.13668060e+00, 4.13668060e+00, 5.11391258e+00, 5.11391258e+00,
          9.74696219e-01, 9.74696219e-01, -7.40436614e-01,
          -7.40436614e-01, -2.08383846e+00, -2.08383846e+00,
          5.59761333e+00, 5.59761333e+00, -1.33467484e+00,
          -1.33467484e+00, 9.31580439e-02, 9.31580439e-02,
          -3.66762781e+00, -3.66762781e+00, 5.31128645e-02,
          5.31128645e-02, -8.54060471e-01, -8.54060471e-01,
          3.01143837e+00, 3.01143837e+00, 2.32417107e+00, 2.32417107e+00,
          3.06284285e+00, 3.06284285e+00, -2.66612220e+00,
          -2.66612220e+00, -2.29077816e+00, -2.29077816e+00,
          7.92132139e-01, 7.92132139e-01, 1.24412966e+00, 1.24412966e+00,
          4.58408785e+00, 4.58408785e+00, 7.00438881e+00, 7.00438881e+00,
          1.18195748e+00, 1.18195748e+00, 1.27249980e+00, 1.27249980e+00,
          -1.09385818e-01, -1.09385818e-01, -3.67566943e-01,
          -3.67566943e-01, -4.51013279e+00, -6.52739620e+00,
          -6.52739620e+00, 3.07525575e-01, 3.07525575e-01,
          -2.89453912e+00, -2.89453912e+00, -3.55849195e+00,
          -3.55849195e+00, 3.38295746e+00, 3.38295746e+00,
          1.72158039e+00, 1.72158039e+00, -2.76327872e+00,
          -2.76327872e+00, -3.39588976e+00, -3.39588976e+00,
          -5.78243971e+00, -5.78243971e+00, -1.21007824e+00,
          -1.21007824e+00, -2.74682790e-01, -2.74682790e-01,
          -2.22607183e+00, -2.22607183e+00, 1.22290611e+00,
          1.22290611e+00, 4.56956662e-02, 4.56956662e-02, 6.91381693e-01,
          6.91381693e-01, 2.14423407e-02, 2.14423407e-02, 4.90852928e+00,
          4.90852928e+00, -1.55655003e+00, -1.55655003e+00,
          -4.74305153e-01, -2.42655253e+00, -2.42655253e+00,
          3.54014325e+00, 3.54014325e+00, -5.30265045e+00,
          -5.30265045e+00, -7.50513935e+00, -7.50513935e+00,
          -4.50801277e+00, -2.79779124e+00, -2.79779124e+00,
          -4.39436865e+00, -4.39436865e+00, 1.72148359e+00,
          1.72148359e+00, 2.72769022e+00, 2.72769022e+00, 6.62149858e+00,
          6.62149858e+00, 4.24780548e-01, 4.24780548e-01, 2.80720115e+00,
          2.80720115e+00, -2.54065394e-01, 2.28003311e+00,
          2.28003311e+00, 4.43194532e+00, 4.43194532e+00,
          -2.96318364e+00, -2.96318364e+00, 7.11810529e-01,
          7.11810529e-01, -1.41817316e-01, -1.41817316e-01,
          -6.03878498e-01, -6.03878498e-01, 2.95284867e-01,
          2.95284867e-01, 1.67534125e+00, 1.67534125e+00, 1.49813282e+00,
          1.49813282e+00, -7.59341145e+00, -7.59341145e+00,
          1.15739810e+00, 1.15739810e+00, -3.34698892e+00,
          -3.34698892e+00, 2.77681351e+00, 2.77681351e+00,
          1.33664072e+00, 1.33664072e+00, 2.50280929e+00, 2.50280929e+00,
          2.59151697e+00, 2.59151697e+00, -3.42935896e+00,
          -3.42935896e+00, -1.89394414e+00, -1.21783960e+00,
          -1.21783960e+00, 1.74615812e+00, 1.74615812e+00,
          -1.21690559e+00, -1.21690559e+00, 2.95549822e+00,
          2.95549822e+00, -2.69660544e+00, -2.69660544e+00,
          4.96100378e+00, 4.96100378e+00, 1.35590935e+00, 1.35590935e+00,
          1.05869567e+00, 1.05869567e+00, -3.49319911e+00,
          -3.49319911e+00, -2.51020104e-01, -2.51020104e-01,
          3.05296254e+00, 8.24890971e-01, 8.24890971e-01, 1.18084097e+00,
          1.18084097e+00, 1.42501378e+00, 1.42501378e+00,
          -3.85364771e+00, -3.85364771e+00, -5.45851827e-01,
          1.16977301e+01, 1.16977301e+01, -2.84405023e-01,
          -2.84405023e-01, 2.35330224e+00, 2.35330224e+00,
          3.10299248e-01, 3.10299248e-01, 2.99703097e+00, 2.99703097e+00,
          3.77673364e+00, 3.77673364e+00, -6.25155807e-01,
          -6.25155807e-01, 5.49031878e+00, 5.49031878e+00,
          4.38686419e+00, 4.38686419e+00, 8.24113071e-01, 8.24113071e-01,
          -2.30798912e+00, -2.30798912e+00, 4.45414352e+00,
          4.45414352e+00, 5.30139399e+00, 5.30139399e+00,
          -2.25043327e-01, -2.25043327e-01, 5.53384352e+00,
          5.53384352e+00, -7.06833959e-01, -7.06833959e-01,
          -6.39880419e+00, -6.39880419e+00, 2.62905478e+00,
          2.62905478e+00, -2.83698976e-01, -2.83698976e-01,
          -1.25151038e-01, -1.25151038e-01, 3.16927046e-01,
          3.16927046e-01, -7.14365721e-01, -7.14365721e-01,
          3.66077304e+00, 3.66077304e+00, -1.45296586e+00,
          1.56947419e-01, 1.56947419e-01, -3.67704487e+00,
          -3.67704487e+00, -2.92919254e+00, -2.92919254e+00,
          -6.26713336e-01, 4.31148195e+00, 4.31148195e+00,
          1.77235425e+00, 1.77235425e+00, -1.48111367e+00,
          -1.48111367e+00, 4.25977278e+00, 4.25977278e+00,
          1.61846578e-01, 1.61846578e-01, -2.40043163e+00,
          -2.40043163e+00, -4.02133799e+00, -4.02133799e+00,
          -8.60517502e-01, -8.60517502e-01, 3.83247018e+00,
          3.83247018e+00, 3.08565402e+00, 3.08565402e+00, 3.59553546e-01,
          3.59553546e-01, -2.42003179e+00, -2.42003179e+00,
          7.21475005e-01, 7.21475005e-01, 2.41884947e+00, 2.41884947e+00,
          5.57364321e+00, 5.57364321e+00, -3.12944388e+00,
          -3.12944388e+00, 2.81701505e-01, 2.81701505e-01,
          -2.39422321e+00, -2.39422321e+00, -3.14281511e+00,
          -3.14281511e+00, 8.24802577e-01, 8.24802577e-01,
          -1.68181086e+00, -1.68181086e+00, -1.39513361e+00,
          -1.39513361e+00, 1.37781477e+00, 1.37781477e+00,
          -1.18776619e+00, -1.18776619e+00, 2.14434361e+00,
          2.14434361e+00, 7.29773045e-01, 7.29773045e-01, 4.26240015e+00,
          4.26240015e+00, -2.89163423e+00, -2.89163423e+00,
          -9.65381265e-01, -3.52154756e+00, -3.52154756e+00,
          5.22825181e-01, 5.22825181e-01, -2.46572232e+00,
          -2.46572232e+00, -6.25971735e-01, -6.25971735e-01,
          -9.90044498e+00, -9.90044498e+00, 1.81045926e+00,
          1.81045926e+00, -4.23107100e+00, -4.23107100e+00,
          3.35275292e-01, 3.35275292e-01, 1.10590804e+00, 1.10590804e+00,
          2.71886992e+00, 2.71886992e+00, 1.21929741e+00, 1.21929741e+00,
          9.22497749e-01, 9.22497749e-01, 2.79939771e-01, 2.79939771e-01,
          -3.23277879e+00, -3.23277879e+00, 1.50574279e+00,
          1.50574279e+00, 8.12006354e-01, 8.12006354e-01, 2.15656471e+00,
          2.15656471e+00, -3.12479401e+00, -3.12479401e+00,
          6.02486968e-01, 6.02486968e-01, -1.57882845e+00,
          -1.57882845e+00, 3.23085263e-02, 3.23085263e-02,
          1.24278069e+00, 1.24278069e+00, -2.19934249e+00,
          -2.19934249e+00, 7.01891363e-01, 7.01891363e-01,
          -2.12858653e+00, -5.89711785e-01, -4.70425463e+00,
          -4.70425463e+00, 1.55193198e+00, 1.55193198e+00,
          -1.04155576e+00, -1.04155576e+00, -8.79068732e-01,
          -8.79068732e-01, 1.08839846e+00, 1.08839846e+00,
          6.56502485e-01, 6.56502485e-01, -1.98144257e+00,
          -1.98144257e+00, 1.02526855e+00, 1.17402673e+00,
          1.17402673e+00, -8.19130707e+00, -8.19130707e+00,
          -8.06470096e-01, -8.06470096e-01, -5.28450966e+00,
          2.92230463e+00, 2.92230463e+00, -2.43233275e+00,
          -2.43233275e+00, -9.72622633e-02, -9.72622633e-02,
          -1.47495568e+00, -1.47495568e+00, 3.78474617e+00,
          3.78474617e+00, 2.06436306e-01, 2.06436306e-01,
          -2.35767102e+00, -2.35767102e+00, -3.14464021e+00,
          -3.14464021e+00, 1.03044808e+00, 1.03044808e+00,
          2.37257266e+00, 2.37257266e+00, 2.11350727e+00, 2.11350727e+00,
          -1.75211334e+00, -1.75211334e+00, -2.51759219e+00,
          -2.51759219e+00, 3.27990603e+00, 3.27990603e+00,
          1.72336709e+00, 1.72336709e+00, -2.74210501e+00,
          -2.74210501e+00, -2.06903553e+00, -2.06903553e+00,
          1.54545188e+00, 1.54545188e+00, 1.20985126e+00, 1.20985126e+00,
          1.31456113e+00, 1.31456113e+00, 1.19299221e+00, 1.19299221e+00,
          -1.91378725e+00, -1.91378725e+00, 3.41022587e+00,
          6.19487166e-01, 6.19487166e-01, 1.10258913e+00, 1.10258913e+00,
          6.48819447e-01, 6.48819447e-01, 3.14658356e+00, 3.14658356e+00,
          -2.34373212e+00, -2.34373212e+00, 1.69074869e+00,
          1.69074869e+00, -2.14070940e+00, -2.14070940e+00,
          1.64634359e+00, 1.64634359e+00, -1.99844077e-01,
          -1.99844077e-01, -2.26786032e-01, -2.26786032e-01,
          -1.66285664e-01, -1.66285664e-01, -5.92442989e-01,
          -5.92442989e-01, 1.70237392e-01, 1.70237392e-01,
          -1.50544679e+00, -1.50544679e+00, 2.16108704e+00,
          2.16108704e+00, -8.79048467e-01, -8.79048467e-01,
          2.10930705e+00, 2.10930705e+00, 1.44586337e+00, 1.44586337e+00,
          -6.17259383e-01, -6.17259383e-01, 1.37099230e+00,
          1.37099230e+00, 1.89803791e+00, 1.89803791e+00, 1.86444128e+00,
          1.86444128e+00, 2.51497054e+00, 2.51497054e+00, 1.44073141e+00,
          1.44073141e+00, 1.58104110e+00, 1.58104110e+00, 2.69140244e-01,
          2.69140244e-01, 1.54454625e+00, 1.54454625e+00, 2.16583562e+00,
          2.16583562e+00, 1.15607607e+00, 1.15607607e+00,
          -1.81229651e+00, -1.81229651e+00, -8.46222758e-01,
          -8.46222758e-01, 1.17651975e+00, 1.17651975e+00,
          2.25068831e+00, 2.25068831e+00, -8.04220259e-01,
          -8.04220259e-01, -6.38659298e-02, -6.38659298e-02,
          5.09439111e-01, 5.09439111e-01, -7.70042837e-02,
          -7.70042837e-02, 1.17680693e+00, 1.17680693e+00,
          -8.14340472e-01, 2.82940477e-01, 2.82940477e-01,
          -2.32072130e-01, -2.32072130e-01, 7.56359935e-01,
          7.56359935e-01, 3.19693148e-01, 3.19693148e-01,
          -6.27257347e-01, -6.27257347e-01, 1.26132846e+00,
          1.26132846e+00, 4.24448580e-01, 4.24448580e-01, 2.21391249e+00,
          2.21391249e+00, -1.01334238e+00, -1.01334238e+00,
          1.11361481e-01, 1.11361481e-01, 7.03126550e-01, 7.03126550e-01,
          -7.46492684e-01, -7.46492684e-01, -6.28986657e-01,
          -6.28986657e-01, 1.76804698e+00, 1.76804698e+00,
          7.51368403e-01, 7.51368403e-01, -9.73266840e-01,
          -9.73266840e-01, 8.57998848e-01, 8.57998848e-01,
          2.29212731e-01, 7.17861414e-01, 7.17861414e-01,
          -1.33824658e+00, -1.33824658e+00, -4.70262241e+00,
          -4.70262241e+00, -1.01168478e+00, -1.01168478e+00,
          -9.91162241e-01, -9.91162241e-01, -6.19572818e-01,
          -6.19572818e-01, -5.37243187e-01, -5.37243187e-01,
          1.11429143e+00, 1.11429143e+00, -5.72770214e+00,
          -5.72770214e+00, 3.14363331e-01, 3.14363331e-01,
          9.27065849e-01, 9.27065849e-01, 2.45672178e+00, 2.45672178e+00,
          -1.79722333e+00, -1.79722333e+00, -1.71733356e+00,
          -1.71733356e+00, 1.12236142e+00, 1.12236142e+00,
          -7.72179365e-02, -7.72179365e-02, 1.66728318e+00,
          1.66728318e+00, -6.45818830e-01, -6.45818830e-01,
          1.47835696e+00, 1.47835696e+00, -1.19900239e+00,
          -1.19900239e+00, 2.34535122e+00, 2.34535122e+00,
          1.69991702e-01, 1.69991702e-01, 1.21045984e-01, 1.21045984e-01,
          -9.21368971e-02, -9.21368971e-02, -1.21958315e+00,
          -1.21958315e+00, 4.29235309e-01, 4.29235309e-01,
          9.97843862e-01, -1.48367178e+00, -1.48367178e+00,
          7.06105351e-01, 7.06105351e-01, 9.72306669e-01, 9.72306669e-01,
          8.63878191e-01, 8.63878191e-01, 6.29862666e-01,
          -1.85497057e+00, -1.85497057e+00, 5.37714660e-01,
          5.37714660e-01, -2.33925366e+00, -2.33925366e+00,
          5.02668524e+00, 5.02668524e+00, -7.06596613e-01,
          -7.06596613e-01, 4.47037309e-01, 4.47037309e-01,
          1.37219679e+00, 1.37219679e+00, -4.76526529e-01,
          -4.76526529e-01, 9.74326611e-01, 9.74326611e-01,
          1.84689641e+00, 1.84689641e+00, 7.45434225e-01, 7.45434225e-01,
          5.04358828e-01, 5.04358828e-01, 1.54399967e+00, 1.54399967e+00,
          3.71108532e-01, 3.71108532e-01, -1.16513781e-01,
          -1.16513781e-01, -1.75892115e+00, -1.75892115e+00,
          1.25617301e+00, 1.25617301e+00, 9.94076729e-01, 9.94076729e-01,
          2.80185342e-01, 2.80185342e-01, -1.17260802e+00,
          -1.17260802e+00, 1.60213277e-01, 1.60213277e-01,
          -2.12100625e+00, -2.12100625e+00, -8.87824874e-03,
          -8.87824874e-03, 1.27810374e-01, 1.27810374e-01,
          1.10763538e+00, 1.10763538e+00, -1.74593127e+00,
          -1.74593127e+00, -1.07856309e+00, -1.07856309e+00,
          -1.19971740e+00, -1.19971740e+00, 7.89474905e-01,
          7.89474905e-01, 1.76379811e-02, 1.76379811e-02, 6.19176887e-02,
          6.19176887e-02, -5.92416883e-01, -5.92416883e-01,
          1.26120102e+00, 8.38062704e-01, 8.38062704e-01, 1.63151830e-01,
          1.63151830e-01, 3.66391063e-01, 3.66391063e-01,
          -2.55589271e+00, -2.55589271e+00, -1.68775707e-01,
          -1.68775707e-01, 3.92566770e-01, 3.92566770e-01,
          2.75128752e-01, 2.75128752e-01, -1.03591609e+00,
          -1.03591609e+00, 3.07292193e-01, 3.07292193e-01,
          -5.94764829e-01, -5.94764829e-01, 7.33814240e-01,
          -1.45860195e+00, -1.45860195e+00, 5.27543366e-01,
          5.27543366e-01, 6.12646461e-01, 6.12646461e-01,
          -3.12859893e-01, -3.12859893e-01, 1.35229421e+00,
          1.35229421e+00, 8.73252004e-02, 8.73252004e-02,
          -3.87649417e-01, -3.87649417e-01, -1.41684026e-01,
          -1.41684026e-01, 2.12011695e-01, 2.12011695e-01,
          1.07525718e+00, 1.07525718e+00, -4.08398390e-01,
          -4.08398390e-01, 5.62401056e-01, 5.62401056e-01,
          -1.34356230e-01, 9.73367512e-01, 9.73367512e-01,
          4.88908798e-01, 4.88908798e-01, 5.69113076e-01, 5.69113076e-01,
          -1.19295824e+00, -1.19295824e+00, -3.59079689e-02,
          -3.59079689e-02, -6.84871256e-01, -6.84871256e-01,
          1.02596092e+00, 1.02596092e+00, 1.05452049e+00, 1.05452049e+00,
          -8.03842768e-02, -8.03842768e-02, -1.49880871e-01,
          -1.49880871e-01, 2.91254763e-02, 2.91254763e-02,
          -1.95286006e-01, -1.95286006e-01, 3.40943664e-01,
          3.40943664e-01, 6.95181906e-01, 6.95181906e-01,
          -1.04667771e+00, -1.04667771e+00, 6.31467879e-01,
          1.14407890e-01, 1.14407890e-01, -2.54933625e-01,
          -2.54933625e-01, -4.57149714e-01, -4.57149714e-01,
          7.37159133e-01, 7.37159133e-01, -7.08180889e-02,
          -7.08180889e-02, -4.53362018e-01, -4.53362018e-01,
          -8.75921130e-01, -8.75921130e-01, -1.02185953e+00,
          -1.02185953e+00, -3.75792347e-02, -3.75792347e-02,
          -3.62000614e-01, -3.62000614e-01, 1.46371233e+00,
          -1.09568274e+00, -1.09568274e+00, 5.15383542e-01,
          5.15383542e-01, -2.49839753e-01, -2.49839753e-01,
          -2.69375443e-01, -2.69375443e-01, -2.03753814e-01,
          -2.03753814e-01, -1.39494300e+00, -1.39494300e+00,
          -1.82044673e+00, -1.82044673e+00, -6.17168009e-01,
          -6.17168009e-01, -4.77397919e-01, 3.10170561e-01,
          3.10170561e-01, 1.78611070e-01, 1.78611070e-01, 5.00288486e-01,
          5.00288486e-01, 1.82291418e-02, -8.06747735e-01,
          -8.06747735e-01, 1.35816610e+00, 1.35816610e+00,
          -6.91891238e-02, -6.91891238e-02, -3.41469097e+00,
          -3.41469097e+00, -5.24188340e-01, -5.24188340e-01,
          -3.82659167e-01, -3.82659167e-01, -7.07767069e-01,
          -7.07767069e-01, -2.65323460e-01, -2.65323460e-01,
          -7.05999043e-03, -7.05999043e-03, 2.19319940e-01,
          2.19319940e-01, 1.00670195e+00, 1.00670195e+00, 1.05585790e+00,
          -1.97558761e-01, -1.97558761e-01, -1.63412452e-01,
          -1.63412452e-01, 5.74870467e-01, 5.74870467e-01,
          -1.69590247e+00, -1.69590247e+00, 6.15555309e-02,
          6.15555309e-02, -2.60506570e-01, -2.60506570e-01,
          1.91497576e+00, 1.91497576e+00, -3.20131779e-01,
          -3.20131779e-01, 5.09957433e-01, 5.09957433e-01,
          -1.34873852e-01, 8.39803636e-01, 8.39803636e-01,
          1.58812016e-01, 2.75913864e-01, 2.75913864e-01, 8.63091409e-01,
          8.63091409e-01, -3.55719090e-01, -3.55719090e-01,
          4.70325679e-01, 4.70325679e-01, -3.25590104e-01,
          -3.25590104e-01, -4.63630974e-01, -4.63630974e-01,
          7.43182898e-01, 7.43182898e-01, -1.15170792e-01,
          -1.15170792e-01, -5.20787686e-02, -5.20787686e-02,
          1.49765834e-01, 1.49765834e-01, 3.65591973e-01, 3.65591973e-01,
          2.22171277e-01, 2.22171277e-01, -4.27921414e-02,
          -4.27921414e-02, 3.76992255e-01, -3.65873612e-02,
          -3.65873612e-02, -1.35139465e-01, -1.35139465e-01,
          3.47568661e-01, 3.47568661e-01, -4.94357675e-01,
          -4.94357675e-01, 4.08652931e-01, 4.08652931e-01,
          -4.77832824e-01, -1.41507179e-01, -1.41507179e-01,
          -3.81370395e-01, -3.81370395e-01, 6.99622571e-01,
          6.99622571e-01, -1.15236849e-01, -1.15236849e-01,
          1.05264075e-01, 1.05264075e-01, 3.81694213e-02, 3.81694213e-02,
          -2.09998384e-01, -2.09998384e-01, -1.62229180e-01,
          -1.62229180e-01, -1.47190437e-01, -1.47190437e-01,
          2.46319398e-02, 2.46319398e-02, -6.69751346e-01,
          -6.69751346e-01, -6.29872501e-01, -4.45056707e-01,
          -4.45056707e-01, -1.33813667e+00, -1.33813667e+00,
          -2.98220292e-02, -2.98220292e-02, 1.55294925e-01,
          3.27283442e-01, 3.27283442e-01, -4.47416246e-01,
          -4.47416246e-01, 9.87966359e-01, 9.87966359e-01,
          2.96207070e-01, 2.96207070e-01, 2.10053667e-01, 2.10053667e-01,
          1.41180599e+00, 1.41180599e+00, 5.59095681e-01, 5.59095681e-01,
          2.02235162e-01, 2.02235162e-01, -7.82362759e-01,
          -7.82362759e-01, -2.49958348e+00, -2.49958348e+00,
          -1.32002306e+00, -1.32002306e+00, 1.95511982e-01,
          3.40419114e-01, 3.40419114e-01, -2.70830300e-02,
          -2.70830300e-02, 2.35462725e-01, 2.35462725e-01,
          8.75192523e-01, 8.75192523e-01, -3.17121446e-01,
          -3.17121446e-01, 1.32124620e-02, 1.32124620e-02,
          -6.16105616e-01, -6.16105616e-01, 7.88769782e-01,
          7.88769782e-01, 4.78304863e-01, 4.78304863e-01,
          -1.90461427e-02, -1.90461427e-02, -1.79650694e-01,
          -1.69067740e+00, -1.69067740e+00, 8.35734725e-01,
          8.35734725e-01, -1.83110118e-01, -1.83110118e-01,
          -1.74449384e+00, -1.74449384e+00, 1.11952353e+00,
          1.11952353e+00, 1.30100958e-02, 1.30100958e-02, 3.00295074e-02,
          3.00295074e-02, -1.97944269e-01, 3.48684564e-02,
          3.48684564e-02, 5.16888499e-01, 5.16888499e-01,
          -9.35014606e-01, -9.35014606e-01, -5.74194014e-01,
          -5.74194014e-01, 2.28877753e-01, 2.28877753e-01,
          -7.59000659e-01, -7.59000659e-01, -1.83490902e-01,
          -1.83490902e-01, -6.03016376e-01, -6.03016376e-01,
          2.08354801e-01, 2.08354801e-01, 6.96361125e-01, 6.96361125e-01,
          -2.64206260e-01, -2.64206260e-01, -1.38928339e-01,
          -1.38928339e-01, 5.09462878e-02, 5.09462878e-02,
          -8.92755985e-02, -8.92755985e-02, 9.35383618e-01,
          9.35383618e-01, -1.15530998e-01, 3.90223652e-01,
          3.90223652e-01, 1.03090835e+00, 1.03090835e+00,
          -4.00271446e-01, -4.00271446e-01, 3.27566057e-01,
          -6.84479177e-01, -6.84479177e-01, -4.85635102e-01,
          -4.85635102e-01, 1.63093045e-01, 1.63093045e-01,
          -6.09798491e-01, -6.09798491e-01, -2.44616702e-01,
          -2.44616702e-01, 2.98412085e-01, -1.20574757e-01,
          -1.20574757e-01, 3.97726655e-01, 3.97726655e-01,
          -4.43009585e-02, -4.43009585e-02, 2.72972047e-01,
          2.72972047e-01, 9.78967786e-01, 9.78967786e-01, 1.29459947e-01,
          1.29459947e-01, 1.04894090e+00, 1.04894090e+00 ]
      - [ -8.01716919e+01, 4.60016479e+01, -3.39482422e+01,
          -6.77506304e+00, 2.31521721e+01, -8.15872879e+01,
          3.21402321e+01, -4.62908974e+01, -8.05141144e+01,
          1.09914720e+00, 5.03576431e+01, 5.17525787e+01, 1.10140371e+01,
          -5.14120007e+00, 1.41749849e+01, -4.75670738e+01,
          3.00355072e+01, 9.40984955e+01, 1.48352737e+01, 1.10439932e+00,
          8.17645645e+00, -2.64202175e+01, 2.35808163e+01,
          -4.41847115e+01, -4.21048241e+01, -4.24462795e+00,
          -6.53104401e+01, 1.01543264e+01, 2.07316761e+01,
          -1.47713737e+01, -4.72083473e+00, 2.48656025e+01,
          1.57149343e+01, -4.67036133e+01, 3.17222271e+01,
          3.09255447e+01, 9.98107147e+00, 6.22209120e+00,
          -1.92996407e+01, 1.13868361e+01, -1.44681966e+00,
          1.46960688e+01, 2.59074450e+00, 1.38839779e+01,
          -1.17827473e+01, 4.36836090e+01, -9.01925373e+00,
          2.04211807e+01, -7.69966915e-02, 3.36051903e+01,
          9.16742992e+00, 1.90721684e+01, 5.44550705e+00,
          -1.60565071e+01, 4.36580544e+01, 1.45728731e+01,
          1.65103855e+01, -1.55769577e+01, -2.75690727e+01,
          6.18008661e+00, 2.77005291e+01, -9.85582924e+00,
          -2.11290112e+01, -1.27420092e+01, -1.98625672e+00,
          -1.11133766e+00, -1.59231472e+01, -1.55295715e+01,
          -1.26435924e+00, -1.40951557e+01, -9.59606743e+00,
          1.37001266e+01, -1.21107082e+01, 7.15779638e+00,
          -8.48265648e+00, -1.86720216e+00, -1.97131786e+01,
          9.21728671e-01, 1.57203856e+01, 1.23826866e+01,
          -7.80297995e+00, 2.29554176e+01, -4.44267797e+00,
          4.73591757e+00, -8.10212708e+00, -1.23280344e+01,
          -1.50583191e+01, -3.44781017e+00, -7.71097755e+00,
          -1.45690441e+01, 5.11890554e+00, -1.73719311e+01,
          -3.28261909e+01, -1.69685917e+01, -9.41419029e+00,
          2.89697123e+00, 1.18157959e+01, -1.89771760e+00,
          -9.10243320e+00, -9.15388393e+00, -8.35998058e+00,
          2.90770888e+00, -1.82124500e+01, 3.76956892e+00,
          -1.16193733e+01, -1.26170578e+01, 6.00046754e-01,
          8.87790298e+00, -9.71430969e+00, 1.61747634e+00,
          -4.72464949e-01, -3.93424535e+00, 1.14681778e+01,
          -1.26836598e+00, 1.20847626e+01, 1.24352093e+01,
          -4.30151558e+00, -1.42294273e+01, -1.95482979e+01,
          1.38731318e+01, -1.13996351e+00, 1.47960854e+01,
          9.86887455e+00, 7.84434795e+00, -1.40023661e+01,
          -9.83681583e+00, -1.89155846e+01, -3.52067971e+00,
          -4.03118038e+00, -9.07917202e-01, -6.70632219e+00,
          2.12340569e+00, -7.61921930e+00, -1.99395344e-01,
          -1.13592160e+00, 2.07981253e+00, -6.95909309e+00,
          -2.58550972e-01, -7.49317455e+00, -2.09101791e+01,
          -1.22912541e-01, 1.49641027e+01, 9.50466251e+00,
          -6.64351511e+00, -5.05497122e+00, -2.16285591e+01,
          1.89825001e+01, -4.32451820e+00, 2.52474141e+00,
          -7.32295454e-01, 9.37432384e+00, -2.22805843e+01,
          -3.91915131e+00, -2.37506461e+00, -6.15909278e-01,
          -1.44376297e+01, -8.20169640e+00, 1.73962955e+01,
          -9.92123795e+00, -6.26921117e-01, -1.22744703e+01,
          -8.67304420e+00, -3.94480753e+00, -1.77565994e+01,
          -1.35881329e+01, -1.00221577e+01, 6.03344858e-01,
          1.18758924e-01, 6.21092558e+00, 2.05164528e+00, 4.90236473e+00,
          5.05464602e+00, 1.41941357e+01, 8.92359197e-01,
          -1.55739832e+01, -1.98800335e+01, 3.28622866e+00,
          -1.41462746e+01, -7.56915665e+00, 1.65578052e-01,
          -7.55437517e+00, -1.18761034e+01, 3.26910520e+00,
          2.14544797e+00, 1.37518358e+00, -5.33057022e+00,
          8.53098094e-01, -3.06076264e+00, 1.08571892e+01,
          3.66299152e+00, -7.52898693e+00, 8.95296955e+00,
          5.68459213e-01, 2.11744442e+01, -2.79027438e+00,
          -6.64821529e+00, 1.42044802e+01, 1.65675468e+01,
          1.37346494e+00, 3.25088787e+00, 5.30719566e+00, 2.70072341e-01,
          6.40907228e-01, -1.48417339e+01, -5.09069729e+00,
          6.89695239e-01, 1.10719299e+00, 7.16279316e+00, 2.91145325e-01,
          -7.03945780e+00, 8.13310385e-01, 1.25175819e+01,
          7.52637339e+00, -3.58037257e+00, 4.55679321e+00,
          -3.77247906e+00, 8.72288322e+00, 8.68058395e+00,
          -8.26005268e+00, -1.50646687e+01, -7.20515728e+00,
          -1.69128501e+00, -1.66100144e+00, 9.90744019e+00,
          -4.67910242e+00, -9.83691597e+00, -7.88117504e+00,
          -4.81389463e-01, -2.47897959e+00, 9.42235661e+00,
          8.65739346e+00, 5.85783577e+00, 1.29859324e+01,
          -1.53622437e+00, -3.56033754e+00, 6.77431107e+00,
          -3.07863522e+00, 2.81255651e+00, -2.80422211e+00,
          5.64982557e+00, 1.68372941e+00, -1.43411884e+01,
          -9.20696068e+00, -2.88099933e+00, -5.91848850e+00,
          -1.54581938e+01, -1.10711467e+00, 2.21045589e+00,
          9.72742844e+00, -1.51786613e+01, -1.22407398e+01,
          -1.44507551e+00, 1.14024897e+01, -9.69375789e-01,
          3.12379646e+00, 4.43108177e+00, 3.48977661e+00, 6.95011139e+00,
          -5.72436619e+00, 6.26448393e+00, -7.67536259e+00,
          -9.76410770e+00, 6.48206806e+00, 1.08358641e+01,
          8.73289299e+00, 8.93559456e+00, 1.41877389e+00,
          -1.43994255e+01, -3.54251933e+00, 3.40470862e+00,
          -1.28849316e+00, 8.46662283e-01, -7.44029808e+00,
          5.31707048e+00, -1.14217174e+00, 8.03048038e+00,
          6.74679613e+00, -1.31518965e+01, -1.59743178e+00,
          4.64227104e+00, 6.12261891e-01, 9.89002991e+00, 7.66778469e+00,
          -5.15480089e+00, 1.33202791e+01, -1.44768715e-01,
          -9.30666983e-01, 1.32869768e+01, -4.49424076e+00,
          3.10785079e+00, -1.06256809e+01, -2.23443842e+00,
          -7.71673346e+00, -3.01466346e+00, -2.57718611e+00,
          8.38900149e-01, -1.00763588e+01, -3.87896113e-02,
          1.62991834e+00, -9.59648323e+00, 1.33016181e+00,
          3.27675462e+00, -9.37712669e+00, -7.42706251e+00,
          -6.27262354e+00, 3.42507291e+00, -2.03083158e+00,
          -4.96369314e+00, 1.15050163e+01, -6.31679296e+00,
          -2.37661982e+00, -1.00137539e+01, 1.10325444e+00,
          -7.22097301e+00, -1.74741852e+00, 7.12917995e+00,
          1.76166463e+00, -4.75202656e+00, 1.50357580e+00,
          -2.74486780e+00, -5.17129230e+00, 7.05824435e-01,
          -3.14161396e+00, -6.21978140e+00, -4.95730495e+00,
          6.41045809e+00, 6.61696386e+00, -1.44736900e+01,
          1.69667912e+01, -3.60426098e-01, -8.55920732e-01,
          -5.89157391e+00, -1.06903543e+01, -7.17799187e+00,
          -6.31438541e+00, 7.76788378e+00, 1.12950134e+00,
          -4.42326784e+00, -9.20130253e+00, 3.81404519e+00,
          -8.25498962e+00, 6.91758823e+00, -8.85577583e+00,
          2.31818271e+00, -3.21055198e+00, 5.21128273e+00,
          -6.78340578e+00, -5.40593922e-01, -4.81181669e+00,
          -4.57216859e-01, 9.39348888e+00, 4.14699173e+00,
          3.33819890e+00, -1.27276955e+01, -1.94864893e+00,
          1.38122110e+01, -4.61671019e+00, 2.02182770e+00,
          -1.39501972e+01, -2.84723592e+00, 8.09834480e+00,
          -9.75558949e+00, -7.22011685e-01, 4.52922487e+00,
          -7.64501810e+00, -2.12182498e+00, -3.71043277e+00,
          -1.66309726e+00, -2.59096479e+00, 8.84449768e+00,
          5.10589659e-01, 1.20010424e+00, -4.71399975e+00,
          -2.52364254e+00, -5.01121330e+00, -4.57288361e+00,
          3.08943367e+00, -2.03710273e-01, 4.96177338e-02,
          -8.43079090e+00, 4.12483311e+00, -2.74269605e+00,
          -3.95036149e+00, -2.75122190e+00, -6.56248140e+00,
          9.96753597e+00, 1.04225798e+01, 1.10967970e+01, 1.12334175e+01,
          -1.71494257e+00, 5.15361071e+00, -7.21554816e-01,
          2.90290737e+00, -1.00178552e+00, -7.61212111e-01,
          7.84069777e+00, 3.11139679e+00, -3.88534117e+00,
          -7.06092119e+00, 2.14302063e+00, -7.33502102e+00,
          -1.15448885e+01, 8.05275023e-01, -1.47513545e+00,
          -3.70294166e+00, 1.03911180e+01, -1.16936125e-01,
          -7.38781214e+00, 6.96278954e+00, -5.99855804e+00,
          -6.64087892e-01, 5.55723143e+00, -6.45827174e-01,
          2.34193182e+00, 8.98872793e-01, 4.17933083e+00, 3.93700361e+00,
          6.84461117e+00, -3.33770156e+00, 9.26442623e+00,
          3.89891529e+00, 2.20319033e+00, -7.65602398e+00,
          -6.99530220e+00, 1.55395937e+00, 8.88304174e-01,
          -7.59444284e+00, 3.74297231e-01, 4.88130856e+00,
          2.45100915e-01, -1.08854475e+01, -1.04053593e+01,
          7.43612909e+00, 8.97648856e-02, 4.77588034e+00,
          -5.99272776e+00, -2.40985751e+00, 8.96716595e+00,
          3.01815653e+00, -2.90494418e+00, -1.91209011e+01,
          -3.77501345e+00, 4.32935524e+00, -8.98424435e+00,
          -7.22189808e+00, -3.38343692e+00, 3.58448327e-01,
          -1.16249239e+00, 3.15521091e-01, -7.87807369e+00,
          -5.41686153e+00, 1.10689354e+01, 3.95894241e+00,
          8.79610252e+00, -1.55053341e+00, 3.22061753e+00,
          3.46922588e+00, -8.37124634e+00, -1.49216771e+00,
          -5.61654949e+00, 1.37022650e+00, -4.36288506e-01,
          1.50908256e+00, 5.24079561e+00, 6.45456266e+00, 7.45250177e+00,
          4.20240879e+00, -6.56267405e+00, 3.74953222e+00,
          -7.76578712e+00, 2.03465748e+01, -5.46963871e-01,
          -5.68967962e+00, 1.41084719e+01, -1.04860153e+01,
          -2.10854168e+01, 2.32551250e+01, -3.08730526e+01,
          -8.55856228e+00, -8.55856228e+00, -6.37712288e+00,
          -1.91357727e+01, 1.43218681e-01, -3.90429711e+00,
          -3.90429711e+00, 1.98244133e+01, 1.98244133e+01,
          -1.44228048e+01, -1.44228048e+01, -9.88832188e+00,
          -9.88832188e+00, 5.93999863e+00, -4.12301970e+00,
          -9.47391987e+00, 1.01093292e+01, 1.01093292e+01,
          -7.59715748e+00, -7.59715748e+00, 9.58030033e+00,
          9.58030033e+00, -1.42811661e+01, -1.42811661e+01,
          1.75960207e+00, 1.75960207e+00, 3.03950518e-01,
          -5.93644714e+00, -5.93644714e+00, -7.61926842e+00,
          -7.61926842e+00, 4.97312498e+00, 4.97312498e+00,
          -6.44145679e+00, -8.59528542e+00, -8.59528542e+00,
          1.17054758e+01, -2.34270930e+00, -2.34270930e+00,
          3.41562843e+00, 3.41562843e+00, 8.01012039e+00, 8.01012039e+00,
          -1.66416121e+00, -1.66416121e+00, -3.40325689e+00,
          -3.40325689e+00, -1.46629124e+01, -1.10065088e+01,
          -1.10065088e+01, -2.57019067e+00, -2.57019067e+00,
          1.81272328e+00, 1.81272328e+00, 2.10330219e+01, 1.21831913e+01,
          1.21831913e+01, -9.71285915e+00, -9.71285915e+00,
          -1.19436579e+01, -1.19436579e+01, 1.07732430e+01,
          1.07732430e+01, 1.15569983e+01, 1.15569983e+01, 3.12777090e+00,
          3.12777090e+00, -7.55259943e+00, -7.55259943e+00,
          5.52859449e+00, 5.52859449e+00, 1.05559292e+01, 1.05559292e+01,
          -4.88501215e+00, 9.49628353e+00, 9.49628353e+00,
          -6.80540419e+00, -6.80540419e+00, 4.55801487e+00,
          4.55801487e+00, 1.24374781e+01, 1.24374781e+01, 6.73247766e+00,
          6.73247766e+00, 1.30107374e+01, -2.99896598e+00,
          -2.99896598e+00, 4.09950876e+00, 4.09950876e+00,
          6.42395401e+00, 2.69610786e+00, 2.69610786e+00,
          -4.50528097e+00, -4.50528097e+00, 4.88523453e-01,
          4.88523453e-01, 5.83513403e+00, 5.83513403e+00, 9.57635880e+00,
          9.57635880e+00, -4.69819546e+00, -4.69819546e+00,
          -3.60220098e+00, -3.60220098e+00, 9.63116646e+00,
          9.63116646e+00, 9.08784485e+00, 9.08784485e+00, 2.45597884e-01,
          2.45597884e-01, 5.93349218e-01, 5.93349218e-01,
          -1.13940630e+01, -1.13940630e+01, -3.22446108e+00,
          -3.22446108e+00, -4.44176435e+00, -1.30283585e+01,
          -1.30283585e+01, -3.40806580e+00, -3.40806580e+00,
          -3.22505665e+00, -3.22505665e+00, 1.98236716e+00,
          1.98236716e+00, -4.21280813e+00, -4.21280813e+00,
          1.41849546e+01, -1.06246281e+01, -1.06246281e+01,
          6.62670994e+00, 6.62670994e+00, 1.69150007e+00, 1.69150007e+00,
          1.62031860e+01, 1.62031860e+01, -5.19447684e-01,
          -3.76781535e+00, -3.76781535e+00, 9.87423038e+00,
          9.87423038e+00, -1.29598923e+01, -1.29598923e+01,
          9.92851257e+00, 9.92851257e+00, 4.45627975e+00, 4.45627975e+00,
          -9.65317917e+00, -9.65317917e+00, -7.26837540e+00,
          -7.26837540e+00, 1.31084032e+01, 1.31084032e+01,
          -9.99724007e+00, -9.99724007e+00, 1.59985161e+00,
          4.16623801e-01, 4.16623801e-01, 6.20308638e+00, 6.20308638e+00,
          8.67658901e+00, 8.67658901e+00, -1.11203945e+00,
          -1.11203945e+00, -1.78804565e-02, -1.78804565e-02,
          -5.80203295e+00, -5.80203295e+00, -4.69866467e+00,
          -4.69866467e+00, -3.62168574e+00, -3.62168574e+00,
          -6.04707861e+00, -6.04707861e+00, 3.09225082e+01,
          3.09225082e+01, -4.17409706e+00, -4.17409706e+00,
          -1.96242809e+00, -1.96242809e+00, 2.93716335e+00,
          2.93716335e+00, -4.15261459e+00, -4.15261459e+00,
          2.35342693e+00, 2.35342693e+00, -6.95159292e+00,
          -6.95159292e+00, -9.26254368e+00, -3.01076978e-01,
          -3.01076978e-01, 1.79349947e+00, 1.79349947e+00,
          -3.43920660e+00, -3.43920660e+00, -4.77093887e+00,
          -4.77093887e+00, 7.05083942e+00, 7.08733052e-02,
          2.81773710e+00, 2.81773710e+00, -4.31249142e+00,
          -4.31249142e+00, -3.60470057e+00, -1.64054453e+00,
          -1.64054453e+00, -2.80959773e+00, -2.80959773e+00,
          -6.98425579e+00, -6.98425579e+00, -7.39812279e+00,
          -7.39812279e+00, -3.48626232e+00, -3.48626232e+00,
          6.01476526e+00, 9.20299244e+00, 9.20299244e+00,
          -5.13609934e+00, -5.13609934e+00, -7.68373680e+00,
          -7.68373680e+00, -5.55424976e+00, -5.55424976e+00,
          4.71877843e-01, 4.71877843e-01, -2.27434114e-01,
          3.32700467e+00, 3.32700467e+00, 3.36964917e+00, 3.36964917e+00,
          -3.58116531e+00, -3.58116531e+00, 1.11244974e+01,
          1.11244974e+01, 1.28323364e+01, 1.28323364e+01,
          -7.54219770e+00, 1.82317567e+00, 1.82317567e+00,
          -3.33111137e-01, -3.33111137e-01, 2.75673580e+00,
          2.75673580e+00, -7.99410772e+00, -7.99410772e+00,
          3.84954858e+00, 3.84954858e+00, -7.10251904e+00,
          -7.10251904e+00, 6.02901840e+00, 6.02901840e+00,
          -3.47047186e+00, -3.47047186e+00, -1.63125110e+00,
          -1.63125110e+00, -6.82858527e-01, -6.82858527e-01,
          1.78424323e+00, 1.78424323e+00, 3.68242478e+00, 3.68242478e+00,
          4.37918574e-01, 4.37918574e-01, 7.81988978e-01, 7.81988978e-01,
          4.23188353e+00, 4.23188353e+00, 1.40359735e+00, 9.67441273e+00,
          -9.28227484e-01, -9.28227484e-01, -4.98840046e+00,
          -4.98840046e+00, -6.07553959e+00, -6.07553959e+00,
          5.92783213e+00, 5.92783213e+00, 6.30767012e+00, 6.30767012e+00,
          1.29221344e+00, 1.29221344e+00, 1.08728914e+01, 1.08728914e+01,
          -6.68935490e+00, -2.00607920e+00, -2.00607920e+00,
          -1.38675928e+01, -1.38675928e+01, -8.20252132e+00,
          -8.20252132e+00, 4.10545492e+00, 4.10545492e+00,
          6.53860140e+00, 6.53860140e+00, 3.67090082e+00, 3.67090082e+00,
          -2.54894805e+00, -2.54894805e+00, 7.79044926e-01,
          7.79044926e-01, 7.47633874e-01, 7.47633874e-01,
          -4.82626486e+00, -4.82626486e+00, -3.64403629e+00,
          5.17629004e+00, 5.17629004e+00, 2.81527877e+00, 2.81527877e+00,
          -6.01763725e-01, -6.01763725e-01, -6.35951328e+00,
          -2.98804927e+00, -2.98804927e+00, 1.00715685e+01,
          1.00715685e+01, 6.68899298e+00, 6.68899298e+00, 1.04891644e+01,
          1.04891644e+01, -8.71028781e-01, -8.71028781e-01,
          1.72501731e+00, 1.72501731e+00, -9.59726906e+00,
          -9.59726906e+00, -6.51949883e-01, -6.51949883e-01,
          -2.70754957e+00, -2.70754957e+00, 7.33345318e+00,
          5.47710180e+00, 5.47710180e+00, -2.38079357e+00,
          -2.38079357e+00, -5.25122452e+00, -2.81907196e+01,
          -2.81907196e+01, -5.86703062e+00, -5.86703062e+00,
          -4.63199329e+00, -4.63199329e+00, 2.32935333e+00,
          2.32935333e+00, 2.22243714e+00, 2.22243714e+00, 2.29041600e+00,
          2.29041600e+00, 3.06698012e+00, 3.06698012e+00,
          -9.43471336e+00, -9.43471336e+00, -2.86363411e+00,
          -2.86363411e+00, -1.29380548e+00, -1.29380548e+00,
          -2.69766212e+00, -2.69766212e+00, -4.49471998e+00,
          2.23215318e+00, 2.23215318e+00, 2.83265257e+00, 2.83265257e+00,
          9.44864869e-01, 9.44864869e-01, 4.01784563e+00, 4.01784563e+00,
          9.00654411e+00, 9.00654411e+00, -3.40608120e+00,
          -3.40608120e+00, 4.17922211e+00, 4.17922211e+00,
          5.41599035e+00, 5.41599035e+00, -3.95992064e+00,
          -3.95992064e+00, -2.35767293e+00, -2.35767293e+00,
          1.96611786e+00, 1.96611786e+00, 7.31405640e+00, 7.31405640e+00,
          3.50350666e+00, 3.50350666e+00, 1.07980595e+01, 5.79801989e+00,
          5.79801989e+00, -2.70247293e+00, -2.70247293e+00,
          -4.07506132e+00, -4.07506132e+00, 2.15012121e+00,
          2.15012121e+00, -5.99409723e+00, -5.99409723e+00,
          7.01626301e+00, 7.01626301e+00, -1.25327039e+00,
          -1.25327039e+00, 6.82968080e-01, 6.82968080e-01,
          5.48742819e+00, 5.48742819e+00, 1.18354380e+00, 1.18354380e+00,
          -6.51244688e+00, -5.37676191e+00, -5.37676191e+00,
          -5.12580633e+00, -5.12580633e+00, -7.15836000e+00,
          -4.35104400e-01, -4.35104400e-01, -2.72697306e+00,
          -2.72697306e+00, 4.73354578e+00, 4.73354578e+00,
          -3.55028462e+00, -3.55028462e+00, 4.19223213e+00,
          4.19223213e+00, 1.22288692e+00, 1.22288692e+00, 1.78434968e+00,
          -4.79626608e+00, -4.79626608e+00, 1.47765172e+00,
          1.47765172e+00, -2.43945313e+00, -2.43945313e+00,
          2.75844932e+00, 2.75844932e+00, 3.65572977e+00, 3.65572977e+00,
          -1.64653808e-01, -1.64653808e-01, 3.30613685e+00,
          3.30613685e+00, 5.88944387e+00, 5.88944387e+00, 1.10663557e+00,
          1.22825515e+00, 1.22825515e+00, 6.56425297e-01, 6.56425297e-01,
          3.04230630e-01, 3.04230630e-01, -1.14915838e+01,
          -1.14915838e+01, -6.44054461e+00, -6.44054461e+00,
          -5.48901939e+00, -5.48901939e+00, -1.75603211e+00,
          -1.75603211e+00, 9.59294617e-01, 9.59294617e-01,
          3.68609540e-02, 5.06247878e-02, 5.06247878e-02,
          -8.27994108e-01, -8.27994108e-01, -1.66662741e+00,
          -1.66662741e+00, -3.39719319e+00, -3.39719319e+00,
          -5.62424660e+00, -5.62424660e+00, 9.05920789e-02,
          9.05920789e-02, 2.20764184e+00, 2.20764184e+00, 1.54996192e+00,
          1.54996192e+00, 8.85306835e+00, 8.85306835e+00, 1.79401889e-01,
          1.79401889e-01, 2.64680958e+00, 2.64680958e+00,
          -2.02558923e+00, -2.02558923e+00, -2.78735781e+00,
          -2.78735781e+00, 2.55192471e+00, 2.55192471e+00,
          8.57688844e-01, 8.57688844e-01, -4.03879023e+00,
          -4.03879023e+00, 3.47499347e+00, 3.47499347e+00,
          -2.73143601e+00, -2.73143601e+00, -4.39642572e+00,
          -1.34603727e+00, -1.34603727e+00, 5.04710627e+00,
          5.04710627e+00, -9.79853153e+00, -9.79853153e+00,
          -9.19381618e-01, -9.19381618e-01, -1.68041718e+00,
          -1.68041718e+00, 1.43606055e+00, 1.43606055e+00,
          -3.83909488e+00, -3.83909488e+00, 2.11065388e+00,
          2.11065388e+00, -3.22520828e+00, -3.22520828e+00,
          -4.66069698e-01, -4.66069698e-01, -4.33224964e+00,
          -4.33224964e+00, 5.55859137e+00, 5.55859137e+00,
          -2.95519280e+00, -1.14308298e+00, -1.14308298e+00,
          4.13668060e+00, 4.13668060e+00, 5.11391258e+00, 5.11391258e+00,
          9.74696159e-01, 9.74696159e-01, -7.40436494e-01,
          -7.40436494e-01, -2.08383846e+00, -2.08383846e+00,
          5.59761333e+00, 5.59761333e+00, -1.33467484e+00,
          -1.33467484e+00, 9.31580663e-02, 9.31580663e-02,
          -3.66762781e+00, -3.66762781e+00, 5.31127863e-02,
          5.31127863e-02, -8.54060531e-01, -8.54060531e-01,
          3.01143837e+00, 3.01143837e+00, 2.32417107e+00, 2.32417107e+00,
          3.06284285e+00, 3.06284285e+00, -2.66612196e+00,
          -2.66612196e+00, -2.29077816e+00, -2.29077816e+00,
          7.92132080e-01, 7.92132080e-01, 1.24412966e+00, 1.24412966e+00,
          4.58408785e+00, 4.58408785e+00, 7.00438929e+00, 7.00438929e+00,
          1.18195748e+00, 1.18195748e+00, 1.27249980e+00, 1.27249980e+00,
          -1.09385803e-01, -1.09385803e-01, -3.67567003e-01,
          -3.67567003e-01, -4.51013279e+00, -6.52739620e+00,
          -6.52739620e+00, 3.07525605e-01, 3.07525605e-01,
