%YAML:1.0
---
opencv_ml_svm:
   format: 3
   svmType: C_SVC
   kernel:
      type: LINEAR
   C: 2.9999999999999999e-01
   term_criteria: { epsilon:1.1920928955078125e-07, iterations:1000 }
   var_count: 2000
   class_count: 2
   class_labels: !!opencv-matrix
      rows: 2
      cols: 1
      dt: i
      data: [ -1, 1 ]
   sv_total: 1
   support_vectors:
      - [ -1.53569616e-02, -5.00295963e-03, 5.58656687e-03,
          3.89269483e-03, -7.60988472e-03, -9.92497313e-04,
          -1.49436225e-03, -9.27849859e-03, 1.85862905e-03,
          1.58785272e-03, -1.40991132e-03, -5.44329705e-05,
          -3.30662733e-04, -4.07703599e-04, -2.54911557e-03,
          -6.47951337e-03, 2.43100524e-03, -7.19171730e-05,
          -6.26639696e-04, 6.72755996e-04, 1.04637793e-03,
          -2.81611201e-03, 3.99378082e-03, -3.81053146e-03,
          -8.38867447e-04, -1.31581584e-03, 1.58054242e-03,
          -4.07030061e-03, -1.64879241e-03, 5.22187387e-04,
          -5.96765429e-03, 1.51822087e-03, 4.60277515e-04,
          -3.04354099e-03, 1.58668624e-03, 3.70255415e-03,
          -7.02971010e-04, -2.89635407e-03, 5.86060225e-04,
          -9.66091648e-07, -1.82298594e-03, -7.73248845e-04,
          -3.06551723e-04, 2.76767462e-03, 1.00070040e-03,
          8.20149900e-04, 8.12168641e-04, 1.81406108e-03,
          -1.07589098e-04, 3.26894899e-03, -2.30282568e-03,
          -1.36146066e-03, 2.73528975e-04, -2.83177593e-04,
          -5.01788338e-04, 1.61377003e-03, 1.52313442e-03,
          2.19994085e-03, 6.61360027e-05, -2.93936091e-03,
          -9.49096109e-04, 9.27645538e-04, 2.24304479e-03,
          -9.83910868e-04, 5.38832683e-04, 1.86902855e-03,
          -1.41883618e-03, 7.62717027e-05, -2.27984798e-04,
          -4.34681773e-03, 3.69129656e-03, 4.98932844e-04,
          -1.16226940e-04, 2.20634555e-03, 1.05980376e-03,
          -1.33792113e-03, 1.16572587e-03, -1.25262153e-03,
          6.01355132e-05, 2.97944498e-04, 1.61978952e-03,
          -2.58457335e-03, 8.21871683e-04, -1.95355923e-03,
          9.76904528e-04, -1.15719519e-03, 9.97199328e-04,
          -1.73844513e-03, -2.25018431e-03, -3.23977671e-03,
          -2.95136333e-03, -2.03232537e-03, -1.06655073e-03,
          2.01742747e-03, 2.81227985e-03, -2.59611616e-03,
          7.94933469e-04, 2.13616528e-04, 6.91881578e-04,
          -1.32514047e-03, -2.00732751e-03, 1.23102649e-03,
          2.26461096e-04, -1.48319546e-03, -2.30087200e-03,
          1.12301728e-03, -1.96547294e-03, -2.97851930e-03,
          3.22839664e-03, 2.68697063e-03, 1.74030254e-04,
          -1.65992114e-03, 2.73231068e-03, -1.47434906e-03,
          3.90499132e-03, -7.64759083e-04, 5.54127153e-04,
          -2.11426569e-03, 2.36704783e-03, 2.34010327e-03,
          3.55904223e-04, -2.46479921e-03, 1.04739629e-04,
          -1.71577721e-03, 2.52205087e-03, -1.81034103e-03,
          -1.39363192e-03, 9.23374377e-04, 3.32322641e-04,
          7.61536765e-04, 5.64363028e-04, -1.89750909e-03,
          2.07587518e-03, -1.45638958e-04, -8.58712534e-04,
          -4.07164189e-04, -8.56732309e-04, 1.42078998e-03,
          -1.27914327e-03, 6.51164592e-05, -1.17505377e-03,
          3.07285663e-04, -3.21419679e-06, 7.16876457e-05,
          -2.07950769e-04, 8.84729321e-04, 6.50717004e-04,
          -3.04107717e-03, 2.10457225e-03, -2.09706952e-04,
          1.47243154e-05, 2.21429486e-03, -2.30630190e-04,
          2.44975463e-03, 5.73645171e-04, 1.43060600e-03,
          -6.89285953e-05, -1.07976876e-03, -5.52687736e-04,
          -1.53013039e-03, -1.78744318e-04, 7.95788830e-04,
          -2.27396912e-03, -8.63085210e-04, -3.84118350e-04,
          7.81018287e-04, 9.70266119e-05, 1.40168879e-03, 1.08292443e-03,
          -1.18636154e-03, 7.64776487e-04, -4.65174729e-04,
          -6.75261137e-04, 4.25800186e-04, -2.60006846e-03,
          6.14704681e-04, -2.28082412e-03, 6.60954247e-05,
          -3.21202329e-04, 2.05012877e-03, -2.15580058e-03,
          -3.92299436e-04, 1.53226522e-03, 8.97737395e-04,
          1.96953234e-03, -1.78472736e-04, 1.66012545e-03,
          3.71862843e-04, -1.89264058e-04, -5.55581937e-04,
          -3.51028226e-04, 4.15739894e-04, 8.35751358e-04,
          2.89141579e-04, 6.25548710e-04, -6.39918435e-04,
          3.73174727e-04, -1.01610587e-03, -1.48822481e-04,
          1.41744458e-05, 1.20357925e-03, -5.48129843e-04,
          -4.67535603e-04, 2.82959634e-04, -5.22063696e-04,
          -1.84931525e-03, 5.23856026e-04, -3.51106282e-04,
          1.21624826e-03, -1.03611383e-03, 1.34610094e-03,
          -1.08243071e-03, 3.11806740e-04, 5.59099833e-04,
          -5.03841962e-04, 9.45912732e-04, 2.61906651e-03,
          9.17536745e-05, -4.80614108e-04, -2.58900248e-03,
          6.41001912e-04, -1.45794789e-03, 5.78868436e-04,
          1.60229241e-03, -1.42188347e-03, -9.43684881e-06,
          -1.70092110e-03, 1.38436281e-03, -1.87962886e-03,
          -7.07954110e-04, -5.34937892e-04, -1.01205881e-03,
          -1.98839302e-03, 9.27148852e-04, -9.50254544e-05,
          -7.50210660e-04, -2.65335490e-04, -1.53431005e-03,
          7.92446604e-04, 8.91864300e-04, 3.68567162e-05,
          -1.07653462e-03, -2.42828173e-04, 4.41425189e-04,
          -2.73490936e-04, -1.66493864e-03, 3.19979532e-04,
          -6.04929483e-05, -3.86646861e-04, -5.83019922e-04,
          1.52032753e-03, 2.15298869e-03, 1.87323181e-04,
          -3.31610878e-04, -2.05603126e-03, -7.69094797e-04,
          -6.94907678e-04, -2.27894448e-03, -1.09615922e-03,
          -1.84619377e-04, -9.97094787e-04, -1.14720839e-03,
          6.32423325e-05, -1.84314893e-04, -5.93059463e-04,
          8.14744970e-04, -1.73885399e-03, 1.61745364e-03,
          1.81645120e-03, -1.58215372e-03, 6.57654775e-04,
          -9.47531429e-04, 9.09002210e-06, 6.96256408e-04,
          1.82357908e-03, -1.18646218e-04, 1.19426244e-04,
          -6.00101135e-04, 6.39271224e-04, 1.22469035e-03,
          -3.07923474e-04, 1.13034947e-03, -1.56990730e-03,
          3.10243086e-05, 1.41951983e-04, 7.73149019e-04, 1.39399979e-03,
          -8.05367075e-04, 7.75236753e-04, -2.58911471e-03,
          -9.03740118e-04, 2.03111256e-03, 3.57629557e-04,
          1.62165059e-04, 8.65153343e-05, 1.04339421e-03, 9.58766759e-06,
          -5.90589305e-04, -1.11783484e-04, -3.96577292e-04,
          5.59580105e-04, 9.98111907e-04, -1.05602364e-03,
          5.54825820e-04, -2.59695691e-04, 9.98849937e-05,
          -1.24021107e-03, -4.55702568e-04, 3.89385270e-04,
          -1.47284870e-03, 7.19202217e-04, 2.43806673e-04,
          2.50704383e-04, -1.40492048e-03, 4.52966895e-04,
          -6.51659619e-04, 2.87728526e-05, -5.34818741e-04,
          4.96840512e-04, -7.76886183e-04, -1.22357591e-03,
          -5.64008427e-04, 1.30956667e-03, 1.08006818e-04,
          2.60341592e-04, 2.94076512e-04, -5.95003075e-05,
          6.29032322e-04, -1.39518047e-03, -8.09727760e-04,
          -1.30072367e-04, -1.48424914e-03, -5.15795837e-04,
          1.47205556e-03, -3.43608874e-04, -2.46056297e-05,
          2.15150742e-03, 1.83722150e-04, 2.30526552e-04, 4.54151217e-04,
          -7.49678176e-04, -7.49560888e-04, 1.76824222e-04,
          -1.71216670e-03, 1.63599296e-04, 9.81033198e-04,
          -6.45313121e-04, 5.70768665e-04, -1.07500842e-03,
          -1.73787295e-04, -4.44454257e-04, -1.36715232e-03,
          5.00103488e-05, -6.35152173e-05, 6.77515694e-04,
          7.52591295e-04, 7.90342514e-04, -2.12043320e-04,
          -3.53320880e-04, -7.82438903e-04, -2.12864383e-04,
          -1.97221932e-04, 5.47360047e-04, 3.87822889e-04,
          -6.43375737e-04, 4.68392507e-04, -5.96428814e-04,
          -4.34829301e-04, -7.78689500e-05, 8.40890221e-04,
          4.00597142e-04, 2.84843583e-04, 2.22901552e-04, 4.71917185e-04,
          -5.26215299e-04, -8.04765208e-04, -7.03397149e-04,
          6.42832165e-05, 7.16888462e-05, -9.68317210e-04,
          8.30213190e-04, -1.40023098e-04, 6.94099581e-04,
          -3.67701985e-04, -1.85127812e-03, 4.74261207e-04,
          6.82826911e-04, 3.05514259e-04, -2.18986988e-05,
          -2.81865767e-04, 3.02188069e-04, 7.65887205e-04,
          4.64877114e-04, 1.49465617e-04, -1.40268370e-04,
          5.94145618e-04, -2.92671379e-04, -3.71002592e-04,
          -5.96743892e-04, 7.49380852e-04, 4.54525871e-04,
          6.31399977e-04, -1.09412649e-03, -5.41117479e-05,
          5.48801327e-04, -5.72302903e-04, -2.22780378e-04,
          3.05435591e-04, 3.30680545e-04, 4.45428632e-05, 9.18532198e-04,
          1.07269254e-04, -2.39245535e-04, -5.54494502e-04,
          -4.30795772e-04, 4.30746382e-04, 2.39234359e-04,
          1.76394897e-05, 5.72040968e-04, 4.00535268e-04,
          -6.25640037e-04, 7.65381788e-04, -1.70023835e-04,
          -1.34530070e-04, -8.60459055e-04, 9.51140595e-04,
          4.26982238e-04, 1.25533016e-03, 1.09445315e-03,
          -5.40481647e-04, -6.18365186e-04, -1.51381362e-03,
          -9.71870759e-05, -4.16535564e-04, -1.99095841e-04,
          5.60964982e-04, 4.64700075e-04, 1.64005527e-04,
          -3.43938125e-04, 2.14903426e-04, -2.70582445e-04,
          1.69346720e-04, 7.42652628e-04, -6.76306590e-05,
          -6.29225629e-04, 6.65888510e-05, 3.04491405e-04,
          8.25158204e-04, -6.16196892e-04, -7.46976701e-04,
          -8.22219590e-04, 7.45391357e-04, 2.63403723e-04,
          8.00484631e-05, 5.40475943e-04, -4.23787598e-04,
          6.33779506e-04, 1.90915918e-04, 5.45341056e-04,
          -7.63395874e-05, 4.07850239e-05, -3.01507738e-04,
          -6.58281497e-05, 1.01206017e-04, 1.26915576e-03,
          2.01563074e-04, 1.82880594e-05, 3.97899188e-04, 6.83742110e-05,
          7.22130178e-04, -5.27008378e-04, -3.16213001e-04,
          8.67138559e-04, -2.00103823e-04, 7.37749331e-04,
          -4.46407706e-04, -4.77779686e-04, 1.30879736e-04,
          3.78434997e-05, 5.65179327e-12, -1.57451725e-11,
          1.78492152e-11, 1.15535294e-18, 2.05659600e-18,
          -1.56379302e-11, -1.72593589e-11, -1.60984004e-11,
          1.23935558e-11, -1.17168055e-11, 1.93660123e-11,
          -3.80330316e-11, -2.40697618e-11, 4.95961293e-11,
          -1.27942448e-11, -1.27942448e-11, 1.39591030e-18,
          1.39591030e-18, 4.89923857e-18, 2.74779396e-12, 2.74779396e-12,
          4.86669776e-12, 4.86669776e-12, -3.26768473e-11,
          -3.06423767e-12, -1.35097628e-11, -1.35097628e-11,
          2.33450195e-12, 2.33450195e-12, -4.03344719e-12,
          -4.98055373e-19, -4.98055373e-19, -5.70279609e-13,
          8.80914265e-19, 8.80914265e-19, -4.71627945e-18,
          -4.71627945e-18, 5.86169724e-11, 5.86169724e-11,
          1.73233667e-11, 1.73233667e-11, -4.51801270e-11,
          -2.16041117e-12, 8.20605519e-18, 8.20605519e-18,
          -2.16879986e-11, -2.16879986e-11, 1.23871781e-11,
          1.23871781e-11, 6.03087458e-19, 1.47383733e-18, 1.47383733e-18,
          -3.14537216e-11, -3.37730473e-12, -3.37730473e-12,
          -6.28837260e-18, -1.68323827e-11, -1.68323827e-11,
          -4.81354843e-12, -3.61174849e-18, -3.61174849e-18,
          1.35525272e-19, 1.35525272e-19, -1.99899776e-19,
          -1.99899776e-19, -3.43001044e-11, -3.43001044e-11,
          2.32790662e-11, 2.32790662e-11, 8.33480420e-19, 8.33480420e-19,
          -4.92259254e-11, -1.29881536e-10, -1.29881536e-10,
          1.55020501e-13, -1.51110678e-18, -1.51110678e-18,
          1.07929325e-11, 1.07929325e-11, 8.74138002e-19, 8.74138002e-19,
          2.06282352e-11, 2.06282352e-11, -1.12639939e-10,
          -1.12639939e-10, -2.20157876e-13, -2.20157876e-13,
          -8.14491530e-12, -8.14491530e-12, -1.43141261e-12,
          -1.43141261e-12, 2.30903716e-11, 2.30903716e-11,
          2.83883962e-12, 2.83883962e-12, 2.33449978e-12, 2.33449978e-12,
          1.74149974e-18, 1.74149974e-18, 3.91668035e-18, 3.91668035e-18,
          2.29542184e-11, 2.29542184e-11, 3.57761368e-12,
          -1.16334043e-11, -1.16334043e-11, 2.22850015e-12,
          2.22850015e-12, 4.32057948e-12, 4.32057948e-12, 2.20869243e-11,
          2.20869243e-11, 3.45589442e-18, 3.45589442e-18,
          -8.04602478e-12, -8.04602478e-12, -1.85126550e-11,
          -1.82671304e-12, -1.82671304e-12, -3.51861660e-12,
          -3.51861660e-12, 1.91090633e-18, 1.91090633e-18,
          -3.95054163e-11, -3.95054163e-11, -2.64274280e-19,
          -2.64274280e-19, 3.24894417e-11, 3.24894417e-11,
          -2.14604853e-12, -2.14604853e-12, 1.53652752e-12,
          1.53652752e-12, 3.10265078e-11, 3.10265078e-11, 6.77626358e-19,
          6.77626358e-19, -6.39299768e-12, -6.39299768e-12,
          -1.94478765e-18, -1.94478765e-18, 7.45388994e-20,
          7.45388994e-20, -8.14985232e-12, -8.14985232e-12,
          1.51449491e-18, 1.51449491e-18, -2.81214938e-19,
          -5.05229192e-12, -5.05229192e-12, -4.39186292e-11,
          -4.39186292e-11, -9.19286348e-12, -9.19286348e-12,
          4.11338281e-12, 4.11338281e-12, 2.12774676e-18, 2.12774676e-18,
          3.18484388e-19, -2.22124905e-11, -2.22124905e-11,
          -6.82346757e-12, -6.82346757e-12, -2.49917882e-11,
          -2.49917882e-11, 8.74138002e-19, 8.74138002e-19,
          4.00172499e-11, 4.00172499e-11, 6.18840005e-12, 6.18840005e-12,
          1.64001382e-11, 1.64001382e-11, -1.25069130e-11,
          -1.25069130e-11, 8.57946266e-12, 8.57946266e-12,
          2.50390056e-11, 2.50390056e-11, -2.06006783e-12,
          -2.06006783e-12, -8.26410208e-12, -8.26410208e-12,
          1.69478841e-11, 1.69478841e-11, -2.07473674e-11,
          3.48299948e-18, 3.48299948e-18, -3.64251129e-11,
          -3.64251129e-11, 1.15237602e-11, 1.15237602e-11,
          5.47363153e-12, 5.47363153e-12, -5.03518095e-11,
          -5.03518095e-11, 1.28629182e-11, 1.28629182e-11,
          8.53062065e-12, 8.53062065e-12, 5.28548559e-19, 5.28548559e-19,
          -4.37746627e-18, -4.37746627e-18, -2.66731147e-12,
          -2.66731147e-12, 1.28074322e-11, 1.28074322e-11,
          1.54342372e-11, 1.54342372e-11, 6.45219381e-12, 6.45219381e-12,
          -6.01714295e-12, -6.01714295e-12, 2.29037709e-18,
          1.66447029e-13, 1.66447029e-13, 1.36591910e-11, 1.36591910e-11,
          1.52177715e-11, 1.52177715e-11, 1.13721940e-11, 1.13721940e-11,
          2.30948836e-11, 2.30948836e-11, -1.76403839e-11,
          -1.76403839e-11, -1.25527262e-11, -1.25527262e-11,
          -2.08370105e-18, -2.08370105e-18, -1.31024696e-11,
          -1.31024696e-11, -1.68010267e-12, -1.68010267e-12,
          1.49077799e-19, 1.49077799e-19, 3.70842038e-11, 3.70842038e-11,
          -1.42903224e-11, -1.42903224e-11, -6.32705823e-12,
          -6.32705823e-12, -1.04839713e-11, -1.04839713e-11,
          -3.07642366e-18, -3.07642366e-18, -6.06134413e-12,
          -9.38512506e-19, -9.38512506e-19, -5.39725735e-14,
          -5.39725735e-14, -1.87024875e-18, -1.87024875e-18,
          -7.73385175e-12, -7.73385175e-12, 1.62755562e-12,
          8.07030311e-12, 8.07030311e-12, -1.21295118e-18,
          -1.21295118e-18, -1.27875236e-11, -1.27875236e-11,
          -4.37069001e-19, -4.37069001e-19, -3.82858892e-19,
          -3.82858892e-19, 5.91328072e-12, 3.44383875e-12,
          3.44383875e-12, 1.26111586e-11, 1.26111586e-11,
          -3.49073687e-11, -3.49073687e-11, -4.56094060e-12,
          -4.56094060e-12, 2.35813973e-18, 2.35813973e-18,
          4.20932083e-12, -2.51922753e-11, -2.51922753e-11,
          -9.61638581e-12, -9.61638581e-12, -3.00127874e-11,
          -3.00127874e-11, 1.51449491e-18, 1.51449491e-18,
          -3.40527151e-12, -3.40527151e-12, 6.28528436e-12,
          6.28528436e-12, -3.52365706e-19, -3.52365706e-19,
          2.81553752e-18, 2.81553752e-18, 1.77161703e-12,
          -5.55096941e-11, -5.55096941e-11, 5.00808379e-13,
          5.00808379e-13, 4.75870385e-12, 4.75870385e-12,
          -1.38357589e-11, -1.38357589e-11, -2.61809446e-11,
          -2.61809446e-11, -6.34310616e-12, -6.34310616e-12,
          -1.29765448e-18, -1.29765448e-18, 7.97183066e-12,
          7.97183066e-12, 1.69240501e-12, 1.69240501e-12,
          -3.08521633e-12, -3.08521633e-12, 7.36897088e-12,
          -8.26065605e-12, -8.26065605e-12, 1.10230540e-11,
          1.10230540e-11, -1.35674839e-11, -1.35674839e-11,
          3.76429140e-12, 3.76429140e-12, -2.69883040e-11,
          8.97257366e-13, 8.97257366e-13, -2.75977696e-11,
          -2.75977696e-11, 4.54367230e-12, 4.54367230e-12,
          -7.72270962e-12, -7.72270962e-12, -7.29769804e-12,
          -7.29769804e-12, 7.11344005e-12, 7.11344005e-12,
          -9.88535035e-12, -9.88535035e-12, -1.38852870e-11,
          -1.38852870e-11, -1.41920815e-11, -1.41920815e-11,
          -1.01325493e-11, -1.01325493e-11, -1.27098332e-11,
          -1.27098332e-11, 7.79270311e-20, 7.79270311e-20,
          2.96461532e-19, 2.96461532e-19, -5.00352927e-12,
          -5.00352927e-12, 6.61258851e-12, 6.61258851e-12,
          1.28163513e-11, 1.28163513e-11, 1.13491378e-11, 1.13491378e-11,
          -4.15082899e-13, -4.15082899e-13, 1.18499446e-11,
          1.18499446e-11, 1.08426193e-11, 1.08426193e-11,
          -9.89113197e-13, -9.89113197e-13, 6.39396001e-12,
          6.39396001e-12, -7.08638963e-12, -7.08638963e-12,
          8.94317866e-12, 8.94317866e-12, -3.54027363e-11,
          -3.54027363e-11, 6.43250314e-11, 6.43250314e-11,
          -2.99847365e-12, -2.99847365e-12, -5.13487993e-12,
          -5.13487993e-12, 5.61914100e-12, 5.61914100e-12,
          2.52252021e-11, 1.12047246e-11, 1.12047246e-11, 1.15593706e-11,
          1.15593706e-11, 1.13784104e-11, 1.13784104e-11,
          -1.83241252e-11, -1.83241252e-11, -1.74790321e-11,
          -1.74790321e-11, 1.57283769e-11, 1.57283769e-11,
          -7.44182493e-12, -7.44182493e-12, -8.33480420e-19,
          -8.33480420e-19, -7.81225518e-12, -7.81225518e-12,
          8.18600049e-12, 8.18600049e-12, -2.04412962e-12,
          -2.04412962e-12, 9.37990744e-12, 9.37990744e-12,
          1.75166413e-18, 1.75166413e-18, -1.37990912e-11,
          -1.37990912e-11, 1.67964358e-11, 1.67964358e-11,
          6.33073021e-12, 6.33073021e-12, -1.86720344e-12,
          4.97126212e-12, 4.97126212e-12, 2.17100903e-12, 2.17100903e-12,
          -4.09567302e-12, -4.09567302e-12, 4.08269881e-19,
          4.08269881e-19, 1.68684186e-12, 1.68684186e-12, 2.13807791e-12,
          2.13807791e-12, 8.99548990e-19, 8.99548990e-19,
          -1.07985348e-11, -1.07985348e-11, 1.10033970e-11,
          1.10033970e-11, -1.91814897e-11, -1.91814897e-11,
          -6.85382697e-12, -6.85382697e-12, -3.03380515e-11,
          -3.03380515e-11, 6.76482611e-12, 6.76482611e-12,
          -5.57167420e-12, -5.57167420e-12, 1.56870502e-18,
          1.56870502e-18, 1.77490418e-11, -4.59919949e-12,
          -4.59919949e-12, 1.06440876e-12, 1.06440876e-12,
          2.29037709e-18, 2.29037709e-18, -8.03224934e-12,
          -8.03224934e-12, 1.15760559e-12, 1.15760559e-12,
          -7.40482675e-12, -7.40482675e-12, 5.75982404e-20,
          5.75982404e-20, -4.80883822e-12, -4.80883822e-12,
          -7.04062642e-11, -7.04062642e-11, 1.06034417e-11,
          1.06034417e-11, 7.50919032e-12, 7.50919032e-12,
          -2.18621258e-12, -2.18621258e-12, -1.83333973e-11,
          -1.83333973e-11, -1.43826194e-18, -1.43826194e-18,
          1.25835011e-11, 6.45967351e-12, 6.45967351e-12,
          -1.15830635e-11, -1.15830635e-11, 1.02440756e-12,
          1.02440756e-12, 6.42264930e-12, -2.74303132e-11,
          -2.74303132e-11, -6.70217788e-13, -6.70217788e-13,
          1.04433424e-11, 1.04433424e-11, 3.91164705e-12, 3.91164705e-12,
          3.73033310e-18, 3.73033310e-18, 1.23708791e-12,
          -1.26296402e-12, -1.26296402e-12, -1.31798327e-18,
          -1.31798327e-18, -6.52906765e-12, -6.52906765e-12,
          -5.42101086e-20, -5.42101086e-20, -1.70720799e-11,
          -1.70720799e-11, 7.99559464e-12, 7.99559464e-12,
          1.40873438e-13, 1.40873438e-13, -1.82149712e-11,
          -1.82149712e-11, 1.48663668e-11, 1.48663668e-11,
          1.61270233e-11, 1.61270233e-11, 1.82569151e-12, 1.82569151e-12,
          -1.12394174e-11, -1.12394174e-11, -1.17302513e-11,
          -1.17302513e-11, 1.08958448e-12, 1.08958448e-12,
          3.20802898e-11, 3.20802898e-11, 2.80967489e-11, 1.97928410e-11,
          1.97928410e-11, 1.57496776e-11, 1.57496776e-11,
          -8.95366333e-12, -8.95366333e-12, 1.00252636e-11,
          1.00252636e-11, -2.10271796e-13, -2.10271796e-13,
          8.94187762e-12, 8.94187762e-12, 2.78681245e-11, 2.78681245e-11,
          -2.23134727e-12, -2.23134727e-12, -1.45905406e-11,
          -1.45905406e-11, -4.31437828e-12, -4.31437828e-12,
          -7.92067692e-13, -7.92067692e-13, 1.35148472e-11,
          1.35148472e-11, 4.11684489e-12, 4.11684489e-12,
          -7.23366137e-19, -7.23366137e-19, -3.67291267e-12,
          -3.67291267e-12, -5.00511004e-12, -5.00511004e-12,
          -1.81007258e-11, -1.81007258e-11, 1.81010901e-11,
          1.81010901e-11, -3.81631315e-12, -3.81631315e-12,
          1.40808719e-11, 1.40808719e-11, -2.06125004e-12,
          -2.06125004e-12, 1.18570008e-12, 1.18570008e-12,
          -4.65994376e-13, 8.36146083e-12, 8.36146083e-12,
          -2.88388627e-12, -2.88388627e-12, 1.51746313e-12,
          1.51746313e-12, 2.47597481e-11, 2.47597481e-11,
          -8.15426882e-13, -8.15426882e-13, -6.00281587e-12,
          -6.00281587e-12, -7.47989344e-12, -7.47989344e-12,
          -5.34251159e-12, -5.34251159e-12, -8.76479184e-12,
          -8.76479184e-12, -1.70611667e-11, -1.70611667e-11,
          1.67163603e-12, 1.67163603e-12, 3.39527365e-11, 3.39527365e-11,
          9.19978243e-12, 9.19978243e-12, -4.20026210e-13,
          -4.20026210e-13, 2.63990761e-12, 2.63990761e-12,
          7.22127870e-12, 7.22127870e-12, -2.89851511e-11,
          -2.89851511e-11, 6.51092678e-12, 6.51092678e-12,
          -1.72947073e-12, -1.72947073e-12, -8.86204575e-13,
          -2.55988438e-12, -2.55988438e-12, -4.91883823e-13,
          -4.91883823e-13, -2.02378695e-12, -2.02378695e-12,
          -1.02918602e-11, -1.02918602e-11, -4.36453582e-11,
          -4.36453582e-11, 6.61405934e-13, 1.74701174e-11,
          1.74701174e-11, 8.45972944e-12, 8.45972944e-12,
          -1.27637180e-11, -1.27637180e-11, 1.95039492e-12,
          1.95039492e-12, 1.12655382e-19, 1.12655382e-19,
          -2.09116179e-11, -2.09116179e-11, -2.93565389e-12,
          -2.93565389e-12, -1.46875513e-18, -1.46875513e-18,
          -8.74070087e-12, -8.74070087e-12, 7.26389391e-12,
          7.26389391e-12, 4.92117631e-12, 4.92117631e-12,
          -2.29185312e-12, -2.29185312e-12, -1.12930897e-11,
          -1.12930897e-11, 1.06969008e-11, 1.06969008e-11,
          -3.30342849e-19, -3.30342849e-19, 3.45869248e-13,
          3.45869248e-13, 1.88214613e-12, 1.88214613e-12,
          -4.52724707e-12, -4.52724707e-12, -1.26457492e-12,
          -1.26457492e-12, -1.33923827e-11, -1.33923827e-11,
          -1.58247252e-11, -1.58247252e-11, 1.64500878e-11,
          1.64500878e-11, -1.07046906e-11, -1.07046906e-11,
          -1.53036915e-12, -1.53036915e-12, -3.81099666e-11,
          1.39508214e-11, 1.39508214e-11, -7.51803828e-12,
          -7.51803828e-12, 8.51444262e-12, 8.51444262e-12,
          1.00795561e-11, 1.00795561e-11, 5.01256675e-12, 5.01256675e-12,
          -1.58784769e-12, -1.58784769e-12, -4.53810080e-12,
          -4.53810080e-12, -3.17255076e-11, -3.17255076e-11,
          -1.37017776e-11, -1.37017776e-11, -1.11546892e-11,
          -3.25782392e-12, -3.25782392e-12, -8.94160527e-12,
          -8.94160527e-12, -1.32201422e-12, -1.32201422e-12,
          1.56001930e-11, 1.56001930e-11, 1.90368346e-11, 1.90368346e-11,
          -3.94885470e-12, -3.94885470e-12, -2.79520873e-19,
          -2.79520873e-19, -6.02351827e-13, -6.02351827e-13,
          -3.01747256e-12, -3.01747256e-12, 3.78152327e-12,
          -3.68997541e-12, -3.68997541e-12, -6.60366184e-13,
          -6.60366184e-13, 1.53560801e-12, 1.53560801e-12,
          -8.47032947e-19, -8.47032947e-19, 7.05108064e-12,
          7.05108064e-12, -1.11998189e-11, -1.11998189e-11,
          2.76455356e-12, 2.76455356e-12, -6.28051994e-12,
          -6.28051994e-12, 6.88730930e-12, 6.88730930e-12,
          2.49874719e-19, 2.49874719e-19, -4.03225934e-12,
          -4.03225934e-12, 1.90098957e-12, 1.90098957e-12,
          3.64224167e-19, 3.64224167e-19, -6.03934491e-19,
          -6.03934491e-19, -8.55838295e-13, 4.40596604e-12,
          4.40596604e-12, 1.94669476e-12, 1.94669476e-12, 1.18996219e-12,
          -1.12312850e-12, -1.12312850e-12, -7.58464905e-12,
          -2.43306573e-11, -2.43306573e-11, -3.16388083e-12,
          -3.16388083e-12, 2.64670881e-12, 2.64670881e-12,
          -3.16610193e-12, -3.16610193e-12, 2.54514671e-13,
          2.54514671e-13, 1.31521703e-11, 1.31521703e-11, 1.99928464e-12,
          1.99928464e-12, -7.91431243e-12, -7.91431243e-12,
          1.00721341e-11, -2.84265905e-12, -2.84265905e-12,
          5.42101086e-19, 5.42101086e-19, -1.29667509e-11,
          -1.29667509e-11, -9.41900637e-19, -9.41900637e-19,
          -7.82635350e-13, -6.53777553e-12, -6.53777553e-12,
          3.91854474e-12, 3.91854474e-12, -8.34718926e-12,
          -8.34718926e-12, -1.46345314e-11, 1.05704742e-11,
          1.05704742e-11, 3.23190628e-12, 3.23190628e-12,
          -3.11708125e-19, -3.11708125e-19, -6.22169590e-12,
          -6.22169590e-12, 5.18500824e-12, 5.18500824e-12,
          6.61576436e-12, 6.61576436e-12, 1.10646449e-11, 1.10646449e-11,
          2.16449818e-12, 2.16449818e-12, -3.78360433e-11,
          -3.78360433e-11, 1.46982448e-12, 1.46982448e-12,
          -5.57287549e-12, -5.57287549e-12, -1.56773574e-12,
          -1.56773574e-12, -3.28648784e-19, -3.28648784e-19,
          -6.87969863e-12, -2.62343480e-11, -2.62343480e-11,
          -2.49521757e-12, -2.49521757e-12, 6.00131164e-13,
          6.00131164e-13, -3.66389471e-12, -3.66389471e-12,
          -4.52695742e-13, -4.52695742e-13, -7.91107021e-14,
          -1.51194005e-11, -1.51194005e-11, -8.56215110e-13,
          -8.56215110e-13, -3.06880519e-12, -3.06880519e-12,
          1.08966516e-11, 1.08966516e-11, -1.19389492e-12,
          -1.19389492e-12, 2.72908887e-12, 2.72908887e-12,
          -1.78430122e-12, -1.78430122e-12, -9.48117366e-12,
          -9.48117366e-12, 1.96104526e-12, 1.96104526e-12,
          -1.02266277e-11, -1.02266277e-11, 2.18792432e-11,
          2.18792432e-11, 2.42202976e-11, 2.42202976e-11, 1.07299217e-12,
          1.07299217e-12, 5.67919626e-12, -6.53023317e-13,
          -6.98802181e-19, -6.98802181e-19, -2.77995563e-13,
          -2.77995563e-13, 2.69356477e-19, 2.69356477e-19,
          -2.32997595e-13, -2.32997595e-13, 8.94403204e-13,
          8.94403204e-13, -1.26959240e-12, -1.26959240e-12,
          6.73618062e-12, 6.73618062e-12, 2.93920433e-19, 2.93920433e-19,
          1.53036915e-12, 1.53036915e-12, -1.95020887e-12,
          -1.95020887e-12, -8.31190672e-12, -8.31190672e-12,
          6.28395036e-12, 6.28395036e-12, 2.24476687e-11, 2.24476687e-11,
          4.66179959e-12, 4.66179959e-12, 2.73366520e-11, 2.73366520e-11,
          -1.92774811e-12, -1.92774811e-12, 8.90153131e-13,
          8.90153131e-13, 4.35667041e-12, 4.35667041e-12, 5.55171631e-13,
          5.55171631e-13, -4.30732099e-12, 5.37718004e-12,
          5.37718004e-12, 8.00916885e-12, 8.00916885e-12, 3.26954718e-19,
          3.26954718e-19, -6.21249742e-13, -6.21249742e-13,
          4.13986553e-13, 4.13986553e-13, 5.98527434e-12, 5.98527434e-12,
          -3.47556836e-12, -3.47556836e-12, 1.10741121e-11,
          -1.67280241e-12, -1.67280241e-12, 4.90691342e-12,
          4.90691342e-12, 3.89338475e-12, 3.89338475e-12,
          -4.50744216e-12, -6.15153024e-12, -6.15153024e-12,
          -5.73109312e-12, -5.73109312e-12, -5.23420933e-12,
          -5.23420933e-12, 6.47206247e-12, 6.47206247e-12,
          -3.64406031e-12, -6.35867010e-12, -6.35867010e-12,
          6.59165778e-12, 6.59165778e-12, -1.08430940e-12,
          -1.08430940e-12, -1.43007568e-11, -1.43007568e-11,
          -1.44924502e-12, -1.44924502e-12, -2.02378695e-12,
          -2.02378695e-12, -2.10013227e-13, -2.10013227e-13,
          -4.65381900e-12, -4.65381900e-12, -1.63237965e-11,
          -9.97056062e-13, -9.97056062e-13, 1.28348916e-12,
          1.28348916e-12, 3.83632709e-12, 3.83632709e-12, 1.24049347e-11,
          -3.49930783e-12, -3.49930783e-12, 2.34254998e-12,
          2.34254998e-12, -1.53036882e-12, -1.53036882e-12,
          -8.67088779e-12, -5.88687898e-19, -5.88687898e-19,
          5.48030317e-19, 5.48030317e-19, -4.63261504e-12,
          -4.63261504e-12, 3.90948341e-12, 3.90948341e-12,
          1.27292257e-11, 1.27292257e-11, 3.89219863e-12, 3.89219863e-12,
          -3.31363409e-12, -3.31363409e-12, -7.91106140e-14,
          -7.91106140e-14, -4.77682607e-12, -4.77682607e-12,
          1.25898489e-12, 1.25898489e-12, -5.50119412e-12,
          -5.50119412e-12, -7.31059690e-13, -7.31059690e-13,
          -4.68563903e-12, -4.68563903e-12, -2.52589095e-12,
          -2.52589095e-12, 4.59938890e-19, 4.59938890e-19,
          4.46985244e-12, 4.46985244e-12, -1.54247622e-12,
          -1.54247622e-12, -6.18879470e-12, -6.18879470e-12,
          -1.08723707e-12, -1.08723707e-12, 2.36775226e-12,
          -4.22187632e-12, -4.22187632e-12, -3.63250527e-13,
          -3.63250527e-13, 5.99729381e-12, 5.99729381e-12,
          2.12281820e-12, 2.12281820e-12, -2.22806680e-14,
          -2.22806680e-14, 2.89685268e-19, 2.89685268e-19,
          9.12457783e-12, 9.12457783e-12, -1.03951515e-12,
          -1.03951515e-12, 7.05304521e-13, 7.05304521e-13,
          -8.51068608e-12, -8.51068608e-12, -2.17044828e-12,
          2.17923509e-12, 2.17923509e-12, 4.18115455e-12, 4.18115455e-12,
          5.56520108e-12, 5.56520108e-12, 2.56805666e-12, 2.56805666e-12,
          -1.33376567e-12, -1.33376567e-12, -2.28116137e-12,
          -2.28116137e-12, 5.96311195e-19, 3.33938628e-12,
          3.33938628e-12, -3.78710561e-12, -3.78710561e-12,
          2.21401174e-12, 2.21401174e-12, 5.94652366e-12, 5.94652366e-12,
          -1.39606798e-11, -1.39606798e-11, -1.47015477e-14,
          -1.47015477e-14, -5.04249854e-12, -5.04249854e-12,
          -5.15351997e-12, -5.15351997e-12, 3.02208280e-12,
          3.02208280e-12, 1.33084109e-13, 1.33084109e-13,
          -2.61585675e-13, -2.61585675e-13, 9.01610470e-12,
          9.01610470e-12, -3.56262112e-12, -3.56262112e-12,
          1.07361836e-11, 1.07361836e-11, 2.10013159e-13, 2.10013159e-13,
          -9.41072632e-13, -9.41072632e-13, 1.69626921e-12,
          1.69626921e-12, 1.42433626e-11, 1.42433626e-11, 6.37053751e-14,
          6.37053751e-14, -4.31233911e-12, -4.31233911e-12,
          1.83088917e-12, 1.83088917e-12, 3.43474029e-13, 3.43474029e-13,
          -4.82741939e-13, -4.82741939e-13, -4.11893826e-12,
          -4.11893826e-12, 3.06636812e-12, 3.06636812e-12,
          3.11498570e-12, 3.11498570e-12, 3.13164859e-13, 3.13164859e-13,
          8.72443936e-20, 8.72443936e-20, 6.95414050e-19, 6.95414050e-19,
          4.69187796e-12, 4.69187796e-12, -3.53641161e-12,
          -3.53641161e-12, 1.32302006e-13, 1.32302006e-13,
          7.65184465e-13, 7.65184465e-13, 1.18854492e-11, 1.18854492e-11,
          -2.07297591e-12, -2.07297591e-12, 9.06571801e-13,
          9.06571801e-13, -1.22212657e-12, -1.22212657e-12,
          -5.11801148e-12, -5.11801148e-12, -2.18805375e-13,
          -2.18805375e-13, 7.65274725e-13, 7.65274725e-13,
          1.16498648e-13, 1.16498648e-13, 1.67712524e-19, 1.67712524e-19,
          -4.63062011e-12, -4.63062011e-12, 3.37130367e-12,
          3.37130367e-12, 4.83285243e-12, 4.83285243e-12, 4.14886441e-12,
          4.14886441e-12, 6.72521414e-12, 6.72521414e-12, 3.26427318e-12,
          3.26427318e-12, 4.20696599e-13, 2.66948486e-12,
          -2.44289896e-12, -2.44289896e-12, -7.21494262e-12,
          -7.21494262e-12, 6.49674271e-19, 6.49674271e-19,
          1.05879118e-19, 1.05879118e-19, -3.71913047e-12,
          -3.71913047e-12, 8.96756020e-12, 8.96756020e-12,
          8.30589883e-13, 8.30589883e-13, -4.30938835e-12,
          -4.30938835e-12, 3.64224167e-19, 3.64224167e-19,
          2.08628752e-12, 2.08628752e-12, 1.48618433e-12, 1.48618433e-12,
          2.76504297e-12, 2.76504297e-12, 7.61718032e-12, 7.61718032e-12,
          -1.71849980e-12, -1.71849980e-12, -4.06575815e-20,
          -4.06575815e-20, 3.56688247e-12, 3.56688247e-12,
          1.59116882e-12, 1.59116882e-12, 5.36391287e-12, 5.36391287e-12,
          1.08946376e-11, 1.08946376e-11, -2.00167573e-12,
          -2.00167573e-12, -5.38614682e-12, -5.38614682e-12,
          5.52812245e-13, 5.52812245e-13, -4.65440837e-12,
          -4.65440837e-12, -2.46730631e-12, -2.46730631e-12,
          7.44378517e-12, 7.44378517e-12, -9.44811503e-12,
          -9.44811503e-12, 1.32846230e-12, 1.32846230e-12,
          -3.41659947e-12, -3.41659947e-12, 2.91379334e-19,
          2.91379334e-19, 2.25278953e-12, 2.25278953e-12,
          -5.58353114e-13, -5.58353114e-13, 3.23808471e-12,
          3.23808471e-12, 2.10012807e-13, 2.10012807e-13,
          -1.16800744e-11, -1.16800744e-11, 2.99328552e-12,
          2.99328552e-12, 3.26531201e-19, 3.26531201e-19,
          -9.23265913e-20, -9.23265913e-20, 6.13315659e-13,
          6.13315659e-13, -2.25975944e-12, -2.17592003e-12,
          -2.17592003e-12, 3.24354736e-12, 3.24354736e-12,
          1.13635609e-12, 1.13635609e-12, 1.58887131e-13, 1.58887131e-13,
          8.33934538e-13, 8.33934538e-13, 1.08467445e-12, 1.08467445e-12,
          3.06656046e-12, 3.06656046e-12, 4.39851985e-13, 4.39851985e-13,
          3.06751391e-12, 3.06751391e-12, 2.46509237e-12, 2.46509237e-12,
          -2.99263739e-12, -2.99263739e-12, 2.58528767e-12,
          4.68904950e-12, 4.68904950e-12, -1.64125848e-11,
          -1.64125848e-11, 1.87642285e-12, 1.87642285e-12,
          -2.79505607e-12, -2.79505607e-12, -9.35410386e-13,
          -9.35410386e-13, -2.67151176e-14, -2.67151176e-14,
          -2.44397493e-12, -2.44397493e-12, 6.33689151e-12,
          6.33689151e-12, 2.19931972e-12, 2.19931972e-12, 1.24045999e-12,
          7.79658131e-13, 7.79658131e-13, 2.28698896e-20, 2.28698896e-20,
          -7.65184140e-13, -7.65184140e-13, 6.11258396e-12,
          6.11258396e-12, 9.88717008e-12, 9.88717008e-12,
          -8.40158498e-12, -8.40158498e-12, -5.30517297e-12,
          1.23119505e-12, 1.23119505e-12, 1.33663927e-13, 1.33663927e-13,
          -4.63355960e-12, -4.63355960e-12, 1.04978986e-11,
          1.04978986e-11, 1.87868623e-12, 1.87868623e-12, 2.71630201e-12,
          2.71630201e-12, -3.39342649e-13, -3.39342649e-13,
          -1.17737580e-19, -1.17737580e-19, -6.11166803e-12,
          -6.11166803e-12, -3.91152605e-12, -3.91152605e-12,
          -1.03157381e-12, -1.03157381e-12, 6.05116651e-13,
          2.93907173e-12, 2.93907173e-12, -6.88487071e-12,
          -6.88487071e-12, -1.09992690e-12, -1.09992690e-12,
          6.90937162e-13, 6.90937162e-13, 1.95736569e-12, 1.95736569e-12,
          6.47980205e-20, 6.47980205e-20, 2.45547528e-12, 2.45547528e-12,
          5.52158232e-12, 5.52158232e-12, -3.24697127e-12,
          -3.24697127e-12, 1.22894782e-12, 1.22894782e-12,
          -8.73921074e-12, -8.73921074e-12, -1.16498703e-13,
          -1.16498703e-13, 1.86111404e-11, 1.86111404e-11,
          1.55594103e-12, 1.55594103e-12, -4.33996198e-12,
          -4.33996198e-12, -1.54417961e-12, 2.87941611e-12,
          2.87941611e-12, 4.13879781e-12, 4.13879781e-12, 1.10665318e-12,
          1.10665318e-12, -2.79390378e-12, -2.79390378e-12,
          -4.31397919e-13, -4.31397919e-13, 5.18218687e-14,
          5.18218687e-14, 3.60729328e-12, 3.60729328e-12,
          -9.60577364e-12, -9.60577364e-12, 4.32681104e-12,
          4.32681104e-12, 1.62377707e-13, 1.62377707e-13,
          -1.34604437e-11, -1.34604437e-11, -3.24466582e-12,
          -3.24466582e-12, 1.62969128e-12, 1.62969128e-12,
          1.37852609e-12, 1.37852609e-12, -2.10505745e-12,
          -2.10505745e-12, -1.09617124e-11, -1.09617124e-11,
          1.44495041e-11, 1.44495041e-11, 5.12905517e-12, 5.12905517e-12,
          9.24717388e-14, 9.24717388e-14, -1.01584572e-12,
          -1.01584572e-12, -8.39035384e-13, -8.39035384e-13,
          2.56704076e-12, 2.56704076e-12, 4.49326730e-12, 4.49326730e-12,
          1.04608569e-19, 1.04608569e-19, 3.23649354e-12, 3.23649354e-12,
          -4.52570707e-12, -4.52570707e-12, 7.96813245e-13,
          7.96813245e-13, -1.25648910e-11, -1.25648910e-11,
          2.01869511e-12, 2.01869511e-12, 1.66018458e-19, 1.66018458e-19,
          2.88081841e-12, 1.12755866e-12, 1.12755866e-12,
          -7.65448468e-12, -7.65448468e-12, -1.44395791e-12,
          -1.44395791e-12, -6.77430280e-13, -6.77430280e-13,
          -2.53047713e-12, -2.53047713e-12, -6.31373588e-13,
          -6.31373588e-13, 9.93119215e-13, 9.93119215e-13,
          -1.35802101e-12, -1.35802101e-12, -4.23100953e-13,
          -4.23100953e-13, 3.94271936e-13, 3.94271936e-13,
          -3.58329604e-13, -3.58329604e-13, -1.92318514e-12,
          -1.92318514e-12, -1.84791229e-13, -1.84791229e-13,
          1.54906589e-12, 1.54906589e-12, 1.81360699e-12, 1.81360699e-12,
          -1.23061977e-12, -1.23061977e-12, -7.31189523e-13,
          -3.24640878e-12, -3.24640878e-12, -3.84467111e-12,
          -3.84467111e-12, 2.83367210e-12, 2.83367210e-12,
          -8.26289774e-13, -8.26289774e-13, -3.54225682e-13,
          -3.54225682e-13, -5.92923063e-21, -5.92923063e-21,
          -3.45488894e-12, -3.45488894e-12, 3.85823507e-19,
          3.85823507e-19, 1.94369802e-12, 6.81861523e-20, 6.81861523e-20,
          -1.07605038e-12, -1.07605038e-12, -7.22026659e-13,
          -7.22026659e-13, -5.31988299e-12, -5.31988299e-12,
          -5.91470232e-12, -5.91470232e-12, -3.59448343e-12,
          -3.59448343e-12, -1.95821983e-13, 2.11081977e-12,
          2.11081977e-12, -3.43474679e-13, -3.43474679e-13,
          -2.04607923e-13, -2.04607923e-13, 1.68983073e-19,
          1.68983073e-19, -1.21911270e-12, -1.21911270e-12,
          5.70659232e-12, 5.70659232e-12, -2.72948547e-12,
          -2.72948547e-12, 1.85756814e-12, 1.85756814e-12,
          -5.81339230e-12, -5.81339230e-12, -5.58088645e-12,
          -5.58088645e-12, 1.02914503e-19, 5.08219768e-21,
          5.08219768e-21, -5.78062554e-12, -5.78062554e-12,
          4.78949866e-12, 3.19331421e-19, 3.19331421e-19,
          -8.28591536e-12, -8.28591536e-12, -3.84947152e-12,
          -3.84947152e-12, 5.80129130e-12, 5.80129130e-12,
          6.09972272e-12, 6.09972272e-12, -4.09924482e-13,
          -4.09924482e-13, -3.93370969e-12, -3.93370969e-12,
          2.19340344e-12, 2.19340344e-12, -1.02030938e-12,
          -1.02030938e-12, -1.05006295e-13, -1.05006295e-13,
          -2.33145615e-13, -2.33145615e-13, -6.62382302e-12,
          -3.13185220e-12, -3.13185220e-12, 9.23378236e-13,
          9.23378236e-13, -1.18966631e-12, -1.18966631e-12,
          -1.37042613e-12, -1.37042613e-12, -4.12155596e-12,
          -4.12155596e-12, -4.02216108e-12, -4.02216108e-12,
          2.08260080e-12, 2.08260080e-12, -1.09267250e-19,
          -1.09267250e-19, 3.47979783e-13, 3.47979783e-13,
          -6.85273995e-13, -6.85273995e-13, 1.02578222e-12,
          1.02578222e-12, -4.69077511e-12, -4.69077511e-12,
          2.04033752e-11, 2.04033752e-11, 2.20497015e-12, 2.20497015e-12,
          -5.28012692e-13, -5.28012692e-13, 7.00632315e-13,
          7.00632315e-13, 1.84058454e-12, 1.84058454e-12,
          -1.79628914e-12, -2.67050618e-12, -2.67050618e-12,
          -3.86086866e-12, -3.86086866e-12, -1.01053263e-11,
          -1.01053263e-11, -3.92075348e-12, -3.92075348e-12,
          9.78546020e-13, 9.78546020e-13 ]
   uncompressed_sv_total: 86
   uncompressed_support_vectors:
      - [ -9.28993073e+01, 5.39778481e+01, 2.80197191e+00,
          -2.17849064e+00, -1.29432917e+01, -5.26091576e+01,
          2.50335293e+01, -1.94194012e+01, -1.08302834e+02,
          -2.17248964e+00, 6.49992065e+01, -1.10440416e+01,
          1.58997498e+01, 4.89926033e+01, 1.53955679e+01, 2.69526176e+01,
          3.03853779e+01, 2.72426262e+01, -1.17329502e+01,
          4.02971992e+01, 3.24637299e+01, -4.81005020e+01,
          -5.39995098e+00, 1.99024067e+01, 1.95955026e+00,
          4.25856209e+01, -1.22502556e+01, 1.53515596e+01,
          2.18060551e+01, 4.08118324e+01, -2.50028572e+01,
          1.45521269e+01, -1.05358458e+01, 4.82736168e+01,
          1.82587109e+01, -1.93203697e+01, 1.68119965e+01,
          -1.22166586e+01, -1.94356289e+01, 2.71107578e+01,
          -1.68250790e+01, -3.80830383e+01, -1.89830246e+01,
          -5.27637053e+00, -3.05714245e+01, -2.65163851e+00,
          2.54715824e+01, -3.30865402e+01, -1.91022587e+01,
          -1.11674280e+01, 2.01741581e+01, 5.87451518e-01,
          -1.21742308e+00, -1.53134956e+01, 1.15948944e+01,
          -1.33889933e+01, 3.26018047e+00, -3.35422096e+01,
          1.11460085e+01, -2.93315125e+01, 1.59387836e+01,
          -2.12314491e+01, 1.95728931e+01, 9.84436989e-01,
          -4.51547241e+00, -1.42867575e+01, 2.39038448e+01,
          -1.29388971e+01, -2.43212395e+01, 1.02035894e+01,
          2.13472366e+00, -2.10669308e+01, 6.24162388e+00,
          2.17156982e+01, -2.09538746e+01, -1.18980045e+01,
          2.25068417e+01, -5.01933956e+00, -1.75967007e+01,
          1.55733907e+00, 4.22369957e+00, -1.66148269e+00,
          7.85518026e+00, 2.99833083e+00, -6.14799833e+00,
          -2.43792248e+01, 7.76574373e+00, 1.74041119e+01,
          -8.48237610e+00, 7.66502047e+00, -9.44367695e+00,
          3.48966646e+00, 2.70306230e+00, -1.78641262e+01,
          -3.42741661e+01, -5.31905222e+00, 7.03849173e+00,
          -2.07838402e+01, -1.21427202e+01, 2.23236752e+01,
          5.86235583e-01, 2.28837562e+00, 3.44482374e+00,
          -1.67781830e+01, 6.88384724e+00, -6.57468033e+00,
          4.11735296e+00, 1.66361351e+01, -4.57647181e+00,
          3.99030900e+00, -1.99002705e+01, 2.78329544e+01,
          -2.22831097e+01, 1.61554070e+01, -4.26893950e+00,
          -2.87117529e+00, -8.65548992e+00, -7.98224020e+00,
          -1.75109444e+01, -1.33201208e+01, 4.77218479e-01,
          -1.03696451e+01, 6.77884674e+00, 2.03141689e+01,
          4.93247271e+00, -3.14114833e+00, 1.08649511e+01,
          1.11217985e+01, -1.16522179e+01, 2.28524780e+01,
          -3.98347569e+00, 1.21735203e+00, 6.34390068e+00,
          4.24791002e+00, -2.14154739e+01, -6.06090736e+00,
          1.46990719e+01, -8.14217663e+00, -1.25648367e+00,
          -5.77171946e+00, -1.05918646e+01, 1.16605892e+01,
          -1.61252961e-01, 1.46844835e+01, 1.53272648e+01,
          -5.04043055e+00, -7.86774588e+00, 8.74078846e+00,
          -2.41505218e+00, -1.39541130e+01, 6.17180204e+00,
          -4.10595465e+00, 1.44382071e+00, 1.09650974e+01,
          -3.26012492e+00, 8.09883022e+00, -1.95157204e+01,
          4.21193743e+00, 1.01010342e+01, -1.06877441e+01,
          6.11569929e+00, 6.70152187e+00, 4.70540404e-01,
          -1.16215343e+01, 3.52319217e+00, 7.25568056e+00,
          4.08102846e+00, -1.84878864e+01, -7.05299139e-01,
          1.05533695e+01, 4.63145065e+00, -4.20108747e+00,
          9.29590034e+00, 1.26940951e-01, -5.75344419e+00,
          9.28716183e+00, 1.47202387e+01, 5.46424007e+00, 6.46628809e+00,
          -2.52907963e+01, 2.21976304e+00, 1.56477041e+01,
          -7.87797308e+00, 1.03464155e+01, 6.79640436e+00,
          3.53476977e+00, -2.89026165e+00, -1.09186542e+00,
          -3.79511166e+00, -9.70335197e+00, 4.03610563e+00,
          2.28544146e-01, 7.21738148e+00, 8.88850307e+00,
          -2.49617195e+00, 1.25930542e-02, 1.84825897e+00,
          -4.79458714e+00, 8.84192181e+00, 9.80007935e+00,
          3.31959367e+00, 2.42509422e+01, 1.07507849e+01, 3.28561354e+00,
          1.25841913e+01, -3.04971933e+00, -3.57060504e+00,
          -6.34795666e+00, 2.17196631e+00, 2.34630895e+00,
          -7.30240345e+00, 7.41713715e+00, -2.66179395e+00,
          -2.75608706e+00, -4.48268604e+00, -1.19777937e+01,
          -2.65005279e+00, 9.42576122e+00, -5.81604481e+00,
          7.54886723e+00, 2.04720044e+00, -5.72192430e+00,
          -5.32335758e+00, 6.55722570e+00, 4.05730629e+00,
          1.41591406e+01, 3.41241574e+00, 3.36734819e+00, 1.32375422e+01,
          9.62924004e+00, 1.34540911e+01, -9.57258320e+00,
          6.16479206e+00, -1.80019131e+01, -7.47147799e+00,
          1.65716248e+01, 5.34185076e+00, -1.11232347e+01,
          6.12556458e+00, -1.14228249e+00, -9.61455226e-01,
          6.68456614e-01, -1.55142164e+01, 4.81349140e-01,
          -1.76431427e+01, 4.29383707e+00, 8.35520804e-01,
          -7.51591396e+00, 2.81738114e+00, 5.86327851e-01,
          -1.25743208e+01, -1.09139109e+01, 9.61734295e+00,
          7.69911230e-01, 3.06384254e+00, -1.05006113e+01,
          1.23625975e+01, -1.42406225e+01, -9.84117603e+00,
          -4.72962236e+00, -8.75213265e-01, -9.50845242e+00,
          4.75009727e+00, -7.42310810e+00, 3.18659544e+00,
          1.00375426e+00, -4.84114742e+00, -5.53147173e+00,
          -5.75758743e+00, 3.42339373e+00, -5.74527597e+00,
          2.89519936e-01, 2.65565562e+00, -1.09375029e+01,
          1.92366295e+01, 7.74099445e+00, 1.01035910e+01,
          -1.09924850e+01, 4.53806257e+00, 2.41186595e+00,
          7.07063451e-02, -4.60934877e+00, 1.10291958e+01,
          5.84395027e+00, -4.77152300e+00, 2.50646400e+00,
          -1.31517963e+01, -3.01906872e+00, -1.53496945e+00,
          1.12412996e+01, 1.05845346e+01, -1.08779221e+01,
          -2.59013343e+00, 4.78988600e+00, -5.01198101e+00,
          -6.20874357e+00, 7.22914982e+00, -6.19186068e+00,
          -7.10596263e-01, -1.96850300e-01, -6.98114204e+00,
          3.27478945e-01, 1.41676273e+01, 1.28408384e+01,
          -9.68039703e+00, 6.66494322e+00, 7.93006039e+00,
          1.37334404e+01, 3.96822184e-01, -1.61261511e+00,
          -5.61533499e+00, -1.78393722e+00, 8.06819725e+00,
          -1.32094536e+01, 5.29448271e-01, 7.51227903e+00,
          6.50417328e+00, 6.37051201e+00, -2.88129973e+00,
          -1.70697918e+01, -7.85147333e+00, -1.18284111e+01,
          -5.19028902e+00, 1.59658968e+00, -1.44112406e+01,
          5.45567274e+00, -2.18362752e-02, -5.13867664e+00,
          -1.81613004e+00, 1.15661850e+01, -8.90177250e+00,
          6.59095669e+00, 1.80991769e+00, -3.76393747e+00,
          -1.58769531e+01, -3.25082636e+00, 4.80361366e+00,
          5.95330477e+00, -7.97904062e+00, 3.08344841e+00,
          9.43572426e+00, 2.79727250e-01, -8.77416134e+00,
          -6.01623774e+00, -1.02428007e+01, -9.71424484e+00,
          -1.71162307e+00, 1.13493013e+01, 3.97002459e+00,
          6.59720993e+00, -6.23213291e+00, -1.28534973e+00,
          2.85267919e-01, -5.25071192e+00, 2.85588384e+00,
          -1.10312223e+01, 6.67281389e+00, -7.08398199e+00,
          1.84251332e+00, 3.45097995e+00, -5.81118679e+00,
          -2.62452555e+00, -2.97122955e+00, -1.31311359e+01,
          -3.81315970e+00, -1.35664158e+01, 8.16702652e+00,
          4.74170971e+00, 9.21957970e+00, 7.10184145e+00, 1.44411552e+00,
          -6.50215101e+00, -6.60809040e+00, 1.24544430e+00,
          8.71675396e+00, 1.49880972e+01, -3.12432027e+00,
          -2.06843591e+00, -1.84379172e+00, 9.54632223e-01,
          1.99387968e+00, -4.29672098e+00, 1.35083282e+00,
          7.92747068e+00, -1.82950401e+00, -1.02916737e+01,
          4.37893772e+00, -4.12041616e+00, -1.42077553e+00,
          -1.63015890e+00, 6.30779266e+00, -2.46711421e+00,
          1.23037596e+01, 6.99584579e+00, 6.57116398e-02,
          -3.95413828e+00, 1.11710787e+01, -6.55940294e+00,
          1.52319431e+00, 1.90116012e+00, 7.65218973e+00,
          -8.71702480e+00, 1.85838103e+00, 9.18218136e+00,
          -2.51995969e+00, -6.49941969e+00, 5.94749260e+00,
          5.88931036e+00, 6.05779982e+00, -3.66123223e+00,
          -4.78056717e+00, -1.84366092e-01, 6.40274763e+00,
          3.50910127e-01, 8.91673565e+00, 6.66295862e+00,
          -1.03095484e+00, -1.24062814e-01, 1.52049804e+00,
          -3.24492812e+00, 3.28105235e+00, -3.74860191e+00,
          -1.00839243e+01, -9.12208378e-01, -2.18771768e+00,
          -1.26154888e+00, 1.82400137e-01, -2.73916078e+00,
          3.38446712e+00, -1.54080355e+00, 1.26859283e+01,
          1.73388886e+00, -1.83825982e+00, 3.20478940e+00,
          -1.61435070e+01, -8.23384857e+00, -6.25753593e+00,
          -4.41495228e+00, 1.20295167e+00, -3.24092060e-01,
          4.87023163e+00, -9.75532150e+00, 3.91178131e-02,
          2.10386181e+00, 2.22809172e+00, -8.29237938e+00,
          -6.98803186e+00, 6.97690821e+00, 7.04199076e+00,
          8.19033909e+00, 6.98814917e+00, 2.92466211e+00,
          -1.05475247e+00, 3.19862437e+00, 8.09569550e+00,
          1.48968709e+00, -1.43105030e+00, -6.99539614e+00,
          3.35788321e+00, 5.24417877e+00, 3.24944592e+00, 2.27712348e-01,
          2.27183962e+00, 3.99061608e+00, -1.03556812e+00,
          4.84770823e+00, 5.10083723e+00, -3.87440085e+00,
          -1.15796061e+01, 1.30048823e+00, 6.12195730e+00,
          1.18361044e+01, 2.01275975e-01, 5.50940466e+00,
          -1.74955040e-01, 1.34252310e+00, 8.41306686e+00,
          1.49790537e+00, 5.80056286e+00, -2.54432869e+00,
          -3.90861940e+00, -6.73467970e+00, -8.76648903e+00,
          -8.17517662e+00, 1.10647259e+01, 6.98338556e+00,
          1.29792607e+00, 4.52458334e+00, -5.88595629e+00,
          -1.34486222e+00, 5.00686693e+00, -4.63524437e+00,
          -7.26718855e+00, 5.31265593e+00, 5.31265593e+00,
          8.40964699e+00, 8.40964699e+00, -1.46935520e+01,
          -8.97610569e+00, -8.97610569e+00, 8.37619603e-01,
          8.37619603e-01, -1.26844273e+01, 7.11472130e+00,
          3.63492560e+00, 3.63492560e+00, 8.68315697e+00, 8.68315697e+00,
          3.11975813e+00, -8.48802853e+00, -8.48802853e+00,
          3.40564823e+00, -3.45192108e+01, -3.45192108e+01,
          -2.98829346e+01, -2.98829346e+01, -2.86499844e+01,
          -2.86499844e+01, -6.17984200e+00, -6.17984200e+00,
          7.64783907e+00, -5.96197367e-01, 2.14557457e+01,
          2.14557457e+01, -1.04158020e+01, -1.04158020e+01,
          -6.13324404e+00, -6.13324404e+00, -2.14117393e+01,
          1.02263374e+01, 1.02263374e+01, -5.84029388e+00,
          2.08471680e+00, 2.08471680e+00, -3.47688866e+01,
          -3.00640607e+00, -3.00640607e+00, -9.26161826e-01,
          -1.25570955e+01, -1.25570955e+01, -1.37257214e+01,
          -1.37257214e+01, -1.14079037e+01, -1.14079037e+01,
          5.88686037e+00, 5.88686037e+00, -3.60753536e+00,
          -3.60753536e+00, 1.67969227e+01, 1.67969227e+01,
          -1.41626310e+01, 1.50192356e+01, 1.50192356e+01,
          5.23155737e+00, -8.38535023e+00, -8.38535023e+00,
          1.49446380e+00, 1.49446380e+00, 1.65604477e+01, 1.65604477e+01,
          7.73226452e+00, 7.73226452e+00, 9.76273632e+00, 9.76273632e+00,
          4.04130250e-01, 4.04130250e-01, 1.14279060e+01, 1.14279060e+01,
          2.59657645e+00, 2.59657645e+00, -5.62338710e-01,
          -5.62338710e-01, -7.37108231e+00, -7.37108231e+00,
          1.05340347e+01, 1.05340347e+01, 8.34933853e+00, 8.34933853e+00,
          8.03800297e+00, 8.03800297e+00, 1.41698790e+01, 1.41698790e+01,
          -1.38174877e+01, -6.46152592e+00, -6.46152592e+00,
          1.21770906e+01, 1.21770906e+01, -1.82865906e+00,
          -1.82865906e+00, -4.00891399e+00, -4.00891399e+00,
          1.48996534e+01, 1.48996534e+01, -1.27502708e+01,
          -1.27502708e+01, -8.78120995e+00, -3.06744337e-01,
          -3.06744337e-01, -1.36888063e+00, -1.36888063e+00,
          9.60986614e+00, 9.60986614e+00, 3.72040462e+00, 3.72040462e+00,
          1.27133789e+01, 1.27133789e+01, 6.25977135e+00, 6.25977135e+00,
          1.65962524e+01, 1.65962524e+01, 2.42852330e+00, 2.42852330e+00,
          7.35381603e+00, 7.35381603e+00, 1.25823126e+01, 1.25823126e+01,
          -1.58998239e+00, -1.58998239e+00, -8.38264751e+00,
          -8.38264751e+00, 1.34153471e+01, 1.34153471e+01,
          -7.63251305e-01, -7.63251305e-01, 1.18467054e+01,
          1.18467054e+01, 9.51745129e+00, -1.46812141e+00,
          -1.46812141e+00, -7.19842529e+00, -7.19842529e+00,
          7.77258587e+00, 7.77258587e+00, -7.06250143e+00,
          -7.06250143e+00, 2.09932079e+01, 2.09932079e+01,
          -9.04685211e+00, -4.20401192e+00, -4.20401192e+00,
          2.20470381e+00, 2.20470381e+00, 5.69094181e+00, 5.69094181e+00,
          8.15520382e+00, 8.15520382e+00, 2.33231807e+00, 2.33231807e+00,
          4.55970913e-02, 4.55970913e-02, 2.22659802e+00, 2.22659802e+00,
          -6.98589897e+00, -6.98589897e+00, 2.68730426e+00,
          2.68730426e+00, 1.25507126e+01, 1.25507126e+01,
          -2.09357023e+00, -2.09357023e+00, -3.48478389e+00,
          -3.48478389e+00, -4.40216112e+00, -4.40216112e+00,
          3.23961234e+00, -2.40376377e+01, -2.40376377e+01,
          -9.57750034e+00, -9.57750034e+00, 9.64948273e+00,
          9.64948273e+00, -5.75807095e-01, -5.75807095e-01,
          -1.11771879e+01, -1.11771879e+01, 7.26357412e+00,
          7.26357412e+00, 3.52889419e+00, 3.52889419e+00, 8.48135471e+00,
          8.48135471e+00, -1.63494148e+01, -1.63494148e+01,
          5.86316526e-01, 5.86316526e-01, 1.20594282e+01, 1.20594282e+01,
          4.24721241e+00, 4.24721241e+00, 1.91519082e+00, 1.91519082e+00,
          2.91027665e-01, 2.91027665e-01, 1.46431503e+01,
          -1.57980609e+00, -1.57980609e+00, 7.83954859e+00,
          7.83954859e+00, 5.94520235e+00, 5.94520235e+00, 4.87111616e+00,
          4.87111616e+00, -2.55456376e+00, -2.55456376e+00,
          3.98673892e+00, 3.98673892e+00, -1.54619887e-01,
          -1.54619887e-01, -9.85589695e+00, -9.85589695e+00,
          4.29852009e+00, 4.29852009e+00, 1.29504919e+01, 1.29504919e+01,
          9.21407318e+00, 9.21407318e+00, -3.80624866e+00,
          -3.80624866e+00, 5.86592555e-01, 5.86592555e-01,
          -1.75913787e+00, -1.75913787e+00, -2.61946249e+00,
          -2.61946249e+00, 1.76247082e+01, 1.76247082e+01,
          1.10038853e+01, -1.14608431e+01, -1.14608431e+01,
          9.41401601e-01, 9.41401601e-01, 1.28036394e+01, 1.28036394e+01,
          -7.46632147e+00, -7.46632147e+00, 1.63711083e+00,
          -4.66499043e+00, -4.66499043e+00, 1.53284531e+01,
          1.53284531e+01, 2.80824566e+00, 2.80824566e+00, 6.23667574e+00,
          6.23667574e+00, -7.45022106e+00, -7.45022106e+00,
          -5.90792835e-01, 9.86051094e-03, 9.86051094e-03,
          -3.07888746e+00, -3.07888746e+00, -6.08476925e+00,
          -6.08476925e+00, 1.07659757e+00, 1.07659757e+00,
          -1.40429220e+01, -1.40429220e+01, -5.41545331e-01,
          -2.47113681e+00, -2.47113681e+00, 1.76469460e-01,
          1.76469460e-01, 4.82956553e+00, 4.82956553e+00,
          -1.24622355e+01, -1.24622355e+01, -2.73141056e-01,
          -2.73141056e-01, 2.32414627e+00, 2.32414627e+00,
          -6.35080433e+00, -6.35080433e+00, 1.19220486e+01,
          1.19220486e+01, -6.06323338e+00, -4.29254007e+00,
          -4.29254007e+00, -3.70141912e+00, -3.70141912e+00,
          5.67787743e+00, 5.67787743e+00, 4.39980745e-01, 4.39980745e-01,
          -2.19600725e+00, -2.19600725e+00, 1.65704715e+00,
          1.65704715e+00, -5.45048094e+00, -5.45048094e+00,
          3.71669865e+00, 3.71669865e+00, 3.54296970e+00, 3.54296970e+00,
          6.78215075e+00, 6.78215075e+00, -3.05707502e+00,
          3.85232115e+00, 3.85232115e+00, -1.25650275e+00,
          -1.25650275e+00, -6.98269963e-01, -6.98269963e-01,
          4.81745005e+00, 4.81745005e+00, -2.66743612e+00,
          -8.89430344e-01, -8.89430344e-01, -5.86996269e+00,
          -5.86996269e+00, 2.77803326e+00, 2.77803326e+00,
          2.57882571e+00, 2.57882571e+00, 2.03158593e+00, 2.03158593e+00,
          5.35005331e-01, 5.35005331e-01, -2.67172623e+00,
          -2.67172623e+00, 3.95807219e+00, 3.95807219e+00,
          8.16737413e-01, 8.16737413e-01, 1.08851838e+00, 1.08851838e+00,
          -1.98033726e+00, -1.98033726e+00, -5.94820023e+00,
          -5.94820023e+00, 5.41108322e+00, 5.41108322e+00,
          1.82247841e+00, 1.82247841e+00, 6.73112392e+00, 6.73112392e+00,
          6.39589190e-01, 6.39589190e-01, 9.39899266e-01, 9.39899266e-01,
          -1.87701619e+00, -1.87701619e+00, -1.97212112e+00,
          -1.97212112e+00, 3.09388733e+00, 3.09388733e+00,
          -2.50014877e+00, -2.50014877e+00, -3.24266672e+00,
          -3.24266672e+00, 3.34328842e+00, 3.34328842e+00,
          3.62621546e+00, 3.62621546e+00, -7.17766190e+00,
          -7.17766190e+00, -1.45709963e+01, -1.45709963e+01,
          -1.84766054e+00, -1.84766054e+00, -7.17432737e+00,
          -7.17432737e+00, -5.58184505e-01, -5.58184505e-01,
          4.29709244e+00, -3.91254902e+00, -3.91254902e+00,
          2.94847870e+00, 2.94847870e+00, -8.88065577e-01,
          -8.88065577e-01, 5.45770073e+00, 5.45770073e+00,
          -1.50072408e+00, -1.50072408e+00, 3.95202303e+00,
          3.95202303e+00, 3.92180443e-01, 3.92180443e-01,
          -1.28329496e+01, -1.28329496e+01, 8.99946272e-01,
          8.99946272e-01, 2.29490900e+00, 2.29490900e+00,
          -3.06894422e+00, -3.06894422e+00, 3.72106838e+00,
          3.72106838e+00, -8.62514496e+00, -8.62514496e+00,
          -4.11086941e+00, -4.11086941e+00, 2.01672864e+00,
          2.01672864e+00, -1.53428209e+00, -1.53428209e+00,
          1.39683914e+00, 1.01935768e+00, 1.01935768e+00, 5.49407721e-01,
          5.49407721e-01, -1.88329220e+00, -1.88329220e+00,
          5.33115530e+00, 5.33115530e+00, -4.34070206e+00,
          -4.34070206e+00, 1.61803269e+00, 1.61803269e+00,
          6.23103666e+00, 6.23103666e+00, -4.09977865e+00,
          -4.09977865e+00, -5.32596350e+00, -5.32596350e+00,
          1.94361544e+00, 1.94361544e+00, -1.23691761e+00,
          -1.23691761e+00, 2.42742491e+00, 2.42742491e+00,
          3.05885792e-01, 3.05885792e-01, -2.47003484e+00,
          -2.47003484e+00, -9.68128109e+00, -9.68128109e+00,
          -4.07909632e+00, 2.38827872e+00, 2.38827872e+00,
          7.21294832e+00, 7.21294832e+00, -8.57068443e+00,
          -8.57068443e+00, -3.73877358e+00, -3.73877358e+00,
          -1.74875355e+00, -1.74875355e+00, -2.39312410e+00,
          -2.39312410e+00, -7.51803064e+00, -7.51803064e+00,
          -9.29742455e-01, -9.29742455e-01, -4.19475698e+00,
          -4.19475698e+00, -3.18984747e-01, -3.18984747e-01,
          -5.31881237e+00, -5.31881237e+00, 4.75225830e+00,
          4.75225830e+00, -1.82505906e+00, -1.82505906e+00,
          -4.87727404e+00, -4.87727404e+00, -4.36944813e-01,
          -2.21679664e+00, -2.21679664e+00, -5.94195604e+00,
          -5.94195604e+00, 1.64666569e+00, 1.64666569e+00,
          3.15724343e-01, 2.30549645e+00, 2.30549645e+00,
          -3.16202402e+00, -3.16202402e+00, -1.83352351e-01,
          -1.83352351e-01, -1.79180646e+00, -1.79180646e+00,
          -1.18891363e+01, -1.18891363e+01, -1.98656356e+00,
          1.67037392e+00, 1.67037392e+00, -1.22173166e+01,
          -1.22173166e+01, -8.83074582e-01, -8.83074582e-01,
          4.20438576e+00, 4.20438576e+00, 1.96166849e+00, 1.96166849e+00,
          1.27865767e+00, 1.27865767e+00, -3.60058355e+00,
          -3.60058355e+00, 2.11523342e+00, 2.11523342e+00,
          -6.92949057e-01, -6.92949057e-01, 1.81591463e+00,
          1.81591463e+00, 2.27593660e+00, 2.27593660e+00, 8.74829590e-01,
          8.74829590e-01, -4.66289425e+00, -4.66289425e+00,
          3.95236313e-01, 3.95236313e-01, 3.66092253e+00, 3.66092253e+00,
          1.29474890e+00, 3.66939139e+00, 3.66939139e+00, 8.64074707e-01,
          8.64074707e-01, -1.81702876e+00, -1.81702876e+00,
          -3.20118642e+00, -3.20118642e+00, 4.33712602e-01,
          4.33712602e-01, 2.24067426e+00, 2.24067426e+00,
          -2.83792448e+00, -2.83792448e+00, -3.50344920e+00,
          -3.50344920e+00, -3.50928068e+00, -3.50928068e+00,
          1.43277884e+00, 1.43277884e+00, 2.65200090e+00, 2.65200090e+00,
          1.18060517e+00, 1.18060517e+00, -1.69676805e+00,
          -1.69676805e+00, -4.94308996e+00, -4.94308996e+00,
          2.82507968e+00, 2.82507968e+00, -3.96277189e+00,
          -3.96277189e+00, -3.00885463e+00, -3.00885463e+00,
          -4.56658792e+00, -4.56658792e+00, -2.34415293e+00,
          -2.34415293e+00, 7.92238295e-01, 7.92238295e-01,
          3.22554410e-01, 3.22554410e-01, 2.54889131e+00, 2.54889131e+00,
          -5.87942076e+00, 4.22364759e+00, 4.22364759e+00,
          2.59154415e+00, 2.59154415e+00, -9.69495893e-01,
          -9.69495893e-01, -4.17180872e+00, -4.17180872e+00,
          -3.66359234e-01, -3.66359234e-01, 2.20620275e+00,
          2.20620275e+00, -6.47317529e-01, -6.47317529e-01,
          -1.07718718e+00, -1.07718718e+00, 2.83932000e-01,
          2.83932000e-01, -2.43679166e+00, -2.43679166e+00,
          -1.33073521e+00, -1.33073521e+00, -5.78138351e+00,
          -5.78138351e+00, 4.08393919e-01, 4.08393919e-01,
          -2.12116504e+00, -2.12116504e+00, -5.27595401e-01,
          -5.27595401e-01, -1.08064377e+00, -1.08064377e+00,
          1.79281926e+00, 1.79281926e+00, 9.82465446e-01, 9.82465446e-01,
          1.21008813e+00, 1.21008813e+00, -1.62509656e+00,
          -1.28046215e+00, -1.28046215e+00, -2.50030184e+00,
          -2.50030184e+00, 2.00571418e+00, 2.00571418e+00,
          -3.21107292e+00, -3.21107292e+00, -3.55454803e+00,
          -3.55454803e+00, -3.26145959e+00, -2.56927872e+00,
          -2.56927872e+00, 1.42521238e+00, 1.42521238e+00,
          1.58811414e+00, 1.58811414e+00, -2.90929961e+00,
          -2.90929961e+00, -2.04897928e+00, -2.04897928e+00,
          -1.13359630e+00, -1.13359630e+00, -1.17044199e+00,
          -1.17044199e+00, -3.89836311e+00, -3.89836311e+00,
          -9.36169386e-01, -9.36169386e-01, 1.34618366e+00,
          1.34618366e+00, -4.38320637e+00, -4.38320637e+00,
          -7.19546080e-01, -7.19546080e-01, -1.81558812e+00,
          -1.81558812e+00, -3.88581681e+00, -3.88581681e+00,
          3.96063995e+00, 3.96063995e+00, 3.48007739e-01, 3.48007739e-01,
          2.62311745e+00, 2.62311745e+00, 1.25957310e-01, 1.25957310e-01,
          6.81903481e-01, 6.81903481e-01, -1.95920539e+00,
          -1.95920539e+00, -3.39004421e+00, -3.39004421e+00,
          -5.51170540e+00, -5.51170540e+00, -2.82062078e+00,
          -2.82062078e+00, 3.52504468e+00, 3.52504468e+00,
          -2.05731201e+00, -2.15400887e+00, -2.15400887e+00,
          5.09359479e-01, 5.09359479e-01, 1.16029513e+00, 1.16029513e+00,
          -2.96937943e-01, -2.96937943e-01, -2.39966846e+00,
          -2.39966846e+00, -7.74600506e-01, -7.74600506e-01,
          2.91512370e+00, 2.91512370e+00, -2.64407229e+00,
          -2.64407229e+00, -5.92775297e+00, -5.92775297e+00,
          1.60331023e+00, -1.09466493e+00, -1.09466493e+00,
          3.32064807e-01, 3.32064807e-01, -1.12325835e+00,
          -1.12325835e+00, -9.46860671e-01, -9.46860671e-01,
          -2.10452461e+00, -2.10452461e+00, 9.60439801e-01,
          9.60439801e-01, -4.07955027e+00, -4.07955027e+00,
          3.96196485e-01, 3.96196485e-01, -6.83664680e-01,
          -6.83664680e-01, -3.67096758e+00, -8.82147074e-01,
          -8.82147074e-01, -5.12717843e-01, -5.12717843e-01,
          -1.23198226e-03, -1.23198226e-03, -5.98071814e+00,
          -5.98071814e+00, -7.28326067e-02, -7.28326067e-02,
          1.02844739e+00, 1.02844739e+00, 1.50024271e+00, 1.50024271e+00,
          7.21491873e-01, 7.21491873e-01, 1.52779847e-01, 1.52779847e-01,
          2.92826700e+00, 2.92826700e+00, 8.91278446e-01, 8.91278446e-01,
          -8.39561746e-02, -8.39561746e-02, -5.63802099e+00,
          -5.63802099e+00, -2.02276778e+00, -2.02276778e+00,
          -4.07429665e-01, 3.08840424e-01, 3.08840424e-01,
          7.75461733e-01, 7.75461733e-01, -1.00820243e+00,
          -1.65788615e+00, -1.65788615e+00, -1.89922893e+00,
          -5.04030752e+00, -5.04030752e+00, -1.64722145e+00,
          -1.64722145e+00, -1.03351498e+00, -1.03351498e+00,
          -4.65013802e-01, -4.65013802e-01, -1.72964418e+00,
          -1.72964418e+00, 3.52820158e+00, 3.52820158e+00,
          2.72101164e-01, 2.72101164e-01, 2.90914798e+00, 2.90914798e+00,
          2.31348991e+00, 2.35538268e+00, 2.35538268e+00, 4.27625751e+00,
          4.27625751e+00, -6.30256474e-01, -6.30256474e-01,
          -4.60026121e+00, -4.60026121e+00, 1.45233855e-01,
          -3.42277646e-01, -3.42277646e-01, -5.47161162e-01,
          -5.47161162e-01, -8.66697058e-02, -8.66697058e-02,
          2.97076535e+00, -1.27459979e+00, -1.27459979e+00,
          5.34946263e-01, 5.34946263e-01, -2.50597906e+00,
          -2.50597906e+00, -7.32365370e-01, -7.32365370e-01,
          1.74758649e+00, 1.74758649e+00, -6.05460741e-02,
          -6.05460741e-02, 1.58549976e+00, 1.58549976e+00,
          1.35187232e+00, 1.35187232e+00, 3.74792910e+00, 3.74792910e+00,
          1.82959211e+00, 1.82959211e+00, 1.56504261e+00, 1.56504261e+00,
          3.41232687e-01, 3.41232687e-01, 3.54194164e+00, 3.54194164e+00,
          2.23586535e+00, 1.36550903e+00, 1.36550903e+00, 7.63319552e-01,
          7.63319552e-01, -1.77597630e+00, -1.77597630e+00,
          1.15920973e+00, 1.15920973e+00, 1.75399971e+00, 1.75399971e+00,
          3.04646111e+00, -2.63507676e+00, -2.63507676e+00,
          -1.98565853e+00, -1.98565853e+00, -1.12598515e+00,
          -1.12598515e+00, 5.80093086e-01, 5.80093086e-01,
          -2.30320990e-01, -2.30320990e-01, 8.92817378e-01,
          8.92817378e-01, 2.11871028e+00, 2.11871028e+00, 4.69142151e+00,
          4.69142151e+00, -1.11265016e+00, -1.11265016e+00,
          -1.14796007e+00, -1.14796007e+00, 2.36547279e+00,
          2.36547279e+00, 2.93521953e+00, 2.93521953e+00,
          -2.39510942e+00, -2.39510942e+00, 1.64743531e+00,
          -2.66190767e+00, -3.01359510e+00, -3.01359510e+00,
          7.89052427e-01, 7.89052427e-01, 4.03429985e+00, 4.03429985e+00,
          -3.04403853e+00, -3.04403853e+00, 2.10218120e+00,
          2.10218120e+00, -2.10997462e+00, -2.10997462e+00,
          1.89729488e+00, 1.89729488e+00, 2.04486322e+00, 2.04486322e+00,
          -3.02385283e+00, -3.02385283e+00, -4.61469889e-01,
          -4.61469889e-01, -3.92111754e+00, -3.92111754e+00,
          -1.11027551e+00, -1.11027551e+00, -2.39095044e+00,
          -2.39095044e+00, 3.33362651e+00, 3.33362651e+00,
          -2.71263289e+00, -2.71263289e+00, 3.73393625e-01,
          3.73393625e-01, -1.96201396e+00, -1.96201396e+00,
          -1.46116510e-01, -1.46116510e-01, -1.56359005e+00,
          -1.56359005e+00, 4.08863640e+00, -9.97193635e-01,
          -9.97193635e-01, 1.53916657e+00, 1.53916657e+00,
          3.48672819e+00, 3.48672819e+00, 5.38459957e-01, 5.38459957e-01,
          -5.08474827e-01, -5.08474827e-01, -2.87093377e+00,
          -2.87093377e+00, 1.75414868e-02, 1.75414868e-02,
          -1.53599489e+00, 2.04259825e+00, 2.04259825e+00,
          1.88367248e+00, 1.88367248e+00, 7.84955025e-01, 7.84955025e-01,
          1.27120256e+00, -9.32368115e-02, -9.32368115e-02,
          -5.94400048e-01, -5.94400048e-01, -5.33509970e-01,
          -5.33509970e-01, 7.36315012e-01, 7.36315012e-01,
          1.20097589e+00, -1.69089746e+00, -1.69089746e+00,
          8.25428009e-01, 8.25428009e-01, -2.46898249e-01,
          -2.46898249e-01, -1.10043752e+00, -1.10043752e+00,
          -6.83098495e-01, -6.83098495e-01, -2.15140438e+00,
          -2.15140438e+00, -1.44283473e+00, -1.44283473e+00,
          -1.34473038e+00, -1.34473038e+00, -2.65327263e+00,
          -1.63256311e+00, -1.63256311e+00, 7.97345936e-01,
          7.97345936e-01, -1.98695257e-01, -1.98695257e-01,
          1.56199169e+00, 1.34904698e-01, 1.34904698e-01,
          -1.20987214e-01, -1.20987214e-01, -2.24381852e+00,
          -2.24381852e+00, -1.56234503e+00, -2.89616871e+00,
          -2.89616871e+00, 2.50102401e+00, 2.50102401e+00,
          9.43566740e-01, 9.43566740e-01, -2.84547877e+00,
          -2.84547877e+00, 2.10232186e+00, 2.10232186e+00,
          1.50669396e+00, 1.50669396e+00, -2.00971580e+00,
          -2.00971580e+00, -2.17408872e+00, -2.17408872e+00,
          -1.90823400e+00, -1.90823400e+00, -1.95666575e+00,
          -1.95666575e+00, 5.26815951e-01, 5.26815951e-01,
          -1.04011428e+00, -1.04011428e+00, 1.79541960e-01,
          1.79541960e-01, -1.08318400e+00, -1.08318400e+00,
          2.47658491e+00, 2.47658491e+00, 1.24890852e+00, 1.24890852e+00,
          -9.98718560e-01, -9.98718560e-01, -4.04247910e-01,
          -4.04247910e-01, 3.44765455e-01, 3.44765455e-01,
          1.39508688e+00, 1.47893643e+00, 1.47893643e+00,
          -1.33435929e+00, -1.33435929e+00, 3.90266085e+00,
          3.90266085e+00, -6.51726902e-01, -6.51726902e-01,
          -4.42335367e-01, -4.42335367e-01, 3.23052096e+00,
          3.23052096e+00, -3.70652378e-01, -3.70652378e-01,
          1.90480724e-01, 1.90480724e-01, 8.72046173e-01, 8.72046173e-01,
          1.48644602e+00, 1.48644602e+00, 2.29331702e-01, 9.03510869e-01,
          9.03510869e-01, 1.45877552e+00, 1.45877552e+00,
          -4.55847591e-01, -4.55847591e-01, 1.43240914e-01,
          1.43240914e-01, 5.62463641e-01, 5.62463641e-01, 5.27385399e-02,
          5.27385399e-02, 3.07091427e+00, 5.21684527e-01, 5.21684527e-01,
          -2.99426973e-01, -2.99426973e-01, 3.29379767e-01,
          3.29379767e-01, 5.54938853e-01, 5.54938853e-01,
          -9.51945186e-01, -9.51945186e-01, 7.18822539e-01,
          7.18822539e-01, -1.67625034e+00, -1.67625034e+00,
          1.84644711e+00, 1.84644711e+00, -3.68367642e-01,
          -3.68367642e-01, 2.47733027e-01, 2.47733027e-01,
          9.34508964e-02, 9.34508964e-02, -1.14230549e+00,
          -1.14230549e+00, -1.52868974e+00, -1.52868974e+00,
          6.01087391e-01, 6.01087391e-01, 1.09042966e+00, 1.09042966e+00,
          -1.24192500e+00, -1.24192500e+00, 4.17004712e-02,
          4.17004712e-02, 4.97655344e+00, 4.97655344e+00, 2.47996473e+00,
          2.47996473e+00, 3.49527061e-01, 3.49527061e-01,
          -1.20048237e+00, -1.20048237e+00, -1.26475549e+00,
          -1.26475549e+00, 1.64394307e+00, 1.64394307e+00,
          3.64221692e-01, 3.64221692e-01, -7.45200217e-01,
          -7.45200217e-01, -8.36860985e-02, -8.36860985e-02,
          -1.29065132e+00, -1.29065132e+00, -1.62169361e+00,
          -1.62169361e+00, 2.25901246e+00, 2.25901246e+00,
          -7.38250256e-01, -7.38250256e-01, -1.84017450e-01,
          -1.84017450e-01, -6.68492138e-01, -6.68492138e-01,
          -1.49012959e+00, -1.49012959e+00, 1.68521070e+00,
          1.68521070e+00, 3.97529900e-01, 3.97529900e-01,
          -7.81001270e-01, -7.81001270e-01, 6.53950632e-01,
          6.53950632e-01, 1.23854029e+00, 1.23854029e+00,
          -1.88523784e-01, -1.88523784e-01, -1.23299932e+00,
          -1.23299932e+00, -1.08950377e+00, -1.08950377e+00,
          -2.10817003e+00, -2.10817003e+00, 1.26713324e+00,
          1.26713324e+00, -4.08538312e-01, -4.08538312e-01,
          3.14751357e-01, 3.14751357e-01, -1.22323051e-01,
          -1.22323051e-01, 1.11435783e+00, 1.11435783e+00,
          -2.96865433e-01, -2.96865433e-01, 3.73632580e-01,
          5.92554033e-01, 8.34932685e-01, 8.34932685e-01, 1.09443319e+00,
          1.09443319e+00, 1.67035842e+00, 1.67035842e+00, 1.65285671e+00,
          1.65285671e+00, -1.14617981e-01, -1.14617981e-01,
          1.30336046e+00, 1.30336046e+00, 7.80028641e-01, 7.80028641e-01,
          -5.02667904e-01, -5.02667904e-01, -2.00939441e+00,
          -2.00939441e+00, -4.50271726e-01, -4.50271726e-01,
          2.10101366e-01, 2.10101366e-01, -1.75013876e+00,
          -1.75013876e+00, 1.15085781e+00, 1.15085781e+00,
          -1.76828718e+00, -1.76828718e+00, -2.24407697e+00,
          -2.24407697e+00, -8.26304078e-01, -8.26304078e-01,
          -2.74917454e-01, -2.74917454e-01, -1.95704043e+00,
          -1.95704043e+00, -1.30613112e+00, -1.30613112e+00,
          -1.39360353e-01, -1.39360353e-01, 1.65653276e+00,
          1.65653276e+00, 4.77210879e-01, 4.77210879e-01, 3.80715579e-01,
          3.80715579e-01, 4.99666899e-01, 4.99666899e-01, 3.37304640e+00,
          3.37304640e+00, 2.14421368e+00, 2.14421368e+00,
          -2.69101888e-01, -2.69101888e-01, -3.02967012e-01,
          -3.02967012e-01, -2.03762722e+00, -2.03762722e+00,
          -9.86839175e-01, -9.86839175e-01, 8.42566311e-01,
          8.42566311e-01, 6.06609285e-01, 6.06609285e-01, 1.73036993e+00,
          1.73036993e+00, 1.50362086e+00, 1.50362086e+00, 6.08380020e-01,
          6.08380020e-01, -1.54075146e+00, -1.54075146e+00,
          1.03768134e+00, 1.03768134e+00, 4.71642494e-01, 4.71642494e-01,
          1.39182553e-01, -1.97841465e-01, -1.97841465e-01,
          6.94044709e-01, 6.94044709e-01, -8.68806005e-01,
          -8.68806005e-01, 1.32765308e-01, 1.32765308e-01,
          -9.17075038e-01, -9.17075038e-01, 2.40581725e-02,
          2.40581725e-02, -4.17462200e-01, -4.17462200e-01,
          9.60574970e-02, 9.60574970e-02, -5.83649337e-01,
          -5.83649337e-01, 1.88178971e-01, 1.88178971e-01,
          1.37515807e+00, 1.37515807e+00, 8.94851863e-01, 7.93802559e-01,
          7.93802559e-01, -1.16976058e+00, -1.16976058e+00,
          -2.40143582e-01, -2.40143582e-01, -7.83028007e-01,
          -7.83028007e-01, 1.42954099e+00, 1.42954099e+00,
          5.03943264e-02, 5.03943264e-02, 8.03778589e-01, 8.03778589e-01,
          9.02683794e-01, 9.02683794e-01, 3.99638802e-01, 3.99638802e-01,
          3.76921505e-01, 9.74849164e-01, 9.74849164e-01,
          -1.85714352e+00, -1.85714352e+00, -1.03013682e+00,
          -1.03013682e+00, 1.05040729e+00, 1.05040729e+00,
          1.09396982e+00, 1.09396982e+00, -1.47372425e+00,
          -1.47372425e+00, -6.52874291e-01, -1.32416904e+00,
          -1.32416904e+00, -6.35438919e-01, -6.35438919e-01,
          6.26949966e-01, 6.26949966e-01, 1.82418323e+00, 1.82418323e+00,
          1.18204299e-02, 1.18204299e-02, 7.51253366e-01, 7.51253366e-01,
          6.55806422e-01, 6.55806422e-01, -1.49237502e+00,
          -1.49237502e+00, -7.68990099e-01, -7.68990099e-01,
          -9.74718988e-01, -9.74718988e-01, 7.04660535e-01,
          7.04660535e-01, 6.59134328e-01, 1.84667468e-01, 1.84667468e-01,
          -9.67355132e-01, -9.67355132e-01, -6.62852943e-01,
          -6.62852943e-01, 1.87778950e-01, 1.87778950e-01,
          -1.69970751e+00, -1.69970751e+00, -1.43572247e+00,
          -1.43572247e+00, -1.66247800e-01, -1.66247800e-01,
          -7.62524486e-01, -7.62524486e-01, -1.13145268e+00,
          -1.13145268e+00, -2.28750736e-01, -2.28750736e-01,
          -1.36335421e+00, -1.36335421e+00, 1.11144960e+00,
          1.11144960e+00, 1.12477553e+00, 1.12477553e+00, 8.68466794e-01,
          8.68466794e-01, -1.89579472e-01, -1.89579472e-01,
          1.67691782e-01, 4.46618229e-01, 4.46618229e-01,
          -6.05475128e-01, -6.05475128e-01, 8.15934420e-01,
          8.15934420e-01, 3.13170671e-01, 3.13170671e-01, 3.94479334e-01,
          3.94479334e-01, -6.62288547e-01, -6.62288547e-01,
          -7.17136741e-01, -7.17136741e-01, 1.77628386e+00,
          1.77628386e+00, -3.78425360e-01, -3.78425360e-01,
          7.18848109e-01, 7.18848109e-01, 1.97081566e+00, 1.97081566e+00,
          7.70891249e-01, 7.70891249e-01, -3.75670314e-01,
          -3.75670314e-01, 1.88594186e+00, 1.88594186e+00,
          6.95426106e-01, 6.95426106e-01, -1.80341685e+00,
          -1.80341685e+00, 3.76030278e+00, 3.76030278e+00,
          -9.49884117e-01, -9.49884117e-01, -5.49716771e-01,
          -5.49716771e-01, 9.59298313e-02, 9.59298313e-02,
          6.76739633e-01, 6.76739633e-01, 6.49256349e-01, 6.49256349e-01,
          -7.91188478e-01, -7.91188478e-01, 1.01522398e+00,
          1.01522398e+00, 1.07785948e-01, 1.07785948e-01, 4.79363143e-01,
          4.79363143e-01, 4.66669023e-01, 4.66669023e-01,
          -1.05924892e+00, -1.05924892e+00, 2.01703835e+00,
          2.01703835e+00, 1.28962469e+00, 1.28962469e+00,
          -7.28175640e-01, 2.50134319e-01, 2.50134319e-01,
          -5.50253272e-01, -5.50253272e-01, -5.00208676e-01,
          -5.00208676e-01, -8.14977348e-01, -8.14977348e-01,
          2.07411751e-01, 2.07411751e-01, -8.47081482e-01,
          -8.47081482e-01, -6.06052160e-01, -6.06052160e-01,
          -1.09701395e+00, -1.09701395e+00, -8.82233739e-01,
          -8.82233739e-01, -3.28605860e-01, -3.28605860e-01,
          1.68925512e+00, 1.68925512e+00, 3.84800464e-01, 3.84800464e-01,
          1.38700163e+00, 1.38700163e+00, 3.52686644e-01, 3.52686644e-01,
          -2.39212155e-01, -2.39212155e-01, -2.44005606e-01,
          -2.44005606e-01, 1.87186927e-01, -5.85356832e-01,
          -5.85356832e-01, -4.32217628e-01, -4.32217628e-01,
          -5.27593754e-02, -5.27593754e-02, 3.91243786e-01,
          3.91243786e-01, 8.88666213e-01, 8.88666213e-01, 2.04275179e+00,
          2.04275179e+00, 4.24809515e-01, 4.24809515e-01,
          -1.30246484e+00, -1.30246484e+00, -2.42307559e-01,
          -1.22706866e+00, -1.22706866e+00, 3.37728173e-01,
          3.37728173e-01, 2.59989917e-01, 2.59989917e-01,
          -1.69859566e-02, -1.69859566e-02, -3.63527648e-02,
          -3.63527648e-02, -2.87308067e-01, -2.87308067e-01,
          7.22388566e-01, 3.64131480e-01, 3.64131480e-01,
          -1.74504161e+00, -1.74504161e+00, 1.75203800e+00,
          1.75203800e+00, -1.22601831e+00, -1.22601831e+00,
          2.92424768e-01, 2.92424768e-01, 3.04547727e-01, 3.04547727e-01,
          6.21984482e-01, 6.21984482e-01, -4.34489548e-02,
          -4.34489548e-02, 1.64091244e-01, 1.64091244e-01,
          -6.91017389e-01, -6.91017389e-01, -1.15543079e+00,
          -5.07254064e-01, -5.07254064e-01, -1.39009535e-01,
          -1.39009535e-01, 2.24996790e-01, 1.86709511e+00,
          1.86709511e+00, -4.13325042e-01, -4.13325042e-01,
          4.16309416e-01, 4.16309416e-01, -5.83427608e-01,
          -5.83427608e-01, 3.35030168e-01, 3.35030168e-01,
          -3.38304281e-01, -3.38304281e-01, 1.30615675e+00,
          1.30615675e+00, 4.79179412e-01, 4.79179412e-01, 6.31954432e-01,
          6.31954432e-01, 9.27599251e-01, 9.27599251e-01,
          -5.58605909e-01, -5.58605909e-01, 9.49804306e-01,
          1.45284921e-01, 1.45284921e-01, -6.05082631e-01,
          -6.05082631e-01, -5.11285961e-01, -5.11285961e-01,
          -3.14368278e-01, -3.14368278e-01, -8.14447284e-01,
          -8.14447284e-01, -1.40046132e+00, -1.40046132e+00,
          4.17752594e-01, 4.17752594e-01, -1.03125620e+00,
          -1.03125620e+00, 1.38697696e+00, 1.38697696e+00,
          1.01368999e+00, 1.01368999e+00, 9.00574148e-01, 9.00574148e-01,
          -3.53538871e+00, -3.53538871e+00, -1.48104393e+00,
          -1.48104393e+00, 3.65276456e-01, 3.65276456e-01,
          -8.26436579e-01, -8.26436579e-01, -1.33707356e-02,
          -1.33707356e-02, 5.65239936e-02, 5.65239936e-02,
          6.11924566e-02, -1.00610101e+00, -1.00610101e+00,
          3.06528300e-01, 3.06528300e-01, 2.11455798e+00, 2.11455798e+00,
          6.65742829e-02, 6.65742829e-02, -2.35788599e-01,
          -2.35788599e-01 ]
      - [ -6.23789482e+01, 7.89184875e+01, 3.05797219e+00,
          -1.68874176e+02, -2.97095203e+01, -2.95966301e+01,
          -1.64597382e+02, -5.55200157e+01, -3.99328537e+01,
          -1.47910442e+01, 5.23731117e+01, -1.74928989e+01,
          -2.29363084e+00, -1.31096554e+01, 3.52247353e+01,
          5.93934708e+01, 4.26206779e+01, 5.97028923e+01,
          -1.55818348e+01, -4.48804808e+00, -1.34560709e+01,
          -3.03345184e+01, 1.78093967e+01, -7.95573473e+00,
          -4.20391579e+01, 1.60323849e+01, 1.85029621e+01,
          5.67646027e+00, 4.07495499e+00, 4.12967529e+01, 1.46240187e+01,
          -3.74686890e+01, -1.43830147e+01, 3.07139664e+01,
          -1.01750612e+01, 3.72843666e+01, 7.13138676e+00,
          3.32835531e+00, 2.64708290e+01, 5.56435966e+01, 9.06313229e+00,
          -4.45537300e+01, -2.88740616e+01, -2.41558533e+01,
          -1.05436497e+01, 2.17201061e+01, 5.92949677e+01,
          -3.18867512e+01, -2.60222588e+01, 2.07493515e+01,
          9.18776798e+00, -1.44519424e+01, 1.11343422e+01,
          -1.43242331e+01, 3.54071846e+01, 2.59671044e+00,
          3.52932978e+00, 1.50207579e+00, -4.32752562e+00,
          -4.69458199e+00, 1.32618780e+01, -3.06146107e+01,
          1.71068630e+01, 9.00040245e+00, 6.48730564e+00,
          -3.81604099e+00, -7.39718962e+00, -2.74281845e+01,
          1.60998270e-01, 2.97815442e+00, 3.28646445e+00,
          -9.55329132e+00, -1.05589876e+01, 1.50154305e+01,
          -1.54756861e+01, -1.58620415e+01, 3.71282845e+01,
          7.23874044e+00, -1.62328930e+01, -3.53834820e+00,
          -2.63002033e+01, -3.55100942e+00, 3.50450352e-02,
          4.63546562e+00, 1.12644899e+00, -1.73305779e+01,
          3.34161305e+00, 2.14828892e+01, -4.69511986e+00,
          -1.77299309e+00, -1.76008644e+01, 5.39554501e+00,
          -7.32078266e+00, -2.07628174e+01, -2.05045586e+01,
          9.08120251e+00, -1.85994682e+01, -1.17313271e+01,
          -3.96530002e-01, 1.78898144e+01, 6.60870314e+00,
          7.14453459e-01, -1.41808596e+01, -1.37566013e+01,
          1.65118484e+01, 4.79335165e+00, 9.48667812e+00, 1.24337206e+01,
          -9.38897610e+00, -1.46670303e+01, -7.03158474e+00,
          1.88515129e+01, 6.25212193e+00, 1.07340508e+01,
          -6.29079533e+00, 4.38713455e+00, -2.39832993e+01,
          8.77235889e+00, 4.92608213e+00, -1.41256351e+01,
          -1.08970404e+01, -1.24016180e+01, 9.45301723e+00,
          1.90046215e+01, -8.48736477e+00, -8.95949078e+00,
          9.28636360e+00, 9.95573616e+00, -1.66655540e+01,
          1.78842869e+01, 1.80267429e+01, -5.89584255e+00,
          1.57430477e+01, 1.09564328e+00, -1.60237045e+01,
          -9.34130955e+00, -2.82217288e+00, -2.45634866e+00,
          1.21845388e+01, -4.46701002e+00, -1.62669373e+01,
          7.22522736e+00, 2.65519589e-01, -1.76259744e+00,
          -5.72575426e+00, -6.58341980e+00, 3.68645334e+00,
          1.56757998e+00, -3.72960538e-01, -8.41551685e+00,
          1.50169544e+01, -1.07538481e+01, 4.69185925e+00,
          9.28073406e+00, 9.90719318e+00, 1.29720249e+01, 1.34868598e+00,
          1.26862240e+01, -2.10120296e+00, -1.49667711e+01,
          1.66500902e+00, -3.57429028e+00, 4.14594841e+00,
          -3.20374250e+00, 4.07855511e+00, -4.12143898e+00,
          -1.99876614e+01, -1.65231419e+01, 8.44034100e+00,
          4.77083778e+00, 8.98808098e+00, -3.30496597e+00,
          -3.88575220e+00, 2.64584184e+00, -6.62397861e-01,
          9.13377285e+00, -7.42982435e+00, 6.69693136e+00,
          -1.53432846e+01, -8.18015385e+00, -8.61542416e+00,
          -7.15519571e+00, -2.05390625e+01, 8.84666026e-01,
          2.96346569e+00, -4.79173660e-01, 2.06102753e+00,
          9.56589317e+00, 3.74493384e+00, -6.50339842e+00,
          1.45194540e+01, 1.47926044e+01, 8.85435867e+00, 2.51985669e-01,
          1.31688662e+01, -4.90118551e+00, -4.00006199e+00,
          -6.46303225e+00, 3.12852955e+00, 4.18683147e+00,
          5.34025097e+00, 8.58987236e+00, -2.96421742e+00,
          2.08579493e+00, 8.03478813e+00, -4.67429447e+00,
          -3.43137288e+00, 5.29599476e+00, -9.19784009e-01,
          6.87365770e+00, 1.69543058e-01, -9.83674407e-01,
          -3.23261833e+00, -8.17287827e+00, -4.66754293e+00,
          -2.28889060e+00, 1.33289347e+01, 6.67803335e+00,
          8.08037949e+00, 1.25026169e+01, -1.04800758e+01,
          6.43107796e+00, 3.98204851e+00, -1.17305756e+00,
          -3.62986565e+00, 7.04857969e+00, 4.49621916e+00,
          1.60505927e+00, 4.13808346e+00, 2.83168736e+01, 7.99088430e+00,
          -5.21057510e+00, 2.13872004e+00, -1.61175404e+01,
          -1.44821606e+01, 4.13334274e+00, 1.79219227e+01,
          -8.96097374e+00, -1.63027358e+00, 5.29194641e+00,
          -1.03996305e+01, 6.18252373e+00, -1.72068367e+01,
          -1.10822525e+01, -8.39548302e+00, 6.17568827e+00,
          6.36915350e+00, -1.63159513e+00, 6.35096884e+00,
          6.21147203e+00, -2.30476398e+01, -7.74080038e+00,
          1.14115181e+01, 1.00062943e+01, -3.62358379e+00,
          -2.72103167e+00, 4.28531504e+00, 2.02742743e+00,
          -4.25908899e+00, 4.86728430e+00, 2.09764075e+00,
          -1.92145333e-02, 3.70650816e+00, 6.22297049e+00,
          -1.03520088e-01, 3.88792682e+00, -7.68648767e+00,
          -1.88602619e+01, -1.91699970e+00, 4.47907114e+00,
          -4.01568890e+00, 5.60273123e+00, -2.03275847e+00,
          -9.69340134e+00, 8.77733612e+00, -3.24697495e+00,
          1.42328959e+01, -5.97607517e+00, -2.37953737e-01,
          5.52169609e+00, 1.22489226e+00, -1.93369293e+01,
          1.19460285e+00, 1.07079387e+00, -2.75538659e+00,
          7.24865437e-01, -9.94709015e-01, 6.35717034e-01,
          -1.37260926e+00, 2.26425838e+00, -6.44153070e+00,
          -1.42336092e+01, -3.75461936e+00, 3.90405917e+00,
          -3.33805990e+00, -8.32635784e+00, 1.19147434e+01,
          7.10802269e+00, -5.28536558e+00, -7.72244358e+00,
          6.54139853e+00, 4.36857796e+00, 1.22594633e+01, 2.77403522e+00,
          -3.69665504e+00, 3.72619212e-01, 4.20442313e-01,
          1.65562077e+01, 2.25622845e+00, -4.16454220e+00,
          -5.52571630e+00, 4.61371851e+00, 1.34947510e+01,
          -8.03283978e+00, 4.68022168e-01, 1.79818682e-02,
          1.11852627e+01, -4.14952135e+00, -2.32586765e+00,
          -2.73908520e+00, -8.36110592e+00, -5.08216429e+00,
          -3.82867169e+00, 8.85451794e-01, -5.56874371e+00,
          2.69466376e+00, -4.52261829e+00, -4.38918829e+00,
          2.80685592e+00, 6.30109406e+00, -4.71550846e+00,
          1.11195955e+01, 8.74251842e+00, -2.20328474e+00,
          -9.05267620e+00, 9.89466000e+00, 6.53487206e-01,
          1.34460297e+01, -2.76318765e+00, 2.10125637e+00,
          -4.78581004e-02, -2.47446227e+00, 4.33412641e-01,
          -9.46978760e+00, -5.87884474e+00, -1.66589797e+00,
          -1.04784365e+01, 1.51281681e+01, -1.46226215e+00,
          3.13607049e+00, -2.40331578e+00, 1.24538159e+00,
          -7.70465517e+00, -5.43696260e+00, 8.10458851e+00,
          -1.25980062e+01, 7.17874289e+00, -2.24653649e+00,
          1.18719139e+01, 4.77357626e+00, -4.26823664e+00,
          7.41375494e+00, 4.01783085e+00, -3.87988210e+00,
          -1.05283480e+01, -2.57982206e+00, 8.33588028e+00,
          5.97167432e-01, 4.89048290e+00, 3.71923065e+00, 9.07984078e-01,
          -1.21757212e+01, -8.95798111e+00, -8.30024540e-01,
          4.84318197e-01, 6.65655565e+00, -1.96577489e+00,
          2.57302237e+00, -5.64453030e+00, -1.56282032e+00,
          6.81145048e+00, 6.50854254e+00, 8.85457420e+00, 8.78911877e+00,
          -1.53204489e+00, -7.81548405e+00, 3.71021414e+00,
          -2.39782119e+00, -3.56319976e+00, -4.76087856e+00,
          -1.42329192e+00, 8.47518384e-01, 8.35300636e+00,
          4.99000168e+00, 1.19463432e+00, 9.68918622e-01, 2.69185853e+00,
          -6.32921600e+00, 4.51602888e+00, -1.10778594e+00,
          9.53676224e+00, -3.29196644e+00, -2.21971083e+00,
          6.54660654e+00, -6.59858513e+00, -6.09059048e+00,
          -5.49825239e+00, 8.37754965e-01, 1.52833300e+01,
          -2.14537525e+00, -8.00572813e-01, 1.21617556e+00,
          1.25074444e+01, 4.41472435e+00, 4.19492990e-01, 4.04402113e+00,
          -4.08431530e+00, 2.04330063e+00, 2.82747722e+00,
          -4.64295912e+00, -6.10007904e-03, -5.51970911e+00,
          -1.81157017e+01, -7.04408586e-01, -5.86495733e+00,
          -2.00968051e+00, -8.22967350e-01, 2.39300683e-01,
          6.08989112e-02, -3.70066142e+00, 3.11379522e-01,
          2.25060701e-01, 1.44063562e-01, 4.07006741e+00,
          -4.51643229e+00, 1.81907845e+00, -1.04935229e+00,
          -4.82992840e+00, 2.99569464e+00, -1.16769111e+00,
          3.48650312e+00, -8.22465229e+00, 5.31247020e-01,
          5.19164705e+00, 4.37886858e+00, -9.09367847e+00,
          -3.70899034e+00, 2.88538456e+00, 3.00530577e+00,
          5.62094736e+00, -3.41581440e+00, 1.32484388e+00,
          -7.43034363e-01, 4.60303688e+00, 1.16154413e+01,
          8.28836536e+00, -6.52744150e+00, -7.44875956e+00,
          -4.18988180e+00, 5.14951038e+00, 1.49701762e+00,
          -5.31986523e+00, -5.81515980e+00, 4.39598417e+00,
          1.79325557e+00, 5.51974058e+00, 8.37752151e+00,
          -1.64676106e+00, -1.21469698e+01, 1.33627427e+00,
          6.29004574e+00, 1.22405863e+01, 1.61763203e+00, 3.95587087e+00,
          1.44644415e+00, 2.47144389e+00, 9.88235283e+00,
          -3.13011098e+00, 5.53217220e+00, -2.54432893e+00,
          -3.90861940e+00, -6.73467970e+00, -8.76648903e+00,
          -8.17517662e+00, 1.10647259e+01, 6.98338556e+00,
          1.29792595e+00, 4.52458334e+00, -5.88595629e+00,
          -1.34486210e+00, 5.00686646e+00, -4.63524437e+00,
          -7.26718807e+00, 5.31265593e+00, 5.31265593e+00,
          8.40964699e+00, 8.40964699e+00, -1.46935520e+01,
          -8.97610569e+00, -8.97610569e+00, 8.37619662e-01,
          8.37619662e-01, -1.26844273e+01, 7.11472130e+00,
          3.63492560e+00, 3.63492560e+00, 8.68315697e+00, 8.68315697e+00,
          3.11975813e+00, -8.48802853e+00, -8.48802853e+00,
          3.40564823e+00, -3.45192108e+01, -3.45192108e+01,
          -2.98829346e+01, -2.98829346e+01, -2.86499844e+01,
          -2.86499844e+01, -6.17984200e+00, -6.17984200e+00,
          7.64783859e+00, -5.96197426e-01, 2.14557457e+01,
          2.14557457e+01, -1.04158020e+01, -1.04158020e+01,
          -6.13324404e+00, -6.13324404e+00, -2.14117393e+01,
          1.02263374e+01, 1.02263374e+01, -5.84029436e+00,
          2.08471680e+00, 2.08471680e+00, -3.47688866e+01,
          -3.00640607e+00, -3.00640607e+00, -9.26161826e-01,
          -1.25570955e+01, -1.25570955e+01, -1.37257214e+01,
          -1.37257214e+01, -1.14079037e+01, -1.14079037e+01,
          5.88686037e+00, 5.88686037e+00, -3.60753560e+00,
          -3.60753560e+00, 1.67969227e+01, 1.67969227e+01,
          -1.41626310e+01, 1.50192356e+01, 1.50192356e+01,
          5.23155737e+00, -8.38535023e+00, -8.38535023e+00,
          1.49446380e+00, 1.49446380e+00, 1.65604477e+01, 1.65604477e+01,
          7.73226452e+00, 7.73226452e+00, 9.76273632e+00, 9.76273632e+00,
          4.04130191e-01, 4.04130191e-01, 1.14279060e+01, 1.14279060e+01,
          2.59657669e+00, 2.59657669e+00, -5.62338531e-01,
          -5.62338531e-01, -7.37108231e+00, -7.37108231e+00,
          1.05340347e+01, 1.05340347e+01, 8.34933853e+00, 8.34933853e+00,
          8.03800297e+00, 8.03800297e+00, 1.41698780e+01, 1.41698780e+01,
          -1.38174877e+01, -6.46152592e+00, -6.46152592e+00,
          1.21770906e+01, 1.21770906e+01, -1.82865918e+00,
          -1.82865918e+00, -4.00891399e+00, -4.00891399e+00,
          1.48996534e+01, 1.48996534e+01, -1.27502708e+01,
          -1.27502708e+01, -8.78120995e+00, -3.06744367e-01,
          -3.06744367e-01, -1.36888063e+00, -1.36888063e+00,
          9.60986614e+00, 9.60986614e+00, 3.72040462e+00, 3.72040462e+00,
          1.27133789e+01, 1.27133789e+01, 6.25977182e+00, 6.25977182e+00,
          1.65962524e+01, 1.65962524e+01, 2.42852306e+00, 2.42852306e+00,
          7.35381603e+00, 7.35381603e+00, 1.25823126e+01, 1.25823126e+01,
          -1.58998227e+00, -1.58998227e+00, -8.38264751e+00,
          -8.38264751e+00, 1.34153471e+01, 1.34153471e+01,
          -7.63251185e-01, -7.63251185e-01, 1.18467054e+01,
          1.18467054e+01, 9.51745129e+00, -1.46812141e+00,
          -1.46812141e+00, -7.19842529e+00, -7.19842529e+00,
          7.77258587e+00, 7.77258587e+00, -7.06250143e+00,
          -7.06250143e+00, 2.09932079e+01, 2.09932079e+01,
          -9.04685211e+00, -4.20401192e+00, -4.20401192e+00,
          2.20470381e+00, 2.20470381e+00, 5.69094181e+00, 5.69094181e+00,
          8.15520382e+00, 8.15520382e+00, 2.33231807e+00, 2.33231807e+00,
          4.55971695e-02, 4.55971695e-02, 2.22659826e+00, 2.22659826e+00,
          -6.98589897e+00, -6.98589897e+00, 2.68730426e+00,
          2.68730426e+00, 1.25507116e+01, 1.25507116e+01,
          -2.09357023e+00, -2.09357023e+00, -3.48478365e+00,
          -3.48478365e+00, -4.40216112e+00, -4.40216112e+00,
          3.23961210e+00, -2.40376377e+01, -2.40376377e+01,
          -9.57750130e+00, -9.57750130e+00, 9.64948273e+00,
          9.64948273e+00, -5.75807095e-01, -5.75807095e-01,
          -1.11771879e+01, -1.11771879e+01, 7.26357412e+00,
          7.26357412e+00, 3.52889419e+00, 3.52889419e+00, 8.48135471e+00,
          8.48135471e+00, -1.63494148e+01, -1.63494148e+01,
          5.86316586e-01, 5.86316586e-01, 1.20594282e+01, 1.20594282e+01,
          4.24721241e+00, 4.24721241e+00, 1.91519094e+00, 1.91519094e+00,
          2.91027606e-01, 2.91027606e-01, 1.46431503e+01,
          -1.57980621e+00, -1.57980621e+00, 7.83954859e+00,
          7.83954859e+00, 5.94520235e+00, 5.94520235e+00, 4.87111616e+00,
          4.87111616e+00, -2.55456376e+00, -2.55456376e+00,
          3.98673892e+00, 3.98673892e+00, -1.54620051e-01,
          -1.54620051e-01, -9.85589695e+00, -9.85589695e+00,
          4.29852009e+00, 4.29852009e+00, 1.29504919e+01, 1.29504919e+01,
          9.21407318e+00, 9.21407318e+00, -3.80624866e+00,
          -3.80624866e+00, 5.86592555e-01, 5.86592555e-01,
          -1.75913799e+00, -1.75913799e+00, -2.61946249e+00,
          -2.61946249e+00, 1.76247082e+01, 1.76247082e+01,
          1.10038862e+01, -1.14608431e+01, -1.14608431e+01,
          9.41401780e-01, 9.41401780e-01, 1.28036394e+01, 1.28036394e+01,
          -7.46632147e+00, -7.46632147e+00, 1.63711083e+00,
          -4.66498995e+00, -4.66498995e+00, 1.53284531e+01,
          1.53284531e+01, 2.80824590e+00, 2.80824590e+00, 6.23667574e+00,
          6.23667574e+00, -7.45022106e+00, -7.45022106e+00,
          -5.90792835e-01, 9.86062735e-03, 9.86062735e-03,
          -3.07888770e+00, -3.07888770e+00, -6.08476925e+00,
          -6.08476925e+00, 1.07659757e+00, 1.07659757e+00,
          -1.40429220e+01, -1.40429220e+01, -5.41545331e-01,
          -2.47113705e+00, -2.47113705e+00, 1.76469579e-01,
          1.76469579e-01, 4.82956553e+00, 4.82956553e+00,
          -1.24622355e+01, -1.24622355e+01, -2.73141056e-01,
          -2.73141056e-01, 2.32414627e+00, 2.32414627e+00,
          -6.35080433e+00, -6.35080433e+00, 1.19220486e+01,
          1.19220486e+01, -6.06323338e+00, -4.29254007e+00,
          -4.29254007e+00, -3.70141912e+00, -3.70141912e+00,
          5.67787743e+00, 5.67787743e+00, 4.39980805e-01, 4.39980805e-01,
          -2.19600725e+00, -2.19600725e+00, 1.65704703e+00,
          1.65704703e+00, -5.45048094e+00, -5.45048094e+00,
          3.71669865e+00, 3.71669865e+00, 3.54296970e+00, 3.54296970e+00,
          6.78215122e+00, 6.78215122e+00, -3.05707526e+00,
          3.85232091e+00, 3.85232091e+00, -1.25650275e+00,
          -1.25650275e+00, -6.98269784e-01, -6.98269784e-01,
          4.81745005e+00, 4.81745005e+00, -2.66743588e+00,
          -8.89430523e-01, -8.89430523e-01, -5.86996222e+00,
          -5.86996222e+00, 2.77803302e+00, 2.77803302e+00,
          2.57882571e+00, 2.57882571e+00, 2.03158593e+00, 2.03158593e+00,
          5.35005391e-01, 5.35005391e-01, -2.67172623e+00,
          -2.67172623e+00, 3.95807219e+00, 3.95807219e+00,
          8.16737354e-01, 8.16737354e-01, 1.08851862e+00, 1.08851862e+00,
          -1.98033726e+00, -1.98033726e+00, -5.94820023e+00,
          -5.94820023e+00, 5.41108322e+00, 5.41108322e+00,
          1.82247841e+00, 1.82247841e+00, 6.73112392e+00, 6.73112392e+00,
          6.39589250e-01, 6.39589250e-01, 9.39899147e-01, 9.39899147e-01,
          -1.87701619e+00, -1.87701619e+00, -1.97212100e+00,
          -1.97212100e+00, 3.09388733e+00, 3.09388733e+00,
          -2.50014877e+00, -2.50014877e+00, -3.24266672e+00,
          -3.24266672e+00, 3.34328842e+00, 3.34328842e+00,
          3.62621546e+00, 3.62621546e+00, -7.17766190e+00,
          -7.17766190e+00, -1.45709972e+01, -1.45709972e+01,
          -1.84766054e+00, -1.84766054e+00, -7.17432785e+00,
          -7.17432785e+00, -5.58184505e-01, -5.58184505e-01,
          4.29709244e+00, -3.91254902e+00, -3.91254902e+00,
          2.94847870e+00, 2.94847870e+00, -8.88065398e-01,
          -8.88065398e-01, 5.45770073e+00, 5.45770073e+00,
          -1.50072396e+00, -1.50072396e+00, 3.95202327e+00,
          3.95202327e+00, 3.92180443e-01, 3.92180443e-01,
          -1.28329496e+01, -1.28329496e+01, 8.99946332e-01,
          8.99946332e-01, 2.29490900e+00, 2.29490900e+00,
          -3.06894398e+00, -3.06894398e+00, 3.72106838e+00,
          3.72106838e+00, -8.62514496e+00, -8.62514496e+00,
          -4.11086941e+00, -4.11086941e+00, 2.01672864e+00,
          2.01672864e+00, -1.53428209e+00, -1.53428209e+00,
          1.39683902e+00, 1.01935756e+00, 1.01935756e+00, 5.49407840e-01,
          5.49407840e-01, -1.88329208e+00, -1.88329208e+00,
          5.33115530e+00, 5.33115530e+00, -4.34070206e+00,
          -4.34070206e+00, 1.61803257e+00, 1.61803257e+00,
          6.23103666e+00, 6.23103666e+00, -4.09977818e+00,
          -4.09977818e+00, -5.32596350e+00, -5.32596350e+00,
          1.94361544e+00, 1.94361544e+00, -1.23691761e+00,
          -1.23691761e+00, 2.42742491e+00, 2.42742491e+00,
          3.05885702e-01, 3.05885702e-01, -2.47003460e+00,
          -2.47003460e+00, -9.68128109e+00, -9.68128109e+00,
          -4.07909632e+00, 2.38827872e+00, 2.38827872e+00,
          7.21294832e+00, 7.21294832e+00, -8.57068443e+00,
          -8.57068443e+00, -3.73877382e+00, -3.73877382e+00,
          -1.74875343e+00, -1.74875343e+00, -2.39312387e+00,
          -2.39312387e+00, -7.51803064e+00, -7.51803064e+00,
          -9.29742396e-01, -9.29742396e-01, -4.19475746e+00,
          -4.19475746e+00, -3.18984658e-01, -3.18984658e-01,
          -5.31881237e+00, -5.31881237e+00, 4.75225830e+00,
          4.75225830e+00, -1.82505906e+00, -1.82505906e+00,
          -4.87727404e+00, -4.87727404e+00, -4.36944842e-01,
          -2.21679664e+00, -2.21679664e+00, -5.94195557e+00,
          -5.94195557e+00, 1.64666569e+00, 1.64666569e+00,
          3.15724313e-01, 2.30549669e+00, 2.30549669e+00,
          -3.16202402e+00, -3.16202402e+00, -1.83352336e-01,
          -1.83352336e-01, -1.79180658e+00, -1.79180658e+00,
          -1.18891363e+01, -1.18891363e+01, -1.98656344e+00,
          1.67037392e+00, 1.67037392e+00, -1.22173166e+01,
          -1.22173166e+01, -8.83074582e-01, -8.83074582e-01,
          4.20438576e+00, 4.20438576e+00, 1.96166861e+00, 1.96166861e+00,
          1.27865756e+00, 1.27865756e+00, -3.60058355e+00,
          -3.60058355e+00, 2.11523342e+00, 2.11523342e+00,
          -6.92948937e-01, -6.92948937e-01, 1.81591463e+00,
          1.81591463e+00, 2.27593660e+00, 2.27593660e+00, 8.74829650e-01,
          8.74829650e-01, -4.66289425e+00, -4.66289425e+00,
          3.95236254e-01, 3.95236254e-01, 3.66092253e+00, 3.66092253e+00,
          1.29474878e+00, 3.66939116e+00, 3.66939116e+00, 8.64074647e-01,
          8.64074647e-01, -1.81702876e+00, -1.81702876e+00,
          -3.20118642e+00, -3.20118642e+00, 4.33712631e-01,
          4.33712631e-01, 2.24067426e+00, 2.24067426e+00,
          -2.83792448e+00, -2.83792448e+00, -3.50344920e+00,
          -3.50344920e+00, -3.50928068e+00, -3.50928068e+00,
          1.43277884e+00, 1.43277884e+00, 2.65200090e+00, 2.65200090e+00,
          1.18060529e+00, 1.18060529e+00, -1.69676805e+00,
          -1.69676805e+00, -4.94308996e+00, -4.94308996e+00,
          2.82507968e+00, 2.82507968e+00, -3.96277189e+00,
          -3.96277189e+00, -3.00885487e+00, -3.00885487e+00,
          -4.56658840e+00, -4.56658840e+00, -2.34415317e+00,
          -2.34415317e+00, 7.92238176e-01, 7.92238176e-01,
          3.22554380e-01, 3.22554380e-01, 2.54889131e+00, 2.54889131e+00,
          -5.87942076e+00, 4.22364759e+00, 4.22364759e+00,
          2.59154415e+00, 2.59154415e+00, -9.69495833e-01,
