%YAML:1.0
---
opencv_ml_svm:
   format: 3
   svmType: C_SVC
   kernel:
      type: LINEAR
   C: 2.9999999999999999e-01
   term_criteria: { epsilon:1.1920928955078125e-07, iterations:1000 }
   var_count: 2000
   class_count: 2
   class_labels: !!opencv-matrix
      rows: 2
      cols: 1
      dt: i
      data: [ -1, 1 ]
   sv_total: 1
   support_vectors:
      - [ 1.04187541e-02, 1.63439959e-02, -9.69634129e-05,
          -3.37674073e-03, 2.81679537e-03, 7.80154369e-04,
          3.14588728e-03, -4.65498073e-03, 3.57637578e-03,
          -3.83768254e-03, -5.26060024e-03, -1.91515870e-03,
          -1.88055821e-03, 5.23900053e-06, 5.05687995e-03,
          4.64471697e-04, -3.66856251e-03, -1.69676016e-04,
          -2.71155918e-03, 1.97106577e-03, -1.44362776e-03,
          -3.18691391e-03, -1.61319531e-05, -2.45136907e-04,
          -1.11831061e-03, 1.15700322e-03, 3.16069374e-04,
          3.89708061e-04, -7.10334978e-04, -2.80022941e-04,
          -2.10508355e-03, 1.11876609e-04, -9.59587400e-04,
          1.09727075e-03, -2.65479228e-03, 2.10458802e-05,
          -1.34071626e-03, -1.64449331e-03, -2.40557082e-03,
          3.26078443e-04, -2.79615610e-03, -7.11089117e-04,
          -9.06043337e-04, 1.38003367e-03, 6.06049644e-03,
          -4.20669603e-05, -2.48771394e-03, -1.61580974e-03,
          -1.61402207e-03, -3.80537094e-05, -1.85919052e-03,
          4.02765203e-04, 1.13378756e-03, -6.32355572e-04,
          -1.90563209e-03, 1.83435634e-03, -6.33790332e-04,
          3.97930417e-05, 3.29371635e-03, -1.65014830e-03,
          7.28339772e-04, 1.33896235e-03, -2.97920569e-03,
          -3.64225684e-03, 2.99704820e-03, 1.63709791e-03,
          1.25004188e-03, -2.48493603e-03, 1.36763038e-05,
          7.42645760e-04, 8.19926732e-04, 2.29912766e-04,
          -8.17502732e-04, 7.65944889e-04, -3.52823385e-03,
          4.05153632e-03, 2.56933551e-03, 1.80074607e-03,
          -5.95998601e-04, 1.16588024e-03, -1.55427877e-03,
          -8.20635702e-04, 3.48786870e-03, -1.93886878e-03,
          -5.07304154e-04, -3.70304100e-04, -1.17530301e-03,
          -1.29209214e-03, -1.96798076e-03, -5.35384868e-04,
          1.45821052e-03, -4.22844518e-04, 6.33917574e-04,
          2.68587912e-03, -2.14073248e-03, 1.56846119e-03,
          7.83135707e-04, 5.09958772e-05, 1.83722688e-04, 1.58998545e-03,
          3.19960457e-03, 1.63818209e-03, 2.47408007e-03, 8.43659509e-04,
          -1.20898662e-03, -5.34102219e-05, 2.54695048e-03,
          5.04571770e-04, -1.53186862e-04, 1.28125993e-03,
          -2.31835409e-03, 6.17215992e-04, 1.38377433e-03,
          -2.61096109e-04, -1.06502173e-03, -1.85799610e-03,
          -1.48851145e-03, 1.36121002e-03, -2.87560571e-04,
          1.68518396e-03, 2.10716575e-03, 1.49019691e-03, 3.11141158e-03,
          -1.18767866e-03, 1.67356629e-03, -1.32901157e-04,
          -1.63604924e-03, -1.69872609e-03, 1.59870062e-04,
          3.90847010e-04, -1.88140362e-03, 1.59455361e-04,
          -2.60976003e-03, 6.63586707e-06, -2.84341455e-04,
          -1.72591695e-04, -1.12141133e-03, 9.11920331e-04,
          1.75400579e-04, 1.57135690e-03, 2.65408237e-03, 3.45574837e-04,
          -4.53297835e-04, -1.51047530e-03, 9.82700265e-04,
          1.52605155e-03, -6.54981763e-04, 1.89715298e-03,
          -3.19592631e-03, 7.22005381e-04, -1.64639263e-03,
          6.28150068e-04, 1.08680839e-03, 1.74857245e-03, 1.92295003e-03,
          2.25338293e-03, -7.60736817e-04, -1.33021246e-03,
          -7.94353604e-04, 2.12405669e-03, -1.84703129e-03,
          -9.93470676e-05, -2.96821818e-05, -2.90180815e-05,
          1.69503991e-03, 1.80658291e-03, 4.32670291e-04, 3.24748311e-04,
          1.13784510e-03, -1.77233480e-04, 8.33858358e-05,
          -1.37071859e-03, -2.98687926e-04, 1.32220110e-03,
          -9.45540378e-04, -2.42647191e-04, -4.85295150e-03,
          5.58953499e-04, 1.58681229e-04, 6.92574773e-04,
          -5.00140188e-04, -2.52768397e-04, -3.71495291e-04,
          -1.99479866e-03, -2.38930783e-03, 1.07975638e-05,
          4.41446085e-04, 1.98176873e-04, -1.33988215e-03,
          9.64968815e-04, -9.20621969e-04, 2.36976310e-03,
          7.69337348e-04, 2.27969699e-03, -1.02976291e-03,
          3.64512997e-03, -1.85022980e-03, 4.09798631e-05,
          1.33827631e-03, -6.98041404e-04, -1.90721394e-03,
          6.82951504e-05, -9.69051107e-05, 1.51684682e-03,
          6.09475537e-04, 1.61838753e-03, 1.11864205e-03, 6.38251950e-04,
          1.27363834e-03, 9.78228287e-04, 4.63814271e-04, 5.98348211e-04,
          -4.82534058e-04, 1.40904827e-04, -1.01255334e-03,
          5.12315564e-05, -1.17794727e-03, 1.25990412e-03,
          4.42044802e-05, -4.53574379e-04, 4.29181309e-05,
          2.18784960e-04, -1.73139211e-03, 3.52174015e-04,
          8.38130654e-04, 4.52461303e-04, 2.72460282e-04, 6.76403171e-04,
          1.91702344e-03, -1.05646858e-03, 1.07018382e-03,
          -9.81227146e-04, -5.32582169e-04, 1.64161448e-03,
          -1.45392981e-03, 2.85024162e-05, 6.42027953e-05,
          6.50269867e-05, -1.67612583e-04, -1.74592133e-03,
          1.39439153e-03, -3.87488952e-04, 8.35474115e-04,
          -2.30864505e-04, 9.29172209e-04, -5.83488960e-04,
          -1.36185065e-03, -1.67655968e-03, -1.70721847e-03,
          -6.38426165e-04, 1.65364367e-03, 1.37702504e-03,
          8.29043158e-04, 7.95538217e-05, -8.75386293e-04,
          -5.45663293e-04, 2.69654760e-04, 2.10872560e-04,
          -9.74671217e-04, 8.72574383e-05, 9.64348146e-04,
          -1.31632289e-04, -1.09854748e-03, -6.37864985e-04,
          -3.51571616e-05, -2.15089021e-04, 8.36297550e-05,
          -2.69483062e-05, -1.41905400e-03, -5.86168724e-04,
          2.93226505e-04, -4.95339220e-04, 3.50399387e-05,
          -4.08360735e-04, 4.04216480e-05, 3.88289831e-04,
          -4.58789058e-04, 1.10631704e-03, -1.73165536e-04,
          -7.17227114e-04, 1.09728088e-03, 4.43326775e-04,
          -1.55598822e-03, -1.05730759e-03, 6.84703002e-04,
          -1.15558587e-03, -4.28684783e-04, -1.19685754e-03,
          5.84267429e-04, -4.26592946e-04, -1.89889324e-04,
          3.01954551e-05, 6.63023238e-05, 1.93544678e-04,
          -1.19947968e-03, 6.22108782e-05, 1.12077699e-03,
          -3.31526622e-04, 1.21498495e-04, -1.20838828e-04,
          6.63195096e-04, -2.50113313e-04, -6.83867140e-04,
          -8.00783280e-04, 6.30943454e-04, -7.72221945e-04,
          -1.87649348e-04, -3.46333662e-04, 7.65008095e-04,
          -9.31778050e-04, -5.59510023e-04, 1.63249686e-04,
          8.48926371e-04, 3.52968142e-04, -1.04551052e-03,
          8.84596026e-04, -6.11636555e-04, 1.34350877e-04,
          1.12121284e-03, -8.36177496e-04, -1.31961505e-03,
          4.63443546e-04, -1.22395984e-03, -1.07837946e-03,
          -7.71372928e-04, 7.08521460e-04, -1.06427695e-04,
          -2.50954006e-04, 3.73228067e-05, 7.01475306e-04,
          3.35905526e-04, 1.30746688e-03, -1.99869435e-04,
          -1.51531465e-04, 2.68976873e-04, -7.57328235e-04,
          -1.15178269e-03, -4.55924106e-04, 1.23964204e-03,
          7.34081186e-05, 1.91966828e-04, -4.47214959e-04,
          1.06621825e-04, -1.22187457e-05, 6.90602057e-04,
          -9.03514388e-04, -7.61389208e-04, 5.87725837e-04,
          7.49458908e-04, 4.62774478e-04, 8.64290196e-05, 2.57722859e-04,
          -2.35273110e-04, 6.66442851e-04, -3.25504865e-04,
          -4.39820637e-04, -1.23901037e-03, -1.64522600e-04,
          -1.19630550e-03, -7.80564733e-04, 1.45375286e-03,
          7.75997294e-04, -4.57185786e-04, 1.36670517e-03,
          9.72790644e-04, 1.21621248e-04, 1.28068344e-03, 9.47392371e-04,
          9.96852410e-04, -2.84207690e-05, -1.85465295e-04,
          1.68664055e-03, -8.44316906e-04, 1.69566811e-05,
          -6.06852467e-04, -5.49506862e-04, -1.28835149e-03,
          5.51984354e-04, 6.58043951e-04, -7.53305721e-05,
          4.30342450e-04, 1.19515124e-03, -6.15537283e-04,
          6.46206550e-04, 1.73942768e-04, -7.08231411e-04,
          -6.80083700e-04, 4.94193577e-04, 1.15057046e-03,
          -1.05509884e-04, -5.39360277e-04, 8.34323801e-05,
          1.39561214e-03, 6.18621008e-04, 1.76274814e-04,
          -8.87965900e-04, 7.93054583e-04, -6.61255981e-05,
          7.26401282e-04, 5.45080220e-05, -6.85387291e-04,
          -6.50594884e-04, -8.44684138e-04, 2.30036574e-04,
          -6.39402948e-04, -1.53176763e-04, -7.20539188e-04,
          2.19015375e-04, -6.97135984e-04, 5.04215830e-04,
          8.54496102e-05, 4.65624733e-04, -2.13873733e-04,
          -5.05839766e-04, 2.30273072e-04, 1.85984609e-04,
          9.95195587e-04, -1.04628131e-03, 4.51609114e-04,
          3.82342056e-04, -9.20234015e-04, 2.69787008e-04,
          -4.67559817e-04, 3.38190759e-04, -8.08150857e-04,
          5.49394754e-04, 1.37186435e-04, 6.73716655e-04,
          -1.90800813e-03, -3.47570603e-04, 8.38291671e-05,
          3.70224298e-05, -8.98631115e-05, 8.99175531e-04,
          8.40442022e-04, 6.28958398e-04, 8.10366473e-05,
          -3.54624899e-05, -9.50787580e-06, -5.54727274e-04,
          5.76665334e-04, -1.02961541e-03, -2.96842860e-04,
          3.39331833e-04, 7.97748362e-05, -4.39777650e-04,
          -8.22158254e-05, 5.63740381e-04, -6.17716214e-05,
          -2.29717698e-04, -5.27636672e-04, -5.37498330e-04,
          2.76966166e-04, -3.44011525e-04, -3.51996918e-04,
          3.26384150e-04, 8.78440973e-04, -3.04795481e-04,
          -2.48823926e-04, -4.69942344e-04, -1.01545861e-03,
          -8.93094228e-04, 3.88920394e-04, 3.02600820e-04,
          -4.93586471e-04, 1.05461353e-04, -6.27063331e-04,
          2.58577667e-04, -3.25451474e-05, -4.82104311e-04,
          2.21711336e-04, -3.26300098e-04, 5.43560425e-04,
          3.91040485e-05, -2.06399578e-04, -5.37972024e-04,
          -3.49154579e-04, -6.99461234e-05, -2.36326872e-04,
          5.52932725e-05, 6.32961805e-04, -1.62241791e-04,
          -4.08960157e-04, -9.32466006e-04, -9.69384710e-05,
          -4.27020277e-04, 2.72675592e-04, 1.69213599e-04,
          3.77120916e-04, 1.12400776e-04, 1.91488434e-04, 3.32652155e-04,
          3.82141356e-04, 3.20406410e-11, -2.38934757e-11,
          1.14518854e-18, 5.35669877e-11, -6.24823587e-12,
          -4.20873475e-11, 1.53148501e-11, 4.08560234e-11,
          7.55918245e-12, 2.13054331e-11, 2.13054331e-11,
          -2.02269122e-11, 9.88695410e-12, 9.88695410e-12,
          1.41410833e-11, -3.18663949e-11, -3.18663949e-11,
          -3.17542381e-11, -3.44195440e-12, -9.61808896e-11,
          1.51928296e-11, 1.51928296e-11, -2.76132741e-18,
          -1.99291191e-11, -1.99291191e-11, -3.31295442e-11,
          1.30104261e-18, 1.30104261e-18, 4.34478876e-11, 4.34478876e-11,
          1.01683273e-10, 1.01683273e-10, 9.94375936e-12, 1.58771173e-11,
          1.58771173e-11, -1.48633647e-10, -1.48633647e-10,
          7.28611685e-11, -2.15015089e-11, -2.15015089e-11,
          -5.51109245e-12, -5.51109245e-12, -1.20754943e-11,
          -1.20754943e-11, -1.03008539e-11, -1.03008539e-11,
          3.05266749e-12, 5.56589605e-13, -9.58434304e-11,
          -9.58434304e-11, -9.97034486e-12, -9.97034486e-12,
          1.96511644e-18, 1.96511644e-18, 3.89618442e-11, 3.89618442e-11,
          -2.03627080e-11, -2.03627080e-11, 1.11202731e-11,
          -5.18802362e-12, 1.55452300e-11, 1.55452300e-11,
          1.38090608e-10, 1.38090608e-10, 1.19201012e-11, 1.19201012e-11,
          -2.66744508e-11, -2.66744508e-11, -2.21947512e-11,
          -2.21947512e-11, -1.59989817e-11, -1.59989817e-11,
          -5.46579329e-13, -5.46579329e-13, -1.36497150e-11,
          -1.36497150e-11, 2.13067897e-11, 2.13067897e-11,
          1.36834433e-11, 1.36834433e-11, 2.79029456e-11, 2.79029456e-11,
          7.15339897e-12, 7.15339897e-12, 3.73396349e-11, 3.73396349e-11,
          -1.42198198e-11, -2.95106279e-18, -2.95106279e-18,
          -1.75885380e-12, -1.75885380e-12, -1.26062893e-11,
          -1.26062893e-11, -1.65368691e-11, 6.75278063e-12,
          6.75278063e-12, -3.59296724e-11, -3.59296724e-11,
          6.13954851e-12, 6.13954851e-12, 8.45443646e-11, 8.45443646e-11,
          -8.55603175e-12, -8.55603175e-12, 3.09039361e-12,
          3.09039361e-12, -2.52415818e-19, -2.52415818e-19,
          1.56115312e-12, 1.56115312e-12, -4.78647122e-11,
          -8.20519555e-11, -8.20519555e-11, 1.33415553e-11,
          1.33415553e-11, -1.08000605e-11, -1.08000605e-11,
          3.25200561e-11, 3.25200561e-11, -1.83448048e-12,
          -1.83448048e-12, 6.27571259e-12, 6.27571259e-12,
          5.34182236e-13, 5.34182236e-13, 1.40100587e-11,
          -8.83855109e-13, -8.83855109e-13, -5.07687208e-12,
          -5.07687208e-12, -5.09622162e-12, -5.09622162e-12,
          1.93026012e-11, 1.93026012e-11, -1.88684571e-11,
          -1.58744094e-11, -1.58744094e-11, 7.26979024e-13,
          7.26979024e-13, 2.42863785e-11, 2.42863785e-11, 5.50763341e-12,
          5.50763341e-12, 3.80710914e-12, 3.80710914e-12, 3.58283403e-11,
          3.58283403e-11, -2.19550940e-18, -2.19550940e-18,
          1.65815642e-11, 1.65815642e-11, 7.13495929e-12, 7.13495929e-12,
          -1.98547515e-11, -1.98547515e-11, 4.70210641e-11,
          -2.71050543e-20, -2.71050543e-20, 2.02862189e-11,
          2.02862189e-11, -3.04724301e-12, -3.04724301e-12,
          -1.48087514e-11, -2.15445717e-11, -2.15445717e-11,
          4.87890978e-19, 4.87890978e-19, 1.57479856e-12, 1.57479856e-12,
          -6.97919569e-11, -6.97919569e-11, -6.55686096e-12,
          -6.55686096e-12, 2.54787511e-18, 2.54787511e-18,
          -8.14149373e-11, -8.14149373e-11, -4.72858801e-11,
          -4.72858801e-11, -2.84481154e-11, -2.84481154e-11,
          6.36054837e-12, 6.36054837e-12, -2.57498016e-19,
          -2.57498016e-19, -1.13841228e-18, -1.13841228e-18,
          6.96015077e-12, 1.46581063e-11, 1.46581063e-11, 2.07748818e-11,
          2.07748818e-11, -5.94126397e-12, -5.94126397e-12,
          -7.72680010e-12, -2.14807555e-18, 6.84411859e-12,
          6.84411859e-12, -2.29480627e-12, -2.29480627e-12,
          -1.93482470e-11, -1.93482470e-11, -1.37064258e-11,
          -1.37064258e-11, -8.47674687e-13, -8.47674687e-13,
          -6.31088281e-12, -6.31088281e-12, 4.66812873e-12,
          4.66812873e-12, -1.51346245e-11, -1.00483614e-11,
          -1.00483614e-11, 1.06041044e-11, 1.06041044e-11,
          -2.21796418e-11, -2.21796418e-11, -1.24005623e-18,
          -1.24005623e-18, -1.61577071e-11, -1.61577071e-11,
          -1.07128395e-11, -1.07128395e-11, -4.40905645e-12,
          -4.40905645e-12, -1.77471770e-11, -1.77471770e-11,
          7.28448335e-19, -1.55176436e-18, -1.55176436e-18,
          2.03965534e-18, 2.03965534e-18, 7.53742771e-13, 7.53742771e-13,
          -1.45698818e-11, -1.45698818e-11, 2.51257123e-11,
          -1.51674839e-10, -1.51674839e-10, -8.42076148e-12,
          -8.42076148e-12, 5.53393355e-12, 5.53393355e-12,
          -2.23296143e-12, -2.23296143e-12, 3.55152930e-12,
          3.55152930e-12, 7.86164103e-12, -5.98697697e-12,
          -5.98697697e-12, 4.43085880e-11, 4.43085880e-11,
          -2.17349194e-11, -2.17349194e-11, 1.18217346e-11,
          -7.07561006e-12, -7.07561006e-12, 1.16268063e-11,
          1.16268063e-11, 4.48506683e-13, 4.48506683e-13, 3.65074221e-11,
          3.65074221e-11, 1.99984890e-11, 1.99984890e-11,
          -5.14996032e-19, -5.14996032e-19, 1.13807375e-11,
          1.13807375e-11, -4.17391607e-11, -4.17391607e-11,
          -6.84349767e-13, -6.84349767e-13, 4.12109669e-12,
          4.12109669e-12, -2.33442280e-18, -2.33442280e-18,
          -9.52065033e-19, -9.52065033e-19, 1.17792278e-11,
          1.17792278e-11, 1.32651420e-12, 1.32651420e-12, 5.35853306e-12,
          5.35853306e-12, 7.25060203e-19, 7.25060203e-19,
          -2.05623053e-11, -2.05623053e-11, 1.18923426e-18,
          1.18923426e-18, -2.71929979e-11, 4.64626601e-12,
          4.64626601e-12, -7.63480772e-12, -7.63480772e-12,
          2.86041746e-11, 2.86041746e-11, 1.44334414e-18, 1.44334414e-18,
          4.30292737e-19, 4.30292737e-19, -1.67225435e-12,
          -1.67225435e-12, 1.22650371e-18, 1.22650371e-18,
          -1.63779476e-11, -1.63779476e-11, 3.18484388e-19,
          3.18484388e-19, 2.24033760e-11, 2.24033760e-11,
          -1.85378483e-11, -1.85378483e-11, -1.29750108e-11,
          -1.29750108e-11, -2.45055504e-11, -2.45055504e-11,
          1.28170868e-12, 1.28170868e-12, 2.27628598e-13, 2.27628598e-13,
          -1.09573781e-10, -1.09573781e-10, -3.65907348e-12,
          1.38475386e-11, 1.38475386e-11, 1.33372228e-11, 1.33372228e-11,
          -1.64323641e-11, -1.64323641e-11, -1.89169600e-12,
          -1.89169600e-12, -1.10074146e-11, -1.10074146e-11,
          1.68898261e-12, 1.68898261e-12, -1.73526679e-11,
          -1.73526679e-11, 4.27120492e-12, 4.27120492e-12,
          -9.02035564e-12, -9.02035564e-12, -1.32651442e-12,
          -1.32651442e-12, -7.23665182e-12, 4.24242542e-12,
          4.24242542e-12, -1.89735380e-19, -1.89735380e-19,
          7.31871161e-11, 7.31871161e-11, 7.88271271e-12, 7.88271271e-12,
          1.93382706e-11, 1.93382706e-11, -1.18929354e-11,
          -1.18929354e-11, -6.75986524e-12, -6.75986524e-12,
          -1.49077799e-18, -1.10303357e-12, -1.10303357e-12,
          2.93123078e-12, 2.93123078e-12, -1.63634048e-12,
          -1.63634048e-12, -1.73847239e-11, -1.73847239e-11,
          1.16830903e-11, 1.16830903e-11, 2.66070638e-11, 2.66070638e-11,
          -1.89043503e-11, -1.89043503e-11, -1.71729408e-10,
          1.54461062e-11, 1.54461062e-11, -7.05197923e-12,
          -7.05197923e-12, -2.79476789e-11, -2.79476789e-11,
          -1.19519878e-12, -1.19519878e-12, -2.85525076e-11,
          -2.85525076e-11, -2.02237879e-11, -2.02237879e-11,
          -1.69406589e-19, -1.69406589e-19, 1.37242518e-11,
          1.37242518e-11, -8.43644772e-12, -8.43644772e-12,
          4.39033532e-11, 4.39033532e-11, 9.81229750e-11, 9.81229750e-11,
          2.87991202e-19, 2.87991202e-19, 2.25297190e-12, 2.25297190e-12,
          -1.45645594e-12, -1.45645594e-12, -5.71926621e-12,
          -5.71926621e-12, 5.41824701e-12, 5.41824701e-12,
          7.35179712e-12, 7.35179712e-12, 6.91641796e-12, 6.91641796e-12,
          4.82897359e-12, 4.82897359e-12, -2.44603404e-12,
          -2.44603404e-12, -1.40859373e-12, -1.40859373e-12,
          8.06375366e-19, 8.06375366e-19, 1.40859384e-12, 1.40859384e-12,
          -3.16790322e-19, -3.16790322e-19, -1.42620854e-11,
          -1.42620854e-11, 2.25636979e-12, 2.25636979e-12,
          -7.71381570e-12, -7.71381570e-12, -2.98955131e-12,
          -2.98955131e-12, -1.56704218e-12, -1.56704218e-12,
          -1.91102065e-11, -1.91102065e-11, 1.25868066e-11,
          1.25868066e-11, 1.75190869e-11, 1.75190869e-11,
          -1.32651388e-12, -1.32651388e-12, 2.32568224e-13,
          2.32568224e-13, 6.03481718e-12, 6.03481718e-12, 4.46017312e-12,
          4.46017312e-12, 1.43092005e-12, 1.43092005e-12, 3.52197633e-12,
          3.52197633e-12, 3.72499080e-12, 3.72499080e-12,
          -7.39783755e-12, -7.39783755e-12, -4.18434276e-19,
          -4.18434276e-19, -1.98967648e-11, -1.98967648e-11,
          -1.89205058e-11, -1.89205058e-11, -1.51455603e-13,
          -1.51455603e-13, 7.05396288e-12, 7.05396288e-12,
          1.43675967e-12, 1.43675967e-12, 3.25260652e-19, 3.25260652e-19,
          6.26068988e-12, 6.26068988e-12, -5.05419664e-12,
          -5.05419664e-12, 1.09068353e-11, -4.97064976e-12,
          -4.97064976e-12, -1.08960358e-11, -1.08960358e-11,
          4.27120665e-12, 4.27120665e-12, 1.25191437e-12, 1.25191437e-12,
          4.72183230e-11, 4.72183230e-11, -7.06659731e-12,
          -7.06659731e-12, 3.72718219e-12, 3.72718219e-12,
          1.29486127e-11, 1.29486127e-11, -1.77538106e-18,
          -1.77538106e-18, -1.25191426e-12, -1.25191426e-12,
          -5.22918557e-12, -5.22918557e-12, 4.01493617e-19,
          4.01493617e-19, 1.58891476e-11, 1.58891476e-11,
          -5.34698587e-12, -5.34698587e-12, -2.45889750e-11,
          -2.45889750e-11, -1.90471055e-12, -7.45375203e-12,
          -7.45375203e-12, 2.40487253e-12, 2.40487253e-12,
          -7.04297081e-13, -7.04297081e-13, -1.04821204e-11,
          -1.04821204e-11, 7.53250760e-12, 7.53250760e-12,
          -1.09594400e-11, -1.09594400e-11, -9.17379280e-12,
          -9.17379280e-12, 2.92168872e-12, 2.92168872e-12,
          4.26768447e-11, 1.73657790e-11, 1.73657790e-11,
          -2.41490265e-11, -2.41490265e-11, -3.18194256e-12,
          -3.18194256e-12, -5.46835147e-12, -5.46835147e-12,
          5.65242428e-12, 1.03305038e-11, 1.03305038e-11, 1.16809782e-11,
          1.16809782e-11, -3.48395873e-13, -3.48395873e-13,
          -4.82808780e-19, -4.82808780e-19, -5.64571133e-12,
          -5.64571133e-12, -8.78008929e-13, -8.78008929e-13,
          -4.74338450e-20, -4.74338450e-20, 4.31243409e-12,
          4.31243409e-12, 3.36668540e-11, 3.36668540e-11,
          -1.54832865e-11, -1.54832865e-11, -7.43305938e-12,
          -7.43305938e-12, 6.42457615e-12, 6.42457615e-12,
          1.79922327e-11, 1.79922327e-11, 1.75601851e-12, 1.75601851e-12,
          -5.86171736e-12, -5.86171736e-12, -2.67338105e-12,
          -2.67338105e-12, -5.44776030e-12, -5.44776030e-12,
          -5.32387676e-12, 2.18283273e-11, 2.18283273e-11,
          7.04297514e-13, 7.04297514e-13, -1.15754611e-11,
          -1.15754611e-11, -7.21199402e-12, -7.21199402e-12,
          -7.64609123e-12, -7.64609123e-12, -1.02082075e-11,
          -1.02082075e-11, 1.45854908e-11, 1.45854908e-11,
          1.19215237e-11, 1.19215237e-11, -1.38531877e-11,
          -1.38531877e-11, 2.60145529e-12, 2.60145529e-12,
          -1.75077010e-12, -1.75077010e-12, 1.93407096e-12,
          1.93407096e-12, -9.00589672e-12, -7.96619888e-12,
          -7.96619888e-12, -3.00380012e-12, -3.00380012e-12,
          -8.10874284e-12, -8.10874284e-12, 9.79937832e-12,
          9.79937832e-12, -8.39340576e-12, -8.39340576e-12,
          -1.61543088e-11, -1.61543088e-11, -1.10721295e-12,
          -1.10721295e-12, 6.96104892e-12, 6.96104892e-12,
          -1.81846682e-12, -1.81846682e-12, -1.62418223e-12,
          -1.62418223e-12, -3.96451795e-12, -3.96451795e-12,
          2.10528686e-12, 2.10528686e-12, 9.70220345e-12, 9.70220345e-12,
          1.83226741e-12, 1.83226741e-12, -7.99116242e-12,
          -7.99116242e-12, -3.35949584e-12, -3.35949584e-12,
          1.38066370e-18, 1.38066370e-18, 1.33622349e-11, 1.33622349e-11,
          2.93436738e-12, 2.93436738e-12, -1.47383733e-19,
          -1.47383733e-19, -5.85449050e-12, -5.85449050e-12,
          6.00327123e-12, 6.00327123e-12, -1.25091586e-11,
          -1.25091586e-11, -8.81009588e-12, -8.81009588e-12,
          2.54266877e-12, 2.54266877e-12, 1.75427728e-11, 1.75427728e-11,
          -2.70123628e-11, -2.70123628e-11, 2.63626794e-11,
          2.63626794e-11, 6.42050974e-19, 6.42050974e-19, 4.58090683e-12,
          4.58090683e-12, -4.39005115e-13, -4.39005115e-13,
          8.80682072e-12, 8.80682072e-12, -1.00200057e-12,
          -1.00200057e-12, 3.59638317e-13, 3.59638317e-13,
          -8.55084233e-12, 2.35876011e-12, 2.35876011e-12,
          7.28647698e-12, 7.28647698e-12, -9.82912102e-12,
          -9.82912102e-12, 1.11669007e-11, 1.11669007e-11,
          2.46928801e-12, 2.46928801e-12, 1.77876919e-19, 1.77876919e-19,
          -1.73881170e-11, -1.73881170e-11, 4.33163271e-12,
          4.33163271e-12, -4.85887068e-12, -8.78008115e-13,
          -8.78008115e-13, 7.28150353e-12, 7.28150353e-12,
          -8.69077033e-12, -8.69077033e-12, 3.19031346e-12,
          3.19031346e-12, 9.79044623e-12, 9.79044623e-12,
          -1.81919388e-12, -1.81919388e-12, 1.13184646e-12,
          1.13184646e-12, 4.39005169e-13, 4.39005169e-13, 1.19454229e-11,
          1.19454229e-11, -2.07525381e-12, -2.07525381e-12,
          -2.59842599e-11, -2.59842599e-11, -2.80831971e-13,
          -2.80831971e-13, -5.02285886e-12, -5.02285886e-12,
          -4.70676796e-12, -4.70676796e-12, 6.26941901e-12,
          6.26941901e-12, 2.24168102e-12, 2.24168102e-12,
          -1.36543121e-11, -1.36543121e-11, -4.54963866e-13,
          -4.54963866e-13, -6.32866632e-12, -6.32866632e-12,
          3.06443195e-12, 3.06443195e-12, -1.21989181e-12,
          -1.21989181e-12, 2.20398682e-11, 2.20398682e-11,
          4.13223362e-12, 4.13223362e-12, -8.91010096e-12,
          -8.91010096e-12, 2.71821194e-12, 2.71821194e-12,
          6.48109994e-12, 6.48109994e-12, 4.26399107e-12, 4.26399107e-12,
          -6.47459864e-12, -6.47459864e-12, -6.43940457e-12,
          -6.43940457e-12, -1.37138998e-12, -1.37138998e-12,
          5.83760817e-12, 5.83760817e-12, -5.91051383e-12,
          -5.91051383e-12, 3.77791938e-12, 3.77791938e-12,
          -9.08599758e-12, -9.08599758e-12, 2.41481661e-12,
          2.41481661e-12, -3.17221683e-12, 3.00104429e-12,
          3.00104429e-12, 3.95336455e-12, 3.95336455e-12,
          -5.68945151e-12, -5.68945151e-12, 7.90802493e-12,
          7.90802493e-12, 5.31081863e-12, 5.31081863e-12,
          -1.57980963e-12, -1.57980963e-12, 1.39572734e-13,
          1.39572734e-13, -1.94475555e-12, -1.94475555e-12,
          -1.26361118e-11, -1.26361118e-11, -7.64653011e-12,
          -7.64653011e-12, 1.94637752e-12, 1.94637752e-12,
          1.59049043e-12, 1.59049043e-12, -4.61715128e-12,
          -4.61715128e-12, -1.37532997e-12, -7.05235653e-12,
          -7.05235653e-12, -1.44210197e-12, -1.44210197e-12,
          1.00013869e-11, 1.00013869e-11, 5.98591576e-12, 5.98591576e-12,
          -1.04329670e-11, -1.04329670e-11, -1.12441402e-11,
          -1.12441402e-11, 7.62329653e-21, 7.62329653e-21,
          3.06501387e-11, 3.06501387e-11, 2.94627755e-12, 1.85834920e-12,
          1.85834920e-12, 5.10491519e-12, 5.10491519e-12,
          -2.24527254e-11, -2.24527254e-11, 8.10313205e-11,
          8.10313205e-11, -6.71322546e-12, -6.71322546e-12,
          1.78030171e-12, 1.78030171e-12, -7.00861081e-13,
          -7.00861081e-13, 1.08073706e-11, 2.86653210e-12,
          2.86653210e-12, -9.40436271e-12, -9.40436271e-12,
          4.43845264e-19, 4.43845264e-19, 2.03920106e-12, 2.03920106e-12,
          1.04647183e-12, 1.04647183e-12, -1.53988801e-12,
          -1.53988801e-12, -8.80033893e-12, -8.80033893e-12,
          3.92279762e-15, 3.92279762e-15, -1.58162993e-13,
          -1.58162993e-13, -1.76182853e-19, -1.76182853e-19,
          -3.62530101e-19, -3.62530101e-19, -6.60006988e-12,
          -6.60006988e-12, 3.12387768e-12, 3.12387768e-12,
          -7.20399131e-12, -7.20399131e-12, -1.68592798e-12,
          -1.68592798e-12, -1.52246325e-12, -1.52246325e-12,
          -1.33831206e-19, -1.33831206e-19, 4.39004573e-13,
          4.39004573e-13, 9.11181634e-12, 9.11181634e-12,
          -2.97086444e-12, -2.97086444e-12, -1.22490158e-12,
          1.63947003e-12, -1.39147743e-12, -1.39147743e-12,
          1.48860351e-12, -1.03705954e-12, -1.03705954e-12,
          3.49250360e-12, 3.49250360e-12, 1.95475797e-12, 1.95475797e-12,
          -4.85835244e-12, -4.85835244e-12, 1.14686776e-12,
          1.14686776e-12, -3.41011616e-12, -3.41011616e-12,
          1.02076290e-11, 1.02076290e-11, 3.21025487e-19, 3.21025487e-19,
          1.46536700e-19, 1.46536700e-19, -3.17637355e-20,
          -3.17637355e-20, -2.04134940e-19, -2.04134940e-19,
          -1.35525272e-20, -1.35525272e-20, 1.42592169e-13,
          1.42592169e-13, -2.19502571e-13, -2.19502571e-13,
          -1.56127195e-12, -1.56127195e-12, -4.50853981e-12,
          -4.50853981e-12, 3.91234484e-12, 3.91234484e-12,
          5.75230922e-12, 5.75230922e-12, 2.69663361e-13, 2.69663361e-13,
          -1.19902851e-12, -1.19902851e-12, 2.61179555e-12,
          2.61179555e-12, 1.88584946e-11, 1.88584946e-11,
          -6.36740416e-14, -6.36740416e-14, 3.06350995e-12,
          3.06350995e-12, -1.30072765e-12, -1.30072765e-12,
          -8.47032947e-21, -8.47032947e-21, -9.05603825e-13,
          -9.05603825e-13, 3.95984070e-12, 3.95984070e-12,
          4.49126007e-13, 4.49126007e-13, 9.54323166e-12, 9.54323166e-12,
          1.39123617e-11, 1.39123617e-11, 1.55929124e-11, 1.55929124e-11,
          -4.35518678e-12, -4.35518678e-12, -4.66284390e-12,
          -4.66284390e-12, -2.19502232e-13, -2.19502232e-13,
          6.97427196e-13, 6.97427196e-13, 1.13201714e-11, 1.13201714e-11,
          2.35184073e-12, 2.35184073e-12, 6.21113837e-12, 6.21113837e-12,
          5.72384327e-12, 5.72384327e-12, -2.72437194e-12,
          -2.72437194e-12, -4.10830007e-12, -4.10830007e-12,
          -3.14962488e-12, -3.14962488e-12, 4.07648145e-13,
          4.07648145e-13, 1.78584890e-11, -3.92550922e-12,
          -3.92550922e-12, 6.61446199e-14, 6.61446199e-14,
          7.38100932e-13, 7.38100932e-13, 3.22719553e-19, 3.22719553e-19,
          -7.30652084e-13, -7.30652084e-13, -1.69406589e-20,
          -1.69406589e-20, -1.28423921e-12, -1.28423921e-12,
          1.43058143e-11, 1.43058143e-11, -5.71651016e-13,
          -5.71651016e-13, 1.02868777e-12, 1.02868777e-12,
          2.48292684e-12, 2.48292684e-12, -3.37148777e-12,
          -3.37148777e-12, -4.64455124e-12, -4.64455124e-12,
          -3.55115720e-12, -3.55115720e-12, 5.02933372e-12,
          5.02933372e-12, -2.03833500e-12, -2.03833500e-12,
          1.06256974e-12, 1.06256974e-12, -6.30813490e-13,
          -1.16855722e-12, -1.16855722e-12, 1.46714715e-12,
          1.46714715e-12, 1.38171419e-11, 1.38171419e-11, 1.36307046e-12,
          1.36307046e-12, 4.06438685e-12, 4.06438685e-12, 2.88037975e-12,
          2.88037975e-12, 1.73381947e-12, 1.73381947e-12, 4.01972206e-12,
          4.01972206e-12, -3.29701164e-13, -3.29701164e-13,
          1.13133710e-12, 1.13133710e-12, 7.87399117e-13, 2.53709640e-12,
          2.53709640e-12, 3.09064601e-12, 3.09064601e-12,
          -1.96739733e-13, -1.96739733e-13, 1.88358574e-12,
          1.88358574e-12, 8.67177424e-12, -4.33613562e-12,
          -4.33613562e-12, -5.58895595e-13, -5.58895595e-13,
          2.72867904e-12, 2.72867904e-12, 3.08184186e-12, 3.08184186e-12,
          7.25328434e-13, 7.25328434e-13, 6.04239271e-12, 6.04239271e-12,
          4.62965430e-12, 6.44333111e-12, 6.44333111e-12,
          -1.33545342e-13, -1.33545342e-13, 3.15067091e-12,
          3.15067091e-12, -1.20479690e-12, -1.20479690e-12,
          5.12314843e-12, 5.12314843e-12, 2.02795181e-12, 2.02795181e-12,
          -2.00563394e-12, -2.00563394e-12, 5.32586735e-12,
          5.32586735e-12, -4.80983135e-12, -4.80983135e-12,
          7.75620713e-12, -5.85630676e-12, -5.85630676e-12,
          6.48468432e-12, 6.48468432e-12, -3.70010446e-12,
          -3.70010446e-12, 1.71100655e-19, 1.71100655e-19,
          -7.37582358e-13, -7.37582358e-13, 2.52392703e-12,
          2.52392703e-12, 1.49139165e-12, 1.49139165e-12,
          -5.91021427e-13, -5.91021427e-13, -2.89290618e-12,
          3.81347861e-12, 3.81347861e-12, -2.16045714e-12,
          -2.16045714e-12, -2.65968345e-19, -2.65968345e-19,
          -1.71098346e-12, -1.71098346e-12, -1.89078562e-11,
          -1.89078562e-11, -8.30458185e-12, -8.30458185e-12,
          -3.14941909e-12, -3.14941909e-12, -3.49824607e-19,
          -6.45556612e-12, -6.45556612e-12, -2.33606103e-12,
          -2.33606103e-12, -4.10656562e-13, -4.10656562e-13,
          -5.68359487e-13, -5.68359487e-13, -1.67023144e-12,
          -1.67023144e-12, -2.66815378e-20, -2.66815378e-20,
          5.03230183e-12, 5.03230183e-12, 5.23235144e-12, 5.23235144e-12,
          1.26140504e-12, 1.26140504e-12, 4.00782792e-12, 4.00782792e-12,
          3.31629038e-13, 3.31629038e-13, 2.13560354e-12, 2.13560354e-12,
          -8.06299558e-12, -8.06299558e-12, -2.22388514e-12,
          -2.22388514e-12, 1.59745015e-12, 1.59745015e-12,
          -5.25307011e-12, -5.25307011e-12, -3.55818868e-12,
          -3.55818868e-12, 5.96852472e-12, 5.96852472e-12,
          4.25015275e-12, 4.25015275e-12, -1.54937972e-11,
          -1.54937972e-11, -2.42119882e-13, -2.42119882e-13,
          -3.35408827e-12, -3.35408827e-12, 5.85126728e-13,
          5.85126728e-13, 3.45115646e-12, 3.45115646e-12, 2.12908228e-12,
          2.12908228e-12, 1.22552711e-13, 1.22552711e-13,
          -5.08775314e-12, -5.08775314e-12, 2.94351132e-12,
          2.94351132e-12, -3.27010467e-12, -3.27010467e-12,
          3.11707013e-13, -2.59943065e-12, -2.59943065e-12,
          -1.84481814e-12, -1.84481814e-12, -4.00950670e-12,
          -4.00950670e-12, 4.55634922e-12, 4.55634922e-12,
          -1.60936260e-19, -1.60936260e-19, 2.16860969e-12,
          2.16860969e-12, -9.30199060e-13, -9.30199060e-13,
          3.82397412e-12, 3.82397412e-12, -5.26328156e-12,
          -5.26328156e-12, 2.60285348e-12, 2.60285348e-12,
          1.57748424e-12, 1.57748424e-12, -1.31727767e-12,
          -1.31727767e-12, -1.36656875e-12, -1.36656875e-12,
          4.10051030e-12, 4.10051030e-12, 3.99513148e-12, 3.99513148e-12,
          1.11077727e-12, 1.11077727e-12, -4.40457133e-20,
          -4.40457133e-20, 2.94413452e-12, 3.05836866e-12,
          3.05836866e-12, 3.30155217e-12, 3.30155217e-12,
          -1.82766454e-12, -1.82766454e-12, -4.55716357e-13,
          -4.55716357e-13, 9.14009580e-12, 9.14009580e-12,
          -3.90146818e-13, -3.90146818e-13, 9.17384398e-12,
          9.17384398e-12, 2.85450103e-19, 2.85450103e-19,
          -6.00822864e-12, -6.00822864e-12, 8.14817311e-12,
          8.14817311e-12, -6.73750986e-13, -6.73750986e-13,
          6.86492367e-13, 6.86492367e-13, -1.08865262e-13,
          -1.08865262e-13, 1.04113298e-11, 1.04113298e-11,
          3.89451736e-13, 3.89451736e-13, 1.32651561e-12, 1.32651561e-12,
          3.13902463e-12, 3.13902463e-12, -4.27120492e-12,
          -4.27120492e-12, -4.00089380e-12, -4.00089380e-12,
          -3.51518673e-19, -3.51518673e-19, -5.16690098e-20,
          -5.16690098e-20, -9.34333448e-13, -9.34333448e-13,
          1.88599765e-12, 1.88599765e-12, -7.29627816e-12,
          -7.29627816e-12, -2.94276452e-12, -2.94276452e-12,
          -5.45708184e-12, -5.45708184e-12, 4.95414517e-12,
          4.95414517e-12, 6.34839891e-13, 6.34839891e-13, 2.81908242e-12,
          2.81908242e-12, -1.75759337e-19, -1.75759337e-19,
          -4.28845891e-12, -4.28845891e-12, -8.15494287e-12,
          -8.15494287e-12, -1.36834847e-12, -1.36834847e-12,
          -2.97385250e-12, -2.97385250e-12, -5.01062256e-12,
          -5.01062256e-12, -1.79923025e-12, -1.79923025e-12,
          -3.31628984e-13, -3.31628984e-13, -3.84487407e-12,
          -3.84487407e-12, -3.77552503e-12, -3.77552503e-12,
          1.59902842e-12, 7.01266215e-12, 7.01266215e-12,
          -3.17465954e-12, -3.17465954e-12, 4.37270012e-12,
          4.37270012e-12, 2.94351175e-12, 2.94351175e-12, 3.99741438e-13,
          3.99741438e-13, 2.79892190e-12, 2.79892190e-12, 1.15152367e-13,
          1.15152367e-13, 4.32301590e-12, 4.32301590e-12, 1.02785185e-12,
          1.02785185e-12, -2.41673109e-12, -2.41673109e-12,
          1.10116625e-12, 1.10116625e-12, 3.44012991e-12, 3.44012991e-12,
          -6.19280278e-12, -6.19280278e-12, 3.31736765e-12,
          3.31736765e-12, -4.39733276e-12, -4.39733276e-12,
          -3.08319993e-19, -3.08319993e-19, -1.28611607e-12,
          -1.28611607e-12, 3.73854073e-12, 8.11133018e-12,
          8.11133018e-12, -2.13452303e-19, 1.09036575e-12,
          1.09036575e-12, -3.14118783e-12, -3.14118783e-12,
          -2.16532911e-12, -2.16532911e-12, 1.77865979e-12,
          1.77865979e-12, 7.53859323e-20, 1.61277883e-11, 1.61277883e-11,
          -1.69057509e-12, -1.69057509e-12, 9.95039663e-13,
          9.95039663e-13, -5.92283904e-12, -5.92283904e-12,
          5.53889833e-12, 5.53889833e-12, -1.43538892e-12,
          -1.43538892e-12, 2.63950233e-12, 2.63950233e-12,
          5.26351792e-12, 5.26351792e-12, 4.09282374e-12, 4.09282374e-12,
          5.10170356e-13, 5.10170356e-13, 1.09280662e-12, 1.09280662e-12,
          1.10989690e-12, 1.10989690e-12, -2.67525585e-12,
          -2.67525585e-12, 8.58088218e-14, 8.58088218e-14,
          -4.77889690e-12, -4.77889690e-12, 3.34435040e-12,
          3.34435040e-12, 3.28906715e-12, 3.28906715e-12, 5.66108141e-13,
          5.66108141e-13, -1.38280565e-12, 1.25360876e-19,
          1.25360876e-19, -5.66216995e-12, -5.66216995e-12,
          -1.70302574e-11, -1.70302574e-11, -1.23656326e-12,
          -1.23656326e-12, 1.15506576e-13, 1.15506576e-13,
          -6.49638709e-13, -1.75151137e-12, -1.75151137e-12,
          4.28161066e-12, 4.28161066e-12, 6.23712366e-12, 6.23712366e-12,
          -2.66035674e-12, -2.66035674e-12, -1.55842244e-12,
          -1.55842244e-12, -1.81143056e-12, -1.81143056e-12,
          -4.22307892e-12, 7.39486250e-12, 7.39486250e-12,
          -9.24552015e-12, -9.24552015e-12, -2.35696293e-12,
          -2.35696293e-12, 3.16047665e-12, 3.16047665e-12,
          1.35525272e-20, 1.35525272e-20, -4.17713580e-13,
          -4.17713580e-13, 6.52612469e-12, 6.52612469e-12,
          3.45447455e-12, 3.45447455e-12, 2.09869839e-12, 2.09869839e-12,
          1.39611445e-12, 1.39611445e-12, 3.93699640e-13, 3.93699640e-13,
          7.22808922e-12, 7.22808922e-12, -3.40763008e-12,
          -3.40763008e-12, 1.40593982e-12, 1.40593982e-12,
          3.65175555e-12, 3.65175555e-12, 5.94285566e-14, 5.94285566e-14,
          3.19732218e-12, 3.19732218e-12, -3.38779872e-12,
          -3.38779872e-12, 3.58876103e-14, 3.58876103e-14,
          8.47032947e-21, 8.47032947e-21, 4.39004356e-13, 4.39004356e-13,
          1.79832901e-13, 1.79832901e-13, 3.29067047e-12, 3.29067047e-12,
          -7.90386799e-13, -7.90386799e-13, 1.50547023e-12,
          1.50547023e-12, 2.02145137e-12, 2.02145137e-12, 3.21647158e-12,
          3.21647158e-12, -8.81116469e-13, -8.81116469e-13,
          1.00796921e-19, 1.00796921e-19, 7.19109424e-14, 7.19109424e-14,
          -6.31464759e-12, -6.31464759e-12, -7.38753503e-12,
          -7.38753503e-12, 1.31343081e-12, -5.77268214e-13,
          -5.77268214e-13, -2.55154036e-12, -2.55154036e-12,
          -1.92165489e-12, -1.92165489e-12, -4.45680125e-12,
          -4.45680125e-12, 1.14831374e-11, 1.14831374e-11,
          -3.21477301e-13, -3.21477301e-13, 1.37642854e-20,
          1.37642854e-20, -2.11736379e-12, -2.11736379e-12,
          7.28650300e-12, 7.28650300e-12, 3.10773174e-12, 3.10773174e-12,
          -1.59669370e-13, -1.59669370e-13, -1.64294533e-12,
          -1.64294533e-12, -5.52640832e-12, 2.28121298e-12,
          2.28121298e-12, -2.62560438e-12, -2.62560438e-12,
          -7.45198011e-13, -7.45198011e-13, 9.05572319e-12,
          9.05572319e-12, -2.95843347e-13, -2.95843347e-13,
          6.11869192e-12, 6.11869192e-12, -6.54544821e-12,
          -6.54544821e-12, 2.97569348e-12, 2.97569348e-12,
          -4.01331962e-12, -4.01331962e-12, 1.59636399e-12,
          1.59636399e-12, -2.45639555e-19, -2.45639555e-19,
          -4.71918641e-12, -4.71918641e-12, 4.60646625e-12,
          4.60646625e-12, 9.69784669e-12, 9.69784669e-12, 2.13732145e-14,
          2.13732145e-14, 2.89748542e-12, 2.89748542e-12, 9.45737629e-13,
          -2.16740363e-13, -2.16740363e-13, -4.30343218e-12,
          -4.30343218e-12, 6.27348824e-12, 6.27348824e-12,
          -1.04501119e-12, -1.04501119e-12, 3.24440561e-12,
          3.24440561e-12, 3.98701731e-12, 3.98701731e-12,
          -9.77580430e-12, -9.77580430e-12, 2.25663520e-12,
          2.25663520e-12, 8.26239373e-14, 8.26239373e-14,
          -2.07648070e-12, -2.07648070e-12, -2.97910405e-13,
          -2.97910405e-13, -2.53169122e-12, -2.53169122e-12,
          -1.97504285e-13, -1.97504285e-13, 1.11428184e-11,
          1.11428184e-11, -4.55456528e-13, -4.55456528e-13,
          -3.29485137e-12, 1.57093978e-12 ]
   uncompressed_sv_total: 84
   uncompressed_support_vectors:
      - [ 3.67549286e+01, 5.32664261e+01, 4.98288383e+01, 6.16656799e+01,
          7.56256199e+00, 7.97646093e+00, -5.54765739e+01,
          -4.04043007e+01, 6.72801132e+01, 6.78275375e+01,
          4.04846497e+01, 3.18317566e+01, 3.73242874e+01, 3.56014175e+01,
          -3.92222023e+01, -3.27658272e+00, 8.88834305e+01,
          1.73169003e+01, -2.89586277e+01, 1.36289997e+01,
          5.16173286e+01, 7.38836384e+00, 4.18391848e+00,
          -1.13285112e+01, 2.69431057e+01, -4.53741684e+01,
          3.11598454e+01, 1.75433559e+01, 2.80596104e+01,
          -2.43048644e+00, 3.63863716e+01, -8.59200478e+00,
          -3.98311729e+01, 1.80321712e+01, -4.07705650e+01,
          -1.66210442e+01, -5.47535849e+00, -3.80778465e+01,
          1.22588139e+01, 1.96312885e+01, -1.11944962e+01,
          2.34763851e+01, 1.66475563e+01, 1.68394411e+00,
          -3.34610558e+01, -2.42794108e+00, 1.88172054e+01,
          4.77171946e+00, 2.24573898e+01, -8.33773708e+00,
          -1.09754753e+00, 2.35606060e+01, -3.25428047e+01,
          2.10504770e+00, 8.62071609e+00, -1.70036488e+01,
          6.80636406e+00, -1.51083546e+01, 1.14516573e+01,
          6.38289499e+00, -2.37354984e+01, 2.41165113e+00,
          2.58439236e+01, -1.04429579e+01, -3.36597328e+01,
          1.17739410e+01, -2.12435913e+01, -4.50656295e-01,
          3.20071149e+00, 5.33566570e+00, -2.09115855e-02,
          -6.16079473e+00, 5.04222345e+00, 2.28256721e+01,
          -8.38343716e+00, 5.92857265e+00, 2.82397556e+00,
          -5.41427708e+00, -1.33878479e+01, 1.80447216e+01,
          -9.30033922e-01, 6.96979427e+00, -1.62596855e+01,
          8.00709438e+00, -4.24104452e+00, 1.26104393e+01,
          -7.16851521e+00, 7.46406317e+00, 1.16561050e+01,
          7.25391436e+00, -1.00632668e+01, -5.72707653e-01,
          -2.06180406e+00, -3.43640924e+00, -8.33100986e+00,
          9.66618824e+00, 1.60037327e+01, 2.88074017e+00,
          -9.60969865e-01, 8.91002083e+00, -1.56248131e+01,
          2.48793864e+00, 5.44921637e+00, 1.12785339e+01,
          -2.14007416e+01, -1.76166420e+01, 4.19523478e+00,
          -5.53934622e+00, -1.23005116e+00, 3.33541846e+00,
          -2.53663087e+00, -1.92348747e+01, 1.92015529e+00,
          -5.69777822e+00, -1.44815702e+01, 1.45814428e+01,
          -5.29335785e+00, -1.52696216e+00, 4.05660009e+00,
          -2.80371761e+01, -3.90543699e+00, 6.29801273e+00,
          5.95791006e+00, 1.61862266e+00, -2.43659992e+01,
          -9.11733246e+00, 3.93740606e+00, 9.31486988e+00,
          -9.44731712e+00, -1.05181575e+00, -3.07529736e+00,
          -1.46628368e+00, 1.15091677e+01, 4.54271984e+00,
          -2.13751965e+01, 2.12189388e+01, -8.68480504e-01,
          -3.34406400e+00, -1.36765642e+01, -5.94237137e+00,
          -1.39308524e+00, 8.65146637e-01, 7.13609457e+00,
          3.43881774e+00, -6.57059789e-01, 1.25902567e+01,
          6.68694925e+00, -1.10244858e+00, 3.23230958e+00,
          -1.13481827e+01, 5.53738451e+00, -1.24946384e+01,
          -8.46837330e+00, -1.04558420e+01, -7.20591497e+00,
          -8.32142353e+00, -6.47718096e+00, -8.04835796e+00,
          -9.15009975e+00, -5.30070639e+00, 1.16786642e+01,
          4.60742569e+00, 4.41080666e+00, -3.54730248e+00,
          6.92417622e-01, 5.19105959e+00, -8.95178032e+00,
          -1.49185491e+00, -1.01926584e+01, -6.03512049e+00,
          1.12931328e+01, 3.18968678e+00, -2.55697012e+00,
          9.18606639e-01, -6.67521906e+00, 3.25797820e+00,
          1.26550817e+01, 6.41821623e+00, -5.50673604e-01,
          -1.87689984e+00, -1.27221270e+01, 2.25821018e+01,
          -6.16139078e+00, -5.56026518e-01, 4.59866333e+00,
          9.00540447e+00, 9.12605286e+00, 3.69407105e+00,
          -1.25172968e+01, 1.62750161e+00, -5.18315363e+00,
          1.35549793e+01, 2.36252785e+01, -5.90953493e+00,
          7.15967894e+00, -1.05993958e+01, 1.33518851e+00,
          6.19563866e+00, 4.83167982e+00, 7.06371009e-01, 3.49594641e+00,
          -1.56799955e+01, -1.33316927e+01, 5.44543457e+00,
          1.33049071e+00, 1.08559275e+01, -7.11281395e+00,
          -4.31813908e+00, 4.28657055e+00, -1.16307793e+01,
          1.34967518e+00, 9.74723053e+00, 3.12860042e-01,
          -2.13746667e+00, -4.11431265e+00, -4.13817739e+00,
          -2.38719535e+00, -4.32734537e+00, 1.22226715e+00,
          8.14233017e+00, -3.84154320e+00, -1.30532455e+01,
          1.50880527e+01, -1.04632502e+01, -1.66266870e+00,
          4.00775003e+00, -2.19531703e+00, -1.85901833e+00,
          -1.57771993e+00, -1.15902901e+01, -7.68563080e+00,
          4.48991299e+00, -1.44882381e-01, -1.31895733e+01,
          2.85398340e+00, 3.38214970e+00, 5.40285063e+00,
          -1.82967491e+01, -3.48907447e+00, 5.91832161e-01,
          -6.36435080e+00, -2.24686027e+00, -8.34020674e-01,
          -3.78228474e+00, -5.63447523e+00, 1.08627968e+01,
          3.76991820e+00, -1.59798074e+00, -3.64589405e+00,
          -6.72631454e+00, -1.27450933e+01, 1.89080029e+01,
          -9.32567120e+00, -4.30385971e+00, 6.21704721e+00,
          2.20860386e+00, 1.20789223e+01, 1.11819639e+01,
          -5.67165852e+00, 4.31661987e+00, 8.48546863e-01,
          -1.70198476e+00, 3.08139324e+00, 5.28285146e-01,
          4.01098871e+00, -1.09675407e+01, 4.74717331e+00,
          1.30182047e+01, 1.40038757e+01, -1.90441394e+00,
          -1.88102305e+00, -3.80075669e+00, 2.61278105e+00,
          5.13895416e+00, 3.56578678e-02, 1.10319443e+01,
          -4.24898863e+00, 3.41025424e+00, -5.78818655e+00,
          1.71181071e+00, -9.81856728e+00, -1.74502792e+01,
          -1.28495121e+00, 4.02253181e-01, -1.74695468e+00,
          4.49367428e+00, -8.70951080e+00, 1.73584342e+00,
          -2.17614517e+01, -3.24528003e+00, 4.27294207e+00,
          3.38764358e+00, -5.35688162e+00, 3.92001104e+00,
          -2.84306788e+00, 1.14303732e+01, 1.34015918e+00,
          5.07940426e-02, -7.77851200e+00, 1.40341938e+00,
          -2.95757008e+00, -1.56283970e+01, 3.53576803e+00,
          1.97377980e+00, 4.08079195e+00, 1.05229521e+01,
          -2.45459843e+00, 2.73560643e+00, 2.26648021e+00,
          -4.12973070e+00, -1.47309348e-01, -3.76989275e-01,
          5.38453817e-01, 5.30882883e+00, -1.13403761e+00,
          -8.09933186e+00, -2.26376820e+00, 9.45558643e+00,
          1.18643827e+01, 3.97994965e-01, -9.69880867e+00,
          -1.20167980e+01, 6.55802155e+00, 1.87095571e+00,
          1.13181467e+01, -3.91629553e+00, -4.39699316e+00,
          1.61310279e+00, -7.27923155e+00, -6.87605619e+00,
          -3.96594858e+00, -5.80642581e-01, -3.96452039e-01,
          -5.39416409e+00, 3.53294396e+00, 2.82540560e+00,
          5.83285141e+00, 8.23729324e+00, 1.70380783e+00,
          -4.65480995e+00, -1.05124168e+01, -8.54662323e+00,
          6.38769913e+00, -5.95587158e+00, 1.39260292e+01,
          5.44435358e+00, -1.11761999e+00, 2.35135674e+00,
          -4.54770088e+00, 6.92329931e+00, -3.75451136e+00,
          1.00115175e+01, 8.06592655e+00, 2.20877314e+00,
          -4.40878201e+00, 5.82248640e+00, 9.55209255e+00,
          4.00224257e+00, 4.23176193e+00, 3.90800667e+00, 4.38224411e+00,
          4.89647818e+00, 8.57995892e+00, -2.39339614e+00,
          -8.00586319e+00, -3.06784892e+00, -6.87027752e-01,
          -9.51117802e+00, -9.90604496e+00, -1.16685848e+01,
          -7.14397383e+00, 3.71512771e+00, 4.82971859e+00,
          -1.01457644e+00, -1.62141151e+01, 2.28762746e+00,
          -1.42551422e+00, -1.01452124e+00, -1.37763381e+00,
          -2.03463764e+01, 5.53812265e+00, 4.19529295e+00,
          -4.34760523e+00, -8.32495022e+00, 3.70716357e+00,
          2.96910143e+00, 2.88067317e+00, -1.73648977e+00,
          7.25338888e+00, -1.66650259e+00, -1.25180352e+00,
          5.64706850e+00, -2.25484300e+00, 4.19203186e+00,
          1.09122076e+01, 2.01737833e+00, 1.56150401e+00, 8.05913162e+00,
          -6.24965191e+00, 6.61727726e-01, 2.01322913e+00,
          -2.38070774e+00, -4.79115248e+00, -1.88522935e+00,
          -4.19027328e+00, 2.63411236e+00, -4.28968334e+00,
          -1.13258064e+00, 1.35751915e+01, -7.85131741e+00,
          2.00411677e+00, -9.93799591e+00, -1.55565691e+00,
          -3.81788468e+00, -5.75542116e+00, 7.09718323e+00,
          -1.19656925e+01, -5.75501561e-01, -7.56457233e+00,
          -1.11404543e+01, 2.64282131e+00, 4.10303497e+00,
          7.85917640e-01, 3.06428123e+00, 2.89701915e+00,
          -1.80459201e+00, 2.10399842e+00, -6.66082621e+00,
          8.05167484e+00, -1.52125135e-01, -4.85892820e+00,
          -3.69694328e+00, 2.38456035e+00, 2.98669386e+00,
          2.20402575e+00, 6.94983625e+00, -1.70091331e+00,
          2.41365743e+00, 7.76790667e+00, -3.72207910e-01,
          -1.55841672e+00, -1.95691776e+00, -4.08148855e-01,
          -9.33208942e-01, 1.19459486e+00, -2.41892338e+00,
          -1.53274143e+00, 8.45708942e+00, -7.49944067e+00,
          -3.58171225e+00, 5.92381859e+00, 5.62287235e+00,
          -1.60266578e+00, 1.96918249e-01, -3.44429463e-01,
          1.82753134e+00, -7.34419680e+00, -5.09063911e+00,
          -1.11462765e+01, -3.72074604e+00, 2.50637007e+00,
          3.92636204e+00, -5.18821096e+00, 2.43578172e+00,
          1.53943315e-01, 1.30256138e+01, -5.37910819e-01,
          -3.51846313e+00, -9.00168800e+00, 2.62547326e+00,
          1.79611742e+00, -2.54569530e+00, 1.89694810e+00,
          -3.51861572e+00, 3.64131165e+00, 2.09405398e+00,
          3.29460096e+00, -4.11999607e+00, 9.85591984e+00,
          -9.28832054e+00, -2.28920770e+00, 1.29471607e+01,
          -3.54951680e-01, -1.25341833e+00, -2.17697668e+00,
          7.11029625e+00, 2.54111290e+00, 1.17186890e+01,
          -5.47736979e+00, 9.79815388e+00, 1.96878135e+00,
          -1.00827589e+01, -4.01928514e-01, 1.23552024e+00,
          4.74379444e+00, 1.11348906e+01, -1.12872009e+01,
          1.13785779e+00, -4.43520451e+00, 1.27560892e+01,
          -7.99266624e+00, -4.92739081e-01, 2.57474065e+00,
          2.57474065e+00, 5.91620159e+00, -4.03389978e+00,
          -4.03389978e+00, 4.64426339e-01, 1.03427286e+01,
          1.03427286e+01, 1.86713772e+01, 4.61673784e+00, 2.74275570e+01,
          1.82792521e+00, 1.82792521e+00, -1.16821070e+01,
          -1.33089485e+01, -1.33089485e+01, 1.65697021e+01,
          -1.38417349e+01, -1.38417349e+01, -1.01238117e+01,
          -1.01238117e+01, 1.23744678e+01, 1.23744678e+01,
          -7.87114048e+00, 1.11795368e+01, 1.11795368e+01,
          -1.16887465e+01, -1.16887465e+01, -1.54504271e+01,
          -4.03357697e+00, -4.03357697e+00, -5.31768084e+00,
          -5.31768084e+00, 6.71909380e+00, 6.71909380e+00,
          -3.47945523e+00, -3.47945523e+00, 1.17363381e+00,
          -3.16583085e+00, 4.92587423e+00, 4.92587423e+00,
          -1.43666458e+00, -1.43666458e+00, 1.32191839e+01,
          1.32191839e+01, 4.12232113e+00, 4.12232113e+00, 6.65301323e+00,
          6.65301323e+00, -2.28986716e+00, 4.92172432e+00,
          6.06606007e+00, 6.06606007e+00, 2.79169502e+01, 2.79169502e+01,
          -6.71411848e+00, -6.71411848e+00, -1.40544033e+01,
          -1.40544033e+01, -4.44693089e+00, -4.44693089e+00,
          -1.12559879e+00, -1.12559879e+00, 1.21717267e-01,
          1.21717267e-01, -4.69080400e+00, -4.69080400e+00,
          4.06284332e+00, 4.06284332e+00, -2.80873489e+00,
          -2.80873489e+00, -6.52490187e+00, -6.52490187e+00,
          2.01446533e+00, 2.01446533e+00, 7.02914667e+00, 7.02914667e+00,
          -1.45504057e+00, -1.05004187e+01, -1.05004187e+01,
          7.21646607e-01, 7.21646607e-01, -2.29926014e+00,
          -2.29926014e+00, -1.05986369e+00, -2.44706273e+00,
          -2.44706273e+00, -1.32204666e+01, -1.32204666e+01,
          -4.41142416e+00, -4.41142416e+00, 1.73706474e+01,
          1.73706474e+01, 3.04684687e+00, 3.04684687e+00,
          -2.10265136e+00, -2.10265136e+00, 4.63023758e+00,
          4.63023758e+00, -5.85474730e+00, -5.85474730e+00,
          -7.34220028e+00, -1.25254116e+01, -1.25254116e+01,
          -3.68763971e+00, -3.68763971e+00, 2.96829432e-01,
          2.96829432e-01, 4.73596716e+00, 4.73596716e+00,
          -4.21747923e+00, -4.21747923e+00, 1.58671105e+00,
          1.58671105e+00, -5.10638714e+00, -5.10638714e+00,
          1.17514658e+01, -2.99389791e+00, -2.99389791e+00,
          -8.44944656e-01, -8.44944656e-01, -3.47337413e+00,
          -3.47337413e+00, 6.22137785e+00, 6.22137785e+00,
          -3.74215508e+00, 3.79895377e+00, 3.79895377e+00,
          6.60853088e-01, 6.60853088e-01, -3.99469233e+00,
          -3.99469233e+00, 3.16871500e+00, 3.16871500e+00,
          -4.38355541e+00, -4.38355541e+00, 2.48416686e+00,
          2.48416686e+00, -1.27080126e+01, -1.27080126e+01,
          1.05939662e+00, 1.05939662e+00, -2.09440184e+00,
          -2.09440184e+00, 4.86369419e+00, 4.86369419e+00,
          8.87398052e+00, -1.23379068e+01, -1.23379068e+01,
          4.08974314e+00, 4.08974314e+00, 6.01355648e+00, 6.01355648e+00,
          -1.03021202e+01, -6.20329380e-01, -6.20329380e-01,
          -7.40996742e+00, -7.40996742e+00, -5.24407673e+00,
          -5.24407673e+00, 8.62094212e+00, 8.62094212e+00,
          3.59332085e-01, 3.59332085e-01, -1.02363586e+01,
          -1.02363586e+01, -1.57035151e+01, -1.57035151e+01,
          4.04807615e+00, 4.04807615e+00, 7.77763271e+00, 7.77763271e+00,
          3.14437222e+00, 3.14437222e+00, 9.68552113e+00, 9.68552113e+00,
          -1.12428246e+01, -1.12428246e+01, -1.06890845e+00,
          -3.33895612e+00, -3.33895612e+00, -1.12731898e+00,
          -1.12731898e+00, 4.80803299e+00, 4.80803299e+00,
          3.92191243e+00, 1.78992043e+01, 4.08035946e+00, 4.08035946e+00,
          5.92058897e+00, 5.92058897e+00, -3.02289629e+00,
          -3.02289629e+00, -5.41028881e+00, -5.41028881e+00,
          7.30449200e+00, 7.30449200e+00, 1.07384734e-01, 1.07384734e-01,
          -6.34514189e+00, -6.34514189e+00, 6.18367374e-01,
          -7.64850140e+00, -7.64850140e+00, -6.26867342e+00,
          -6.26867342e+00, 1.62118423e+00, 1.62118423e+00,
          -8.08711720e+00, -8.08711720e+00, -7.80629063e+00,
          -7.80629063e+00, 6.87920046e+00, 6.87920046e+00,
          2.89103103e+00, 2.89103103e+00, -2.77761912e+00,
          -2.77761912e+00, -1.15368071e+01, -1.27133255e+01,
          -1.27133255e+01, 8.81992817e+00, 8.81992817e+00,
          -1.72879040e-01, -1.72879040e-01, -5.26749754e+00,
          -5.26749754e+00, -2.14377332e+00, -1.00919704e+01,
          -1.00919704e+01, -5.23907430e-02, -5.23907430e-02,
          6.34545279e+00, 6.34545279e+00, 3.14408708e+00, 3.14408708e+00,
          3.91971678e-01, 3.91971678e-01, -3.37877798e+00,
          3.12363982e+00, 3.12363982e+00, -1.28810368e+01,
          -1.28810368e+01, -3.64506269e+00, -3.64506269e+00,
          7.10285139e+00, 3.82325482e+00, 3.82325482e+00,
          -7.25585401e-01, -7.25585401e-01, -5.31870890e+00,
          -5.31870890e+00, 3.29573631e+00, 3.29573631e+00,
          2.63666058e+00, 2.63666058e+00, -8.58268642e+00,
          -8.58268642e+00, -4.56339270e-01, -4.56339270e-01,
          5.91055727e+00, 5.91055727e+00, 5.32459831e+00, 5.32459831e+00,
          -1.18430108e-01, -1.18430108e-01, -9.67610359e+00,
          -9.67610359e+00, 9.17507362e+00, 9.17507362e+00,
          1.05031192e+00, 1.05031192e+00, -6.92348528e+00,
          -6.92348528e+00, 1.34997058e+00, 1.34997058e+00,
          1.36121111e+01, 1.36121111e+01, -1.13243425e+00,
          -1.13243425e+00, -8.18540287e+00, -8.18540287e+00,
          3.70737767e+00, -1.15851078e+01, -1.15851078e+01,
          2.30688953e+00, 2.30688953e+00, 5.75527668e+00, 5.75527668e+00,
          -8.28793716e+00, -8.28793716e+00, -7.22354174e+00,
          -7.22354174e+00, -1.47320485e+00, -1.47320485e+00,
          -1.23870554e+01, -1.23870554e+01, -3.35560322e+00,
          -3.35560322e+00, 8.91054440e+00, 8.91054440e+00,
          -4.99668550e+00, -4.99668550e+00, 3.71106595e-01,
          3.71106595e-01, -1.03339684e+00, -1.03339684e+00,
          -1.08506365e+01, -1.08506365e+01, -1.50756109e+00,
          -1.50756109e+00, 2.96911335e+00, 2.96911335e+00,
          5.10625458e+00, 5.10625458e+00, -5.66754341e+00,
          3.49082494e+00, 3.49082494e+00, 4.43749952e+00, 4.43749952e+00,
          -1.49379241e+00, -1.49379241e+00, -1.66021037e+00,
          -1.66021037e+00, 1.75936973e+00, 1.75936973e+00,
          -9.25680995e-01, -9.25680995e-01, -8.81318808e-01,
          -8.81318808e-01, 5.71447134e+00, 5.71447134e+00,
          -2.10517883e+00, -2.10517883e+00, 6.53609324e+00,
          6.53609324e+00, 3.03410745e+00, 1.34597528e+00, 1.34597528e+00,
          4.62089252e+00, 4.62089252e+00, 4.27842569e+00, 4.27842569e+00,
          -2.11503878e-01, -2.11503878e-01, -4.99876785e+00,
          -4.99876785e+00, -1.12554967e+00, -1.12554967e+00,
          -3.58835506e+00, -3.58835506e+00, -1.11897078e+01,
          -1.43588555e+00, -1.43588555e+00, -3.94374943e+00,
          -3.94374943e+00, 1.62571621e+00, 1.62571621e+00,
          -2.57653165e+00, -2.57653165e+00, -1.93556714e+00,
          -1.93556714e+00, -2.80167794e+00, -2.80167794e+00,
          5.21012974e+00, 5.21012974e+00, -8.11041546e+00,
          6.04481411e+00, 6.04481411e+00, -3.50744247e+00,
          -3.50744247e+00, 2.62482262e+00, 2.62482262e+00,
          1.08635950e+00, 1.08635950e+00, -3.89231420e+00,
          -3.89231420e+00, -6.41460800e+00, -6.41460800e+00,
          8.71459484e+00, 8.71459484e+00, 5.79983056e-01, 5.79983056e-01,
          -1.12083662e+00, -1.12083662e+00, 4.95918941e+00,
          4.95918941e+00, -8.18585300e+00, -8.18585300e+00,
          -9.31253242e+00, -9.31253242e+00, 3.65745485e-01,
          3.65745485e-01, -1.80022502e+00, -1.80022502e+00,
          8.38002935e-02, 8.38002935e-02, -3.15453219e+00,
          -3.15453219e+00, 1.84052241e+00, 1.84052241e+00,
          1.42251575e+00, 1.42251575e+00, -5.88840306e-01,
          -5.88840306e-01, -2.57190537e+00, -2.57190537e+00,
          -6.37628317e+00, -6.37628317e+00, 8.84865379e+00,
          8.84865379e+00, -6.44125891e+00, -6.44125891e+00,
          -4.78461647e+00, -4.78461647e+00, -1.54935002e+00,
          -1.54935002e+00, 1.34575462e+00, 1.34575462e+00,
          -1.88404024e-02, -1.88404024e-02, 3.76460671e+00,
          3.76460671e+00, 2.84202886e+00, 2.84202886e+00, 3.32988858e+00,
          3.32988858e+00, -2.87545711e-01, -2.87545711e-01,
          2.01598668e+00, 2.01598668e+00, 6.36532736e+00, 6.36532736e+00,
          -3.53204966e+00, -3.53204966e+00, 3.45018506e+00,
          3.45018506e+00, 2.79684472e+00, 2.79684472e+00,
          -6.71028614e-01, -6.71028614e-01, -1.31196046e+00,
          -1.31196046e+00, 1.74747396e+00, 1.74747396e+00,
          2.95243788e+00, 2.95243788e+00, 5.66786003e+00, 5.66786003e+00,
          2.79294801e+00, 2.79294801e+00, 3.37206149e+00, 3.37206149e+00,
          -9.95717406e-01, -9.95717406e-01, -1.09224284e+00,
          -1.09224284e+00, 1.27422655e+00, 1.27422655e+00,
          5.00723171e+00, 5.00723171e+00, -3.27448368e-01,
          -3.27448368e-01, 5.84492683e-01, 5.84492683e-01,
          2.61825919e+00, 2.87881279e+00, 2.87881279e+00, 4.38547897e+00,
          4.38547897e+00, 5.32076788e+00, 5.32076788e+00,
          -2.99303436e+00, -2.99303436e+00, 4.54575825e+00,
          4.54575825e+00, 3.74709296e+00, 3.74709296e+00, 1.06815660e+00,
          1.06815660e+00, 2.34163976e+00, 2.34163976e+00, 1.49925404e+01,
          1.49925404e+01, 3.96895123e+00, 3.96895123e+00,
          -1.27797812e-01, -1.27797812e-01, 3.48853874e+00,
          3.48853874e+00, 1.30666566e+00, 1.30666566e+00, 1.37978125e+00,
          1.37978125e+00, -3.32175779e+00, -3.32175779e+00,
          3.91170859e-01, 9.60255027e-01, 9.60255027e-01, 1.07996101e-02,
          1.07996101e-02, 3.07826400e+00, 3.07826400e+00,
          -6.97990060e-01, -6.97990060e-01, -3.60072732e+00,
          -3.60072732e+00, -1.95342350e+00, -1.95342350e+00,
          2.57700300e+00, 2.57700300e+00, 1.25231132e-01, 1.25231132e-01,
          -2.86437225e+00, -3.40015960e+00, -3.40015960e+00,
          -2.09747577e+00, -2.09747577e+00, -1.05172269e-01,
          -1.05172269e-01, -1.72077024e+00, -1.72077024e+00,
          -2.82175446e+00, 2.37395152e-01, 2.37395152e-01,
          1.58205450e+00, 1.58205450e+00, -3.99297571e+00,
          -3.99297571e+00, -5.01604033e+00, -5.01604033e+00,
          4.83552068e-01, 4.83552068e-01, 6.88041925e+00, 6.88041925e+00,
          4.94396639e+00, 4.94396639e+00, -3.23140293e-01,
          -3.23140293e-01, -6.49079037e+00, -6.49079037e+00,
          1.02250395e+01, 1.02250395e+01, 1.61867881e+00, 1.61867881e+00,
          -3.06273937e+00, -3.06273937e+00, 1.96088362e+00,
          1.96088362e+00, -8.78840828e+00, -8.78840828e+00,
          -3.08460021e+00, -3.08460021e+00, -4.79003906e+00,
          -4.79003906e+00, 3.43774533e+00, 3.43774533e+00,
          -3.22728467e+00, 4.40822792e+00, 4.40822792e+00,
          -2.38060379e+00, -2.38060379e+00, 3.26507688e+00,
          3.26507688e+00, 1.66056132e+00, 1.66056132e+00, 1.49423313e+00,
          1.49423313e+00, 3.18774366e+00, 3.18774366e+00,
          -2.14030027e+00, -2.14030027e+00, 2.16396332e+00,
          2.16396332e+00, 2.27521563e+00, 2.27521563e+00,
          -5.07179689e+00, -5.07179689e+00, 3.43566442e+00,
          3.43566442e+00, 1.71281481e+00, 1.71281481e+00, 2.51107979e+00,
          -2.66093731e+00, -2.66093731e+00, -1.68788671e-01,
          -1.68788671e-01, -1.25943863e+00, -1.25943863e+00,
          2.30482861e-01, 2.30482861e-01, -3.46967077e+00,
          -3.46967077e+00, 2.61528373e+00, 2.61528373e+00,
          4.62200701e-01, 4.62200701e-01, -8.71248901e-01,
          -8.71248901e-01, 2.23122120e+00, 2.23122120e+00,
          -1.30321383e+00, -1.30321383e+00, -4.01693910e-01,
          -4.01693910e-01, 1.20459473e+00, 1.20459473e+00,
          -1.56936216e+00, -1.56936216e+00, -1.03108180e+00,
          -1.03108180e+00, -2.78290653e+00, -2.78290653e+00,
          -1.76406896e+00, -1.76406896e+00, 4.95743990e+00,
          4.95743990e+00, -9.54872549e-01, -9.54872549e-01,
          1.65554190e+00, 1.65554190e+00, 4.36870909e+00, 4.36870909e+00,
          6.35683239e-01, 6.35683239e-01, -6.86345339e+00,
          -6.86345339e+00, 1.09102941e+00, 1.09102941e+00,
          7.34264731e-01, 7.34264731e-01, -8.51206481e-01,
          -8.51206481e-01, -1.01690626e+00, -1.01690626e+00,
          2.10764909e+00, 2.10764909e+00, 2.01641488e+00, 2.01641488e+00,
          5.21362638e+00, 5.21362638e+00, -1.80970478e+00,
          -1.80970478e+00, 2.49566197e+00, 2.49566197e+00,
          4.47170287e-01, 4.47170287e-01, -1.29590392e+00,
          -1.29590392e+00, -9.10877645e-01, -9.10877645e-01,
          -9.57548440e-01, 6.63411736e-01, 6.63411736e-01,
          3.57142711e+00, 3.57142711e+00, 2.29098248e+00, 2.29098248e+00,
          -9.83518362e-02, -9.83518362e-02, -6.35261893e-01,
          -6.35261893e-01, 3.47444510e+00, 3.47444510e+00,
          -2.32004929e+00, -2.32004929e+00, 9.79787946e-01,
          9.79787946e-01, 1.89080890e-02, 7.16693068e+00, 7.16693068e+00,
          -3.27669710e-01, -3.27669710e-01, 1.57185376e+00,
          1.57185376e+00, 2.97371483e+00, 2.97371483e+00,
          -5.50069392e-01, -5.50069392e-01, -1.66314042e+00,
          -1.66314042e+00, 2.58955538e-01, 2.58955538e-01,
          -2.46057081e+00, -2.46057081e+00, -3.78657031e+00,
          -3.78657031e+00, 4.19501495e+00, 4.19501495e+00,
          3.63246679e+00, 3.63246679e+00, 1.06965995e+00, 1.06965995e+00,
          -1.40503109e+00, -1.40503109e+00, -2.96843863e+00,
          -2.96843863e+00, -3.79439402e+00, -3.79439402e+00,
          1.70319486e+00, 1.70319486e+00, -7.71859694e+00,
          -7.71859694e+00, 6.44250929e-01, 6.44250929e-01,
          1.76657557e+00, 1.76657557e+00, -1.37024450e+00,
          -1.37024450e+00, 3.55352974e+00, 3.55352974e+00,
          2.60078096e+00, 2.60078096e+00, -1.99153590e+00,
          -1.99153590e+00, 1.64344192e+00, 1.64344192e+00,
          -1.46021783e+00, -1.46021783e+00, -7.04818845e-01,
          -7.04818845e-01, -7.31080055e-01, -7.31080055e-01,
          -2.30720139e+00, -2.30720139e+00, -5.18284261e-01,
          -5.18284261e-01, -1.80456388e+00, -1.80456388e+00,
          -1.52818143e+00, -1.52818143e+00, -5.50841868e-01,
          -5.50841868e-01, 6.67004883e-01, 6.67004883e-01,
          -1.09629428e+00, -1.09629428e+00, 3.53322893e-01,
          3.53322893e-01, 2.20321465e+00, -3.15138817e+00,
          -3.15138817e+00, -4.30597246e-01, -4.30597246e-01,
          -8.97332549e-01, -8.97332549e-01, -4.19419371e-02,
          -4.19419371e-02, -2.38030717e-01, -2.38030717e-01,
          -1.26075041e+00, -1.26075041e+00, -2.07626534e+00,
          -2.07626534e+00, 1.23672557e+00, 1.23672557e+00,
          -3.00631809e+00, -3.00631809e+00, -1.57039011e+00,
          -1.57039011e+00, -8.33738446e-01, -8.33738446e-01,
          7.15289176e-01, 7.15289176e-01, 1.03151906e+00, 1.03151906e+00,
          2.79465008e+00, 1.82176399e+00, 1.82176399e+00, 7.58134842e-01,
          7.58134842e-01, -1.87230599e+00, -1.87230599e+00,
          7.23164260e-01, 7.23164260e-01, -2.25315113e-02,
          -2.25315113e-02, 2.84129167e+00, 2.84129167e+00,
          2.61348915e+00, 2.61348915e+00, 2.09356999e+00, 2.09356999e+00,
          -1.37768197e+00, 3.69218200e-01, 3.69218200e-01,
          -3.85182410e-01, -3.85182410e-01, 2.00995398e+00,
          2.00995398e+00, 8.79031563e+00, 8.79031563e+00,
          -6.80991530e-01, -6.80991530e-01, 7.09200203e-01,
          7.09200203e-01, -3.00971007e+00, -3.00971007e+00,
          -1.80059779e+00, 1.06390429e+00, 1.06390429e+00,
          -2.64240652e-01, -2.64240652e-01, 4.66562271e+00,
          4.66562271e+00, 1.51693821e+00, 1.51693821e+00, 3.14754152e+00,
          3.14754152e+00, 2.13114333e+00, 2.13114333e+00, 2.30141759e+00,
          2.30141759e+00, 1.19605136e+00, 1.19605136e+00,
          -5.66939950e-01, -5.66939950e-01, 2.23463416e+00,
          2.23463416e+00, 2.76448750e+00, 2.76448750e+00, 6.28173649e-01,
          6.28173649e-01, -1.59360433e+00, -1.59360433e+00,
          6.03946626e-01, 6.03946626e-01, -3.08062404e-01,
          -3.08062404e-01, 1.54239774e+00, 1.54239774e+00,
          -5.07923651e+00, -5.07923651e+00, 2.38138533e+00,
          2.38138533e+00, 9.17778671e-01, 9.17778671e-01, 3.54378223e+00,
          3.54378223e+00, 5.30389369e-01, -9.42357242e-01,
          -7.99261570e-01, -7.99261570e-01, -3.80373560e-02,
          2.02557206e+00, 2.02557206e+00, -4.09617567e+00,
          -4.09617567e+00, -1.83333898e+00, -1.83333898e+00,
          -2.46108437e+00, -2.46108437e+00, -5.21792889e-01,
          -5.21792889e-01, -1.43850696e+00, -1.43850696e+00,
          1.54885888e+00, 1.54885888e+00, 2.46349859e+00, 2.46349859e+00,
          2.39528656e+00, 2.39528656e+00, -1.45224524e+00,
          -1.45224524e+00, 2.19983292e+00, 2.19983292e+00,
          2.08532262e+00, 2.08532262e+00, -7.65309393e-01,
          -7.65309393e-01, -1.58079028e+00, -1.58079028e+00,
          -5.52502632e-01, -5.52502632e-01, 8.71419847e-01,
          8.71419847e-01, -5.09733140e-01, -5.09733140e-01,
          -6.24176383e-01, -6.24176383e-01, -9.14630115e-01,
          -9.14630115e-01, 9.49265838e-01, 9.49265838e-01,
          -2.46450114e+00, -2.46450114e+00, -1.59996831e+00,
          -1.59996831e+00, 3.47230524e-01, 3.47230524e-01,
          -2.86545920e+00, -2.86545920e+00, 2.80457401e+00,
          2.80457401e+00, -2.00090814e+00, -2.00090814e+00,
          3.85225564e-01, 3.85225564e-01, 1.40244949e+00, 1.40244949e+00,
          2.75383115e-01, 2.75383115e-01, -7.49932766e-01,
          -7.49932766e-01, 2.85123658e+00, 2.85123658e+00,
          2.28451824e+00, 2.28451824e+00, -1.07440138e+00,
          -1.07440138e+00, -1.33797383e+00, -1.33797383e+00,
          1.94264507e+00, 1.94264507e+00, -5.33350408e-01,
          -5.33350408e-01, 2.32109427e+00, 2.32109427e+00,
          -7.18649626e-01, -7.18649626e-01, 3.71592432e-01,
          3.71592432e-01, 1.74904442e+00, 1.74904442e+00, 1.37421444e-01,
          1.37421444e-01, 1.04134011e+00, 1.04134011e+00,
          -1.10738027e+00, -1.10738027e+00, 2.18411341e-01,
          2.18411341e-01, 1.24987400e+00, 1.39417028e+00, 1.39417028e+00,
          -1.63118041e+00, -1.63118041e+00, 8.85286808e-01,
          8.85286808e-01, 2.76755190e+00, 2.76755190e+00,
          -3.43140453e-01, -3.43140453e-01, -1.54121041e+00,
          -1.54121041e+00, -5.32921433e-01, -5.32921433e-01,
          -1.04174113e+00, -1.04174113e+00, 1.33234167e+00,
          1.33234167e+00, 2.33897477e-01, 2.33897477e-01,
          -1.15243696e-01, -1.15243696e-01, 9.54254746e-01,
          9.54254746e-01, 3.88751775e-01, 3.88751775e-01, 1.33122182e+00,
          1.33122182e+00, -1.10691440e+00, -1.10691440e+00,
          8.21408033e-01, 8.21408033e-01, -1.89352036e-01,
          -1.89352036e-01, 1.09891033e+00, 9.49728847e-01,
          9.49728847e-01, 1.31155503e+00, 1.31155503e+00, 1.49894047e+00,
          1.49894047e+00, -9.23299313e-01, -9.23299313e-01,
          -4.15787965e-01, -4.15787965e-01, -5.51920831e-01,
          -5.51920831e-01, 3.79321247e-01, 3.79321247e-01,
          -2.23080564e+00, -2.23080564e+00, -8.12204540e-01,
          -8.12204540e-01, -2.89792776e-01, -2.89792776e-01,
          2.14595056e+00, -2.95451641e+00, -2.95451641e+00,
          2.65244663e-01, 2.65244663e-01, -5.04338861e-01,
          -5.04338861e-01, -8.73566568e-01, -8.73566568e-01,
          -1.38982522e+00, 6.64229453e-01, 6.64229453e-01,
          9.38741028e-01, 9.38741028e-01, -8.49621445e-02,
          -8.49621445e-02, 1.30086809e-01, 1.30086809e-01,
          1.10633981e+00, 1.10633981e+00, -7.20579267e-01,
          -7.20579267e-01, 7.59414732e-01, 4.01996523e-01,
          4.01996523e-01, 1.16220427e+00, 1.16220427e+00, 4.87545207e-02,
          4.87545207e-02, -2.91374892e-01, -2.91374892e-01,
          5.22843599e-01, 5.22843599e-01, 3.12854528e-01, 3.12854528e-01,
          5.06389558e-01, 5.06389558e-01, -2.19713487e-02,
          -2.19713487e-02, 1.20963621e+00, 1.20963621e+00,
          -1.45377859e-01, -6.64499283e-01, -6.64499283e-01,
          -1.37629116e+00, -1.37629116e+00, -7.29766488e-01,
          -7.29766488e-01, 1.46249199e+00, 1.46249199e+00,
          1.09375954e-01, 1.09375954e-01, -2.88898617e-01,
          -2.88898617e-01, 9.27452624e-01, 9.27452624e-01,
          -2.49255210e-01, -2.49255210e-01, 2.36572981e-01,
          -6.94168866e-01, -6.94168866e-01, -1.09037948e+00,
          -1.09037948e+00, 1.33452976e+00, 1.33452976e+00,
          -1.09241739e-01, -1.09241739e-01, -1.54300928e+00,
          -1.54300928e+00, -5.81940413e-01, -5.81940413e-01,
          -1.62502539e+00, -1.62502539e+00, -2.09017968e+00,
          7.48836398e-01, 7.48836398e-01, -5.89092851e-01,
          -5.89092851e-01, -5.98115206e-01, -5.98115206e-01,
          -6.57230988e-02, -6.57230988e-02, 7.18279600e-01,
          7.18279600e-01, -1.49193621e+00, -1.49193621e+00,
          -8.15223515e-01, -8.15223515e-01, 5.81137240e-01,
          5.81137240e-01, -1.16342044e+00, -1.16342044e+00,
          1.19902277e+00, 1.19902277e+00, -1.23697639e+00,
          -1.23697639e+00, 3.75828052e+00, 3.75828052e+00,
          -3.13186228e-01, -3.13186228e-01, 1.20644665e+00,
          1.20644665e+00, -3.43531460e-01, -3.43531460e-01,
          4.94028151e-01, 4.94028151e-01, 5.70187092e-01, 5.70187092e-01,
          7.11249352e+00, 7.11249352e+00, 4.89108622e-01, 4.89108622e-01,
          1.20788825e+00, 1.20788825e+00, -1.04093112e-01,
          -1.04093112e-01, 3.70568991e-01, 3.70568991e-01,
          4.98149246e-01, 4.98149246e-01, -6.32303178e-01,
          -6.32303178e-01, 1.28797576e-01, 1.28797576e-01,
          -3.83032084e-01, -3.83032084e-01, 1.59154689e+00,
          1.59154689e+00, -1.21723390e+00, -1.21723390e+00,
          -1.96124660e-03, -1.96124660e-03, -5.12529790e-01,
          -4.03262824e-02, -4.03262824e-02, -1.54833850e-02,
          -1.54833850e-02, 8.12972367e-01, 8.12972367e-01,
          -9.25527811e-01, -9.25527811e-01, -2.27375197e+00,
          -2.27375197e+00, 7.07355022e-01, 7.07355022e-01,
          3.15256983e-01, 3.15256983e-01, -2.23887518e-01,
          -2.23887518e-01, 2.02381071e-02, 2.02381071e-02,
          2.91064709e-01, 2.91064709e-01, 4.09502089e-01, 4.09502089e-01,
          -2.37414446e-02, -2.37414446e-02, -3.93565565e-01,
          -3.93565565e-01, -7.00037599e-01, -7.00037599e-01,
          -8.46856594e-01, -8.46856594e-01, 3.20417255e-01,
          3.20417255e-01, 1.40422916e+00, 1.40422916e+00, 3.01509708e-01,
          2.69024223e-01, 2.69024223e-01, 2.26508498e-01, 2.26508498e-01,
          -1.91421521e+00, -1.91421521e+00, -2.72888422e-01,
          -2.72888422e-01, 5.33643901e-01, 5.33643901e-01,
          -9.51012492e-01, -9.51012492e-01, 7.76838243e-01,
          7.76838243e-01, -2.06720877e+00, -2.06720877e+00,
          -1.61462021e+00, -1.61462021e+00, 1.48795223e+00,
          1.48795223e+00, -6.26905918e-01, -6.26905918e-01,
          -4.15415615e-01, -4.15415615e-01, -1.92351329e+00,
          -1.92351329e+00, 1.68887758e+00, 1.68887758e+00,
          9.67470586e-01, 9.67470586e-01, 4.80287933e+00, 4.80287933e+00,
          -5.28432548e-01, -5.28432548e-01, -4.53733063e+00,
          -4.53733063e+00, -1.47346616e+00, -1.47346616e+00,
          2.30737829e+00, 2.30737829e+00, -2.04883385e+00,
          -2.04883385e+00, -3.68533105e-01, -3.68533105e-01,
          -1.23289204e+00, -1.23289204e+00, 6.56661272e-01,
          6.56661272e-01, -1.20524848e+00, -1.20524848e+00,
          -1.05492532e+00, -1.05492532e+00, -5.59119992e-02,
          -5.59119992e-02, 2.46357456e-01, 2.46357456e-01,
          7.57790625e-01, 7.57790625e-01, 1.34649885e+00, 1.34649885e+00,
          -7.10283577e-01, -7.10283577e-01, 5.59319437e-01,
          5.59319437e-01, -1.66088685e-01, -1.66088685e-01,
          -5.66806257e-01, -5.66806257e-01, 6.78652599e-02,
          6.78652599e-02, 3.34897310e-01, 3.34897310e-01, 1.02191174e+00,
          1.02191174e+00, 2.38232329e-01, 2.38232329e-01, 3.70361400e+00,
          3.70361400e+00, 6.59950078e-01, 3.71582508e-01, 3.71582508e-01,
          -2.81143099e-01, -2.81143099e-01, 7.51973540e-02,
          7.51973540e-02, 1.30879533e+00, 1.30879533e+00,
          -7.96735525e-01, -7.96735525e-01, 3.71338911e-02,
          3.71338911e-02, 2.97660559e-01, 2.97660559e-01, 8.96248579e-01,
          8.96248579e-01, 5.45264304e-01, 5.45264304e-01, 1.02398086e+00,
          1.02398086e+00, 8.19567859e-01, 8.19567859e-01,
          -4.14264351e-01, -4.14264351e-01, 3.11463118e-01,
          3.11463118e-01, -6.67474091e-01, -6.67474091e-01,
          2.63574362e-01, 2.63574362e-01, 2.12022281e+00, 2.12022281e+00,
          -1.00341094e+00, -1.00341094e+00, 1.20334494e+00,
          8.71429265e-01, 8.71429265e-01, -1.54013062e+00,
          -5.81618488e-01, -5.81618488e-01, -3.03101659e-01,
          -3.03101659e-01, -4.98280674e-01, -4.98280674e-01,
          -3.79990608e-01, -3.79990608e-01, -1.65569770e+00,
          -1.10050583e+00, -1.10050583e+00, -1.08121917e-01,
          -1.08121917e-01, 4.64811593e-01, 4.64811593e-01,
          -1.68184137e+00, -1.68184137e+00, 8.19224834e-01,
          8.19224834e-01, -5.99835932e-01, -5.99835932e-01,
          9.93629098e-01, 9.93629098e-01, -1.82084858e+00,
          -1.82084858e+00, 8.86551917e-01, 8.86551917e-01,
          -6.41142488e-01, -6.41142488e-01, 3.83707643e-01,
          3.83707643e-01, 5.13304830e-01, 5.13304830e-01, 1.28297076e-01,
          1.28297076e-01, 1.55836952e+00, 1.55836952e+00, 4.12368506e-01,
          4.12368506e-01, -1.05907607e+00, -1.05907607e+00,
          6.07977271e-01, 6.07977271e-01, 1.42783195e-01, 1.42783195e-01,
          -9.64377880e-01, 1.48917937e+00, 1.48917937e+00,
          4.29737180e-01, 4.29737180e-01, 1.60687304e+00, 1.60687304e+00,
          -2.67742425e-01, -2.67742425e-01, 1.05593398e-01,
          1.05593398e-01, 5.13921678e-01, -3.21303636e-01,
          -3.21303636e-01, -6.54949427e-01, -6.54949427e-01,
          2.45014995e-01, 2.45014995e-01, -9.16626394e-01,
          -9.16626394e-01, -7.14294016e-02, -7.14294016e-02,
          -9.18717206e-01, -9.18717206e-01, -6.91529095e-01,
          4.36992645e-01, 4.36992645e-01, -2.17404628e+00,
          -2.17404628e+00, 3.90406340e-01, 3.90406340e-01,
          3.55263412e-01, 3.55263412e-01, -1.18461609e+00,
          -1.18461609e+00, -4.15993303e-01, -4.15993303e-01,
          -9.95948017e-01, -9.95948017e-01, 2.35440135e+00,
          2.35440135e+00, 5.41539192e-01, 5.41539192e-01, 1.50914431e-01,
          1.50914431e-01, 1.15676570e+00, 1.15676570e+00,
          -1.23469079e+00, -1.23469079e+00, -1.60911882e+00,
          -1.60911882e+00, 1.05618513e+00, 1.05618513e+00,
          -4.79554206e-01, -4.79554206e-01, 8.28814566e-01,
          8.28814566e-01, 4.62147593e-01, 4.62147593e-01, 1.10688937e+00,
          1.10688937e+00, -1.69909462e-01, -1.69909462e-01,
          -1.32199645e+00, -1.32199645e+00, 2.60633326e+00,
          2.60633326e+00, 7.84377038e-01, 7.84377038e-01, 2.58816481e-01,
          2.58816481e-01, 4.06204104e-01, 4.06204104e-01,
          -7.35240161e-01, -7.35240161e-01, -4.51723099e-01,
          -4.51723099e-01, -2.18229026e-01, -2.18229026e-01,
          2.07102984e-01, 2.07102984e-01, -2.56637502e+00,
          -2.56637502e+00, -2.76901633e-01, -2.76901633e-01,
          -5.96581865e-03, -5.96581865e-03, 7.37536430e-01,
          7.37536430e-01, -1.06241107e-01, 3.70102376e-02,
          3.70102376e-02, 5.89192212e-01, 5.89192212e-01, 7.69154966e-01,
          7.69154966e-01, 1.96081266e-01, 1.96081266e-01,
          -1.32824707e+00, -1.32824707e+00, -2.85423309e-01,
          -2.85423309e-01, 7.44738698e-01, 7.44738698e-01,
          -1.68426260e-01, -1.68426260e-01, 5.00211418e-01,
          5.00211418e-01, -5.97376637e-02, -5.97376637e-02,
          -6.70328259e-01, -6.70328259e-01, -6.22835696e-01,
          -6.22835696e-01, 3.53725284e-01, -8.51020694e-01,
          -8.51020694e-01, 3.26034546e-01, 3.26034546e-01,
          1.13363951e-01, 1.13363951e-01, 5.38296998e-01, 5.38296998e-01,
          -1.18391788e+00, -1.18391788e+00, -4.02902663e-01,
          -4.02902663e-01, 4.18368518e-01, 4.18368518e-01,
          -6.83513701e-01, -6.83513701e-01, -7.89476573e-01,
          -7.89476573e-01, -4.01196778e-01, -4.01196778e-01,
          1.45353305e+00, 1.45353305e+00, 1.80005506e-01, 1.80005506e-01,
          9.92176771e-01, 9.92176771e-01, -5.56133986e-01,
          -5.56133986e-01, 7.70369709e-01, 7.70369709e-01,
          -9.18329135e-02, -9.18329135e-02, -1.48044964e-02,
          5.23111410e-02, 5.23111410e-02, 1.03262222e+00, 1.03262222e+00,
          -3.89927387e-01, -3.89927387e-01, 6.52678728e-01,
          6.52678728e-01, -1.70620412e-01, -1.70620412e-01,
          -2.21803635e-02, -2.21803635e-02, 5.64526021e-01,
          5.64526021e-01, -1.76224202e-01, -1.76224202e-01,
          8.98114324e-01, 8.98114324e-01, -7.38959670e-01,
          -7.38959670e-01, 2.99766630e-01, 2.99766630e-01,
          5.20191312e-01, 5.20191312e-01, -1.72752726e+00,
          -1.72752726e+00, 1.35021055e+00, 1.35021055e+00,
          -8.49911749e-01, -8.49911749e-01, 5.88479400e-01,
          -2.85390228e-01 ]
      - [ 1.38531380e+01, 1.77987537e+01, 8.95490646e+01, 6.79876251e+01,
          5.98745766e+01, 4.02911491e+01, -4.71574249e+01,
          2.37752190e+01, 9.46614990e+01, 6.23526421e+01, 2.55578709e+01,
          -1.45719767e+01, 1.73656139e+01, 2.08530731e+01,
          -1.53403692e+01, 1.92936554e+01, 6.46094437e+01,
          7.84029388e+01, -1.04517546e+01, 9.99457741e+00,
          4.08443298e+01, 3.07921171e+00, 3.87490821e+00,
          -1.28618183e+01, 1.28066759e+01, -3.86020088e+01,
          3.66702995e+01, 4.38454628e+00, 3.77169037e+01,
          -7.16128492e+00, 8.92745876e+00, 5.67195320e+00,
          -7.67003918e+00, -4.63044786e+00, -3.39114723e+01,
          -2.38999081e+01, -1.77257001e+00, -1.77061577e+01,
          1.24871635e+01, 6.67424202e+00, -4.18203087e+01,
          1.49052258e+01, 1.90187817e+01, 8.21280289e+00,
          -3.18144073e+01, 1.10493908e+01, 2.23121967e+01,
          -2.05092945e+01, 1.33980408e+01, 2.01783199e+01,
          -4.52940607e+00, 8.53027058e+00, -1.56101809e+01,
          1.31751919e+01, -3.99165297e+00, -3.05864096e-01,
          -3.61494398e+00, -5.50304222e+00, 1.05035143e+01,
          -6.51064396e+00, -7.71721172e+00, -4.06001043e+00,
          2.59394913e+01, 1.08967028e+01, -2.63842182e+01,
          2.34608440e+01, -1.37298975e+01, 1.83794880e+00,
          4.92622405e-01, -5.70995283e+00, 8.92341614e+00,
          -2.23093167e-01, 3.36654449e+00, 1.17253666e+01,
          -4.28380156e+00, -1.43988619e+01, 2.24819851e+01,
          -1.49480730e-01, 7.62381458e+00, 1.94008102e+01,
          1.95244961e+01, 2.18924084e+01, -4.04105043e+00,
          1.06538165e+00, -9.01453114e+00, 1.17615156e+01,
          6.95816612e+00, -1.96810799e+01, 6.70764828e+00,
          3.46581411e+00, 3.54573703e+00, 9.92996693e+00,
          -1.30024910e+01, -1.72891006e+01, -2.00813427e+01,
          9.06732368e+00, 1.46766882e+01, -1.54091537e+00,
          -3.27560782e-01, 7.02134132e+00, -6.57121849e+00,
          -2.05326128e+00, 4.57664394e+00, -4.27318096e+00,
          9.84929657e+00, -8.95062256e+00, -3.22625637e+00,
          -1.67248058e+01, -5.54030132e+00, -1.04361649e+01,
          -2.10727463e+01, -6.31598234e+00, -1.19706821e+00,
          -1.06632414e+01, -1.26196604e+01, 4.15820408e+00,
          1.06243296e+01, -6.62856388e+00, 2.25368900e+01,
          -1.25112314e+01, 2.04737234e+00, 7.01928663e+00,
          1.70346367e+00, -3.89593816e+00, -2.63276882e+01,
          -6.29973173e+00, 8.65005207e+00, 7.84621859e+00,
          7.52674866e+00, 1.79887986e+00, -1.57782478e+01,
          -9.44452477e+00, 3.85274196e+00, 3.34937072e+00,
          -2.61378746e+01, 6.58162403e+00, -2.65706658e+00,
          -4.09196997e+00, 6.57331228e+00, -1.85657680e+00,
          -6.10795641e+00, 2.83112836e+00, 1.14045410e+01,
          2.13408899e+00, 5.44543362e+00, -7.09054708e+00,
          -3.20067835e+00, 9.86444092e+00, 4.47884369e+00,
          -1.00866604e+00, 1.42710257e+01, 1.30943718e+01,
          -8.17841911e+00, 2.73605728e+00, 6.35281277e+00,
          -4.45798278e-01, 2.98899722e+00, -1.08490849e+01,
          -4.40647078e+00, -4.62769079e+00, 1.31566858e+01,
          1.28799238e+01, 4.93973351e+00, -2.61259079e+00,
          7.10143137e+00, -8.72187078e-01, -1.23061132e+01,
          -6.39579821e+00, -1.26681070e+01, -6.04460573e+00,
          1.12634802e+01, -9.92883778e+00, -5.81569862e+00,
          7.86874676e+00, -8.87781143e+00, 5.96668124e-01,
          7.99436474e+00, 6.51833582e+00, -8.17004013e+00,
          3.12036109e+00, -7.82849407e+00, 1.25677137e+01,
          -5.08802843e+00, 8.00135517e+00, 1.61447258e+01,
          4.35741711e+00, 3.91129899e+00, 4.19637442e+00,
          -5.69555187e+00, 4.74368286e+00, -7.26527309e+00,
          5.43185329e+00, 1.44313507e+01, 8.43614101e+00, 7.60599852e+00,
          9.31907654e+00, -1.28138292e+00, -1.04855168e+00,
          1.45251102e+01, 4.92601305e-01, 9.09519958e+00, 3.11106592e-01,
          2.70884186e-01, 1.42154140e+01, -3.21555078e-01,
          2.33573079e+00, -1.15892725e+01, -2.17485046e+00,
          -7.85209942e+00, -5.03003407e+00, -3.08398056e+00,
          -8.34303284e+00, -6.49132311e-01, 1.87665379e+00,
          3.28855252e+00, -3.14553070e+00, -4.61264491e-01,
          5.47533655e+00, -2.06464767e+00, 4.69461155e+00,
          -4.95250463e+00, -8.62947369e+00, 5.02326012e+00,
          -6.32817459e+00, -4.72379065e+00, -1.72411039e-01,
          -4.30808038e-01, -4.30421066e+00, 1.47886906e+01,
          -1.14214907e+01, -1.68432846e+01, 1.53804731e+00,
          -1.09945879e+01, -5.22210646e+00, 9.67499912e-01,
          -6.15556145e+00, 5.43109274e+00, -6.83478498e+00,
          -2.64726543e+00, 5.27589941e+00, 4.16909784e-01,
          6.47102118e-01, -2.97850370e+00, 7.78928280e-01,
          -4.92935514e+00, 3.76147151e+00, -1.45992494e+00,
          8.71112347e-01, -1.36538534e+01, -6.92143869e+00,
          -2.31523399e+01, 1.32590923e+01, 6.57209063e+00,
          -8.68094635e+00, 1.52630091e+00, -8.15613806e-01,
          1.10479727e+01, 3.14340806e+00, 9.10987759e+00, 1.32263336e+01,
          1.28138762e+01, -9.68264866e+00, 6.97915363e+00,
          -5.48794091e-01, 1.60359085e+00, -5.42268753e+00,
          1.34962547e+00, 1.55425176e-01, 1.60444679e+01, 8.92378426e+00,
          -3.53135967e+00, -5.15997839e+00, -5.06614745e-01,
          2.96517909e-01, 7.91384161e-01, 1.09087098e+00, 1.50477290e+00,
          1.77354181e+00, -9.58903193e-01, -1.46545668e+01,
          -8.63679218e+00, -9.85048485e+00, 2.80869460e+00,
          1.94320405e+00, 3.54485941e+00, 1.01878071e+01,
          -1.31034441e+01, 2.46564865e+00, -2.34234142e+01,
          1.17305744e+00, 8.24904537e+00, 8.00548077e+00,
          -1.31258974e+01, -7.76391625e-01, -5.54997444e+00,
          7.52583265e+00, 1.53212509e+01, 3.86224270e+00,
          -1.58927126e+01, 1.19848986e+01, -1.57420278e+00,
          -7.03521395e+00, 4.01871264e-01, 1.02956476e+01,
          1.13208838e+01, -2.99254870e+00, -8.02357864e+00,
          -9.57259274e+00, -3.22366452e+00, -7.53436708e+00,
          8.78295612e+00, -6.92241335e+00, 1.88797951e+00,
          1.39199324e+01, -1.38324213e+00, -7.20557070e+00,
          4.59045458e+00, 1.54576483e+01, 5.39754915e+00, 2.05755949e+00,
          -9.83912659e+00, 5.51686192e+00, -1.01096153e+00,
          2.98859417e-01, 1.47023563e+01, 4.19276619e+00, 9.63716698e+00,
          7.67881441e+00, -4.63702965e+00, -3.50828826e-01,
          -1.09060755e+01, 9.56324768e+00, -3.57481003e+00,
          -6.80444002e+00, -1.64726734e+00, -6.64930058e+00,
          -1.41837680e+00, -8.11834526e+00, 2.40230393e+00,
          5.71282244e+00, 2.07855701e+00, 1.63437963e+00,
          -1.35392177e+00, -1.01162529e+01, 2.19534135e+00,
          2.89625025e+00, 7.19142497e-01, 5.56078720e+00,
          -3.84258837e-01, 4.04709721e+00, 2.18413711e+00,
          1.25550652e+01, 1.17468777e+01, -7.10559750e+00,
          5.86593485e+00, 1.13694024e+00, 1.28425779e+01,
          -4.93804741e+00, 9.42819595e-01, 1.31568546e+01,
          6.13688517e+00, 1.36519327e+01, 9.55347347e+00,
          -4.31725168e+00, -1.77244396e+01, -3.84298682e+00,
          1.66515338e+00, -8.45077229e+00, -9.62469292e+00,
          -5.87596989e+00, 2.27260923e+00, -5.49775921e-02,
          8.87553024e+00, -8.03979969e+00, -4.92237091e+00,
          8.91463757e+00, 4.96158504e+00, 2.14389038e+00, 1.95138943e+00,
          -1.54590969e+01, 1.41619110e+01, -2.90283823e+00,
          -2.47819567e+00, -5.21885681e+00, -8.48174763e+00,
          4.20062923e+00, -4.09422874e+00, 2.50000715e+00,
          1.37436128e+00, 7.75884008e+00, -4.62203979e+00,
          6.00751352e+00, -1.92343855e+00, -2.74753475e+00,
          6.13066101e+00, 1.44509494e-01, -3.62571430e+00,
          7.08152485e+00, 1.60133004e+00, 3.20233774e+00, 5.22414732e+00,
          -6.10485411e+00, 4.22860718e+00, -4.28196764e+00,
          -1.19974785e+01, -8.26661301e+00, 1.03929222e+00,
          6.36392403e+00, 9.79737091e+00, -8.89346027e+00,
          -2.21852636e+00, 1.45207274e+00, -2.33957672e+00,
          2.81439304e+00, -9.76309872e+00, 6.95061493e+00,
          -6.14510393e+00, -9.48837185e+00, 9.58123922e-01,
          -4.66625786e+00, -1.40609217e+00, 2.91106248e+00,
          2.65709257e+00, 1.84693730e+00, 1.04381299e+00,
          -2.97064090e+00, 6.69448757e+00, -2.44151473e+00,
          1.17796734e-01, -2.00567573e-01, -5.77337837e+00,
          -5.28689861e+00, 1.27419317e+00, -2.98396373e+00,
          2.05550718e+00, 1.37377954e+00, -1.61619055e+00,
          2.56100869e+00, 2.01103258e+00, -2.75604892e+00,
          -2.73004556e+00, -5.99815750e+00, 2.13262343e+00,
          -2.11635661e+00, -1.11300147e+00, -5.01370335e+00,
          2.02809632e-01, 6.94208479e+00, -1.20643997e+01,
          7.16987038e+00, 4.02027750e+00, 4.49652958e+00,
          -4.53337574e+00, 1.27865446e+00, -5.30820513e+00,
          3.39419127e-01, -8.37164688e+00, -9.81309533e-01,
          9.32534218e-01, -7.46366310e+00, -4.47330236e+00,
          1.31831589e+01, -1.10131659e-01, 3.30940747e+00,
          3.27988923e-01, 6.33931494e+00, -1.47972679e+00,
          1.13506031e+00, -5.50660801e+00, 8.46938133e+00,
          7.99912587e-02, -3.69403386e+00, 4.42635250e+00,
          -1.09069061e+00, -1.27971172e+00, -5.02904177e+00,
          5.56268072e+00, -7.87604618e+00, 5.83742571e+00,
          -3.62465525e+00, 2.43292475e+00, 3.71012902e+00,
          3.40938598e-01, -1.62423208e-01, 4.45042282e-01,
          7.95086145e-01, 3.31741261e+00, 4.48223257e+00, 1.71770120e+00,
          8.02522278e+00, 4.62157869e+00, -3.32972312e+00,
          -7.20611632e-01, 1.23552024e+00, 4.74379444e+00,
          1.11348906e+01, -1.12872009e+01, 1.13785779e+00,
          -4.43520451e+00, 1.27560892e+01, -7.99266624e+00,
          -4.92739022e-01, 2.57474065e+00, 2.57474065e+00,
          5.91620159e+00, -4.03389978e+00, -4.03389978e+00,
          4.64426398e-01, 1.03427277e+01, 1.03427277e+01, 1.86713772e+01,
          4.61673784e+00, 2.74275570e+01, 1.82792521e+00, 1.82792521e+00,
          -1.16821070e+01, -1.33089485e+01, -1.33089485e+01,
          1.65697021e+01, -1.38417349e+01, -1.38417349e+01,
          -1.01238117e+01, -1.01238117e+01, 1.23744678e+01,
          1.23744678e+01, -7.87114048e+00, 1.11795368e+01,
          1.11795368e+01, -1.16887465e+01, -1.16887465e+01,
          -1.54504271e+01, -4.03357697e+00, -4.03357697e+00,
          -5.31768084e+00, -5.31768084e+00, 6.71909380e+00,
          6.71909380e+00, -3.47945547e+00, -3.47945547e+00,
          1.17363381e+00, -3.16583085e+00, 4.92587376e+00,
          4.92587376e+00, -1.43666470e+00, -1.43666470e+00,
          1.32191839e+01, 1.32191839e+01, 4.12232113e+00, 4.12232113e+00,
          6.65301323e+00, 6.65301323e+00, -2.28986716e+00,
          4.92172432e+00, 6.06606007e+00, 6.06606007e+00, 2.79169502e+01,
          2.79169502e+01, -6.71411848e+00, -6.71411848e+00,
          -1.40544033e+01, -1.40544033e+01, -4.44693089e+00,
          -4.44693089e+00, -1.12559879e+00, -1.12559879e+00,
          1.21717229e-01, 1.21717229e-01, -4.69080400e+00,
          -4.69080400e+00, 4.06284332e+00, 4.06284332e+00,
          -2.80873489e+00, -2.80873489e+00, -6.52490187e+00,
          -6.52490187e+00, 2.01446533e+00, 2.01446533e+00,
          7.02914715e+00, 7.02914715e+00, -1.45504057e+00,
          -1.05004187e+01, -1.05004187e+01, 7.21646607e-01,
          7.21646607e-01, -2.29926038e+00, -2.29926038e+00,
          -1.05986369e+00, -2.44706273e+00, -2.44706273e+00,
          -1.32204666e+01, -1.32204666e+01, -4.41142416e+00,
          -4.41142416e+00, 1.73706474e+01, 1.73706474e+01,
          3.04684687e+00, 3.04684687e+00, -2.10265136e+00,
          -2.10265136e+00, 4.63023758e+00, 4.63023758e+00,
          -5.85474730e+00, -5.85474730e+00, -7.34220028e+00,
          -1.25254116e+01, -1.25254116e+01, -3.68763971e+00,
          -3.68763971e+00, 2.96829313e-01, 2.96829313e-01,
          4.73596716e+00, 4.73596716e+00, -4.21747923e+00,
          -4.21747923e+00, 1.58671117e+00, 1.58671117e+00,
          -5.10638714e+00, -5.10638714e+00, 1.17514658e+01,
          -2.99389791e+00, -2.99389791e+00, -8.44944656e-01,
          -8.44944656e-01, -3.47337413e+00, -3.47337413e+00,
          6.22137785e+00, 6.22137785e+00, -3.74215508e+00,
          3.79895377e+00, 3.79895377e+00, 6.60853088e-01, 6.60853088e-01,
          -3.99469209e+00, -3.99469209e+00, 3.16871500e+00,
          3.16871500e+00, -4.38355541e+00, -4.38355541e+00,
          2.48416686e+00, 2.48416686e+00, -1.27080126e+01,
          -1.27080126e+01, 1.05939662e+00, 1.05939662e+00,
          -2.09440184e+00, -2.09440184e+00, 4.86369419e+00,
          4.86369419e+00, 8.87398052e+00, -1.23379068e+01,
          -1.23379068e+01, 4.08974361e+00, 4.08974361e+00,
          6.01355648e+00, 6.01355648e+00, -1.03021202e+01,
          -6.20329320e-01, -6.20329320e-01, -7.40996742e+00,
          -7.40996742e+00, -5.24407673e+00, -5.24407673e+00,
          8.62094212e+00, 8.62094212e+00, 3.59332085e-01, 3.59332085e-01,
          -1.02363586e+01, -1.02363586e+01, -1.57035160e+01,
          -1.57035160e+01, 4.04807615e+00, 4.04807615e+00,
          7.77763271e+00, 7.77763271e+00, 3.14437222e+00, 3.14437222e+00,
          9.68552113e+00, 9.68552113e+00, -1.12428246e+01,
          -1.12428246e+01, -1.06890845e+00, -3.33895612e+00,
          -3.33895612e+00, -1.12731886e+00, -1.12731886e+00,
          4.80803299e+00, 4.80803299e+00, 3.92191243e+00, 1.78992043e+01,
          4.08035946e+00, 4.08035946e+00, 5.92058897e+00, 5.92058897e+00,
          -3.02289629e+00, -3.02289629e+00, -5.41028881e+00,
          -5.41028881e+00, 7.30449200e+00, 7.30449200e+00,
          1.07384734e-01, 1.07384734e-01, -6.34514189e+00,
          -6.34514189e+00, 6.18367314e-01, -7.64850140e+00,
          -7.64850140e+00, -6.26867342e+00, -6.26867342e+00,
          1.62118423e+00, 1.62118423e+00, -8.08711720e+00,
          -8.08711720e+00, -7.80629063e+00, -7.80629063e+00,
          6.87920046e+00, 6.87920046e+00, 2.89103103e+00, 2.89103103e+00,
          -2.77761912e+00, -2.77761912e+00, -1.15368071e+01,
          -1.27133255e+01, -1.27133255e+01, 8.81992817e+00,
          8.81992817e+00, -1.72878996e-01, -1.72878996e-01,
          -5.26749754e+00, -5.26749754e+00, -2.14377332e+00,
          -1.00919714e+01, -1.00919714e+01, -5.23907952e-02,
          -5.23907952e-02, 6.34545279e+00, 6.34545279e+00,
          3.14408708e+00, 3.14408708e+00, 3.91971707e-01, 3.91971707e-01,
          -3.37877798e+00, 3.12363982e+00, 3.12363982e+00,
          -1.28810368e+01, -1.28810368e+01, -3.64506269e+00,
          -3.64506269e+00, 7.10285139e+00, 3.82325482e+00,
          3.82325482e+00, -7.25585401e-01, -7.25585401e-01,
          -5.31870890e+00, -5.31870890e+00, 3.29573631e+00,
          3.29573631e+00, 2.63666058e+00, 2.63666058e+00,
          -8.58268642e+00, -8.58268642e+00, -4.56339329e-01,
          -4.56339329e-01, 5.91055727e+00, 5.91055727e+00,
          5.32459831e+00, 5.32459831e+00, -1.18430033e-01,
          -1.18430033e-01, -9.67610359e+00, -9.67610359e+00,
          9.17507362e+00, 9.17507362e+00, 1.05031192e+00, 1.05031192e+00,
          -6.92348528e+00, -6.92348528e+00, 1.34997058e+00,
          1.34997058e+00, 1.36121111e+01, 1.36121111e+01,
          -1.13243437e+00, -1.13243437e+00, -8.18540287e+00,
          -8.18540287e+00, 3.70737767e+00, -1.15851078e+01,
          -1.15851078e+01, 2.30688953e+00, 2.30688953e+00,
          5.75527668e+00, 5.75527668e+00, -8.28793716e+00,
          -8.28793716e+00, -7.22354174e+00, -7.22354174e+00,
          -1.47320497e+00, -1.47320497e+00, -1.23870554e+01,
          -1.23870554e+01, -3.35560322e+00, -3.35560322e+00,
          8.91054440e+00, 8.91054440e+00, -4.99668550e+00,
          -4.99668550e+00, 3.71106595e-01, 3.71106595e-01,
          -1.03339684e+00, -1.03339684e+00, -1.08506365e+01,
          -1.08506365e+01, -1.50756109e+00, -1.50756109e+00,
          2.96911335e+00, 2.96911335e+00, 5.10625410e+00, 5.10625410e+00,
          -5.66754341e+00, 3.49082494e+00, 3.49082494e+00,
          4.43749952e+00, 4.43749952e+00, -1.49379241e+00,
          -1.49379241e+00, -1.66021037e+00, -1.66021037e+00,
          1.75936961e+00, 1.75936961e+00, -9.25681055e-01,
          -9.25681055e-01, -8.81318808e-01, -8.81318808e-01,
          5.71447134e+00, 5.71447134e+00, -2.10517883e+00,
          -2.10517883e+00, 6.53609324e+00, 6.53609324e+00,
          3.03410721e+00, 1.34597528e+00, 1.34597528e+00, 4.62089252e+00,
          4.62089252e+00, 4.27842617e+00, 4.27842617e+00,
          -2.11503923e-01, -2.11503923e-01, -4.99876785e+00,
          -4.99876785e+00, -1.12554979e+00, -1.12554979e+00,
          -3.58835483e+00, -3.58835483e+00, -1.11897078e+01,
          -1.43588555e+00, -1.43588555e+00, -3.94374943e+00,
          -3.94374943e+00, 1.62571609e+00, 1.62571609e+00,
          -2.57653165e+00, -2.57653165e+00, -1.93556714e+00,
          -1.93556714e+00, -2.80167794e+00, -2.80167794e+00,
          5.21012974e+00, 5.21012974e+00, -8.11041546e+00,
          6.04481411e+00, 6.04481411e+00, -3.50744247e+00,
          -3.50744247e+00, 2.62482262e+00, 2.62482262e+00,
          1.08635950e+00, 1.08635950e+00, -3.89231420e+00,
          -3.89231420e+00, -6.41460800e+00, -6.41460800e+00,
          8.71459484e+00, 8.71459484e+00, 5.79983056e-01, 5.79983056e-01,
          -1.12083662e+00, -1.12083662e+00, 4.95918989e+00,
          4.95918989e+00, -8.18585300e+00, -8.18585300e+00,
          -9.31253242e+00, -9.31253242e+00, 3.65745485e-01,
          3.65745485e-01, -1.80022502e+00, -1.80022502e+00,
          8.38003233e-02, 8.38003233e-02, -3.15453219e+00,
          -3.15453219e+00, 1.84052241e+00, 1.84052241e+00,
          1.42251575e+00, 1.42251575e+00, -5.88840306e-01,
          -5.88840306e-01, -2.57190537e+00, -2.57190537e+00,
          -6.37628317e+00, -6.37628317e+00, 8.84865379e+00,
          8.84865379e+00, -6.44125891e+00, -6.44125891e+00,
          -4.78461647e+00, -4.78461647e+00, -1.54935014e+00,
          -1.54935014e+00, 1.34575462e+00, 1.34575462e+00,
          -1.88403856e-02, -1.88403856e-02, 3.76460671e+00,
          3.76460671e+00, 2.84202886e+00, 2.84202886e+00, 3.32988858e+00,
          3.32988858e+00, -2.87545681e-01, -2.87545681e-01,
          2.01598644e+00, 2.01598644e+00, 6.36532736e+00, 6.36532736e+00,
          -3.53204966e+00, -3.53204966e+00, 3.45018506e+00,
          3.45018506e+00, 2.79684472e+00, 2.79684472e+00,
          -6.71028614e-01, -6.71028614e-01, -1.31196046e+00,
          -1.31196046e+00, 1.74747396e+00, 1.74747396e+00,
          2.95243788e+00, 2.95243788e+00, 5.66786003e+00, 5.66786003e+00,
          2.79294825e+00, 2.79294825e+00, 3.37206149e+00, 3.37206149e+00,
          -9.95717347e-01, -9.95717347e-01, -1.09224284e+00,
          -1.09224284e+00, 1.27422655e+00, 1.27422655e+00,
          5.00723171e+00, 5.00723171e+00, -3.27448368e-01,
          -3.27448368e-01, 5.84492743e-01, 5.84492743e-01,
          2.61825919e+00, 2.87881279e+00, 2.87881279e+00, 4.38547897e+00,
          4.38547897e+00, 5.32076788e+00, 5.32076788e+00,
          -2.99303436e+00, -2.99303436e+00, 4.54575825e+00,
          4.54575825e+00, 3.74709296e+00, 3.74709296e+00, 1.06815660e+00,
          1.06815660e+00, 2.34163976e+00, 2.34163976e+00, 1.49925404e+01,
          1.49925404e+01, 3.96895123e+00, 3.96895123e+00,
          -1.27797812e-01, -1.27797812e-01, 3.48853874e+00,
          3.48853874e+00, 1.30666566e+00, 1.30666566e+00, 1.37978113e+00,
          1.37978113e+00, -3.32175779e+00, -3.32175779e+00,
          3.91170859e-01, 9.60255027e-01, 9.60255027e-01, 1.07996240e-02,
          1.07996240e-02, 3.07826400e+00, 3.07826400e+00,
          -6.97990060e-01, -6.97990060e-01, -3.60072732e+00,
          -3.60072732e+00, -1.95342362e+00, -1.95342362e+00,
          2.57700300e+00, 2.57700300e+00, 1.25231087e-01, 1.25231087e-01,
          -2.86437225e+00, -3.40015960e+00, -3.40015960e+00,
          -2.09747577e+00, -2.09747577e+00, -1.05172254e-01,
          -1.05172254e-01, -1.72077024e+00, -1.72077024e+00,
          -2.82175446e+00, 2.37395138e-01, 2.37395138e-01,
          1.58205450e+00, 1.58205450e+00, -3.99297571e+00,
          -3.99297571e+00, -5.01604033e+00, -5.01604033e+00,
          4.83552098e-01, 4.83552098e-01, 6.88041925e+00, 6.88041925e+00,
          4.94396639e+00, 4.94396639e+00, -3.23140323e-01,
          -3.23140323e-01, -6.49079037e+00, -6.49079037e+00,
          1.02250395e+01, 1.02250395e+01, 1.61867881e+00, 1.61867881e+00,
          -3.06273937e+00, -3.06273937e+00, 1.96088374e+00,
          1.96088374e+00, -8.78840828e+00, -8.78840828e+00,
          -3.08460021e+00, -3.08460021e+00, -4.79003906e+00,
