%YAML:1.0
---
opencv_ml_svm:
   format: 3
   svmType: C_SVC
   kernel:
      type: LINEAR
   C: 2.9999999999999999e-01
   term_criteria: { epsilon:1.1920928955078125e-07, iterations:1000 }
   var_count: 2000
   class_count: 2
   class_labels: !!opencv-matrix
      rows: 2
      cols: 1
      dt: i
      data: [ -1, 1 ]
   sv_total: 1
   support_vectors:
      - [ 1.09129623e-02, -1.87057704e-02, 3.54678079e-04,
          -1.59996387e-03, -2.23049964e-03, 1.67263579e-03,
          1.86217728e-03, -5.31514315e-03, -3.80973448e-03,
          -1.69518043e-03, 3.01253214e-03, -1.56311179e-03,
          1.75439485e-03, 4.32495074e-03, -7.34937668e-04,
          -3.38663370e-03, -5.55565406e-04, 3.27677978e-03,
          -1.98600086e-04, -2.12131208e-03, 2.99685285e-03,
          -1.52636855e-03, -3.79905966e-03, -9.54060582e-04,
          5.42152487e-03, -1.16011826e-04, 5.26182470e-04,
          1.54168147e-03, 2.16894154e-03, -5.72285615e-04,
          2.65732501e-03, 1.25170860e-04, -1.51383027e-03,
          4.28109197e-05, 5.70368313e-04, -1.04808877e-03,
          -1.40786427e-03, 1.07644650e-03, -9.53335431e-04,
          6.45752298e-04, 3.06435162e-04, -2.10554642e-03,
          -2.62219692e-03, -7.01286655e-04, -9.18106991e-04,
          -1.29838358e-03, -3.70175316e-04, -6.46222266e-04,
          7.45134021e-04, 8.96860962e-04, -1.79507036e-03,
          -2.42942176e-03, 1.82546582e-03, -2.13001342e-03,
          1.52528111e-04, -2.73082941e-03, 1.20238331e-03,
          -1.64498482e-03, 3.19555606e-04, 2.25818926e-03,
          -1.83519514e-04, 5.51765668e-04, -2.49200827e-03,
          1.88501814e-04, -1.04029279e-03, -1.01477094e-03,
          1.05813786e-03, 3.35224584e-04, -2.03969958e-03,
          -1.05101871e-03, -7.83212658e-04, 6.59550366e-04,
          1.43384165e-03, -1.94729160e-04, 7.47532351e-04,
          -1.32217456e-03, -1.36880600e-03, -1.68118509e-03,
          -6.77290373e-04, -4.29861434e-03, 2.14056764e-03,
          -8.77202197e-04, -5.80391323e-04, 3.59066507e-05,
          7.71801337e-04, -1.99589110e-03, -2.78294832e-03,
          1.75520696e-03, 2.86628958e-03, -1.64479669e-03,
          1.94895815e-03, -9.04903209e-05, -9.60011210e-04,
          1.15526118e-03, 6.21186337e-04, -5.38922730e-04,
          2.93053105e-03, -6.81472884e-04, 5.67297451e-04,
          -3.67475615e-04, -1.03801279e-03, -1.01686304e-03,
          -3.36417725e-04, 1.66680315e-03, 2.25786865e-03,
          -1.29995926e-04, -2.54816911e-03, -1.67634652e-03,
          -9.86031606e-04, -6.53736235e-04, -1.56950369e-03,
          9.06785426e-05, -2.17359420e-03, -1.59398816e-03,
          -7.56803667e-04, -1.27170328e-03, -1.93046313e-03,
          9.11570794e-04, 1.31018460e-04, -1.32555712e-03,
          1.48910012e-05, 4.55872039e-04, -1.84151507e-03,
          2.75854720e-03, -5.13918465e-04, -6.43082545e-04,
          4.82772564e-04, 3.60774400e-04, 2.13309750e-03,
          -1.83232618e-03, -1.23171380e-03, -2.22005532e-03,
          1.00034371e-03, 7.30381871e-04, -8.65225855e-04,
          1.58746523e-04, 1.00481079e-03, 2.38092709e-03, 1.15657313e-04,
          -6.59990881e-04, 5.05038130e-04, 9.83001664e-04,
          -6.63162151e-04, -6.14490185e-04, 1.66962040e-03,
          -1.57714030e-03, -4.05767787e-04, 6.05138950e-04,
          1.09777390e-03, -4.21854435e-04, 1.18972198e-03,
          -1.48510432e-03, 1.65447826e-03, -1.21837133e-03,
          -1.09606015e-03, 1.14555866e-03, -1.12718611e-03,
          5.68237912e-04, -2.23169778e-03, 9.37758945e-04,
          1.41258689e-03, 1.33625395e-03, -2.17182911e-03,
          1.24023878e-03, 2.45598634e-03, 1.80228322e-03, 1.86727545e-03,
          1.33984664e-03, 7.16963958e-04, 2.63161748e-03,
          -8.27594020e-04, 8.98412196e-04, -7.75312830e-04,
          -2.11529224e-03, 6.19197031e-04, 5.81624954e-05,
          -1.91816638e-04, -8.47530668e-04, -1.20491209e-03,
          6.53493567e-04, -6.01330015e-04, -1.02731283e-03,
          4.71195846e-04, -1.56208756e-04, 4.12650290e-04,
          -1.18676911e-03, 1.64660136e-03, 4.98286448e-04,
          -1.43252662e-03, 5.65564842e-04, 1.20512664e-03,
          -1.59173727e-03, -1.96211040e-03, -3.38866754e-04,
          -8.32474325e-04, 3.59767932e-04, -3.06386122e-04,
          -2.84683862e-04, 3.30811308e-04, -7.28622836e-04,
          1.60452665e-03, -6.64467865e-04, 1.09138701e-03,
          -1.05962937e-03, 9.10195347e-04, 4.90229111e-04,
          5.41514077e-04, -3.59599682e-04, -1.41695316e-03,
          -1.74957863e-03, -2.62064732e-05, 4.07100522e-08,
          -5.11673512e-04, -5.30193618e-04, 1.15227606e-03,
          4.52837878e-04, 1.40627776e-03, -1.24740950e-03,
          9.21861967e-04, 1.75955787e-03, 1.07808085e-03,
          -1.64365757e-03, -7.13214453e-04, 4.88229387e-04,
          -2.67835800e-03, -8.76550563e-04, 1.42156053e-03,
          2.92573823e-04, 1.19371759e-03, -2.86018418e-04,
          5.69754280e-04, 9.34280863e-04, -1.32331531e-03,
          1.96130644e-03, -9.70056048e-04, -2.57302821e-03,
          1.23024127e-03, -6.63995976e-04, 3.34240875e-04,
          6.60099380e-04, 9.67890781e-04, 7.06811043e-05, 4.46657883e-04,
          1.27270177e-05, -1.12261878e-04, 8.19441397e-04,
          -9.97193158e-04, -6.71219605e-04, 4.72462241e-04,
          5.42524213e-04, 3.48727073e-04, 1.37396576e-03,
          -1.80353958e-03, -3.89845314e-04, 1.12086418e-03,
          -8.47878182e-05, 1.31967466e-03, 7.43493030e-04,
          2.52124039e-04, 2.13355757e-04, -2.44757830e-04,
          -6.58725912e-04, 1.05412852e-03, 1.08287248e-04,
          -1.34051521e-03, -6.37668301e-04, -3.28448805e-04,
          -6.42436044e-06, 9.56014148e-04, 5.08381636e-04,
          -1.83572425e-04, -1.14440976e-04, 5.45625458e-04,
          -2.14255920e-06, 2.25026102e-04, -8.85968911e-04,
          3.22617416e-04, -1.49072916e-03, 1.32954074e-03,
          -1.33976352e-03, 3.33983771e-04, -1.44172995e-03,
          -1.50417117e-03, -3.50105693e-04, 1.27405045e-04,
          -1.00385142e-03, -5.25665411e-04, -2.72974750e-04,
          -1.50639447e-03, -4.35274094e-04, -5.19605004e-04,
          -7.33976718e-04, 8.53672158e-04, -3.25400761e-04,
          -3.86377709e-04, 6.28212525e-04, 3.36655678e-04,
          1.04573858e-03, 1.26269285e-03, 9.51855269e-04,
          -4.91921441e-04, 6.87216161e-05, -5.02673385e-04,
          1.02122885e-03, -8.01204529e-04, -6.75070973e-04,
          1.04976911e-03, -6.40001730e-04, 4.18884974e-06,
          1.77031063e-04, -4.14516631e-04, -2.21692841e-04,
          -4.01714060e-04, -1.33128895e-03, -6.33013988e-05,
          2.34446561e-04, 1.88255054e-03, 1.92022653e-05,
          -2.08039477e-04, 2.62723421e-04, 8.38627340e-04,
          -3.05028720e-04, 8.51715158e-04, -3.95695155e-04,
          -3.31182586e-04, -8.50861077e-04, 3.72271345e-04,
          5.78644220e-04, -1.17997103e-03, -6.40104292e-04,
          9.36187134e-05, 5.33097773e-04, 5.89882082e-04,
          -7.98269466e-04, 6.10233808e-04, -1.63523899e-03,
          -1.76844449e-04, 7.30376109e-04, 5.10818136e-05,
          -3.02208267e-04, 1.15717389e-03, 1.48789666e-04,
          -8.87270551e-04, -3.20573366e-04, -2.68717180e-04,
          -5.51062112e-04, 1.26072217e-03, 3.56291886e-04,
          -9.23980915e-05, 6.85558014e-04, 2.12145853e-03,
          5.93555233e-05, 1.61310227e-03, 5.13705425e-04, 5.95163670e-04,
          -7.27033475e-05, 1.04914745e-03, 7.77999405e-04,
          -1.52457244e-04, 4.46001824e-04, 6.37900608e-04,
          -9.23216760e-07, 7.68622966e-04, 7.45965459e-04,
          -7.45677506e-04, 1.06756121e-03, -4.90688020e-04,
          5.19952300e-05, -1.88077058e-04, 4.05965693e-04,
          -1.37116341e-03, 6.12346281e-04, 1.51352771e-03,
          -5.61786932e-04, -2.73709884e-04, 9.69059765e-04,
          1.21010013e-03, -1.05539244e-03, 1.24456987e-04,
          -2.87960895e-04, 1.06594998e-04, -3.09805153e-04,
          -8.42605601e-04, -2.31570186e-04, -8.34471255e-04,
          -7.17186602e-04, 1.23012782e-04, -5.79835149e-04,
          1.79807015e-04, -6.38286583e-04, -2.04134863e-04,
          9.26584820e-04, -3.56964912e-04, 9.11589479e-04,
          -2.44389114e-04, -5.52409329e-04, -3.98694188e-04,
          9.00939485e-05, 5.54006110e-05, -1.01345521e-03,
          -9.38275130e-04, 8.38713313e-05, -3.15135985e-04,
          1.76319841e-03, -3.63003841e-04, 3.52008035e-04,
          1.66397062e-04, 4.92978957e-04, -3.92887334e-04,
          -2.24710966e-04, -1.54386187e-04, -1.68200604e-05,
          2.83236499e-04, 9.67309752e-05, 5.13546227e-04, 4.63138276e-04,
          -1.06517388e-03, 4.14910843e-04, -4.24872182e-04,
          3.90283269e-04, -3.31643882e-04, 4.35518923e-05,
          4.34470829e-04, 8.72453267e-04, 9.02603962e-04, 7.05022248e-04,
          -1.40708231e-04, -8.24951567e-04, -2.78076423e-05,
          4.89428116e-04, -5.12728060e-04, 5.76647872e-04,
          -8.55760067e-04, -1.43826837e-04, 4.13590460e-04,
          6.28003094e-04, -2.59034161e-04, 1.07182830e-03,
          5.63992071e-04, -2.31026846e-04, 4.92891239e-04,
          -3.52675386e-04, -6.58793870e-05, 5.53294667e-04,
          3.70652502e-04, 5.21997339e-04, 2.54067971e-04,
          -5.99425402e-04, -1.39507829e-04, 3.51882685e-04,
          5.12236031e-04, 4.21853940e-04, 2.58456712e-04, 2.15357533e-04,
          -4.07174317e-04, -2.72967212e-04, -1.00287361e-04,
          2.68098665e-04, 2.60140550e-05, -3.02409462e-04,
          -3.41672203e-05, 5.44517752e-05, 1.06834003e-03,
          5.26967167e-04, 7.58467184e-04, 6.37172430e-04, 8.03512172e-04,
          6.76379364e-04, -5.12868864e-04, -2.81693046e-05,
          5.62667556e-04, 2.46685842e-04, 9.37802484e-04,
          -5.51453733e-04, -5.22243572e-05, 3.84309824e-04,
          3.34728596e-04, -1.55351462e-03, 8.89702642e-04,
          -1.44392761e-04, 4.79867420e-04, -5.97846985e-04,
          -6.45124179e-04, 5.24110044e-04, 9.77211283e-04,
          1.12454589e-04, -1.37466734e-04, 4.84139964e-05,
          -6.31325762e-04, 5.08937228e-04, -5.04791969e-04,
          6.96141724e-05, -1.08864122e-04, -1.57628339e-04,
          -8.26535514e-04, -8.86394351e-04, -2.12673021e-05,
          -3.29704431e-04, -8.31212019e-05, -5.92366152e-04,
          -6.78905461e-04, -5.64303409e-05, -2.60618923e-04,
          -2.99356156e-12, 1.82725484e-11, 8.27242008e-12,
          8.27242008e-12, -1.24683250e-18, -3.08997619e-18,
          -3.08997619e-18, -6.77626358e-18, -6.77626358e-18,
          7.49664133e-12, -4.82106813e-13, -4.82106813e-13,
          -1.19262239e-18, -3.01660849e-11, -3.01660849e-11,
          2.43336202e-11, 2.43336202e-11, -3.22751964e-11,
          -3.22751964e-11, 6.96587163e-11, 6.96587163e-11,
          -8.96769117e-12, -8.96769117e-12, -8.94558472e-12,
          -8.94558472e-12, 2.92043265e-11, -8.06830210e-12,
          2.45962430e-12, 2.45962430e-12, -6.99804364e-12,
          -6.99804364e-12, -2.04122882e-11, -2.04122882e-11,
          -2.46202520e-11, -2.46202520e-11, -2.38524478e-18,
          -2.38524478e-18, 7.23361258e-12, 7.23361258e-12,
          -4.80668023e-12, -4.80668023e-12, 4.28834988e-11,
          4.28834988e-11, 1.24683250e-18, 1.24683250e-18,
          -3.96324501e-11, -3.96324501e-11, 2.51655532e-12,
          2.51655532e-12, 9.78604003e-11, 9.78604003e-11,
          -1.79436657e-11, -1.79436657e-11, -2.33600656e-11,
          -5.36405447e-13, -5.36405447e-13, -1.17806832e-11,
          -1.17806832e-11, -9.56489124e-11, -9.56489124e-11,
          -1.69565317e-12, -1.69565317e-12, -4.98732999e-18,
          -4.98732999e-18, 1.89735380e-19, 1.89735380e-19,
          2.06767659e-11, 2.06767659e-11, -1.18473252e-11,
          -1.18473252e-11, 1.85386793e-11, -2.69508114e-12,
          -2.69508114e-12, -1.35221027e-11, -1.35221027e-11,
          -1.90406198e-11, -1.90406198e-11, -9.21571847e-19,
          -2.36582594e-11, -2.36582594e-11, 2.16840434e-19,
          2.16840434e-19, 2.59934019e-11, 2.59934019e-11,
          -2.89945255e-11, -2.23468067e-11, -2.23468067e-11,
          -8.69189096e-12, -8.69189096e-12, 7.04731412e-19,
          7.04731412e-19, 4.53163236e-11, -4.28834988e-11,
          -4.28834988e-11, 1.02675906e-11, 1.02675906e-11,
          -4.12218176e-11, -4.12218176e-11, -1.08420217e-19,
          -1.08420217e-19, 1.80865652e-12, 1.80865652e-12,
          -1.39591030e-18, -1.39591030e-18, 1.08420217e-18,
          1.08420217e-18, 3.29521063e-11, 3.29521063e-11, 3.11706078e-11,
          3.11706078e-11, 5.94494662e-11, 5.94494662e-11, 1.49077799e-18,
          1.49077799e-18, 2.25564237e-11, 2.25564237e-11, 1.33978609e-11,
          1.33978609e-11, 7.36865517e-12, 7.36865517e-12,
          -2.71050543e-20, -2.71050543e-20, -8.28104946e-12,
          -8.28104946e-12, 7.58941521e-19, 7.58941521e-19,
          7.13095989e-12, 7.13095989e-12, 2.88421197e-12, 2.88421197e-12,
          1.71063216e-11, 1.71063216e-11, -1.56162951e-12,
          -1.56162951e-12, -3.06287114e-18, 5.56785304e-12,
          5.56785304e-12, 4.80215650e-12, 4.80215650e-12, 1.56998253e-12,
          1.56998253e-12, -1.62630326e-19, -1.62630326e-19,
          1.30284433e-12, 1.30284433e-12, 1.35525272e-19, 1.35525272e-19,
          8.06614150e-12, 8.06614150e-12, -9.50887719e-12,
          -9.50887719e-12, -1.48183063e-11, -1.48183063e-11,
          -5.66888442e-13, -5.66888442e-13, -1.81025125e-11,
          -1.81025125e-11, -2.24971951e-18, -2.24971951e-18,
          1.39523818e-11, 1.39523818e-11, 1.33865586e-12, 1.33865586e-12,
          4.62199376e-12, 4.62199376e-12, 2.61791782e-12, 2.61791782e-12,
          -9.73958674e-12, -9.73958674e-12, 5.20159653e-12,
          5.20159653e-12, 2.40333968e-12, 2.40333968e-12, 9.48151453e-12,
          9.48151453e-12, 5.57725957e-12, 5.57725957e-12,
          -1.18188142e-11, -1.18188142e-11, -3.61239597e-12,
          1.49077799e-19, 1.49077799e-19, 5.00364116e-12, 5.00364116e-12,
          4.02575646e-11, 4.02575646e-11, -2.47000198e-11,
          1.09688387e-11, 1.09688387e-11, -1.29129590e-13,
          -1.29129590e-13, 2.32065010e-11, 2.32065010e-11,
          -1.49649234e-11, -1.49649234e-11, 8.01358112e-12,
          8.01358112e-12, -8.07290606e-12, -8.07290606e-12,
          -5.42101086e-20, -5.42101086e-20, 1.00310029e-11,
          1.73577003e-11, 1.73577003e-11, 9.97744509e-12, 9.97744509e-12,
          -8.67361738e-19, -8.67361738e-19, -3.25260652e-19,
          -3.25260652e-19, 5.04006472e-12, 5.04006472e-12,
          -2.85117156e-11, -2.85117156e-11, 7.54056609e-11,
          7.54056609e-11, 6.27194061e-11, 6.27194061e-11,
          -2.16840434e-19, -2.16840434e-19, -8.21597478e-12,
          -8.21597478e-12, -3.12127268e-11, -3.12127268e-11,
          -1.42553304e-11, -1.42553304e-11, -1.65141199e-11,
          1.45313917e-11, 1.45313917e-11, 1.35525272e-19, 1.35525272e-19,
          4.01819767e-12, 4.01819767e-12, -1.56904836e-11,
          -1.56904836e-11, -1.17161428e-11, -1.17161428e-11,
          3.57450831e-12, 3.57450831e-12, -8.13151629e-20,
          -8.13151629e-20, -2.84603070e-19, -2.84603070e-19,
          7.12251308e-12, 7.12251308e-12, 2.49024343e-11, 2.49024343e-11,
          -1.72337977e-11, -1.72337977e-11, 8.95258694e-12,
          2.71050543e-20, 2.71050543e-20, -1.53242540e-11,
          -1.53242540e-11, 2.98155597e-19, 2.98155597e-19,
          -3.05738247e-12, -3.05738247e-12, -2.17633047e-11,
          1.74749104e-11, 1.74749104e-11, 2.31038938e-11, 2.31038938e-11,
          -2.48982605e-11, -2.48982605e-11, -7.08605353e-12,
          -7.08605353e-12, -1.48341773e-11, -1.48341773e-11,
          -1.35525272e-19, -1.35525272e-19, -1.55854062e-18,
          -1.55854062e-18, -6.35518678e-12, -6.35518678e-12,
          1.15112499e-12, 1.15112499e-12, 1.27920383e-11, 1.27920383e-11,
          -4.20128342e-19, -4.20128342e-19, 3.79470760e-19,
          3.79470760e-19, 2.16840434e-19, 2.16840434e-19, 1.52082756e-11,
          1.52082756e-11, 2.27859936e-11, 2.27859936e-11,
          -1.04247635e-11, -1.04247635e-11, 0., 0., -2.88932767e-12,
          -2.88932767e-12, 1.49077799e-19, 1.49077799e-19,
          2.03287907e-19, 2.03287907e-19, -7.73700548e-12,
          -7.73700548e-12, 3.88642373e-12, 3.88642373e-12,
          7.63010857e-13, -1.37188897e-11, -1.37188897e-11,
          2.57498016e-19, 2.57498016e-19, -3.06501813e-13,
          -3.06501813e-13, -3.01044302e-12, -3.01044302e-12,
          1.00325677e-11, 1.00325677e-11, -1.02969459e-13,
          -1.02969459e-13, -1.99023818e-11, -1.99023818e-11,
          3.31377482e-12, 3.31377482e-12, 1.13178336e-12, 1.13178336e-12,
          1.52342305e-11, 1.52342305e-11, 1.58665876e-11, 1.58665876e-11,
          -3.85588089e-12, -3.85588089e-12, -2.65332322e-11,
          -2.65332322e-11, 1.64934542e-11, 1.64934542e-11,
          -6.80275584e-12, -6.80275584e-12, 4.80685197e-12,
          4.80685197e-12, 2.02279738e-11, 2.02279738e-11,
          -7.19661613e-12, -7.19661613e-12, -3.71830821e-13,
          6.63324170e-12, 6.63324170e-12, -7.46934036e-13,
          -7.46934036e-13, 6.92408414e-12, 6.92408414e-12,
          1.74925022e-11, 1.74925022e-11, 2.66991160e-12, 2.66991160e-12,
          -5.61492855e-14, 5.11773957e-12, 5.11773957e-12,
          -1.89465457e-11, -1.89465457e-11, -6.41098242e-12,
          -6.41098242e-12, -2.39984660e-12, -2.39984660e-12,
          1.71699169e-14, 2.57498016e-19, 2.57498016e-19,
          -1.08969812e-11, -1.08969812e-11, -3.54953089e-12,
          -3.54953089e-12, -1.19345566e-11, -1.19345566e-11,
          8.10787115e-12, 8.10787115e-12, -2.80777441e-12,
          -2.80777441e-12, 4.79986320e-12, 4.79986320e-12,
          2.63369903e-12, 2.63369903e-12, -1.06591680e-11,
          -1.06591680e-11, 7.39696672e-12, 7.39696672e-12,
          -4.36719064e-12, -4.36719064e-12, -3.97794514e-12,
          1.30888625e-11, 1.30888625e-11, -5.26591314e-12,
          -5.26591314e-12, -1.78897938e-11, -1.78897938e-11,
          8.72464427e-12, 8.72464427e-12, -1.34846405e-11,
          -1.34846405e-11, 1.23115476e-11, 1.23115476e-11,
          2.06612522e-11, 2.06612522e-11, 1.23551438e-11, 1.23551438e-11,
          -1.24144900e-12, -1.24144900e-12, 6.76290057e-12,
          6.76290057e-12, 5.17284349e-12, 5.17284349e-12, 2.82834498e-12,
          2.82834498e-12, -5.39951764e-13, -5.39951764e-13,
          1.81586048e-11, -3.97582900e-14, -3.97582900e-14,
          -1.32825296e-11, -1.32825296e-11, -1.11745569e-11,
          -1.11745569e-11, 4.52925978e-12, 4.52925978e-12,
          -4.67530077e-11, -4.67530077e-11, -5.95962299e-12,
          -5.95962299e-12, -2.69874973e-11, -2.69874973e-11,
          -1.77444008e-12, -1.77444008e-12, -1.22580618e-11,
          -1.22580618e-11, -7.31836466e-19, -7.31836466e-19,
          7.13305890e-12, 7.13305890e-12, 1.31938089e-11, 1.31938089e-11,
          -1.25006212e-12, -1.25006212e-12, 4.47233396e-19,
          4.47233396e-19, 2.69619201e-12, 2.69619201e-12,
          -4.53165326e-12, 1.02250109e-12, 1.02250109e-12,
          3.93023288e-19, 3.93023288e-19, -6.01627645e-12,
          -6.01627645e-12, -1.51793300e-11, -1.51793300e-11,
          -1.23021873e-12, -1.23021873e-12, -3.15358980e-12,
          -3.15358980e-12, 5.06923756e-12, 5.06923756e-12,
          -5.80932492e-13, 3.31236254e-12, 3.31236254e-12,
          -2.52294470e-11, -2.52294470e-11, -1.19506852e-11,
          -1.19506852e-11, -6.83473243e-12, -6.83473243e-12,
          -1.71453025e-11, -1.71453025e-11, -2.72388449e-12,
          6.24489067e-13, 6.24489067e-13, 1.57993289e-11, 1.57993289e-11,
          -3.58990051e-12, -3.58990051e-12, -8.56219696e-12,
          -8.56219696e-12, 3.62693708e-12, 3.62693708e-12,
          1.09861824e-11, 1.09861824e-11, -1.73472348e-18,
          -1.73472348e-18, -7.18304322e-13, -1.24921887e-11,
          -1.24921887e-11, 1.58564568e-18, 1.58564568e-18,
          -1.49233768e-11, -1.49233768e-11, 2.56940511e-11,
          2.56940511e-11, -3.77898927e-12, -3.77898927e-12,
          1.08192144e-11, 1.08192144e-11, 5.94457263e-13,
          -5.23612577e-12, -5.23612577e-12, -9.48676901e-20,
          -9.48676901e-20, -7.61093825e-13, -7.61093825e-13,
          -1.54161111e-11, -1.54161111e-11, 1.07741194e-11,
          1.07741194e-11, -2.66315745e-12, -2.66315745e-12,
          -3.48209656e-11, -2.29682202e-12, -2.29682202e-12,
          9.59657917e-13, 9.59657917e-13, -1.40388753e-12,
          -1.40388753e-12, -9.48676901e-20, -9.48676901e-20,
          -2.56696331e-11, -2.56696331e-11, 2.09222136e-12,
          2.09222136e-12, -2.86536745e-12, -2.86536745e-12,
          2.70009050e-11, -4.06575815e-20, -4.06575815e-20,
          2.57498016e-19, 2.57498016e-19, -3.32036915e-19,
          -3.32036915e-19, 1.04989038e-11, 1.04989038e-11,
          4.92008127e-12, 1.33926585e-11, 1.33926585e-11, 2.07283479e-11,
          2.07283479e-11, 2.77100001e-12, 2.77100001e-12,
          -1.79791494e-11, -1.79791494e-11, 3.65141632e-11,
          3.65141632e-11, 7.70465202e-12, 7.70465202e-12, 1.60598011e-11,
          1.60598011e-11, -2.00246720e-12, -2.00246720e-12,
          -1.60770236e-12, -1.60770236e-12, 6.88864222e-13,
          6.88864222e-13, 1.52102983e-12, 1.52102983e-12, 1.00874604e-12,
          1.00874604e-12, 4.47478036e-12, 4.47478036e-12,
          -1.20164111e-12, -1.20164111e-12, 2.43945489e-19,
          2.43945489e-19, 9.81791558e-12, -3.74123085e-12,
          -3.74123085e-12, -2.62407977e-12, -2.62407977e-12,
          -1.34658951e-11, -1.34658951e-11, -4.76520602e-12,
          -4.76520602e-12, 4.84379689e-11, 5.08765989e-12,
          5.08765989e-12, 1.28749008e-19, 1.28749008e-19,
          -2.28161847e-12, -2.28161847e-12, -5.40654891e-12,
          -5.40654891e-12, 1.33122020e-11, 1.33122020e-11,
          -7.40537232e-12, -7.40537232e-12, -2.41736535e-12,
          -2.41736535e-12, 1.01562665e-11, 1.01562665e-11,
          1.48872494e-12, 1.48872494e-12, 6.42363246e-12, 6.42363246e-12,
          2.31673240e-11, 2.31673240e-11, 4.20128342e-19, 4.20128342e-19,
          3.25914946e-12, 3.25914946e-12, -5.30616783e-13,
          6.77626358e-20, 6.77626358e-20, -3.40080082e-11,
          -3.40080082e-11, 5.25612887e-12, 5.25612887e-12,
          3.12546135e-11, 3.12546135e-11, 5.78078644e-12, 5.78078644e-12,
          -5.97814333e-12, -5.97814333e-12, -1.23242415e-11,
          -1.23242415e-11, 4.11042771e-12, 4.11042771e-12,
          6.17342982e-12, 6.17342982e-12, -5.13549533e-12,
          -5.13549533e-12, -1.63905695e-11, -1.63905695e-11,
          -6.80156834e-11, -6.80156834e-11, 1.18207343e-12,
          1.18207343e-12, -4.18461793e-12, -4.18461793e-12,
          -6.52061391e-12, -6.52061391e-12, 5.25036958e-12,
          5.25036958e-12, 6.63797229e-12, -4.80404215e-12,
          -4.80404215e-12, -2.94231740e-12, -2.94231740e-12,
          5.52768725e-12, 5.52768725e-12, -3.39413150e-11,
          -3.39413150e-11, -9.35773074e-12, -9.35773074e-12,
          -1.28749008e-19, -1.28749008e-19, 1.23799269e-11,
          1.23799269e-11, 1.24333107e-12, 1.24333107e-12,
          -1.55854062e-19, -1.55854062e-19, -5.95236881e-12,
          -5.95236881e-12, -1.22981150e-12, -1.22981150e-12,
          1.36516024e-11, 1.36516024e-11, 1.08542481e-11, 1.08542481e-11,
          -9.08795348e-12, -9.08795348e-12, 3.11708125e-19,
          3.11708125e-19, 2.60141474e-12, 2.60141474e-12,
          -6.24609479e-12, -6.24609479e-12, 1.75943136e-12,
          1.75943136e-12, 7.82835168e-13, -1.27546610e-11,
          -1.27546610e-11, -2.73703868e-12, -2.73703868e-12,
          6.07030138e-12, 6.07030138e-12, -6.90965601e-12,
          -6.90965601e-12, -2.80777550e-12, -2.80777550e-12,
          5.46771179e-12, 5.46771179e-12, -3.96389085e-12,
          -3.96389085e-12, -1.75603054e-12, -1.75603054e-12,
          6.24609479e-12, 6.24609479e-12, -3.40216288e-12,
          -3.40216288e-12, -3.53281748e-13, -3.53281748e-13,
          6.72297461e-12, 6.72297461e-12, 3.96363021e-12, 3.96363021e-12,
          5.57273932e-12, 5.57273932e-12, 5.14939697e-12, 5.14939697e-12,
          -6.73241324e-12, -6.73241324e-12, 2.77896391e-12,
          2.77896391e-12, -2.89968960e-12, -2.89968960e-12,
          -2.09364947e-12, -2.09364947e-12, -3.14418630e-18,
          -3.14418630e-18, -1.05892194e-12, -1.05892194e-12,
          -1.49537327e-11, -1.49537327e-11, 1.16539339e-11,
          1.16539339e-11, 1.12247199e-11, 1.12247199e-11, 7.83085077e-14,
          7.83085077e-14, 1.86142352e-11, -1.21757309e-11,
          -1.21757309e-11, -7.76576177e-13, -7.76576177e-13,
          2.03287907e-20, 2.03287907e-20, 7.97379524e-13, 7.97379524e-13,
          -1.00560688e-11, -1.00560688e-11, 1.30003005e-11,
          1.30003005e-11, -3.17570666e-12, -3.17570666e-12,
          -8.58864889e-12, -8.58864889e-12, 6.47252868e-12,
          6.47252868e-12, 1.15196481e-19, 1.15196481e-19, 5.71566319e-12,
          5.71566319e-12, 2.36075569e-12, 2.36075569e-12, 3.65918233e-19,
          3.65918233e-19, -2.29901636e-11, -2.29901636e-11,
          3.38813179e-20, 3.38813179e-20, -5.30621640e-12,
          -5.30621640e-12, -2.05555061e-12, -2.05555061e-12,
          3.04931861e-19, 3.04931861e-19, 1.75018940e-11, 1.75018940e-11,
          1.03122736e-11, 1.03122736e-11, -3.89229707e-12,
          -3.89229707e-12, -3.59435463e-12, -6.77626358e-20,
          -6.77626358e-20, -8.40256684e-19, -8.40256684e-19,
          -3.15226057e-12, -3.15226057e-12, 2.73066400e-12,
          2.73066400e-12, -1.49729252e-12, -1.49729252e-12,
          1.35083405e-12, 1.35083405e-12, 5.16788565e-12, 5.16788565e-12,
          -6.97480008e-12, -6.97480008e-12, 6.09863722e-20,
          6.09863722e-20, 1.11360166e-11, 1.11360166e-11, 9.20275574e-13,
          9.20275574e-13, -5.20893170e-13, -5.20893170e-13,
          -2.11472992e-11, -2.11472992e-11, 5.62453567e-13,
          5.62453567e-13, 4.60680018e-12, 4.60680018e-12,
          -1.08420217e-19, -1.08420217e-19, 5.30393654e-12,
          5.30393654e-12, 3.33675882e-12, 3.33675882e-12,
          -8.25569702e-13, -8.25569702e-13, 1.55854062e-19,
          1.55854062e-19, -1.01643954e-19, -1.22981128e-12,
          -1.22981128e-12, 1.69406589e-20, 1.69406589e-20,
          -1.72015310e-12, -1.72015310e-12, -2.91379334e-19,
          -2.91379334e-19, -6.09141166e-12, -6.09141166e-12,
          -2.01908802e-12, -2.01908802e-12, 3.20072701e-12,
          3.20072701e-12, -8.12927362e-13, -8.12927362e-13,
          -1.40388731e-12, -1.40388731e-12, 2.83403357e-12,
          6.24609435e-12, 6.24609435e-12, -1.22981172e-12,
          -2.60567349e-12, -2.60567349e-12, 1.40799455e-11,
          1.40799455e-11, -6.50411539e-12, -6.50411539e-12,
          3.90657688e-12, 3.90657688e-12, -1.38355484e-12,
          -1.38355484e-12, -2.56222344e-12, -2.56222344e-12,
          -1.55641694e-13, -1.55641694e-13, -1.03061602e-12,
          -1.03061602e-12, 1.99037813e-12, 1.99037813e-12,
          9.82558219e-20, 9.82558219e-20, -1.56796136e-12,
          -1.56796136e-12, 1.17080833e-11, 1.17080833e-11,
          1.48850680e-12, 1.48850680e-12, 2.05815508e-12, 2.05815508e-12,
          1.07065372e-11, 1.07065372e-11, -1.30847928e-11,
          -1.30847928e-11, -7.87751548e-12, -7.87751548e-12,
          1.86358592e-13, 1.86358592e-13, 3.03798002e-12, 3.03798002e-12,
          9.82130501e-13, 9.82130501e-13, -1.96336805e-12,
          -1.96336805e-12, -6.64073831e-19, -6.64073831e-19,
          -1.44910505e-12, -1.44910505e-12, -3.86227161e-12,
          -3.86227161e-12, 6.07344687e-13, 6.07344687e-13,
          -3.72694497e-20, -3.72694497e-20, 4.10147610e-12,
          1.69026251e-12, 1.69026251e-12, 4.20128342e-19, 4.20128342e-19,
          3.85239713e-12, 3.85239713e-12, 1.17730519e-13, 1.17730519e-13,
          8.53870143e-13, 8.53870143e-13, -2.56943650e-11,
          -2.56943650e-11, 4.48808699e-12, 4.48808699e-12,
          -1.28749008e-19, -1.28749008e-19, 2.87780894e-13,
          2.87780894e-13, -4.55460268e-13, -4.55460268e-13,
          -6.79672247e-12, -6.79672247e-12, -8.18597187e-12,
          -8.18597187e-12, 1.25466920e-11, 1.25466920e-11,
          -8.97854924e-20, -8.97854924e-20, -2.03287907e-19,
          -2.03287907e-19, -2.46785903e-12, -2.57498016e-19,
          -2.57498016e-19, -5.37945177e-13, -5.37945177e-13,
          -3.96869126e-12, -3.96869126e-12, -3.99468696e-12,
          -3.99468696e-12, -5.15927015e-12, -5.15927015e-12,
          2.96332642e-12, -1.88812290e-13, -1.88812290e-13,
          -3.37306870e-13, -3.37306870e-13, -7.01776267e-12,
          -7.01776267e-12, 6.31590537e-13, 6.31590537e-13,
          -1.89982340e-12, -1.89982340e-12, -2.41003463e-12,
          -2.41003463e-12, 2.61737637e-12, 2.61737637e-12,
          1.49820260e-12, 1.49820260e-12, -1.96511644e-19,
          -1.96511644e-19, 1.13080964e-12, 1.13080964e-12,
          3.68612866e-12, 3.68612866e-12, -7.98100648e-12,
          -7.98100648e-12, 3.59141970e-19, 3.59141970e-19,
          -8.62088585e-14, -8.62088585e-14, 1.78955592e-12,
          1.78955592e-12, 8.13151629e-20, 8.13151629e-20, 9.17274828e-13,
          9.17274828e-13, -1.73798671e-12, -1.73798671e-12,
          1.35525272e-20, 1.35525272e-20, -4.10783907e-12,
          -4.10783907e-12, -6.11825651e-12, -6.11825651e-12,
          -3.96559348e-12, 5.58248803e-12, 5.58248803e-12,
          -1.57709756e-13, -1.57709756e-13, 3.68587799e-12,
          3.68587799e-12, 7.33004282e-12, 7.33004282e-12, 3.72694497e-20,
          3.72694497e-20, 3.85876834e-12, 3.85876834e-12, 5.23779024e-12,
          5.23779024e-12, 5.05594915e-12, 5.05594915e-12, 2.27159784e-12,
          2.27159784e-12, 1.02513206e-11, 1.02513206e-11, 6.95874456e-13,
          6.95874456e-13, 4.80668066e-12, 4.80668066e-12,
          -8.41165419e-12, -8.41165419e-12, 1.85178804e-12,
          -1.34555561e-12, -1.34555561e-12, 3.31528858e-12,
          3.31528858e-12, 6.16457081e-13, 6.16457081e-13, 1.88173739e-12,
          1.88173739e-12, 1.69026284e-12, 1.69026284e-12, 1.50750492e-13,
          1.26816786e-12, 1.26816786e-12, -1.27599510e-13,
          -1.27599510e-13, 4.89489363e-13, 4.89489363e-13,
          -2.39445963e-12, -2.39445963e-12, -7.50293144e-12,
          -7.50293144e-12, -7.93206917e-13, -2.24743141e-12,
          -2.24743141e-12, 5.08219768e-19, 5.08219768e-19,
          1.96993160e-12, 1.96993160e-12, -2.21935751e-12,
          5.97300985e-12, 5.97300985e-12, 4.18319589e-12, 4.18319589e-12,
          -3.75619761e-12, -3.75619761e-12, -7.66993326e-12,
          -7.66993326e-12, -2.04886607e-12, -2.04886607e-12,
          -6.83640514e-12, -6.83640514e-12, -1.04331929e-12,
          -1.04331929e-12, -1.74749278e-12, -1.74749278e-12,
          2.11899725e-12, 2.11899725e-12, -3.20505580e-12,
          -3.20505580e-12, 2.81214938e-19, 2.81214938e-19,
          1.57153034e-12, 1.57153034e-12, -3.38813179e-20,
          -3.38813179e-20, 1.41801989e-12, 1.41801989e-12,
          -3.44100464e-12, -3.44100464e-12, 3.83893750e-11,
          3.83893750e-11, 1.22260123e-12, 1.22260123e-12, 5.95406631e-14,
          5.95406631e-14, 3.40223401e-13, 3.40223401e-13, 3.23249918e-13,
          3.23249918e-13, -6.77626358e-20, -6.77626358e-20,
          2.58512287e-12, 2.58512287e-12, 3.72694497e-20, 3.72694497e-20,
          -1.13689943e-11, -5.87368782e-12, -5.87368782e-12,
          3.61455007e-12, 3.61455007e-12, -5.36933258e-12,
          -5.36933258e-12, -5.87088809e-13, -5.87088809e-13,
          5.20893333e-13, -6.68340112e-13, -6.68340112e-13,
          -6.67333051e-13, -6.67333051e-13, -5.84296880e-13,
          -5.84296880e-13, 1.16236708e-12, 1.16236708e-12,
          -1.06523028e-11, -1.06523028e-11, -6.30330911e-13,
          -6.30330911e-13, -1.66573038e-12, -1.66573038e-12,
          1.48365272e-12, 1.48365272e-12, 1.05577717e-13, 1.05577717e-13,
          1.67530063e-12, 1.67530063e-12, 2.66278774e-12, 2.66278774e-12,
          -1.54269544e-12, -1.38913403e-19, -1.38913403e-19,
          1.19562314e-12, 1.19562314e-12, 2.03984746e-12, 2.03984746e-12,
          -2.13773834e-12, -2.13773834e-12, -4.71920419e-12,
          -4.71920419e-12, 1.73459890e-12, 1.73459890e-12,
          -2.50900039e-12, -2.50900039e-12, 8.12102339e-13,
          8.12102339e-13, 6.75645867e-12, 6.75645867e-12, 1.19644811e-12,
          1.19644811e-12, 2.66081710e-12, 2.66081710e-12, 1.23334494e-11,
          1.23334494e-11, -1.01643954e-20, -1.01643954e-20,
          3.12569588e-12, 3.12569588e-12, -9.33340644e-13,
          -9.33340644e-13, 5.36043735e-12, 5.36043735e-12,
          -9.82471157e-13, -9.82471157e-13, 1.55854062e-19,
          6.12920695e-12, 6.12920695e-12, -4.99871900e-13,
          -4.99871900e-13, -2.56369231e-12, -2.56369231e-12,
          3.09525864e-12, 3.09525864e-12, -1.20757592e-12,
          -1.20757592e-12, -2.05814879e-12, -2.05814879e-12,
          -3.20008191e-12, -3.20008191e-12, -3.82882658e-12,
          -3.82882658e-12, 2.18786209e-12, 2.18786209e-12,
          -2.43024025e-12, -2.43024025e-12, 4.18638431e-12,
          4.18638431e-12, 6.42424221e-12, 6.42424221e-12, 1.10549178e-12,
          1.10549178e-12, -7.31212020e-13, -7.31212020e-13,
          -1.26656324e-11, -1.26656324e-11, 8.97765694e-13,
          8.97765694e-13, -8.65508967e-12, -8.65508967e-12,
          -6.98820992e-13, -6.98820992e-13, 9.46576801e-13,
          9.46576801e-13, 6.52017015e-13, 6.52017015e-13, 1.63912471e-12,
          1.63912471e-12, -2.95460314e-12, -2.95460314e-12,
          7.45619452e-12, 7.45619452e-12, -1.76732966e-12,
          -1.76732966e-12, 3.19941469e-12, 3.19941469e-12,
          -3.05837625e-12, -3.05837625e-12, 6.52196222e-12,
          6.52196222e-12, 3.22281503e-12, 3.22281503e-12,
          -2.05815508e-12, -2.05815508e-12, -3.22641978e-12,
          -3.22641978e-12, 5.13571087e-12, 5.13571087e-12,
          -2.85972136e-12, -2.85972136e-12, 1.17730370e-13,
          1.17730370e-13, 2.11223985e-12, 2.11223985e-12,
          -1.03988563e-12, -1.03988563e-12, -1.67224706e-11,
          -1.67224706e-11, -1.19076337e-11, 2.77501438e-12,
          2.77501438e-12, 1.43005041e-12, 1.43005041e-12,
          -7.71170237e-13, -7.71170237e-13, -1.82596451e-12,
          -1.82596451e-12, 2.08888505e-12, -9.48878454e-13,
          -9.48878454e-13, 1.09499096e-12, 1.09499096e-12,
          1.35525272e-20, 1.30007019e-12, 1.30007019e-12, 6.09863722e-20,
          6.09863722e-20, 8.87010344e-12, 8.87010344e-12,
          -5.13212790e-13, -5.13212790e-13, 1.24683250e-18,
          1.24683250e-18, -5.85666661e-13, -6.46526886e-13,
          -6.46526886e-13, -7.36335212e-12, -7.36335212e-12,
          -3.23618064e-12, -3.23618064e-12, 1.66778115e-12,
          1.66778115e-12, 1.63232730e-12, 1.63232730e-12, 5.05418277e-12,
          5.05418277e-12, 3.01628427e-12, 3.01628427e-12, 5.93222563e-12,
          5.93222563e-12, 1.65497477e-12, 1.65497477e-12, 1.21055162e-12,
          1.21055162e-12, -5.03692704e-12, -5.03692704e-12,
          3.52351980e-12, 8.18618610e-13, 8.18618610e-13,
          -7.48436643e-12, -7.48436643e-12, -1.00644363e-12,
          -1.00644363e-12, 2.82486903e-12, 2.82486903e-12,
          2.88782214e-12, -1.57315150e-11, -1.57315150e-11,
          -3.15096256e-19, -6.00180409e-12, -6.00180409e-12,
          1.13089622e-14, 1.13089622e-14, 3.61716776e-12, 3.61716776e-12,
          -3.53338821e-12, -3.53338821e-12, -2.51815279e-12,
          -2.51815279e-12, -3.63024454e-12, 3.39418576e-12,
          3.39418576e-12, -9.38212615e-13, -9.38212615e-13,
          -1.17520674e-12, -1.17520674e-12, 1.81995391e-12,
          1.81995391e-12, -1.45944697e-11, -1.45944697e-11,
          1.22468225e-12, 1.22468225e-12, -1.29016448e-12,
          -1.29016448e-12, 1.29557714e-12, 1.29557714e-12,
          2.64232077e-13, 2.64232077e-13, 7.23468290e-12, 7.23468290e-12,
          4.01389338e-12, 4.01389338e-12, 4.29853635e-12, 4.29853635e-12,
          5.42101086e-20, 5.42101086e-20, -3.47218153e-12,
          -3.47218153e-12, 3.89811837e-12, 3.89811837e-12,
          -1.16111938e-12, -1.16111938e-12, 8.17076441e-12,
          1.07866691e-13, 1.07866691e-13, 1.83812045e-13, 1.83812045e-13,
          -2.49743325e-12, -2.49743325e-12, -1.40573057e-12,
          -1.40573057e-12, 2.33039564e-12, 2.33039564e-12,
          -6.09863722e-20, -6.09863722e-20, -5.78527764e-12,
          -1.24244386e-12, -1.24244386e-12, -1.52251299e-13,
          -1.52251299e-13, -3.75253604e-12, -3.75253604e-12,
          4.84496341e-12, 9.16276712e-13, 9.16276712e-13, 6.81308634e-13,
          6.81308634e-13, 8.17848306e-12, 8.17848306e-12, 3.22748555e-12,
          3.22748555e-12, 1.00518346e-12, 1.00518346e-12,
          -8.82920690e-13, -8.82920690e-13, 8.31650341e-13,
          8.31650341e-13, -5.88652865e-14, -5.88652865e-14,
          -4.56091068e-12, -4.56091068e-12, -2.27004830e-19,
          -2.27004830e-19, 6.88424252e-13, 6.53788135e-12,
          6.53788135e-12, -5.90347595e-13, -5.90347595e-13,
          2.02562576e-12, 2.02562576e-12, -1.42594259e-12,
          -1.42594259e-12, -4.90363826e-13, -2.74861243e-13,
          -2.74861243e-13, 7.81651924e-13, -9.65567795e-13,
          -9.65567795e-13, 3.99030592e-12, 3.99030592e-12,
          1.21972744e-19, 1.21972744e-19, 2.14310861e-12, 2.14310861e-12,
          -1.03937605e-11, -1.03937605e-11, 1.19580994e-12,
          1.19580994e-12, 8.51725103e-14, 8.51725103e-14, 1.22016427e-12,
          1.22016427e-12, -7.39948467e-13, -7.39948467e-13,
          2.94980425e-12, 2.94980425e-12, -2.61129313e-12,
          -2.61129313e-12, 4.02911997e-13, 4.02911997e-13,
          -2.68656213e-12, -2.68656213e-12, -4.24967310e-12,
          -4.24967310e-12, -4.34702377e-13, -4.34702377e-13,
          -9.19262171e-13, -9.19262171e-13, -2.32175173e-13,
          9.31453005e-12, 9.31453005e-12, 1.93113559e-12, 1.93113559e-12,
          -3.48563344e-12, -3.48563344e-12, 1.33412313e-12,
          1.33412313e-12, -2.01196351e-12, -2.01196351e-12,
          -1.72678083e-12, -1.72678083e-12, 2.34501654e-12,
          2.34501654e-12, -4.33680869e-19, -4.33680869e-19,
          -7.08817445e-13, -7.08817445e-13, 6.77626358e-20,
          6.77626358e-20, -1.87945406e-12, -1.87945406e-12,
          1.88813830e-12, 1.88813830e-12, -2.64035668e-12,
          -2.64035668e-12, -1.83496577e-12, -1.83496577e-12,
          7.40846783e-13, 7.40846783e-13, -3.17968931e-13,
          -3.17968931e-13, 1.26692580e-12, 1.26692580e-12,
          3.18836168e-12, 3.18836168e-12, -1.11537044e-15,
          -1.11537044e-15, 1.91022805e-12, 1.91022805e-12,
          1.14987967e-12, 1.14987967e-12, 1.14703412e-11, 1.14703412e-11,
          5.66666982e-12, 5.66666982e-12, 5.37678246e-13, 5.37678246e-13,
          -1.28115379e-12, 2.77070749e-12, 2.77070749e-12,
          -3.35577681e-12, -3.35577681e-12, 2.81964252e-12,
          2.81964252e-12, -1.63985709e-12, -1.63985709e-12,
          -3.02805155e-12, -3.02805155e-12, 2.75991171e-13,
          2.75991171e-13, -2.01326781e-12, -2.01326781e-12,
          -2.77834027e-12, -2.77834027e-12, -1.23730279e-12,
          -1.23730279e-12, -7.56357813e-13, 3.14640588e-12,
          3.14640588e-12, 4.26764662e-13, 4.26764662e-13,
          -1.62060328e-12, -1.62060328e-12, 1.49077799e-19,
          1.49077799e-19, -3.07137020e-12, -3.07137020e-12,
          -3.60204678e-13, -3.60204678e-13, 9.24420046e-13,
          9.24420046e-13, -5.22679068e-13, -5.22679068e-13,
          -9.48676901e-20, -9.48676901e-20, -1.00044289e-12,
          -1.00044289e-12, 2.59772542e-12, 2.59772542e-12,
          3.69965695e-13, 3.69965695e-13, -5.71358173e-13,
          -5.71358173e-13, 8.23657169e-13, 8.23657169e-13,
          -1.23395575e-12, -1.23395575e-12, 1.86347248e-19 ]
   uncompressed_sv_total: 72
   uncompressed_support_vectors:
      - [ 6.56017017e+00, 3.97686882e+01, -6.00687523e+01,
          1.02499802e+02, 2.07982597e+01, 2.37255039e+01,
          -5.96618500e+01, -1.79073410e+02, 2.09043407e+01,
          2.61569843e+01, -4.51006470e+01, -7.23077850e+01,
          7.07044449e+01, -4.24941940e+01, -2.66804523e+01,
          1.74366009e+00, 1.99058304e+01, 1.19098587e+01,
          -6.90741301e+00, 2.11818562e+01, -3.83142662e+01,
          2.80494862e+01, -1.87648430e+01, -1.38369787e+00,
          -3.55453949e+01, -2.07871971e+01, -3.27914925e+01,
          4.93981667e+01, 1.97383766e+01, 1.41326106e+00, 2.30457354e+00,
          4.66412258e+00, 1.64788742e+01, 2.00257969e+00,
          -1.30110550e+01, 1.38170595e+01, 3.70688224e+00,
          -1.05343094e+01, 2.25435658e+01, -3.67459564e+01,
          -1.01572218e+01, -1.13547058e+01, 2.89702463e+00,
          7.12689304e+00, -3.67318606e+00, 1.17811993e-01,
          -9.67624950e+00, -2.22479343e+00, 2.22726994e+01,
          3.64156227e+01, -1.70585003e+01, -1.40979891e+01,
          6.16018772e+00, 4.45739708e+01, -3.98057709e+01,
          2.26258850e+01, -1.63383293e+01, -5.35309732e-01,
          -1.17737398e+01, -1.00574236e+01, -6.36897326e+00,
          8.75458431e+00, -7.67724276e+00, -1.85226555e+01,
          2.31193485e+01, -1.55662117e+01, 5.55922270e+00,
          1.50295162e+01, -3.11334877e+01, 1.59229221e+01,
          -2.27014399e+00, -1.08030200e+00, -2.78666663e+00,
          -1.67871723e+01, -9.67212868e+00, 3.03178263e+00,
          3.00026512e+01, 1.20053062e+01, -1.79902017e+00,
          -8.82923698e+00, -1.30113125e+01, -1.18208761e+01,
          2.40554962e+01, -1.98504257e+01, 1.15668287e+01,
          9.80941105e+00, 2.03620601e+00, -2.07711639e+01,
          -9.49667645e+00, -1.40095115e+00, -9.92779636e+00,
          1.12693968e+01, 1.68084831e+01, -3.98985314e+00,
          -8.65786648e+00, 7.19569159e+00, -1.87845421e+01,
          1.86420727e+01, -1.88514957e+01, 1.14215441e+01,
          2.00783482e+01, -2.69951057e+01, 1.36822510e+00,
          8.83418655e+00, 7.53241777e+00, 1.25276623e+01,
          -1.26142642e-02, -2.14940643e+01, -8.93690661e-02,
          -9.54284370e-01, -4.61060810e+00, 1.08790407e+01,
          5.71464348e+00, 2.48689294e+00, -1.07413692e+01,
          5.39642572e+00, -2.08838825e+01, 9.61621380e+00,
          -1.58776264e+01, 4.93400425e-01, -7.57469654e+00,
          4.95708048e-01, -1.53533831e+01, -1.54912109e+01,
          1.44056101e+01, 8.52614975e+00, 1.12923431e+01, 6.85968304e+00,
          -7.01159430e+00, 1.93790722e+01, 1.36699331e+00,
          -1.03315935e+01, 5.41259885e-01, 3.77680278e+00,
          1.32950945e+01, 1.45767128e+00, 3.69837666e+00, 8.97131824e+00,
          1.45957079e+01, -5.84786797e+00, 7.93720722e+00,
          -9.95086288e+00, 1.41766052e+01, -9.25132561e+00,
          8.17740631e+00, 6.09174824e+00, -2.53106251e+01,
          2.06654701e+01, 1.31230488e+01, 3.86375570e+00,
          -1.00375555e-01, 5.30424166e+00, -1.99690666e+01,
          2.40081100e+01, -1.64686704e+00, 1.80596852e+00,
          3.87439346e+00, -7.31311798e+00, 3.49999756e-01,
          1.20812244e+01, 8.42852306e+00, 6.83032513e+00,
          -8.71026888e-02, -1.43302784e+01, -4.41078997e+00,
          -3.58705997e+00, -7.02490330e+00, -1.11023979e+01,
          1.80004997e+01, 1.31732535e+00, 8.00138283e+00, 1.00722799e+01,
          8.48440647e-01, 1.56396379e+01, 2.11999512e+00, 6.30218172e+00,
          1.16869192e+01, 9.36645699e+00, -1.13858738e+01,
          -1.72724569e+00, 2.01336908e+00, -1.68342233e-01,
          -1.97122622e+00, -2.55189586e+00, 5.36553335e+00,
          5.14278841e+00, 1.04543953e+01, 1.95544019e-01, 1.00605850e+01,
          -6.55776072e+00, 2.50796509e+00, 1.92486107e+00,
          4.63737869e+00, 3.55533838e+00, -7.48704851e-01,
          -9.76428795e+00, 5.62352753e+00, -1.13812580e+01,
          -7.04392099e+00, 3.88026047e+00, 7.71676302e+00,
          1.18691769e+01, 1.78659570e+00, 5.19636488e+00,
          -8.29751396e+00, -3.11777353e+00, 6.78289318e+00,
          5.34676164e-02, 3.91969204e+00, 2.17909861e+00, 7.61425447e+00,
          8.96836758e+00, -9.58896255e+00, 3.59442115e+00,
          2.14530230e+00, 8.10466290e+00, 4.92227650e+00,
          -3.07400322e+00, -9.30722332e+00, -2.56606960e+00,
          2.38388557e+01, 7.61058688e-01, 1.30460129e+01, 4.90313721e+00,
          -8.80851173e+00, -4.26207590e+00, -8.69365311e+00,
          3.83269131e-01, 2.65462804e+00, -1.38417311e+01,
          -3.45861626e+00, 3.13558722e+00, -7.03971529e+00,
          -3.70333600e+00, -1.10083332e+01, 3.47735095e+00,
          7.55179405e+00, -4.54746634e-01, 7.62679577e+00,
          2.91202593e+00, -9.51514912e+00, -4.49210024e+00,
          -1.70149672e+00, 7.56009865e+00, -1.13486757e+01,
          -1.10186003e-01, 1.58948021e+01, -5.93367767e+00,
          -5.54134429e-01, -1.02784643e+01, -7.84081984e+00,
          -6.51237249e+00, -5.83394670e+00, -1.09283457e+01,
          8.45547795e-01, 4.77361250e+00, -9.06961727e+00,
          -1.12030849e+01, -2.90406561e+00, -3.16667438e+00,
          1.11673489e+01, -1.13599467e+00, -7.20422268e+00,
          -5.53070545e+00, 5.42188740e+00, -2.87734747e+00,
          4.69977260e-02, -3.62735927e-01, -2.89704180e+00,
          -1.14848413e+01, 1.75493755e+01, 3.64566636e+00,
          -1.81360416e+01, 6.13958311e+00, 6.74152708e+00,
          -1.16251695e+00, 7.23754311e+00, -1.35082388e+00,
          -8.32102835e-01, -5.61050844e+00, -7.18543673e+00,
          3.99081326e+00, -1.16212234e+01, -1.62381220e+00,
          4.72130728e+00, -4.63845778e+00, 1.84110618e+00,
          1.17175121e+01, 7.44130039e+00, 1.11655760e+00,
          -9.02017891e-01, 1.71178484e+00, -1.34807587e+01,
          9.35974312e+00, 5.05214930e+00, 1.16924829e+01, 4.49748516e+00,
          2.28638959e+00, 2.54932284e+00, 4.97679996e+00, 5.36729527e+00,
          8.93854237e+00, -2.60786877e+01, 5.03423452e+00,
          2.11653018e+00, 3.90485787e+00, 2.45296383e+00,
          -8.12373310e-02, -7.07846975e+00, 8.85022545e+00,
          5.42093945e+00, -9.89349365e+00, 1.10751457e+01,
          9.40473366e+00, -4.10139513e+00, -5.66429853e+00,
          -1.51237762e+00, -1.70466018e+00, 7.89355850e+00,
          1.64770329e+00, 4.72234535e+00, -3.25627494e+00,
          -8.03206539e+00, 4.10265589e+00, -3.15423995e-01,
          -2.86138105e+00, -2.97837925e+00, 1.06060200e+01,
          -1.16254005e+01, -7.09921455e+00, 1.78935862e+00,
          -5.56990957e+00, -3.21462584e+00, 8.38399315e+00,
          2.62411141e+00, 3.52988887e+00, 1.82735538e+00,
          -5.01997519e+00, -1.29039173e+01, -3.36265802e+00,
          -1.66736472e+00, 1.34378088e+00, 6.58753490e+00,
          -1.35189497e+00, -3.52362347e+00, 4.99708366e+00,
          -1.64318619e+01, 5.71107340e+00, 1.96417487e+00,
          5.80605602e+00, -6.89288855e+00, 8.02662373e+00,
          5.78297436e-01, -4.61538363e+00, 5.78732300e+00,
          -2.41608500e+00, -1.15673923e+01, -9.65974903e+00,
          1.71116912e+00, 1.82137072e+00, -6.62765646e+00,
          -4.07723278e-01, -2.22876763e+00, -4.90993690e+00,
          -7.52113640e-01, 2.27144003e+00, 5.29310799e+00,
          -6.06202698e+00, 1.99252200e+00, -8.99890327e+00,
          9.34104633e+00, 8.43851280e+00, 3.75127006e+00, 1.32080364e+01,
          -1.46723785e+01, -7.76526642e+00, -7.69515657e+00,
          -1.52833056e+00, 2.34440207e+00, 4.22337532e+00,
          -9.31133366e+00, -6.00048065e+00, 1.34761658e+01,
          1.19644966e+01, 4.13609266e+00, 5.65953016e+00,
          -4.24719906e+00, 9.76458740e+00, -6.58939695e+00,
          -1.17388983e+01, -1.33623075e+01, 4.14379263e+00,
          -2.90079880e+00, 1.76546320e-01, -5.03224468e+00,
          3.28824639e+00, 3.56394410e+00, -7.97698617e-01,
          2.57587194e+00, -5.97156763e+00, 2.08918303e-01,
          -3.53498650e+00, 2.95390606e+00, 8.20956111e-01,
          -3.03098273e+00, 4.49682283e+00, 2.02022648e+00,
          -3.91798282e+00, 3.32934475e+00, 7.24684429e+00,
          4.03246015e-01, 1.61003959e+00, -4.30252743e+00,
          4.55303669e+00, -2.03326082e+00, 7.27479309e-02,
          5.87316938e-02, -4.17507601e+00, 2.94930267e+00,
          -4.21404839e+00, -4.27158833e+00, 3.49048233e+00,
          -1.22623339e+01, 5.99482584e+00, -1.52937758e+00,
          -9.51095676e+00, -7.38505650e+00, 1.74643745e+01,
          -4.93284845e+00, -4.95092058e+00, 7.12742186e+00,
          -3.03166304e-02, 3.41936558e-01, 1.11957264e+01,
          -2.16892314e+00, -7.80320120e+00, -4.03136206e+00,
          6.89801598e+00, -2.42848015e+00, -3.96094775e+00,
          1.58342004e+00, 3.44798446e-01, -1.33223944e+01,
          -1.10046768e+00, -3.79958153e+00, 3.15584302e+00,
          -5.06349850e+00, 9.74776875e-03, -2.98131418e+00,
          2.43460536e+00, -1.39259887e+00, -1.01313519e+00,
          5.37488651e+00, -3.29021239e+00, 9.56190205e+00,
          -3.27726096e-01, -1.06382298e+00, 3.98244619e+00,
          4.98684198e-02, 2.17893720e+00, 6.22407496e-01,
          -1.22303808e+00, -2.98599434e+00, -2.31693459e+00,
          1.02427883e+01, -1.37799072e+01, 2.10857391e+00,
          3.47900486e+00, -5.49241352e+00, 3.45957494e+00,
          3.12034297e+00, 1.79330111e+00, 4.21558321e-01,
          -4.47904825e+00, 1.05429335e+01, 5.01013327e+00,
          -7.57476211e-01, -1.76795149e+00, 1.89509153e+00,
          -5.09409285e+00, -1.76417160e+00, 3.72096729e+00,
          -1.88169038e+00, 2.57664037e+00, -6.96455717e-01,
          5.20780325e+00, 2.86725545e+00, -4.95256424e+00,
          -1.16538143e+01, -3.59731364e+00, -6.60437584e+00,
          -2.23386431e+00, -8.65750730e-01, -7.91140842e+00,
          3.75153995e+00, -1.21039324e+01, -7.05821157e-01,
          -5.32816792e+00, -9.51951742e-01, 1.17270565e+01,
          1.64251804e+01, -6.37130785e+00, -5.45622873e+00,
          -4.47347736e+00, -1.57119541e+01, -8.75742435e+00,
          -8.75742435e+00, -1.04084206e+01, 1.76595078e+01,
          1.76595078e+01, -2.51296253e+01, -2.51296253e+01,
          8.90192091e-01, -2.54850998e+01, -2.54850998e+01,
          -9.07039642e+00, 6.09262884e-01, 6.09262884e-01,
          -2.21779980e-02, -2.21779980e-02, 2.08867407e+00,
          2.08867407e+00, 1.38973465e+01, 1.38973465e+01,
          -2.51163936e+00, -2.51163936e+00, -5.69805384e-01,
          -5.69805384e-01, 7.63529301e+00, 3.12667489e+00,
          5.40986395e+00, 5.40986395e+00, 5.54140627e-01, 5.54140627e-01,
          -2.96368003e+00, -2.96368003e+00, 1.17220783e+01,
          1.17220783e+01, -2.29790249e+01, -2.29790249e+01,
          -1.41958332e+00, -1.41958332e+00, -8.65494347e+00,
          -8.65494347e+00, 1.30340014e+01, 1.30340014e+01,
          1.51751642e+01, 1.51751642e+01, -1.39288769e+01,
          -1.39288769e+01, -7.44719887e+00, -7.44719887e+00,
          1.24070587e+01, 1.24070587e+01, -4.13988972e+00,
          -4.13988972e+00, 1.42946577e+01, -1.02993517e+01,
          -1.02993517e+01, 4.21687216e-01, 4.21687216e-01,
          -6.56620693e+00, -6.56620693e+00, -7.04019189e-01,
          -7.04019189e-01, 2.22991257e+01, 2.22991257e+01,
          1.22276783e+01, 1.22276783e+01, 3.02618337e+00, 3.02618337e+00,
          8.08111477e+00, 8.08111477e+00, -3.14836717e+00,
          6.39583302e+00, 6.39583302e+00, 1.41629410e+01, 1.41629410e+01,
          4.09909248e+00, 4.09909248e+00, -1.85620575e+01,
          6.65161085e+00, 6.65161085e+00, -1.48547001e+01,
          -1.48547001e+01, 2.26062489e+00, 2.26062489e+00,
          5.11673307e+00, -9.27531433e+00, -9.27531433e+00,
          1.58742592e-01, 1.58742592e-01, 1.37901793e+01, 1.37901793e+01,
          6.66218996e+00, 8.18241692e+00, 8.18241692e+00, 1.35788798e+00,
          1.35788798e+00, 3.67276168e+00, 3.67276168e+00, 9.66390800e+00,
          9.66390800e+00, 6.29075575e+00, 6.29075575e+00,
          -8.30963802e+00, -8.30963802e+00, 1.79735050e+01,
          1.79735050e+01, 8.82170391e+00, 8.82170391e+00, 1.44509709e+00,
          1.44509709e+00, 2.67615223e+00, 2.67615223e+00, 1.57517538e+01,
          1.57517538e+01, -2.07624531e+00, -2.07624531e+00,
          -2.62568688e+00, -2.62568688e+00, -5.42482281e+00,
          -5.42482281e+00, 1.13348942e+01, 1.13348942e+01,
          -8.28104079e-01, -8.28104079e-01, 8.44432163e+00,
          8.44432163e+00, 1.18231499e+00, 1.18231499e+00, 1.32465136e+00,
          1.32465136e+00, 6.71025133e+00, 6.71025133e+00,
          -2.80333447e+00, -2.80333447e+00, 1.13162994e+01,
          7.05040789e+00, 7.05040789e+00, -3.57070398e+00,
          -3.57070398e+00, -2.45110607e+00, -2.45110607e+00,
          -9.60916615e+00, -9.60916615e+00, 3.64880770e-01,
          3.64880770e-01, 5.58871126e+00, 5.58871126e+00,
          -4.24730921e+00, -4.24730921e+00, -3.93053532e+00,
          -3.93053532e+00, 1.32032776e+00, 1.32032776e+00,
          -4.09023553e-01, -4.09023553e-01, -5.72492957e-01,
          -5.72492957e-01, 1.07161589e+01, 1.07161589e+01,
          -2.40842685e-01, -2.40842685e-01, -3.18967509e+00,
          -3.18967509e+00, -1.82463419e+00, -1.82463419e+00,
          -3.44918966e+00, -3.44918966e+00, 5.01330805e+00,
          5.01330805e+00, 1.93616474e+00, 1.93616474e+00, 4.76393175e+00,
          4.76393175e+00, -6.05610490e-01, -6.05610490e-01,
          1.53226757e+00, 1.53226757e+00, 1.68750912e-01, 1.68750912e-01,
          3.55465934e-02, -6.38871384e+00, -6.38871384e+00,
          -2.80663586e+00, -2.80663586e+00, -4.76143360e+00,
          -4.76143360e+00, 1.24090376e+01, 1.59012988e-01,
          1.59012988e-01, 1.56998360e+00, 1.56998360e+00, 4.59486532e+00,
          4.59486532e+00, 1.04499025e+01, 1.04499025e+01, 4.86625814e+00,
          4.86625814e+00, -2.26845074e+00, -2.26845074e+00,
          9.05078125e+00, 9.05078125e+00, 6.84507656e+00, 5.53108072e+00,
          5.53108072e+00, 1.57125986e+00, 1.57125986e+00,
          -9.50336170e+00, -9.50336170e+00, 7.10303307e+00,
          7.10303307e+00, -3.29621397e-02, -3.29621397e-02,
          -6.43017578e+00, -6.43017578e+00, -5.94511890e+00,
          -5.94511890e+00, -9.05167580e+00, -9.05167580e+00,
          -5.74588680e+00, -5.74588680e+00, -3.80049586e+00,
          -3.80049586e+00, -3.41575623e+00, -3.41575623e+00,
          7.28735685e+00, 7.28735685e+00, -2.59391069e-01,
          2.30320856e-01, 2.30320856e-01, 5.55280638e+00, 5.55280638e+00,
          -7.96118402e+00, -7.96118402e+00, 8.42338085e-01,
          8.42338085e-01, -2.42091274e+00, -2.42091274e+00,
          4.49448395e+00, 4.49448395e+00, -8.62375641e+00,
          -8.62375641e+00, -6.84531450e+00, -6.84531450e+00,
          4.97722745e-01, 4.97722745e-01, 4.66586065e+00, 4.66586065e+00,
          7.45807838e+00, 7.45807838e+00, -4.31277323e+00,
          -9.18845749e+00, -9.18845749e+00, -8.33020508e-01,
          -8.33020508e-01, -1.21283751e+01, -1.21283751e+01,
          3.34355426e+00, 3.34355426e+00, 2.74969697e+00,
          -7.44465828e+00, -7.44465828e+00, -3.16322017e+00,
          -3.16322017e+00, -4.19368553e+00, -4.19368553e+00,
          3.76622009e+00, 3.76622009e+00, -2.35290599e+00,
          -2.35290599e+00, -8.59678841e+00, -8.59678841e+00,
          -7.63874626e+00, -7.63874626e+00, -8.76140952e-01,
          -8.76140952e-01, 5.43082476e+00, 5.43082476e+00,
          -3.61965448e-01, -3.61965448e-01, 6.26051664e+00,
          6.26051664e+00, 1.10205479e+01, 1.10205479e+01,
          -6.53465319e+00, -6.53465319e+00, -1.20107090e+00,
          -1.20107090e+00, 2.66643077e-01, 2.66643077e-01,
          -2.34317496e-01, -2.34317496e-01, 5.28559065e+00,
          5.28559065e+00, 2.86312073e-01, 2.86312073e-01, 5.61813784e+00,
          5.61813784e+00, 5.19065809e+00, 5.19065809e+00,
          -2.32377577e+00, -2.32377577e+00, -3.32913446e+00,
          -3.32913446e+00, -6.91297472e-01, 2.71452355e+00,
          2.71452355e+00, -4.88248539e+00, -4.88248539e+00,
          3.70463538e+00, 3.70463538e+00, 1.54115868e+00, 1.54115868e+00,
          6.80267143e+00, 6.80267143e+00, -1.39066684e+00,
          -1.39066684e+00, 5.89109480e-01, 5.89109480e-01,
          -3.20395160e+00, -3.20395160e+00, -1.41295171e+00,
          -1.41295171e+00, 1.55546153e+00, 1.55546153e+00,
          -4.37281942e+00, -4.37281942e+00, -1.37411797e+00,
          -1.37411797e+00, -3.91692591e+00, -3.91692591e+00,
          -8.45077634e-01, -8.45077634e-01, -3.54168963e+00,
          -3.54168963e+00, -1.33698106e+00, -1.33698106e+00,
          2.70854807e+00, 2.70854807e+00, -1.62348521e+00,
          -1.62348521e+00, -3.93449116e+00, -1.17782080e+00,
          -1.17782080e+00, -1.86870527e+00, -1.86870527e+00,
          4.10106754e+00, 4.10106754e+00, 5.52482557e+00, 5.52482557e+00,
          -3.90629935e+00, -3.90629935e+00, 6.75646305e-01,
          2.03505826e+00, 2.03505826e+00, -3.55277038e+00,
          -3.55277038e+00, 9.44781303e+00, 9.44781303e+00,
          3.98988461e+00, 3.98988461e+00, 4.66974974e-01,
          -5.82730579e+00, -5.82730579e+00, -1.80485094e+00,
          -1.80485094e+00, -2.97515959e-01, -2.97515959e-01,
          5.38774395e+00, 5.38774395e+00, 3.10969806e+00, 3.10969806e+00,
          -4.84270906e+00, -4.84270906e+00, -6.07599556e-01,
          -6.07599556e-01, 3.49221444e+00, 3.49221444e+00,
          -3.84365034e+00, -3.84365034e+00, -6.50956631e-01,
          -6.50956631e-01, 1.03207886e+00, 1.03207886e+00,
          1.65342247e+00, 1.42828608e+00, 1.42828608e+00,
          -8.34797096e+00, -8.34797096e+00, 5.02653456e+00,
          5.02653456e+00, -7.99234807e-01, -7.99234807e-01,
          -1.25286138e+00, -1.25286138e+00, 6.17234409e-01,
          6.17234409e-01, -2.72229791e+00, -2.72229791e+00,
          4.37894650e-02, 4.37894650e-02, -1.70179856e+00,
          -1.70179856e+00, -3.24630141e+00, -3.24630141e+00,
          -7.59447157e-01, -7.59447157e-01, -3.94694060e-01,
          -3.94694060e-01, 1.15239036e+00, 1.15239036e+00,
          -1.92905033e+00, -2.36529565e+00, -2.36529565e+00,
          -5.14576256e-01, -5.14576256e-01, 1.58052111e+00,
          1.58052111e+00, -1.69690168e+00, -1.69690168e+00,
          3.07953072e+00, 3.07953072e+00, 2.52180862e+00, 2.52180862e+00,
          6.71905804e+00, 6.71905804e+00, 3.77121150e-01, 3.77121150e-01,
          -3.42288166e-02, -3.42288166e-02, -4.67256832e+00,
          -4.67256832e+00, -5.13215661e-01, -5.13215661e-01,
          2.81097150e+00, 2.81097150e+00, -1.98230672e+00,
          -1.98230672e+00, 4.33975935e+00, 4.33975935e+00,
          -4.62596640e-02, -4.62596640e-02, -6.56643137e-02,
          -2.25882649e+00, -2.25882649e+00, -5.21033192e+00,
          -5.21033192e+00, 4.88618076e-01, 4.88618076e-01,
          -6.07623756e-01, -6.07623756e-01, -1.83171606e+00,
          -1.83171606e+00, 3.54924500e-01, 3.54924500e-01,
          4.38561678e-01, 4.38561678e-01, -5.31547070e-01,
          -8.63616168e-01, -8.63616168e-01, -3.57642460e+00,
          -3.57642460e+00, 2.53276730e+00, 2.53276730e+00,
          -1.11874378e+00, -1.11874378e+00, 2.00156808e+00,
          2.00156808e+00, 8.24671626e-01, 3.06133896e-01, 3.06133896e-01,
          3.05111670e+00, 3.05111670e+00, -2.98246312e+00,
          -2.98246312e+00, 4.83536690e-01, 4.83536690e-01,
          -1.85067058e-01, -1.85067058e-01, -2.74254894e+00,
          -2.74254894e+00, 1.81269054e+01, 1.81269054e+01,
          5.78441434e-02, -5.99336576e+00, -5.99336576e+00,
          -5.26190662e+00, -5.26190662e+00, 6.56639576e-01,
          6.56639576e-01, -1.52683187e+00, -1.52683187e+00,
          1.83774161e+00, 1.83774161e+00, 1.42142630e+00, 1.42142630e+00,
          -5.68403244e-01, 1.32390827e-01, 1.32390827e-01,
          -4.96660995e+00, -4.96660995e+00, -2.59138197e-01,
          -2.59138197e-01, -4.88028669e+00, -4.88028669e+00,
          2.37894896e-02, 2.37894896e-02, -5.21669745e-01,
          -5.21669745e-01, -2.87469220e+00, -3.23029852e+00,
          -3.23029852e+00, -2.89063525e+00, -2.89063525e+00,
          -2.32517171e+00, -2.32517171e+00, -5.10998011e+00,
          -5.10998011e+00, -2.08679843e+00, -2.08679843e+00,
          9.79416072e-01, 9.79416072e-01, -1.83366609e+00,
          -1.83366609e+00, 1.29045451e+00, 2.97385359e+00,
          2.97385359e+00, -6.10653162e+00, -6.10653162e+00,
          3.35808063e+00, 3.35808063e+00, 8.48001778e-01, 8.48001778e-01,
          -2.44581774e-01, -3.96230340e+00, -3.96230340e+00,
          1.62657428e+00, 1.62657428e+00, -3.33153635e-01,
          -3.33153635e-01, 2.49597931e+00, 2.49597931e+00,
          2.28219032e+00, 2.28219032e+00, -1.64929855e+00,
          -1.64929855e+00, 3.59172058e+00, 3.59172058e+00,
          -1.30748379e+00, -1.30748379e+00, 1.51079997e-01,
          1.51079997e-01, -1.28798330e+00, -1.28798330e+00,
          1.67195034e+00, 1.67195034e+00, 3.67079973e-02, 3.67079973e-02,
          -2.56546307e+00, -2.56546307e+00, -1.50944114e+00,
          -1.50944114e+00, -3.30906081e+00, -3.30906081e+00,
          -5.93514872e+00, -2.66032052e+00, -2.66032052e+00,
          1.21265495e+00, 1.21265495e+00, -1.83705366e+00,
          -1.83705366e+00, -4.58158302e+00, -4.58158302e+00,
          9.22535515e+00, 7.66241848e-01, 7.66241848e-01,
          -3.62143278e+00, -3.62143278e+00, -1.29084671e+00,
          -1.29084671e+00, 3.29407835e+00, 3.29407835e+00,
          5.42405081e+00, 5.42405081e+00, -2.55358958e+00,
          -2.55358958e+00, 1.82335770e+00, 1.82335770e+00,
          -1.05617255e-01, -1.05617255e-01, 1.22783542e+00,
          1.22783542e+00, 1.53698713e-01, 1.53698713e-01,
          -3.02565289e+00, -3.02565289e+00, -5.20707035e+00,
          -5.20707035e+00, 1.08829272e+00, 1.08829272e+00,
          5.96148634e+00, -5.52536917e+00, -5.52536917e+00,
          3.20645237e+00, 3.20645237e+00, 3.94410610e-01, 3.94410610e-01,
          -4.20583677e+00, -4.20583677e+00, 2.29595661e+00,
          2.29595661e+00, -5.67370534e-01, -5.67370534e-01,
          -9.18788254e-01, -9.18788254e-01, -5.86596131e-01,
          -5.86596131e-01, 2.56902218e-01, 2.56902218e-01,
          -3.32527727e-01, -3.32527727e-01, -5.29070711e+00,
          -5.29070711e+00, -1.35844898e+01, -1.35844898e+01,
          -6.26224756e-01, -6.26224756e-01, -1.31088033e-01,
          -1.31088033e-01, 9.31233823e-01, 9.31233823e-01,
          1.01715565e+00, 1.01715565e+00, 6.91467106e-01, 2.51314354e+00,
          2.51314354e+00, 5.70792019e-01, 5.70792019e-01, 1.92883492e+00,
          1.92883492e+00, 3.69859123e+00, 3.69859123e+00,
          -3.03571910e-01, -3.03571910e-01, -2.85903573e+00,
          -2.85903573e+00, 3.52688313e-01, 3.52688313e-01,
          1.88320053e+00, 1.88320053e+00, 2.40799451e+00, 2.40799451e+00,
          -9.58981872e-01, -9.58981872e-01, -2.63503361e+00,
          -2.63503361e+00, 1.11737955e+00, 1.11737955e+00,
          2.67029929e+00, 2.67029929e+00, 9.45954800e+00, 9.45954800e+00,
          -5.72585964e+00, -5.72585964e+00, 1.93837082e+00,
          1.93837082e+00, -2.60486341e+00, -2.60486341e+00,
          -1.54789686e+00, -1.54789686e+00, -3.15275240e+00,
          1.62801492e+00, 1.62801492e+00, -5.39499044e-01,
          -5.39499044e-01, -1.52215922e+00, -1.52215922e+00,
          -1.38545060e+00, -1.38545060e+00, -4.86432791e+00,
          -4.86432791e+00, 1.45630419e-01, 1.45630419e-01,
          -2.36830395e-02, -2.36830395e-02, 9.38996732e-01,
          9.38996732e-01, -2.29141641e+00, -2.29141641e+00,
          6.99448049e-01, 6.99448049e-01, -2.19700027e+00,
          -2.19700027e+00, 8.25906694e-01, 8.25906694e-01,
          -2.63622880e+00, -2.63622880e+00, 1.02493957e-01,
          1.02493957e-01, -4.29845631e-01, -4.29845631e-01,
          -4.99711841e-01, -4.99711841e-01, -7.76591718e-01,
          -7.76591718e-01, 7.83571541e-01, 7.83571541e-01,
          1.62926579e+00, 1.62926579e+00, -1.96547146e+01,
          -1.96547146e+01, -1.74055386e+00, -1.74055386e+00,
          6.16879642e-01, 6.16879642e-01, 1.35844278e+00, 1.35844278e+00,
          6.24517798e-01, 6.24517798e-01, 1.65221357e+00, 1.65221357e+00,
          3.49616051e+00, 2.66973734e-01, 2.66973734e-01,
          -4.70194370e-01, -4.70194370e-01, 1.18966973e+00,
          1.18966973e+00, 1.04970098e+00, 1.04970098e+00,
          -3.50183582e+00, -3.50183582e+00, 1.17420530e+00,
          1.17420530e+00, 2.22972274e+00, 2.22972274e+00,
          -1.64970964e-01, -1.64970964e-01, -8.58046830e-01,
          -8.58046830e-01, -2.10786748e+00, -2.10786748e+00,
          1.43193102e+00, 1.43193102e+00, 5.97827062e-02, 5.97827062e-02,
          -5.70561218e+00, -5.70561218e+00, -1.07205260e+00,
          -1.07205260e+00, 3.42510176e+00, 3.42510176e+00,
          -1.89955413e+00, -1.89955413e+00, -3.39557314e+00,
          -3.39557314e+00, -3.79004288e+00, -3.79004288e+00,
          -1.69722819e+00, -1.69722819e+00, -3.11740732e+00,
          -3.11740732e+00, 2.33048424e-01, 2.33048424e-01,
          -2.14995578e-01, -1.39660192e+00, -1.39660192e+00,
          -4.55890846e+00, -4.55890846e+00, -3.76148522e-01,
          -3.76148522e-01, -1.57361642e-01, -1.57361642e-01,
          -1.21903825e+00, -1.21903825e+00, -1.52094990e-01,
          -1.52094990e-01, -3.39392376e+00, -3.39392376e+00,
          -1.67970276e+00, -1.67970276e+00, -3.39342189e+00,
          -3.39342189e+00, 4.56975126e+00, 4.56975126e+00,
          -2.31628370e+00, -2.31628370e+00, -1.88610864e+00,
          -1.88610864e+00, -2.58755064e+00, -2.58755064e+00,
          6.91808343e-01, 6.91808343e-01, 3.66741848e+00, 3.66741848e+00,
          2.02286506e+00, 2.02286506e+00, 6.57153368e-01, 6.57153368e-01,
          6.78280771e-01, 6.78280771e-01, -5.25270939e-01,
          -5.25270939e-01, 3.32629490e+00, 3.32629490e+00,
          -3.46376967e+00, -3.28302383e+00, -3.28302383e+00,
          1.50661850e+00, 1.50661850e+00, 1.30463636e+00, 1.30463636e+00,
          -2.94509292e+00, -2.94509292e+00, 2.70768285e+00,
          2.70768285e+00, 1.75389409e+00, 1.75389409e+00,
          -8.99481058e-01, -8.99481058e-01, 8.32208320e-02,
          8.32208320e-02, 3.11524940e+00, 3.11524940e+00, 4.52019542e-01,
          -2.18721008e+00, -2.18721008e+00, 2.35063696e+00,
          -2.01688027e+00, -2.01688027e+00, -1.32314384e+00,
          -1.32314384e+00, -5.05069017e-01, -5.05069017e-01,
          1.76546156e+00, 1.76546156e+00, 8.13184559e-01, 8.13184559e-01,
          7.10673153e-01, 7.10673153e-01, -4.33175892e-01,
          -4.33175892e-01, -3.58648807e-01, -3.58648807e-01,
          9.95440036e-02, 9.95440036e-02, -1.38123286e+00,
          -1.38123286e+00, -1.77717626e+00, -1.77717626e+00,
          2.81303811e+00, 2.81303811e+00, 1.72007728e+00, 1.72007728e+00,
          2.63062191e+00, 2.63062191e+00, -2.05299115e+00,
          -2.05299115e+00, -1.64707363e+00, -1.64707363e+00,
          6.92678332e-01, 6.92678332e-01, 2.84744382e-01, 2.84744382e-01,
          3.60321939e-01, 3.60321939e-01, -5.54799497e-01,
          -5.54799497e-01, -8.71352911e-01, -8.71352911e-01,
          2.37760258e+00, 2.37760258e+00, -2.73729771e-01,
          -2.73729771e-01, -2.23749185e+00, -2.23749185e+00,
          3.46908778e-01, 3.46908778e-01, -1.30432689e+00,
          -1.30432689e+00, -2.91718602e-01, 1.09240782e+00,
          1.09240782e+00, 5.30036163e+00, 5.30036163e+00, 1.40446210e+00,
          1.40446210e+00, -1.39623511e+00, -1.39623511e+00,
          1.37229991e+00, 1.37229991e+00, -2.81248903e+00,
          -2.81248903e+00, -4.48066026e-01, -4.48066026e-01,
          1.81979346e+00, 1.81979346e+00, -1.54491234e+00,
          -1.54491234e+00, 9.49361324e-01, 9.49361324e-01,
          1.06896770e+00, 1.06896770e+00, -1.43861198e+00,
          -1.43861198e+00, 1.59043622e+00, 1.59043622e+00,
          -1.00542521e+00, -1.00542521e+00, -2.74317408e+00,
          -2.74317408e+00, 5.32761276e-01, -2.68229461e+00,
          -2.68229461e+00, -5.20673752e-01, -5.20673752e-01,
          1.87777989e-02, 1.87777989e-02, -9.40518156e-02,
          -9.40518156e-02, 7.27673411e-01, 7.27673411e-01,
          3.15094262e-01, -6.72484636e-02, -6.72484636e-02,
          -3.62559319e-01, -3.62559319e-01, -2.67507887e+00,
          -2.67507887e+00, -2.26504517e+00, -2.26504517e+00,
          2.62775958e-01, 2.62775958e-01, 7.12811649e-01, 7.12811649e-01,
          -8.44979644e-01, -8.44979644e-01, 1.35291719e+00,
          1.35291719e+00, -1.13812411e+00, -1.13812411e+00,
          1.13706321e-01, 1.13706321e-01, 4.57967132e-01, 4.57967132e-01,
          -6.20061517e-01, -6.20061517e-01, 3.79709506e+00,
          3.79709506e+00, -7.96030462e-01, -7.96030462e-01,
          6.04333639e-01, 6.04333639e-01, -1.15623808e+00,
          -1.15623808e+00, -3.09784144e-01, -3.09784144e-01,
          6.52145088e-01, 6.52145088e-01, -2.19823599e+00,
          -2.19823599e+00, -5.73566496e-01, -5.73566496e-01,
          9.16799426e-01, 9.16799426e-01, 9.89172399e-01, 1.04883015e+00,
          1.04883015e+00, 1.09330416e+00, 1.09330416e+00,
          -9.71717894e-01, -9.71717894e-01, -9.60030854e-01,
          -9.60030854e-01, -2.11878967e+00, -2.11878967e+00,
          -4.64872867e-01, -4.64872867e-01, -1.33930907e-01,
          -1.33930907e-01, -4.31985766e-01, -4.31985766e-01,
          2.00290823e+00, 2.00290823e+00, -2.04449460e-01,
          -2.04449460e-01, -6.88759744e-01, -6.88759744e-01,
          -9.34106255e+00, -9.34106255e+00, 7.75350749e-01,
          7.75350749e-01, -2.99428731e-01, 1.14403598e-01,
          1.14403598e-01, -2.55502790e-01, -2.55502790e-01,
          -1.66152930e+00, -1.66152930e+00, -2.09140480e-01,
          -2.09140480e-01, -1.04975164e+00, -1.04975164e+00,
          3.06306511e-01, -7.03130901e-01, -7.03130901e-01,
          1.23871517e+00, 1.23871517e+00, -2.43953630e-01,
          -2.43953630e-01, -3.54084969e-01, -3.54084969e-01,
          -1.02673423e+00, -1.02673423e+00, -1.17020178e+00,
          -6.84560716e-01, -6.84560716e-01, 3.69642401e+00,
          3.69642401e+00, 1.23316717e+00, 1.23316717e+00,
          -4.03379589e-01, 1.01104474e+00, 1.01104474e+00,
          -4.90779459e-01, -4.90779459e-01, -1.62510383e+00,
          -1.62510383e+00, 1.37363839e+00, 1.37363839e+00,
          -1.52773726e+00, -1.52773726e+00, 1.50989723e+00,
          1.50989723e+00, 2.10260510e-01, 2.10260510e-01,
          -1.66573673e-01, -1.66573673e-01, 6.13580108e-01,
          6.13580108e-01, 1.07759088e-01, 1.07759088e-01, 1.39326572e+00,
          1.39326572e+00, 6.61957711e-02, 6.61957711e-02,
          -1.21257603e+00, -1.21257603e+00, -2.36298874e-01,
          -2.36298874e-01, -8.47218260e-02, -8.47218260e-02,
          -3.06849003e+00, -3.06849003e+00, -1.73053765e+00,
          -1.73053765e+00, -1.06427526e+00, -1.06427526e+00,
          2.63549089e-01, 2.63549089e-01, 4.60226797e-02, 4.60226797e-02,
          1.18563926e+00, 1.18563926e+00, -9.02657747e-01,
          -9.02657747e-01, 1.50311458e+00, 1.50311458e+00,
          1.09706545e+00, -2.01100850e+00, -2.01100850e+00,
          -2.40416527e-01, -2.40416527e-01, -8.33488524e-01,
          -8.33488524e-01, -3.13007545e+00, -3.13007545e+00,
          -1.07954764e+00, 1.92230389e-01, 1.92230389e-01,
          1.05761361e+00, 1.05761361e+00, 3.23937684e-01, 3.23937684e-01,
          -1.64633870e-01, -1.64633870e-01, 5.06614029e-01,
          5.06614029e-01, 6.62392735e-01, 6.62392735e-01, 7.48176813e-01,
          7.48176813e-01, 8.05589020e-01, 8.05589020e-01, 6.37827143e-02,
          6.37827143e-02, 5.58256507e-01, 5.58256507e-01, 9.35009181e-01,
          9.35009181e-01, -1.83652520e+00, 1.21822059e+00,
          1.21822059e+00, 1.67048812e-01, 1.67048812e-01, 2.16060832e-01,
          2.16060832e-01, 1.78965852e-01, 1.78965852e-01,
          -4.05859232e-01, -4.05859232e-01, 3.33549142e-01,
          3.33549142e-01, -1.10147631e+00, -1.10147631e+00,
          5.65429449e-01, 5.65429449e-01, -8.80173683e-01,
          -8.80173683e-01, 3.69586796e-01, 3.69586796e-01,
          1.91699237e-01, 1.91699237e-01, 3.01205730e+00, 3.01205730e+00,
          1.25803149e+00, 1.25803149e+00, -4.19734895e-01,
          -4.19734895e-01, -3.48483473e-01, -3.48483473e-01,
          -1.09762716e+00, -1.09762716e+00, -2.32991815e-01,
          -2.32991815e-01, -2.45154428e+00, 2.75980741e-01,
          2.75980741e-01, -3.60439509e-01, -3.60439509e-01,
          -2.79943109e-01, -2.79943109e-01, 3.19477618e-01,
          3.19477618e-01, -5.65706253e-01, -5.65706253e-01,
          -8.86002183e-02, -8.86002183e-02, -2.64999366e+00,
          -2.64999366e+00, 1.12817657e+00, 1.12817657e+00,
          -9.57170486e-01, -9.57170486e-01, 8.13280761e-01,
          8.13280761e-01, 5.30120194e-01, 5.30120194e-01, 5.26875079e-01,
          5.26875079e-01, -2.15503260e-01, -2.15503260e-01,
          -1.06834817e+00, -1.06834817e+00, 1.55671299e+00,
          1.55671299e+00, 3.87647972e-02, 3.87647972e-02,
          -1.35401797e+00, -1.35401797e+00, -4.73000646e-01,
          -4.73000646e-01, -4.97763008e-02, -4.97763008e-02,
          1.19005457e-01, 1.19005457e-01, 1.31467485e+00, 1.31467485e+00,
          -4.68266159e-02, -4.68266159e-02, 5.54877639e-01,
          5.54877639e-01, 4.95248847e-02, 4.95248847e-02,
          -1.30492160e-02, -1.30492160e-02, -2.88144112e-01,
          -2.88144112e-01, -7.46264279e-01, -7.46264279e-01,
          1.95968246e+00, 1.95968246e+00, -2.74116588e+00,
          -2.74116588e+00, -7.69489706e-01, -7.69489706e-01,
          -4.22200233e-01, -4.22200233e-01, -7.46937156e-01,
          -7.46937156e-01, 1.00808871e+00, 1.00808871e+00,
          3.78058046e-01, 3.78058046e-01, -1.43663198e-01,
          -1.43663198e-01, 1.60850382e+00, 1.60850382e+00,
          -1.60436130e+00, -3.64654630e-01, -3.64654630e-01,
          1.72268718e-01, 1.72268718e-01, -6.71084881e-01,
          -6.71084881e-01, -1.04566917e-01, -1.04566917e-01,
          1.08516562e+00, 3.23678792e-01, 3.23678792e-01,
          -3.54133360e-02, -3.54133360e-02, 1.30103898e+00,
          1.09362438e-01, 1.09362438e-01, -2.74220037e+00,
          -2.74220037e+00, -3.13972569e+00, -3.13972569e+00,
          -7.47500062e-01, -7.47500062e-01, 2.08491745e+01,
          2.08491745e+01, -3.33058655e-01, 5.00196293e-02,
          5.00196293e-02, -1.76652622e+00, -1.76652622e+00,
          -1.21026266e+00, -1.21026266e+00, 8.87358248e-01,
          8.87358248e-01, 8.72946322e-01, 8.72946322e-01, 1.68707192e+00,
          1.68707192e+00, -1.53607273e+00, -1.53607273e+00,
          8.52610409e-01, 8.52610409e-01, -6.56302333e-01,
          -6.56302333e-01, -5.54726243e-01, -5.54726243e-01,
          -8.47481072e-01, -8.47481072e-01, 8.80323052e-01,
          1.80105805e-01, 1.80105805e-01, -1.60136771e+00,
          -1.60136771e+00, -4.43798423e-01, -4.43798423e-01,
          -1.37920320e-01, -1.37920320e-01, -1.20540547e+00,
          1.01287770e+00, 1.01287770e+00, -1.28711236e+00,
          6.58850431e-01, 6.58850431e-01, -1.50103658e-01,
          -1.50103658e-01, 2.00687027e+00, 2.00687027e+00,
          6.95596263e-02, 6.95596263e-02, -4.36120592e-02,
          -4.36120592e-02, 6.94608033e-01, -7.07516307e-03,
          -7.07516307e-03, 8.09794843e-01, 8.09794843e-01,
          3.28225970e-01, 3.28225970e-01, 9.20153335e-02, 9.20153335e-02,
          1.07917738e+00, 1.07917738e+00, 1.23799123e-01, 1.23799123e-01,
          -4.99153048e-01, -4.99153048e-01, -7.44636059e-01,
          -7.44636059e-01, -8.79308164e-01, -8.79308164e-01,
          -5.70679307e-01, -5.70679307e-01, -1.95803687e-01,
          -1.95803687e-01, -1.13247588e-01, -1.13247588e-01,
          -2.10369706e+00, -2.10369706e+00, -7.15220809e-01,
          -7.15220809e-01, -3.63486648e-01, -3.63486648e-01,
          4.51475352e-01, 4.51475352e-01, -3.20056051e-01,
          6.75252497e-01, 6.75252497e-01, 8.93259495e-02, 8.93259495e-02,
          6.04868054e-01, 6.04868054e-01, -1.15739375e-01,
          -1.15739375e-01, -8.51424456e-01, -8.51424456e-01,
          4.18691015e+00, 4.18691015e+00, 2.60628313e-02, 2.44184688e-01,
          2.44184688e-01, 1.26006290e-01, 1.26006290e-01,
          -4.33950007e-01, -4.33950007e-01, 4.95105051e-02,
          -5.46050787e-01, -5.46050787e-01, -7.03316703e-02,
          -7.03316703e-02, 1.02303100e+00, 1.02303100e+00,
          -1.54847592e-01, -1.54847592e-01, 2.26678461e-01,
          2.26678461e-01, -3.90568525e-01, -3.90568525e-01,
          1.45978495e-01, 1.45978495e-01, 5.74485123e-01, 5.74485123e-01,
          5.98550797e-01, 5.98550797e-01, -1.22037590e+00,
          -1.22037590e+00, -9.47504520e-01, -5.86114109e-01,
          -5.86114109e-01, 1.24395071e-02, 1.24395071e-02,
          -3.40138704e-01, -3.40138704e-01, 3.74844432e-01,
          3.74844432e-01, 4.75114256e-01, -5.10214567e-01,
          -5.10214567e-01, -2.82523453e-01, -5.70293128e-01,
          -5.70293128e-01, 3.18236142e-01, 3.18236142e-01,
          -5.29012823e+00, -5.29012823e+00, -1.73701957e-01,
          -1.73701957e-01, 1.17857516e+00, 1.17857516e+00,
          1.33380383e-01, 1.33380383e-01, -6.86333179e-01,
          -6.86333179e-01, 2.33408466e-01, 2.33408466e-01,
          -6.60037696e-01, -6.60037696e-01, -1.88703239e-01,
          -1.88703239e-01, 3.39920789e-01, 3.39920789e-01,
          9.50682759e-02, 9.50682759e-02, -5.23263097e-01,
          -5.23263097e-01, 7.26781964e-01, 7.26781964e-01,
          5.37928939e-03, 5.37928939e-03, -1.35809517e+00,
          -1.35809517e+00, -1.54708689e-02, -1.12559557e+00,
          -1.12559557e+00, 1.39447391e+00, 1.39447391e+00,
          -3.98102432e-01, -3.98102432e-01, 4.10513133e-01,
          4.10513133e-01, -4.99866933e-01, -4.99866933e-01,
          -4.98079568e-01, -4.98079568e-01, -5.62157691e-01,
          -5.62157691e-01, -3.80060863e+00, -3.80060863e+00,
          7.99082592e-02, 7.99082592e-02, -6.54072881e-01,
          -6.54072881e-01, 7.12209493e-02, 7.12209493e-02,
          2.66757727e-01, 2.66757727e-01, 1.96438402e-01, 1.96438402e-01,
          9.64492410e-02, 9.64492410e-02, -9.87182617e-01,
          -9.87182617e-01, 1.59932032e-01, 1.59932032e-01,
          2.03706533e-01, 2.03706533e-01, 6.00404143e-01, 6.00404143e-01,
          -2.90172130e-01, -2.90172130e-01, 2.44671369e+00,
          2.44671369e+00, 1.13983154e-01, 1.13983154e-01, 1.91499460e+00,
          1.91499460e+00, 1.17467821e+00, 1.17467821e+00,
          -8.42495382e-01, -8.42495382e-01, -7.87464753e-02,
          2.41457701e-01, 2.41457701e-01, -4.23696518e-01,
          -4.23696518e-01, 1.61120880e+00, 1.61120880e+00,
          2.92541653e-01, 2.92541653e-01, -6.40836537e-01,
          -6.40836537e-01, 1.75816953e-01, 1.75816953e-01,
          -1.93252504e-01, -1.93252504e-01, -5.37804425e-01,
          -5.37804425e-01, -1.05329029e-01, -1.05329029e-01,
          3.17460001e-01, -4.93185908e-01, -4.93185908e-01,
          -1.46352917e-01, -1.46352917e-01, -7.18637258e-02,
          -7.18637258e-02, -1.04253221e+00, -1.04253221e+00,
          -2.82602221e-01, -2.82602221e-01, 8.58840421e-02,
          8.58840421e-02, -1.62333623e-01, -1.62333623e-01,
          -5.47463417e-01, -5.47463417e-01, -1.21384740e+00,
          -1.21384740e+00, 2.88818806e-01, 2.88818806e-01,
          3.33487183e-01, 3.33487183e-01, 4.40465450e-01, 4.40465450e-01,
          2.90588200e-01, 2.90588200e-01, -5.82071364e-01,
          -5.82071364e-01, 9.07317519e-01, 9.07317519e-01,
          -1.55819798e+00 ]
      - [ 2.69236660e+01, 1.84276562e+01, -7.75400391e+01,
          9.27726440e+01, 1.85282307e+01, 2.34588146e+01,
          -5.91038055e+01, -1.53919220e+02, 9.84930649e+01,
          5.07318115e+01, 5.14342155e+01, -2.22139397e+01,
          4.46771698e+01, 4.31959486e+00, 2.77810116e+01, 5.62496452e+01,
          3.76353455e+01, -1.67616444e+01, -2.22469673e+01,
          -1.82014008e+01, -3.43980370e+01, 3.72909470e+01,
          1.91554699e+01, 2.32517948e+01, -4.33524284e+01,
          -2.41710873e+01, -2.00870228e+01, 3.29754982e+01,
          4.97258949e+01, -4.12409554e+01, 1.33517170e+01,
          -1.41304817e+01, 4.91225433e+00, -2.68632698e+01,
          1.74121914e+01, 4.70340652e+01, 6.02487278e+00,
          -1.05921686e+00, 2.75965767e+01, 3.05482697e+00,
          -5.03285503e+00, -1.30345831e+01, 1.99500256e+01,
          2.11654816e+01, -1.04576283e+01, -1.55868845e+01,
          -2.07109852e+01, 5.60608482e+00, 3.36129189e+01,
          4.80158806e+01, 2.21628551e+01, -2.98415909e+01,
          -9.92055702e+00, 3.78131752e+01, -4.60692704e-01,
          2.08269234e+01, 8.38277042e-01, 8.65375328e+00, 6.00746870e+00,
          -1.22485762e+01, -2.47870216e+01, 1.34750319e+01,
          2.08933811e+01, -1.16952143e+01, 8.48018456e+00,
          -7.12899971e+00, -1.06845179e+01, 1.47406902e+01,
          -4.08628845e+00, 1.33573914e+01, -4.98447657e+00,
          -1.79719028e+01, 2.06131439e+01, -7.47058153e+00,
          -6.25208139e-01, 6.47631979e+00, 1.64182796e+01,
          3.01899109e+01, -3.09980631e+00, 6.26929665e+00,
          -3.62042999e+01, -1.85804424e+01, 3.15057182e+01,
          3.28099036e+00, -1.26936798e+01, 2.64183559e+01,
          -1.35717402e+01, -1.31453772e+01, -2.57524204e+01,
          7.45166111e+00, -4.92540359e+00, 8.41422081e+00,
          2.54536304e+01, -2.15878010e+01, -7.00726843e+00,
          -1.73699207e+01, -1.28712330e+01, 1.16317005e+01,
          5.63326550e+00, 1.31763401e+01, -1.52391720e+00,
          -2.56063342e+00, -9.78395176e+00, 4.34524250e+00,
          1.15906162e+01, 3.57839127e+01, -1.16775827e+01,
          -1.12284555e+01, 3.45720243e+00, 1.27998085e+01,
          1.25994797e+01, 1.07281723e+01, 1.99099541e+01,
          -7.00959253e+00, -6.29574966e+00, 1.16111259e+01,
          -1.65968952e+01, 1.08074484e+01, -5.98344266e-01,
          -7.21052742e+00, -7.11260843e+00, -8.11819649e+00,
          -9.04536438e+00, 4.02914619e+00, 7.17165089e+00,
          3.28488469e-01, -3.21479821e+00, 3.91468835e+00,
          9.05412483e+00, -1.11467924e+01, -1.65081337e-01,
          3.44993901e+00, 1.01421881e+01, -2.89206076e+00,
          7.86601019e+00, 1.16396494e+01, -9.92882156e+00,
          1.25615091e+01, -2.11370707e+00, 1.48551903e+01,
          1.33119516e+01, -5.59663010e+00, 1.58508015e+01,
          -4.72372150e+00, -1.13840790e+01, 7.47484016e+00,
          -1.40627546e+01, 1.00131521e+01, 9.02041340e+00,
          -7.12337208e+00, 3.54988384e+00, 1.75749779e+01,
          -1.34279051e+01, 1.16228857e+01, 1.71857262e+01,
          -1.06949539e+01, 1.39097242e+01, 8.31501961e+00,
          -2.77229929e+00, 2.53073750e+01, 2.09475269e+01,
          7.53013086e+00, 5.85354424e+00, -1.42258625e+01,
          -1.26080809e+01, 1.48015225e+00, -5.11435032e+00,
          1.24355888e+00, 1.14917727e+01, 2.38400126e+00, 4.91796494e+00,
          1.31229658e+01, 4.15485811e+00, 6.49948549e+00, 6.73236847e+00,
          7.91271114e+00, 1.47214260e+01, 1.05512989e+00,
          -1.33633270e+01, -4.49088764e+00, -4.94105148e+00,
          -4.19902039e+00, -5.29962587e+00, 8.14241409e+00,
          1.46001263e+01, 4.12768364e+00, -4.72508287e+00,
          3.36691117e+00, 1.67842269e+00, 9.03775978e+00,
          -8.14483261e+00, -3.04019642e+00, -5.52230072e+00,
          6.09911633e+00, -6.40731931e-01, -1.79648662e+00,
          3.27509570e+00, -1.54122152e+01, -1.10269177e+00,
          3.23388505e+00, 1.94709663e+01, 4.58098793e+00, 1.03037605e+01,
          -7.19489145e+00, -6.64744902e+00, -1.53456843e+00,
          1.07473574e+01, -4.79809093e+00, 1.01272926e+01,
          -1.36378450e+01, 6.21931982e+00, 3.94478297e+00,
          2.90924120e+00, 4.13329268e+00, 1.40855417e+01, 1.78209076e+01,
          2.61535215e+00, -5.79245901e+00, -2.01717949e+01,
          -1.40242767e+01, 1.14726362e+01, 1.20445518e+01,
          -4.57869709e-01, 6.32101250e+00, 1.36828289e+01,
          -1.79881120e+00, -1.18286161e+01, 3.02863646e+00,
          1.25166969e+01, -1.23028831e+01, -3.79176378e+00,
          1.29354227e+00, 2.23874307e+00, 4.80449772e+00,
          -1.43156834e+01, 5.64375734e+00, 5.25839758e+00,
          3.44615191e-01, 7.24139166e+00, 3.62775254e+00, 8.19388866e+00,
          -4.01527309e+00, -1.10862627e+01, -1.09476128e+01,
          5.03230047e+00, -4.28715754e+00, 5.93624401e+00,
          -7.15253115e+00, 4.82402372e+00, -1.31195459e+01,
          -8.29374504e+00, -9.79171085e+00, 4.87725401e+00,
          -1.23466301e+01, 2.06146479e+00, 1.10568857e+01,
          -2.11478710e+00, 5.17907190e+00, -1.21254721e+01,
          -3.84524035e+00, 1.19795094e+01, 1.22969236e+01,
          -8.82217026e+00, -1.36283064e+01, 7.28453541e+00,
          -1.05067720e+01, 1.85278177e+00, 9.18842602e+00,
          -6.40170240e+00, -9.99195576e+00, 4.42924786e+00,
          3.77568698e+00, -1.05663443e+01, 8.18271101e-01,
          -2.56096840e+00, 7.02253103e-01, 1.19453154e+01,
          -1.08447790e-01, -1.89858139e-01, 4.66850176e-02,
          1.20650075e-01, 1.66236389e+00, 4.19019365e+00, 4.20715141e+00,
          2.98980808e+00, -7.35968065e+00, 3.64521384e+00,
          3.93947268e+00, 2.46031570e+00, -2.78112173e+00,
          -9.05323982e+00, 5.69479227e-01, -1.73118382e+01,
          1.26006823e+01, 3.04978275e+00, 3.01459146e+00, 9.43397045e+00,
          9.53216267e+00, 7.09838533e+00, 2.87273598e+00,
          -2.70510101e+00, 1.39847317e+01, -1.34574528e+01,
          1.41003275e+01, -3.64992082e-01, 1.34319954e+01,
          1.47858047e+00, -3.97554135e+00, -8.51834774e+00,
          5.90138149e+00, 4.78786612e+00, -5.76323795e+00,
          1.10711203e+01, 3.10524607e+00, 6.66924095e+00, 3.08065557e+00,
          3.92866254e+00, -7.69661045e+00, 4.75617981e+00,
          2.79121065e+00, -7.95136070e+00, -5.05680370e+00,
          -2.64237666e+00, -1.33561110e+00, 4.71949005e+00,
          3.93063402e+00, -6.62826157e+00, 4.76948404e+00,
          -4.96963024e+00, -1.61290869e-01, 2.10614443e+00,
          -1.76775217e+00, -1.70898080e-01, -3.41615701e+00,
          6.07385397e+00, 8.50167561e+00, 1.49594247e-01,
          -7.44826889e+00, -8.76252556e+00, -1.53661382e+00,
          -3.58624578e+00, -7.19116628e-01, 2.42169976e+00,
          8.91948462e-01, -4.89614296e+00, 7.45295238e+00,
          -1.20678854e+01, 1.13760748e+01, 7.25884140e-01,
          -3.41847038e+00, -2.02173948e+00, -2.18199706e+00,
          2.97405171e+00, -9.62060452e+00, 9.21968079e+00,
          -4.95082760e+00, -3.44721675e+00, -9.77688122e+00,
          5.00792694e+00, -6.89643431e+00, -5.86810875e+00,
          -2.82510734e+00, 2.60191083e+00, -2.70735908e+00,
          -1.05145197e+01, 2.82099771e+00, 3.89670229e+00,
          -1.18853989e+01, 4.02954912e+00, -5.61182356e+00,
          7.85643625e+00, 3.39388347e+00, 4.27204418e+00, 9.62779045e+00,
          -1.26822872e+01, -1.62629089e+01, -2.08894014e+00,
          -4.04957628e+00, -7.23370981e+00, 5.58027267e+00,
          -7.70142174e+00, -8.10432911e+00, 1.09051256e+01,
          4.28908920e+00, 2.76200747e+00, 1.89093858e-01,
          -1.07427568e+01, 4.63740778e+00, -4.54910851e+00,
          -6.37033224e+00, -1.08766804e+01, 4.48319626e+00,
          2.43789744e+00, -2.82504652e-02, -6.30997849e+00,
          -2.14878941e+00, -3.52442265e+00, -1.22969341e+00,
          1.83052456e+00, 1.90092325e+00, 1.17023297e-01,
          -6.06804371e-01, -4.65835035e-01, -3.94482350e+00,
          -6.59575844e+00, -4.82794905e+00, 5.40294647e-01,
          -5.68802500e+00, 4.09761572e+00, -2.97759652e-01,
          -1.42537379e+00, 4.22047734e-01, -7.64483118e+00,
          -1.57137990e+00, 3.32827663e+00, 2.73057628e+00,
          7.32874334e-01, -3.32474917e-01, 1.47162139e+00,
          2.96933770e-01, -1.90854740e+00, 5.91640663e+00,
          -1.23308392e+01, 5.40432167e+00, 2.24823213e+00,
          -1.13796768e+01, -5.39368725e+00, 9.69696712e+00,
          -1.15774977e+00, -3.34570360e+00, 2.90801978e+00,
          -3.65594244e+00, -4.01954556e+00, 1.22520580e+01,
          -2.62704968e+00, -5.94333410e+00, -5.13042402e+00,
          1.25113213e+00, -5.63486636e-01, -1.96230996e+00,
          8.75809312e-01, 2.39622521e+00, -8.11823845e+00,
          1.11111486e+00, -1.16910200e+01, -5.84892094e-01,
          -1.35173690e+00, -5.31876850e+00, -5.52951813e-01,
          9.63265598e-01, -6.87557554e+00, 4.24207258e+00,
          9.37405872e+00, -5.37098360e+00, 1.21408787e+01,
          2.72335720e+00, -8.49271595e-01, -2.11284900e+00,
          4.85386431e-01, -5.87713718e-01, -1.22200179e+00,
          -1.08288610e+00, -8.62391090e+00, 7.25452089e+00,
          1.73295236e+00, -1.18214893e+01, 4.19309998e+00,
          2.37331390e+00, -4.72119761e+00, 8.53195310e-01,
          1.85012567e+00, 1.75910640e+00, 5.57529306e+00,
          -3.01240993e+00, 3.86302090e+00, 1.66188920e+00,
          -2.83106589e+00, -2.84185314e+00, 5.34140825e+00,
          -2.30833650e+00, -5.06596470e+00, 5.15709543e+00,
          2.83761710e-01, 3.03888787e-02, 9.42772150e-01, 5.14493845e-02,
          2.61616755e+00, -7.39718771e+00, -1.35050955e+01,
          -6.34007156e-01, -3.66309762e+00, -8.75055027e+00,
          -6.42119169e-01, -2.87471509e+00, 5.72817206e-01,
          -8.99586964e+00, -4.92511320e+00, -4.10575438e+00,
          1.62366641e+00, 8.87674046e+00, 1.35611610e+01, 2.04675293e+00,
          -3.41038918e+00, -4.47347736e+00, -1.57119541e+01,
          -8.75742435e+00, -8.75742435e+00, -1.04084206e+01,
          1.76595078e+01, 1.76595078e+01, -2.51296253e+01,
          -2.51296253e+01, 8.90192091e-01, -2.54850998e+01,
          -2.54850998e+01, -9.07039642e+00, 6.09262764e-01,
          6.09262764e-01, -2.21779905e-02, -2.21779905e-02,
          2.08867407e+00, 2.08867407e+00, 1.38973465e+01, 1.38973465e+01,
          -2.51163936e+00, -2.51163936e+00, -5.69805264e-01,
          -5.69805264e-01, 7.63529301e+00, 3.12667513e+00,
          5.40986395e+00, 5.40986395e+00, 5.54140568e-01, 5.54140568e-01,
          -2.96368003e+00, -2.96368003e+00, 1.17220783e+01,
          1.17220783e+01, -2.29790249e+01, -2.29790249e+01,
          -1.41958344e+00, -1.41958344e+00, -8.65494347e+00,
          -8.65494347e+00, 1.30340014e+01, 1.30340014e+01,
          1.51751642e+01, 1.51751642e+01, -1.39288769e+01,
          -1.39288769e+01, -7.44719887e+00, -7.44719887e+00,
          1.24070597e+01, 1.24070597e+01, -4.13988972e+00,
          -4.13988972e+00, 1.42946587e+01, -1.02993517e+01,
          -1.02993517e+01, 4.21687216e-01, 4.21687216e-01,
          -6.56620741e+00, -6.56620741e+00, -7.04019129e-01,
          -7.04019129e-01, 2.22991257e+01, 2.22991257e+01,
          1.22276783e+01, 1.22276783e+01, 3.02618337e+00, 3.02618337e+00,
          8.08111477e+00, 8.08111477e+00, -3.14836717e+00,
          6.39583302e+00, 6.39583302e+00, 1.41629410e+01, 1.41629410e+01,
          4.09909248e+00, 4.09909248e+00, -1.85620575e+01,
          6.65161085e+00, 6.65161085e+00, -1.48547001e+01,
          -1.48547001e+01, 2.26062512e+00, 2.26062512e+00,
          5.11673260e+00, -9.27531433e+00, -9.27531433e+00,
          1.58742607e-01, 1.58742607e-01, 1.37901793e+01, 1.37901793e+01,
          6.66218996e+00, 8.18241692e+00, 8.18241692e+00, 1.35788798e+00,
          1.35788798e+00, 3.67276144e+00, 3.67276144e+00, 9.66390800e+00,
          9.66390800e+00, 6.29075575e+00, 6.29075575e+00,
          -8.30963802e+00, -8.30963802e+00, 1.79735050e+01,
          1.79735050e+01, 8.82170391e+00, 8.82170391e+00, 1.44509697e+00,
          1.44509697e+00, 2.67615223e+00, 2.67615223e+00, 1.57517538e+01,
          1.57517538e+01, -2.07624555e+00, -2.07624555e+00,
          -2.62568688e+00, -2.62568688e+00, -5.42482281e+00,
          -5.42482281e+00, 1.13348942e+01, 1.13348942e+01,
          -8.28104079e-01, -8.28104079e-01, 8.44432163e+00,
          8.44432163e+00, 1.18231487e+00, 1.18231487e+00, 1.32465136e+00,
          1.32465136e+00, 6.71025085e+00, 6.71025085e+00,
          -2.80333471e+00, -2.80333471e+00, 1.13162994e+01,
          7.05040789e+00, 7.05040789e+00, -3.57070398e+00,
          -3.57070398e+00, -2.45110607e+00, -2.45110607e+00,
          -9.60916615e+00, -9.60916615e+00, 3.64880711e-01,
          3.64880711e-01, 5.58871126e+00, 5.58871126e+00,
          -4.24730921e+00, -4.24730921e+00, -3.93053532e+00,
          -3.93053532e+00, 1.32032764e+00, 1.32032764e+00,
          -4.09023643e-01, -4.09023643e-01, -5.72493017e-01,
          -5.72493017e-01, 1.07161589e+01, 1.07161589e+01,
          -2.40842715e-01, -2.40842715e-01, -3.18967533e+00,
          -3.18967533e+00, -1.82463431e+00, -1.82463431e+00,
          -3.44918966e+00, -3.44918966e+00, 5.01330805e+00,
          5.01330805e+00, 1.93616486e+00, 1.93616486e+00, 4.76393175e+00,
          4.76393175e+00, -6.05610549e-01, -6.05610549e-01,
          1.53226745e+00, 1.53226745e+00, 1.68750957e-01, 1.68750957e-01,
          3.55466418e-02, -6.38871384e+00, -6.38871384e+00,
          -2.80663586e+00, -2.80663586e+00, -4.76143360e+00,
          -4.76143360e+00, 1.24090376e+01, 1.59012929e-01,
          1.59012929e-01, 1.56998360e+00, 1.56998360e+00, 4.59486532e+00,
          4.59486532e+00, 1.04499025e+01, 1.04499025e+01, 4.86625767e+00,
          4.86625767e+00, -2.26845074e+00, -2.26845074e+00,
          9.05078125e+00, 9.05078125e+00, 6.84507656e+00, 5.53108072e+00,
          5.53108072e+00, 1.57125986e+00, 1.57125986e+00,
          -9.50336170e+00, -9.50336170e+00, 7.10303307e+00,
          7.10303307e+00, -3.29621136e-02, -3.29621136e-02,
          -6.43017578e+00, -6.43017578e+00, -5.94511890e+00,
          -5.94511890e+00, -9.05167580e+00, -9.05167580e+00,
          -5.74588680e+00, -5.74588680e+00, -3.80049586e+00,
          -3.80049586e+00, -3.41575623e+00, -3.41575623e+00,
          7.28735685e+00, 7.28735685e+00, -2.59391159e-01,
          2.30320841e-01, 2.30320841e-01, 5.55280638e+00, 5.55280638e+00,
          -7.96118355e+00, -7.96118355e+00, 8.42338145e-01,
          8.42338145e-01, -2.42091274e+00, -2.42091274e+00,
          4.49448395e+00, 4.49448395e+00, -8.62375641e+00,
          -8.62375641e+00, -6.84531450e+00, -6.84531450e+00,
          4.97722775e-01, 4.97722775e-01, 4.66586065e+00, 4.66586065e+00,
          7.45807838e+00, 7.45807838e+00, -4.31277323e+00,
          -9.18845749e+00, -9.18845749e+00, -8.33020508e-01,
          -8.33020508e-01, -1.21283751e+01, -1.21283751e+01,
          3.34355450e+00, 3.34355450e+00, 2.74969697e+00,
          -7.44465828e+00, -7.44465828e+00, -3.16322017e+00,
          -3.16322017e+00, -4.19368553e+00, -4.19368553e+00,
          3.76622009e+00, 3.76622009e+00, -2.35290599e+00,
          -2.35290599e+00, -8.59678841e+00, -8.59678841e+00,
          -7.63874626e+00, -7.63874626e+00, -8.76140893e-01,
          -8.76140893e-01, 5.43082476e+00, 5.43082476e+00,
          -3.61965477e-01, -3.61965477e-01, 6.26051664e+00,
          6.26051664e+00, 1.10205479e+01, 1.10205479e+01,
          -6.53465319e+00, -6.53465319e+00, -1.20107090e+00,
          -1.20107090e+00, 2.66643047e-01, 2.66643047e-01,
          -2.34317482e-01, -2.34317482e-01, 5.28559065e+00,
          5.28559065e+00, 2.86312044e-01, 2.86312044e-01, 5.61813784e+00,
          5.61813784e+00, 5.19065809e+00, 5.19065809e+00,
          -2.32377577e+00, -2.32377577e+00, -3.32913446e+00,
          -3.32913446e+00, -6.91297412e-01, 2.71452355e+00,
          2.71452355e+00, -4.88248539e+00, -4.88248539e+00,
          3.70463538e+00, 3.70463538e+00, 1.54115868e+00, 1.54115868e+00,
          6.80267143e+00, 6.80267143e+00, -1.39066684e+00,
          -1.39066684e+00, 5.89109480e-01, 5.89109480e-01,
          -3.20395160e+00, -3.20395160e+00, -1.41295171e+00,
          -1.41295171e+00, 1.55546153e+00, 1.55546153e+00,
          -4.37281942e+00, -4.37281942e+00, -1.37411797e+00,
          -1.37411797e+00, -3.91692591e+00, -3.91692591e+00,
          -8.45077634e-01, -8.45077634e-01, -3.54168963e+00,
          -3.54168963e+00, -1.33698106e+00, -1.33698106e+00,
          2.70854807e+00, 2.70854807e+00, -1.62348533e+00,
          -1.62348533e+00, -3.93449116e+00, -1.17782092e+00,
          -1.17782092e+00, -1.86870527e+00, -1.86870527e+00,
          4.10106754e+00, 4.10106754e+00, 5.52482557e+00, 5.52482557e+00,
          -3.90629935e+00, -3.90629935e+00, 6.75646245e-01,
          2.03505826e+00, 2.03505826e+00, -3.55277014e+00,
          -3.55277014e+00, 9.44781303e+00, 9.44781303e+00,
          3.98988461e+00, 3.98988461e+00, 4.66974974e-01,
          -5.82730579e+00, -5.82730579e+00, -1.80485094e+00,
          -1.80485094e+00, -2.97515929e-01, -2.97515929e-01,
          5.38774395e+00, 5.38774395e+00, 3.10969806e+00, 3.10969806e+00,
          -4.84270906e+00, -4.84270906e+00, -6.07599497e-01,
          -6.07599497e-01, 3.49221444e+00, 3.49221444e+00,
          -3.84365034e+00, -3.84365034e+00, -6.50956631e-01,
          -6.50956631e-01, 1.03207886e+00, 1.03207886e+00,
          1.65342247e+00, 1.42828608e+00, 1.42828608e+00,
          -8.34797096e+00, -8.34797096e+00, 5.02653456e+00,
          5.02653456e+00, -7.99234867e-01, -7.99234867e-01,
          -1.25286138e+00, -1.25286138e+00, 6.17234409e-01,
          6.17234409e-01, -2.72229791e+00, -2.72229791e+00,
          4.37893979e-02, 4.37893979e-02, -1.70179856e+00,
          -1.70179856e+00, -3.24630141e+00, -3.24630141e+00,
          -7.59447217e-01, -7.59447217e-01, -3.94694060e-01,
          -3.94694060e-01, 1.15239036e+00, 1.15239036e+00,
          -1.92905033e+00, -2.36529565e+00, -2.36529565e+00,
          -5.14576375e-01, -5.14576375e-01, 1.58052111e+00,
          1.58052111e+00, -1.69690180e+00, -1.69690180e+00,
          3.07953072e+00, 3.07953072e+00, 2.52180862e+00, 2.52180862e+00,
          6.71905756e+00, 6.71905756e+00, 3.77121180e-01, 3.77121180e-01,
          -3.42288837e-02, -3.42288837e-02, -4.67256832e+00,
          -4.67256832e+00, -5.13215661e-01, -5.13215661e-01,
          2.81097126e+00, 2.81097126e+00, -1.98230660e+00,
          -1.98230660e+00, 4.33975935e+00, 4.33975935e+00,
          -4.62597795e-02, -4.62597795e-02, -6.56642988e-02,
          -2.25882626e+00, -2.25882626e+00, -5.21033192e+00,
          -5.21033192e+00, 4.88618076e-01, 4.88618076e-01,
          -6.07623756e-01, -6.07623756e-01, -1.83171606e+00,
          -1.83171606e+00, 3.54924411e-01, 3.54924411e-01,
          4.38561618e-01, 4.38561618e-01, -5.31547070e-01,
          -8.63616228e-01, -8.63616228e-01, -3.57642436e+00,
          -3.57642436e+00, 2.53276730e+00, 2.53276730e+00,
          -1.11874390e+00, -1.11874390e+00, 2.00156808e+00,
          2.00156808e+00, 8.24671566e-01, 3.06133896e-01, 3.06133896e-01,
          3.05111670e+00, 3.05111670e+00, -2.98246312e+00,
          -2.98246312e+00, 4.83536661e-01, 4.83536661e-01,
          -1.85067043e-01, -1.85067043e-01, -2.74254894e+00,
          -2.74254894e+00, 1.81269054e+01, 1.81269054e+01,
          5.78440912e-02, -5.99336576e+00, -5.99336576e+00,
          -5.26190662e+00, -5.26190662e+00, 6.56639576e-01,
          6.56639576e-01, -1.52683187e+00, -1.52683187e+00,
          1.83774161e+00, 1.83774161e+00, 1.42142642e+00, 1.42142642e+00,
          -5.68403184e-01, 1.32390797e-01, 1.32390797e-01,
          -4.96660995e+00, -4.96660995e+00, -2.59138256e-01,
          -2.59138256e-01, -4.88028669e+00, -4.88028669e+00,
          2.37894729e-02, 2.37894729e-02, -5.21669805e-01,
          -5.21669805e-01, -2.87469244e+00, -3.23029852e+00,
          -3.23029852e+00, -2.89063525e+00, -2.89063525e+00,
          -2.32517171e+00, -2.32517171e+00, -5.10998011e+00,
          -5.10998011e+00, -2.08679843e+00, -2.08679843e+00,
          9.79416013e-01, 9.79416013e-01, -1.83366609e+00,
          -1.83366609e+00, 1.29045451e+00, 2.97385359e+00,
          2.97385359e+00, -6.10653162e+00, -6.10653162e+00,
          3.35808063e+00, 3.35808063e+00, 8.48001719e-01, 8.48001719e-01,
          -2.44581774e-01, -3.96230340e+00, -3.96230340e+00,
          1.62657428e+00, 1.62657428e+00, -3.33153665e-01,
          -3.33153665e-01, 2.49597931e+00, 2.49597931e+00,
          2.28219032e+00, 2.28219032e+00, -1.64929855e+00,
          -1.64929855e+00, 3.59172058e+00, 3.59172058e+00,
          -1.30748391e+00, -1.30748391e+00, 1.51079923e-01,
