%YAML:1.0
---
opencv_ml_svm:
   format: 3
   svmType: C_SVC
   kernel:
      type: LINEAR
   C: 2.9999999999999999e-01
   term_criteria: { epsilon:1.1920928955078125e-07, iterations:1000 }
   var_count: 2000
   class_count: 2
   class_labels: !!opencv-matrix
      rows: 2
      cols: 1
      dt: i
      data: [ -1, 1 ]
   sv_total: 1
   support_vectors:
      - [ 1.34299686e-02, 9.36193392e-03, 8.71231407e-03, 1.30453811e-03,
          3.22325295e-03, 4.52688849e-03, -8.17870535e-03,
          5.31836879e-04, 1.06143707e-03, 3.49863432e-03, 5.09496094e-05,
          -2.59873108e-03, 2.99839163e-03, -4.48367279e-03,
          1.90551579e-03, 4.99553164e-04, -2.99178879e-03,
          2.56961677e-04, -3.16107296e-03, 2.59742397e-03,
          -2.53273593e-03, 3.17905680e-03, -2.45677750e-03,
          -2.58692657e-03, -3.73785687e-03, -3.76303960e-03,
          -1.43275503e-03, 2.27932422e-03, -2.98524997e-03,
          -2.93089775e-03, 3.27695371e-03, 1.70216046e-03,
          -1.52989745e-03, -1.33872579e-03, 2.85149622e-03,
          -9.80871613e-04, -1.56912993e-05, 2.96975013e-05,
          -2.46417546e-03, -4.00709501e-03, 1.05880841e-03,
          1.93137384e-03, -6.27113320e-03, -3.62905371e-03,
          -3.87394684e-04, -3.28891445e-04, -2.58322340e-03,
          4.61716438e-04, 1.23037188e-03, -1.62006519e-03,
          2.72622611e-03, 1.65045436e-03, 5.06901597e-06, 3.38758400e-04,
          -2.11329223e-03, -1.32166280e-03, 1.30174332e-03,
          -4.63945419e-03, -8.71263037e-05, -8.54265410e-04,
          -1.00441673e-03, -3.19513405e-04, -2.00859131e-03,
          2.56046024e-03, 4.18434531e-04, -1.02485577e-03,
          -6.51198789e-05, -5.42073417e-03, 1.77472387e-03,
          3.43942526e-03, 3.96936899e-03, -1.25931296e-03,
          1.05180964e-03, 6.43644482e-04, -2.98343925e-03,
          3.62325506e-03, -3.68902762e-03, -1.44745351e-03,
          6.18818798e-04, -1.78373896e-03, -5.15345077e-04,
          2.68073776e-03, -3.77353467e-03, -1.36556372e-03,
          3.28321825e-03, -5.97249855e-05, -1.54762832e-03,
          6.62603066e-04, 2.22365561e-04, 2.56160129e-04,
          -2.50505912e-03, 2.14357604e-03, -3.48982285e-03,
          3.04788671e-04, -3.21394228e-03, 8.26517644e-04,
          6.26768451e-05, 2.28107953e-03, -4.10102337e-04,
          2.06573959e-03, 1.08496274e-03, -3.70402471e-04,
          1.54946547e-03, 7.38282630e-04, -2.67240102e-04,
          -4.21129254e-04, 1.69999129e-03, 2.94497726e-03,
          -7.95166241e-04, 4.01677011e-04, 3.08600807e-04,
          -7.04352977e-04, -2.74339295e-03, -1.61503011e-03,
          3.79278441e-03, -1.99867552e-03, -2.59003439e-03,
          2.45501124e-03, 1.10922242e-03, 8.45194794e-04,
          -1.34455936e-03, -2.31765956e-03, -1.07556069e-03,
          6.54451025e-04, 2.20341096e-03, -2.33525367e-04,
          -1.24332879e-03, 5.63893293e-04, -8.50633543e-04,
          -3.04628571e-04, 4.90361534e-04, 7.90631111e-06,
          2.36134022e-03, 7.39263720e-04, -2.04082020e-03,
          1.30582124e-03, 1.69552490e-03, -2.97268690e-03,
          -3.75023286e-04, -1.20794936e-03, 4.13958030e-03,
          5.62315574e-03, 4.28919464e-07, -2.61203735e-03,
          7.13096932e-04, -2.04532617e-03, -9.09116119e-04,
          5.78202715e-04, -8.76033737e-04, 7.42705772e-04,
          -1.00260647e-03, 2.48157245e-04, 3.26304627e-03,
          -4.91337851e-04, 1.40969350e-03, 5.91663935e-04,
          -8.42336623e-04, 1.38657389e-03, 4.28043364e-04,
          -4.91769111e-04, -1.83363713e-03, 2.21306621e-03,
          -1.38019386e-03, 2.56583141e-03, -7.34853325e-04,
          -1.56429561e-03, -2.45675532e-04, 8.29665805e-04,
          -5.00783673e-04, 5.82985522e-04, 1.81038189e-03,
          5.55505103e-04, -1.84263999e-03, 2.79326574e-03,
          -1.47782126e-03, 1.17361662e-03, -2.76431511e-03,
          1.51338434e-04, 1.40319823e-03, -5.58574451e-04,
          1.04419340e-03, 9.00531231e-05, -1.72536110e-03,
          -1.39005866e-03, -4.26527637e-04, -9.48145986e-04,
          -2.41429242e-03, -6.14526856e-04, 1.38311763e-04,
          -8.55949620e-05, 1.31495600e-03, 1.39637874e-03,
          4.17101226e-04, 1.45325600e-03, 3.66379810e-03, 1.38199702e-03,
          -6.81631675e-04, 1.86745427e-03, -1.27309060e-03,
          4.19885851e-04, 2.95908394e-04, 5.13841922e-04, 1.86624262e-03,
          1.53724453e-03, 8.54355807e-04, 1.00678857e-03,
          -1.31953173e-04, -1.21020232e-04, -6.43267646e-04,
          1.12341833e-03, 4.09543980e-04, -3.42467043e-04,
          4.75657493e-04, -9.27732763e-05, 1.36558476e-04,
          8.92184500e-04, 6.06862828e-04, 2.30298159e-04, 1.32751046e-03,
          -4.81323310e-04, -1.25567167e-04, 1.16196834e-03,
          -2.85083894e-03, -7.62009659e-05, 1.47039688e-03,
          1.61158328e-04, 6.83584542e-04, 7.19274161e-04,
          -1.10913895e-03, -3.53414495e-03, 1.02575531e-03,
          -1.27133005e-03, -1.74212421e-03, -1.69341266e-03,
          2.16949033e-03, -4.28034604e-04, -7.67898920e-04,
          -2.73867743e-03, -9.52149159e-04, 4.06308129e-04,
          -8.55669670e-04, -1.36437616e-03, -5.18066168e-04,
          -8.55473219e-04, 2.70004326e-04, -1.02754857e-03,
          1.72702956e-03, -5.47217729e-04, 1.05666718e-03,
          5.07597986e-04, 4.17616859e-04, 1.73643150e-03,
          -8.88083188e-04, 9.33932955e-04, 5.62040193e-04,
          -7.37905619e-04, -1.57840375e-03, 6.64746040e-04,
          -1.93910254e-03, 9.50614107e-04, -2.99987150e-04,
          5.71823912e-04, -4.71846550e-04, -3.01321183e-04,
          -1.22407905e-03, 1.31141511e-03, -2.90560792e-03,
          3.44085274e-04, -7.79941212e-04, -1.73547049e-03,
          1.72050984e-03, -9.87705193e-04, 1.37803575e-03,
          1.52602303e-03, -8.13592123e-05, 1.50825741e-04,
          2.37584114e-04, 6.25885208e-04, -1.48186329e-04,
          -4.16515453e-04, 3.63055471e-04, 5.55837003e-04,
          2.26900959e-03, 8.91287986e-04, -9.25013446e-04,
          9.19393147e-04, 1.15880382e-03, 1.85747968e-03, 7.40226475e-04,
          -1.88533647e-03, 6.06646354e-04, -8.26314907e-04,
          1.07982568e-03, 2.29649222e-03, 7.61943113e-04, 9.83486068e-04,
          1.81573516e-04, 1.16164752e-04, 2.87924398e-04, 1.49808184e-04,
          -1.53462621e-04, 2.39823316e-03, -2.10640967e-04,
          -1.39575975e-03, -7.43847748e-04, -1.18256290e-03,
          8.66050017e-04, 7.35183712e-04, -2.07986543e-03,
          5.30764810e-05, -3.73290008e-04, -1.22794055e-03,
          -6.56502380e-04, 6.01257780e-05, 1.68357190e-04,
          1.64160138e-05, 7.74557877e-04, 5.27315715e-04,
          -2.59413391e-05, -1.18037162e-03, -9.59873374e-04,
          -7.58341921e-04, 7.12197914e-04, -1.31766289e-03,
          7.94480613e-04, -4.19204036e-04, 1.85023600e-04,
          1.04426593e-03, 6.29242684e-04, 6.20419625e-04,
          -2.02894211e-03, 1.19122746e-03, 4.29841777e-04,
          -7.85763899e-04, -5.90522599e-04, -3.72309412e-04,
          -7.80498493e-04, -6.55770535e-04, 5.73903963e-04,
          -1.15801275e-04, -7.16671580e-04, -9.55629395e-04,
          -6.24861626e-04, -2.79274973e-04, 4.79265786e-04,
          8.79981788e-04, -1.90338047e-04, 3.53473151e-04,
          -3.64972439e-05, 3.15799844e-06, 2.82578723e-04,
          -1.92092638e-03, -7.12273875e-04, -1.55547261e-03,
          -1.55379146e-03, -5.18107445e-05, -7.85551747e-05,
          8.80681502e-04, -4.87121288e-04, -5.54529543e-04,
          -5.54975762e-04, -7.70326064e-04, -3.28284601e-04,
          1.90738065e-03, -4.54330962e-04, 1.13677219e-04,
          -2.02473384e-05, 1.64079736e-03, -3.68739391e-04,
          1.19880354e-03, 3.72635666e-04, -1.83523807e-04,
          -1.85935976e-04, 1.15427957e-03, 2.91382632e-04,
          8.57419509e-04, -3.21918022e-04, -7.60612311e-04,
          1.71076303e-04, -6.53121853e-04, 6.42781786e-04,
          6.28505193e-04, -1.17760443e-04, -2.63752707e-04,
          -6.58227073e-04, 7.83925119e-04, 4.87012177e-04,
          -2.13950727e-04, 1.31223304e-03, 5.14170330e-04,
          -5.73198740e-05, -7.76662928e-05, -1.83548802e-03,
          9.17080160e-06, -5.80373104e-04, -1.26983400e-03,
          8.33547791e-04, -8.86803144e-04, 8.22803297e-04,
          -1.55060807e-05, -7.64548487e-04, 7.59327086e-04,
          -2.55214749e-04, -1.23277272e-03, -6.21978485e-04,
          2.28493568e-03, 3.36296420e-04, -9.70315959e-05,
          -3.25120258e-04, 1.87921702e-04, -3.98642151e-04,
          6.69834611e-04, -7.94009364e-04, 5.10708545e-04,
          -5.17880253e-04, 1.57322967e-04, 6.65996864e-04,
          -7.96093591e-05, 9.10466595e-04, -1.25437917e-04,
          -9.24731081e-04, -3.00783286e-04, -1.36480376e-05,
          -1.09914719e-04, -7.44648161e-04, 9.43764811e-04,
          6.72769151e-04, -5.42442896e-04, -9.34036332e-04,
          -7.69762846e-04, 5.36358799e-04, 3.34818869e-05,
          6.97618700e-04, 8.33246682e-04, -1.75023696e-03,
          5.07881516e-04, -7.60213239e-04, -3.91607638e-04,
          4.39665746e-05, -4.92055726e-04, 3.26794805e-04,
          5.87487419e-04, -5.61203226e-04, -6.03181543e-04,
          -3.86266387e-04, -1.22508340e-04, 2.40797526e-04,
          5.02204675e-05, 3.07640614e-04, 1.45617669e-04,
          -6.23478321e-04, 1.55170652e-04, 2.17786524e-04,
          -9.09385679e-04, 6.96335919e-04, 1.35613827e-03,
          5.94731653e-04, -4.58505790e-04, -3.35108081e-04,
          -2.47552613e-04, 6.74231342e-05, 4.03449030e-06,
          -1.78714057e-11, 3.79282161e-11, 6.20676011e-11,
          -3.94047781e-11, 1.79609296e-11, -1.09504732e-11,
          1.05949459e-11, 4.83939173e-11, -7.60065708e-12,
          4.37810066e-11, -1.61126754e-11, -4.72337967e-11,
          -4.72337967e-11, -1.61126754e-11, -6.50521303e-18,
          -6.77626358e-18, 3.38852210e-11, 3.38852210e-11,
          3.25501280e-12, 3.79267971e-11, -1.78260826e-11,
          -1.78260826e-11, 5.18063587e-12, -8.41152009e-11,
          -2.47986267e-12, -3.70724389e-11, 7.98521839e-12,
          -1.95532306e-11, 1.02532999e-11, 1.02532999e-11,
          5.33568710e-11, 5.33568710e-11, 3.24846031e-12, 3.24846031e-12,
          1.24074353e-11, 1.24074353e-11, -2.12097822e-11,
          -2.12097822e-11, -3.53527971e-11, 3.60166931e-11,
          2.42753265e-11, 2.42753265e-11, -9.17821808e-12,
          -9.17821808e-12, 3.46812197e-11, 3.46812197e-11,
          -7.17942849e-12, -7.17942849e-12, -6.74828205e-12,
          -2.43864946e-11, 6.50521303e-19, 6.50521303e-19,
          -1.13326848e-11, -1.13326848e-11, 1.23433555e-11,
          -1.78893358e-18, -1.78893358e-18, -5.77716798e-11,
          -1.55451888e-12, -1.55451888e-12, 3.56134371e-12,
          -1.65564021e-11, -1.65564021e-11, -2.76898313e-11,
          -2.76898313e-11, -1.16871218e-11, -1.16871218e-11,
          4.94667241e-18, 4.94667241e-18, 5.71803715e-11, 5.71803715e-11,
          9.30797314e-11, 3.66715408e-11, 3.66715408e-11,
          -1.60719146e-11, 9.58519930e-11, 9.58519930e-11,
          1.71443970e-11, 1.71443970e-11, 4.15119545e-12, 4.15119545e-12,
          -3.13873511e-11, -3.13873511e-11, -3.17884608e-12,
          -3.17884608e-12, -1.40067081e-11, -1.40067081e-11,
          -4.51427871e-12, -9.18861341e-18, -9.18861341e-18,
          -1.40951744e-13, -1.40951744e-13, 4.41296652e-11,
          4.41296652e-11, -1.55854062e-18, -1.55854062e-18,
          1.29324346e-11, 1.29324346e-11, -8.31320516e-12,
          -8.31320516e-12, 5.04396594e-11, -3.29375971e-11,
          -3.29375971e-11, -5.42101086e-20, -5.42101086e-20,
          -2.64923743e-11, -2.64923743e-11, 2.61986353e-11,
          2.61986353e-11, 2.82620732e-11, 2.82620732e-11,
          -1.34676714e-11, -1.34676714e-11, -5.99718756e-12,
          5.19695224e-12, 5.19695224e-12, -7.94912226e-12,
          -7.94912226e-12, -3.03700446e-12, -3.03700446e-12,
          -3.52365706e-19, -3.52365706e-19, 2.19564106e-11,
          2.19564106e-11, -7.59906894e-12, -5.96311195e-19,
          -5.96311195e-19, -4.92359868e-11, 2.34191225e-11,
          2.34191225e-11, 1.27453091e-11, 1.27453091e-11, 2.64245901e-13,
          2.64245901e-13, 2.23966973e-11, 2.23966973e-11, 8.40952794e-11,
          8.40952794e-11, -6.36968776e-19, -6.36968776e-19,
          -3.26169473e-11, -3.26169473e-11, 5.93914067e-12,
          5.93914067e-12, 1.95292359e-11, 1.95292359e-11,
          -2.60728644e-11, -1.36137221e-11, -1.36137221e-11,
          -4.96183780e-12, -4.96183780e-12, -9.43494848e-12,
          -9.43494848e-12, 9.75781955e-19, 9.75781955e-19,
          -1.99746556e-11, -1.99746556e-11, -2.29086975e-11,
          -2.29086975e-11, 3.65511310e-12, 3.65511310e-12,
          -2.21792706e-11, -2.21792706e-11, 2.34214020e-11,
          2.34214020e-11, -2.98155597e-19, -2.98155597e-19,
          -3.28404630e-11, -3.28404630e-11, -1.14202580e-11,
          -1.14202580e-11, 1.06411034e-11, 1.06411034e-11,
          1.69599959e-11, 1.69599959e-11, 4.81090298e-12, 4.81090298e-12,
          6.00559229e-12, -1.30249197e-11, 1.47993909e-11,
          1.47993909e-11, -5.14416808e-12, -5.14416808e-12,
          -1.42683790e-11, -1.42683790e-11, -3.05973961e-11,
          -3.05973961e-11, 1.21972744e-19, 1.21972744e-19,
          -1.23765971e-12, -1.23765971e-12, -1.87606632e-11,
          -1.87606632e-11, -1.15592969e-11, -1.15592969e-11,
          -1.09736343e-11, -1.09736343e-11, 1.98283022e-11,
          1.98283022e-11, 2.21420083e-12, 2.21420083e-12, 3.73847437e-12,
          3.73847437e-12, 9.21571847e-19, 9.21571847e-19, 2.83404290e-12,
          2.83404290e-12, 6.65456275e-12, 6.65456275e-12, 5.82758668e-18,
          5.82758668e-18, 1.83585543e-11, -4.17712080e-11,
          -4.17712080e-11, 4.53296515e-12, 4.53296515e-12,
          -4.33811711e-12, -4.33811711e-12, 2.85170347e-12,
          2.85170347e-12, 3.51269751e-12, 3.51269751e-12, 8.70211195e-12,
          7.04768953e-14, 7.04768953e-14, 9.06972934e-12, 9.06972934e-12,
          7.67905808e-11, 7.67905808e-11, -1.10725509e-11,
          -1.10725509e-11, 1.04196943e-10, 1.04196943e-10,
          -3.34760900e-11, -3.34760900e-11, 1.64460910e-11,
          7.62071049e-12, 7.62071049e-12, 3.88629721e-13, 3.88629721e-13,
          -2.16840434e-19, -2.16840434e-19, 1.10293597e-11,
          1.10293597e-11, -6.59203594e-12, -6.59203594e-12,
          1.48701849e-11, 1.48701849e-11, 5.99021700e-18, 5.99021700e-18,
          2.25498665e-11, 2.25498665e-11, 1.12343320e-11, 1.12343320e-11,
          -6.36997399e-12, -6.36997399e-12, 1.70757609e-11,
          1.70757609e-11, -8.93618426e-12, -8.93618426e-12,
          -1.66550194e-12, -1.66550194e-12, 2.55942299e-11,
          2.55942299e-11, 5.42101086e-19, 5.42101086e-19,
          -3.38312607e-11, -3.38312607e-11, 1.23919121e-11,
          1.23919121e-11, -6.86736822e-12, -6.86736822e-12,
          -2.04256642e-13, -2.04256642e-13, 1.57805921e-11,
          1.57805921e-11, -6.14552506e-12, -6.14552506e-12,
          4.73351480e-12, 4.73351480e-12, 2.01932655e-18, 2.01932655e-18,
          -4.53865786e-13, 1.54713135e-11, 1.54713135e-11,
          -1.42687407e-11, 1.99993338e-11, 1.99993338e-11,
          -5.28548559e-19, -5.28548559e-19, 3.50630948e-11,
          3.50630948e-11, -2.96038367e-12, -2.96038367e-12,
          -1.19262239e-18, -1.19262239e-18, -1.40882954e-12,
          -1.40882954e-12, 2.45711958e-11, 2.45711958e-11,
          -1.11419068e-11, -1.11419068e-11, 1.47003226e-11,
          1.47003226e-11, 1.04868523e-12, 1.04868523e-12, 1.77538106e-18,
          1.77538106e-18, -3.52365706e-19, 1.29256553e-11,
          1.29256553e-11, -1.74923392e-11, 3.07642366e-18,
          3.07642366e-18, 8.99126260e-13, 8.99126260e-13, 3.61852475e-18,
          3.61852475e-18, 5.40013780e-12, 5.40013780e-12, 1.58412328e-11,
          1.58412328e-11, -1.01850646e-11, -1.01850646e-11,
          -1.10717631e-12, -1.10717631e-12, -1.29175065e-11,
          -1.29175065e-11, -5.16386716e-12, -5.16386716e-12,
          -8.58651952e-12, -8.58651952e-12, 7.72494048e-19,
          7.72494048e-19, 1.71726279e-11, 2.26933937e-13, 2.26933937e-13,
          -6.77626358e-20, -6.77626358e-20, -2.42148870e-11,
          -2.42148870e-11, -5.37511919e-12, -5.37511919e-12,
          -9.76839009e-12, -3.26471922e-12, -3.26471922e-12,
          -4.48056045e-12, 3.37296662e-12, 3.37296662e-12,
          1.05686347e-12, 1.05686347e-12, -8.76503470e-12,
          -8.76503470e-12, -2.25299744e-11, -2.25299744e-11,
          1.53598141e-11, 1.53598141e-11, 7.45388994e-20, 7.45388994e-20,
          1.04869065e-12, 1.04869065e-12, 4.53868334e-13, 4.53868334e-13,
          -5.81763240e-12, -5.81763240e-12, 1.76620947e-12,
          1.76620947e-12, -3.30987078e-11, -3.30987078e-11,
          -9.71985296e-13, -8.57509116e-12, -8.57509116e-12,
          -1.63574286e-13, -1.63574286e-13, -6.95258781e-12,
          -6.95258781e-12, -4.53868659e-13, -4.53868659e-13,
          2.65766489e-12, 2.65766489e-12, 7.37560447e-12, 7.37560447e-12,
          -1.96727860e-11, -1.96727860e-11, -1.80251005e-11,
          -1.80251005e-11, -4.74034267e-12, -4.74034267e-12,
          3.73645073e-11, -1.17514843e-11, -1.17514843e-11,
          9.92658906e-12, 9.92658906e-12, -6.36876706e-12,
          -6.36876706e-12, 1.40955607e-13, 1.40955607e-13,
          -1.30799087e-11, 1.23395530e-11, 1.23395530e-11,
          -5.65309464e-13, -5.65309464e-13, -5.19290730e-12,
          -5.19290730e-12, 1.57209315e-18, 1.57209315e-18,
          -1.43084611e-12, -1.43084611e-12, -1.14963187e-11,
          -1.14963187e-11, -8.92350343e-12, -8.92350343e-12,
          1.02999206e-18, 1.02999206e-18, -3.12209286e-12,
          -3.12209286e-12, 2.59556283e-11, 2.59556283e-11,
          2.43448680e-13, 4.15376934e-11, 4.15376934e-11, 2.44476509e-12,
          2.44476509e-12, -2.54836690e-12, -2.54836690e-12,
          -1.04269536e-11, -1.04269536e-11, 3.88431474e-12,
          3.88431474e-12, 7.55334337e-12, 7.55334337e-12, 1.89735380e-19,
          1.89735380e-19, 4.45971315e-11, 2.74202341e-12, 2.74202341e-12,
          9.45018456e-12, 9.45018456e-12, 5.24344457e-13, 5.24344457e-13,
          6.86273087e-13, 6.86273087e-13, 3.83194171e-11, 3.83194171e-11,
          1.47131075e-11, 1.47131075e-11, -5.89347061e-12,
          -5.89347061e-12, -7.65911900e-12, -7.65911900e-12,
          -1.80445806e-12, -1.80445806e-12, -3.22421013e-11,
          -3.22421013e-11, -4.07837089e-12, -4.07837089e-12,
          2.72553768e-12, 2.72553768e-12, 1.30266735e-11, 8.68395254e-13,
          8.68395254e-13, 1.33035484e-11, 1.33035484e-11,
          -5.11776255e-12, -5.11776255e-12, -5.08849516e-12,
          -5.08849516e-12, 5.68853558e-13, 5.68853558e-13,
          2.57298852e-11, 2.57298852e-11, 8.73907283e-12, 8.73907283e-12,
          -1.01112530e-11, -1.01112530e-11, -2.22867402e-11,
          1.80484837e-12, 1.80484837e-12, 2.43804065e-12, 2.43804065e-12,
          1.02236633e-12, 1.02236633e-12, 4.41690694e-12, 4.41690694e-12,
          -4.35687998e-13, -4.35687998e-13, -1.47016704e-11,
          -1.47016704e-11, -2.51629325e-11, -2.51629325e-11,
          -6.65440966e-11, -6.65440966e-11, -1.24066521e-11,
          -1.24066521e-11, 1.59326870e-12, 1.59326870e-12,
          5.33861670e-11, 1.25202140e-11, 1.25202140e-11, 6.86786869e-12,
          6.86786869e-12, 1.03131945e-12, 1.03131945e-12,
          -2.90148426e-11, -2.90148426e-11, 2.33625359e-12,
          2.33625359e-12, 4.64911660e-12, 4.64911660e-12, 2.03167452e-12,
          2.03167452e-12, -1.16018020e-11, -1.16018020e-11,
          4.66736372e-12, 4.66736372e-12, -9.57461367e-12,
          -9.57461367e-12, -1.80014597e-12, -1.80014597e-12,
          -1.79140828e-13, -1.79140828e-13, -1.31534513e-13,
          -1.31534513e-13, 2.44216158e-11, 2.44216158e-11,
          -2.11459635e-11, -2.11459635e-11, 2.26934652e-11,
          2.26934652e-11, 8.94466792e-19, 8.94466792e-19, 4.30000480e-12,
          -7.80521643e-13, -7.80521643e-13, 1.03842880e-11,
          1.03842880e-11, -3.09453435e-11, -3.09453435e-11,
          -1.76095024e-11, -1.76095024e-11, -1.74820228e-11,
          -1.74820228e-11, -1.49117454e-11, -1.49117454e-11,
          -8.51956472e-13, -8.51956472e-13, -9.23445608e-12,
          -9.23445608e-12, 4.15836690e-13, 4.15836690e-13,
          6.49360470e-12, 4.14166878e-12, 4.14166878e-12, 1.97825454e-11,
          1.97825454e-11, 1.58564568e-18, 1.58564568e-18, 3.07565987e-11,
          3.07565987e-11, -3.43959914e-13, 6.72248672e-12,
          6.72248672e-12, -4.25827429e-12, -4.25827429e-12,
          -9.78611983e-12, -9.78611983e-12, -1.05232108e-11,
          -1.05232108e-11, -3.23631204e-12, -3.23631204e-12,
          3.90465047e-12, 3.90465047e-12, 1.16551734e-18, 4.49951139e-13,
          4.49951139e-13, -1.07766235e-11, -1.07766235e-11,
          3.93319665e-12, 3.93319665e-12, -2.12396559e-11,
          -2.12396559e-11, 6.11783237e-12, 6.11783237e-12,
          8.67441362e-12, 8.67441362e-12, -9.29401087e-12,
          -9.29401087e-12, 1.68730221e-11, 1.68730221e-11,
          4.74129763e-12, 4.74129763e-12, 1.95100845e-11, 1.95100845e-11,
          2.64433375e-12, 2.64433375e-12, -8.06375366e-19,
          -8.06375366e-19, -1.35158412e-11, -1.35158412e-11,
          9.58523083e-13, 9.58523083e-13, -6.91078444e-12,
          -6.91078444e-12, 2.16840434e-19, 1.63573243e-13,
          1.63573243e-13, -2.46994103e-13, -2.46994103e-13,
          5.05283003e-11, 5.05283003e-11, 4.53867575e-13, 4.53867575e-13,
          -6.89725946e-13, -6.89725946e-13, -3.96027785e-12,
          3.22191948e-12, 3.22191948e-12, -1.93104283e-11,
          -1.93104283e-11, 8.21231321e-13, 8.21231321e-13,
          1.96303546e-11, 1.96303546e-11, -3.38606530e-12,
          -3.38606530e-12, -4.52186118e-12, -4.52186118e-12,
          9.48676901e-20, 9.48676901e-20, 3.83691308e-11, 3.83691308e-11,
          -1.18515094e-11, -1.18515094e-11, 8.16850060e-12,
          8.16850060e-12, -2.95199087e-12, -2.95199087e-12,
          4.90019440e-12, 4.90019440e-12, -9.42854909e-12,
          -9.42854909e-12, 5.43304507e-12, -7.68035982e-12,
          -7.68035982e-12, 2.26934736e-13, 2.26934736e-13,
          3.26762749e-11, 3.26762749e-11, 1.80823759e-12,
          -6.05133174e-12, -6.05133174e-12, -2.34511000e-12,
          -2.34511000e-12, -2.43815081e-12, -2.43815081e-12,
          1.30080087e-11, 1.30080087e-11, 1.14385142e-11, 1.14385142e-11,
          9.72083606e-14, 9.72083606e-14, -5.01130977e-11,
          -5.01130977e-11, -1.38696936e-11, -1.38696936e-11,
          -5.00815481e-13, -5.00815481e-13, 9.41642489e-13,
          -1.19943014e-11, -1.19943014e-11, -7.39100968e-12,
          -7.39100968e-12, 1.71403809e-12, 1.71403809e-12,
          -1.01734241e-13, -1.01734241e-13, -2.28544744e-12,
          -2.28544744e-12, -1.59202588e-12, -1.59202588e-12,
          2.30777810e-11, 2.30777810e-11, -7.32774171e-12,
          -7.32774171e-12, 8.54694787e-12, 8.54694787e-12,
          -4.20968734e-13, -4.20968734e-13, -2.65305161e-12,
          8.57585617e-12, 3.01758792e-12, 3.01758792e-12,
          -4.78931391e-12, -4.78931391e-12, 3.63977598e-11,
          3.63977598e-11, -1.10531148e-12, -1.10531148e-12,
          9.16049875e-12, 9.16049875e-12, 5.62517914e-12, 5.62517914e-12,
          2.93298090e-12, 2.93298090e-12, -6.95007637e-12,
          -6.95007637e-12, 9.59619363e-12, 9.59619363e-12,
          2.11691688e-12, 2.11691688e-12, 1.18584613e-18, 1.18584613e-18,
          -1.14360930e-12, -1.14360930e-12, 8.02650654e-12,
          8.02650654e-12, -1.27988624e-12, -1.27988624e-12,
          -7.07735606e-12, -7.07735606e-12, -2.90374257e-12,
          -2.90374257e-12, 4.06575815e-20, 4.06575815e-20,
          2.56474984e-12, 2.56474984e-12, 4.08664769e-12,
          -2.85170303e-12, -2.85170303e-12, -3.04931861e-19,
          -3.04931861e-19, -4.81713671e-12, -4.81713671e-12,
          4.64321420e-12, 4.64321420e-12, 2.96223740e-11, 2.96223740e-11,
          4.53866925e-13, 4.53866925e-13, -8.95482907e-12,
          -8.95482907e-12, 1.24265843e-12, 1.24265843e-12,
          -5.42821734e-12, -5.42821734e-12, -3.58674245e-12,
          -3.58674245e-12, -5.34879432e-12, -5.34879432e-12,
          -4.48179254e-12, -4.48179254e-12, 1.19317750e-12,
          1.19317750e-12, 2.87485400e-12, 2.87485400e-12, 1.86668714e-12,
          1.86668714e-12, 6.34824181e-12, 6.34824181e-12,
          -4.47520840e-12, -4.47520840e-12, 3.14313007e-12,
          3.14313007e-12, 2.16453921e-11, -7.91910428e-13,
          -7.91910428e-13, 6.35099449e-13, 6.35099449e-13,
          -1.15249928e-11, -1.15249928e-11, -3.58971511e-12,
          -3.58971511e-12, 3.50442592e-12, 3.50442592e-12,
          -4.24581160e-12, -4.24581160e-12, 1.15645763e-12,
          1.03356976e-11, 1.03356976e-11, 3.16250116e-11, 3.16250116e-11,
          -5.28548559e-19, -5.28548559e-19, 2.03287907e-20,
          -6.52714807e-13, -6.52714807e-13, 1.13316847e-11,
          1.13316847e-11, -1.19596095e-11, -1.19596095e-11,
          -9.45628645e-12, -9.45628645e-12, -5.98681434e-12,
          -5.98681434e-12, -1.66197373e-12, -1.66197373e-12,
          -4.57602652e-13, -4.57602652e-13, 2.48270566e-12,
          -2.20228566e-19, -2.20228566e-19, -1.95916894e-11,
          -1.95916894e-11, 1.00308277e-11, 1.00308277e-11,
          -6.36968776e-19, -6.36968776e-19, 4.57505724e-13,
          4.57505724e-13, -1.10531061e-12, -1.10531061e-12,
          -4.63430509e-12, -4.63430509e-12, 3.64062648e-13,
          3.64062648e-13, -2.16501938e-11, -2.16501938e-11,
          3.78031721e-12, 3.78031721e-12, -1.18545679e-12,
          -1.18545679e-12, 2.58295468e-12, 2.58295468e-12,
          1.11343519e-12, 1.11343519e-12, 1.32807643e-12, 1.32807643e-12,
          -1.31917862e-11, -1.31917862e-11, -5.27091435e-12,
          -5.27091435e-12, 1.02674822e-11, 1.02674822e-11,
          4.20787754e-13, 4.20787754e-13, -4.02816929e-12,
          -4.02816929e-12, 3.73642089e-12, 3.73642089e-12,
          -2.48430031e-12, -2.48430031e-12, -3.31824433e-12,
          -3.31824433e-12, 2.60661962e-13, 2.60661962e-13,
          7.12925216e-13, 7.12925216e-13, 5.16723851e-11, 5.16723851e-11,
          -1.32376141e-11, -1.32376141e-11, -1.49077799e-19,
          -1.49077799e-19, -5.18419856e-12, -5.18419856e-12,
          -7.00321658e-12, -7.00321658e-12, 6.53506589e-12,
          6.53506589e-12, 1.63573243e-13, 1.63573243e-13, 1.37048814e-12,
          1.37048814e-12, 1.20667514e-13, 1.20667514e-13, 1.12485975e-18,
          1.12485975e-18, 3.05234180e-12, 3.05234180e-12,
          -3.75208409e-13, -3.75208409e-13, 1.49077799e-19,
          1.49077799e-19, 6.39107636e-13, 6.39107636e-13,
          -3.58085892e-12, -3.58085892e-12, 7.06624819e-12,
          7.06624819e-12, -7.49758589e-12, -7.49758589e-12,
          -1.12514520e-11, -9.20309662e-12, -9.20309662e-12,
          -8.98983904e-13, -8.98983904e-13, 6.27765132e-11,
          6.27765132e-11, -6.13738982e-15, -6.13738982e-15,
          -5.70102862e-12, -5.70102862e-12, 4.96398582e-12,
          4.96398582e-12, -8.47580402e-14, -8.40152860e-12,
          -8.40152860e-12, -1.99646549e-12, -1.99646549e-12,
          5.40380110e-12, 5.40380110e-12, -2.45850107e-12,
          -2.45850107e-12, -8.97944479e-12, -8.97944479e-12,
          -8.47496899e-12, -8.47496899e-12, -5.91824853e-12,
          -5.91824853e-12, -2.68351942e-12, -2.68351942e-12,
          4.31641788e-12, 4.31641788e-12, 1.81653705e-12, 1.81653705e-12,
          3.79324220e-12, 3.79324220e-12, -1.38336660e-11,
          -1.38336660e-11, -2.20228566e-19, -2.20228566e-19,
          4.55212474e-13, 2.40741807e-13, 2.40741807e-13,
          -8.97629800e-12, -8.97629800e-12, 2.31155004e-12,
          2.31155004e-12, 6.18571513e-12, 6.18571513e-12, 2.89651267e-12,
          2.89651267e-12, 1.43512407e-11, 1.43512407e-11, 4.06216337e-12,
          4.06216337e-12, 1.94876797e-12, 1.94876797e-12,
          -1.75830542e-12, -1.75830542e-12, -1.82733928e-12,
          -1.82733928e-12, -2.27955025e-12, -2.27955025e-12,
          4.15920380e-12, 4.15920380e-12, 6.06320956e-14, 6.06320956e-14,
          -1.15201642e-12, -1.15201642e-12, -4.71386038e-12,
          -4.71386038e-12, -2.98158286e-12, -2.98158286e-12,
          5.26327723e-12, 5.26327723e-12, -1.61021446e-12,
          -1.61021446e-12, -1.90314149e-12, -1.90314149e-12,
          1.13466609e-13, 1.13466609e-13, 9.63152821e-12, 9.63152821e-12,
          3.75473888e-11, 3.75473888e-11, -1.13466975e-13,
          -1.13466975e-13, -1.55919340e-11, -1.55919340e-11,
          -4.43250037e-12, -4.43250037e-12, 4.52986954e-12,
          4.52986954e-12, -7.12926571e-13, -7.12926571e-13,
          2.35595809e-12, 2.35595809e-12, 1.69406589e-20, 1.69406589e-20,
          -1.00073335e-11, -1.00073335e-11, -5.18023211e-12,
          -5.18023211e-12, -2.44742837e-11, -2.44742837e-11,
          -1.36283638e-12, -1.36283638e-12, 3.55487926e-12,
          3.55487926e-12, -1.72907890e-12, -1.72907890e-12,
          1.93624565e-12, 1.93624565e-12, -2.12684059e-12,
          -2.12684059e-12, 5.38676200e-13, 5.38676200e-13,
          -2.58953145e-12, -2.58953145e-12, 9.15818116e-12,
          9.15818116e-12, 3.52967785e-12, 3.52967785e-12, 4.10099212e-12,
          4.10099212e-12, -1.02316098e-11, -1.02316098e-11,
          -4.12484933e-12, -4.12484933e-12, -1.84952791e-12,
          -7.97034400e-12, -7.97034400e-12, -2.81607862e-11,
          -2.81607862e-11, -2.31931661e-13, -2.31931661e-13,
          -2.97171879e-12, -2.97171879e-12, -7.55209003e-12,
          -7.55209003e-12, -6.38359201e-12, -6.38359201e-12,
          1.63469689e-11, 1.63469689e-11, -1.97661917e-12,
          -1.97661917e-12, -5.67621774e-12, -5.67621774e-12,
          2.60886148e-19, 2.60886148e-19, 3.89826582e-12, 3.89826582e-12,
          -9.21415028e-12, -9.21415028e-12, -5.71552571e-12,
          -5.71552571e-12, -1.00414971e-11, -1.00414971e-11,
          7.27680156e-12, 7.35275122e-12, 7.35275122e-12, 1.62210471e-11,
          1.62210471e-11, -3.63129232e-12, -3.63129232e-12,
          5.98336485e-12, 5.98336485e-12, 1.00404309e-12, 1.00404309e-12,
          2.09006892e-11, 2.09006892e-11, -5.06385895e-13,
          -5.06385895e-13, -3.78042389e-12, -3.78042389e-12,
          7.36694505e-13, 7.36694505e-13, -1.53379089e-12,
          -1.53379089e-12, 3.44762999e-12, 3.44762999e-12,
          -3.76854320e-12, -3.76854320e-12, 3.35397313e-12,
          3.35397313e-12, 6.05611178e-12, 6.05611178e-12, 2.78742827e-12,
          2.78742827e-12, 5.79289047e-12, 5.79289047e-12, 4.34953695e-13,
          4.34953695e-13, -9.68985498e-14, -9.68985498e-14,
          -9.02093938e-13, -9.02093938e-13, -5.16685869e-12,
          -5.16685869e-12, -8.94812609e-12, -8.94812609e-12,
          -1.78267383e-12, -1.78267383e-12, 1.42451823e-11,
          1.42451823e-11, -1.07408505e-12, -1.07408505e-12,
          9.65727671e-12, 9.65727671e-12, 8.35799398e-12, 8.35799398e-12,
          -4.51438062e-12, -4.51438062e-12, -2.26933896e-13,
          -7.26460938e-13, -7.26460938e-13, -2.32066861e-13,
          -2.32066861e-13, 2.33618940e-12, 2.33618940e-12,
          -5.03289142e-13, -5.03289142e-13, -4.89525044e-12,
          -4.89525044e-12, -1.69406589e-19, -1.69406589e-19,
          -1.34092097e-12, -1.34092097e-12, 9.24866867e-12,
          9.24866867e-12, -8.18476623e-12, -8.18476623e-12,
          1.30026794e-13, 1.30026794e-13, 4.11798156e-12, 4.11798156e-12,
          -5.55541615e-13, -5.55541615e-13, -7.06579760e-13,
          -7.06579760e-13, -8.60697798e-12, -8.60697798e-12,
          -2.08282393e-12, 2.43710998e-12, 6.52918908e-12,
          6.52918908e-12, 1.83518760e-12, 1.83518760e-12,
          -4.14564520e-12, -4.14564520e-12, -4.93528222e-12,
          -4.93528222e-12, -7.32039342e-12, -7.32039342e-12,
          3.13807313e-12, 3.13807313e-12, 6.40356908e-19, 6.40356908e-19,
          -1.91756593e-12, -1.91756593e-12, 2.15547632e-12,
          2.15547632e-12, 7.63842028e-12, 7.63842028e-12,
          -4.90580753e-12, -4.90580753e-12, 1.42393812e-12,
          1.42393812e-12, -2.68291964e-12, 6.34144213e-13,
          6.34144213e-13, -1.35156331e-11, -1.35156331e-11,
          2.00759244e-12, 2.00759244e-12, 9.94663900e-12, 9.94663900e-12,
          -6.30192513e-19, -6.30192513e-19, 2.52404326e-12,
          2.52404326e-12, 1.18584613e-19, 1.18584613e-19,
          -3.82858892e-19, -3.82858892e-19, -1.88382487e-11,
          -1.88382487e-11, -2.80840260e-12, -2.80840260e-12,
          5.67167353e-13, 5.67167353e-13, 1.00693126e-11, 1.00693126e-11,
          -3.98375733e-12, -3.98375733e-12, -1.98853304e-12,
          -1.98853304e-12, 4.37069001e-19, 4.37069001e-19,
          -7.11033532e-12, -7.11033532e-12, -5.34112359e-13,
          -5.34112359e-13, 1.00657807e-12, 1.00657807e-12,
          -5.95062801e-12, -5.95062801e-12, -3.87055752e-12,
          -3.87055752e-12, -5.33672152e-12, -5.33672152e-12,
          2.81864311e-12, 2.81864311e-12, -6.92528630e-12,
          -6.92528630e-12, 1.99359734e-12, 1.99359734e-12,
          -1.25089826e-13, -1.25089826e-13, 1.06566318e-11,
          1.06566318e-11, -1.53239389e-12, -1.53239389e-12,
          -4.06575815e-20, -4.06575815e-20, 5.82836253e-12,
          5.82836253e-12, 3.06544612e-12, 3.06544612e-12, 3.51885643e-12,
          3.51885643e-12, 3.54798330e-12, 3.54798330e-12, 5.40393424e-12,
          5.40393424e-12, 2.58546027e-12, 2.58546027e-12,
          -1.33831206e-19, -1.33831206e-19, -3.90261418e-13,
          -3.90261418e-13, 1.02525508e-12, 1.02525508e-12,
          -1.36806723e-12, -1.36806723e-12, 1.13467050e-13,
          1.13467050e-13, 7.83292181e-12, 7.83292181e-12, 4.31183951e-12,
          2.38200583e-12, 2.38200583e-12, 3.44790537e-12, 3.44790537e-12,
          -7.11507676e-20, -7.11507676e-20, 4.66723795e-12,
          4.66723795e-12, 3.90261147e-13, 3.90261147e-13,
          -1.65375439e-12, -1.65375439e-12, 7.52859011e-14,
          7.52859011e-14, -2.57498016e-19, -2.57498016e-19,
          -7.74421152e-12, -7.74421152e-12, -1.15534871e-12,
          -1.15534871e-12, -3.19808850e-12, -3.19808850e-12,
          8.58948589e-12, 8.58948589e-12, -1.24195803e-12,
          -1.24195803e-12, -5.60880349e-14, -5.60880349e-14,
          6.47296583e-12, 6.47296583e-12, 1.90730830e-12, 1.90730830e-12,
          1.14983966e-12, 1.14983966e-12, -6.06591210e-12,
          -6.06591210e-12, -2.96558784e-12, -2.96558784e-12,
          -2.73978843e-12, -2.73978843e-12, 1.25111000e-12,
          1.25111000e-12, -5.95694848e-12, -5.95694848e-12,
          1.70145712e-12, 1.70145712e-12, 2.71618578e-12,
          -3.79959519e-12, -3.79959519e-12, 3.14049662e-15,
          3.14049662e-15, 2.98344791e-12, 2.98344791e-12,
          -1.24678805e-12, -1.24678805e-12, -8.09278588e-13,
          -8.09278588e-13, -1.76182853e-19, -1.76182853e-19,
          5.25160427e-20, 5.25160427e-20, -4.34506467e-12,
          -4.34506467e-12, 9.36270072e-12, 9.36270072e-12,
          -1.98314282e-12, -3.61805768e-12, -3.61805768e-12,
          5.03728027e-13, 1.62726321e-12, 1.62726321e-12,
          -1.44724779e-11, -1.44724779e-11, -8.42774418e-13,
          -8.42774418e-13, 2.24807022e-12, 2.24807022e-12,
          -1.83846231e-14, -1.83846231e-14, 6.60685699e-20,
          6.60685699e-20, -1.68452069e-12, -1.68452069e-12,
          -1.98774460e-12, -1.98774460e-12, 7.13789227e-12,
          7.13789227e-12, 1.22793128e-12, 1.22793128e-12, 1.01643954e-19,
          1.01643954e-19, 6.76319591e-12, 6.76319591e-12,
          -1.10372627e-12, -1.10372627e-12, 1.78156264e-13,
          1.78156264e-13, -9.96263185e-13, -9.96263185e-13,
          3.91199833e-12, 3.91199833e-12, -1.03057224e-11,
          -1.03057224e-11, -1.38663137e-12, -1.38663137e-12,
          -4.49964312e-13, 6.88587772e-12, 6.88587772e-12,
          -3.70804819e-12, -3.70804819e-12, -4.34997253e-13,
          -4.34997253e-13, -2.83718931e-13, -2.46318504e-12,
          -2.46318504e-12, 8.16241768e-13, 8.16241768e-13,
          4.60785923e-19, 4.60785923e-19, -2.34149158e-12,
          -2.34149158e-12, 1.82890118e-12, 1.82890118e-12,
          2.11735534e-12, -4.17343298e-13, -4.17343298e-13,
          4.23516474e-19, 4.23516474e-19, -4.14488539e-12,
          -4.14488539e-12, -9.35149636e-13, -9.35149636e-13,
          2.37852077e-12, 2.37852077e-12, -4.89134644e-12,
          -4.89134644e-12, 4.00232798e-12, 4.00232798e-12,
          -4.53985374e-12, -4.53985374e-12, 5.68647397e-13,
          5.68647397e-13, 1.54050817e-13, 1.54050817e-13,
          -5.14227549e-12, 1.03805940e-12, 1.03805940e-12,
          4.89258893e-15, 4.89258893e-15, 3.01588919e-12, 3.01588919e-12,
          3.77284705e-12, 3.77284705e-12, -7.31180221e-12,
          -7.31180221e-12, 2.42388162e-12, 2.42388162e-12,
          -1.82582525e-11, -1.82582525e-11, -1.88411504e-12,
          -1.88411504e-12, -3.61273782e-13, -3.61273782e-13,
          1.28879052e-11, 1.28879052e-11, -1.00162229e-13,
          -1.00162229e-13, -6.86845763e-12, -6.86845763e-12,
          1.82071827e-12, 1.82071827e-12, 4.17676570e-12, 4.17676570e-12,
          -2.86039985e-12, -2.86039985e-12, -1.73240827e-12,
          -1.73240827e-12, 8.95933338e-13, 8.95933338e-13,
          -2.23831609e-12, -2.23831609e-12, 1.58279802e-12,
          1.58279802e-12, -4.32166542e-12, -4.32166542e-12,
          -4.85541783e-13, -4.85541783e-13, 3.83928696e-12,
          3.83928696e-12, 2.14654314e-12, 2.14654314e-12,
          -3.32901697e-12, -3.32901697e-12, -3.40477473e-12,
          -3.40477473e-12, -4.04369637e-12, -4.04369637e-12,
          -1.06987975e-12, -1.06987975e-12, -1.66044012e-12,
          -1.66044012e-12, -2.57498016e-19, -2.57498016e-19,
          -2.30825927e-12, -2.30825927e-12, -4.62098025e-12,
          -4.62098025e-12, 6.00919184e-12, 6.00919184e-12,
          1.86706792e-12, 1.86706792e-12, -1.31709173e-12,
          -1.31709173e-12, 8.77831315e-12, 8.77831315e-12,
          -1.35499955e-12, -1.79039550e-13, -1.79039550e-13,
          -1.20331143e-12, -1.20331143e-12, -6.77226200e-12,
          -6.77226200e-12, 2.05669791e-13, 2.05669791e-13,
          9.26897448e-13, 3.41591729e-12, 3.41591729e-12, 3.22952927e-12,
          3.22952927e-12, 3.18115515e-13, 3.18115515e-13, 8.48132545e-13,
          8.48132545e-13, 5.61571969e-12, 2.84603070e-19, 2.84603070e-19,
          2.35851486e-13, 2.35851486e-13, 2.39109812e-13, 2.39109812e-13,
          5.71986972e-11, 5.71986972e-11, -7.25707309e-13,
          -1.78528936e-12, -1.78528936e-12, 2.27791614e-12,
          2.27791614e-12, 1.32605663e-11, 1.32605663e-11,
          -1.63176731e-12, -3.08371037e-12, -3.08371037e-12,
          3.69808177e-12, 3.69808177e-12, -3.79625975e-12,
          -3.79625975e-12, -2.17803249e-12, -2.17803249e-12,
          -9.81993458e-13, -1.38038669e-12, -1.38038669e-12,
          6.25142212e-12, 6.25142212e-12, -1.00664973e-12,
          -1.00664973e-12, 4.07077583e-12, 4.07077583e-12,
          -1.13999186e-12, -1.13999186e-12, -1.58353127e-12,
          -1.58353127e-12, -6.19567375e-12, -6.19567375e-12,
          -8.31491993e-13, -8.31491993e-13, -1.33084949e-11,
          -1.33084949e-11, 5.37530177e-12, 5.37530177e-12,
          -4.51072122e-13, -4.51072122e-13, -3.43106359e-12,
          -3.43106359e-12, -2.56619986e-12, -2.56619986e-12,
          1.20278679e-19, -3.42405195e-13, -3.42405195e-13,
          4.30758901e-12, 4.30758901e-12, -4.72140610e-13,
          -4.72140610e-13, 1.66018458e-19, 1.66018458e-19,
          -1.47524820e-12, -1.47524820e-12, -2.31254442e-13,
          -2.31254442e-13, -1.14938766e-12, -1.14938766e-12,
          -2.18991622e-12, -2.18991622e-12, -2.05376965e-11,
          -2.05376965e-11, 4.05697004e-12, 4.05697004e-12,
          4.54295672e-12 ]
   uncompressed_sv_total: 91
   uncompressed_support_vectors:
      - [ 1.65738869e+01, -5.88215981e+01, 6.63623428e+01,
          -9.48119583e+01, 4.93613386e+00, 8.62184906e+01,
          -7.13622437e+01, 4.21381378e+01, -1.10106592e+01,
          -4.06130180e+01, 2.35715656e+01, 6.36569099e+01,
          -4.89911385e+01, 1.44590445e+01, 3.42922363e+01,
          -4.37676620e+01, -1.20696402e+01, -2.67239494e+01,
          6.37254953e+00, -5.19540024e+01, 2.52240524e+01,
          -3.24743195e+01, -2.54475517e+01, 6.12416124e+00,
          6.07330704e+01, -2.11335869e+01, 1.68073988e+00,
          4.33714790e+01, -2.00034356e+00, -3.61451721e+01,
          4.86199913e+01, 1.31712742e+01, 3.19997978e+01,
          -1.24759064e+01, -2.22684441e+01, -2.03081417e+01,
          -1.33264561e+01, -2.85458736e+01, 3.06024075e+01,
          3.53420105e+01, -7.15572309e+00, -2.48725605e+01,
          3.34335861e+01, 7.13505411e+00, 2.86616230e+00, 1.01345575e+00,
          3.64569283e+01, -2.43709755e+01, 3.17498827e+00,
          6.12330627e+00, -3.57500958e+00, -5.85272980e+00,
          -7.88424921e+00, 1.42442303e+01, 7.19700289e+00,
          -2.20717220e+01, -6.24798250e+00, 1.80049953e+01,
          -1.17262287e+01, -3.03947506e+01, -7.85758018e-01,
          -2.84483314e+00, -1.39979467e+01, -4.25211000e+00,
          -1.78947716e+01, 1.00687981e+01, -3.24957037e+00,
          -2.50915985e+01, 1.42529860e+01, -3.10055218e+01,
          7.95349979e+00, 5.83380699e+00, 2.14287071e+01, 1.42654896e+01,
          1.04683852e+00, -1.86183701e+01, 3.99532223e+00,
          -1.82314301e+00, -5.05562687e+00, 1.65388603e+01,
          1.67223053e+01, -3.25586243e+01, -5.18306065e+00,
          2.51287389e+00, 1.23899965e+01, 1.14563704e+01, 3.56680393e+00,
          2.10483122e+00, 2.48885584e+00, -7.14285707e+00,
          8.64036500e-01, -1.16515360e+01, -2.68630772e+01,
          -9.55409527e+00, -3.64535213e+00, -1.05023444e+00,
          -4.74802828e+00, 7.43182611e+00, -1.35168743e+00,
          -9.57355595e+00, 1.70329647e+01, 2.29144554e+01,
          -6.08340597e+00, -1.00296192e+01, 8.96927261e+00,
          2.79013538e+00, -1.54949307e+00, -7.03034019e+00,
          -1.64123287e+01, -1.02043381e+01, 1.25406446e+01,
          -1.12778497e+00, -1.00483961e+01, 2.99715847e-01,
          1.76676502e+01, 1.03495150e+01, -9.32953548e+00,
          4.89185286e+00, -2.21299438e+01, 3.42580962e+00,
          1.35515642e+01, 6.24321890e+00, -5.53055429e+00,
          -1.29509239e+01, -2.69901252e+00, -2.68437004e+01,
          2.43024445e+00, -1.98529167e+01, -6.09149504e+00,
          -5.71869659e+00, 5.19895506e+00, -2.56586719e+00,
          -6.01377428e-01, 6.02702284e+00, 6.05439043e+00,
          -2.51362038e+00, -1.61161728e+01, 1.84747391e+01,
          2.54136181e+01, -4.54286623e+00, -9.01030350e+00,
          -1.22103367e+01, -1.81356966e+00, -1.69938481e+00,
          1.32182980e+01, 8.80117512e+00, 2.67535377e+00, 5.71764755e+00,
          -3.45686316e+00, 1.05823536e+01, -2.32532082e+01,
          2.52785653e-01, -8.29429626e+00, 8.57005787e+00,
          -9.44313145e+00, 9.54977036e+00, -9.64622116e+00,
          1.95896816e+01, -1.65986633e+01, -1.86070430e+00,
          1.99642444e+00, 1.61641617e+01, 6.03800774e+00, 5.38554847e-01,
          1.15310669e+01, -9.28707504e+00, 1.31969271e+01,
          8.28154087e+00, 6.24743462e-01, -1.56123543e+01,
          9.71931362e+00, -1.34073019e+01, -7.19004536e+00,
          1.60919952e+01, -1.31678982e+01, -1.02156239e+01,
          -1.84596646e+00, -8.46026421e+00, 4.98004341e+00,
          -9.80375957e+00, -8.80027962e+00, 6.80999756e+00,
          -5.68335962e+00, 1.57962017e+01, 5.48527002e+00,
          2.93772101e+00, 4.34193420e+00, -2.69427508e-01,
          2.75628996e+00, 1.14892015e+01, 2.20281696e+00,
          -1.09228671e+00, 7.57259655e+00, -1.85200953e+00,
          1.54715431e+00, -1.64402122e+01, 1.05906324e+01,
          1.01045728e+00, 1.75406475e+01, 6.87568283e+00,
          -2.77792782e-01, 6.73711967e+00, -4.93010759e+00,
          2.76499724e+00, 5.03117442e-01, 1.13325920e+01, 6.01168156e+00,
          9.35216427e+00, -5.88079214e+00, 3.80876136e+00,
          -1.22845495e+00, 6.89951944e+00, -5.89841700e+00,
          1.06312647e+01, 2.41107631e+00, 1.23846712e+01, 7.47189093e+00,
          -1.88609827e+00, -5.28084946e+00, 1.54924202e+01,
          -1.68885696e+00, -3.51848054e+00, 2.33614235e+01,
          -2.29923115e+01, -5.47341442e+00, 9.38675880e+00,
          -5.33250809e+00, -2.54038763e+00, 9.16866302e+00,
          2.47342801e+00, 5.71846199e+00, -9.98312950e+00,
          -5.90783978e+00, 9.74890423e+00, 1.21670713e+01,
          -9.67373943e+00, 6.48748922e+00, 1.35063715e+01,
          2.97077322e+00, -7.41382742e+00, 7.79097033e+00,
          1.75043023e+00, 7.75819063e+00, 9.23768425e+00,
          -2.81551623e+00, -4.59693527e+00, 5.05789709e+00,
          -9.80017281e+00, 7.06920052e+00, 4.89025593e+00,
          5.17274094e+00, 2.12590003e+00, 1.22730999e+01,
          -1.09225869e+00, 1.78573847e+00, -8.06719139e-02,
          9.92165661e+00, 6.73873949e+00, 4.61304283e+00,
          -9.51519299e+00, -2.79221177e+00, -7.82703114e+00,
          -1.37215586e+01, 8.53425598e+00, -7.88218355e+00,
          1.14774246e+01, 2.24993496e+01, -9.06073666e+00,
          1.00268898e+01, 3.76132458e-01, 3.71617019e-01, 1.22713823e+01,
          -7.88303852e+00, 8.22687912e+00, -1.29046679e+01,
          -4.73504257e+00, -2.63302422e+00, -1.23498888e+01,
          -2.69626808e+00, -5.94595480e+00, -1.41136348e+00,
          -2.54445243e+00, -1.65965481e+01, -1.26239052e+01,
          -3.94070601e+00, 3.67773342e+00, -8.03646946e+00,
          -4.58575487e+00, 1.24474983e+01, -3.88339615e+00,
          -2.60293007e+00, 2.19392920e+00, 4.00018644e+00,
          -3.79024220e+00, -2.39870355e-01, 1.42816896e+01,
          6.18224573e+00, 5.22066927e+00, 6.23288155e+00, 9.47810709e-02,
          1.03592949e+01, 3.87069058e+00, 5.24191332e+00,
          -2.22048068e+00, -7.96442223e+00, -2.17724395e+00,
          -9.38752413e-01, 6.37861872e+00, -2.09819388e+00,
          -4.23658037e+00, 5.74273062e+00, -5.07434845e-01,
          -3.57056952e+00, -7.22787619e+00, -2.62093997e+00,
          -7.15267301e-01, 2.60999948e-01, -3.95927638e-01,
          -2.12533617e+00, 1.21778655e+00, -1.07846394e+01,
          4.71543932e+00, -1.21622667e+01, -2.04913068e+00,
          -3.16328144e+00, -9.93631554e+00, -1.59875307e+01,
          -6.77814245e+00, -5.58729982e+00, 6.57263660e+00,
          1.26023436e+01, 7.70299673e-01, -4.79883957e+00,
          -7.11082816e-01, 1.45583506e+01, -6.79915094e+00,
          -1.91578627e+00, 2.68697095e+00, 5.34985065e+00,
          -7.83400774e+00, -2.78276515e+00, 8.07254124e+00,
          1.02273321e+00, -7.55983305e+00, 3.90322661e+00,
          -4.35639811e+00, -3.10473943e+00, -2.37157393e+00,
          -5.81662416e-01, -1.03645201e+01, -3.41908550e+00,
          -7.01594925e+00, -4.79197311e+00, -4.81849623e+00,
          -1.48315609e+00, -1.14617243e+01, -5.59543657e+00,
          -3.15645552e+00, -1.01110096e+01, 2.36376190e+00,
          3.18787622e+00, 1.13722620e+01, -1.46604669e+00,
          -2.82259130e+00, 1.07182322e+01, -8.26629543e+00,
          -2.36958671e+00, 4.35997534e+00, -7.04270029e+00,
          -2.00499439e+00, 3.42676789e-01, 1.92953026e+00,
          -4.43885565e+00, -4.29207802e-01, -8.76416206e+00,
          1.19349823e+01, -7.46397257e-01, -2.79431081e+00,
          1.44873643e+00, 8.26639462e+00, 1.31588116e+01,
          -1.41240520e+01, -2.68994188e+00, -6.45508194e+00,
          4.94719505e+00, 1.02596617e+01, 3.08978319e+00,
          -3.41360164e+00, -4.48801661e+00, -5.29644203e+00,
          -1.23708458e+01, -1.80241990e+00, -7.33501816e+00,
          -1.36377602e+01, 9.64785576e+00, 2.01130176e+00,
          3.39984679e+00, 8.21507835e+00, 6.18786335e+00,
          -8.65718174e+00, -1.65880933e-01, -1.04922161e+01,
          -1.13078642e+01, 5.60650396e+00, 3.79410362e+00,
          1.76140881e+00, -5.15621364e-01, -5.08921194e+00,
          3.65151548e+00, 4.88070679e+00, -1.67973951e-01,
          6.25640726e+00, -7.10626841e+00, 2.29681039e+00,
          5.67440414e+00, 1.77777261e-01, 1.75745666e+00, 9.74615932e-01,
          6.89732552e+00, -1.90363133e+00, -4.94946986e-01,
          -9.54816055e+00, 7.67053509e+00, -1.38587773e+00,
          3.26299548e+00, -1.06216621e+01, 1.39594281e+00,
          7.04635668e+00, -5.56237745e+00, 3.38996506e+00,
          -4.99796724e+00, 3.28750467e+00, 5.31332302e+00,
          4.14589024e+00, 2.52439284e+00, 1.34317102e+01, 6.62409306e+00,
          -6.59629464e-01, 2.95094776e+00, -8.39475155e+00,
          -1.01881385e+00, 3.86933953e-01, -1.43153310e+00,
          1.68900430e+00, -4.64525175e+00, 1.13062787e+00,
          -2.20188618e+00, -7.64016151e+00, -1.01777878e+01,
          -1.90694273e+00, 1.03908205e+00, -4.03314161e+00,
          8.63792515e+00, 3.49802589e+00, 6.00759566e-01, 7.06224632e+00,
          3.13275027e+00, 1.27436361e+01, -3.67319870e+00,
          -1.01320255e+00, 1.26376390e+01, -8.32785702e+00,
          -7.76330423e+00, -1.99592781e+00, -3.28306460e+00,
          5.44014740e+00, 1.36944568e+00, 2.60714746e+00,
          -1.63028228e+00, 7.13287497e+00, 2.72399783e+00,
          8.21088886e+00, -4.30136013e+00, 1.15252552e+01,
          1.15252552e+01, -8.42277431e+00, -2.24295998e+01,
          2.51675701e+01, -1.53677979e+01, -1.53677979e+01,
          -7.57202530e+00, 1.47256470e+01, 7.81672239e+00,
          7.81672239e+00, -1.20242586e+01, 5.72211170e+00,
          3.59961843e+00, 2.52461123e+00, 2.12376142e+00, 2.77366281e-01,
          1.80738986e+00, 1.80738986e+00, -8.12677479e+00,
          -8.12677479e+00, 3.88263154e+00, 3.88263154e+00,
          -5.10003519e+00, -5.10003519e+00, -1.62304096e+01,
          -1.62304096e+01, -4.94807339e+00, 4.63205194e+00,
          -1.18334579e+00, -1.18334579e+00, -1.11008177e+01,
          -1.11008177e+01, -1.72480261e+00, -1.72480261e+00,
          4.24707556e+00, 4.24707556e+00, -7.32063437e+00,
          -1.32882414e+01, -1.54415541e+01, -1.54415541e+01,
          1.01373672e+01, 1.01373672e+01, -8.32014465e+00,
          9.55287933e+00, 9.55287933e+00, -1.96632624e+00,
          1.69376621e+01, 1.69376621e+01, 9.30873775e+00, 5.87977219e+00,
          5.87977219e+00, -5.03208685e+00, -5.03208685e+00,
          2.66034389e+00, 2.66034389e+00, 1.09520607e+01, 1.09520607e+01,
          7.54863024e+00, 7.54863024e+00, -1.56121912e+01,
          -8.42436886e+00, -8.42436886e+00, 6.90100431e-01,
          7.56693029e+00, 7.56693029e+00, 5.27437353e+00, 5.27437353e+00,
          -3.16264331e-01, -3.16264331e-01, 5.21616840e+00,
          5.21616840e+00, 1.29579096e+01, 1.29579096e+01, 1.31032491e+00,
          1.31032491e+00, 1.96803212e+00, -1.76666317e+01,
          -1.76666317e+01, 9.22075939e+00, 9.22075939e+00,
          1.54013338e+01, 1.54013338e+01, -1.01526661e+01,
          -1.01526661e+01, -9.56353760e+00, -9.56353760e+00,
          3.26309443e+00, 3.26309443e+00, -2.85193348e+01,
          4.64396667e+00, 4.64396667e+00, -1.60877895e+01,
          -1.60877895e+01, -6.28223717e-01, -6.28223717e-01,
          1.19186249e+01, 1.19186249e+01, 7.21269226e+00, 7.21269226e+00,
          -2.74656367e+00, -2.74656367e+00, 4.99166346e+00,
          -2.09985781e+00, -2.09985781e+00, -4.97822905e+00,
          -4.97822905e+00, 3.13869905e+00, 3.13869905e+00,
          -8.09145069e+00, -8.09145069e+00, 1.16745293e+00,
          1.16745293e+00, -7.52641487e+00, 1.39625835e+01,
          1.39625835e+01, -4.56249285e+00, 1.10813503e+01,
          1.10813503e+01, -3.53539109e+00, -3.53539109e+00,
          3.74578983e-01, 3.74578983e-01, -2.66690755e+00,
          -2.66690755e+00, -9.53865528e+00, -9.53865528e+00,
          8.37513161e+00, 8.37513161e+00, 3.66065860e+00, 3.66065860e+00,
          -6.06679916e+00, -6.06679916e+00, 9.15638823e-03,
          9.15638823e-03, 4.43018532e+00, 7.42192566e-01, 7.42192566e-01,
          -4.87558651e+00, -4.87558651e+00, 2.08688173e-02,
          2.08688173e-02, 1.25933666e+01, 1.25933666e+01,
          -3.91835213e+00, -3.91835213e+00, -4.96503979e-01,
          -4.96503979e-01, -1.22688723e+00, -1.22688723e+00,
          2.38102007e+00, 2.38102007e+00, -5.65977669e+00,
          -5.65977669e+00, 4.37245131e+00, 4.37245131e+00,
          -6.46059322e+00, -6.46059322e+00, 3.16340834e-01,
          3.16340834e-01, 1.06389701e+00, 1.06389701e+00,
          -4.71793842e+00, -4.71793842e+00, 5.85736096e-01,
          5.85736096e-01, 3.36924267e+00, -3.13304377e+00,
          2.84749913e+00, 2.84749913e+00, -5.82392365e-02,
          -5.82392365e-02, 2.53857756e+00, 2.53857756e+00,
          -7.62005949e+00, -7.62005949e+00, 8.41120529e+00,
          8.41120529e+00, 5.55448198e+00, 5.55448198e+00,
          -1.36856806e+00, -1.36856806e+00, 2.05842614e+00,
          2.05842614e+00, -1.84906459e+00, -1.84906459e+00,
          1.42058790e-01, 1.42058790e-01, 5.76506281e+00, 5.76506281e+00,
          -6.69459403e-01, -6.69459403e-01, 2.14097500e+01,
          2.14097500e+01, 2.17811942e+00, 2.17811942e+00,
          -2.49685717e+00, -2.49685717e+00, 1.17204294e+01,
          1.17204294e+01, 4.44261551e+00, -4.02120924e+00,
          -4.02120924e+00, 1.67067087e+00, 1.67067087e+00,
          3.06288505e+00, 3.06288505e+00, -1.51319218e+01,
          -1.51319218e+01, 1.33092880e+00, 1.33092880e+00,
          7.44137573e+00, 6.85784960e+00, 6.85784960e+00,
          -1.13940075e-01, -1.13940075e-01, 4.57371759e+00,
          4.57371759e+00, 3.59367442e+00, 3.59367442e+00, 6.50035143e+00,
          6.50035143e+00, -4.29793978e+00, -4.29793978e+00,
          2.25817871e+00, 5.89921570e+00, 5.89921570e+00,
          -5.52744865e+00, -5.52744865e+00, -8.00434494e+00,
          -8.00434494e+00, 1.37986600e+00, 1.37986600e+00,
          3.28733921e+00, 3.28733921e+00, 2.61460900e+00, 2.61460900e+00,
          1.80596657e+01, 1.80596657e+01, 1.21196233e-01, 1.21196233e-01,
          -3.96094179e+00, -3.96094179e+00, 1.91549385e+00,
          1.91549385e+00, -3.35719395e+00, -3.35719395e+00,
          -7.12951994e+00, -7.12951994e+00, -3.25989699e+00,
          -3.25989699e+00, -2.37753606e+00, -2.37753606e+00,
          1.25097733e+01, 1.25097733e+01, 2.79585934e+00, 2.79585934e+00,
          5.84948540e+00, 5.84948540e+00, -8.86754322e+00,
          -8.86754322e+00, 7.38866329e-01, 7.38866329e-01,
          -6.53292704e+00, -6.53292704e+00, -1.29161686e-01,
          -1.29161686e-01, 5.50601959e+00, 5.50601959e+00,
          9.88888836e+00, 9.88888836e+00, 7.77833223e+00, 4.81024361e+00,
          4.81024361e+00, 7.76819658e+00, 1.35601091e+01, 1.35601091e+01,
          -4.29299498e+00, -4.29299498e+00, -5.85869074e+00,
          -5.85869074e+00, -4.62363291e+00, -4.62363291e+00,
          -8.57581425e+00, -8.57581425e+00, -2.21978736e+00,
          -2.21978736e+00, 5.84118271e+00, 5.84118271e+00,
          7.29794550e+00, 7.29794550e+00, -5.98113155e+00,
          -5.98113155e+00, -8.09989166e+00, -8.09989166e+00,
          9.61225700e+00, 9.61225700e+00, -8.15770817e+00,
          -1.52402735e+00, -1.52402735e+00, -7.82715702e+00,
          7.85213566e+00, 7.85213566e+00, 7.05645561e-01, 7.05645561e-01,
          8.72092056e+00, 8.72092056e+00, 1.01763976e+00, 1.01763976e+00,
          3.01321363e+00, 3.01321363e+00, -1.62864470e+00,
          -1.62864470e+00, -4.60657930e+00, -4.60657930e+00,
          -2.67700195e+00, -2.67700195e+00, 3.11831141e+00,
          3.11831141e+00, 3.12403131e+00, 3.12403131e+00,
          -6.43578911e+00, -6.43578911e+00, 1.55392587e+00,
          -3.20904303e+00, -3.20904303e+00, 4.14164114e+00,
          4.14164114e+00, 4.78783560e+00, 4.78783560e+00, 1.94161630e+00,
          1.94161630e+00, 2.20660377e+00, -3.85665202e+00,
          -3.85665202e+00, -2.93905407e-01, 1.14729679e+00,
          1.14729679e+00, 1.96520552e-01, 1.96520552e-01, 2.60178757e+00,
          2.60178757e+00, -2.53480911e+00, -2.53480911e+00,
          1.11942923e+00, 1.11942923e+00, 4.37292719e+00, 4.37292719e+00,
          9.14181614e+00, 9.14181614e+00, -7.02777767e+00,
          -7.02777767e+00, 1.97481787e+00, 1.97481787e+00,
          -2.86641645e+00, -2.86641645e+00, -4.77916384e+00,
          -4.77916384e+00, -7.52085590e+00, 7.59279823e+00,
          7.59279823e+00, -5.86209440e+00, -5.86209440e+00,
          2.21878457e+00, 2.21878457e+00, 5.44804764e+00, 5.44804764e+00,
          -7.25096846e+00, -7.25096846e+00, -5.24560452e+00,
          -5.24560452e+00, -6.84648657e+00, -6.84648657e+00,
          -2.55237818e+00, -2.55237818e+00, 1.56039202e+00,
          1.56039202e+00, -1.12043800e+01, 7.61565590e+00,
          7.61565590e+00, 3.06585240e+00, 3.06585240e+00, 2.19981465e-02,
          2.19981465e-02, 1.30691442e+01, 1.30691442e+01,
          -5.72602940e+00, 7.83166552e+00, 7.83166552e+00,
          4.56829935e-01, 4.56829935e-01, -3.06997585e+00,
          -3.06997585e+00, 1.23164072e+01, 1.23164072e+01,
          -4.03847170e+00, -4.03847170e+00, -7.40556240e-01,
          -7.40556240e-01, -2.45442462e+00, -2.45442462e+00,
          9.46025658e+00, 9.46025658e+00, 1.33775759e+01, 1.33775759e+01,
          -6.72965860e+00, -6.72965860e+00, -1.91204476e+00,
          -4.75064659e+00, -4.75064659e+00, 2.47799182e+00,
          2.47799182e+00, 1.55431342e+00, 1.55431342e+00,
          -1.17015374e+00, -1.17015374e+00, 2.71067433e-02,
          2.71067433e-02, 2.62396246e-01, 2.62396246e-01, 7.16989899e+00,
          7.16989899e+00, -2.83086753e+00, 1.00625575e+00,
          1.00625575e+00, 6.16650283e-01, 6.16650283e-01, 7.58766317e+00,
          7.58766317e+00, 2.99999118e+00, 2.99999118e+00,
          -8.39535999e+00, -8.39535999e+00, 2.33772731e+00,
          2.33772731e+00, -1.96480250e+00, -1.96480250e+00,
          2.89649987e+00, 2.89649987e+00, 1.81366241e+00, 1.81366241e+00,
          3.14619517e+00, 3.14619517e+00, 3.81240368e+00, 3.81240368e+00,
          7.01243639e-01, 7.01243639e-01, 1.24820817e+00, 3.15444613e+00,
          3.15444613e+00, -1.05042696e+00, -1.05042696e+00,
          3.18525600e+00, 3.18525600e+00, 1.72505125e-01, 1.72505125e-01,
          -3.38123381e-01, -3.38123381e-01, 2.18130898e+00,
          2.18130898e+00, 1.36553216e+00, 1.36553216e+00, 2.18277502e+00,
          2.18277502e+00, -2.78511739e+00, 1.14592528e+00,
          1.14592528e+00, 8.24031293e-01, 8.24031293e-01,
          -2.82617831e+00, -2.82617831e+00, 5.31939864e-01,
          5.31939864e-01, -1.10298133e+00, -1.10298133e+00,
          -3.80780315e+00, -3.80780315e+00, -2.57630348e+00,
          -2.57630348e+00, -4.40436697e+00, -4.40436697e+00,
          -2.18457127e+00, -2.18457127e+00, -3.84905577e+00,
          -3.84905577e+00, 7.13478708e+00, 2.36915493e+00,
          2.36915493e+00, 3.21885133e+00, 3.21885133e+00, 1.72635093e-01,
          1.72635093e-01, -2.18078828e+00, -2.18078828e+00,
          -2.09001446e+00, -2.09001446e+00, -1.98089808e-01,
          -1.98089808e-01, -1.76753151e+00, -1.76753151e+00,
          1.49876487e+00, 1.49876487e+00, 1.66937947e+00, 1.66937947e+00,
          1.74000084e+00, 1.74000084e+00, -3.74216127e+00,
          -3.74216127e+00, -1.91562593e+00, -1.91562593e+00,
          -1.25607228e+00, -1.25607228e+00, -5.84723949e+00,
          -5.84723949e+00, 2.08419085e+00, 2.08419085e+00,
          4.81109619e+00, 4.81109619e+00, 7.44740963e+00, 7.44740963e+00,
          4.87141037e+00, -3.32404590e+00, -3.32404590e+00,
          -1.55629575e-01, -1.55629575e-01, -7.04000807e+00,
          -7.04000807e+00, -3.80846810e+00, -3.80846810e+00,
          1.05649459e+00, 1.05649459e+00, 2.51462770e+00, 2.51462770e+00,
          -1.89867353e+00, -1.89867353e+00, -1.56162095e+00,
          -1.56162095e+00, -9.66433764e-01, -9.66433764e-01,
          -1.45822167e-01, -3.64378035e-01, -3.64378035e-01,
          -1.27627289e+00, -1.27627289e+00, 9.04524899e+00,
          9.04524899e+00, -5.20809174e+00, -5.20809174e+00,
          -3.47237182e+00, -2.75500464e+00, -2.75500464e+00,
          3.65733361e+00, 3.65733361e+00, -8.92747343e-01,
          -8.92747343e-01, 3.77652615e-01, 3.77652615e-01,
          -3.29530454e+00, -3.29530454e+00, -7.85355902e+00,
          -7.85355902e+00, 5.47006130e+00, 6.20800853e-01,
          6.20800853e-01, -1.49749410e+00, -1.49749410e+00,
          2.09563851e+00, 2.09563851e+00, 2.30662298e+00, 2.30662298e+00,
          -2.26990318e+00, -2.26990318e+00, 3.30016422e+00,
          3.30016422e+00, -2.18641877e+00, -2.18641877e+00,
          1.37638628e+00, 1.37638628e+00, 1.91884339e+00, 1.91884339e+00,
          2.31079125e+00, 2.31079125e+00, 1.52957344e+00, 1.52957344e+00,
          -4.55834293e+00, -4.55834293e+00, 3.16990352e+00,
          3.16990352e+00, -2.25179124e+00, -2.25179124e+00,
          -3.90596056e+00, -3.90596056e+00, -5.60312557e+00,
          -7.98663950e+00, -7.98663950e+00, -3.34271979e+00,
          -3.34271979e+00, -4.03692007e+00, -4.03692007e+00,
          5.65865564e+00, 5.65865564e+00, 3.62690639e+00, 3.62690639e+00,
          -4.42329597e+00, 2.88732719e+00, 2.88732719e+00,
          2.37090540e+00, 2.37090540e+00, -3.82806683e+00,
          -3.82806683e+00, 3.15556455e+00, 3.15556455e+00,
          1.32950962e+00, 1.32950962e+00, 4.94471431e-01, 4.94471431e-01,
          2.90690827e+00, 2.90690827e+00, -4.08843088e+00,
          -4.08843088e+00, -1.03073740e+00, -1.03073740e+00,
          5.57170868e-01, 5.57170868e-01, 7.79045522e-01, 7.79045522e-01,
          -1.32493627e+00, -1.32493627e+00, -1.32044280e+00,
          -1.32044280e+00, -9.74967852e-02, -4.59609240e-01,
          -4.59609240e-01, 3.83920527e+00, 3.83920527e+00,
          4.08733845e+00, 4.08733845e+00, -2.63590068e-01,
          -1.77247143e+00, -1.77247143e+00, 1.37768638e+00,
          1.37768638e+00, 2.44731045e+00, 2.44731045e+00, 2.61078864e-01,
          2.61078864e-01, -3.06266665e-01, -3.06266665e-01,
          2.16135859e+00, 2.16135859e+00, 2.93399835e+00, 2.93399835e+00,
          6.36788964e-01, 6.36788964e-01, -1.11761308e+00,
          -1.11761308e+00, 1.04028523e+00, 1.56634092e-01,
          1.56634092e-01, 2.06551337e+00, 2.06551337e+00,
          -1.57355696e-01, -1.57355696e-01, -1.51106030e-01,
          -1.51106030e-01, 1.53191757e+00, 1.53191757e+00,
          4.74290788e-01, 4.74290788e-01, -3.63474035e+00,
          -3.63474035e+00, 3.67828083e+00, 3.67828083e+00,
          1.82436752e+00, 1.82436752e+00, 9.79997396e-01, 9.79997396e-01,
          -5.97191870e-01, -1.75692344e+00, 5.47185123e-01,
          5.47185123e-01, 9.10556734e-01, 9.10556734e-01,
          -1.20708776e+00, -1.20708776e+00, -3.15023541e+00,
          -3.15023541e+00, 1.07628822e+00, 1.07628822e+00,
          -1.35040772e+00, -1.35040772e+00, -2.38655591e+00,
          -2.38655591e+00, -1.31472671e+00, -1.31472671e+00,
          7.18592703e-01, 7.18592703e-01, 1.66866481e+00, 1.66866481e+00,
          2.18938875e+00, 2.18938875e+00, -1.67762661e+00,
          -1.67762661e+00, -1.02052224e+00, -1.02052224e+00,
          7.87427783e-01, 7.87427783e-01, -1.30650890e+00,
          -1.30650890e+00, 2.22752857e+00, 2.22752857e+00,
          3.91077805e+00, 3.91077805e+00, 5.64507365e-01, 5.64507365e-01,
          1.67947245e+00, 1.08561926e+01, 1.08561926e+01,
          -3.18632817e+00, -3.18632817e+00, -2.48925492e-01,
          -2.48925492e-01, 5.16069365e+00, 5.16069365e+00,
          1.03747714e+00, 1.03747714e+00, 4.79106092e+00, 4.79106092e+00,
          1.10310042e+00, 1.10310042e+00, -7.53812015e-01,
          -7.53812015e-01, 1.93461776e-01, 1.93461776e-01,
          -2.01480627e+00, -2.01480627e+00, -4.47166443e+00,
          -4.47166443e+00, -4.70049232e-01, -4.70049232e-01,
          7.81687438e-01, 7.81687438e-01, 3.64892602e-01, 3.64892602e-01,
          -1.44281673e+00, -1.44281673e+00, 1.16772032e+00,
          1.16772032e+00, 2.15920615e+00, 2.15920615e+00, 5.20549417e-01,
          5.20549417e-01, -2.43251848e+00, 1.46363270e+00,
          1.46363270e+00, -7.43017048e-02, -7.43017048e-02,
          1.22955418e+00, 1.22955418e+00, -2.18119597e+00,
          -2.18119597e+00, 2.23390555e+00, 2.23390555e+00,
          1.39631164e+00, 1.39631164e+00, 2.89685488e-01,
          -1.45763254e+00, -1.45763254e+00, -2.34053826e+00,
          -2.34053826e+00, -4.12887907e+00, -4.12887907e+00,
          5.00721741e+00, -5.79303861e-01, -5.79303861e-01,
          -9.71564054e-01, -9.71564054e-01, 3.59156311e-01,
          3.59156311e-01, -2.96453595e-01, -2.96453595e-01,
          1.64141333e+00, 1.64141333e+00, 1.62700996e-01, 1.62700996e-01,
          7.80855212e-03, 7.80855212e-03, -1.56851089e+00,
          -2.65177798e+00, -2.65177798e+00, 4.68707418e+00,
          4.68707418e+00, 1.18259323e+00, 1.18259323e+00,
          -4.04498577e+00, -4.04498577e+00, -5.35338223e-01,
          -5.35338223e-01, 3.66339517e+00, 3.66339517e+00,
          -3.01330298e-01, -3.01330298e-01, 1.31145132e+00,
          1.31145132e+00, 1.16633153e+00, 1.16633153e+00, 2.86344481e+00,
          2.86344481e+00, 2.05116820e+00, 2.05116820e+00, 1.49296403e-01,
          1.49296403e-01, 2.09151220e+00, 2.09151220e+00,
          -1.53560233e+00, -1.53560233e+00, -9.66494560e-01,
          -9.66494560e-01, 1.27883506e+00, 1.27883506e+00,
          1.92630255e+00, 1.92630255e+00, -3.94832224e-01,
          -3.94832224e-01, -2.14349389e+00, -2.14349389e+00,
          1.74986899e-01, 1.74986899e-01, 1.75766587e+00, 1.75766587e+00,
          2.42716932e+00, 2.42716932e+00, 9.04846907e-01, 9.04846907e-01,
          -2.92679691e+00, -2.92679691e+00, -4.93204117e+00,
          -4.93204117e+00, 1.56000674e+00, 1.56000674e+00,
          -2.27872872e+00, -2.27872872e+00, 1.13937363e-01,
          1.13937363e-01, -1.01550543e+00, -1.01550543e+00,
          -3.14072251e-01, -3.14072251e-01, -5.32272005e+00,
          -5.32272005e+00, 1.92500472e+00, 1.92500472e+00,
          -1.68538558e+00, -1.68538558e+00, 3.26508284e+00,
          3.26508284e+00, 1.76573205e+00, 1.76573205e+00, 1.09156632e+00,
          1.09156632e+00, 2.82149506e+00, 2.82149506e+00, 2.41674662e+00,
          2.41674662e+00, -2.15425864e-01, -2.15425864e-01,
          1.52425981e+00, 1.52425981e+00, 2.20640349e+00, 2.20640349e+00,
          1.28554368e+00, 1.12155759e+00, 1.12155759e+00, 1.31994605e+00,
          1.31994605e+00, 3.26740456e+00, 3.26740456e+00,
          -6.28164589e-01, -6.28164589e-01, -6.69923723e-02,
          -6.69923723e-02, -6.60344511e-02, -6.60344511e-02,
          7.50480533e-01, -1.89357197e+00, -1.89357197e+00,
          -1.05252361e+00, -1.05252361e+00, -7.69108534e-01,
          -7.69108534e-01, -1.17914963e+00, -1.17914963e+00,
          7.49695778e-01, 7.49695778e-01, -3.69452238e-02,
          -3.69452238e-02, -5.55860579e-01, -5.55860579e-01,
          -1.24147749e+00, -1.24147749e+00, 1.76286280e+00,
          1.76286280e+00, 5.71631730e-01, 5.71631730e-01, 8.11321437e-01,
          8.11321437e-01, -2.34765649e+00, -2.34765649e+00,
          2.07452059e+00, 2.07452059e+00, -7.13472784e-01,
          -1.41541159e+00, -1.41541159e+00, -1.24546158e+00,
          -1.24546158e+00, 9.13704395e-01, 9.13704395e-01,
          4.80595827e-01, 4.80595827e-01, 8.20337057e-01, 8.20337057e-01,
          1.59729749e-01, 1.59729749e-01, -3.83305907e-01,
          -3.83305907e-01, 2.43724823e-01, 2.43724823e-01,
          1.58068633e+00, 1.58068633e+00, -1.83082879e+00,
          -1.83082879e+00, -2.69549704e+00, -2.69549704e+00,
          -2.65662730e-01, -2.65662730e-01, 8.35351288e-01,
          8.35351288e-01, -1.51080966e+00, -1.51080966e+00,
          1.82120395e+00, 1.82120395e+00, -2.92453557e-01,
          -2.92453557e-01, -2.20316619e-01, -2.20316619e-01,
          -7.70591259e-01, -7.70591259e-01, 7.36373588e-02,
          7.36373588e-02, -1.16156185e+00, -1.16156185e+00,
          -1.92684388e+00, -1.92684388e+00, 2.38568568e+00,
          2.38568568e+00, -1.45965052e+00, -1.45965052e+00,
          -4.68495893e+00, -4.68495893e+00, 4.83167619e-01,
          4.83167619e-01, -2.36517981e-01, -2.36517981e-01,
          -2.70959210e+00, -2.70959210e+00, -5.19074976e-01,
          -5.19074976e-01, -2.03868556e+00, -2.03868556e+00,
          2.38623440e-01, 2.38623440e-01, -6.67262793e-01,
          -6.67262793e-01, 2.02568650e+00, 2.02568650e+00,
          2.55535573e-01, 2.55535573e-01, -1.12625802e+00,
          -1.12625802e+00, -1.01160920e+00, -1.01160920e+00,
          5.77738941e-01, 5.77738941e-01, 1.05130233e-01, 1.05130233e-01,
          -1.60456091e-01, -1.60456091e-01, -1.72806048e+00,
          -1.72806048e+00, -8.84405971e-01, -8.84405971e-01,
          -1.63534414e-02, -1.63534414e-02, -6.41025379e-02,
          -6.41025379e-02, -1.11057377e+00, -1.11057377e+00,
          -7.68852457e-02, -7.68852457e-02, 1.08961105e+00,
          -1.34811056e+00, -1.34811056e+00, -1.18782771e+00,
          -1.18782771e+00, 5.81408322e-01, 5.81408322e-01,
          -9.15340185e-01, -9.15340185e-01, -7.15263665e-01,
          -7.15263665e-01, -8.57850537e-02, -8.57850537e-02,
          -1.09119773e+00, -1.09119773e+00, 4.50363368e-01,
          4.50363368e-01, -5.77377796e-01, -5.77377796e-01,
          -1.49097955e+00, -1.49097955e+00, -5.86797714e-01,
          -5.86797714e-01, -1.35196316e+00, -1.35196316e+00,
          -1.57604709e-01, -1.57604709e-01, 3.07094169e+00,
          3.07094169e+00, 6.79944679e-02, 1.24021798e-01, 1.24021798e-01,
          -2.67419028e+00, -2.67419028e+00, -3.87712538e-01,
          -3.87712538e-01, -1.02537024e+00, -1.02537024e+00,
          -1.43945551e+00, -1.43945551e+00, 1.01519966e+00,
          1.01519966e+00, 9.31610107e-01, 9.31610107e-01, 6.71746731e-01,
          6.71746731e-01, -1.49004531e+00, -1.49004531e+00,
          2.95198083e+00, 2.95198083e+00, -8.88600171e-01,
          -8.88600171e-01, -8.18504989e-01, -8.18504989e-01,
          -7.40187645e-01, -7.40187645e-01, 1.13255775e+00,
          1.13255775e+00, -1.30826980e-01, -1.30826980e-01,
          2.78259371e-03, 2.78259371e-03, -9.73451957e-02,
          -9.73451957e-02, 1.38476396e+00, 1.38476396e+00,
          -3.80777754e-02, -3.80777754e-02, 5.42984486e-01,
          5.42984486e-01, 7.37396538e-01, 7.37396538e-01, 1.05567563e+00,
          1.05567563e+00, -1.71635592e+00, -1.71635592e+00,
          3.36897224e-01, 3.36897224e-01, 3.47633219e+00, 3.47633219e+00,
          9.96362805e-01, 9.96362805e-01, -1.18192220e+00,
          -1.18192220e+00, 2.94159770e+00, 2.07706499e+00,
          2.07706499e+00, 1.00603950e+00, 1.00603950e+00,
          -1.53508335e-01, -1.53508335e-01, 1.66200519e+00,
          1.66200519e+00, 1.83675185e-01, 1.83675185e-01, 1.65702379e+00,
          1.65702379e+00, -1.82166111e+00, -1.82166111e+00,
          8.93299341e-01, 8.93299341e-01, -6.10770464e-01,
          -6.10770464e-01, -5.78162849e-01, -5.78162849e-01,
          8.13561499e-01, 8.13561499e-01, 7.37475634e-01, 7.37475634e-01,
          5.22894859e-01, 5.22894859e-01, -3.94239455e-01,
          -3.94239455e-01, -5.10934055e-01, 6.37856901e-01,
          -3.34430933e+00, -3.34430933e+00, -2.49901146e-01,
          -2.49901146e-01, -1.11284745e+00, -1.11284745e+00,
          -9.86886844e-02, -9.86886844e-02, 7.78480053e-01,
          7.78480053e-01, -2.18529537e-01, -2.18529537e-01,
          -1.91200459e+00, -1.91200459e+00, -1.44474697e+00,
          -1.44474697e+00, 3.67064118e-01, 3.67064118e-01,
          -1.64812875e+00, -1.64812875e+00, -8.58678699e-01,
          -8.58678699e-01, 7.95153737e-01, 7.95153737e-01,
          -6.56930730e-02, 6.62164390e-01, 6.62164390e-01,
          1.12559927e+00, 1.12559927e+00, 1.69160858e-01, 1.69160858e-01,
          -1.25109780e+00, -1.25109780e+00, -4.21436453e+00,
          -4.21436453e+00, 3.09749037e-01, 3.09749037e-01,
          -2.00533485e+00, -2.00533485e+00, -2.22839570e+00,
          -2.22839570e+00, -1.10718513e+00, -1.10718513e+00,
          1.76611340e+00, 1.76611340e+00, 5.03064357e-02, 5.03064357e-02,
          4.90000874e-01, 4.90000874e-01, 1.95447254e+00, 1.95447254e+00,
          1.43393672e+00, 1.43393672e+00, 1.91529417e+00, 1.91529417e+00,
          -1.95297077e-01, -1.95297077e-01, 1.46612966e+00,
          1.46612966e+00, 2.75659204e+00, 2.75659204e+00, 1.31728768e+00,
          1.31728768e+00, 1.13490951e+00, 1.13490951e+00, 8.46523285e-01,
          8.46523285e-01, 4.86503631e-01, 4.86503631e-01,
          -1.69555676e+00, -1.69555676e+00, -2.87435383e-01,
          -2.87435383e-01, 1.51461577e+00, 1.51461577e+00,
          -1.28113890e+00, -1.28113890e+00, 1.35056782e+00,
          1.35056782e+00, 2.04973531e+00, 2.04973531e+00,
          -1.58011183e-01, -1.58011183e-01, -1.87620148e-01,
          -1.87620148e-01, -6.88404739e-01, -6.88404739e-01,
          6.80998981e-01, 6.80998981e-01, 2.68088460e-01, 2.68088460e-01,
          2.90411294e-01, 2.90411294e-01, 1.09157026e+00, 1.09157026e+00,
          -1.35252380e+00, -1.35252380e+00, -8.91871035e-01,
          -8.91871035e-01, 1.48697793e-01, 1.48697793e-01,
          -1.47954535e+00, -1.47954535e+00, -1.27737463e-01,
          -1.27737463e-01, 9.27897513e-01, 5.59145391e-01,
          5.59145391e-01, 1.17169130e+00, 1.17169130e+00, 1.57493949e+00,
          1.57493949e+00, -2.42598772e-01, -2.42598772e-01,
          -1.11710000e+00, -1.11710000e+00, 9.82442260e-01,
          9.82442260e-01, 2.49870852e-01, 2.49870852e-01,
          -1.38750160e+00, -1.38750160e+00, 4.53186452e-01,
          4.53186452e-01, 2.22388968e-01, 2.22388968e-01, 3.71092290e-01,
          3.71092290e-01, -6.84249461e-01, -6.84249461e-01,
          -1.11410841e-01, -1.11410841e-01, 5.21996617e-01,
          5.21996617e-01, 5.58735549e-01, 5.58735549e-01,
          -3.40119988e-01, -3.40119988e-01, -5.99272668e-01,
          -5.99272668e-01, 9.83671427e-01, 9.83671427e-01,
          -4.16031539e-01, -4.16031539e-01, -2.06432998e-01,
          -2.06432998e-01, -8.85032296e-01, -8.85032296e-01,
          -9.07573342e-01, -9.07573342e-01, 6.23007238e-01,
          6.23007238e-01, 1.08998871e+00, 3.92339796e-01, 3.92339796e-01,
          7.12582231e-01, 7.12582231e-01, 8.97623956e-01, 8.97623956e-01,
          -7.34186471e-01, -7.34186471e-01, -1.69604635e+00,
          -1.69604635e+00, -1.15082073e+00, -1.15082073e+00,
          1.09130919e+00, 1.09130919e+00, -4.96199876e-01,
          -4.96199876e-01, 6.79036677e-01, 6.79036677e-01,
          -1.29958558e+00, 5.62435031e-01, 5.62435031e-01,
          1.66686451e+00, 6.23697340e-01, 6.23697340e-01, 2.34468609e-01,
          2.34468609e-01, 2.48147681e-01, 2.48147681e-01, 8.19010377e-01,
          8.19010377e-01, 9.27010953e-01, 9.27010953e-01, 1.25448823e+00,
          1.25448823e+00, -1.92039326e-01, -1.92039326e-01,
          3.74801308e-01, 3.74801308e-01, -1.51052713e+00,
          -1.51052713e+00, -1.00583369e-02, -1.00583369e-02,
          -4.25045061e+00, -4.25045061e+00, 5.60217261e-01,
          5.60217261e-01, -1.55030832e-01, -1.55030832e-01,
          6.29384339e-01, 6.29384339e-01, 2.26645917e-01, 2.26645917e-01,
          -7.49582648e-01, -7.49582648e-01, -7.26527572e-01,
          -7.26527572e-01, -1.80609912e-01, -1.80609912e-01,
          -5.56754731e-02, -1.57028511e-01, -1.57028511e-01,
          9.13049996e-01, 9.13049996e-01, 1.52211562e-01, 1.52211562e-01,
          -3.65577310e-01, 7.34257519e-01, 7.34257519e-01,
          -9.97050405e-01, -9.97050405e-01, 1.79761779e+00,
          1.79761779e+00, 1.42766142e+00, 1.42766142e+00,
          -3.06212127e-01, -3.06212127e-01, -4.72472191e-01,
          -1.51611924e-01, -1.51611924e-01, 1.66353273e+00,
          1.66353273e+00, 1.62256196e-01, 1.62256196e-01,
          -3.06027174e-01, -3.06027174e-01, -9.36704695e-01,
          -9.36704695e-01, -1.16300084e-01, -1.16300084e-01,
          2.15560243e-01, 2.15560243e-01, -4.26602155e-01,
          -4.26602155e-01, -5.65611243e-01, -5.65611243e-01,
          -8.24067116e-01, -8.24067116e-01, 5.67343295e-01,
          1.97073698e-01, 1.97073698e-01, -3.31790835e-01,
          -3.31790835e-01, -5.12037456e-01, -5.12037456e-01,
          -1.28811181e-01, -1.28811181e-01, 1.34448195e+00,
          1.34448195e+00, -7.71293715e-02, -7.71293715e-02,
          5.08399367e-01, 5.08399367e-01, 1.66624397e-01, 1.66624397e-01,
          7.12725401e-01, 7.12725401e-01, -1.02082145e+00,
          -1.02082145e+00, 7.42737234e-01, 7.42737234e-01,
          2.77594060e-01, 2.77594060e-01, -2.52443105e-01,
          -2.52443105e-01, -8.55181180e-03, -8.55181180e-03,
          -4.67977583e-01, -4.67977583e-01, -3.78839970e-01,
          -3.78839970e-01, 3.07764232e-01, 3.07764232e-01,
          -1.48883075e-01, -1.48883075e-01, 1.35877228e+00,
          1.35877228e+00, -1.79405019e-01, -1.79405019e-01,
          2.01150104e-01, 2.01150104e-01, -4.44190651e-01,
          -4.44190651e-01, -1.73177943e-01, -1.73177943e-01,
          7.30306387e-01, 7.30306387e-01, -1.44074345e+00,
          -1.44074345e+00, -8.42515767e-01, -8.42515767e-01,
          2.38669127e-01, 2.38669127e-01, -1.80954039e-01,
          -1.80954039e-01, -1.44213355e+00, -1.44213355e+00,
          -3.40652168e-02, -3.40652168e-02, -8.21341932e-01,
          -8.21341932e-01, 7.97635436e-01, 7.97635436e-01,
          -5.42115748e-01, -5.42115748e-01, -4.64993834e-01,
          -4.64993834e-01, -6.11880958e-01, -6.11880958e-01,
          1.14776754e+00, 1.06800854e+00, 1.06800854e+00,
          -3.16706747e-01, -3.16706747e-01, 1.71997309e+00,
          1.71997309e+00, 5.97949386e-01, 5.97949386e-01,
          -8.52604270e-01, 6.01734400e-01, 6.01734400e-01,
          -4.88413751e-01, -4.88413751e-01, -3.80469620e-01,
          -3.80469620e-01, -9.30339932e-01, -9.30339932e-01,
          -8.31760645e-01, 1.33518982e+00, 1.33518982e+00,
          -1.08750217e-01, -1.08750217e-01, -9.52779889e-01,
          -9.52779889e-01, -1.36274099e+01, -1.36274099e+01,
          3.68173212e-01, 6.19616210e-01, 6.19616210e-01, 3.85672688e-01,
          3.85672688e-01, -1.21839929e+00, -1.21839929e+00,
          2.24891871e-01, -1.15098499e-01, -1.15098499e-01,
          4.99585956e-01, 4.99585956e-01, 5.70289373e-01, 5.70289373e-01,
          3.88088137e-01, 3.88088137e-01, 9.90591943e-01,
          -2.71228328e-02, -2.71228328e-02, 9.45822477e-01,
          9.45822477e-01, -8.26802403e-02, -8.26802403e-02,
          5.23274422e-01, 5.23274422e-01, -5.59289753e-02,
          -5.59289753e-02, 3.34596932e-01, 3.34596932e-01,
          3.44605923e-01, 3.44605923e-01, 3.50035310e-01, 3.50035310e-01,
          3.64467978e-01, 3.64467978e-01, 1.42177653e+00, 1.42177653e+00,
          5.28903306e-01, 5.28903306e-01, -1.20899849e-01,
          -1.20899849e-01, -3.89928967e-01, -3.89928967e-01,
          1.10481668e+00, 1.13119853e+00, 1.13119853e+00,
          -6.62087500e-01, -6.62087500e-01, 3.02066833e-01,
          3.02066833e-01, -1.06798983e+00, -1.06798983e+00,
          -3.86605978e-01, -3.86605978e-01, 4.72429216e-01,
          4.72429216e-01, -5.93048893e-02, -5.93048893e-02,
          -1.37826934e-01, -1.37826934e-01, -2.22120690e+00,
          -2.22120690e+00, 9.93166327e-01, 9.93166327e-01,
          6.60848022e-01 ]
      - [ 3.58521919e+01, -3.80612259e+01, 9.37616196e+01,
          -2.65832462e+01, -5.91594696e+01, 1.80779362e+01,
          -7.87165527e+01, -1.44255924e+01, -1.52168703e+00,
          -4.93228416e+01, -3.09434662e+01, 8.47453995e+01,
          -6.58707352e+01, -2.64042358e+01, 1.44818373e+01,
          -1.38897390e+01, -2.56258345e+00, -1.94559288e+01,
          -8.43561554e+00, 3.26181984e+00, 4.66535950e+01,
          1.38408785e+01, -2.93976383e+01, 6.36746788e+00,
          3.83009644e+01, -3.14705348e+00, -1.91577396e+01,
          1.46629667e+01, 9.01631832e+00, -3.03764677e+00,
          3.66518974e+01, 1.20370102e+01, -1.38113413e+01,
          -2.07606201e+01, -2.26670208e+01, 8.87851715e+00,
          -1.44770155e+01, -3.31583710e+01, 9.25679398e+00,
          3.68500977e+01, 7.99776435e-01, -3.23515968e+01,
          3.30960732e+01, 1.80966053e+01, 1.63404350e+01,
          -3.42640533e+01, 2.65785046e+01, 9.49163246e+00,
          7.11652374e+00, 1.31591523e+00, -4.48057365e+01,
          -2.61815262e+00, -1.33847702e+00, 1.85080109e+01,
          1.25329399e+01, 3.29026961e+00, -1.21635666e+01,
          -6.18470423e-02, 1.23055553e+01, 2.34237576e+00,
          -7.24375439e+00, 8.95454502e+00, 2.50650024e+00,
          -2.50872269e+01, -1.86710745e-01, -2.39901943e+01,
          2.00567207e+01, -1.27562685e+01, -4.14844662e-01,
          -2.44894867e+01, 1.12510595e+01, 2.50387764e+01,
          7.34327078e+00, 2.84604111e+01, 1.66991882e+01,
          -1.15398531e+01, 8.83311939e+00, -6.89505148e+00,
          5.97662592e+00, 3.03881973e-01, 4.88455820e+00,
          -1.44820204e+01, -2.44747314e+01, -1.06472120e+01,
          1.69583969e+01, 2.91251063e+00, -2.98442841e+01,
          -1.86228065e+01, 2.28505182e+00, 1.10813893e-01,
          1.19172168e+00, -4.61472464e+00, -2.81346774e+00,
          9.35674477e+00, -7.10382700e-01, -3.07266450e+00,
          -1.07405243e+01, 1.03367586e+01, 5.82374716e+00,
          -2.04589825e+01, 2.85572588e-01, 4.25690800e-01,
          -1.74678535e+01, -2.47219772e+01, 8.53357124e+00,
          -2.12055779e+00, -2.35333195e+01, 1.02966557e+01,
          1.04634562e+01, -7.71699667e+00, 1.95550251e+01,
          -4.21317673e+00, 9.16991520e+00, 2.71373510e+00,
          -3.45855975e+00, 9.90722942e+00, -1.44073086e+01,
          -8.39268875e+00, -1.25962029e+01, -1.53047981e+01,
          2.01359558e+01, -1.00808277e+01, 1.06941252e+01,
          6.01401901e+00, -7.81487989e+00, -2.16029720e+01,
          9.59496498e+00, -1.53623657e+01, 1.51753435e+01,
          -5.24424219e+00, 7.01594353e+00, -3.96858501e+00,
          -1.54330015e+01, 2.01695862e+01, 7.50836420e+00,
          -7.23520815e-01, 8.71584606e+00, 1.09148722e+01,
          2.45510235e+01, 1.62802620e+01, -6.64030695e+00,
          -6.50580692e+00, -7.60948956e-01, -5.28794575e+00,
          -1.09239435e+00, 1.47426405e+01, 1.75267487e+01,
          1.10090008e+01, -5.91144228e+00, 2.35261393e+00,
          -2.22767334e+01, -7.27556801e+00, -5.76678514e+00,
          -8.68802643e+00, -1.11582148e+00, 1.81915510e+00,
          -6.73234367e+00, 1.10038066e+00, -1.63058586e+01,
          4.10805416e+00, 3.23462009e+00, 1.19215593e+01, 4.19653034e+00,
          -1.28636885e+01, 6.67699909e+00, -7.31893730e+00,
          -4.49024343e+00, -1.18082273e+00, 3.69217944e+00,
          6.37945366e+00, -6.47032928e+00, -1.45014839e+01,
          9.53208637e+00, 9.41617966e+00, -6.21977854e+00,
          -1.49462271e+01, 7.18181896e+00, -1.39988632e+01,
          2.87359238e+00, -1.36693220e+01, -1.72728977e+01,
          1.66175289e+01, 1.48245156e+00, 1.86648083e+01, 1.60211563e+01,
          -1.03150978e+01, 1.13233566e+01, 2.13376594e+00,
          -2.97642827e+00, -9.73604965e+00, 5.49363565e+00,
          -7.44056559e+00, -2.19198251e+00, 3.10823321e+00,
          -7.11342716e+00, -1.33994865e+01, -1.51687309e-01,
          -1.26969519e+01, -1.95518792e+00, -2.77180284e-01,
          9.15003967e+00, -1.79735601e+00, 8.22796249e+00,
          -5.21088362e-01, -8.33639622e+00, 9.37582314e-01,
          1.16436958e+01, -4.86366177e+00, -4.64408445e+00,
          -3.05796027e+00, 5.13810015e+00, 1.95513844e+00,
          8.64414310e+00, 9.93078995e+00, -1.96207106e-01,
          1.60455265e+01, -5.05143452e+00, 3.47518849e+00,
          1.06641912e+01, 1.04838381e+01, -3.15659165e-01,
          -2.90932894e+00, 1.67366028e+01, -6.08234644e+00,
          -2.71648812e+00, 7.32776976e+00, -4.59918165e+00,
          1.88400435e+00, 1.43296080e+01, 5.79430389e+00, 4.68762302e+00,
          1.93579149e+00, 1.05036247e+00, 8.94356537e+00,
          -1.01302409e+00, -6.62197530e-01, -1.26109815e+00,
          1.36189098e+01, 3.26977968e+00, -7.31153631e+00,
          1.00291386e+01, -6.16922975e-01, -5.51003504e+00,
          4.88197327e+00, -1.07866259e+01, -4.19582891e+00,
          1.27207117e+01, 3.00674582e+00, 3.93720174e+00, 7.68583250e+00,
          6.81140232e+00, 1.66136265e+00, -4.53069925e+00,
          2.92350507e+00, 1.04852509e+00, 2.72265983e+00, 8.46223736e+00,
          -1.05193272e+01, 1.16100082e+01, 6.20990992e-01,
          -2.55972481e+00, -1.54897928e+01, -6.70888329e+00,
          1.12630453e+01, -8.18829060e+00, 1.20772963e+01,
          1.48856411e+01, -7.79477358e+00, 2.32440758e+00,
          1.07557936e+01, -3.73252124e-01, 6.13174486e+00,
          -4.39365625e+00, 9.09299850e+00, -1.42383404e+01,
          1.09845293e+00, 1.19617891e+01, -1.18529024e+01,
          7.18255424e+00, -1.42786646e+01, 7.28457689e+00,
          2.77046180e+00, -1.14819965e+01, -1.30157681e+01,
          2.66761804e+00, 1.10261040e+01, -2.34160495e+00,
          3.51175284e+00, 5.76273918e+00, -2.51813745e+00,
          -5.05574274e+00, -9.36155510e+00, -2.12520385e+00,
          -7.29108191e+00, 1.14648998e+00, 7.29167080e+00,
          6.29201078e+00, 8.37665176e+00, 1.71785057e+00, 6.89838314e+00,
          4.39050436e+00, 3.71492654e-02, 1.06545687e+01, 1.62363279e+00,
          -5.01132441e+00, -4.58410122e-02, -7.51906013e+00,
          -7.47881365e+00, 2.48115277e+00, -5.84353685e+00,
          3.78741479e+00, -8.94176388e+00, -4.26072407e+00,
          -1.24693785e+01, 5.12226915e+00, -1.74916363e+00,
          4.88605976e+00, -1.04485712e+01, -9.48118746e-01,
          -5.16993618e+00, -2.15315625e-01, 9.58180809e+00,
          -6.31520510e+00, 1.11963263e+01, -2.41860580e+00,
          -9.31699944e+00, -6.22709322e+00, -4.05187654e+00,
          -9.78948498e+00, 3.26868027e-01, 3.62235451e+00,
          1.33613119e+01, -6.96758938e+00, 3.65876460e+00,
          8.31507397e+00, -1.47005844e+00, -2.92810726e+00,
          1.68940604e+00, 2.70092297e+00, -4.05542803e+00,
          1.72511482e+00, 6.86607742e+00, -4.97447443e+00,
          -6.75316858e+00, 3.05574560e+00, -9.70125079e-01,
          -8.43521655e-01, -5.44945669e+00, -2.67015672e+00,
          -6.20022297e+00, -5.73556042e+00, -1.22601604e+01,
          2.35411525e-01, -6.70169210e+00, -9.04217148e+00,
          -3.09740233e+00, 3.39399505e+00, -4.27688217e+00,
          -8.09741974e+00, -8.94291140e-03, 5.79436255e+00,
          9.15831757e+00, -3.64631712e-01, -4.43232346e+00,
          9.27915573e+00, -1.03169413e+01, -2.28486967e+00,
          1.07333970e+00, 3.24111390e+00, -5.94030190e+00,
          1.01709604e+00, 6.65776849e-01, 4.02355576e+00, 8.82635117e+00,
          -5.44656134e+00, 9.33821964e+00, 4.71519184e+00,
          -5.79615688e+00, 1.09372616e+01, 7.93972778e+00,
          1.10062637e+01, -1.24012976e+01, -3.96947765e+00,
          2.57287908e+00, 3.30797911e+00, 1.06853857e+01,
          -1.10616796e-01, -1.43959916e+00, 7.58690000e-01,
          -1.20425129e+01, -8.15806007e+00, -4.64121389e+00,
          -3.49753171e-01, -8.57323742e+00, 1.39157171e+01,
          4.89063859e-01, 2.11076283e+00, 5.21085083e-01,
          -4.99218285e-01, -2.62338638e+00, -2.89222058e-02,
          -1.18210487e+01, -5.37036276e+00, -2.24445605e+00,
          -2.65276265e+00, 1.29729581e+00, 3.33766890e+00,
          -1.09692030e+01, 3.11995363e+00, -1.56134772e+00,
          -4.97583723e+00, 9.51789284e+00, 1.21320117e+00,
          3.73589158e+00, 5.92131996e+00, -7.00770795e-01,
          -3.94121242e+00, -3.40874624e+00, 1.77417040e+00,
          2.61356544e+00, -3.38070750e-01, -3.10908103e+00,
          5.38399458e+00, -4.04160500e-01, 2.80837321e+00,
          -1.32388554e+01, -1.10802209e+00, 1.21324337e+00,
          -1.31492305e+00, 5.68450022e+00, -3.49987292e+00,
          -7.14376450e-01, 9.15112686e+00, 7.43269968e+00,
          -6.58430696e-01, 7.85440683e+00, 7.13505602e+00,
          3.28137946e+00, -8.57110679e-01, -2.01022673e+00,
          9.13791001e-01, -3.22301364e+00, -1.14439511e+00,
          9.80505764e-01, -3.94732761e+00, 1.11033797e+00,
          1.06017470e+00, 4.68683392e-01, -1.20313454e+01,
          4.01329309e-01, -3.60496187e+00, -5.10049915e+00,
          6.31770563e+00, 4.88265187e-01, 4.69330460e-01, 8.02089787e+00,
          -3.21141124e+00, 2.66871500e+00, -6.68521023e+00,
          -2.50186372e+00, 4.51831007e+00, -1.26131859e+01,
          -7.76330423e+00, -1.99592781e+00, -3.28306460e+00,
          5.44014740e+00, 1.36944568e+00, 2.60714722e+00,
          -1.63028240e+00, 7.13287497e+00, 2.72399783e+00,
          8.21088886e+00, -4.30136013e+00, 1.15252552e+01,
          1.15252552e+01, -8.42277431e+00, -2.24295998e+01,
          2.51675701e+01, -1.53677979e+01, -1.53677979e+01,
          -7.57202530e+00, 1.47256460e+01, 7.81672239e+00,
          7.81672239e+00, -1.20242586e+01, 5.72211170e+00,
          3.59961843e+00, 2.52461123e+00, 2.12376165e+00, 2.77366310e-01,
          1.80738997e+00, 1.80738997e+00, -8.12677479e+00,
          -8.12677479e+00, 3.88263154e+00, 3.88263154e+00,
          -5.10003519e+00, -5.10003519e+00, -1.62304096e+01,
          -1.62304096e+01, -4.94807339e+00, 4.63205194e+00,
          -1.18334579e+00, -1.18334579e+00, -1.11008177e+01,
          -1.11008177e+01, -1.72480261e+00, -1.72480261e+00,
          4.24707556e+00, 4.24707556e+00, -7.32063437e+00,
          -1.32882414e+01, -1.54415541e+01, -1.54415541e+01,
          1.01373672e+01, 1.01373672e+01, -8.32014465e+00,
          9.55287933e+00, 9.55287933e+00, -1.96632624e+00,
          1.69376621e+01, 1.69376621e+01, 9.30873775e+00, 5.87977219e+00,
          5.87977219e+00, -5.03208685e+00, -5.03208685e+00,
          2.66034389e+00, 2.66034389e+00, 1.09520607e+01, 1.09520607e+01,
          7.54863024e+00, 7.54863024e+00, -1.56121912e+01,
          -8.42436886e+00, -8.42436886e+00, 6.90100491e-01,
          7.56693077e+00, 7.56693077e+00, 5.27437353e+00, 5.27437353e+00,
          -3.16264391e-01, -3.16264391e-01, 5.21616840e+00,
          5.21616840e+00, 1.29579096e+01, 1.29579096e+01, 1.31032491e+00,
          1.31032491e+00, 1.96803212e+00, -1.76666317e+01,
          -1.76666317e+01, 9.22075939e+00, 9.22075939e+00,
          1.54013338e+01, 1.54013338e+01, -1.01526661e+01,
          -1.01526661e+01, -9.56353760e+00, -9.56353760e+00,
          3.26309443e+00, 3.26309443e+00, -2.85193348e+01,
          4.64396620e+00, 4.64396620e+00, -1.60877895e+01,
          -1.60877895e+01, -6.28223717e-01, -6.28223717e-01,
          1.19186249e+01, 1.19186249e+01, 7.21269226e+00, 7.21269226e+00,
          -2.74656367e+00, -2.74656367e+00, 4.99166346e+00,
          -2.09985781e+00, -2.09985781e+00, -4.97822905e+00,
          -4.97822905e+00, 3.13869905e+00, 3.13869905e+00,
          -8.09145069e+00, -8.09145069e+00, 1.16745281e+00,
          1.16745281e+00, -7.52641487e+00, 1.39625835e+01,
          1.39625835e+01, -4.56249332e+00, 1.10813503e+01,
          1.10813503e+01, -3.53539109e+00, -3.53539109e+00,
          3.74579072e-01, 3.74579072e-01, -2.66690731e+00,
          -2.66690731e+00, -9.53865528e+00, -9.53865528e+00,
          8.37513161e+00, 8.37513161e+00, 3.66065860e+00, 3.66065860e+00,
          -6.06679916e+00, -6.06679916e+00, 9.15642548e-03,
          9.15642548e-03, 4.43018532e+00, 7.42192686e-01, 7.42192686e-01,
          -4.87558651e+00, -4.87558651e+00, 2.08687522e-02,
          2.08687522e-02, 1.25933666e+01, 1.25933666e+01,
          -3.91835213e+00, -3.91835213e+00, -4.96503830e-01,
          -4.96503830e-01, -1.22688711e+00, -1.22688711e+00,
          2.38102007e+00, 2.38102007e+00, -5.65977669e+00,
          -5.65977669e+00, 4.37245131e+00, 4.37245131e+00,
          -6.46059275e+00, -6.46059275e+00, 3.16340834e-01,
          3.16340834e-01, 1.06389701e+00, 1.06389701e+00,
          -4.71793842e+00, -4.71793842e+00, 5.85736156e-01,
          5.85736156e-01, 3.36924267e+00, -3.13304377e+00,
          2.84749913e+00, 2.84749913e+00, -5.82391769e-02,
          -5.82391769e-02, 2.53857732e+00, 2.53857732e+00,
          -7.62005949e+00, -7.62005949e+00, 8.41120529e+00,
          8.41120529e+00, 5.55448198e+00, 5.55448198e+00,
          -1.36856818e+00, -1.36856818e+00, 2.05842638e+00,
          2.05842638e+00, -1.84906459e+00, -1.84906459e+00,
          1.42058611e-01, 1.42058611e-01, 5.76506281e+00, 5.76506281e+00,
          -6.69459522e-01, -6.69459522e-01, 2.14097500e+01,
          2.14097500e+01, 2.17811942e+00, 2.17811942e+00,
          -2.49685740e+00, -2.49685740e+00, 1.17204294e+01,
          1.17204294e+01, 4.44261551e+00, -4.02120972e+00,
          -4.02120972e+00, 1.67067087e+00, 1.67067087e+00,
          3.06288481e+00, 3.06288481e+00, -1.51319218e+01,
          -1.51319218e+01, 1.33092892e+00, 1.33092892e+00,
          7.44137573e+00, 6.85784960e+00, 6.85784960e+00,
          -1.13940060e-01, -1.13940060e-01, 4.57371759e+00,
          4.57371759e+00, 3.59367442e+00, 3.59367442e+00, 6.50035143e+00,
          6.50035143e+00, -4.29793978e+00, -4.29793978e+00,
          2.25817871e+00, 5.89921570e+00, 5.89921570e+00,
          -5.52744865e+00, -5.52744865e+00, -8.00434494e+00,
          -8.00434494e+00, 1.37986588e+00, 1.37986588e+00,
          3.28733921e+00, 3.28733921e+00, 2.61460900e+00, 2.61460900e+00,
          1.80596657e+01, 1.80596657e+01, 1.21196173e-01, 1.21196173e-01,
          -3.96094179e+00, -3.96094179e+00, 1.91549385e+00,
          1.91549385e+00, -3.35719395e+00, -3.35719395e+00,
          -7.12951994e+00, -7.12951994e+00, -3.25989699e+00,
          -3.25989699e+00, -2.37753606e+00, -2.37753606e+00,
          1.25097733e+01, 1.25097733e+01, 2.79585934e+00, 2.79585934e+00,
          5.84948540e+00, 5.84948540e+00, -8.86754322e+00,
          -8.86754322e+00, 7.38866270e-01, 7.38866270e-01,
          -6.53292704e+00, -6.53292704e+00, -1.29161820e-01,
          -1.29161820e-01, 5.50601959e+00, 5.50601959e+00,
          9.88888836e+00, 9.88888836e+00, 7.77833223e+00, 4.81024361e+00,
          4.81024361e+00, 7.76819658e+00, 1.35601091e+01, 1.35601091e+01,
          -4.29299498e+00, -4.29299498e+00, -5.85869074e+00,
          -5.85869074e+00, -4.62363291e+00, -4.62363291e+00,
          -8.57581425e+00, -8.57581425e+00, -2.21978712e+00,
          -2.21978712e+00, 5.84118223e+00, 5.84118223e+00,
          7.29794550e+00, 7.29794550e+00, -5.98113155e+00,
          -5.98113155e+00, -8.09989166e+00, -8.09989166e+00,
          9.61225700e+00, 9.61225700e+00, -8.15770817e+00,
          -1.52402747e+00, -1.52402747e+00, -7.82715702e+00,
          7.85213566e+00, 7.85213566e+00, 7.05645621e-01, 7.05645621e-01,
          8.72092056e+00, 8.72092056e+00, 1.01763964e+00, 1.01763964e+00,
          3.01321363e+00, 3.01321363e+00, -1.62864459e+00,
          -1.62864459e+00, -4.60657930e+00, -4.60657930e+00,
          -2.67700195e+00, -2.67700195e+00, 3.11831141e+00,
          3.11831141e+00, 3.12403131e+00, 3.12403131e+00,
          -6.43578911e+00, -6.43578911e+00, 1.55392575e+00,
          -3.20904303e+00, -3.20904303e+00, 4.14164114e+00,
          4.14164114e+00, 4.78783560e+00, 4.78783560e+00, 1.94161630e+00,
          1.94161630e+00, 2.20660400e+00, -3.85665202e+00,
          -3.85665202e+00, -2.93905437e-01, 1.14729679e+00,
          1.14729679e+00, 1.96520478e-01, 1.96520478e-01, 2.60178757e+00,
          2.60178757e+00, -2.53480935e+00, -2.53480935e+00,
          1.11942935e+00, 1.11942935e+00, 4.37292719e+00, 4.37292719e+00,
          9.14181614e+00, 9.14181614e+00, -7.02777767e+00,
          -7.02777767e+00, 1.97481787e+00, 1.97481787e+00,
          -2.86641645e+00, -2.86641645e+00, -4.77916384e+00,
          -4.77916384e+00, -7.52085590e+00, 7.59279823e+00,
          7.59279823e+00, -5.86209440e+00, -5.86209440e+00,
          2.21878457e+00, 2.21878457e+00, 5.44804764e+00, 5.44804764e+00,
          -7.25096846e+00, -7.25096846e+00, -5.24560452e+00,
          -5.24560452e+00, -6.84648657e+00, -6.84648657e+00,
          -2.55237794e+00, -2.55237794e+00, 1.56039202e+00,
          1.56039202e+00, -1.12043800e+01, 7.61565590e+00,
          7.61565590e+00, 3.06585240e+00, 3.06585240e+00, 2.19981447e-02,
          2.19981447e-02, 1.30691442e+01, 1.30691442e+01,
          -5.72602940e+00, 7.83166599e+00, 7.83166599e+00,
          4.56830025e-01, 4.56830025e-01, -3.06997585e+00,
          -3.06997585e+00, 1.23164072e+01, 1.23164072e+01,
          -4.03847170e+00, -4.03847170e+00, -7.40556300e-01,
          -7.40556300e-01, -2.45442462e+00, -2.45442462e+00,
          9.46025658e+00, 9.46025658e+00, 1.33775759e+01, 1.33775759e+01,
          -6.72965860e+00, -6.72965860e+00, -1.91204476e+00,
          -4.75064707e+00, -4.75064707e+00, 2.47799182e+00,
          2.47799182e+00, 1.55431342e+00, 1.55431342e+00,
          -1.17015374e+00, -1.17015374e+00, 2.71067955e-02,
          2.71067955e-02, 2.62396187e-01, 2.62396187e-01, 7.16989899e+00,
          7.16989899e+00, -2.83086753e+00, 1.00625575e+00,
          1.00625575e+00, 6.16650343e-01, 6.16650343e-01, 7.58766317e+00,
          7.58766317e+00, 2.99999118e+00, 2.99999118e+00,
          -8.39535999e+00, -8.39535999e+00, 2.33772731e+00,
          2.33772731e+00, -1.96480250e+00, -1.96480250e+00,
          2.89649963e+00, 2.89649963e+00, 1.81366241e+00, 1.81366241e+00,
          3.14619517e+00, 3.14619517e+00, 3.81240368e+00, 3.81240368e+00,
          7.01243579e-01, 7.01243579e-01, 1.24820817e+00, 3.15444613e+00,
          3.15444613e+00, -1.05042696e+00, -1.05042696e+00,
          3.18525600e+00, 3.18525600e+00, 1.72505155e-01, 1.72505155e-01,
          -3.38123441e-01, -3.38123441e-01, 2.18130898e+00,
          2.18130898e+00, 1.36553216e+00, 1.36553216e+00, 2.18277478e+00,
          2.18277478e+00, -2.78511739e+00, 1.14592516e+00,
          1.14592516e+00, 8.24031293e-01, 8.24031293e-01,
          -2.82617831e+00, -2.82617831e+00, 5.31939745e-01,
          5.31939745e-01, -1.10298133e+00, -1.10298133e+00,
          -3.80780315e+00, -3.80780315e+00, -2.57630348e+00,
          -2.57630348e+00, -4.40436697e+00, -4.40436697e+00,
          -2.18457127e+00, -2.18457127e+00, -3.84905577e+00,
          -3.84905577e+00, 7.13478708e+00, 2.36915493e+00,
          2.36915493e+00, 3.21885133e+00, 3.21885133e+00, 1.72634959e-01,
          1.72634959e-01, -2.18078804e+00, -2.18078804e+00,
          -2.09001446e+00, -2.09001446e+00, -1.98089764e-01,
          -1.98089764e-01, -1.76753151e+00, -1.76753151e+00,
          1.49876475e+00, 1.49876475e+00, 1.66937947e+00, 1.66937947e+00,
          1.74000084e+00, 1.74000084e+00, -3.74216127e+00,
          -3.74216127e+00, -1.91562605e+00, -1.91562605e+00,
          -1.25607228e+00, -1.25607228e+00, -5.84723997e+00,
          -5.84723997e+00, 2.08419085e+00, 2.08419085e+00,
          4.81109619e+00, 4.81109619e+00, 7.44740963e+00, 7.44740963e+00,
          4.87141037e+00, -3.32404590e+00, -3.32404590e+00,
          -1.55629545e-01, -1.55629545e-01, -7.04000807e+00,
          -7.04000807e+00, -3.80846810e+00, -3.80846810e+00,
          1.05649471e+00, 1.05649471e+00, 2.51462770e+00, 2.51462770e+00,
          -1.89867353e+00, -1.89867353e+00, -1.56162095e+00,
          -1.56162095e+00, -9.66433823e-01, -9.66433823e-01,
          -1.45822212e-01, -3.64378035e-01, -3.64378035e-01,
          -1.27627301e+00, -1.27627301e+00, 9.04524899e+00,
          9.04524899e+00, -5.20809221e+00, -5.20809221e+00,
          -3.47237182e+00, -2.75500464e+00, -2.75500464e+00,
          3.65733361e+00, 3.65733361e+00, -8.92747343e-01,
          -8.92747343e-01, 3.77652526e-01, 3.77652526e-01,
          -3.29530478e+00, -3.29530478e+00, -7.85355902e+00,
          -7.85355902e+00, 5.47006130e+00, 6.20800793e-01,
          6.20800793e-01, -1.49749398e+00, -1.49749398e+00,
          2.09563828e+00, 2.09563828e+00, 2.30662298e+00, 2.30662298e+00,
          -2.26990318e+00, -2.26990318e+00, 3.30016422e+00,
          3.30016422e+00, -2.18641877e+00, -2.18641877e+00,
          1.37638628e+00, 1.37638628e+00, 1.91884339e+00, 1.91884339e+00,
          2.31079125e+00, 2.31079125e+00, 1.52957356e+00, 1.52957356e+00,
          -4.55834293e+00, -4.55834293e+00, 3.16990352e+00,
